~o
<STREAMINFO> 1 39
<VECSIZE> 39<NULLD><MFCC_D_A_Z_0><DIAGC>
~h "M001"
<BEGINHMM>
<NUMSTATES> 5
<STATE> 2
<NUMMIXES> 5
<MIXTURE> 1 1.282829e-01
<MEAN> 39
 -1.951480e+01 -6.923383e-01 -3.147704e+00 -1.165223e+00 5.702577e+00 4.922607e+00 3.139305e+00 6.101192e+00 5.878273e+00 5.118496e-01 3.973297e+00 1.008343e+01 -3.891292e+00 7.327759e-02 5.261610e-01 -3.842593e-02 -1.395407e+00 5.629256e-01 2.488622e-01 2.720877e-01 -3.087766e-01 -2.191500e-01 8.769833e-01 -3.783702e-01 -1.075251e+00 1.697289e+00 5.731381e-01 -2.627311e-01 3.743777e-02 6.070679e-02 1.576341e-01 -2.429561e-02 1.856907e-02 4.160507e-02 -4.260280e-01 -1.322380e-01 -1.762662e-01 -2.654697e-01 -3.080105e-01
<VARIANCE> 39
 9.560114e+01 4.405471e+01 3.002939e+01 3.471731e+01 7.386860e+01 2.895105e+01 3.562687e+01 7.334405e+01 1.793458e+01 1.650620e+01 1.607999e+01 3.525330e+01 3.443064e+01 4.760299e+00 4.617589e+00 3.141177e+00 9.468696e+00 5.646823e+00 4.457198e+00 3.665636e+00 4.882090e+00 2.667343e+00 3.561816e+00 2.557997e+00 3.988126e+00 1.317616e+01 2.197817e-01 1.295207e+00 4.241315e-01 1.472533e+00 1.314937e+00 6.285790e-01 7.275766e-01 1.213070e+00 6.283900e-01 3.333847e-01 3.852645e-01 5.737722e-01 3.976440e-01
<GCONST> 1.317860e+02
<MIXTURE> 2 2.450189e-01
<MEAN> 39
 2.492428e+00 5.977388e-01 -1.299487e+01 -1.416524e+01 5.440685e+00 7.434607e+00 6.994547e+00 -3.289174e+00 4.763418e-01 3.188555e+00 2.565506e+00 -1.606158e+00 1.890828e+00 3.745630e-01 -7.288979e-01 -4.745134e-02 8.494812e-02 -2.385429e-01 3.618675e-02 2.367377e-01 5.983447e-01 -2.953413e-02 -2.335411e-01 -1.941857e-02 1.320191e-01 -1.003463e+00 -5.812427e-02 -4.893582e-02 1.842367e-01 3.712827e-01 -2.711789e-01 -5.154222e-02 -8.503619e-02 1.447255e-01 3.692900e-02 -1.860864e-01 -7.957625e-02 8.676746e-02 -3.325275e-01
<VARIANCE> 39
 2.287274e+01 2.862496e+01 2.057902e+01 3.391707e+01 3.450200e+01 2.183300e+01 3.030366e+01 2.418597e+01 1.615794e+01 2.105047e+01 3.096651e+01 3.181264e+01 1.258570e+02 1.805581e+00 1.561347e+00 1.922486e+00 4.397035e+00 4.999766e+00 1.969643e+00 2.018893e+00 1.737548e+00 1.979072e+00 1.953548e+00 2.991977e+00 3.390777e+00 5.747880e+00 3.296348e-01 4.385785e-01 4.275073e-01 7.198443e-01 7.604568e-01 4.669402e-01 3.067162e-01 3.298409e-01 4.227743e-01 4.457695e-01 5.657316e-01 7.902128e-01 6.893933e-01
<GCONST> 1.183349e+02
<MIXTURE> 3 1.990490e-01
<MEAN> 39
 -4.972625e-01 -7.945175e+00 -3.837719e+00 2.472730e+00 -2.115891e+00 5.589024e+00 4.180148e+00 5.847905e+00 9.540007e-01 -4.983189e+00 -1.550942e-01 4.402565e+00 -2.092865e+01 -5.282244e-01 6.437030e-01 -1.449082e-01 6.676869e-01 6.939731e-02 -7.233544e-02 2.583920e-01 1.665442e-01 1.630799e-01 9.723138e-03 -6.811200e-02 1.966264e-01 1.119440e-01 -3.162667e-01 5.204126e-01 -1.960654e-01 1.527133e-01 8.901016e-02 -1.096692e-01 -2.652602e-03 -4.484189e-01 2.865653e-01 1.441314e-01 8.086346e-02 1.792682e-01 5.926439e-01
<VARIANCE> 39
 1.460696e+01 7.432446e+00 3.116630e+01 3.630017e+01 3.576424e+01 2.598369e+01 2.914235e+01 2.449648e+01 2.334150e+01 2.002254e+01 2.491965e+01 2.129941e+01 1.267169e+01 7.796053e-01 8.597394e-01 1.909565e+00 1.370329e+00 1.978983e+00 1.565363e+00 2.429266e+00 2.291805e+00 2.155809e+00 1.836271e+00 1.979284e+00 1.699568e+00 3.331160e-01 2.801265e-01 3.216561e-01 6.643533e-01 4.075412e-01 3.566366e-01 4.203314e-01 4.904337e-01 5.592045e-01 4.547284e-01 3.596457e-01 5.362868e-01 3.603819e-01 2.684796e-01
<GCONST> 1.049867e+02
<MIXTURE> 4 2.474755e-01
<MEAN> 39
 -4.324828e+00 -2.161320e+00 -4.402357e+00 7.067500e+00 -3.489898e-01 2.756666e+00 4.438250e+00 2.292318e+00 2.929051e+00 -4.069426e+00 -3.847108e-01 6.655951e+00 -1.847978e+01 -6.675605e-01 3.120827e+00 4.137730e-01 5.292218e-01 -3.794256e-01 -1.037144e+00 4.589871e-02 -2.565744e+00 3.441043e-01 4.605752e-01 -7.480343e-01 1.508228e-01 3.565240e+00 2.179936e-01 1.560208e-01 5.766296e-01 -6.127002e-01 -1.822410e-01 -1.645164e-01 -1.623352e-01 -5.304131e-01 -2.375042e-01 4.217629e-01 -1.128104e-01 -3.086528e-01 1.164096e+00
<VARIANCE> 39
 2.675537e+01 6.028643e+01 3.244827e+01 4.575493e+01 3.979119e+01 2.767324e+01 3.246691e+01 4.732269e+01 2.109534e+01 3.024941e+01 2.570340e+01 2.578215e+01 2.258382e+01 8.470613e+00 6.070186e+00 1.189446e+01 7.396533e+00 4.020893e+00 4.582300e+00 5.660482e+00 5.727860e+00 6.337141e+00 3.755067e+00 4.242060e+00 2.480142e+00 4.623689e+00 8.247504e-01 1.164807e+00 1.246408e+00 9.834584e-01 7.799634e-01 8.609170e-01 1.083651e+00 9.206187e-01 6.902448e-01 8.214011e-01 6.363429e-01 5.671514e-01 5.065089e-01
<GCONST> 1.361391e+02
<MIXTURE> 5 1.801729e-01
<MEAN> 39
 -7.264708e-01 -8.947914e+00 -1.634036e+00 5.904154e+00 -8.208669e-01 3.623951e+00 2.690896e+00 3.607204e+00 1.584201e+00 -4.745053e+00 1.592901e-01 4.935615e+00 -2.300451e+01 -1.867354e-01 -7.423601e-02 -7.963335e-02 1.396799e-02 -1.406895e-01 2.280701e-02 4.247617e-03 -2.146421e-01 3.754590e-02 1.975257e-01 -5.127972e-02 -1.533613e-01 -4.027237e-02 -7.292792e-02 9.204770e-02 -1.168335e-01 -3.481596e-02 1.462903e-02 -5.348274e-02 3.923293e-02 7.865377e-02 3.674392e-03 5.568190e-02 1.032813e-01 7.742073e-02 6.674500e-02
<VARIANCE> 39
 5.475158e+00 5.091814e+00 1.385622e+01 1.733280e+01 2.341638e+01 1.622117e+01 3.569778e+01 2.959105e+01 1.728440e+01 1.982371e+01 1.648324e+01 1.662352e+01 7.554993e+00 2.332906e-01 4.038822e-01 5.112484e-01 4.441730e-01 1.188194e+00 1.232588e+00 1.494201e+00 1.760847e+00 1.725550e+00 1.592455e+00 1.639398e+00 1.232455e+00 7.218198e-02 4.152644e-02 7.313466e-02 6.473942e-02 6.844220e-02 1.508734e-01 1.245677e-01 1.638804e-01 2.598013e-01 2.159160e-01 1.651991e-01 1.732029e-01 1.799704e-01 1.867678e-02
<GCONST> 7.432185e+01
<STATE> 3
<NUMMIXES> 5
<MIXTURE> 1 1.404995e-01
<MEAN> 39
 4.878717e+00 5.077020e+00 -8.818930e+00 -1.190622e+01 1.206714e+00 8.103166e+00 4.056200e+00 -7.150313e+00 -2.972558e+00 5.746666e+00 -9.511738e-01 -1.845873e+00 4.566176e+00 -3.852923e-02 -2.223366e-01 -1.822445e-04 1.493030e-02 5.011659e-01 7.544265e-02 2.638946e-02 -1.426937e-01 8.148379e-02 2.999387e-01 -2.235802e-01 -3.891465e-01 -1.688543e-02 -2.459382e-02 -2.218130e-01 2.424632e-01 6.041998e-01 -2.804619e-02 -3.237549e-01 -2.658602e-01 2.547738e-01 1.277996e-01 -2.767484e-01 2.221935e-02 6.046912e-02 -1.304023e-01
<VARIANCE> 39
 9.760266e+00 2.645606e+01 5.105937e+01 7.168427e+01 7.764938e+01 6.657404e+01 9.160614e+01 9.022433e+01 7.096227e+01 6.937022e+01 5.765446e+01 3.559065e+01 1.137666e+01 6.536298e-01 2.615378e+00 2.742544e+00 4.818858e+00 3.328147e+00 4.051257e+00 5.371346e+00 5.025959e+00 4.348389e+00 3.475536e+00 3.261793e+00 3.055720e+00 1.214373e+00 1.324617e-01 2.270515e-01 3.463170e-01 4.737270e-01 5.894513e-01 6.433623e-01 6.988847e-01 8.242447e-01 6.161352e-01 6.929067e-01 6.216711e-01 5.326942e-01 1.479971e-01
<GCONST> 1.250906e+02
<MIXTURE> 2 2.516851e-01
<MEAN> 39
 6.246500e+00 1.323283e+00 1.190962e+00 3.868895e+00 -6.193346e-01 1.211089e-01 -2.082966e+00 4.580589e-01 -1.828670e+00 -8.083706e-01 4.246790e-02 -1.313466e-01 -6.196304e+00 -4.090958e-01 -5.174749e-01 1.941848e-02 -5.311459e-01 1.955298e-01 5.968337e-01 6.982175e-02 5.375602e-01 1.251382e-01 3.407890e-02 -1.948612e-01 1.861044e-01 -1.773934e-01 -7.734634e-01 -3.311794e-01 2.340796e-02 -2.718680e-01 -1.128885e-01 1.325215e-01 7.158304e-02 3.229697e-02 2.593618e-01 5.730944e-02 6.570585e-02 5.018353e-02 7.439385e-01
<VARIANCE> 39
 4.357327e+01 6.564681e+01 1.024230e+02 9.076659e+01 7.192995e+01 8.361649e+01 6.322220e+01 1.404434e+02 6.354847e+01 6.329419e+01 6.018223e+01 3.916133e+01 6.197859e+01 6.603510e+00 5.391936e+00 7.001057e+00 6.952673e+00 7.170047e+00 6.815119e+00 6.164999e+00 9.699095e+00 6.120910e+00 5.550516e+00 4.506135e+00 4.049445e+00 7.713055e+00 5.903130e-01 8.078514e-01 1.019012e+00 1.143621e+00 1.130160e+00 1.114076e+00 1.129652e+00 1.632097e+00 1.118464e+00 9.581860e-01 8.838672e-01 6.777039e-01 8.257411e-01
<GCONST> 1.502884e+02
<MIXTURE> 3 2.401433e-01
<MEAN> 39
 -7.283058e-01 -4.892679e+00 -2.279975e+00 -5.054668e+00 3.644466e+00 -5.214594e+00 7.266462e-01 6.676138e+00 1.702979e+00 -9.545385e-01 -1.488864e-01 -5.221046e+00 1.057371e+01 2.574139e-01 -3.781676e-02 6.793223e-02 2.485060e-01 1.392278e-01 -1.868467e-01 -1.615254e-01 1.467973e-01 2.098950e-03 -2.376560e-01 8.583120e-02 8.650990e-02 -2.430690e-01 1.103485e-01 2.260734e-01 2.125652e-01 2.521314e-01 -1.051994e-01 1.171874e-01 -8.925818e-02 -3.199070e-01 -4.208500e-02 1.004903e-01 -1.069159e-01 1.868877e-01 -3.805425e-01
<VARIANCE> 39
 1.306429e+01 1.375182e+01 7.828838e+01 4.781165e+01 7.461341e+01 4.642829e+01 7.438734e+01 5.696179e+01 6.850601e+01 4.915260e+01 6.788047e+01 3.573117e+01 7.704815e+00 7.038733e-01 1.181914e+00 3.337300e+00 2.607998e+00 3.261196e+00 2.783037e+00 3.922431e+00 3.692338e+00 2.960172e+00 2.805753e+00 2.650227e+00 2.412339e+00 1.034539e+00 1.296821e-01 2.110837e-01 3.144166e-01 3.465188e-01 4.307752e-01 4.452502e-01 5.965907e-01 6.414753e-01 5.297693e-01 4.403675e-01 4.489870e-01 4.303026e-01 1.458063e-01
<GCONST> 1.169679e+02
<MIXTURE> 4 2.074124e-01
<MEAN> 39
 -5.715784e+00 -3.846088e+00 3.808040e+00 2.923256e+00 -2.092061e+00 2.108550e+00 -4.059617e+00 1.695310e+00 2.407293e+00 -1.465727e+00 1.267853e+00 2.185277e+00 3.286947e+00 1.477613e-01 2.213731e-01 -9.987781e-02 -1.844457e-01 -4.942935e-01 -4.824903e-01 -1.490009e-01 -2.530544e-01 -4.978373e-01 -5.951687e-03 4.711730e-01 -2.613390e-01 1.279216e+00 8.143806e-01 4.809540e-01 -3.152201e-01 -1.622567e-01 4.595873e-02 -2.184553e-01 3.445311e-01 -9.247532e-02 -3.602667e-01 1.095467e-01 1.118794e-02 -2.765477e-01 -5.883166e-01
<VARIANCE> 39
 8.637157e+01 6.182067e+01 1.471049e+02 8.726977e+01 9.319453e+01 8.223495e+01 6.121747e+01 8.044237e+01 8.713654e+01 4.704774e+01 5.612876e+01 4.460805e+01 3.390659e+01 9.880644e+00 7.470752e+00 8.760619e+00 9.656225e+00 7.467021e+00 6.888068e+00 6.892488e+00 8.856551e+00 8.417772e+00 5.274704e+00 5.198622e+00 4.684504e+00 8.707887e+00 1.107578e+00 1.189306e+00 1.304286e+00 1.488847e+00 1.434226e+00 1.383739e+00 1.285560e+00 1.349834e+00 1.436788e+00 1.020815e+00 8.803574e-01 8.871195e-01 6.128103e-01
<GCONST> 1.545977e+02
<MIXTURE> 5 1.602546e-01
<MEAN> 39
 2.433289e+00 5.893964e+00 9.122295e+00 5.988121e+00 -7.130323e+00 -5.267526e+00 4.958396e-01 -6.750523e+00 -4.177359e+00 2.419163e+00 7.341108e-02 -2.047338e+00 3.430203e-01 1.931957e-01 7.476355e-01 3.846048e-02 3.925716e-01 -1.198493e-01 -2.145076e-01 1.642616e-01 -6.070576e-01 2.674948e-01 1.703085e-01 -1.390330e-01 1.101884e-01 -6.805797e-01 -2.976462e-02 -3.041460e-01 -2.731550e-01 -2.389692e-01 3.398602e-01 2.473360e-01 -1.589738e-01 4.382665e-01 3.721583e-02 -2.004912e-01 5.178418e-02 1.635496e-02 8.628812e-02
<VARIANCE> 39
 4.343315e+01 3.805277e+01 9.110891e+01 6.716802e+01 7.443285e+01 8.347559e+01 6.242674e+01 8.636114e+01 6.274274e+01 5.130671e+01 9.410738e+01 4.704171e+01 3.013273e+01 7.706003e-01 2.270885e+00 2.686252e+00 3.041172e+00 3.650955e+00 3.430307e+00 3.659017e+00 5.406602e+00 2.855478e+00 3.726661e+00 3.472215e+00 2.232699e+00 9.950391e-01 1.202602e-01 3.286366e-01 4.758228e-01 5.008589e-01 6.837450e-01 6.155184e-01 6.260123e-01 8.156939e-01 5.403452e-01 6.230567e-01 5.619465e-01 4.644428e-01 1.572182e-01
<GCONST> 1.271071e+02
<STATE> 4
<NUMMIXES> 5
<MIXTURE> 1 2.355753e-01
<MEAN> 39
 5.087886e+00 3.369783e+00 -1.230605e+01 -3.025651e+00 1.671726e+00 7.856123e+00 9.339736e-01 -4.216380e+00 -3.044065e+00 3.443971e+00 5.257187e-01 4.179278e+00 -1.291588e+00 1.711975e-01 -5.510328e-01 2.008224e-01 4.441825e-01 8.005344e-02 9.383306e-02 -1.622402e-01 -7.649521e-02 1.457369e-01 -3.290039e-01 -1.910134e-02 2.790769e-01 -4.546240e-01 -3.278362e-01 -1.006605e-01 6.245657e-01 2.189382e-01 -2.375967e-02 -1.135952e-01 -2.079168e-01 1.017190e-01 2.313999e-01 -4.520423e-01 -3.415257e-02 6.773698e-02 -2.512508e-01
<VARIANCE> 39
 6.803945e+01 4.050653e+01 4.590401e+01 8.638737e+01 2.314308e+02 1.295440e+02 7.446903e+01 1.221537e+02 1.432679e+02 8.391341e+01 9.022265e+01 5.941061e+01 4.056116e+01 2.385412e+00 2.833913e+00 5.815477e+00 5.795728e+00 1.137182e+01 5.449169e+00 8.526160e+00 9.121754e+00 8.238998e+00 7.571220e+00 4.535698e+00 3.295790e+00 3.546645e+00 6.634547e-01 4.984425e-01 7.339494e-01 9.687312e-01 1.449602e+00 8.839386e-01 1.109736e+00 1.816229e+00 1.301358e+00 1.019914e+00 1.014453e+00 6.282167e-01 3.617238e-01
<GCONST> 1.493220e+02
<MIXTURE> 2 1.570485e-01
<MEAN> 39
 -2.638242e+01 9.474521e-02 6.028238e+00 1.469233e+00 2.882413e+00 2.901024e+00 1.671025e+00 5.848742e+00 4.159251e+00 -2.716357e+00 2.861038e+00 7.736269e+00 -2.431305e+00 -1.122898e-01 -2.460134e-01 -5.072194e-01 -3.565906e-02 3.750154e-01 1.590662e-01 3.894057e-02 4.744519e-02 2.218997e-01 2.427973e-01 -2.503931e-01 -5.850976e-02 -3.500147e-01 9.685603e-01 1.882624e-01 -2.623599e-02 3.893567e-02 -4.849291e-02 -2.137965e-01 -1.583379e-01 -1.944091e-01 -2.166363e-01 -8.421562e-02 -6.553973e-02 -9.682313e-02 -1.365614e-01
<VARIANCE> 39
 1.372962e+01 5.409655e+01 3.297459e+01 4.442636e+01 5.151260e+01 4.192278e+01 3.447430e+01 2.775589e+01 1.831149e+01 1.832714e+01 2.863597e+01 1.972830e+01 1.207660e+01 6.812346e+00 3.394917e+00 2.345351e+00 2.591172e+00 2.093031e+00 3.862487e+00 3.098425e+00 2.767886e+00 2.271413e+00 1.737293e+00 2.356096e+00 1.252457e+00 3.095641e+00 7.433656e-01 8.319613e-01 4.338403e-01 6.481363e-01 4.743214e-01 9.078183e-01 6.361553e-01 4.920693e-01 4.495568e-01 3.021064e-01 5.221271e-01 2.565263e-01 2.731083e-01
<GCONST> 1.184736e+02
<MIXTURE> 3 1.369461e-01
<MEAN> 39
 -3.889515e-01 7.443007e+00 -9.930645e-01 8.132665e+00 1.026097e+01 -7.267785e+00 1.801085e+00 -1.009420e+01 6.484262e+00 1.329224e+00 -8.612084e+00 2.260862e+00 -6.668925e+00 -9.822081e-02 5.691171e-01 3.607509e-01 6.961435e-01 1.609831e-01 2.553535e-01 -3.114075e-01 -6.585315e-01 1.205997e-01 -4.833239e-01 1.430387e-01 3.013952e-01 -1.415337e+00 -6.717861e-02 -4.042151e-01 5.102348e-02 -2.350880e-01 -3.530328e-01 1.929231e-01 -4.906713e-02 5.107630e-01 -6.251856e-04 -7.435473e-02 2.286773e-01 5.416941e-02 2.100512e-02
<VARIANCE> 39
 2.804395e+01 4.406968e+01 4.472074e+01 5.275550e+01 5.667596e+01 3.321455e+01 5.052297e+01 6.058324e+01 1.342585e+02 7.536576e+01 3.306539e+01 3.360158e+01 6.639148e+01 6.027709e-01 4.457458e+00 2.676459e+00 2.700219e+00 3.782824e+00 3.131822e+00 4.092377e+00 5.627577e+00 3.290870e+00 2.504028e+00 2.376918e+00 2.673201e+00 5.170954e-01 1.160916e-01 5.339215e-01 5.745855e-01 6.141947e-01 5.270494e-01 6.572342e-01 7.607250e-01 7.739943e-01 5.295786e-01 5.712815e-01 4.157298e-01 4.987575e-01 1.319020e-01
<GCONST> 1.242272e+02
<MIXTURE> 4 3.086064e-01
<MEAN> 39
 -4.503928e+00 9.621314e-01 4.143652e+00 2.146097e+00 1.137705e+00 -1.388340e+00 -2.546134e+00 3.587361e-01 2.023987e+00 -4.744770e+00 4.754018e-02 5.222671e+00 -7.281620e+00 -3.320378e-01 -1.509350e-01 -2.234543e-01 -3.274684e-01 -1.321592e-01 1.710001e-01 2.878965e-01 3.686796e-01 2.284114e-01 -1.098745e-02 -1.463589e-01 8.466344e-02 -2.259610e-02 -1.705963e-01 -7.713149e-02 -4.737172e-01 -1.285714e-01 7.578234e-02 1.047096e-01 3.772304e-01 7.141341e-03 -9.173290e-02 4.031665e-01 -1.314725e-02 -8.230077e-02 2.345171e-01
<VARIANCE> 39
 7.424929e+01 7.007295e+01 1.058864e+02 4.666656e+01 5.532520e+01 1.035125e+02 8.189548e+01 6.090575e+01 8.758500e+01 4.569035e+01 4.357251e+01 2.683331e+01 7.309722e+01 1.488905e+01 6.431003e+00 1.067037e+01 6.226920e+00 5.335189e+00 8.260207e+00 7.192685e+00 6.560577e+00 8.660238e+00 6.168902e+00 4.845995e+00 2.862699e+00 6.979307e+00 1.323390e+00 8.111682e-01 1.211247e+00 9.796654e-01 9.450820e-01 1.126641e+00 1.356672e+00 8.723932e-01 1.283859e+00 1.092473e+00 6.941890e-01 4.445972e-01 8.851581e-01
<GCONST> 1.500208e+02
<MIXTURE> 5 1.618220e-01
<MEAN> 39
 -2.032809e+00 -3.889772e+00 -2.099185e+00 2.992886e+00 2.802722e-01 -4.167853e+00 4.149114e+00 2.517303e+00 4.226753e+00 -2.518227e+00 -2.510029e+00 4.618332e+00 -1.080091e+01 2.143317e-01 -6.589802e-01 1.312131e-01 3.204444e-02 -6.389851e-01 -2.069625e-01 -2.570070e-03 6.655089e-01 -6.692457e-01 -2.749879e-01 3.092828e-01 1.117644e-02 -8.276268e-01 -2.286771e-02 3.026476e-01 1.057476e-01 -1.349226e-02 2.498106e-01 -3.247146e-02 -2.322957e-01 -3.564549e-01 3.856890e-02 8.072040e-02 2.371606e-02 -8.955855e-02 1.431548e-01
<VARIANCE> 39
 1.461208e+01 2.512241e+01 2.486530e+01 3.248156e+01 2.404618e+01 9.447731e+01 3.919111e+01 7.001324e+01 4.781818e+01 2.895802e+01 2.360769e+01 2.087101e+01 1.860480e+02 7.210820e-01 1.884267e+00 2.373318e+00 2.400345e+00 2.178246e+00 3.165505e+00 3.013457e+00 3.500616e+00 3.131412e+00 2.454751e+00 1.999317e+00 1.221440e+00 4.608288e-01 1.384119e-01 1.586336e-01 2.664028e-01 2.839437e-01 3.506751e-01 4.176526e-01 5.218843e-01 3.626386e-01 4.845414e-01 4.368332e-01 2.609892e-01 2.231432e-01 1.446657e-01
<GCONST> 1.107572e+02
<TRANSP> 5
 0.000000e+00 1.000000e+00 0.000000e+00 0.000000e+00 0.000000e+00
 0.000000e+00 9.355209e-01 6.447909e-02 0.000000e+00 0.000000e+00
 0.000000e+00 0.000000e+00 9.941303e-01 5.869702e-03 0.000000e+00
 0.000000e+00 0.000000e+00 0.000000e+00 9.722155e-01 2.778447e-02
 0.000000e+00 0.000000e+00 0.000000e+00 0.000000e+00 0.000000e+00
<ENDHMM>
~h "M002"
<BEGINHMM>
<NUMSTATES> 5
<STATE> 2
<NUMMIXES> 5
<MIXTURE> 1 6.497893e-02
<MEAN> 39
 -1.491512e+00 -6.144735e-01 -2.713811e+00 5.941406e+00 5.786984e+00 -3.236470e+00 1.069030e+01 1.632381e-01 5.523290e-01 -2.115752e+00 -3.123089e+00 4.424945e+00 -2.613465e+01 -1.991388e-01 2.828380e-01 6.610492e-02 1.282001e-01 -2.267215e-01 2.798219e-01 -2.898880e-01 -1.682722e-01 -1.253496e-01 4.981468e-03 9.558100e-02 -3.401786e-02 1.060192e+00 -1.625785e-01 2.057786e-01 1.080915e-01 -1.210989e-01 2.803211e-02 5.096345e-02 -1.428284e-01 1.763723e-02 2.305992e-02 1.278355e-01 1.167471e-01 8.790465e-03 7.578433e-01
<VARIANCE> 39
 1.906739e+01 2.070666e+01 1.852282e+01 2.666296e+01 4.061094e+01 2.488097e+01 4.345402e+01 2.823558e+01 1.950894e+01 2.702963e+01 2.712065e+01 2.048322e+01 9.337395e+01 2.489319e+00 1.528194e+00 3.056328e+00 1.808081e+00 2.806365e+00 3.219187e+00 1.827140e+00 1.814990e+00 2.171519e+00 2.128064e+00 1.713158e+00 1.362643e+00 3.965738e+00 2.988091e-01 1.591648e-01 2.875446e-01 4.215132e-01 3.051361e-01 3.998889e-01 3.500308e-01 2.322614e-01 3.157836e-01 4.034273e-01 2.749268e-01 2.096240e-01 8.732755e-01
<GCONST> 1.103953e+02
<MIXTURE> 2 2.516802e-01
<MEAN> 39
 -2.633827e+00 -1.249541e+00 5.703680e+00 1.299727e+00 3.057492e+00 -2.562522e+00 3.359731e+00 4.952351e-01 3.771053e+00 -1.290372e+00 1.218737e+00 -4.223932e-01 -2.484993e+00 1.660520e-02 2.903173e-02 4.827287e-02 2.702401e-02 2.355868e-02 3.732398e-02 1.024471e-01 7.253788e-02 -2.370017e-02 2.730270e-02 -1.562732e-02 1.986262e-02 1.157834e-02 7.270925e-02 8.802456e-02 2.489037e-02 4.550174e-02 1.042631e-03 6.475557e-04 -4.668747e-02 -4.578006e-02 -6.783170e-02 4.471311e-03 2.731515e-02 6.136362e-02 3.378887e-02
<VARIANCE> 39
 1.091565e+00 1.768590e+00 1.160738e+01 5.031409e+00 9.941730e+00 1.540635e+01 1.236111e+01 1.149842e+01 1.226278e+01 1.044690e+01 1.013470e+01 1.017746e+01 8.746452e-01 8.321580e-02 2.109539e-01 4.524070e-01 4.609820e-01 6.549015e-01 1.071079e+00 1.016999e+00 1.221228e+00 1.190448e+00 1.043810e+00 1.166056e+00 1.103829e+00 3.408687e-02 1.732058e-02 4.001701e-02 9.866218e-02 1.036801e-01 1.590827e-01 2.267459e-01 2.272271e-01 2.658398e-01 2.617114e-01 2.081587e-01 2.574381e-01 2.283335e-01 5.476548e-03
<GCONST> 5.815166e+01
<MIXTURE> 3 2.489365e-01
<MEAN> 39
 3.876358e+00 2.659619e-01 -1.372547e+01 -3.181944e+00 -5.028040e+00 7.211773e+00 -4.845849e+00 1.374522e+00 -5.452609e+00 3.464797e+00 -2.310303e+00 2.539730e-01 4.581037e+00 -1.582867e-02 2.375074e-02 1.310737e-01 2.701460e-02 4.416204e-02 -3.141004e-02 7.666582e-02 7.456302e-03 5.278561e-02 -4.084024e-02 -1.087418e-02 -9.700670e-03 -3.072447e-02 -6.629429e-03 6.539333e-04 2.691020e-02 4.711899e-03 1.363964e-02 -8.517689e-03 2.863901e-02 6.207130e-03 1.020111e-02 -1.175811e-02 4.478138e-03 3.732955e-03 -8.393347e-03
<VARIANCE> 39
 1.085092e+01 1.783202e+01 1.009300e+02 2.636549e+01 9.525578e+01 8.126845e+01 2.419569e+01 3.690948e+01 3.010073e+01 2.465531e+01 1.945313e+01 1.453645e+01 9.340583e+00 9.123401e-02 1.786622e-01 7.524956e-01 5.184862e-01 1.051009e+00 1.142298e+00 1.264984e+00 1.223042e+00 1.098787e+00 1.358366e+00 1.450218e+00 1.281426e+00 6.732199e-02 1.461506e-02 3.318481e-02 1.450178e-01 9.937220e-02 2.095594e-01 2.231272e-01 2.593809e-01 2.347371e-01 2.112622e-01 2.767382e-01 3.013409e-01 2.720593e-01 8.674026e-03
<GCONST> 8.112911e+01
<MIXTURE> 4 2.486874e-01
<MEAN> 39
 -5.957334e-01 6.444125e-01 4.281298e+00 4.577062e-01 2.860675e-01 -2.807798e+00 8.273582e-01 -1.097481e+00 3.818878e-01 -1.480805e+00 2.086570e-01 -2.016541e-01 -1.090373e+00 7.377348e-02 1.009278e-01 1.054529e-01 1.976983e-01 2.073528e-01 1.538476e-01 1.763515e-01 8.884764e-02 7.370585e-02 1.379169e-01 2.105068e-01 1.846453e-01 3.490775e-02 -4.601895e-02 -5.493064e-02 7.782216e-03 8.173955e-02 1.233553e-01 1.673661e-02 -1.546521e-02 3.200162e-03 1.252773e-01 4.118262e-02 5.549308e-02 2.252202e-02 -2.471744e-02
<VARIANCE> 39
 7.302016e-01 1.385431e+00 6.125117e+00 3.745148e+00 6.014533e+00 1.055678e+01 7.766584e+00 7.279900e+00 7.835357e+00 8.674754e+00 7.656298e+00 7.779346e+00 8.285324e-01 6.913279e-02 1.785953e-01 3.829646e-01 4.575846e-01 7.098856e-01 7.487136e-01 9.524074e-01 8.466938e-01 1.314036e+00 1.180345e+00 1.026566e+00 8.398351e-01 3.408687e-02 1.216121e-02 2.866872e-02 8.521081e-02 1.034614e-01 1.341598e-01 1.513834e-01 1.883779e-01 1.824539e-01 2.260761e-01 2.400516e-01 2.201277e-01 1.861010e-01 5.095307e-03
<GCONST> 4.970595e+01
<MIXTURE> 5 1.857154e-01
<MEAN> 39
 -8.310307e-01 4.888487e-01 5.048684e+00 2.077904e+00 2.406478e+00 -2.369566e+00 7.813982e-01 -1.191621e+00 1.558386e+00 -1.075076e+00 1.106335e+00 5.082502e-01 -1.309707e+00 -1.520251e-01 -2.099635e-01 -2.087557e-01 -3.180234e-01 -3.108307e-01 -2.933300e-01 -3.702894e-01 -2.082729e-01 -2.938565e-02 -2.109302e-01 -2.571172e-01 -2.844938e-01 -8.059432e-02 -3.104919e-02 -4.585148e-02 -7.600383e-02 -1.900457e-01 -1.851014e-01 -1.988986e-02 5.487233e-02 4.968472e-02 -7.665380e-02 -3.707758e-02 -1.201800e-01 -1.292116e-01 -5.825633e-03
<VARIANCE> 39
 7.302016e-01 2.432573e+00 7.216190e+00 2.919737e+00 6.353669e+00 1.136179e+01 9.485796e+00 9.441077e+00 1.336413e+01 1.499874e+01 1.267490e+01 9.011064e+00 8.285324e-01 6.185579e-02 1.454524e-01 4.148848e-01 4.834234e-01 6.378663e-01 6.913206e-01 9.199597e-01 9.512930e-01 1.221217e+00 1.266999e+00 1.268688e+00 1.025552e+00 3.408687e-02 1.525160e-02 4.388969e-02 8.236615e-02 8.217819e-02 1.146069e-01 1.702873e-01 2.234798e-01 1.835860e-01 3.248625e-01 3.243210e-01 3.049914e-01 2.114949e-01 5.540706e-03
<GCONST> 5.435383e+01
<STATE> 3
<NUMMIXES> 5
<MIXTURE> 1 2.094523e-01
<MEAN> 39
 -1.260149e+00 1.959844e+00 1.553760e+00 2.332329e+00 1.621034e+00 -2.981693e+00 4.217804e+00 -2.069458e+00 5.732974e-01 -6.248758e-01 -2.568984e+00 1.650333e+00 -6.796901e+00 -6.220210e-01 3.336517e-01 -3.846126e-02 -2.035529e-01 -4.519100e-01 3.157290e-01 -8.750743e-01 3.163700e-01 6.525614e-03 1.457684e-01 6.756418e-01 2.628862e-01 2.588675e+00 1.641811e-01 -2.535023e-01 -1.363615e-01 -2.204980e-01 -1.007155e-01 2.777141e-01 -2.836462e-01 1.314280e-01 -1.385264e-01 1.657452e-01 1.387784e-01 -1.812695e-01 1.959410e-01
<VARIANCE> 39
 8.378235e+01 6.260791e+01 1.228483e+02 1.034474e+02 9.107395e+01 9.716710e+01 8.499457e+01 7.648358e+01 7.630369e+01 5.630221e+01 5.926738e+01 4.709955e+01 9.353456e+01 7.987963e+00 5.684764e+00 9.771376e+00 9.438344e+00 8.170863e+00 8.172436e+00 8.237741e+00 7.564353e+00 6.330720e+00 6.652371e+00 4.931317e+00 4.944957e+00 7.474804e+00 1.251548e+00 8.185177e-01 1.450245e+00 1.355746e+00 1.253682e+00 1.330051e+00 1.484853e+00 1.333977e+00 1.073267e+00 1.110715e+00 7.716769e-01 8.587883e-01 1.436047e+00
<GCONST> 1.560388e+02
<MIXTURE> 2 1.273024e-01
<MEAN> 39
 -1.454249e+00 -7.025007e+00 -1.000719e+01 -8.323696e+00 5.011870e+00 9.166802e+00 1.478842e+00 2.750805e+00 5.535594e+00 4.933733e+00 -2.747873e+00 -5.154985e+00 1.275531e+01 -1.273043e-02 -1.771559e-01 7.235658e-02 2.641878e-01 7.723340e-03 -3.393120e-01 7.775502e-03 1.794570e-01 1.091815e-01 -7.566492e-02 -2.781105e-01 -1.467165e-01 8.383292e-02 9.658615e-02 5.993029e-02 1.610629e-01 9.142427e-02 -9.180764e-02 -2.167990e-01 -2.326007e-01 1.005343e-01 -5.943833e-02 -2.038297e-02 7.283363e-02 1.693904e-01 -1.607992e-01
<VARIANCE> 39
 4.483737e+00 1.399840e+01 1.441179e+01 2.909397e+01 1.930729e+01 2.830556e+01 2.890064e+01 2.845003e+01 2.177960e+01 3.893715e+01 2.210998e+01 1.986916e+01 4.653987e+00 2.055346e-01 3.510933e-01 5.526882e-01 6.171998e-01 7.597290e-01 1.062153e+00 1.784869e+00 1.707556e+00 8.468828e-01 1.112949e+00 1.195218e+00 1.005900e+00 1.360691e-01 4.136466e-02 5.870874e-02 9.965144e-02 1.188498e-01 1.381894e-01 1.528010e-01 2.742012e-01 2.373098e-01 1.427659e-01 2.088133e-01 1.926552e-01 1.919911e-01 3.368386e-02
<GCONST> 7.731529e+01
<MIXTURE> 3 1.659409e-01
<MEAN> 39
 -1.299875e+00 4.594414e+00 2.595382e+00 -1.960741e+00 -8.504947e+00 5.463443e+00 -3.416595e+00 -2.032674e+00 -5.927058e+00 -1.880924e+00 7.459091e+00 2.440165e+00 6.643935e+00 -2.573537e-02 1.652641e-01 -2.119215e-03 -3.070678e-01 -7.307202e-02 1.472470e-01 1.640099e-01 -6.647958e-02 -1.197034e-01 -2.242911e-02 1.849794e-03 1.049256e-01 8.903674e-03 5.863445e-02 -8.139804e-02 -3.588692e-02 1.284648e-01 1.275014e-01 -1.585058e-01 4.255246e-02 2.874906e-02 1.361139e-01 2.564076e-02 -1.001704e-01 -8.419608e-02 -8.209375e-02
<VARIANCE> 39
 3.054031e+01 3.595767e+01 1.346890e+02 1.301560e+02 4.745552e+01 9.984624e+01 3.230532e+01 6.081408e+01 4.093690e+01 6.409378e+01 4.273598e+01 2.746978e+01 8.007049e+00 2.365244e-01 4.136636e-01 6.641808e-01 1.369889e+00 9.398160e-01 1.324757e+00 1.084251e+00 1.184941e+00 1.153809e+00 1.044644e+00 1.202855e+00 1.101872e+00 1.738298e-01 3.827317e-02 5.710186e-02 1.086235e-01 1.494003e-01 1.778373e-01 2.062229e-01 1.866959e-01 2.687728e-01 2.202514e-01 1.906826e-01 2.542349e-01 1.530693e-01 4.447492e-02
<GCONST> 9.221316e+01
<MIXTURE> 4 2.620893e-01
<MEAN> 39
 8.225126e-01 -3.926581e+00 -5.088496e+00 -3.897544e+00 9.744657e-01 4.067854e+00 -4.580653e+00 2.555466e+00 2.370585e+00 3.956914e+00 1.753716e+00 -1.635635e+00 8.337935e+00 1.862159e-01 -2.580366e-01 -1.205347e-01 -4.003210e-02 -1.519083e-01 1.552294e-01 -2.326325e-01 1.444639e-01 6.267783e-02 1.706757e-02 2.447082e-01 -9.125226e-02 3.829621e-03 9.052751e-03 1.116388e-01 1.703281e-01 7.940172e-02 1.381213e-01 -5.552658e-02 4.015437e-01 -2.551896e-01 -4.134896e-02 -1.823800e-01 -2.103184e-01 5.078273e-02 -3.748325e-01
<VARIANCE> 39
 1.180351e+01 3.408720e+01 4.389994e+01 8.914456e+01 6.388609e+01 7.563088e+01 5.610350e+01 7.109394e+01 4.991019e+01 5.289314e+01 5.241168e+01 3.328933e+01 1.252605e+01 1.038133e+00 1.662315e+00 3.287526e+00 3.830939e+00 2.906371e+00 5.442539e+00 4.581441e+00 4.604802e+00 3.827629e+00 4.302115e+00 3.573964e+00 3.172927e+00 2.480146e+00 1.467824e-01 2.463459e-01 3.707686e-01 5.807190e-01 4.293679e-01 6.167691e-01 6.828110e-01 8.418093e-01 5.746243e-01 7.449991e-01 5.895590e-01 5.968322e-01 2.305093e-01
<GCONST> 1.255204e+02
<MIXTURE> 5 2.352108e-01
<MEAN> 39
 5.596970e+00 -4.475542e+00 -7.218895e-01 -2.458189e+00 2.698696e+00 3.360152e-01 2.127632e+00 3.498429e-02 8.030164e-01 1.075260e+00 -4.395604e+00 -3.112940e+00 -4.780423e+00 4.736401e-01 3.094185e-02 2.175642e-01 3.141558e-02 2.111611e-01 -2.603148e-01 5.185493e-01 -4.699436e-01 -2.402773e-01 -9.831879e-02 -5.280575e-01 -3.203489e-01 -1.503512e+00 -2.488363e-01 9.640507e-02 -1.424777e-01 8.126516e-03 -1.133269e-01 8.738604e-03 -7.636695e-02 1.163703e-01 8.589096e-02 2.218372e-02 1.530356e-01 9.086929e-02 2.757874e-01
<VARIANCE> 39
 4.689664e+01 5.879771e+01 1.074786e+02 9.511510e+01 8.085347e+01 7.805785e+01 4.953657e+01 7.355322e+01 7.871841e+01 4.962720e+01 5.440847e+01 4.940073e+01 5.894428e+01 1.158725e+00 1.530888e+00 3.010894e+00 2.637185e+00 3.116862e+00 2.410526e+00 3.117172e+00 4.043431e+00 2.876316e+00 2.545372e+00 2.666991e+00 2.656722e+00 1.587598e+00 2.310992e-01 2.893986e-01 5.090486e-01 5.213107e-01 5.692461e-01 4.826624e-01 6.421878e-01 7.081850e-01 5.368695e-01 4.721763e-01 5.154116e-01 5.563962e-01 2.027559e-01
<GCONST> 1.273043e+02
<STATE> 4
<NUMMIXES> 5
<MIXTURE> 1 1.749632e-01
<MEAN> 39
 -4.392180e+00 5.747232e+00 2.702789e+00 6.337339e+00 5.146096e+00 -7.055421e+00 2.118922e+00 -2.553754e+00 -1.422916e+00 -1.370124e+00 -2.172323e+00 3.694933e+00 -6.575191e+00 -1.365698e+00 2.679191e-01 -6.613832e-01 -9.408939e-01 -7.194863e-02 2.287273e-01 -6.620293e-01 5.253888e-01 8.327474e-01 -3.041221e-02 5.472923e-01 8.604856e-01 1.802360e+00 2.619810e-01 -2.987722e-01 1.269914e-01 -3.162461e-01 -7.298027e-01 4.001438e-01 -1.463916e-01 1.554495e-01 -7.838193e-02 1.747916e-02 3.086638e-01 -2.574601e-01 3.262303e-01
<VARIANCE> 39
 1.125326e+02 8.179444e+01 1.588381e+02 6.453007e+01 1.144814e+02 8.336918e+01 1.155126e+02 7.405594e+01 8.836797e+01 5.072871e+01 4.407222e+01 5.561808e+01 6.998153e+01 9.937187e+00 5.589015e+00 1.006616e+01 6.289072e+00 1.191211e+01 7.694932e+00 9.274855e+00 9.977446e+00 7.138658e+00 6.093135e+00 5.158041e+00 4.400929e+00 8.359914e+00 1.455749e+00 7.738023e-01 1.503956e+00 1.082167e+00 1.573720e+00 1.190001e+00 1.585055e+00 1.317718e+00 1.264794e+00 8.385310e-01 8.366073e-01 9.517900e-01 1.207158e+00
<GCONST> 1.569368e+02
<MIXTURE> 2 2.058692e-01
<MEAN> 39
 -1.251765e+00 -5.701887e+00 -6.797354e+00 -5.530648e+00 1.553951e+00 2.567038e+00 -3.693936e+00 6.658723e+00 5.742959e+00 2.277456e+00 -5.149620e-01 -1.324105e+00 1.006338e+01 1.427062e-01 -1.193144e-01 2.535813e-01 4.409142e-01 -4.576781e-02 -3.415365e-01 -3.386551e-01 1.663717e-01 -3.925791e-02 -3.038028e-01 1.702469e-02 3.937174e-02 -3.324202e-01 1.211475e-01 2.841767e-01 3.152855e-01 2.247157e-01 7.387023e-02 -1.724231e-01 4.906276e-02 -3.032194e-01 -2.315513e-01 -9.302595e-02 -5.948655e-02 1.354656e-01 -4.157512e-01
<VARIANCE> 39
 9.989572e+00 2.715992e+01 4.272320e+01 5.885419e+01 6.066241e+01 9.281258e+01 6.550473e+01 8.262838e+01 3.432532e+01 3.909576e+01 3.307959e+01 2.556685e+01 1.051490e+01 7.463223e-01 1.476117e+00 2.928322e+00 2.411597e+00 2.516356e+00 4.245492e+00 3.774217e+00 4.016877e+00 3.726450e+00 2.822448e+00 2.780377e+00 2.324131e+00 1.559931e+00 1.180590e-01 1.771042e-01 3.382275e-01 3.168980e-01 3.950194e-01 4.848844e-01 7.141749e-01 7.278657e-01 5.294907e-01 5.606959e-01 4.323222e-01 4.577293e-01 1.317247e-01
<GCONST> 1.171709e+02
<MIXTURE> 3 1.809103e-01
<MEAN> 39
 -5.590043e+00 3.711608e+00 1.454311e+01 8.893742e+00 -1.251318e+01 -9.579774e+00 -1.822684e+00 2.903494e+00 -5.596802e+00 -7.763021e+00 6.355673e+00 1.075778e+00 4.261102e+00 2.544299e-01 1.016927e-02 1.268668e-01 2.718118e-01 -2.576305e-02 -2.169983e-01 5.078831e-01 -2.084411e-04 -1.113833e-01 5.934693e-02 -3.197728e-01 -1.402856e-01 -5.604613e-01 1.354710e-01 -4.012235e-03 -2.965634e-01 -8.548174e-02 4.554652e-01 2.176099e-02 2.942539e-01 -1.117989e-01 1.057880e-01 2.186437e-01 -2.835886e-01 9.902625e-04 -3.057141e-01
<VARIANCE> 39
 2.157703e+01 4.636387e+01 6.313892e+01 3.083036e+01 4.130988e+01 4.968740e+01 4.069512e+01 5.751324e+01 4.860413e+01 3.085394e+01 3.679195e+01 3.683992e+01 2.274966e+01 1.650346e+00 2.737147e+00 3.694366e+00 2.504389e+00 3.852136e+00 3.109843e+00 5.659158e+00 3.679466e+00 3.863053e+00 2.704654e+00 3.652851e+00 2.348859e+00 2.935074e+00 2.783631e-01 3.528914e-01 4.790391e-01 4.044819e-01 6.241549e-01 5.815887e-01 8.568006e-01 6.977458e-01 6.658957e-01 3.900509e-01 6.199620e-01 4.278961e-01 3.403280e-01
<GCONST> 1.247759e+02
<MIXTURE> 4 2.895751e-01
<MEAN> 39
 8.162136e-01 3.297962e+00 2.051107e+00 2.501965e+00 2.886928e+00 -4.352698e+00 1.594579e+00 -1.025800e+00 1.541754e-01 -1.347815e+00 -2.640536e+00 9.435140e-01 -9.769243e+00 5.706435e-01 -7.870900e-03 6.493375e-02 2.530691e-01 3.379686e-01 -1.340929e-01 4.470379e-01 -3.334924e-01 -2.712991e-01 9.536328e-02 -3.023987e-01 -9.081902e-02 -1.313680e+00 -1.312161e-01 -5.979296e-03 -6.947426e-02 -1.809249e-03 -1.189854e-01 1.258232e-01 -6.535544e-02 2.172538e-02 -3.807103e-03 5.750227e-03 1.225792e-01 -1.877777e-02 2.315359e-01
<VARIANCE> 39
 1.373373e+02 8.426882e+01 1.102244e+02 5.550376e+01 8.283228e+01 9.588157e+01 1.020406e+02 1.067047e+02 8.777152e+01 3.382826e+01 3.471485e+01 5.251065e+01 9.102052e+01 1.724728e+00 1.829704e+00 2.538734e+00 2.629673e+00 2.856735e+00 3.276842e+00 3.171298e+00 3.633868e+00 2.759562e+00 2.190993e+00 2.312018e+00 2.512582e+00 1.311818e+00 3.173532e-01 2.558274e-01 3.997407e-01 4.700499e-01 5.065472e-01 6.600467e-01 5.745043e-01 6.601254e-01 4.977611e-01 4.048710e-01 4.698669e-01 5.035578e-01 1.659739e-01
<GCONST> 1.285152e+02
<MIXTURE> 5 1.486775e-01
<MEAN> 39
 6.738196e+00 2.201180e+00 -1.604222e+00 -5.095372e-01 -3.040671e+00 8.479705e+00 6.442167e-01 -9.387513e+00 -4.101170e+00 1.393890e+00 2.899521e+00 3.632916e-01 -2.034587e+00 5.407964e-02 -2.468161e-01 -3.469825e-02 -2.068888e-01 4.078142e-02 3.232219e-01 -7.118315e-02 -1.878769e-01 1.053272e-01 2.349547e-01 -6.730611e-02 -5.958441e-01 3.716414e-01 -3.915008e-01 -5.011407e-02 -1.410161e-01 1.195888e-01 4.401595e-01 -4.416950e-01 -9.956139e-02 3.276460e-01 3.252481e-01 -1.630769e-01 -2.193502e-01 1.253872e-01 6.011487e-02
<VARIANCE> 39
 2.784578e+01 4.789869e+01 1.335532e+02 1.423398e+02 8.730872e+01 1.574948e+02 1.506910e+02 1.149811e+02 1.419643e+02 9.789267e+01 9.552441e+01 7.925344e+01 5.201446e+01 2.325148e+00 3.045741e+00 7.543983e+00 1.003580e+01 9.331046e+00 1.190712e+01 6.441978e+00 8.257204e+00 9.585941e+00 7.291921e+00 7.681324e+00 4.874889e+00 4.317528e+00 4.023702e-01 4.993416e-01 1.215816e+00 1.646826e+00 1.165473e+00 1.281274e+00 1.111378e+00 1.460220e+00 1.568785e+00 1.554859e+00 1.396304e+00 8.524817e-01 5.980217e-01
<GCONST> 1.552654e+02
<TRANSP> 5
 0.000000e+00 1.000000e+00 0.000000e+00 0.000000e+00 0.000000e+00
 0.000000e+00 9.838059e-01 1.619408e-02 0.000000e+00 0.000000e+00
 0.000000e+00 0.000000e+00 9.914699e-01 8.530131e-03 0.000000e+00
 0.000000e+00 0.000000e+00 0.000000e+00 9.916447e-01 8.355320e-03
 0.000000e+00 0.000000e+00 0.000000e+00 0.000000e+00 0.000000e+00
<ENDHMM>
~h "M003"
<BEGINHMM>
<NUMSTATES> 5
<STATE> 2
<NUMMIXES> 5
<MIXTURE> 1 1.444802e-01
<MEAN> 39
 -4.583985e+00 5.276885e-04 -2.759875e+00 6.435694e+00 7.067046e+00 -2.645468e+00 6.268538e+00 4.459108e+00 -3.591016e+00 5.987880e-01 -3.262735e+00 6.876036e+00 -2.561398e+01 -1.611942e-01 1.667519e-01 -1.561921e-01 -7.013348e-02 -2.951633e-01 6.518316e-03 2.425588e-01 -4.359417e-02 1.902606e-01 -3.967552e-02 1.087514e-01 -2.144960e-01 6.592440e-01 -2.628651e-02 1.843953e-01 3.650144e-01 4.325646e-05 3.094633e-02 2.549805e-01 -1.832861e-01 -1.452452e-01 1.422448e-01 -1.437184e-01 2.124973e-02 -1.436253e-01 5.892213e-01
<VARIANCE> 39
 2.198661e+01 1.172582e+01 1.915630e+01 2.425661e+01 2.800275e+01 3.434644e+01 3.561975e+01 2.388655e+01 3.107560e+01 1.669580e+01 2.416444e+01 1.786958e+01 2.822557e+01 1.664733e+00 1.110032e+00 2.549443e+00 2.863032e+00 2.363303e+00 2.429158e+00 3.432582e+00 2.221016e+00 2.905787e+00 1.891127e+00 1.312579e+00 1.292415e+00 2.515020e+00 2.813575e-01 2.423744e-01 5.744770e-01 4.935510e-01 3.510354e-01 4.273252e-01 4.780979e-01 4.564813e-01 3.689230e-01 2.803334e-01 2.506216e-01 2.710062e-01 5.434734e-01
<GCONST> 1.092477e+02
<MIXTURE> 2 1.611713e-01
<MEAN> 39
 3.097563e+00 4.979026e+00 4.638143e+00 4.887769e+00 1.965643e+00 2.220703e+00 -1.421302e-01 1.369156e+00 -5.979280e-01 4.201398e-01 -2.030866e+00 -3.901777e-01 1.514108e+00 5.903330e-02 1.324558e-01 1.426057e-01 1.294670e-01 1.490612e-01 1.802706e-01 1.438726e-01 1.850889e-01 1.181159e-01 5.857629e-02 -3.619104e-03 5.318823e-02 1.629749e-02 -4.807647e-02 -8.122092e-02 -7.962376e-02 -1.485561e-01 -1.322301e-01 -1.586250e-01 -1.122065e-01 -1.248405e-01 -4.415813e-02 1.751080e-02 1.973585e-02 1.224420e-02 -2.138859e-02
<VARIANCE> 39
 1.894491e+00 6.147368e+00 5.222787e+00 7.702944e+00 6.885623e+00 1.014279e+01 1.545034e+01 1.776065e+01 2.173752e+01 1.407690e+01 1.217697e+01 6.254531e+00 8.285324e-01 7.732771e-02 2.193944e-01 3.697497e-01 7.165439e-01 8.717582e-01 1.088195e+00 1.114128e+00 1.581266e+00 1.462011e+00 1.241949e+00 1.009546e+00 8.289423e-01 3.408687e-02 1.247647e-02 3.220386e-02 4.880395e-02 8.735617e-02 1.304428e-01 1.385019e-01 1.995316e-01 3.117180e-01 3.157317e-01 2.445598e-01 2.102433e-01 1.561418e-01 4.365372e-03
<GCONST> 5.822416e+01
<MIXTURE> 3 2.447857e-01
<MEAN> 39
 5.472833e-02 4.356328e-01 8.123114e-01 -7.712936e-01 -2.206572e+00 -3.105516e+00 -1.520737e+00 -7.919483e-01 -6.298135e-01 -1.316105e+00 -8.778568e-01 -5.985285e-01 -1.588638e-01 6.611329e-02 4.952185e-02 1.296463e-02 4.234866e-02 5.947861e-02 1.097224e-01 4.708643e-02 1.366595e-01 8.052623e-02 4.339834e-02 6.245923e-02 1.454402e-01 4.293089e-02 1.449876e-03 -5.586379e-03 -4.096298e-03 8.395377e-02 2.099086e-01 2.631111e-01 1.963235e-01 1.081586e-01 1.121954e-01 1.041647e-01 7.748444e-02 6.598917e-02 2.534483e-03
<VARIANCE> 39
 1.642478e+00 3.116886e+00 3.940200e+00 4.300848e+00 4.861635e+00 5.844307e+00 7.044377e+00 9.434555e+00 1.139185e+01 1.186563e+01 1.060456e+01 7.508317e+00 8.285324e-01 1.041740e-01 2.585136e-01 4.110815e-01 5.388006e-01 6.964819e-01 7.980767e-01 8.470418e-01 1.132715e+00 1.186635e+00 1.120827e+00 1.199743e+00 1.101894e+00 3.408687e-02 2.536283e-02 7.288263e-02 1.002479e-01 1.208554e-01 1.120403e-01 1.792129e-01 1.860574e-01 2.786038e-01 2.709922e-01 2.479743e-01 2.686224e-01 2.320793e-01 6.356968e-03
<GCONST> 5.610663e+01
<MIXTURE> 4 3.049477e-01
<MEAN> 39
 -1.713526e+00 -2.311263e+00 -1.089566e+00 -1.518611e+00 2.981062e-02 -4.771060e-01 1.723317e+00 7.834369e-01 1.666231e+00 -2.687416e-01 7.087938e-01 1.395926e-01 -9.823757e-01 -1.563365e-02 4.048220e-03 1.850790e-02 -9.058319e-03 -4.569939e-02 -3.554363e-02 3.580035e-02 6.084199e-04 -2.465333e-02 -1.475594e-02 -6.318777e-02 -1.134842e-01 -9.502961e-03 3.798423e-02 6.338576e-02 4.371838e-02 1.535689e-02 -6.766385e-02 -8.493029e-02 -1.267182e-01 -5.426635e-02 -4.139875e-02 -4.274916e-02 -7.175725e-02 -4.276861e-02 1.882872e-02
<VARIANCE> 39
 8.402709e-01 2.199221e+00 5.471435e+00 4.648622e+00 5.768806e+00 5.972323e+00 7.570819e+00 9.650814e+00 8.321683e+00 1.033298e+01 1.003271e+01 8.643444e+00 8.285324e-01 1.085521e-01 2.597699e-01 5.040798e-01 4.872715e-01 6.287268e-01 7.774040e-01 1.172161e+00 1.057263e+00 9.930171e-01 1.263889e+00 1.196051e+00 9.662109e-01 3.645374e-02 2.216395e-02 4.450045e-02 1.004100e-01 1.031135e-01 1.154884e-01 1.381405e-01 2.059278e-01 2.153285e-01 1.896826e-01 2.486644e-01 2.518380e-01 2.280062e-01 7.681666e-03
<GCONST> 5.414727e+01
<MIXTURE> 5 1.446144e-01
<MEAN> 39
 8.768786e-02 -1.297935e+00 -3.964680e+00 -7.686417e-01 1.555712e+00 3.697635e+00 -9.927948e-01 -1.895491e+00 -1.759679e+00 2.214982e+00 2.246242e+00 1.181980e+00 6.299576e-01 -1.515405e-01 -2.396344e-01 -2.030234e-01 -2.346607e-01 -2.097625e-01 -3.798767e-01 -2.836958e-01 -3.764681e-01 -1.637070e-01 -7.453429e-02 6.273554e-02 -4.772246e-02 -7.730350e-02 -2.604208e-02 -2.754032e-02 -1.125963e-03 1.886876e-03 -5.433540e-02 -7.105721e-02 7.315826e-02 7.159613e-02 -6.285270e-02 -9.328199e-02 9.370188e-03 -4.676837e-02 -1.552130e-02
<VARIANCE> 39
 2.875101e+00 1.332190e+01 3.787972e+01 1.179290e+01 2.109360e+01 3.075170e+01 1.218843e+01 2.992445e+01 3.184461e+01 1.569591e+01 2.763311e+01 1.223128e+01 8.285324e-01 1.006847e-01 2.954288e-01 9.676001e-01 6.638627e-01 1.004503e+00 1.202421e+00 1.177977e+00 1.196268e+00 1.304354e+00 1.351065e+00 1.472840e+00 1.372753e+00 4.000041e-02 1.884818e-02 5.266519e-02 1.562707e-01 1.061351e-01 2.074010e-01 2.102335e-01 2.786131e-01 2.765434e-01 2.815214e-01 2.567981e-01 3.146250e-01 2.907770e-01 7.112171e-03
<GCONST> 7.359892e+01
<STATE> 3
<NUMMIXES> 5
<MIXTURE> 1 2.401780e-01
<MEAN> 39
 -1.254578e+00 5.472121e+00 6.219145e+00 4.178279e+00 1.538902e+00 -5.085312e-01 2.118125e+00 1.163285e+00 -5.248699e+00 2.042980e+00 -1.824424e-01 2.599830e+00 -1.017791e+01 6.765130e-01 4.002374e-01 5.514834e-01 -9.339622e-01 -6.438426e-01 7.136144e-01 -8.455120e-01 -8.463921e-01 -4.811441e-03 1.287248e-01 5.338369e-01 -3.936028e-01 1.656108e+00 1.368302e-01 -2.452582e-01 -2.432559e-01 -3.066771e-01 -3.226677e-01 2.389652e-01 -1.967078e-01 -1.723323e-01 3.537853e-02 -1.108685e-01 2.293800e-01 -1.280397e-01 3.049240e-01
<VARIANCE> 39
 1.070420e+02 6.838813e+01 1.416977e+02 8.924905e+01 7.436427e+01 8.172832e+01 6.382061e+01 8.343465e+01 4.578304e+01 4.347082e+01 4.027018e+01 3.116332e+01 7.663081e+01 7.639558e+00 6.180096e+00 8.452390e+00 9.773764e+00 7.596220e+00 8.794303e+00 6.844769e+00 1.168760e+01 3.526661e+00 4.956647e+00 4.399644e+00 4.039922e+00 1.066410e+01 1.129909e+00 1.055650e+00 1.005137e+00 1.379708e+00 1.327249e+00 1.198971e+00 1.092157e+00 1.643466e+00 6.391159e-01 9.770848e-01 7.520652e-01 7.156719e-01 9.790348e-01
<GCONST> 1.517827e+02
<MIXTURE> 2 1.709634e-01
<MEAN> 39
 1.995565e+00 -2.453960e+00 -1.237139e+01 -8.564310e+00 1.672588e+00 1.143404e+01 2.886447e+00 -1.744997e-01 5.028486e+00 -4.512437e+00 -8.618281e-01 -2.463386e+00 9.285832e+00 2.753603e-02 -1.598484e-01 -4.687443e-01 4.308552e-01 5.233944e-01 -4.304953e-01 7.532647e-02 -3.304352e-01 2.590264e-02 -1.033849e-01 -2.492054e-01 -1.030059e-01 8.505750e-02 7.796483e-02 1.578755e-01 3.172649e-01 1.434685e-01 -2.097597e-02 -1.937529e-01 -2.194090e-01 -1.469163e-01 -2.245599e-01 1.334329e-01 9.827071e-02 7.019550e-02 -2.660001e-01
<VARIANCE> 39
 1.399114e+01 3.411517e+01 3.447732e+01 3.683332e+01 5.724044e+01 1.039690e+02 4.522441e+01 5.351025e+01 3.189823e+01 2.848973e+01 6.617999e+01 2.285968e+01 1.172839e+01 4.769670e-01 1.051372e+00 1.809265e+00 7.403492e-01 1.598538e+00 1.977653e+00 3.437126e+00 2.486812e+00 2.050655e+00 1.832547e+00 2.141341e+00 1.270932e+00 7.147493e-01 7.719059e-02 1.417436e-01 1.820761e-01 1.806276e-01 2.471139e-01 3.272613e-01 4.282644e-01 4.988746e-01 3.494076e-01 2.244000e-01 3.887185e-01 2.497953e-01 1.143188e-01
<GCONST> 1.039239e+02
<MIXTURE> 3 2.200011e-01
<MEAN> 39
 -2.236214e+00 2.452138e+00 1.156190e+01 2.653506e+00 -1.218741e+01 1.871691e+00 -7.088065e+00 -3.711120e+00 -7.689856e+00 -2.399098e+00 5.946074e+00 -1.648963e+00 4.865624e+00 -6.843384e-02 1.391363e-01 -8.761903e-02 -2.259856e-01 -4.421194e-02 6.188711e-03 2.416063e-01 -5.280078e-01 -2.247462e-02 9.608074e-02 -2.184688e-01 -1.322572e-01 -7.592312e-02 9.779765e-02 -4.523633e-02 -1.042326e-01 9.575387e-02 2.485041e-01 -1.397271e-01 -8.102188e-02 3.320180e-02 8.429140e-02 -3.199892e-02 -1.596962e-01 7.265035e-02 -1.050698e-01
<VARIANCE> 39
 5.062538e+01 2.238289e+01 9.742314e+01 5.307131e+01 7.372375e+01 6.054336e+01 6.043341e+01 8.234064e+01 2.641484e+01 3.628095e+01 3.259747e+01 3.452674e+01 9.074808e+00 4.588630e-01 6.819106e-01 2.058674e+00 1.510745e+00 1.888507e+00 2.469160e+00 2.402110e+00 2.329782e+00 1.675110e+00 1.682022e+00 1.724124e+00 1.817372e+00 1.752958e-01 7.189842e-02 1.143990e-01 2.168185e-01 2.366992e-01 3.536501e-01 4.027526e-01 4.088762e-01 3.840683e-01 4.124241e-01 3.327290e-01 3.697000e-01 3.732219e-01 5.058301e-02
<GCONST> 1.054235e+02
<MIXTURE> 4 2.174183e-01
<MEAN> 39
 2.363916e+00 -3.645941e-01 3.559084e+00 -2.776930e+00 -6.643042e+00 6.950089e+00 -6.987195e+00 -8.606462e-02 -3.330252e+00 -1.879346e+00 5.423450e+00 -1.156357e+00 5.285461e+00 1.094855e-01 -6.988608e-01 -5.571666e-01 1.560192e-01 -2.903794e-01 1.119389e-01 1.502730e-01 4.352058e-01 3.666836e-01 -3.049238e-01 2.334368e-01 -2.034819e-01 5.864875e-01 -6.320900e-02 2.423449e-01 -8.319178e-02 3.746793e-01 4.376090e-01 -3.143412e-01 6.342985e-01 -4.170008e-01 6.117147e-02 1.970781e-01 -2.720549e-01 1.496205e-02 -5.443904e-01
<VARIANCE> 39
 1.821980e+01 3.277745e+01 1.234378e+02 9.456983e+01 6.917629e+01 1.273422e+02 9.103452e+01 8.511996e+01 5.806583e+01 4.574725e+01 4.323812e+01 3.332254e+01 1.397327e+01 1.875724e+00 3.635532e+00 4.325955e+00 6.133055e+00 7.025757e+00 7.933916e+00 6.206024e+00 7.765986e+00 6.267863e+00 4.667803e+00 5.042202e+00 3.108483e+00 4.252955e+00 3.498985e-01 4.204224e-01 6.198391e-01 1.276867e+00 7.738408e-01 1.483603e+00 6.863401e-01 1.612961e+00 1.025599e+00 8.753968e-01 7.184334e-01 5.755624e-01 2.926559e-01
<GCONST> 1.398076e+02
<MIXTURE> 5 1.514367e-01
<MEAN> 39
 4.529400e+00 2.831610e+00 3.920967e+00 4.100516e+00 -9.795915e-01 3.311906e-01 -1.235064e+00 -1.422564e+01 -2.484963e+00 8.358323e-01 9.091002e-01 -4.515537e+00 5.216766e-01 -2.024130e-01 -2.112301e-01 2.480029e-02 -2.058472e-01 2.837962e-03 3.879088e-02 -4.719699e-01 1.175161e+00 2.533058e-02 -1.892609e-01 -2.873195e-01 1.732506e-01 2.942733e-01 -3.464002e-01 -2.180867e-01 3.150547e-02 -3.247059e-01 -2.593788e-01 2.356145e-01 -1.649652e-01 1.104782e+00 -7.624916e-02 -1.066067e-01 4.286249e-02 1.497734e-01 2.785337e-01
<VARIANCE> 39
 8.843108e+00 2.218243e+01 6.448101e+01 6.199939e+01 3.980175e+01 6.651868e+01 1.623231e+02 1.115288e+02 5.393363e+01 4.219315e+01 5.368454e+01 2.767865e+01 1.403732e+01 1.535285e+00 1.754336e+00 3.860491e+00 4.816546e+00 4.265987e+00 5.179886e+00 4.558133e+00 1.593874e+01 4.977088e+00 3.800490e+00 3.781796e+00 2.667140e+00 2.548345e+00 2.145164e-01 2.713818e-01 5.917816e-01 5.987375e-01 7.568992e-01 9.750308e-01 1.050878e+00 1.824204e+00 9.289410e-01 6.616409e-01 7.125372e-01 6.345773e-01 1.884959e-01
<GCONST> 1.316085e+02
<STATE> 4
<NUMMIXES> 5
<MIXTURE> 1 2.015918e-01
<MEAN> 39
 1.824643e+00 9.342847e-01 -4.595446e+00 2.642630e+00 7.092704e+00 -8.112435e-01 2.456985e+00 4.430846e-01 9.584678e-01 2.086519e+00 -3.652400e+00 4.160695e-01 -7.162324e+00 -8.403489e-01 -5.725530e-03 4.153383e-02 -9.709040e-01 -2.847825e-01 6.087776e-01 -4.269661e-01 9.613164e-01 9.643206e-02 -2.905283e-01 4.457859e-01 5.982555e-02 8.772769e-01 -2.613682e-01 -1.628976e-01 2.131091e-01 -3.719543e-01 -4.327551e-01 1.364776e-01 -1.756638e-01 8.295096e-02 -3.479266e-03 -1.475879e-01 3.511566e-01 -2.999956e-02 6.155198e-01
<VARIANCE> 39
 6.944852e+01 7.013776e+01 1.348429e+02 9.454646e+01 1.145097e+02 9.856354e+01 1.396965e+02 1.494469e+02 8.868392e+01 5.717044e+01 6.454137e+01 4.871485e+01 8.362136e+01 7.590906e+00 5.897901e+00 1.071562e+01 8.350863e+00 1.007610e+01 8.412332e+00 1.054774e+01 1.269135e+01 7.229299e+00 5.459051e+00 6.064666e+00 4.440369e+00 8.146750e+00 1.097108e+00 8.856477e-01 1.360442e+00 1.562843e+00 1.542402e+00 1.381671e+00 1.742207e+00 2.089891e+00 1.271639e+00 1.005739e+00 1.024380e+00 7.489371e-01 1.103591e+00
<GCONST> 1.594626e+02
<MIXTURE> 2 2.252746e-01
<MEAN> 39
 3.787920e+00 -1.064518e+00 -4.436877e+00 -3.433721e+00 -1.045505e-01 4.251082e+00 -4.158296e+00 -1.746784e+00 4.159836e+00 -9.150625e-02 2.139084e+00 -2.415365e+00 3.658463e+00 5.359312e-01 3.965816e-01 8.964944e-02 7.900891e-01 6.237213e-01 -2.798027e-01 3.370863e-01 -6.912912e-01 -2.192249e-01 2.128145e-01 -3.603208e-01 -1.202219e-01 -1.054530e+00 -1.031682e-01 1.009904e-01 -1.815638e-02 3.027715e-01 2.569554e-01 -2.836747e-01 4.483238e-01 4.773583e-02 -1.975725e-01 5.418421e-02 -3.219090e-01 2.283639e-01 -3.104667e-01
<VARIANCE> 39
 1.860791e+01 7.317122e+01 1.027757e+02 7.842209e+01 7.905151e+01 1.312662e+02 1.353844e+02 8.100668e+01 6.991708e+01 5.716069e+01 7.824014e+01 3.542984e+01 3.439657e+01 1.682100e+00 2.944832e+00 3.914119e+00 4.949024e+00 4.336613e+00 5.660629e+00 6.505297e+00 6.885014e+00 4.697752e+00 4.074686e+00 5.121784e+00 3.376067e+00 3.305698e+00 2.737076e-01 4.027824e-01 5.740622e-01 7.661284e-01 7.341720e-01 8.659788e-01 9.307833e-01 1.093342e+00 7.899135e-01 7.623660e-01 8.218032e-01 6.248358e-01 3.491756e-01
<GCONST> 1.390732e+02
<MIXTURE> 3 1.976913e-01
<MEAN> 39
 -9.961039e-01 -8.103994e+00 -8.328876e+00 -1.252357e+00 1.427501e+00 -2.410244e+00 6.615564e+00 3.100321e+00 4.648739e+00 -1.498235e+00 -2.890541e+00 -1.995061e+00 1.155956e+01 1.162399e-01 -2.825308e-01 2.906975e-01 4.364371e-02 -7.657532e-02 -6.765794e-01 -6.099201e-02 1.883715e-01 5.603632e-02 -6.349045e-02 -1.751583e-01 1.607951e-01 -7.871084e-02 9.265552e-02 1.780281e-01 3.392329e-01 6.034759e-03 -8.554509e-02 -3.614051e-02 -3.147901e-01 -5.991418e-02 -3.638509e-02 7.169373e-02 4.797413e-02 3.630913e-02 -2.612621e-01
<VARIANCE> 39
 9.027159e+00 1.869839e+01 9.477150e+01 1.733082e+01 1.040514e+02 4.511750e+01 5.601244e+01 5.723590e+01 3.623171e+01 3.091900e+01 5.128407e+01 2.403515e+01 8.914944e+00 5.033347e-01 9.453426e-01 2.272396e+00 1.370894e+00 2.086966e+00 1.793789e+00 3.052246e+00 1.910169e+00 1.695362e+00 1.668093e+00 2.062635e+00 1.354410e+00 3.948142e-01 8.243886e-02 1.421690e-01 1.807336e-01 2.548870e-01 3.132870e-01 2.706861e-01 4.108818e-01 4.161651e-01 3.025115e-01 3.126080e-01 3.417380e-01 2.620779e-01 8.073093e-02
<GCONST> 1.026314e+02
<MIXTURE> 4 1.671156e-01
<MEAN> 39
 -8.721091e+00 1.973177e+00 1.140416e+01 1.413458e+00 -4.155753e+00 -6.762891e+00 -2.190952e+00 6.368278e+00 -3.952485e+00 1.033377e+00 2.844329e+00 5.663194e+00 -1.638284e+00 -3.789828e-02 -1.548678e-01 -1.411791e-01 -1.613756e-01 -5.342005e-01 2.509129e-01 -3.204844e-01 -8.542167e-02 4.434904e-02 -1.417854e-01 1.952467e-01 -1.285597e-01 4.978946e-01 4.357920e-01 -6.916496e-03 -4.562806e-01 4.100817e-02 2.202231e-01 2.339521e-01 1.765223e-01 -3.502664e-01 1.767727e-01 9.529750e-03 -1.924601e-01 -3.110080e-01 -2.453440e-01
<VARIANCE> 39
 9.918206e+01 7.970082e+01 1.227182e+02 4.714901e+01 1.205086e+02 5.557878e+01 5.661705e+01 6.465195e+01 6.657721e+01 3.024244e+01 4.486071e+01 4.037422e+01 6.078459e+01 7.004113e+00 4.979571e+00 8.129487e+00 4.506615e+00 9.255157e+00 5.522914e+00 6.354943e+00 7.416809e+00 5.545153e+00 3.765168e+00 5.358447e+00 3.959124e+00 9.643583e+00 1.134128e+00 8.503850e-01 9.379628e-01 6.755154e-01 1.417245e+00 8.804693e-01 1.085565e+00 1.109791e+00 9.370561e-01 7.477457e-01 8.117548e-01 6.700994e-01 8.846896e-01
<GCONST> 1.476749e+02
<MIXTURE> 5 2.083207e-01
<MEAN> 39
 1.668120e+00 3.822030e+00 3.708644e+00 8.105653e-02 -6.737410e-01 -1.082562e+00 -7.926057e-02 -3.345922e+00 -1.658931e+00 1.424757e-01 -1.289690e+00 1.304894e-01 -5.100048e+00 2.618665e-02 9.252282e-02 -1.563542e-01 3.129345e-01 2.014229e-01 -1.242896e-01 4.376181e-01 -1.744004e-01 1.317986e-02 2.943336e-01 -1.323398e-01 2.172632e-01 -7.299320e-01 -9.027956e-02 -1.188831e-01 -1.232002e-01 -1.025118e-02 1.569949e-02 4.687833e-02 -1.383263e-01 2.062753e-01 1.051642e-01 8.255237e-03 1.440442e-01 -1.213606e-02 1.952584e-01
<VARIANCE> 39
 7.479151e+01 5.436096e+01 1.790103e+02 8.769059e+01 1.025673e+02 9.410212e+01 1.627019e+02 1.190708e+02 6.505727e+01 3.792484e+01 6.255859e+01 3.379290e+01 9.467068e+01 9.344962e-01 1.376929e+00 2.206159e+00 2.234446e+00 2.708836e+00 2.831932e+00 3.794476e+00 3.785282e+00 2.512694e+00 2.520804e+00 2.542781e+00 1.993401e+00 9.817691e-01 1.905900e-01 2.248334e-01 3.448564e-01 4.224182e-01 5.489004e-01 5.458907e-01 6.486495e-01 7.667398e-01 4.635524e-01 4.860473e-01 5.043988e-01 3.929918e-01 1.581681e-01
<GCONST> 1.267803e+02
<TRANSP> 5
 0.000000e+00 1.000000e+00 0.000000e+00 0.000000e+00 0.000000e+00
 0.000000e+00 9.716372e-01 2.836278e-02 0.000000e+00 0.000000e+00
 0.000000e+00 0.000000e+00 9.803809e-01 1.961913e-02 0.000000e+00
 0.000000e+00 0.000000e+00 0.000000e+00 9.942343e-01 5.765731e-03
 0.000000e+00 0.000000e+00 0.000000e+00 0.000000e+00 0.000000e+00
<ENDHMM>
~h "M004"
<BEGINHMM>
<NUMSTATES> 5
<STATE> 2
<NUMMIXES> 5
<MIXTURE> 1 1.773013e-01
<MEAN> 39
 -1.578344e+00 -2.873086e-01 -1.125151e+01 5.667885e+00 5.125465e+00 2.040206e+00 7.590796e+00 -6.213637e+00 -1.352543e+00 -4.151198e+00 -1.678100e+00 1.681472e+00 -1.445311e+01 1.340286e-01 1.145731e-01 1.228344e-01 2.479114e-01 2.144551e-01 4.028665e-01 9.774944e-02 -1.419750e-01 -5.784370e-02 2.883291e-01 6.111313e-02 -1.229367e-01 2.220574e-01 -4.803874e-02 1.308139e-01 1.978804e-01 -2.996583e-02 -1.718135e-02 4.434158e-02 -1.326118e-01 5.286546e-02 1.335416e-01 9.688434e-02 5.640561e-02 -6.877733e-02 2.378339e-01
<VARIANCE> 39
 1.269193e+01 2.692335e+01 2.895456e+01 2.292771e+01 2.205887e+01 6.727650e+01 1.128287e+02 2.990451e+01 2.599629e+01 6.811765e+01 2.699139e+01 1.611399e+01 1.333194e+02 1.225982e+00 9.848574e-01 3.080873e+00 1.607830e+00 1.368947e+00 3.352335e+00 3.245180e+00 1.553605e+00 1.946679e+00 2.345209e+00 1.395826e+00 1.146125e+00 7.231761e-01 3.283766e-01 2.555141e-01 6.671938e-01 3.458449e-01 2.661754e-01 6.087807e-01 6.581033e-01 2.800422e-01 3.770964e-01 3.877404e-01 3.361056e-01 2.970142e-01 2.982083e-01
<GCONST> 1.115845e+02
<MIXTURE> 2 1.943235e-01
<MEAN> 39
 -7.915007e-01 -6.956665e-01 3.929138e-01 -1.059291e+00 -1.464103e+00 -1.850523e+00 7.546445e-01 1.126185e+00 1.132892e+00 -3.951518e-01 1.951143e-01 3.654054e-01 -5.530348e-01 5.977076e-02 5.638364e-02 2.394786e-02 9.283429e-02 5.945751e-02 1.049775e-01 2.659285e-01 3.588910e-01 2.462564e-01 2.506708e-01 2.180802e-01 1.829027e-01 2.986687e-02 1.151316e-01 1.806281e-01 1.366403e-01 1.627350e-01 1.413853e-01 1.246577e-01 -1.184790e-02 -6.098142e-02 -7.766188e-02 -5.977908e-03 -6.949712e-02 -3.959345e-02 5.082825e-02
<VARIANCE> 39
 7.302016e-01 1.232918e+00 4.189391e+00 4.430597e+00 6.080997e+00 9.191827e+00 6.503543e+00 8.883323e+00 1.156178e+01 1.209948e+01 1.155346e+01 9.199911e+00 8.285324e-01 6.352694e-02 1.721938e-01 4.147184e-01 5.743809e-01 7.766424e-01 1.016069e+00 8.788673e-01 1.059012e+00 1.109606e+00 1.006838e+00 1.198039e+00 9.988768e-01 3.408687e-02 9.836051e-03 2.097302e-02 7.220767e-02 8.470413e-02 1.500610e-01 2.114387e-01 1.638815e-01 2.540603e-01 2.717917e-01 2.691582e-01 3.211366e-01 2.764999e-01 4.365372e-03
<GCONST> 5.196205e+01
<MIXTURE> 3 2.572294e-01
<MEAN> 39
 2.541450e-01 1.027769e+00 2.281378e+00 1.276147e+00 6.162430e-01 8.213855e-02 1.876673e+00 2.094909e+00 1.625259e+00 -2.208460e-01 -1.013303e-01 -2.074146e-02 -1.596065e-01 3.307554e-02 7.843906e-02 8.233553e-02 5.189634e-02 5.982267e-02 5.094411e-02 -2.604806e-02 -1.019179e-01 4.899709e-02 2.768813e-02 -5.800247e-02 5.130005e-02 1.457383e-02 -5.101000e-02 -8.349661e-02 -1.185281e-01 -1.938372e-01 -1.867272e-01 -2.071259e-01 -2.214620e-01 -2.637087e-01 -1.611728e-01 -6.784543e-02 -2.439202e-03 3.757728e-02 -1.775812e-02
<VARIANCE> 39
 7.302016e-01 1.089552e+00 3.797918e+00 3.552839e+00 4.607183e+00 5.907833e+00 5.789243e+00 6.188676e+00 6.909104e+00 8.649219e+00 9.456319e+00 8.295626e+00 8.285324e-01 7.636525e-02 1.641570e-01 3.638533e-01 4.779963e-01 6.564321e-01 7.836455e-01 7.731153e-01 9.666577e-01 1.062892e+00 1.137392e+00 1.094326e+00 1.133554e+00 3.408687e-02 1.066258e-02 2.708808e-02 6.977244e-02 8.296470e-02 1.139941e-01 1.577268e-01 1.617359e-01 1.770618e-01 1.810900e-01 2.043650e-01 2.308937e-01 2.033558e-01 4.888105e-03
<GCONST> 4.659085e+01
<MIXTURE> 4 2.270083e-01
<MEAN> 39
 9.398663e-02 9.945797e-01 1.969896e+00 -6.042297e-02 -1.280191e+00 -2.528827e+00 -7.682068e-01 -9.422291e-01 -8.067748e-01 -1.631819e+00 -1.014139e+00 1.250164e-01 -2.341306e-01 -5.954059e-02 -1.104239e-01 -6.477912e-02 -5.043724e-02 -7.683748e-02 -1.295947e-01 -1.566533e-01 -1.474932e-01 -1.702982e-01 -2.270001e-01 -1.197941e-01 -1.789127e-01 -3.205719e-02 -3.091511e-02 -8.849794e-02 -6.640062e-02 3.650170e-02 1.255043e-01 2.211124e-01 2.102390e-01 2.593924e-01 1.814257e-01 1.123105e-01 8.833580e-02 -3.860350e-03 -1.027202e-02
<VARIANCE> 39
 7.302016e-01 7.835643e-01 3.078424e+00 3.448387e+00 5.034914e+00 6.813236e+00 7.333756e+00 5.761417e+00 7.965283e+00 6.987076e+00 6.943055e+00 8.734174e+00 8.285324e-01 6.455348e-02 1.879221e-01 4.347124e-01 4.977362e-01 7.454236e-01 1.092941e+00 1.105101e+00 1.105534e+00 1.122374e+00 8.918766e-01 1.158242e+00 1.047298e+00 3.408687e-02 1.316767e-02 2.958369e-02 8.582541e-02 8.363022e-02 1.185380e-01 1.567569e-01 1.780480e-01 1.820180e-01 2.092750e-01 1.828049e-01 2.091582e-01 2.144006e-01 5.509369e-03
<GCONST> 4.779248e+01
<MIXTURE> 5 1.441351e-01
<MEAN> 39
 3.027857e-01 -1.083129e+00 -3.168497e+00 -1.536777e+00 6.400144e-01 2.258711e+00 -7.343076e-01 -1.597919e+00 -1.523701e+00 9.838477e-01 6.048526e-01 -3.392742e-01 4.807910e-01 -5.098844e-02 1.097655e-02 9.718678e-02 -1.186848e-01 -1.319325e-01 -1.483204e-01 1.568936e-02 -4.335561e-03 -6.109098e-02 -8.204264e-02 -4.216800e-02 -1.748038e-02 -4.967124e-02 -1.016907e-02 3.442341e-02 1.020960e-01 7.313150e-02 -4.041453e-02 -1.070340e-01 7.136044e-02 1.283047e-01 8.126491e-02 -2.208766e-02 -1.678800e-02 -5.951030e-03 -1.027481e-02
<VARIANCE> 39
 7.302016e-01 1.442365e+00 5.473919e+00 5.891814e+00 1.109265e+01 8.192273e+00 1.296394e+01 1.052661e+01 9.315895e+00 1.431436e+01 9.347382e+00 1.254048e+01 8.285324e-01 8.798265e-02 1.803471e-01 4.112107e-01 5.022562e-01 9.060403e-01 9.466009e-01 8.045633e-01 1.248034e+00 1.282358e+00 1.039340e+00 1.000463e+00 1.406878e+00 3.408687e-02 1.170008e-02 3.226217e-02 7.679909e-02 1.166579e-01 2.334345e-01 2.050928e-01 1.737370e-01 2.248254e-01 2.252817e-01 1.987283e-01 2.044277e-01 3.372599e-01 4.511607e-03
<GCONST> 5.541654e+01
<STATE> 3
<NUMMIXES> 5
<MIXTURE> 1 2.008699e-01
<MEAN> 39
 -7.498639e+00 8.758847e+00 -3.660489e+00 4.773204e+00 3.241262e+00 -4.898053e+00 5.336558e+00 -6.026010e+00 4.352163e+00 -3.947660e+00 9.066773e-01 1.487614e+00 -3.548172e+00 -4.051444e-02 -2.468442e-01 7.926006e-01 -5.644356e-01 -2.477407e-01 3.995444e-01 -1.466127e+00 5.726534e-01 4.559558e-02 4.404211e-01 4.389327e-01 -2.255115e-01 1.687250e+00 4.898119e-01 -5.531574e-01 4.845990e-01 -4.682416e-01 -4.243295e-01 3.225370e-01 -4.521318e-01 5.056391e-01 -4.902503e-01 3.494009e-01 4.983372e-02 -1.413127e-01 3.383165e-01
<VARIANCE> 39
 1.188314e+02 1.062678e+02 1.185310e+02 6.400558e+01 8.402424e+01 1.032415e+02 8.502502e+01 7.519023e+01 7.329146e+01 4.365316e+01 4.336266e+01 3.531176e+01 7.068084e+01 8.589004e+00 7.065568e+00 9.651603e+00 7.456697e+00 8.435806e+00 8.202028e+00 9.901532e+00 7.224281e+00 6.568210e+00 5.623796e+00 4.035034e+00 3.750755e+00 5.813229e+00 9.568408e-01 9.393665e-01 1.344087e+00 1.241215e+00 1.271808e+00 1.290815e+00 1.556075e+00 1.232042e+00 1.186474e+00 8.907319e-01 6.791549e-01 5.679231e-01 7.775291e-01
<GCONST> 1.529269e+02
<MIXTURE> 2 2.477284e-01
<MEAN> 39
 1.912650e+00 -6.053555e+00 2.136461e+00 -5.561975e+00 -3.088407e+00 5.875220e+00 -4.458431e+00 7.323645e+00 -4.346672e+00 3.170057e+00 -1.200118e+00 -1.026177e+00 8.674216e+00 6.649467e-02 9.609565e-02 1.043532e-01 1.777017e-02 1.327163e-01 -1.083337e-01 1.559577e-01 -7.744604e-02 -2.646638e-01 -1.444356e-01 -1.920866e-01 9.466156e-02 -1.819094e-01 1.012543e-01 1.458432e-01 1.390477e-01 1.912527e-01 8.298752e-02 -2.543232e-01 1.854420e-02 -2.895010e-01 6.308621e-02 2.916237e-02 6.598213e-02 -4.966890e-02 -2.490617e-01
<VARIANCE> 39
 1.998935e+01 4.787583e+01 8.312198e+01 5.131266e+01 5.201239e+01 7.415668e+01 6.899319e+01 6.318304e+01 4.934813e+01 4.832172e+01 4.794613e+01 3.430925e+01 1.221854e+01 4.468153e-01 1.018007e+00 1.721363e+00 1.522000e+00 1.599132e+00 2.388690e+00 2.268529e+00 2.128989e+00 2.219954e+00 2.529871e+00 2.065036e+00 1.746382e+00 4.751561e-01 6.294006e-02 1.674404e-01 1.944971e-01 2.579699e-01 2.504927e-01 3.679880e-01 4.212403e-01 3.628890e-01 3.964279e-01 4.659369e-01 3.156734e-01 2.672238e-01 8.110461e-02
<GCONST> 1.080959e+02
<MIXTURE> 3 2.217578e-01
<MEAN> 39
 3.505062e+00 -4.064584e+00 7.159366e+00 -1.555992e+00 -2.036352e+00 -8.303940e-01 -3.586216e+00 5.388019e+00 -5.274594e+00 5.793899e+00 -2.761434e+00 -2.878831e+00 4.316463e+00 3.818370e-01 6.054155e-01 3.153716e-02 7.936162e-01 2.544815e-01 -8.154765e-01 8.217509e-01 -9.846305e-01 3.351450e-01 -1.889365e-01 -2.823894e-02 1.219813e-01 -1.028210e+00 -6.954981e-02 1.617706e-01 -2.749682e-01 5.299272e-02 2.158076e-02 5.456404e-02 2.572812e-01 -1.936012e-01 3.247098e-01 -4.364587e-01 1.714385e-01 6.866495e-02 -1.813485e-01
<VARIANCE> 39
 2.200362e+01 4.511136e+01 7.711396e+01 4.572457e+01 6.822041e+01 7.623375e+01 9.309211e+01 7.658891e+01 7.343938e+01 6.929988e+01 6.295908e+01 4.018283e+01 1.876077e+01 9.218662e-01 2.315598e+00 2.787400e+00 3.453321e+00 2.594263e+00 4.648465e+00 5.403118e+00 4.780596e+00 4.376047e+00 5.794807e+00 3.468602e+00 2.692344e+00 1.716881e+00 1.782447e-01 4.545377e-01 4.966962e-01 5.883430e-01 6.143457e-01 8.795328e-01 1.063699e+00 8.888259e-01 7.449558e-01 8.364057e-01 6.260364e-01 5.774568e-01 2.966504e-01
<GCONST> 1.311279e+02
<MIXTURE> 4 1.710234e-01
<MEAN> 39
 5.310090e+00 1.363318e+00 3.587376e+00 1.479919e+00 -2.511250e+00 -2.579834e+00 3.800502e+00 -3.420384e+00 -4.329875e-01 -2.159397e+00 1.159817e+00 -5.262741e-02 -5.964640e+00 -5.201969e-01 7.951305e-01 -1.070936e+00 6.665089e-01 5.326998e-01 -5.582137e-01 1.064748e+00 -1.060444e+00 9.219621e-01 -7.521595e-01 7.269765e-02 2.480273e-01 -1.317915e+00 -4.438972e-01 -1.467873e-01 -1.518767e-01 -1.940568e-01 7.667831e-02 2.294400e-01 -4.701366e-01 3.822723e-01 -6.376722e-02 2.705936e-01 -6.716290e-02 -9.221894e-02 5.646711e-01
<VARIANCE> 39
 3.047745e+01 4.150394e+01 1.157155e+02 8.753329e+01 7.004649e+01 7.935563e+01 7.794353e+01 6.930207e+01 7.645459e+01 6.900191e+01 4.756681e+01 3.927976e+01 4.590470e+01 2.105495e+00 3.814968e+00 4.733843e+00 3.959910e+00 5.034357e+00 5.783327e+00 6.346807e+00 4.990029e+00 4.346210e+00 5.135169e+00 3.004422e+00 2.690499e+00 2.823358e+00 3.322655e-01 4.433648e-01 7.387761e-01 8.483812e-01 8.848054e-01 9.798369e-01 1.094637e+00 8.205563e-01 8.285064e-01 8.817043e-01 5.174705e-01 4.843897e-01 4.168723e-01
<GCONST> 1.380600e+02
<MIXTURE> 5 1.586142e-01
<MEAN> 39
 3.124073e+00 -4.319727e+00 5.569713e+00 -3.920868e+00 -3.778292e+00 3.395857e+00 -7.503776e+00 2.983039e+00 -1.631525e+00 3.443739e+00 3.109699e+00 -2.700088e+00 5.587662e+00 8.738098e-02 -1.616793e+00 2.292154e-01 -1.227867e+00 -1.019602e+00 1.213470e+00 -1.296461e+00 2.070645e+00 -9.629887e-01 8.747998e-01 -2.039056e-01 -3.308316e-01 1.715892e+00 -2.609902e-01 4.412003e-01 -4.200751e-01 4.601679e-01 3.339730e-01 -3.989651e-01 7.691900e-01 -3.990884e-01 1.549052e-01 -2.371432e-01 -3.354060e-01 3.023241e-01 -5.204775e-01
<VARIANCE> 39
 2.838040e+01 5.360423e+01 9.142722e+01 6.107621e+01 6.540649e+01 7.754525e+01 8.925443e+01 8.830243e+01 6.014542e+01 6.601855e+01 4.495584e+01 3.653001e+01 2.352111e+01 2.851948e+00 3.402414e+00 6.270097e+00 6.625934e+00 5.392603e+00 5.564208e+00 7.543729e+00 5.430946e+00 6.995744e+00 6.263594e+00 3.785294e+00 3.181640e+00 2.391271e+00 3.966993e-01 5.701492e-01 9.760192e-01 9.544050e-01 8.999756e-01 9.261647e-01 1.308074e+00 1.128704e+00 9.506892e-01 1.031151e+00 5.478004e-01 5.557882e-01 4.227741e-01
<GCONST> 1.408183e+02
<STATE> 4
<NUMMIXES> 5
<MIXTURE> 1 2.575544e-01
<MEAN> 39
 -3.120660e+00 5.543223e+00 -1.053176e+01 7.713377e+00 4.841510e+00 -6.003316e+00 5.018672e+00 -7.233076e+00 6.758398e+00 -5.429400e+00 7.973604e-01 4.297512e+00 -8.754616e+00 -1.027452e+00 7.262596e-01 -3.457827e-01 -7.011029e-01 1.399335e-01 2.078105e-01 1.638622e-01 3.218229e-01 4.267325e-01 1.237739e-01 2.752588e-01 8.495447e-02 6.007965e-01 1.007101e-02 -3.844079e-01 4.758253e-01 -6.707574e-01 -3.027797e-01 5.602384e-01 -5.636619e-01 4.162032e-01 -2.539229e-01 2.667139e-01 1.198138e-01 -1.331508e-01 6.109210e-01
<VARIANCE> 39
 1.592310e+02 1.002400e+02 7.488422e+01 5.797386e+01 7.281261e+01 1.173827e+02 1.073658e+02 6.762827e+01 6.297358e+01 5.972545e+01 5.090821e+01 3.306266e+01 3.977879e+01 1.418227e+01 8.553288e+00 9.971588e+00 9.629532e+00 9.102581e+00 9.149940e+00 1.248827e+01 8.233096e+00 7.807951e+00 6.444120e+00 4.132166e+00 3.413847e+00 6.690611e+00 1.264198e+00 7.893047e-01 1.126903e+00 1.266800e+00 1.310541e+00 1.270783e+00 1.620438e+00 1.143928e+00 1.161160e+00 1.080627e+00 7.191741e-01 5.622332e-01 7.336257e-01
<GCONST> 1.543955e+02
<MIXTURE> 2 1.375478e-01
<MEAN> 39
 9.741541e+00 -2.528818e+00 -4.813268e+00 -1.026099e+01 -1.065713e+00 1.377263e+01 -3.998138e+00 -6.558606e+00 -5.509983e+00 4.291235e+00 4.142820e+00 4.786906e+00 1.826952e+00 3.612814e-01 4.581572e-02 -5.872508e-01 1.193119e+00 3.009385e-01 -3.470671e-01 -4.158275e-03 -8.334506e-02 3.959545e-01 -1.338624e-02 -3.856060e-02 -1.727542e-01 -6.277780e-01 -4.933318e-02 1.674136e-01 -2.191454e-01 4.346170e-01 2.186404e-01 -4.484561e-01 1.904209e-01 -2.091131e-01 4.727616e-01 -1.044110e-01 -8.910200e-02 -6.592390e-02 -3.001172e-01
<VARIANCE> 39
 2.965418e+01 2.042053e+01 5.107976e+01 1.567104e+02 6.411128e+01 6.658208e+01 5.987595e+01 1.176172e+02 1.104221e+02 8.158812e+01 7.698114e+01 1.734297e+01 2.436866e+01 9.573323e-01 2.658465e+00 2.952214e+00 7.775124e+00 4.283075e+00 5.242198e+00 4.218986e+00 4.254779e+00 5.711663e+00 3.181057e+00 1.934471e+00 1.352790e+00 1.746120e+00 1.902629e-01 4.184336e-01 4.988544e-01 1.153687e+00 7.126939e-01 6.014380e-01 7.326076e-01 7.864021e-01 6.263733e-01 5.742985e-01 4.522909e-01 2.681724e-01 1.995982e-01
<GCONST> 1.290467e+02
<MIXTURE> 3 1.871734e-01
<MEAN> 39
 5.110732e-01 -2.771845e+00 -5.298299e+00 5.151029e+00 1.517709e+00 -8.051925e-01 4.458727e+00 -2.299258e+00 4.265428e+00 -5.237411e+00 -3.416815e+00 9.929481e-01 -7.760014e+00 -1.978971e-01 1.555296e-01 1.220271e-01 1.717617e-01 -4.641434e-01 -1.085388e-01 1.250286e-01 -4.648542e-01 -5.340169e-01 -5.341514e-01 2.688799e-01 1.609809e-01 -6.381884e-01 7.573955e-02 1.112494e-01 5.779171e-02 7.330179e-02 5.333097e-02 -3.932023e-04 -1.163738e-01 -6.689003e-02 1.202227e-01 2.452477e-02 9.163507e-02 8.185141e-03 2.887386e-02
<VARIANCE> 39
 1.585501e+01 6.054343e+01 4.628144e+01 3.881666e+01 4.762505e+01 4.356540e+01 7.346079e+01 6.619252e+01 3.420238e+01 5.148406e+01 2.352010e+01 1.751666e+01 1.445914e+02 6.602440e-01 1.094452e+00 2.067366e+00 2.048657e+00 2.515453e+00 3.013883e+00 2.861543e+00 2.341553e+00 1.858608e+00 2.120794e+00 1.697474e+00 1.519933e+00 5.828207e-01 1.012883e-01 1.939728e-01 2.430160e-01 2.973469e-01 3.472348e-01 4.812494e-01 5.305456e-01 3.491099e-01 2.856991e-01 3.626277e-01 2.519495e-01 2.209665e-01 1.077350e-01
<GCONST> 1.100429e+02
<MIXTURE> 4 2.527860e-01
<MEAN> 39
 -1.621652e+01 1.385981e+01 -1.029945e+01 4.383057e+00 1.295023e+01 -3.928795e+00 9.061254e+00 -2.265858e+00 6.208618e+00 -6.754673e+00 1.625681e+00 3.293910e+00 -6.418922e+00 9.507111e-02 -2.288901e-01 -7.268643e-02 3.409557e-01 3.825766e-01 2.407933e-01 8.309502e-01 1.621151e-02 -1.684799e-01 -2.523734e-01 -2.982187e-01 3.646882e-02 -8.958141e-01 3.235413e-01 -2.509778e-01 4.065377e-02 2.716268e-02 -3.911441e-01 -1.169492e-01 -1.071545e-01 -1.591880e-01 -2.875311e-02 8.410842e-04 -8.880811e-02 -2.999534e-02 -1.658785e-02
<VARIANCE> 39
 1.875660e+02 1.068280e+02 4.256134e+01 4.686364e+01 4.136757e+01 9.097609e+01 4.816003e+01 3.287489e+01 2.968799e+01 4.586491e+01 3.386226e+01 3.106642e+01 3.802114e+01 2.382406e+00 2.677003e+00 2.874877e+00 2.873155e+00 3.516769e+00 3.376621e+00 4.117119e+00 2.628170e+00 2.780209e+00 2.072049e+00 2.328588e+00 1.748513e+00 1.258851e+00 4.007801e-01 4.592999e-01 5.628177e-01 5.710996e-01 5.307239e-01 5.679458e-01 8.061292e-01 4.349508e-01 5.271595e-01 4.463747e-01 4.113848e-01 3.421912e-01 1.968139e-01
<GCONST> 1.246918e+02
<MIXTURE> 5 1.649358e-01
<MEAN> 39
 2.289037e+00 -6.184820e+00 -2.138865e+00 -1.805302e-01 -2.954397e+00 -9.098660e-01 -7.005152e+00 -3.160431e+00 9.498610e+00 6.202595e-01 -7.989415e-01 -3.722010e-01 3.169303e+00 7.166008e-01 -6.096972e-01 2.829660e-01 -4.741371e-01 5.007890e-02 6.395677e-02 -4.988301e-01 -3.252005e-01 -2.994975e-01 3.295735e-01 -3.428791e-01 -1.953231e-01 1.487304e-01 -3.795438e-01 5.246843e-01 -4.649043e-01 4.533927e-01 5.717434e-01 -2.452538e-01 9.347055e-01 2.576970e-03 -2.422779e-01 -3.402633e-01 -1.405976e-01 2.553237e-01 -6.255108e-01
<VARIANCE> 39
 5.648672e+01 4.960501e+01 8.294046e+01 7.467163e+01 3.971582e+01 1.103643e+02 6.345472e+01 1.179013e+02 5.582345e+01 7.955695e+01 3.807010e+01 3.152180e+01 2.641226e+01 4.241416e+00 6.368485e+00 4.522567e+00 8.017903e+00 5.643754e+00 6.948740e+00 9.358129e+00 8.036901e+00 5.372449e+00 6.712705e+00 2.939768e+00 2.368465e+00 6.625913e+00 8.676417e-01 7.926846e-01 9.297924e-01 1.002091e+00 5.852196e-01 1.103071e+00 8.353497e-01 1.379588e+00 1.061652e+00 1.172929e+00 5.421440e-01 4.896162e-01 4.267550e-01
<GCONST> 1.440087e+02
<TRANSP> 5
 0.000000e+00 1.000000e+00 0.000000e+00 0.000000e+00 0.000000e+00
 0.000000e+00 9.736596e-01 2.634043e-02 0.000000e+00 0.000000e+00
 0.000000e+00 0.000000e+00 9.933658e-01 6.634219e-03 0.000000e+00
 0.000000e+00 0.000000e+00 0.000000e+00 9.808802e-01 1.911979e-02
 0.000000e+00 0.000000e+00 0.000000e+00 0.000000e+00 0.000000e+00
<ENDHMM>
~h "M005"
<BEGINHMM>
<NUMSTATES> 5
<STATE> 2
<NUMMIXES> 5
<MIXTURE> 1 2.017831e-01
<MEAN> 39
 1.934120e+00 1.026368e+00 -2.684131e+00 1.572003e+00 4.969057e+00 -5.445685e-01 5.257927e+00 1.502724e+00 3.333266e+00 -3.694273e+00 -1.143762e+00 -1.263990e+00 -1.319425e+01 3.797916e-02 5.873501e-01 2.728475e-02 4.456806e-01 1.530191e-01 -1.141802e-01 4.364553e-01 3.377736e-01 5.417323e-01 -7.804698e-02 1.096049e-01 -3.976185e-02 -8.028249e-01 -3.632720e-01 5.417000e-03 4.784393e-02 -1.325615e-01 -2.329800e-02 4.022146e-02 -2.605927e-01 -5.650475e-02 -1.178621e-01 1.193071e-01 3.271479e-02 9.179046e-02 5.169263e-01
<VARIANCE> 39
 7.542172e+01 5.078370e+01 6.406673e+01 5.006242e+01 6.737342e+01 5.394205e+01 4.963894e+01 5.979730e+01 3.319380e+01 4.653797e+01 3.933106e+01 4.122644e+01 1.261527e+02 1.702985e+00 1.529590e+00 2.081429e+00 2.426049e+00 2.802110e+00 2.771462e+00 2.458231e+00 2.488699e+00 2.825862e+00 2.978780e+00 2.593201e+00 2.115716e+00 1.610126e+00 4.325407e-01 3.487857e-01 5.444246e-01 6.683485e-01 5.224502e-01 6.118372e-01 4.513337e-01 5.526422e-01 5.412408e-01 6.737412e-01 5.296248e-01 3.972056e-01 4.039011e-01
<GCONST> 1.256070e+02
<MIXTURE> 2 1.631251e-01
<MEAN> 39
 4.632264e+00 5.046811e-01 -7.823649e+00 -5.359374e+00 2.441297e+00 8.105929e+00 -7.926935e+00 -6.038858e+00 -4.916173e+00 3.190871e+00 3.141922e+00 -2.631845e+00 4.235647e+00 7.960997e-01 -1.770513e-01 -2.889472e-02 7.626313e-01 -5.796260e-02 -1.245486e-01 -1.532447e-02 1.322083e-01 3.027831e-01 5.739561e-02 -2.349577e-01 -1.315479e-01 -9.401066e-01 -6.471834e-02 -3.452564e-02 2.044014e-01 2.518144e-01 -6.014694e-02 -2.764286e-01 4.726079e-01 2.402934e-01 2.186865e-01 -2.348919e-01 -2.916452e-01 6.425405e-02 -2.556700e-01
<VARIANCE> 39
 1.902614e+01 3.409233e+01 5.021750e+01 1.041238e+02 3.654593e+01 8.373928e+01 8.108385e+01 4.014556e+01 5.607688e+01 8.162137e+01 5.887267e+01 3.043564e+01 2.171531e+01 1.513735e+00 3.206035e+00 2.240897e+00 8.155887e+00 4.050469e+00 7.331782e+00 6.854113e+00 5.554288e+00 6.534429e+00 6.933537e+00 5.181658e+00 3.252307e+00 3.249768e+00 2.368393e-01 4.912052e-01 3.631725e-01 8.247880e-01 7.766039e-01 1.086975e+00 1.301662e+00 1.072132e+00 9.981506e-01 1.313339e+00 9.883506e-01 6.886895e-01 3.192673e-01
<GCONST> 1.367098e+02
<MIXTURE> 3 1.279263e-01
<MEAN> 39
 -3.221967e+00 -8.113800e+00 -4.514788e-01 -7.082153e+00 -2.981098e+00 -2.771557e+00 1.692694e+00 8.990803e+00 4.685488e-01 -8.820172e-01 -4.951505e+00 5.464653e-01 1.371508e+01 1.151636e-01 1.293099e-01 1.935264e-01 1.283664e-01 -3.233097e-01 -2.502504e-01 7.672566e-02 -2.277916e-01 -7.441186e-01 -7.034379e-03 3.987956e-01 -6.694154e-02 -1.421960e-01 4.023784e-02 2.638009e-01 2.273396e-01 2.501552e-01 1.488227e-01 -4.442655e-02 -2.514305e-01 -4.036573e-01 2.483363e-02 2.748498e-02 5.657305e-02 9.211494e-02 -4.076903e-01
<VARIANCE> 39
 5.870387e+00 2.046037e+01 2.413974e+01 1.205886e+01 2.780354e+01 3.155410e+01 2.328828e+01 2.989744e+01 2.626178e+01 1.442608e+01 5.304549e+01 1.702368e+01 5.072904e+00 4.729165e-01 9.343297e-01 1.658201e+00 1.269100e+00 2.154945e+00 2.346303e+00 2.628559e+00 2.231020e+00 2.156706e+00 1.852260e+00 3.220308e+00 1.561041e+00 6.941825e-01 7.790349e-02 1.905340e-01 2.072917e-01 2.767991e-01 2.732285e-01 3.216920e-01 3.902121e-01 5.409487e-01 3.959282e-01 4.115556e-01 5.781156e-01 2.953427e-01 1.169185e-01
<GCONST> 9.899667e+01
<MIXTURE> 4 3.195983e-01
<MEAN> 39
 -3.315506e+00 2.236461e+00 1.452328e+00 3.283844e+00 2.910053e+00 -1.605951e+00 1.486544e+00 -2.875219e+00 1.293176e+00 -1.176800e+00 -4.014355e-01 5.695522e-01 -4.269371e+00 -4.439797e-01 -3.319166e-01 5.481485e-01 -7.095919e-01 -5.357270e-01 9.739169e-02 -6.189313e-01 -8.450214e-02 -4.934387e-01 1.200134e-01 -5.910008e-02 6.452878e-03 2.377671e+00 2.835202e-01 -1.977011e-01 -8.582401e-02 -2.545157e-01 -2.305743e-01 1.250039e-01 -1.282914e-01 1.167085e-01 -2.116414e-01 1.118531e-01 4.993112e-02 -1.089693e-01 1.525943e-01
<VARIANCE> 39
 7.558247e+01 5.503772e+01 1.052692e+02 1.187280e+02 1.190401e+02 7.921445e+01 8.220903e+01 9.449445e+01 8.052934e+01 8.149378e+01 6.021520e+01 3.457746e+01 1.115537e+02 8.445072e+00 6.504317e+00 8.863317e+00 8.810618e+00 1.225328e+01 7.776578e+00 8.409247e+00 8.139495e+00 7.665388e+00 7.256257e+00 6.737843e+00 4.111946e+00 9.721959e+00 1.375868e+00 1.091654e+00 1.363337e+00 1.379086e+00 2.133358e+00 1.339423e+00 1.390443e+00 1.519979e+00 1.339057e+00 1.241498e+00 1.219998e+00 7.238358e-01 1.579510e+00
<GCONST> 1.591370e+02
<MIXTURE> 5 1.875641e-01
<MEAN> 39
 4.320088e-02 -3.011522e+00 3.578583e+00 -2.286153e+00 -4.543141e+00 5.556929e-01 -3.294067e+00 -1.707689e+00 -4.120901e+00 2.102140e+00 -1.782021e+00 -1.433256e+00 8.027328e+00 3.485932e-01 -2.162656e-01 -5.105200e-01 -2.300670e-01 1.874647e-01 1.237888e-01 -2.415448e-02 4.319552e-02 2.349698e-01 -1.371262e-01 -3.997764e-01 -1.216742e-01 -1.223228e-01 -5.046874e-02 1.423951e-01 -1.638838e-01 2.222972e-01 2.540368e-01 -4.161576e-02 2.862828e-01 -6.508069e-02 2.343691e-01 -1.905245e-01 4.449008e-02 -4.783614e-02 -2.780145e-01
<VARIANCE> 39
 1.612549e+01 3.020115e+01 7.972540e+01 5.268655e+01 3.248769e+01 6.681381e+01 5.138840e+01 7.111656e+01 7.857280e+01 3.562040e+01 3.870029e+01 3.894469e+01 1.491477e+01 1.089736e+00 2.382986e+00 2.692940e+00 4.130472e+00 2.986169e+00 4.416553e+00 5.457015e+00 6.497653e+00 3.738029e+00 3.818771e+00 3.332515e+00 2.550218e+00 2.241589e+00 2.416243e-01 3.399272e-01 3.242056e-01 4.803207e-01 6.408471e-01 7.960536e-01 8.570816e-01 8.629855e-01 7.777653e-01 5.752394e-01 6.595051e-01 6.122129e-01 1.833536e-01
<GCONST> 1.264276e+02
<STATE> 3
<NUMMIXES> 5
<MIXTURE> 1 1.965939e-01
<MEAN> 39
 1.561616e+00 -8.670490e+00 -7.777880e-02 -3.274523e+00 -2.438363e+00 -3.581399e+00 1.192653e+00 7.193687e+00 -9.631990e-01 -1.462168e+00 -3.746337e+00 1.519325e+00 9.464893e+00 7.080155e-01 6.397028e-02 -5.278469e-02 4.438516e-01 1.487766e-01 4.827666e-01 -3.470379e-01 -2.419911e-01 6.847382e-02 -6.867026e-02 -3.353610e-01 9.932654e-02 -3.945445e-01 -1.077085e-01 4.952056e-01 1.566836e-01 4.835744e-01 -1.885115e-01 2.427758e-02 -7.324327e-02 -3.918630e-01 1.013437e-02 -6.572041e-02 2.784663e-01 -1.120801e-01 -3.586783e-01
<VARIANCE> 39
 1.348669e+01 2.450732e+01 4.015781e+01 2.495781e+01 3.124667e+01 3.413963e+01 2.568808e+01 3.112699e+01 2.806645e+01 3.523124e+01 2.582580e+01 1.901311e+01 5.242371e+00 1.189666e+00 1.977304e+00 1.243354e+00 4.060365e+00 3.319053e+00 1.858611e+00 2.945236e+00 2.693965e+00 3.165296e+00 3.051648e+00 2.856414e+00 2.125146e+00 1.187756e+00 2.750412e-01 3.217222e-01 2.214193e-01 4.711706e-01 5.662593e-01 4.052848e-01 4.852272e-01 3.694950e-01 3.808573e-01 5.766368e-01 3.769841e-01 3.996578e-01 1.256317e-01
<GCONST> 1.100440e+02
<MIXTURE> 2 1.646034e-01
<MEAN> 39
 -1.775367e+01 1.162530e+01 7.445843e+00 -3.405451e-01 4.507775e+00 -4.446651e+00 1.922777e+00 2.146914e+00 2.403280e+00 -7.180069e+00 3.642833e+00 1.764485e+00 3.835393e+00 -6.853175e-01 2.293235e-01 2.998866e-01 5.294081e-02 -2.666368e-01 -5.097666e-02 2.807348e-02 6.114537e-02 6.114449e-02 3.007651e-01 2.610976e-01 -9.742592e-02 -4.209526e-01 8.915452e-01 -7.052373e-01 -1.362305e-01 5.046157e-02 -4.382099e-01 -1.100656e-01 -1.324694e-01 -1.540935e-01 -2.894740e-01 3.199327e-01 -2.426012e-01 -1.126584e-01 5.927406e-02
<VARIANCE> 39
 4.094503e+01 3.159080e+01 2.943150e+01 2.447794e+01 4.914536e+01 6.007353e+01 6.156541e+01 4.684021e+01 5.026841e+01 3.588962e+01 3.940805e+01 3.163758e+01 1.586541e+01 1.003243e+01 6.606557e+00 2.187561e+00 1.980730e+00 5.375769e+00 5.555612e+00 4.525502e+00 4.336603e+00 3.972527e+00 3.128782e+00 4.222632e+00 3.520066e+00 1.551994e+00 6.516699e-01 4.530178e-01 4.239080e-01 4.062757e-01 9.652540e-01 1.077696e+00 9.007500e-01 7.993110e-01 5.462652e-01 5.697559e-01 7.052864e-01 6.618425e-01 2.835241e-01
<GCONST> 1.300042e+02
<MIXTURE> 3 2.037250e-01
<MEAN> 39
 7.297958e+00 1.894737e-01 1.644588e+00 1.340757e+01 -1.169894e+01 3.558607e+00 -1.796678e+00 -4.780711e+00 -4.527288e+00 -2.032777e+00 -2.367822e+00 -3.646217e+00 -1.971767e-01 2.687957e-01 7.417264e-01 1.122117e-01 9.023485e-01 -2.939641e-01 -2.679508e-01 3.640626e-01 -3.069164e-01 -1.467380e-01 -8.248281e-02 -1.235163e-01 -1.881174e-01 -7.438112e-01 -2.374052e-01 -1.636853e-01 -7.568832e-02 -7.014771e-01 5.091761e-01 -1.795892e-01 1.748594e-01 3.344589e-01 1.337786e-01 -1.000098e-01 1.063804e-01 8.262201e-02 2.000731e-01
<VARIANCE> 39
 7.122185e+00 3.354634e+01 3.699015e+01 5.611109e+01 4.292037e+01 3.785902e+01 3.721701e+01 5.914334e+01 3.967556e+01 5.795461e+01 5.784267e+01 5.974337e+01 1.630887e+01 6.769902e-01 2.581144e+00 1.977161e+00 6.871665e+00 4.979961e+00 2.833524e+00 3.866053e+00 4.433589e+00 3.551020e+00 3.484071e+00 3.947867e+00 3.745508e+00 1.951745e+00 1.429095e-01 3.357472e-01 3.011747e-01 7.459689e-01 7.590017e-01 5.187523e-01 7.994950e-01 7.703397e-01 8.129902e-01 7.585863e-01 7.240232e-01 7.140517e-01 1.896552e-01
<GCONST> 1.243422e+02
<MIXTURE> 4 2.509981e-01
<MEAN> 39
 -1.109890e+00 -1.213031e+00 4.278015e+00 2.728961e+00 -3.225005e+00 -5.236845e+00 -5.740766e-01 3.503863e-02 -1.807842e+00 -3.379585e+00 -3.314382e-01 -1.591532e+00 3.070309e+00 -4.606701e-02 -7.885484e-01 -2.868210e-02 -7.856295e-01 6.557764e-02 -1.233853e-01 -4.331078e-02 6.490191e-01 2.008453e-01 -2.830705e-01 1.772832e-01 2.664492e-01 9.681029e-01 -2.689154e-01 2.351082e-01 3.471634e-02 -1.011770e-01 -7.642733e-02 2.941995e-01 9.290916e-02 3.995520e-02 -1.724553e-01 2.303489e-01 1.083486e-01 8.075033e-02 8.756789e-03
<VARIANCE> 39
 3.685629e+01 4.480915e+01 5.682360e+01 5.318705e+01 8.070193e+01 5.152755e+01 4.480593e+01 7.342259e+01 8.086146e+01 5.114452e+01 5.966079e+01 2.908798e+01 3.587492e+01 8.409642e+00 6.661829e+00 5.974984e+00 7.393410e+00 8.879122e+00 5.616964e+00 5.059174e+00 7.429630e+00 8.170111e+00 8.910064e+00 5.955980e+00 3.554399e+00 3.077965e+00 8.786612e-01 8.667953e-01 7.763492e-01 9.712323e-01 1.312658e+00 9.734884e-01 9.009580e-01 1.493809e+00 1.085196e+00 9.522406e-01 1.137488e+00 5.707558e-01 5.471405e-01
<GCONST> 1.456983e+02
<MIXTURE> 5 1.840770e-01
<MEAN> 39
 -2.179138e+00 -9.872621e-01 7.226732e+00 -3.665491e+00 -9.554957e+00 -3.526477e+00 7.908984e-01 -4.008764e-01 -1.053986e+01 2.014879e+00 4.432502e+00 -1.507681e+00 6.940827e+00 7.127399e-02 3.948588e-02 -2.033055e-01 3.714123e-02 8.146178e-02 -1.757245e-01 -1.561145e-01 6.600184e-02 -5.890612e-02 1.373239e-01 3.182066e-02 5.057587e-02 -2.080120e-01 2.119323e-02 2.904890e-02 -1.305591e-01 3.226214e-01 3.609174e-01 -8.622507e-02 -7.922427e-02 9.030347e-02 4.076639e-01 -3.879160e-01 -1.752048e-01 3.318753e-02 -1.924299e-01
<VARIANCE> 39
 1.819396e+01 1.766666e+01 6.575298e+01 2.569058e+01 3.289650e+01 4.998269e+01 2.298219e+01 3.174446e+01 3.750417e+01 5.594677e+01 2.901321e+01 2.636132e+01 1.122385e+01 4.295079e-01 1.321758e+00 1.409474e+00 1.608805e+00 2.210920e+00 1.764868e+00 2.409806e+00 3.187786e+00 2.370400e+00 2.750985e+00 2.251701e+00 1.410260e+00 8.946753e-01 1.742098e-01 2.739135e-01 2.949187e-01 2.579848e-01 4.495645e-01 4.105796e-01 4.637098e-01 4.477427e-01 4.321250e-01 5.066127e-01 3.818659e-01 2.939535e-01 1.039587e-01
<GCONST> 1.073083e+02
<STATE> 4
<NUMMIXES> 5
<MIXTURE> 1 1.972626e-01
<MEAN> 39
 5.690226e+00 -3.261972e+00 4.581597e+00 5.321517e+00 -7.720011e+00 -1.448945e+00 -1.030320e+00 1.062124e+00 -7.596646e-01 2.204866e+00 3.437211e+00 3.465798e+00 -4.256294e-01 2.983193e-01 8.003125e-01 3.228461e-01 1.135759e+00 -1.664955e-03 -8.527963e-01 4.649502e-01 -2.716491e-02 2.514101e-01 -1.418223e-01 3.363659e-01 3.079677e-01 -1.493316e+00 -3.588018e-01 4.072470e-01 -2.076921e-01 -3.722871e-01 7.143335e-01 -2.355932e-02 2.755429e-01 4.068704e-02 1.798989e-01 2.655773e-02 -1.159524e-01 -3.498038e-01 -1.322338e-01
<VARIANCE> 39
 2.869737e+01 6.506541e+01 1.072420e+02 5.565268e+01 5.584891e+01 9.370731e+01 8.106110e+01 9.887635e+01 1.192113e+02 5.776279e+01 7.314735e+01 4.098771e+01 4.393414e+01 1.470835e+00 2.637963e+00 3.140972e+00 6.316997e+00 5.871010e+00 5.270506e+00 3.851216e+00 5.312860e+00 5.416219e+00 4.360721e+00 3.530576e+00 2.930496e+00 1.128273e+00 3.296437e-01 5.204535e-01 5.155932e-01 8.660138e-01 9.505854e-01 7.929399e-01 7.705922e-01 8.590298e-01 1.004836e+00 6.111183e-01 7.625040e-01 5.675313e-01 2.174747e-01
<GCONST> 1.363796e+02
<MIXTURE> 2 1.633065e-01
<MEAN> 39
 -1.003120e+01 2.303168e+00 3.171453e+00 -3.485177e+00 3.586545e+00 -3.030540e-01 1.814037e+00 -4.433005e-01 3.367466e+00 -2.430415e-01 3.943930e+00 2.503144e+00 1.004840e+00 -6.121058e-02 -4.961585e-01 6.590444e-02 -6.109670e-01 -6.905456e-01 4.271606e-02 -6.347210e-01 1.070084e-01 -7.391851e-02 3.178776e-01 -1.653012e-01 2.041409e-02 1.241467e+00 1.107306e+00 -8.574231e-02 -3.903317e-01 5.790712e-01 -2.045381e-01 -8.799751e-02 -1.593077e-01 2.320870e-01 -1.135900e-01 1.563492e-01 -3.598625e-01 -1.917818e-01 -5.704309e-01
<VARIANCE> 39
 1.020222e+02 8.250900e+01 7.519580e+01 4.796760e+01 1.312003e+02 5.588230e+01 5.991144e+01 4.985517e+01 9.105302e+01 5.098201e+01 6.149301e+01 3.528302e+01 5.118942e+01 1.536795e+01 6.800017e+00 7.897275e+00 6.001013e+00 8.136789e+00 5.479752e+00 8.209759e+00 6.048556e+00 6.742592e+00 5.619284e+00 5.951068e+00 3.814214e+00 8.850469e+00 1.381021e+00 1.213971e+00 1.118725e+00 1.025418e+00 1.733152e+00 1.133604e+00 1.165982e+00 1.157352e+00 1.172881e+00 1.066005e+00 1.077992e+00 6.365324e-01 7.975045e-01
<GCONST> 1.522659e+02
<MIXTURE> 3 2.181739e-01
<MEAN> 39
 3.055501e+00 -1.603644e+00 -8.680879e+00 -1.207503e+01 4.052082e+00 9.062611e+00 -5.175838e+00 6.010473e-01 2.909197e+00 6.834518e+00 -3.467224e+00 2.611149e-01 7.269770e+00 4.308344e-01 -3.432403e-01 1.906065e-01 8.025340e-01 -2.936717e-01 5.807983e-02 -1.479748e-01 1.031389e-01 1.957463e-01 -4.344229e-02 3.029213e-01 -1.740181e-02 -2.502542e-01 -4.428182e-02 1.903296e-01 1.892669e-01 6.292783e-01 1.553487e-02 -3.577133e-01 2.458149e-01 -1.288218e-01 1.143759e-02 -3.503442e-01 1.630174e-01 1.164374e-01 -4.768819e-01
<VARIANCE> 39
 1.462028e+01 6.874455e+01 2.429467e+01 6.739635e+01 4.458356e+01 9.022161e+01 3.831520e+01 6.470869e+01 6.277497e+01 3.711309e+01 3.908446e+01 3.301749e+01 1.594476e+01 1.089996e+00 2.095718e+00 1.485851e+00 7.011345e+00 4.129393e+00 3.170879e+00 2.619328e+00 3.427794e+00 3.249300e+00 3.325428e+00 3.327887e+00 2.943633e+00 1.937217e+00 2.306083e-01 3.454101e-01 3.474807e-01 6.788269e-01 6.920660e-01 6.650335e-01 5.354019e-01 7.282534e-01 5.971474e-01 5.062414e-01 5.789812e-01 5.216054e-01 2.041889e-01
<GCONST> 1.233768e+02
<MIXTURE> 4 1.701874e-01
<MEAN> 39
 3.456933e+00 2.786788e+00 -4.158454e+00 2.539380e+00 3.990293e+00 -7.962443e-01 2.149119e+00 1.010646e-01 2.272578e+00 1.402780e+00 -4.152544e-01 -9.003011e-01 -9.017432e+00 -1.297987e+00 -3.442584e-01 -5.269112e-01 -2.356483e+00 1.040200e+00 1.422875e+00 -2.071216e-01 -4.657300e-01 -2.712559e-01 6.802177e-01 2.834760e-01 2.858797e-01 1.760392e+00 -3.119258e-01 -3.948148e-01 2.710032e-01 -4.437388e-01 -2.643764e-01 3.142638e-01 -2.885237e-01 -9.232563e-02 -5.086941e-02 -5.918496e-02 1.828673e-01 2.256810e-01 8.945600e-01
<VARIANCE> 39
 7.589262e+01 4.504896e+01 8.536959e+01 1.555537e+02 1.560223e+02 1.194805e+02 9.216351e+01 7.649738e+01 7.669704e+01 7.324918e+01 6.938492e+01 5.141565e+01 7.129273e+01 1.187120e+01 5.830002e+00 9.732094e+00 1.181475e+01 1.541232e+01 1.045438e+01 8.083798e+00 7.542796e+00 8.324465e+00 5.383449e+00 7.447837e+00 4.105247e+00 6.880437e+00 1.722689e+00 6.872618e-01 1.577133e+00 2.266274e+00 2.591606e+00 1.684599e+00 1.788339e+00 1.338774e+00 1.495809e+00 1.052222e+00 1.402180e+00 7.969385e-01 1.298580e+00
<GCONST> 1.610237e+02
<MIXTURE> 5 2.510655e-01
<MEAN> 39
 3.119374e+00 3.685868e+00 -2.576550e+00 5.008159e+00 5.236150e+00 -8.539400e-01 2.840506e+00 1.598759e-01 4.278333e+00 -9.439594e-01 1.118924e+00 1.128208e+00 -1.200953e+01 -2.394327e-01 3.213098e-01 -3.011227e-01 1.760954e-01 6.062168e-01 -3.331933e-01 8.800531e-01 -1.641569e-01 1.974266e-02 -3.468179e-01 -1.949139e-01 -1.931040e-01 -1.678517e+00 -2.539368e-01 -1.688124e-01 9.232215e-02 -3.337725e-01 -2.801561e-01 2.016948e-01 -1.494447e-01 -1.505535e-02 -5.417319e-02 2.166124e-01 4.805828e-03 1.414569e-01 3.824793e-01
<VARIANCE> 39
 6.854570e+01 3.647004e+01 5.022725e+01 7.704586e+01 9.138711e+01 9.837250e+01 5.421363e+01 6.477376e+01 8.886618e+01 5.943240e+01 4.781949e+01 3.715890e+01 6.976353e+01 2.335744e+00 2.927469e+00 4.026988e+00 6.338620e+00 6.859365e+00 4.975217e+00 5.396309e+00 3.948806e+00 4.440880e+00 3.525842e+00 3.829050e+00 3.089433e+00 1.694313e+00 3.358213e-01 4.175008e-01 5.567613e-01 7.255073e-01 9.301927e-01 8.597330e-01 9.205616e-01 7.667654e-01 7.984285e-01 5.797601e-01 6.890755e-01 4.801153e-01 2.069053e-01
<GCONST> 1.359349e+02
<TRANSP> 5
 0.000000e+00 1.000000e+00 0.000000e+00 0.000000e+00 0.000000e+00
 0.000000e+00 9.868008e-01 1.319919e-02 0.000000e+00 0.000000e+00
 0.000000e+00 0.000000e+00 9.790562e-01 2.094381e-02 0.000000e+00
 0.000000e+00 0.000000e+00 0.000000e+00 9.862115e-01 1.378847e-02
 0.000000e+00 0.000000e+00 0.000000e+00 0.000000e+00 0.000000e+00
<ENDHMM>
~h "M006"
<BEGINHMM>
<NUMSTATES> 5
<STATE> 2
<NUMMIXES> 5
<MIXTURE> 1 2.349357e-01
<MEAN> 39
 -5.273084e+00 4.337284e+00 -2.587635e+00 1.381119e+00 4.546054e+00 -4.621620e+00 4.630988e+00 8.410367e-01 -1.727801e+00 9.518334e-01 -4.590892e+00 2.140579e+00 -9.420433e+00 2.171855e-02 3.334847e-01 6.677803e-01 -1.947747e-01 -3.104693e-01 4.963126e-01 -3.669464e-01 -7.775657e-02 2.505003e-02 1.023163e-01 1.924986e-01 -4.122657e-01 1.517147e+00 2.394191e-01 -2.805075e-01 1.591022e-01 -2.126682e-01 -2.639352e-01 3.617658e-01 -2.911102e-01 -8.351637e-02 2.539524e-02 -1.010906e-02 2.482699e-01 -1.841374e-01 5.713854e-01
<VARIANCE> 39
 4.346193e+01 5.999273e+01 7.408491e+01 4.429866e+01 8.282952e+01 7.214349e+01 3.679488e+01 4.833173e+01 6.003169e+01 3.359714e+01 2.471258e+01 2.309454e+01 1.731042e+02 6.342427e+00 5.851620e+00 5.819490e+00 4.646870e+00 6.047860e+00 6.587541e+00 4.713358e+00 5.305650e+00 4.165623e+00 4.063048e+00 3.183190e+00 2.729815e+00 1.095125e+01 1.017762e+00 9.418336e-01 8.984521e-01 8.597340e-01 9.290748e-01 1.005266e+00 6.689443e-01 9.268571e-01 7.735708e-01 7.134878e-01 4.424681e-01 5.458961e-01 1.300061e+00
<GCONST> 1.415288e+02
<MIXTURE> 2 1.547953e-01
<MEAN> 39
 5.507667e-01 -9.263913e+00 -2.237213e+00 -1.779515e+00 -1.545855e+00 3.039075e+00 2.561014e+00 5.414929e+00 6.388626e+00 -8.310978e-01 -8.020183e-01 -2.478335e+00 1.255599e+01 -5.240002e-02 2.819793e-01 5.874917e-01 7.658324e-01 -5.225762e-01 -9.855281e-01 1.315364e-02 2.166273e-01 1.953505e-01 -5.901132e-01 1.637801e-01 6.136162e-01 -2.124588e-01 -5.491982e-02 5.449295e-01 2.190931e-01 1.174886e-01 -2.892793e-02 -1.380660e-01 -2.207927e-01 -3.857550e-01 -3.681707e-01 6.992674e-04 2.299435e-01 1.862341e-01 -3.665572e-01
<VARIANCE> 39
 6.784002e+00 1.894080e+01 2.894327e+01 2.037142e+01 2.445862e+01 4.683505e+01 3.444751e+01 7.452740e+01 2.547971e+01 2.179437e+01 2.111576e+01 2.351214e+01 8.995347e+00 4.178798e-01 2.072768e+00 1.760929e+00 1.547450e+00 1.671127e+00 2.509481e+00 2.937664e+00 7.973993e+00 2.642906e+00 2.073516e+00 2.645832e+00 2.033571e+00 9.240711e-01 6.605140e-02 1.460410e-01 1.895209e-01 2.503828e-01 2.869782e-01 3.399491e-01 6.941392e-01 7.901739e-01 4.703475e-01 4.468419e-01 4.381604e-01 3.456292e-01 7.891605e-02
<GCONST> 1.046778e+02
<MIXTURE> 3 2.614481e-01
<MEAN> 39
 3.877897e-02 2.371738e+00 -1.324631e-02 1.995142e+00 1.273071e+00 4.502068e-01 3.189360e+00 -1.877437e+00 -2.620423e+00 -1.485903e+00 -3.465406e+00 1.083776e+00 -7.256568e+00 -6.014786e-02 1.708857e-01 -4.731849e-02 -1.274894e-01 3.834358e-02 2.224311e-01 1.107507e-01 -2.076589e-01 5.485568e-02 -3.901733e-02 -1.119614e-01 6.192746e-03 -1.491370e-01 -2.265440e-02 -9.969949e-02 -4.474984e-02 -1.484048e-01 2.517613e-02 8.923392e-03 -8.101410e-02 1.076427e-01 5.594998e-02 1.743523e-01 1.017143e-01 -5.813899e-02 1.331911e-01
<VARIANCE> 39
 2.514627e+01 3.607952e+01 5.030895e+01 3.116583e+01 5.729930e+01 5.708267e+01 7.456857e+01 4.169976e+01 3.638647e+01 3.574998e+01 2.729137e+01 1.416609e+01 1.810103e+02 3.561952e-01 7.221329e-01 1.159471e+00 1.198054e+00 1.656543e+00 1.390142e+00 2.550687e+00 2.137323e+00 2.065965e+00 1.865026e+00 1.803348e+00 1.201318e+00 3.571570e-01 1.119120e-01 2.041873e-01 2.953427e-01 2.689674e-01 3.716715e-01 2.827511e-01 5.647089e-01 4.732727e-01 4.151723e-01 4.341905e-01 3.537778e-01 2.298224e-01 9.666544e-02
<GCONST> 1.064568e+02
<MIXTURE> 4 2.199646e-01
<MEAN> 39
 1.311492e+00 2.465184e+00 -9.916802e-02 -3.849966e+00 1.430651e-02 7.926536e+00 -6.541973e-01 -3.507303e+00 -1.192804e+00 1.518583e+00 4.870062e-01 -2.838056e+00 4.276475e+00 1.923044e-01 -1.191449e+00 -6.402709e-01 -5.124350e-01 -9.036519e-02 4.640948e-01 -2.065548e-01 1.515944e-01 4.555193e-01 4.775909e-01 4.541720e-01 -3.792881e-01 1.377855e+00 -2.301169e-01 8.620692e-03 -2.434440e-02 3.534611e-01 -6.359426e-03 -3.938246e-01 3.118579e-01 2.649827e-01 9.850726e-02 -2.963655e-01 -2.520547e-01 2.022106e-01 -2.454655e-01
<VARIANCE> 39
 1.362772e+01 4.626893e+01 7.116188e+01 7.405460e+01 5.270713e+01 7.638878e+01 8.912893e+01 5.999918e+01 5.103217e+01 4.777274e+01 3.676318e+01 3.939159e+01 3.495479e+01 1.376714e+00 4.060799e+00 4.535791e+00 5.392235e+00 4.708122e+00 5.739065e+00 7.328648e+00 5.274569e+00 5.002883e+00 4.789126e+00 4.346321e+00 4.162783e+00 5.968600e+00 2.096234e-01 6.342596e-01 9.489564e-01 8.429657e-01 7.560345e-01 8.769568e-01 1.191497e+00 9.528973e-01 7.234532e-01 8.204750e-01 8.907300e-01 7.899010e-01 6.471273e-01
<GCONST> 1.381040e+02
<MIXTURE> 5 1.288530e-01
<MEAN> 39
 -3.236046e+00 -4.090764e+00 8.830942e+00 -1.184819e+00 -9.100528e+00 -3.592771e+00 -3.914614e+00 8.458616e+00 -2.580033e+00 -2.711784e+00 5.167617e+00 2.038943e+00 1.048886e+01 1.858815e-01 1.705429e-01 -1.354318e-01 1.663958e-01 2.913542e-01 -2.296130e-01 8.399469e-02 -1.728961e-01 -1.456697e-01 -7.734767e-02 -3.831973e-02 1.676976e-02 -3.786688e-01 2.137835e-02 1.221734e-01 -3.124506e-01 9.107645e-02 4.422839e-01 1.919351e-01 2.178545e-01 -2.863119e-01 2.138809e-01 8.159909e-02 -4.878400e-01 -1.722235e-01 -2.918589e-01
<VARIANCE> 39
 1.105809e+01 2.951830e+01 3.260810e+01 1.600706e+01 2.139103e+01 3.535606e+01 2.187610e+01 3.981855e+01 2.592287e+01 2.219494e+01 2.146916e+01 1.227368e+01 1.362463e+01 1.135611e+00 2.921367e+00 2.449725e+00 1.212088e+00 3.159372e+00 2.317202e+00 3.842912e+00 3.927965e+00 2.898906e+00 1.820543e+00 3.397945e+00 1.855973e+00 1.476029e+00 2.277824e-01 2.593768e-01 3.027771e-01 2.031347e-01 3.063260e-01 4.005704e-01 4.684059e-01 5.762578e-01 3.632190e-01 3.122377e-01 4.269244e-01 2.963870e-01 1.529808e-01
<GCONST> 1.074026e+02
<STATE> 3
<NUMMIXES> 5
<MIXTURE> 1 2.716990e-01
<MEAN> 39
 1.655507e+00 -6.264875e+00 2.267183e-01 -2.874166e+00 -5.237574e+00 4.202013e+00 -5.912720e+00 2.553323e+00 2.440006e+00 -1.211416e+00 6.423110e+00 -2.807730e+00 1.104997e+01 4.627903e-01 -5.036731e-01 -2.662335e-01 4.279033e-01 -1.472785e-01 -9.341221e-02 9.438211e-02 1.700440e-01 -4.135575e-04 -2.256080e-01 2.907434e-01 -1.762358e-01 -1.732412e-01 -8.435071e-02 6.146829e-01 4.668319e-02 2.633176e-01 5.927883e-01 -5.528653e-01 4.650172e-01 -2.610302e-01 -1.996943e-01 1.156706e-01 -5.915021e-01 4.077468e-01 -8.602000e-01
<VARIANCE> 39
 2.281888e+01 3.506012e+01 6.133592e+01 3.723257e+01 2.970468e+01 5.503366e+01 6.998708e+01 8.311537e+01 7.909892e+01 2.808931e+01 4.188056e+01 4.149279e+01 1.825256e+01 1.628674e+00 3.637165e+00 2.581809e+00 4.728785e+00 4.061991e+00 5.460393e+00 6.695748e+00 4.030339e+00 4.467737e+00 2.532956e+00 3.944950e+00 3.945282e+00 3.254775e+00 4.175847e-01 4.166177e-01 4.672053e-01 6.322184e-01 6.469205e-01 7.627952e-01 9.622871e-01 6.368108e-01 7.965669e-01 4.859777e-01 6.726702e-01 6.326040e-01 4.559323e-01
<GCONST> 1.305077e+02
<MIXTURE> 2 2.539296e-01
<MEAN> 39
 -5.268316e+00 5.453903e+00 -1.487469e+00 -1.448453e-01 5.807048e+00 -3.784299e+00 2.616620e+00 -2.087153e+00 -1.164089e+00 2.959831e+00 -2.422896e+00 2.474494e+00 -2.567445e-02 -2.723000e-01 -5.207348e-02 1.999890e-02 -2.382693e-01 -4.469432e-01 2.660109e-01 -2.736034e-01 7.877465e-02 8.950544e-02 -3.721213e-01 5.768046e-01 -1.193715e-01 1.449314e+00 6.771030e-01 -5.803293e-01 2.851988e-01 -5.868402e-02 -8.232530e-01 4.174128e-01 -5.398260e-01 2.027674e-01 4.181442e-02 -3.292080e-01 4.394997e-01 -2.727611e-01 4.516807e-02
<VARIANCE> 39
 9.764648e+01 6.210669e+01 6.605402e+01 6.043663e+01 6.382859e+01 7.909979e+01 6.631172e+01 5.063159e+01 5.116881e+01 3.247951e+01 4.231163e+01 3.692203e+01 5.407376e+01 1.171201e+01 7.181323e+00 7.508931e+00 5.695950e+00 9.544832e+00 8.546750e+00 7.860144e+00 6.060927e+00 5.678686e+00 4.184813e+00 5.749617e+00 4.861208e+00 1.150608e+01 1.728367e+00 1.073025e+00 1.192942e+00 1.041247e+00 1.295200e+00 1.153012e+00 1.220757e+00 9.072290e-01 9.863727e-01 7.299978e-01 9.038048e-01 7.831821e-01 1.420365e+00
<GCONST> 1.504946e+02
<MIXTURE> 3 1.324570e-01
<MEAN> 39
 1.585628e+00 2.487898e+00 -3.150256e-01 4.496811e-01 -2.191104e+00 6.930082e+00 -1.090437e+00 -9.375149e+00 4.975619e+00 -2.564295e+00 1.981965e+00 2.587047e-01 6.469780e+00 -2.897707e-01 4.765650e-01 2.232185e-02 1.524237e-01 1.395281e-01 -2.337366e-01 3.520345e-02 -4.848630e-01 3.130331e-01 -5.538429e-03 -4.345129e-01 3.313774e-01 -2.098220e-01 -7.551204e-02 -1.535815e-01 -1.118239e-01 -2.125399e-02 2.636580e-03 -2.456962e-01 -1.023260e-01 5.541021e-01 -1.706296e-01 9.581601e-02 1.504381e-01 -1.069111e-01 5.211838e-02
<VARIANCE> 39
 9.917601e+00 3.312161e+01 4.069521e+01 1.029215e+02 2.274213e+01 7.241000e+01 6.803331e+01 5.788871e+01 4.716294e+01 4.001455e+01 5.135852e+01 2.216383e+01 1.768869e+01 8.064590e-01 2.488100e+00 1.898155e+00 4.249091e+00 2.251903e+00 4.031908e+00 4.308734e+00 6.420539e+00 3.904931e+00 3.345042e+00 2.896700e+00 1.577107e+00 1.537388e+00 1.236814e-01 2.717447e-01 3.812099e-01 6.265825e-01 4.317986e-01 7.298674e-01 8.066839e-01 8.955391e-01 5.790173e-01 6.310289e-01 5.369682e-01 3.352095e-01 1.732817e-01
<GCONST> 1.209999e+02
<MIXTURE> 4 2.055180e-01
<MEAN> 39
 2.745068e+00 -2.217119e+00 7.175229e+00 1.938134e+00 -4.731241e+00 -7.687498e+00 -3.073807e+00 5.181087e+00 -2.990546e+00 -2.554586e+00 -4.728310e-01 2.542285e+00 -5.147789e+00 -3.274039e-01 3.417235e-01 -1.261751e-02 -2.209425e-01 -1.074350e-03 -7.900169e-02 4.100180e-02 -9.454352e-02 -3.493005e-02 1.777498e-01 -1.969608e-01 2.049491e-01 -5.987933e-01 -4.832023e-01 -1.556508e-02 -5.610684e-01 -1.972186e-01 4.132843e-01 3.795292e-01 1.472231e-01 -2.342124e-01 2.522768e-01 2.398105e-01 7.869165e-02 -1.531229e-01 7.168240e-01
<VARIANCE> 39
 4.707279e+01 6.102872e+01 6.217804e+01 7.577135e+01 4.509844e+01 5.761117e+01 7.093464e+01 4.964669e+01 5.681141e+01 3.304601e+01 5.084943e+01 2.866678e+01 8.395924e+01 6.616503e+00 5.039526e+00 7.056654e+00 4.646078e+00 7.439023e+00 5.369846e+00 6.529564e+00 4.805723e+00 4.568610e+00 3.897981e+00 4.279921e+00 2.747868e+00 9.845591e+00 9.439623e-01 7.492723e-01 1.160716e+00 9.715262e-01 1.067136e+00 8.833858e-01 1.049560e+00 8.079931e-01 7.933234e-01 7.325988e-01 6.468427e-01 5.747085e-01 1.596066e+00
<GCONST> 1.436271e+02
<MIXTURE> 5 1.363933e-01
<MEAN> 39
 5.766982e+00 -2.165734e+00 -5.595744e+00 -6.530332e-01 2.906680e+00 2.663474e+00 -4.757954e+00 -4.922871e+00 3.254011e+00 -1.408505e-01 2.337565e+00 -4.650204e+00 -5.079408e-01 6.566920e-01 7.922626e-02 3.568257e-01 -6.258616e-03 7.336736e-01 -6.649899e-01 -5.628837e-02 8.235390e-01 -2.829562e-01 6.065863e-01 -1.127033e+00 -3.574159e-02 -2.131318e+00 -2.895931e-01 -4.189758e-02 1.430442e-01 -1.887904e-01 -1.971641e-01 5.969670e-03 1.421418e-01 1.894147e-01 2.771111e-02 -1.102002e-03 -3.081673e-02 5.724076e-02 2.408645e-01
<VARIANCE> 39
 2.043013e+01 3.824035e+01 3.715530e+01 1.175178e+02 3.895821e+01 6.120574e+01 9.216952e+01 8.248174e+01 5.777425e+01 7.591565e+01 5.898381e+01 5.875124e+01 5.108723e+01 1.592663e+00 1.948569e+00 2.659945e+00 5.094088e+00 2.813143e+00 4.233560e+00 5.852651e+00 5.507734e+00 5.039188e+00 4.752222e+00 4.459527e+00 3.139635e+00 4.450293e+00 2.314795e-01 2.594342e-01 4.642735e-01 7.903942e-01 4.673489e-01 8.224415e-01 9.576834e-01 9.112287e-01 9.292696e-01 8.694422e-01 9.052588e-01 6.651866e-01 5.089664e-01
<GCONST> 1.345970e+02
<STATE> 4
<NUMMIXES> 5
<MIXTURE> 1 2.317501e-01
<MEAN> 39
 -6.666377e+00 4.269002e+00 -3.607895e+00 2.426702e+00 6.405881e+00 -5.085536e+00 6.493751e+00 3.915649e-02 -1.242554e+00 1.502804e+00 -3.193642e+00 2.900809e+00 -9.923907e+00 -4.942462e-01 1.343768e-01 1.903515e-01 -2.808092e-01 3.513902e-01 1.136006e+00 -3.414811e-01 -1.932520e-01 2.412184e-01 2.274469e-01 7.299746e-01 -3.921420e-01 1.979338e+00 7.395580e-01 -2.499091e-01 3.794165e-01 -1.149872e-01 -7.424287e-01 3.553422e-01 -6.541957e-01 -1.164038e-01 7.326936e-04 -1.030703e-01 3.750049e-01 -1.623376e-01 3.836030e-01
<VARIANCE> 39
 8.844682e+01 7.717702e+01 7.010286e+01 8.386189e+01 8.331187e+01 6.726688e+01 6.533837e+01 1.263066e+02 8.071809e+01 5.403794e+01 3.287413e+01 4.585442e+01 8.581565e+01 1.189846e+01 7.306276e+00 9.903490e+00 1.032228e+01 1.044303e+01 7.175144e+00 9.144849e+00 1.243525e+01 7.975550e+00 5.796968e+00 6.339149e+00 6.655971e+00 9.897737e+00 1.401385e+00 1.276271e+00 1.355273e+00 1.804405e+00 1.595339e+00 9.383969e-01 1.193070e+00 2.220875e+00 1.448007e+00 1.194474e+00 9.153902e-01 1.522035e+00 1.315652e+00
<GCONST> 1.590038e+02
<MIXTURE> 2 2.323614e-01
<MEAN> 39
 1.804751e+00 -5.201447e+00 -4.205389e-01 -3.105315e-01 -4.078712e+00 -2.886465e+00 3.011658e+00 5.295639e+00 1.732140e+00 1.009115e+00 -9.909061e-01 -1.237121e+00 5.173085e+00 9.657683e-02 7.497494e-01 4.287956e-01 5.632855e-01 -5.879408e-02 7.981502e-02 4.518930e-01 1.304512e-01 -6.598778e-01 -3.315821e-02 -1.143399e-01 7.395631e-03 -1.343273e+00 -4.904190e-02 2.598820e-01 1.530799e-01 1.432021e-01 2.643755e-01 5.501519e-02 -5.688778e-02 -1.323702e-01 -8.700393e-02 4.606636e-02 -9.429862e-02 6.819306e-02 -4.007823e-01
<VARIANCE> 39
 1.688057e+01 2.848799e+01 6.572543e+01 5.135595e+01 5.332682e+01 4.105034e+01 5.889817e+01 5.004323e+01 6.582305e+01 2.337304e+01 3.153969e+01 4.050344e+01 5.863705e+01 7.944923e-01 2.546177e+00 3.018694e+00 1.936695e+00 3.450878e+00 2.996171e+00 4.330128e+00 2.702597e+00 3.058980e+00 1.510105e+00 3.191096e+00 1.643917e+00 2.550159e+00 1.412575e-01 4.387687e-01 4.864033e-01 4.621584e-01 6.500373e-01 5.214317e-01 7.667207e-01 5.408425e-01 5.752596e-01 2.947458e-01 5.310814e-01 3.984072e-01 3.762161e-01
<GCONST> 1.210687e+02
<MIXTURE> 3 2.026680e-01
<MEAN> 39
 5.066034e+00 4.785766e+00 -2.968354e+00 5.317800e+00 6.179415e+00 8.011191e-01 4.216721e+00 4.326220e-01 -1.067500e+00 1.786464e+00 -5.480195e+00 -1.158634e+00 -1.552130e+01 -7.411506e-01 5.726807e-01 -1.966297e-02 4.096000e-01 1.100583e+00 -4.388688e-02 1.305131e+00 6.969450e-01 5.656498e-01 3.427159e-01 -1.163605e+00 5.148410e-01 -2.347884e+00 -4.553871e-01 -3.238438e-01 4.564376e-02 -4.493019e-01 -1.659658e-01 6.752308e-02 -1.065776e-01 -8.232230e-02 1.163207e-02 -6.971402e-02 5.339518e-01 5.317022e-02 6.710936e-01
<VARIANCE> 39
 2.289674e+01 5.015059e+01 9.692810e+01 6.566236e+01 7.694818e+01 8.713546e+01 1.239538e+02 8.854084e+01 6.090920e+01 3.734086e+01 3.089685e+01 3.901608e+01 3.276565e+01 1.846112e+00 2.958467e+00 3.619524e+00 6.303359e+00 5.480588e+00 7.709621e+00 5.596641e+00 3.431236e+00 4.349652e+00 2.341779e+00 3.340882e+00 3.923142e+00 2.534879e+00 2.711982e-01 4.893755e-01 6.160433e-01 1.064164e+00 9.339316e-01 1.366434e+00 1.166740e+00 7.564692e-01 8.056278e-01 5.376170e-01 5.641367e-01 7.226806e-01 4.669040e-01
<GCONST> 1.364390e+02
<MIXTURE> 4 2.016565e-01
<MEAN> 39
