~o
<STREAMINFO> 1 39
<VECSIZE> 39<NULLD><MFCC_D_A_Z_0><DIAGC>
~h "M001"
<BEGINHMM>
<NUMSTATES> 5
<STATE> 2
<NUMMIXES> 17
<MIXTURE> 1 7.518779e-02
<MEAN> 39
 -2.521161e+01 -2.104536e+00 -5.846145e-01 -2.011751e+00 9.058582e+00 5.455288e+00 3.628016e+00 9.575089e+00 5.759014e+00 4.458565e-01 4.719384e+00 1.159224e+01 -2.899094e+00 -7.815334e-03 -3.478273e-01 4.135622e-01 -3.227751e-02 -1.313593e-01 -5.567742e-02 -1.889816e-01 2.649879e-01 2.557909e-01 3.235197e-01 -3.209612e-01 -5.806915e-01 6.592012e-02 5.723889e-01 -2.612179e-02 -9.441317e-02 3.029729e-01 -1.002240e-01 -1.377918e-01 -8.991563e-02 -1.666887e-01 -2.572766e-01 -1.775830e-01 -2.203091e-01 -2.253519e-01 -4.288679e-01
<VARIANCE> 39
 2.044610e+01 3.527837e+01 1.209656e+01 3.130923e+01 2.978692e+01 3.057230e+01 3.895026e+01 2.641134e+01 1.500628e+01 1.624591e+01 1.177993e+01 2.145034e+01 2.037056e+01 3.755536e+00 2.813730e+00 1.530261e+00 5.055516e+00 4.488703e+00 3.543085e+00 3.646943e+00 4.239799e+00 1.399642e+00 2.264573e+00 2.175333e+00 2.500969e+00 4.266378e+00 2.051794e-01 9.172698e-01 3.738434e-01 1.234083e+00 1.053413e+00 7.058395e-01 6.122496e-01 1.119996e+00 4.760793e-01 3.569303e-01 3.166534e-01 4.957880e-01 2.118585e-01
<GCONST> 1.179016e+02
<MIXTURE> 2 7.683833e-02
<MEAN> 39
 -1.558596e+00 1.965591e+00 -1.376623e+01 -1.701142e+01 8.402422e+00 7.027131e+00 8.684821e+00 -5.585875e+00 2.551843e-01 3.050574e+00 4.185778e+00 -3.593223e+00 1.294429e+01 6.859203e-01 1.245341e-01 5.772493e-01 6.664554e-01 -4.478092e-01 -2.054105e-01 -4.979933e-02 8.480820e-01 -2.180384e-01 -6.014043e-01 1.423600e-01 5.433732e-01 -9.406797e-01 3.530310e-01 2.310241e-01 2.205380e-01 2.944302e-01 -2.603970e-01 5.861142e-02 -1.584903e-01 6.936815e-02 -1.505336e-02 2.117187e-02 -1.925060e-01 1.224381e-01 -8.212828e-01
<VARIANCE> 39
 5.486178e+00 7.638857e+00 1.596481e+01 1.884907e+01 1.963589e+01 9.999362e+00 3.728102e+01 1.306144e+01 6.769263e+00 1.448951e+01 2.823170e+01 1.310324e+01 3.858839e+00 1.231932e+00 6.645029e-01 1.103404e+00 1.274233e+00 1.828014e+00 1.140868e+00 1.271045e+00 1.225752e+00 1.507887e+00 1.113629e+00 1.536280e+00 1.279153e+00 2.757451e+00 1.084558e-01 1.253676e-01 2.382691e-01 3.885492e-01 6.454826e-01 3.508326e-01 2.878099e-01 2.509092e-01 4.062224e-01 3.634038e-01 2.503746e-01 2.507608e-01 1.607865e-01
<GCONST> 9.066452e+01
<MIXTURE> 3 6.367335e-02
<MEAN> 39
 -3.573732e+00 -7.194757e+00 -2.364269e+00 3.229012e+00 1.954193e+00 5.248580e+00 3.659630e+00 5.058497e+00 1.105666e+00 -1.611636e+00 3.150930e+00 8.879472e+00 -2.160920e+01 -3.902955e-01 1.263805e+00 -1.660393e+00 8.161647e-01 3.535062e-01 -3.010382e-01 5.607716e-01 4.595415e-01 -1.915514e-01 6.452318e-01 -4.632042e-02 6.048257e-01 2.128862e-01 -2.303334e-01 7.876869e-01 -5.788267e-02 5.332575e-01 -2.003224e-01 -2.169914e-01 -4.902009e-02 -3.247017e-01 3.468875e-01 -2.359075e-01 -3.484207e-01 -8.795729e-03 5.374860e-01
<VARIANCE> 39
 9.153084e+00 1.013643e+01 3.794949e+01 1.025887e+01 3.747094e+01 2.439643e+01 1.138995e+01 3.107797e+01 1.258244e+01 2.192218e+01 1.398657e+01 2.070690e+01 3.204731e+00 1.729457e+00 1.405236e+00 3.291457e+00 1.400058e+00 3.214541e+00 3.841417e+00 8.960354e-01 2.101990e+00 2.079518e+00 1.527402e+00 1.504940e+00 2.987415e+00 4.740618e-01 5.552192e-01 1.896954e-01 8.482534e-01 3.278904e-01 6.139889e-01 5.830445e-01 2.169243e-01 5.325243e-01 3.262019e-01 5.562447e-01 4.478930e-01 6.464093e-01 1.340180e-01
<GCONST> 1.031149e+02
<MIXTURE> 4 4.513379e-02
<MEAN> 39
 -5.361018e+00 2.361131e+00 -6.435393e+00 1.207733e+01 1.818651e+00 4.025043e+00 6.873493e+00 2.228590e+00 3.300106e+00 -3.766225e+00 1.456756e-01 7.946666e+00 -1.911526e+01 1.658907e+00 5.513318e+00 2.667364e+00 2.824654e+00 -5.253901e-02 -1.999591e+00 -5.671303e-01 -3.388071e+00 -8.980764e-01 4.491635e-02 -1.514794e+00 -4.945766e-01 2.544641e+00 6.885442e-01 3.375190e-01 1.565947e+00 -4.072913e-01 -6.868622e-01 -9.723144e-01 -2.928000e-01 -1.379960e+00 -4.865344e-01 7.804731e-01 -3.789257e-01 -3.704163e-01 8.155827e-01
<VARIANCE> 39
 1.840484e+01 3.512890e+01 2.380573e+01 3.062702e+01 1.388468e+01 2.080830e+01 1.458759e+01 2.994899e+01 1.749386e+01 2.451171e+01 1.702746e+01 1.469089e+01 9.934275e+00 1.771233e+00 1.903195e+00 3.439760e+00 1.958067e+00 2.339541e+00 3.084195e+00 2.110940e+00 4.708454e+00 1.781755e+00 4.648853e+00 2.675277e+00 1.122466e+00 1.084206e+00 3.656874e-01 1.065003e+00 5.009033e-01 8.622317e-01 3.314865e-01 6.963954e-01 2.934922e-01 6.179000e-01 4.403959e-01 5.752879e-01 4.286187e-01 3.353753e-01 1.638913e-01
<GCONST> 1.109783e+02
<MIXTURE> 5 6.382678e-02
<MEAN> 39
 -1.742297e+00 -8.118808e+00 -2.605822e+00 7.861626e+00 -3.913497e+00 3.411793e+00 7.820275e-01 3.512718e+00 1.958777e+00 -6.803674e+00 -1.274055e+00 6.116947e+00 -2.281311e+01 9.782087e-02 5.291923e-01 3.487595e-01 4.763682e-01 3.055227e-01 1.110493e-01 6.908295e-01 -4.111464e-01 9.087369e-02 2.058752e-01 -1.019810e-01 8.061849e-03 1.623164e-01 -1.450860e-01 -5.807651e-02 -1.487831e-01 -7.379480e-02 2.238190e-01 1.686181e-01 2.183315e-01 1.303580e-01 2.012620e-01 2.041872e-01 3.567709e-01 -1.280376e-01 2.115341e-02
<VARIANCE> 39
 8.696825e+00 6.273715e+00 2.107840e+01 1.509622e+01 9.553523e+00 1.511258e+01 2.311622e+01 2.854699e+01 3.002708e+01 1.108221e+01 1.041280e+01 1.483752e+01 8.996037e+00 2.254324e-01 2.850315e-01 4.852099e-01 6.817505e-01 1.085845e+00 9.105068e-01 2.166914e+00 1.330123e+00 2.060989e+00 1.203359e+00 8.974085e-01 8.009563e-01 4.231133e-02 7.129085e-02 4.754148e-02 6.518530e-02 5.850622e-02 1.501497e-01 1.041359e-01 3.037491e-01 2.624938e-01 1.593851e-01 1.139645e-01 1.715192e-01 8.445660e-02 1.813683e-02
<GCONST> 7.036336e+01
<MIXTURE> 6 5.731096e-02
<MEAN> 39
 3.004037e+00 1.236911e+01 3.485969e+00 -6.528852e-02 -7.348360e+00 -3.027709e-01 9.581708e+00 -1.394535e+01 2.550057e+00 3.899619e+00 -8.841607e+00 6.394189e+00 -1.431562e+00 3.587767e-02 -7.029651e-01 6.063192e-01 -2.752392e+00 -2.225505e-01 2.064381e+00 5.863512e-01 -2.065276e-01 6.226185e-01 8.383808e-01 4.269796e-02 6.667714e-02 2.308495e+00 -8.141493e-01 -9.633992e-01 -3.388847e-01 3.490438e-01 1.022046e+00 4.641575e-01 -7.245441e-01 1.312922e+00 -1.823641e-01 -8.066293e-01 7.063286e-01 -8.468496e-02 -4.211657e-01
<VARIANCE> 39
 7.585135e+00 4.829336e+00 6.261617e+01 1.634199e+02 1.995094e+01 5.939607e+01 4.892701e+01 4.695855e+01 9.239727e+01 7.584846e+01 3.398169e+01 1.789427e+01 8.514981e+00 2.461344e+00 4.143834e+00 1.686590e+00 4.950064e+00 5.051752e+00 4.283222e+00 5.048881e+00 1.273873e+01 7.338795e+00 1.101807e+01 4.243040e+00 3.331400e+00 1.218512e+00 3.167299e-01 3.985828e-01 3.994101e-01 1.239691e+00 3.138059e-01 1.184661e+00 6.631452e-01 1.716272e+00 1.165960e+00 1.453488e+00 9.694965e-01 2.814464e-01 2.493194e-01
<GCONST> 1.298644e+02
<MIXTURE> 7 7.535110e-02
<MEAN> 39
 3.713750e+00 4.662831e+00 -1.167113e+01 -1.399335e+01 6.874160e+00 7.169353e+00 6.065856e+00 -4.119817e+00 -4.113812e-01 3.684906e+00 1.243216e+00 -1.998460e+00 2.300562e+00 9.852377e-01 -9.894670e-01 -5.039686e-01 -1.233458e+00 1.600425e+00 7.685523e-02 8.809974e-01 8.565335e-02 1.383071e-01 4.123630e-01 1.961698e-02 -6.772178e-01 -6.274934e-01 -4.948673e-01 -7.725985e-01 1.568908e-02 5.741543e-01 -6.763465e-01 -1.771465e-01 -7.184263e-02 2.011267e-01 2.134464e-01 -3.743599e-01 6.200169e-02 4.154717e-01 -3.834149e-01
<VARIANCE> 39
 1.723440e+01 1.544088e+01 2.796300e+01 3.686839e+01 2.759188e+01 1.277917e+01 2.664729e+01 2.300447e+01 1.380143e+01 2.033087e+01 1.672404e+01 2.932467e+01 5.806869e+01 2.302344e+00 1.662988e+00 2.568556e+00 8.480927e+00 4.498913e+00 2.128688e+00 2.491936e+00 1.479359e+00 2.208890e+00 2.280218e+00 3.568543e+00 2.774461e+00 1.451225e+01 2.252789e-01 3.267526e-01 5.530967e-01 1.360064e+00 7.677692e-01 4.630828e-01 3.824799e-01 3.484439e-01 3.999169e-01 4.292405e-01 3.613791e-01 6.605946e-01 1.163082e+00
<GCONST> 1.179622e+02
<MIXTURE> 8 6.025609e-02
<MEAN> 39
 4.486255e+00 -6.307489e+00 -9.490647e+00 -4.846197e+00 -5.173553e+00 9.133734e+00 8.270996e+00 6.784443e+00 7.134824e-01 -4.520682e+00 -3.232412e+00 -4.814147e-01 -1.606867e+01 -4.770271e-01 5.813572e-02 9.529077e-01 1.254946e+00 -5.171686e-01 5.780958e-02 -2.589874e-01 8.056112e-01 2.267673e-01 -7.617711e-01 -6.823372e-01 -3.059320e-01 -5.034879e-01 -1.123358e-01 1.820989e-01 -1.420324e-02 -3.412481e-02 1.739659e-01 -7.257069e-02 -2.127050e-01 -4.104132e-01 8.419131e-02 2.599700e-01 4.192498e-01 2.943449e-01 3.189653e-01
<VARIANCE> 39
 7.864607e+00 4.870018e+00 1.104059e+01 7.966055e+00 3.125825e+01 3.081355e+01 2.969352e+01 2.374348e+01 2.558233e+01 2.858631e+01 2.110335e+01 2.455771e+01 4.034867e+00 3.057077e-01 5.761144e-01 1.034088e+00 1.254767e+00 1.747182e+00 2.385230e+00 2.384137e+00 2.399101e+00 1.699784e+00 1.706520e+00 3.256585e+00 2.655005e+00 6.418072e-02 1.023748e-01 1.495956e-01 4.792331e-01 3.276438e-01 3.498697e-01 4.378159e-01 2.979266e-01 3.521203e-01 4.287801e-01 3.136894e-01 4.427823e-01 5.212027e-01 1.324895e-01
<GCONST> 9.398444e+01
<MIXTURE> 9 4.313919e-02
<MEAN> 39
 1.367882e-01 -8.656926e+00 -2.781154e-01 5.912721e+00 -9.573352e-01 4.121383e+00 1.441808e+00 3.158706e-01 2.394084e+00 -4.372446e+00 -8.403853e-01 3.691266e+00 -2.436469e+01 -2.961520e-01 -3.466557e-01 -2.710461e-01 -1.735595e-01 -4.473242e-01 1.281570e-01 -7.773335e-03 2.870923e-01 -3.810950e-02 5.524037e-01 5.924835e-01 -3.857927e-02 -9.264570e-02 -1.353273e-01 1.895431e-01 -1.594419e-02 3.830803e-02 -5.112502e-02 -2.707624e-01 3.122245e-02 -3.034743e-02 -7.489141e-02 1.106137e-01 1.414856e-01 4.523105e-01 1.797670e-01
<VARIANCE> 39
 3.710146e+00 4.080022e+00 2.239301e+00 2.170271e+01 1.771495e+01 1.596896e+01 3.715616e+01 1.863709e+01 1.467339e+01 3.363097e+01 1.024974e+01 6.127855e+00 8.221219e+00 5.976726e-02 2.177934e-01 2.836045e-01 4.729993e-01 8.670005e-01 1.149106e+00 1.679251e+00 2.681441e+00 2.741504e+00 2.472213e+00 2.369357e+00 1.200081e+00 5.483276e-02 2.812184e-02 7.899375e-02 6.704172e-02 7.780731e-02 9.515383e-02 6.180285e-02 1.153670e-01 2.793310e-01 2.825407e-01 2.048182e-01 9.368096e-02 7.432851e-02 3.557961e-02
<GCONST> 6.702812e+01
<MIXTURE> 10 6.032601e-02
<MEAN> 39
 -7.317539e+00 1.281955e+00 -7.959257e+00 3.993114e+00 -2.726277e+00 3.096936e+00 2.332214e+00 -4.160203e+00 5.513608e+00 -3.804827e+00 2.335772e+00 6.032660e+00 -8.616607e+00 6.442469e-01 3.287698e+00 -8.232101e-01 -4.425499e+00 5.246721e-01 8.247452e-01 1.235055e+00 -1.608774e+00 -6.055589e-01 1.594630e+00 -6.225542e-01 -9.212418e-01 5.786953e+00 8.628807e-01 -6.111443e-01 4.818698e-01 -1.046481e+00 4.514174e-01 3.396903e-01 4.832345e-01 5.897138e-01 -5.052775e-01 6.224334e-01 -2.720625e-01 -4.697485e-01 1.279594e-01
<VARIANCE> 39
 3.515841e+01 3.861659e+01 3.299483e+01 2.662641e+01 5.746926e+01 3.838391e+01 2.747103e+01 3.806200e+01 1.871580e+01 4.315492e+01 1.321308e+01 2.379381e+01 4.430384e+01 1.002668e+01 3.779837e+00 7.052697e+00 4.514228e+00 9.926797e+00 4.182158e+00 5.408489e+00 4.675168e+00 7.018332e+00 5.413789e+00 3.149923e+00 5.033485e+00 3.896419e+00 4.692006e-01 1.009396e+00 7.679020e-01 1.355276e+00 9.227300e-01 8.851472e-01 9.978065e-01 4.933463e-01 3.749206e-01 7.978408e-01 5.039464e-01 6.562056e-01 8.862372e-01
<GCONST> 1.343162e+02
<MIXTURE> 11 6.674242e-02
<MEAN> 39
 -1.191350e+00 -9.575370e+00 -8.241787e-01 6.204309e+00 -3.717031e-01 3.082495e+00 2.364672e+00 5.412836e+00 1.179704e-01 -6.260458e+00 1.238310e-01 4.701536e+00 -2.359300e+01 -8.738574e-01 5.304290e-01 -5.263093e-01 -1.082979e-01 -1.782835e-02 -1.505753e-01 4.352286e-01 -2.764115e-01 5.249606e-01 2.971005e-01 -2.248010e-02 2.069959e-01 5.374159e-01 -5.616058e-01 5.400062e-01 -4.890393e-01 1.035892e-02 -2.713254e-03 -7.428285e-02 2.011387e-01 -5.737796e-01 4.892303e-01 1.718422e-01 6.628959e-02 2.582733e-01 9.068892e-01
<VARIANCE> 39
 4.167566e+00 6.493253e+00 7.426042e+00 1.836826e+01 1.992183e+01 1.342209e+01 2.438328e+01 1.475013e+01 1.989517e+01 2.030690e+01 1.715865e+01 1.133175e+01 4.846661e+00 8.290722e-01 8.135646e-01 1.000290e+00 6.535386e-01 1.419827e+00 1.305094e+00 2.537993e+00 2.087321e+00 2.370947e+00 1.608484e+00 1.554664e+00 9.730393e-01 4.317575e-01 1.811137e-01 3.845835e-01 4.550944e-01 3.260549e-01 1.677488e-01 2.874435e-01 6.735918e-01 6.247959e-01 5.781031e-01 3.509257e-01 5.294288e-01 2.250419e-01 3.418740e-01
<GCONST> 9.332690e+01
<MIXTURE> 12 5.495796e-02
<MEAN> 39
 2.465602e+00 1.756442e+01 6.609547e+00 1.260471e+01 -1.836230e+00 -6.704115e+00 1.811630e+00 -1.396693e+01 -5.678745e+00 8.038899e-02 -4.568914e+00 5.553345e+00 -8.580581e+00 1.832959e+00 1.507185e+00 3.335316e+00 -8.987387e-01 -2.134283e+00 -2.019793e+00 2.214315e-01 -3.966124e+00 -1.275272e+00 2.907660e+00 -7.375683e-01 -8.936251e-01 3.149962e+00 -7.461884e-01 -2.174700e+00 -6.139680e-01 -1.049619e+00 9.298377e-02 9.964365e-01 2.159768e-01 1.566651e+00 1.069254e+00 1.344089e-01 3.458943e-01 4.883133e-02 -2.336118e-01
<VARIANCE> 39
 6.193228e+00 8.981839e+00 2.168737e+01 3.702227e+01 4.294830e+01 2.576827e+01 2.832925e+01 6.216681e+01 5.997309e+01 4.843593e+01 3.282217e+01 2.170753e+01 9.635873e+00 2.715935e+00 7.626229e+00 3.854543e+00 2.449123e+00 3.232758e+00 7.139571e+00 2.355260e+00 1.052512e+01 4.615430e+00 2.695803e+00 4.750640e+00 4.240551e+00 2.746639e+00 3.147570e-01 3.898965e-01 5.693040e-01 3.440153e-01 8.075376e-01 5.080850e-01 9.677388e-01 1.924299e+00 1.430561e+00 1.159086e+00 4.008879e-01 3.139497e-01 3.247474e-01
<GCONST> 1.251460e+02
<MIXTURE> 13 7.433695e-02
<MEAN> 39
 -6.069204e-01 -7.765395e+00 -4.020400e+00 5.741032e+00 -4.465572e+00 4.646331e+00 2.691847e+00 3.995511e+00 2.009118e+00 -3.578084e+00 7.333731e-01 5.523232e+00 -2.189746e+01 -2.482224e+00 1.808108e+00 4.973422e-02 5.577257e-01 -1.038359e-01 -1.276203e-01 -1.827309e-01 -2.066118e+00 1.419408e+00 6.620466e-01 1.936727e-01 4.855933e-01 3.154483e+00 -3.181575e-01 6.044089e-01 3.467202e-01 -5.723311e-01 2.834072e-01 -5.131929e-02 -1.192279e-01 -5.409302e-01 -4.543166e-02 2.155724e-01 -1.941456e-01 -4.044099e-01 1.789353e+00
<VARIANCE> 39
 1.077948e+01 8.263612e+00 1.998388e+01 3.465687e+01 2.329218e+01 1.342947e+01 2.473844e+01 3.296020e+01 1.679278e+01 2.489793e+01 1.440060e+01 1.220552e+01 1.158891e+01 2.241640e+00 3.192672e+00 1.112833e+01 6.923403e+00 3.042351e+00 3.495128e+00 5.951509e+00 2.759870e+00 2.407783e+00 2.537742e+00 3.776394e+00 1.836689e+00 3.349929e+00 4.487406e-01 4.710025e-01 1.774552e+00 1.233119e+00 6.873661e-01 6.373163e-01 9.266557e-01 6.650831e-01 4.162425e-01 6.845547e-01 4.626509e-01 3.106829e-01 1.532650e-01
<GCONST> 1.180909e+02
<MIXTURE> 14 5.264444e-02
<MEAN> 39
 6.402542e+00 -5.276941e+00 -1.453814e+01 -1.222774e+01 9.456876e-02 6.740600e+00 6.148593e+00 -1.148373e-01 1.146755e+00 3.137972e+00 3.478008e+00 2.503445e+00 -1.195200e+01 -6.647546e-01 -1.667237e+00 -2.706620e-01 6.418793e-01 -2.464010e+00 1.303070e-01 -2.093270e-01 8.475077e-01 -2.869299e-02 -4.001765e-01 -2.480135e-01 8.523746e-01 -1.313868e+00 -1.355777e-01 4.212789e-01 4.814861e-01 4.378332e-01 1.841111e-01 7.967761e-02 -3.261014e-03 2.861729e-01 -5.543622e-02 -3.450839e-01 -3.867755e-01 -4.720603e-01 2.956288e-01
<VARIANCE> 39
 1.118322e+01 1.570796e+01 1.113104e+01 2.430673e+01 2.518597e+01 4.256996e+01 1.666370e+01 1.338576e+01 2.642929e+01 2.435952e+01 3.375402e+01 3.687825e+01 1.071255e+01 6.602107e-01 1.101693e+00 1.983280e+00 1.961222e+00 1.820730e+00 2.742515e+00 1.241915e+00 2.726903e+00 2.211944e+00 2.384678e+00 3.642642e+00 5.109862e+00 1.805230e-01 2.230476e-01 1.656048e-01 2.175560e-01 2.689426e-01 4.432062e-01 5.387726e-01 1.985264e-01 4.105190e-01 2.854127e-01 3.362964e-01 7.776599e-01 1.079607e+00 6.494685e-02
<GCONST> 1.022104e+02
<MIXTURE> 15 5.642557e-02
<MEAN> 39
 -1.394463e+00 -9.485901e+00 -1.512481e+00 5.274162e+00 2.004192e+00 3.650008e+00 4.067522e+00 6.977501e+00 1.980739e+00 -2.793548e+00 2.523301e+00 4.775207e+00 -2.238189e+01 -3.408396e-01 -2.431532e-01 -2.975324e-01 4.433625e-03 -1.227907e-01 -1.403904e-01 -2.325637e-01 -6.362333e-01 1.421030e-01 -1.125772e-01 -2.220077e-01 -3.557695e-01 -1.270255e-01 2.245326e-02 1.321802e-01 -1.394155e-01 -5.428069e-02 -6.364219e-02 -1.129663e-01 -6.832485e-02 4.945044e-03 -1.879508e-01 -1.339816e-01 -1.385401e-01 2.507806e-02 3.777696e-02
<VARIANCE> 39
 4.715092e+00 4.732950e+00 1.451532e+01 4.530191e+00 2.306227e+01 1.196247e+01 3.702306e+01 2.180361e+01 1.368603e+01 9.171165e+00 1.597185e+01 2.092386e+01 1.684257e+00 1.853780e-01 4.333207e-01 4.321633e-01 2.108738e-01 6.180031e-01 8.648884e-01 7.259068e-01 1.084361e+00 5.234210e-01 9.818518e-01 9.477609e-01 1.455743e+00 5.270674e-02 1.696713e-02 6.493004e-02 7.350346e-02 5.860297e-02 1.331306e-01 7.556526e-02 9.120394e-02 2.437042e-01 1.070359e-01 1.258945e-01 1.068990e-01 1.961719e-01 5.374424e-03
<GCONST> 5.931631e+01
<MIXTURE> 16 3.758175e-02
<MEAN> 39
 -1.017114e+01 -4.207949e+00 -1.985276e+00 3.482025e+00 6.996509e+00 -3.120328e-01 3.624607e+00 4.441511e+00 3.617361e+00 -5.818747e+00 6.653475e-01 4.854809e+00 -1.587987e+01 -6.584150e-01 2.535430e+00 -1.196505e+00 1.745017e-01 -3.155029e-01 -1.276869e+00 -8.575344e-01 -3.144618e+00 -6.931564e-01 -7.025419e-01 -1.991082e-01 -1.734141e-03 3.023386e+00 6.434994e-01 3.196782e-01 9.384179e-02 -4.673039e-01 -6.070946e-01 1.254915e-01 -4.293543e-01 -4.630768e-01 -3.981646e-01 3.330415e-01 -9.210648e-02 2.865967e-01 1.087851e+00
<VARIANCE> 39
 1.816652e+01 3.731149e+01 1.543248e+01 4.422315e+01 2.833408e+01 1.681403e+01 2.070530e+01 5.243089e+01 2.874350e+01 1.469068e+01 1.000369e+01 1.331010e+01 1.484324e+01 1.787895e+01 9.645881e+00 3.079501e+00 1.092674e+00 1.620082e+00 1.378632e+00 3.778728e+00 5.433324e+00 1.863099e+01 1.279127e+00 2.297189e+00 2.366993e+00 1.114952e+01 1.006475e+00 1.017330e+00 2.877187e-01 5.588434e-01 4.135538e-01 4.410277e-01 1.024973e+00 1.191491e+00 1.625254e+00 3.178184e-01 3.286026e-01 4.173322e-01 3.698116e-01
<GCONST> 1.220295e+02
<MIXTURE> 17 3.626722e-02
<MEAN> 39
 -8.255013e+00 -1.656396e+00 -8.495734e+00 4.065574e+00 -3.451037e+00 -6.195810e-01 6.638511e+00 2.964434e+00 8.303548e+00 -1.828539e+00 -1.253719e+01 8.288412e+00 -5.148849e+00 1.002099e+00 2.411414e-01 -2.406287e-01 -6.226454e-01 6.417515e-01 -1.032756e+00 1.553454e-01 -2.379168e-01 -6.260003e-01 2.925383e-01 -1.498216e+00 -1.251467e+00 4.256399e+00 6.992677e-01 -7.402501e-02 4.163961e-01 -5.055570e-01 6.968901e-01 2.434566e-01 -1.699851e-01 2.964834e-01 -1.348457e+00 3.684002e-02 1.186105e+00 -5.362474e-01 -3.837221e-02
<VARIANCE> 39
 1.740840e+01 1.725670e+01 4.676036e+01 2.185362e+01 2.790583e+01 5.572295e+01 9.065382e+01 5.717525e+01 2.495019e+01 9.109710e+00 6.414332e+01 4.560915e+01 6.466313e+01 4.823047e+00 5.629518e+00 3.184244e+00 5.836148e+00 2.673869e+00 1.963511e+00 8.952188e+00 2.635886e+00 8.307815e+00 1.502533e+00 7.660351e+00 4.180083e+00 1.086571e+01 5.564927e-01 1.474533e+00 8.637189e-01 5.823239e-01 9.906439e-01 4.836025e-01 2.315632e+00 4.060455e-01 1.158319e+00 5.053111e-01 1.137931e+00 1.452999e+00 9.819624e-01
<GCONST> 1.354767e+02
<STATE> 3
<NUMMIXES> 17
<MIXTURE> 1 4.002506e-02
<MEAN> 39
 4.353906e+00 6.260220e+00 -1.044453e+01 -1.811755e+01 1.471077e+00 1.107544e+01 8.426010e+00 -5.025476e+00 -3.947627e+00 6.870853e+00 8.600018e-01 -1.044756e+00 5.138686e+00 -2.563385e-01 -1.085431e+00 -4.349230e-01 -3.005257e-02 1.075395e+00 8.981907e-01 -3.018931e-01 -8.357361e-01 4.785038e-01 9.679173e-01 5.012880e-01 -9.326264e-01 6.303759e-01 8.228271e-03 -4.033475e-01 3.005013e-01 8.149819e-01 7.956591e-02 -3.953124e-01 -5.889776e-01 1.579848e-01 2.634237e-01 -2.128832e-01 -1.169151e-01 -9.821209e-02 -9.286977e-02
<VARIANCE> 39
 5.222734e+00 1.921050e+01 4.495443e+01 2.231563e+01 4.889049e+01 6.474035e+01 5.028506e+01 4.538221e+01 7.610590e+01 6.437529e+01 4.569313e+01 3.886570e+01 7.276155e+00 5.693276e-01 1.907714e+00 3.107190e+00 3.211934e+00 2.322430e+00 3.526152e+00 5.609390e+00 3.565767e+00 4.527321e+00 3.191691e+00 2.230027e+00 3.379735e+00 6.508279e-01 1.128215e-01 2.235850e-01 3.358039e-01 4.242899e-01 5.118669e-01 6.806456e-01 5.447652e-01 7.299382e-01 5.801963e-01 6.523869e-01 3.768961e-01 7.118347e-01 1.128523e-01
<GCONST> 1.166218e+02
<MIXTURE> 2 5.779893e-02
<MEAN> 39
 7.034652e+00 -1.812744e+00 1.930936e+00 3.809786e+00 -1.848463e+00 9.162336e-01 -2.730807e-01 6.628871e+00 6.122987e-01 -3.221285e+00 -8.126073e-02 7.941673e-01 -1.437510e+01 -2.973141e+00 -1.250336e+00 8.088751e-01 -3.080226e-01 8.840428e-02 1.239361e+00 -2.863854e-01 -3.321098e-01 8.049477e-01 1.716120e-01 1.847000e-01 1.052171e+00 1.305833e+00 -1.191365e+00 -2.503263e-01 1.585445e-01 -8.628239e-02 5.150258e-02 3.866960e-02 -3.950486e-01 -4.501235e-01 1.315548e-02 1.922006e-01 1.686182e-01 2.700140e-02 1.911586e+00
<VARIANCE> 39
 3.793943e+01 4.270537e+01 8.878636e+01 9.577781e+01 5.624706e+01 5.397380e+01 3.755545e+01 8.369827e+01 6.222631e+01 4.107695e+01 3.057359e+01 3.027522e+01 1.319982e+01 5.865124e+00 5.168473e+00 9.516248e+00 7.578336e+00 7.694517e+00 6.702074e+00 5.215857e+00 6.378684e+00 6.532824e+00 4.646773e+00 4.040071e+00 3.138932e+00 7.612750e+00 9.406244e-01 8.497081e-01 1.411056e+00 1.436267e+00 9.562880e-01 1.192644e+00 1.043414e+00 1.263113e+00 1.487158e+00 7.536917e-01 7.389260e-01 5.756937e-01 3.661960e-01
<GCONST> 1.437091e+02
<MIXTURE> 3 7.584850e-02
<MEAN> 39
 -1.611529e+00 -1.945314e+00 1.107059e+01 3.206891e+00 -9.458771e+00 -7.849102e+00 -2.814358e+00 3.710448e+00 -5.594041e+00 -9.481587e-01 9.078063e+00 -1.730616e+00 7.982387e+00 3.496019e-01 -4.483354e-02 -2.132907e-01 3.937677e-01 6.740615e-02 -2.463055e-01 6.338046e-02 -3.043928e-02 1.956084e-01 -2.933490e-01 2.191251e-01 6.104167e-02 -2.714193e-01 1.606377e-01 1.424375e-01 -7.563007e-02 2.033095e-01 3.838837e-01 1.466558e-01 5.949208e-02 -1.638546e-01 1.460472e-01 1.596269e-02 -4.331923e-01 9.151442e-02 -4.372102e-01
<VARIANCE> 39
 9.412127e+00 1.717752e+01 2.396412e+01 3.807392e+01 4.692883e+01 2.810835e+01 4.155978e+01 5.779094e+01 6.187278e+01 3.374350e+01 3.817889e+01 3.254486e+01 5.692645e+00 9.193292e-01 1.463547e+00 3.343065e+00 2.327597e+00 2.984738e+00 2.628893e+00 2.421125e+00 2.511297e+00 3.517550e+00 2.436866e+00 2.566125e+00 2.287509e+00 9.133648e-01 1.965753e-01 1.978647e-01 2.821920e-01 3.229888e-01 5.051551e-01 6.056660e-01 4.652853e-01 4.910241e-01 5.199050e-01 3.842663e-01 4.701869e-01 4.750509e-01 1.556624e-01
<GCONST> 1.118244e+02
<MIXTURE> 4 6.278075e-02
<MEAN> 39
 1.765430e+00 -1.741906e+00 -8.791137e+00 -1.012278e+01 7.594942e+00 4.000986e+00 2.246629e-01 -2.292718e+00 1.551607e+00 7.555779e+00 -1.293348e+00 -6.867982e+00 8.514641e+00 -1.524603e-01 -1.207524e+00 -4.000837e-01 2.634494e-01 7.174820e-01 -6.352698e-01 -5.100724e-02 1.636449e+00 8.175497e-01 -5.519898e-01 -2.266225e-01 -2.841930e-01 6.927149e-01 -2.044326e-02 1.932492e-01 4.146613e-01 6.758531e-01 -4.578050e-01 -2.985041e-01 5.797182e-02 2.691520e-01 -7.615899e-02 -7.314016e-01 -9.052175e-02 5.914204e-01 -5.593865e-01
<VARIANCE> 39
 1.236492e+01 2.308660e+01 6.808964e+01 5.167968e+01 6.750562e+01 6.967556e+01 6.824424e+01 7.566579e+01 8.255044e+01 6.465957e+01 4.655230e+01 2.485189e+01 1.004417e+01 1.768564e+00 4.050560e+00 4.022532e+00 1.010080e+01 6.033175e+00 7.854019e+00 5.986549e+00 4.883673e+00 5.914277e+00 5.693702e+00 3.231321e+00 4.493816e+00 2.913903e+00 3.917712e-01 4.957277e-01 5.988459e-01 8.679403e-01 7.868996e-01 9.871848e-01 8.775392e-01 1.133982e+00 1.307111e+00 8.823659e-01 6.972054e-01 5.854499e-01 3.479569e-01
<GCONST> 1.362551e+02
<MIXTURE> 5 8.161509e-02
<MEAN> 39
 3.986471e+00 9.089523e+00 8.244990e+00 7.725713e+00 -5.174145e+00 -7.192614e+00 2.659401e+00 -1.049035e+01 -3.153927e+00 4.019168e+00 -4.421397e+00 -2.605479e+00 -2.215775e+00 2.105120e-01 8.017428e-01 1.449803e-01 3.272597e-01 -5.823657e-02 -1.815001e-02 -2.159079e-01 -6.286871e-01 3.395047e-01 2.821245e-02 2.777241e-01 -9.220303e-02 -7.454416e-01 -7.110560e-02 -7.116677e-01 -3.851975e-01 -5.246930e-01 4.595005e-01 4.147537e-01 -3.451557e-01 9.567878e-01 9.611714e-04 -3.923447e-01 1.773207e-01 -1.726034e-02 3.519900e-01
<VARIANCE> 39
 2.055364e+01 4.023260e+01 4.897216e+01 7.261041e+01 8.062637e+01 6.950942e+01 5.959459e+01 6.375905e+01 6.069321e+01 5.976117e+01 5.889574e+01 4.253870e+01 1.576254e+01 6.043218e-01 3.951449e+00 3.067753e+00 3.406411e+00 5.772949e+00 4.774294e+00 5.606743e+00 8.367764e+00 3.257719e+00 6.299814e+00 4.345559e+00 2.565491e+00 1.334777e+00 9.967861e-02 4.654937e-01 6.379060e-01 6.497778e-01 8.242728e-01 8.624825e-01 7.271840e-01 8.860252e-01 6.372939e-01 9.868402e-01 6.704892e-01 5.877745e-01 1.935868e-01
<GCONST> 1.305598e+02
<MIXTURE> 6 5.833529e-02
<MEAN> 39
 7.235132e+00 -9.322304e-01 -3.890847e+00 2.250644e+00 -5.787777e+00 8.613079e+00 -8.345067e+00 -8.121814e+00 -5.132317e+00 1.366115e+00 9.547852e+00 -1.976719e+00 3.033641e+00 8.987758e-01 5.231641e-01 -6.918172e-01 -1.441062e+00 -3.688132e-01 5.966626e-01 1.925941e-01 5.417106e-01 -9.197450e-01 7.666889e-01 3.532049e-01 -8.118107e-01 2.941359e-01 -4.611139e-01 -1.061537e-01 1.730827e-01 1.785505e-01 3.022867e-01 -3.672287e-01 6.077335e-01 4.800946e-01 4.732679e-01 -1.950424e-01 -7.965112e-01 3.370602e-01 -2.694307e-01
<VARIANCE> 39
 1.683501e+01 2.890938e+01 8.620049e+01 6.764578e+01 6.528215e+01 7.919045e+01 5.620386e+01 1.348938e+02 6.468682e+01 5.107267e+01 3.134275e+01 4.525919e+01 1.695982e+01 4.632456e+00 4.660190e+00 7.288527e+00 8.247082e+00 9.208770e+00 6.485594e+00 6.289366e+00 1.256404e+01 8.956726e+00 5.409560e+00 6.417782e+00 4.750333e+00 1.990283e+00 5.319117e-01 4.559796e-01 8.300895e-01 8.566015e-01 1.093420e+00 1.094285e+00 1.049104e+00 1.899577e+00 1.298928e+00 7.325345e-01 8.919984e-01 8.942040e-01 3.226629e-01
<GCONST> 1.435292e+02
<MIXTURE> 7 5.576054e-02
<MEAN> 39
 2.086284e-01 -5.330998e+00 -4.793254e+00 -8.440868e+00 6.583460e+00 -4.566171e+00 -1.446491e+00 9.445656e+00 2.742659e+00 -1.845189e+00 8.689082e-01 -7.400962e+00 1.130807e+01 5.546935e-01 1.486220e-01 1.047861e+00 7.490136e-01 -6.437083e-01 -5.246814e-02 -1.261087e+00 -1.214224e-01 -2.483876e-01 -9.600707e-03 3.097934e-01 6.562679e-01 -7.895647e-01 9.080014e-02 1.413716e-01 1.872299e-01 5.476462e-01 -2.544921e-01 1.174567e-01 9.993970e-02 -5.346776e-01 -5.611234e-02 1.773365e-01 -3.237419e-01 3.977226e-01 -3.783068e-01
<VARIANCE> 39
 1.436065e+01 1.504255e+01 4.613749e+01 2.826120e+01 3.140111e+01 6.549695e+01 7.636825e+01 7.060586e+01 6.186367e+01 4.631509e+01 4.449201e+01 3.446163e+01 4.995402e+00 4.163639e-01 1.158443e+00 1.946171e+00 2.312455e+00 2.926024e+00 2.836411e+00 3.452144e+00 3.756495e+00 2.198418e+00 2.053718e+00 2.478318e+00 2.201760e+00 4.453013e-01 1.372771e-01 1.962460e-01 2.293122e-01 2.240519e-01 2.762465e-01 5.024293e-01 6.849227e-01 7.080149e-01 4.581289e-01 4.162430e-01 3.533532e-01 3.608185e-01 1.122959e-01
<GCONST> 1.100157e+02
<MIXTURE> 8 6.613096e-02
<MEAN> 39
 -1.083930e-02 3.603218e+00 2.535027e+00 3.269669e+00 2.087531e+00 -8.679019e-01 -4.235081e+00 -1.522292e+00 -1.182346e+00 3.486052e-02 -2.828594e+00 1.919181e+00 -1.865094e+00 -8.158464e-01 -9.015774e-01 -6.422272e-01 -1.538265e+00 3.121741e-01 3.676368e-01 1.589057e-01 8.235258e-01 -7.227293e-02 1.945708e-01 3.282276e-01 -2.387828e-01 2.338949e+00 -2.410972e-02 -4.550845e-01 -1.654273e-01 -1.667625e-01 -5.294449e-01 5.666487e-02 6.457412e-01 2.593523e-02 -4.908197e-02 1.383183e-01 3.057267e-01 -2.783807e-01 3.522796e-01
<VARIANCE> 39
 4.579208e+01 5.443348e+01 1.644738e+02 1.027413e+02 7.218497e+01 8.895501e+01 8.049818e+01 7.667081e+01 8.900853e+01 5.978781e+01 6.326602e+01 4.207337e+01 3.057730e+01 9.251044e+00 8.458939e+00 1.314856e+01 9.664153e+00 9.562424e+00 8.315505e+00 8.361025e+00 1.453045e+01 1.140727e+01 7.145265e+00 6.071219e+00 5.857188e+00 3.750511e+00 7.266542e-01 9.730201e-01 1.858870e+00 1.507686e+00 1.483596e+00 1.104120e+00 1.383234e+00 1.504876e+00 1.369045e+00 1.137935e+00 8.456414e-01 8.756053e-01 5.233275e-01
<GCONST> 1.556950e+02
<MIXTURE> 9 7.019719e-02
<MEAN> 39
 3.969938e+00 -6.026244e+00 8.828790e-01 3.190723e+00 9.214700e-01 -2.712683e+00 -5.578511e+00 3.916336e+00 1.648139e+00 -1.583872e+00 1.080398e+00 -2.061181e+00 5.079380e+00 1.250882e+00 8.575693e-01 8.098159e-01 2.018702e+00 2.470777e-02 -3.746785e-01 -6.513362e-02 -1.248066e+00 -1.600721e-01 -1.869820e-03 -1.129672e+00 9.412845e-01 -2.286031e+00 -8.747948e-02 6.575382e-01 -4.489866e-02 -4.932211e-01 2.115089e-03 1.477790e-01 6.412371e-01 -2.691437e-01 -1.885585e-01 3.185731e-01 -1.105772e-01 -2.546008e-01 -3.240915e-01
<VARIANCE> 39
 1.974566e+01 2.745835e+01 7.811539e+01 6.443237e+01 6.732585e+01 5.834245e+01 5.772536e+01 8.285899e+01 7.639753e+01 4.248447e+01 6.137599e+01 3.552728e+01 1.187188e+01 1.459049e+00 3.568815e+00 3.341527e+00 4.254646e+00 4.502374e+00 4.768186e+00 5.658270e+00 7.816314e+00 4.176424e+00 4.177753e+00 4.013240e+00 2.814675e+00 2.060123e+00 1.633376e-01 3.833742e-01 4.608743e-01 8.054823e-01 8.602401e-01 1.043221e+00 8.061724e-01 1.172221e+00 6.793986e-01 6.091885e-01 6.343841e-01 5.798563e-01 2.567948e-01
<GCONST> 1.314906e+02
<MIXTURE> 10 5.295498e-02
<MEAN> 39
 1.238966e+01 -1.888780e-01 1.138120e+00 6.148550e+00 2.441035e-01 1.027752e+00 -3.189549e+00 1.661977e+00 -1.055959e+00 5.536714e-01 2.553158e+00 -5.208632e-01 -7.169839e+00 6.735126e-01 4.080386e-01 7.079654e-01 4.192407e-01 1.647393e-01 1.284440e-01 4.730664e-01 9.058734e-01 5.806567e-02 -3.637737e-01 -8.403088e-01 2.046992e-01 -2.155774e+00 -7.864600e-01 -2.476859e-02 1.328752e-01 -4.934613e-01 -3.579363e-01 2.160565e-01 4.012994e-02 -8.314688e-02 1.010569e-01 1.903271e-02 1.641294e-01 -4.086528e-03 6.137868e-01
<VARIANCE> 39
 1.617214e+01 5.799385e+01 9.511514e+01 6.433277e+01 8.020684e+01 7.435857e+01 4.259114e+01 1.035211e+02 4.831676e+01 4.095592e+01 3.220402e+01 2.833456e+01 2.167308e+01 1.837378e+00 2.240811e+00 3.561672e+00 3.081133e+00 4.169388e+00 5.175415e+00 4.202183e+00 7.265828e+00 3.223460e+00 2.533846e+00 2.847924e+00 2.375292e+00 3.327272e+00 3.363953e-01 3.313479e-01 6.607162e-01 5.934716e-01 7.289231e-01 7.777885e-01 8.826117e-01 8.788680e-01 5.331952e-01 5.803683e-01 5.931960e-01 4.880392e-01 3.321669e-01
<GCONST> 1.298563e+02
<MIXTURE> 11 5.283022e-02
<MEAN> 39
 -1.456430e+00 -5.267754e+00 -5.541656e+00 -8.361092e+00 7.950441e+00 -4.040276e+00 4.520788e+00 6.838630e+00 3.632695e+00 -2.865523e+00 -3.757375e+00 -5.738671e+00 1.221770e+01 4.733390e-03 3.988595e-02 -7.051603e-02 -1.225948e-01 2.657706e-01 -6.859542e-02 -2.289479e-01 3.325273e-01 -7.850832e-02 -2.695930e-01 3.365875e-01 -2.223449e-01 -2.752202e-02 1.244766e-01 4.131800e-02 2.274525e-01 2.024662e-01 -2.421869e-01 2.616709e-02 -4.364007e-01 -3.369346e-02 3.924626e-02 1.848361e-01 9.485239e-02 6.549732e-02 -1.974608e-01
<VARIANCE> 39
 1.162869e+01 1.010041e+01 3.946947e+01 2.143865e+01 4.154562e+01 4.445295e+01 5.033316e+01 5.259066e+01 4.842765e+01 5.795395e+01 3.309203e+01 2.493243e+01 2.887114e+00 1.655451e-01 2.528289e-01 8.096730e-01 6.304703e-01 1.579263e+00 7.666821e-01 1.638234e+00 1.244801e+00 1.783797e+00 1.424304e+00 1.479214e+00 1.036139e+00 9.536574e-02 3.720765e-02 6.680202e-02 1.502450e-01 1.201800e-01 2.013766e-01 1.559026e-01 2.471048e-01 2.875378e-01 3.301835e-01 2.950848e-01 2.129530e-01 2.185643e-01 2.603176e-02
<GCONST> 8.520779e+01
<MIXTURE> 12 5.438351e-02
<MEAN> 39
 -9.724142e+00 -9.259321e+00 5.456417e+00 7.304796e+00 -3.612575e+00 5.594254e+00 -2.776277e+00 1.590548e+00 5.605111e+00 -3.677984e+00 -1.099776e-01 4.254700e+00 1.764330e+00 -2.616635e-01 6.428098e-01 1.270574e-01 -7.418372e-01 -1.381220e-01 -6.862783e-01 -1.218596e+00 -1.427575e+00 -6.688926e-01 5.424090e-02 7.818049e-01 -7.385855e-01 3.448712e+00 1.741274e+00 1.219189e+00 -7.277130e-01 -8.004299e-01 8.915830e-02 -5.102153e-01 -1.613375e-02 -1.801331e-01 -8.573400e-01 2.775919e-01 3.128695e-01 -5.593085e-01 -7.758201e-01
<VARIANCE> 39
 5.836868e+01 6.138629e+01 1.093270e+02 8.186754e+01 7.836170e+01 6.616782e+01 6.397172e+01 8.179964e+01 5.650580e+01 5.148761e+01 3.984419e+01 2.517082e+01 3.570518e+01 1.341518e+01 9.623186e+00 1.022975e+01 1.020633e+01 7.187285e+00 6.806161e+00 8.445229e+00 1.073529e+01 9.151954e+00 5.329477e+00 4.384605e+00 4.980820e+00 8.327750e+00 9.596888e-01 1.138896e+00 1.323269e+00 2.120624e+00 1.810635e+00 1.726808e+00 1.552476e+00 1.820405e+00 1.321105e+00 1.139545e+00 8.447173e-01 8.152379e-01 9.041207e-01
<GCONST> 1.547701e+02
<MIXTURE> 13 5.317628e-02
<MEAN> 39
 -7.000303e+00 5.760956e+00 1.995397e+01 6.994074e+00 -1.262946e+01 -7.451869e+00 -5.170755e-01 -1.570144e+00 -7.495096e+00 -1.490743e+00 6.997375e+00 2.441025e+00 3.570273e+00 3.736131e-01 8.809463e-02 -2.741245e-01 -1.758355e-01 -4.513577e-01 -5.942324e-01 -9.529928e-02 1.105096e-01 1.100864e-01 2.870417e-01 3.189069e-01 -1.868552e-01 -3.524869e-02 3.133042e-01 -2.684164e-01 -7.747788e-01 1.190353e-02 5.737231e-01 3.769188e-01 -9.998589e-02 2.482636e-02 5.087759e-01 -3.088371e-02 -3.235231e-01 -8.060825e-02 -4.183936e-01
<VARIANCE> 39
 2.093222e+01 2.803720e+01 4.659544e+01 5.487963e+01 2.751200e+01 5.180247e+01 4.154268e+01 4.876775e+01 4.552405e+01 3.006992e+01 3.577999e+01 3.492592e+01 1.594694e+01 4.104229e+00 4.959118e+00 5.364645e+00 3.736740e+00 7.503719e+00 5.378382e+00 3.738323e+00 3.426404e+00 5.253116e+00 2.252357e+00 4.759881e+00 2.795273e+00 4.177774e+00 4.230377e-01 5.416232e-01 6.981554e-01 6.692792e-01 9.653666e-01 6.911466e-01 6.469560e-01 8.395483e-01 8.703133e-01 4.911388e-01 6.433080e-01 5.314509e-01 3.949225e-01
<GCONST> 1.305425e+02
<MIXTURE> 14 8.505397e-02
<MEAN> 39
 5.871661e+00 6.337574e+00 -3.470631e+00 -5.782850e+00 -2.380538e+00 3.606762e+00 2.620132e+00 -8.026414e+00 -4.523864e+00 2.882759e+00 -4.889470e+00 -2.562265e+00 2.237555e+00 1.162214e-01 5.597497e-01 2.380702e-01 -7.846234e-02 1.109523e-02 -2.476485e-01 4.441277e-01 -2.597408e-01 -1.673808e-01 1.148797e-01 -5.373729e-01 -4.871722e-02 -4.366402e-01 -5.593667e-02 -1.880263e-01 1.580819e-02 1.507697e-01 4.913820e-02 -5.664794e-03 -1.710859e-01 1.712784e-01 -1.825752e-02 -3.548489e-02 3.347784e-01 -2.183830e-02 3.509699e-02
<VARIANCE> 39
 6.283316e+00 2.214606e+01 6.508035e+01 1.088778e+02 6.673756e+01 9.714523e+01 9.284094e+01 1.198809e+02 5.101240e+01 5.170704e+01 5.936453e+01 5.039442e+01 7.315289e+00 3.890961e-01 7.918411e-01 1.957049e+00 3.483516e+00 2.096801e+00 2.505348e+00 4.051306e+00 4.151254e+00 2.976910e+00 2.297678e+00 3.133878e+00 2.101553e+00 3.629818e-01 7.449440e-02 1.632774e-01 3.521312e-01 4.302873e-01 3.749655e-01 4.668166e-01 5.933027e-01 7.893997e-01 5.060672e-01 4.767367e-01 3.990062e-01 3.272296e-01 7.800823e-02
<GCONST> 1.146556e+02
<MIXTURE> 15 3.696168e-02
<MEAN> 39
 -1.304819e+01 -6.051546e-01 -6.606687e-01 -5.346183e+00 3.374476e+00 4.781927e+00 -2.862677e+00 9.108614e+00 8.539301e+00 -1.547746e+00 -3.573483e-01 3.688111e+00 2.796749e+00 -7.404408e-01 2.066541e-01 8.827572e-01 7.046363e-01 -8.617797e-01 2.826347e-01 4.545920e-01 7.678986e-02 -5.342306e-01 -6.952798e-01 2.763998e-01 4.524694e-01 -5.460654e-01 8.845627e-01 6.623930e-02 -1.855149e-01 2.249646e-01 -4.211831e-02 -5.455031e-01 -4.766518e-02 -2.255179e-01 -5.286840e-01 2.899528e-02 -5.162533e-02 -4.707606e-01 -3.001607e-01
<VARIANCE> 39
 8.167658e+01 2.496404e+01 8.064783e+01 4.063718e+01 5.165238e+01 3.406208e+01 4.576496e+01 6.241051e+01 3.424262e+01 3.343700e+01 4.797950e+01 4.009538e+01 6.637033e+01 1.065614e+01 3.877802e+00 2.995589e+00 4.811751e+00 4.457711e+00 5.777986e+00 5.287134e+00 4.088779e+00 4.333939e+00 3.473261e+00 3.698246e+00 3.083734e+00 5.955628e+00 1.043211e+00 6.886569e-01 6.446068e-01 5.525268e-01 8.065305e-01 7.576355e-01 9.265850e-01 7.584502e-01 7.420437e-01 7.398103e-01 7.461740e-01 6.284657e-01 3.424489e-01
<GCONST> 1.366273e+02
<MIXTURE> 16 5.864585e-02
<MEAN> 39
 -1.736480e+00 -5.896781e+00 -6.356287e+00 -5.386544e+00 5.339136e+00 -6.191590e+00 4.406295e+00 7.083135e+00 2.862161e+00 1.813176e-01 -5.226507e+00 -4.385895e+00 1.121294e+01 -1.690813e-01 -3.369390e-01 -7.846190e-01 -4.596177e-01 6.030965e-01 -3.631402e-01 1.039913e+00 6.704293e-01 -2.467438e-02 -4.446448e-01 -1.336153e-01 -4.741332e-01 6.297213e-01 6.645077e-02 4.169516e-01 4.453988e-01 1.007193e-01 -8.869706e-02 2.029417e-01 -2.906886e-01 -4.837094e-01 -7.100164e-02 4.409717e-02 2.486669e-01 1.467183e-01 -4.312628e-01
<VARIANCE> 39
 1.296348e+01 1.047035e+01 4.852565e+01 3.355317e+01 5.515086e+01 2.771107e+01 8.111343e+01 3.752245e+01 5.262268e+01 4.186063e+01 4.933586e+01 4.017142e+01 8.445315e+00 8.275220e-01 1.237734e+00 5.414713e+00 2.048854e+00 3.945605e+00 3.508499e+00 4.545946e+00 4.585022e+00 3.848630e+00 4.195852e+00 3.405900e+00 2.974149e+00 8.900742e-01 1.329334e-01 2.575278e-01 4.624329e-01 4.413791e-01 5.121350e-01 3.460928e-01 6.240103e-01 7.296659e-01 6.758457e-01 6.019015e-01 4.505528e-01 5.413629e-01 2.443841e-01
<GCONST> 1.186347e+02
<MIXTURE> 17 3.748892e-02
<MEAN> 39
 4.689970e+00 2.223049e+00 6.830373e-01 2.667971e+00 1.490015e-01 2.240412e+00 -1.306612e+00 6.503412e+00 -2.879209e+00 -6.629092e+00 -4.484843e+00 -4.184121e-01 -1.187503e+01 4.589827e-02 -8.581485e-01 -1.029618e+00 -3.678605e-02 -6.803178e-02 3.183801e-01 -8.970659e-02 8.785515e-01 -4.837833e-01 -3.085008e-01 -1.461419e-01 1.577947e-01 -1.899250e+00 -6.036147e-01 -3.286703e-01 8.497038e-02 -1.106861e-01 -2.530362e-01 -1.093831e-01 4.671472e-02 -4.113130e-01 4.727384e-01 4.249702e-01 3.317063e-01 2.034193e-01 7.010431e-01
<VARIANCE> 39
 6.831061e+01 4.459763e+01 7.609793e+01 9.282397e+01 5.496498e+01 6.513831e+01 6.411286e+01 1.016402e+02 5.870714e+01 5.590416e+01 3.733715e+01 4.092184e+01 2.045717e+01 2.380696e+00 3.212034e+00 3.475247e+00 7.085016e+00 4.733438e+00 4.822624e+00 5.977952e+00 4.599897e+00 2.789327e+00 4.349533e+00 3.098227e+00 2.429815e+00 1.692294e+00 3.379393e-01 4.787125e-01 5.791540e-01 9.405254e-01 8.228711e-01 8.805876e-01 9.222865e-01 8.558911e-01 6.868184e-01 7.988660e-01 6.820756e-01 5.433323e-01 2.485730e-01
<GCONST> 1.347212e+02
<STATE> 4
<NUMMIXES> 17
<MIXTURE> 1 7.006130e-02
<MEAN> 39
 1.319799e+01 8.154128e+00 -1.434040e+01 -1.537104e+00 -1.364001e+01 1.415784e+01 3.660435e+00 -1.206420e-01 -1.230281e+01 -2.253424e+00 5.473681e+00 1.016638e+01 -4.824651e+00 6.027555e-01 2.135166e-01 -1.102007e+00 -4.346184e-01 1.101512e-01 -9.127623e-02 4.512146e-01 -2.898352e-01 -5.708168e-01 5.384771e-01 -1.988971e-02 3.525887e-01 5.146973e-01 -6.210607e-01 -4.649977e-01 4.887683e-01 2.088057e-01 9.824345e-01 -3.442171e-02 -4.765345e-01 -2.074742e-01 6.356455e-01 6.393844e-02 -1.732795e-01 -2.665757e-01 -5.136415e-02
<VARIANCE> 39
 7.798042e+00 2.578091e+01 3.868304e+01 4.755302e+01 8.748882e+01 6.892615e+01 6.747558e+01 6.829431e+01 6.806841e+01 3.061479e+01 5.546370e+01 2.200759e+01 9.712555e+00 2.819945e+00 2.708087e+00 4.874866e+00 3.565980e+00 1.303163e+01 5.466499e+00 5.508191e+00 6.361044e+00 7.589841e+00 4.328706e+00 3.459513e+00 2.156718e+00 9.381304e-01 8.542863e-01 5.002394e-01 8.132092e-01 3.861724e-01 6.794579e-01 8.375801e-01 6.084753e-01 1.160949e+00 1.293204e+00 7.519217e-01 8.377361e-01 4.771023e-01 8.928174e-02
<GCONST> 1.305288e+02
<MIXTURE> 2 7.144749e-02
<MEAN> 39
 -2.655491e+01 -1.023582e+00 4.620839e+00 5.041817e+00 1.984093e+00 7.555804e-01 2.136583e+00 3.653858e+00 3.220764e+00 -1.845103e+00 1.549294e+00 7.610230e+00 -1.664084e+00 -1.671912e-01 -8.628144e-01 -6.379240e-01 -1.165300e-02 1.096051e-01 5.951489e-01 2.561894e-01 1.186841e-01 1.805559e-01 4.100445e-01 2.688607e-01 1.681124e-01 -4.819901e-01 6.946966e-01 3.246792e-01 1.012182e-01 -2.801228e-01 1.402974e-01 1.920199e-01 -1.528463e-01 -3.144249e-02 -4.270173e-02 -1.817903e-01 5.074163e-03 -6.032285e-02 -5.644603e-02
<VARIANCE> 39
 1.476760e+01 7.607195e+01 3.369302e+01 3.520387e+01 4.087799e+01 3.616444e+01 2.963988e+01 3.549122e+01 1.894431e+01 1.795773e+01 2.966851e+01 1.729106e+01 7.584390e+00 1.995036e+00 2.154157e+00 1.113106e+00 1.179855e+00 1.557999e+00 2.379807e+00 2.837461e+00 2.082380e+00 1.776870e+00 1.717034e+00 2.164953e+00 9.358706e-01 3.052821e-01 4.250082e-01 6.529310e-01 3.040231e-01 3.333914e-01 3.064156e-01 6.281993e-01 6.900934e-01 5.532613e-01 3.818860e-01 3.137780e-01 5.317852e-01 2.547016e-01 1.142810e-01
<GCONST> 1.071137e+02
<MIXTURE> 3 6.798217e-02
<MEAN> 39
 -1.922011e-01 8.242966e+00 -4.542591e+00 3.405938e+00 9.827008e+00 -9.924030e+00 -3.077034e+00 -1.083491e+01 6.895768e+00 7.618088e+00 -5.036403e+00 -1.031403e-02 -1.996552e+00 2.196953e-02 1.562555e+00 1.448976e+00 1.585252e+00 1.473089e+00 -4.662798e-01 -8.559122e-01 -8.805462e-01 -2.047748e-01 -1.701695e+00 5.621791e-01 1.875941e-01 -2.179898e+00 -1.972086e-01 -1.524459e-01 3.298095e-01 -9.775373e-02 -3.278712e-01 3.402309e-01 4.540580e-01 2.761278e-01 1.487770e-01 -5.394884e-01 2.758393e-02 1.773983e-01 -4.365672e-02
<VARIANCE> 39
 2.049096e+01 3.610730e+01 5.598399e+01 5.035327e+01 6.432924e+01 3.574707e+01 7.149072e+01 7.101845e+01 1.359223e+02 5.829004e+01 6.491164e+01 3.300331e+01 1.730372e+01 7.450534e-01 1.336424e+00 4.120044e+00 2.421104e+00 2.584261e+00 2.832236e+00 4.710272e+00 5.710821e+00 4.908254e+00 5.600513e+00 2.897554e+00 2.829653e+00 6.485862e-01 9.923425e-02 2.691002e-01 5.477739e-01 4.572523e-01 5.610609e-01 6.723782e-01 6.960570e-01 9.682328e-01 8.313342e-01 7.022405e-01 5.577984e-01 4.414425e-01 8.648552e-02
<GCONST> 1.237979e+02
<MIXTURE> 4 4.245128e-02
<MEAN> 39
 1.134692e+01 -6.649585e-01 -1.086708e+01 1.634255e+00 3.293332e+00 1.228703e+01 -7.292267e+00 -4.826047e+00 -2.484800e+00 1.027472e+00 4.735186e+00 7.666237e+00 -7.805655e+00 -1.548305e+00 -1.215889e+00 2.368521e+00 5.869209e-01 2.122125e+00 -1.647488e+00 -1.124629e+00 1.119775e+00 2.378809e+00 -1.285344e+00 -7.530789e-01 -4.760515e-01 -1.025272e+00 -1.148621e+00 1.446638e-02 6.020474e-01 -3.559943e-01 -8.693101e-01 -3.563627e-01 3.901996e-01 2.791029e-01 2.980024e-01 -7.220420e-02 1.505712e-01 -6.764639e-03 6.349431e-01
<VARIANCE> 39
 3.511261e+01 1.969705e+01 5.601532e+01 5.643213e+01 3.445383e+01 2.036841e+01 4.762499e+01 5.312930e+01 8.085837e+01 3.756012e+01 3.833890e+01 2.601894e+01 2.039484e+01 8.360843e+00 3.613898e+00 7.003288e+00 5.229900e+00 9.266900e+00 3.780924e+00 1.139802e+01 1.202023e+01 1.286807e+01 8.531766e+00 4.205252e+00 2.728743e+00 4.447401e+00 7.657251e-01 4.665308e-01 1.207167e+00 1.205653e+00 1.498219e+00 4.602353e-01 1.242764e+00 9.918628e-01 1.026248e+00 6.183447e-01 7.758912e-01 5.252635e-01 4.561202e-01
<GCONST> 1.397664e+02
<MIXTURE> 5 5.554834e-02
<MEAN> 39
 2.189201e-01 -7.508208e+00 -6.658176e-01 2.969543e+00 3.810454e-01 1.134660e+00 1.392184e+00 3.784893e+00 4.227622e-01 -3.315566e+00 -1.798621e+00 4.294779e+00 -2.151843e+01 -4.001857e-02 -4.507079e-01 -4.155377e-01 3.142869e-01 -1.273867e-01 3.074311e-01 2.374277e-01 2.422026e-01 1.589113e-01 -1.875725e-01 1.242108e-01 -1.048984e-01 -5.027896e-01 -8.141322e-02 3.054492e-01 9.251183e-02 -1.421364e-02 1.536625e-01 -1.377941e-01 -6.457592e-02 -2.870572e-01 6.838161e-02 -2.107617e-02 2.730291e-02 -1.605490e-02 2.719150e-01
<VARIANCE> 39
 7.418966e+00 6.845093e+00 1.022748e+01 2.200279e+01 1.726082e+01 7.778284e+00 1.664231e+01 2.342554e+01 1.250468e+01 2.941314e+01 1.878730e+01 2.419075e+01 3.335822e+00 2.587858e-01 3.155280e-01 7.510201e-01 1.052830e+00 7.510520e-01 1.509879e+00 1.636792e+00 2.011249e+00 2.022414e+00 1.813782e+00 1.824119e+00 8.474741e-01 7.130372e-02 1.005996e-01 1.293191e-01 1.527131e-01 1.705474e-01 2.025643e-01 2.203985e-01 3.083815e-01 2.947071e-01 3.767860e-01 2.730044e-01 2.419509e-01 1.618960e-01 4.455986e-02
<GCONST> 8.066732e+01
<MIXTURE> 6 5.686678e-02
<MEAN> 39
 -6.215635e+00 3.507078e+00 1.266895e+01 4.598030e+00 -5.988229e+00 -1.578209e+01 5.979718e+00 6.977149e+00 -4.853029e+00 -4.125178e+00 2.457811e+00 4.750822e+00 4.549491e-01 -7.302432e-02 -6.169645e-02 1.332815e+00 4.211462e-01 -7.345241e-01 5.283189e-01 4.589403e-02 -2.144577e-01 -7.326071e-01 -4.618259e-01 4.951036e-01 5.332668e-01 -8.701555e-01 -4.188861e-01 -3.300243e-01 -4.613065e-01 -3.103597e-01 4.401916e-01 7.779300e-01 -1.080875e-01 -6.483828e-02 4.092782e-01 -4.263172e-03 -1.894636e-01 -1.197205e-01 -1.568902e-01
<VARIANCE> 39
 2.344384e+01 5.332903e+01 9.611129e+01 2.095869e+01 2.951172e+01 1.292381e+02 3.479195e+01 5.328578e+01 3.543304e+01 3.051962e+01 3.087381e+01 2.371689e+01 1.940629e+01 8.366006e+00 3.136445e+00 6.355647e+00 4.378208e+00 3.339295e+00 1.025363e+01 3.266966e+00 4.846030e+00 6.914614e+00 3.823031e+00 2.330371e+00 1.797168e+00 1.944608e+00 7.002463e-01 3.369004e-01 9.118071e-01 7.619238e-01 6.929382e-01 6.451859e-01 7.506726e-01 6.427212e-01 1.135609e+00 7.006184e-01 3.948460e-01 2.947267e-01 9.633581e-02
<GCONST> 1.289343e+02
<MIXTURE> 7 4.172021e-02
<MEAN> 39
 5.072552e+00 7.883849e+00 -1.290309e+01 -1.223024e+01 1.542180e+00 9.318678e+00 7.188821e+00 -1.376878e+01 -1.284946e+00 1.647342e+01 2.694719e+00 8.511376e-01 4.606473e+00 -6.272855e-01 -1.543612e+00 7.679911e-01 7.972342e-01 -6.407090e-01 1.412106e+00 -2.293156e+00 -1.235663e+00 1.461763e+00 1.036816e+00 1.105879e-01 -2.966287e-01 5.767593e-01 1.112318e-01 -2.350471e-01 1.199530e-01 6.094578e-01 -3.089938e-02 -1.389156e-01 -4.713563e-01 6.128702e-01 4.107715e-01 -1.126003e+00 -1.755307e-01 3.860032e-01 -4.200594e-01
<VARIANCE> 39
 1.101998e+01 1.919820e+01 4.946617e+01 6.215612e+01 3.843223e+01 6.510938e+01 8.836782e+01 8.740721e+01 3.332975e+01 4.558814e+01 1.844665e+01 4.056248e+01 7.186692e+00 1.261111e+00 6.926873e-01 1.654517e+00 5.703354e+00 2.553598e+00 2.278491e+00 6.087810e+00 7.745677e+00 2.863768e+00 1.075692e+01 2.447655e+00 2.580455e+00 2.443561e+00 3.017480e-01 1.787116e-01 3.274339e-01 4.293884e-01 1.032504e+00 7.078292e-01 1.399721e+00 2.106575e+00 2.939658e-01 1.368045e+00 3.468556e-01 4.520413e-01 1.340256e-01
<GCONST> 1.227561e+02
<MIXTURE> 8 5.517518e-02
<MEAN> 39
 -1.852027e+01 -9.530998e+00 6.218937e+00 1.851359e+00 3.921728e+00 6.547213e+00 -3.871961e+00 1.884749e+00 1.826267e+00 -3.745879e+00 7.192994e-01 5.276002e+00 1.122585e-01 -2.374036e+00 8.254285e-01 -1.949229e+00 -6.271363e-01 -2.726322e-02 -7.892038e-01 6.667038e-01 9.079037e-01 2.008600e+00 1.003704e+00 -2.961739e-01 8.641893e-03 2.298881e+00 1.880370e+00 1.023054e+00 -1.801335e-01 3.715738e-01 -5.109045e-01 -1.002665e+00 4.211600e-01 2.252927e-01 -2.602667e-01 -1.510581e-02 7.683308e-02 -1.525990e-01 -8.536999e-01
<VARIANCE> 39
 2.452911e+01 7.679036e+01 9.869872e+01 5.250855e+01 4.546324e+01 5.479602e+01 3.465413e+01 3.488808e+01 3.590830e+01 2.962625e+01 3.608323e+01 1.978381e+01 2.893102e+01 2.005322e+01 8.098867e+00 1.120175e+01 4.593476e+00 5.187920e+00 8.631279e+00 6.342469e+00 2.906976e+00 3.415835e+00 2.970621e+00 4.043130e+00 3.343172e+00 9.299152e+00 6.649915e-01 1.809574e+00 1.688820e+00 1.058051e+00 1.302303e+00 1.370872e+00 8.541260e-01 7.976906e-01 7.648610e-01 7.925624e-01 9.550000e-01 5.159445e-01 6.064687e-01
<GCONST> 1.417455e+02
<MIXTURE> 9 6.830043e-02
<MEAN> 39
 -3.744759e+00 -3.030588e+00 1.364904e+00 2.017755e+00 2.876927e+00 -3.561301e-01 3.090189e-01 -3.057382e+00 2.827313e+00 -4.958418e+00 -2.976300e+00 7.087793e+00 -1.731315e+01 7.866245e-01 -2.136884e+00 -1.893965e-02 -3.248160e-01 -1.669858e+00 2.801516e-01 -5.901139e-01 1.644888e+00 -9.167675e-01 -4.820470e-01 4.210591e-01 -3.108905e-01 -1.651944e+00 -6.526458e-02 3.312271e-01 -2.917653e-01 2.697383e-01 4.997827e-01 1.617939e-01 1.900632e-01 -2.483866e-01 -7.363343e-02 2.580288e-01 1.880126e-01 -1.122846e-01 3.813652e-01
<VARIANCE> 39
 3.686072e+01 2.376882e+01 3.140543e+01 5.214510e+01 2.783410e+01 4.042467e+01 4.088911e+01 5.389295e+01 3.486876e+01 5.074606e+01 3.308743e+01 1.811525e+01 1.210121e+01 3.536585e+00 2.207565e+00 4.463672e+00 4.214894e+00 2.884332e+00 4.591990e+00 4.315438e+00 3.678258e+00 5.506049e+00 4.125290e+00 2.783364e+00 1.830995e+00 7.256721e-01 3.437055e-01 3.100087e-01 9.089862e-01 4.995027e-01 4.209620e-01 6.850601e-01 5.824207e-01 6.541573e-01 1.021513e+00 8.749282e-01 4.233272e-01 3.967584e-01 1.036059e-01
<GCONST> 1.223130e+02
<MIXTURE> 10 6.046379e-02
<MEAN> 39
 -3.640262e+00 1.687087e+00 -4.754070e+00 4.323431e+00 -4.875399e-01 -4.371991e+00 5.429742e+00 -5.236874e+00 1.425037e+01 4.381393e+00 -5.951765e+00 4.951200e+00 7.625847e+00 1.847805e-01 3.999642e-01 -3.846738e-01 -2.885437e-01 1.012686e+00 -1.761640e-01 1.592378e-01 -4.927153e-01 2.821793e-01 1.763248e-01 -5.693749e-01 -6.998772e-02 -4.791411e-01 1.208616e-01 2.225411e-01 3.165643e-01 6.939591e-02 1.151784e-01 -1.128250e-01 -5.974356e-01 -6.292497e-02 -2.085208e-01 -3.087867e-02 2.484116e-01 -3.658062e-02 -5.452308e-01
<VARIANCE> 39
 3.675957e+00 8.376388e+00 1.678280e+01 2.659234e+01 3.405569e+01 1.667852e+01 4.061585e+01 3.403466e+01 1.648103e+01 3.422236e+01 2.376283e+01 2.933315e+01 7.427588e+00 6.632336e-01 9.727954e-01 1.511517e+00 2.286471e+00 3.273878e+00 2.283801e+00 3.674875e+00 3.414444e+00 2.124943e+00 3.557793e+00 1.179264e+00 2.071858e+00 9.674703e-01 1.417530e-01 2.037690e-01 3.156442e-01 3.391564e-01 3.921454e-01 5.231354e-01 6.110640e-01 3.891878e-01 3.381933e-01 5.234256e-01 2.588552e-01 3.369700e-01 2.688775e-01
<GCONST> 1.036092e+02
<MIXTURE> 11 6.279233e-02
<MEAN> 39
 -2.372221e+00 5.607843e-01 -5.670411e+00 -2.293920e+00 6.927308e+00 -4.427898e+00 1.212677e+00 1.193528e+00 7.388056e+00 3.789963e+00 -4.120698e+00 -1.856798e-01 5.606368e+00 1.248713e+00 2.613509e-01 -1.883921e+00 8.271507e-02 5.512526e-01 -1.067500e+00 1.662863e+00 -1.398867e+00 2.516836e-01 9.789094e-01 -1.565627e+00 -5.891700e-01 1.100913e+00 -3.410459e-01 -3.247235e-01 3.501119e-01 4.284982e-01 1.042060e-02 6.925145e-01 1.175166e-01 -2.526808e-01 -4.524494e-01 -3.446439e-01 7.069525e-02 2.199668e-01 -7.961698e-01
<VARIANCE> 39
 2.136238e+01 3.183036e+01 5.103980e+01 4.437330e+01 1.963820e+02 6.114584e+01 5.622415e+01 5.053075e+01 7.057095e+01 6.170773e+01 6.111559e+01 4.354375e+01 1.618152e+01 6.574331e+00 3.324229e+00 5.306616e+00 5.419793e+00 7.269868e+00 7.347715e+00 7.990487e+00 4.054562e+00 4.263046e+00 4.765212e+00 3.999431e+00 3.718416e+00 6.762291e+00 9.600666e-01 1.111735e+00 7.354862e-01 8.502753e-01 1.750455e+00 1.013862e+00 9.821022e-01 1.228103e+00 1.066772e+00 8.983904e-01 9.617777e-01 5.396379e-01 3.303249e-01
<GCONST> 1.423917e+02
<MIXTURE> 12 6.622528e-02
<MEAN> 39
 -2.538851e+01 2.644682e+00 6.780662e+00 -2.516416e+00 3.594717e+00 4.539716e+00 9.428044e-01 7.099168e+00 4.725966e+00 -3.651093e+00 3.843556e+00 8.298246e+00 -4.137428e+00 5.596463e-01 -7.572235e-02 -6.391559e-01 6.547272e-02 8.618841e-01 2.798410e-02 -1.588353e-01 -2.220047e-01 1.184954e-01 4.079694e-02 -1.009520e+00 -3.959976e-01 -5.789596e-01 9.445338e-01 -1.298588e-01 -1.286542e-01 4.400780e-01 -2.424694e-01 -4.996540e-01 -1.211857e-01 -3.223094e-01 -3.062901e-01 1.075307e-01 -1.586471e-01 -1.734639e-01 -3.410948e-02
<VARIANCE> 39
 1.957301e+01 2.172488e+01 3.127665e+01 2.061497e+01 5.681272e+01 3.914265e+01 3.937102e+01 2.431222e+01 1.720844e+01 1.669442e+01 2.638143e+01 2.158415e+01 1.841595e+01 1.238891e+01 3.117308e+00 3.798368e+00 3.813453e+00 2.200967e+00 4.383459e+00 3.397415e+00 3.446711e+00 2.729178e+00 1.756184e+00 1.861445e+00 1.677825e+00 4.717998e+00 7.185456e-01 7.180788e-01 4.517479e-01 5.810170e-01 3.796103e-01 6.339420e-01 5.674738e-01 4.539801e-01 4.534453e-01 2.587997e-01 3.317129e-01 2.472807e-01 3.261647e-01
<GCONST> 1.184558e+02
<MIXTURE> 13 7.513192e-02
<MEAN> 39
 -1.978614e+00 8.446549e+00 -1.423227e+00 9.347388e+00 1.480945e+01 -3.673447e+00 5.208808e+00 -1.513975e+01 4.985604e+00 -1.598344e+00 -7.744164e+00 4.691385e+00 -1.035201e+01 -2.768514e-01 -1.265002e+00 8.643467e-01 1.041450e-01 -1.663363e+00 1.201856e+00 8.551314e-01 3.130860e-01 -2.417383e-01 -7.594677e-01 5.532410e-01 1.143140e+00 -1.599633e+00 1.903133e-02 -7.206531e-01 6.220535e-02 -6.549580e-01 -6.046047e-01 -6.480432e-02 -4.426237e-01 9.544864e-01 -1.451337e-01 -7.358591e-02 1.547843e-01 -1.490107e-01 1.478277e-02
<VARIANCE> 39
 3.346736e+01 4.112777e+01 7.542356e+01 4.662879e+01 6.628252e+01 1.045049e+02 2.911173e+01 3.255436e+01 1.043112e+02 3.440779e+01 3.502606e+01 2.497967e+01 2.864957e+01 1.048036e+00 4.101467e+00 5.471082e+00 4.812973e+00 3.943870e+00 2.954913e+00 4.037915e+00 6.903297e+00 5.663769e+00 4.702635e+00 2.977942e+00 2.595229e+00 5.377976e-01 1.957378e-01 3.537931e-01 8.681949e-01 9.645045e-01 5.072506e-01 7.030487e-01 8.493046e-01 6.912823e-01 1.178115e+00 5.905257e-01 5.549545e-01 5.066242e-01 1.030040e-01
<GCONST> 1.279854e+02
<MIXTURE> 14 4.385106e-02
<MEAN> 39
 -5.862448e-01 -1.883735e+00 6.049950e-01 3.564837e+00 -9.010062e-01 -8.711414e-01 2.639478e-01 5.707115e-01 8.813816e-01 -3.100801e+00 6.283295e-01 4.032485e+00 -1.913603e+01 -2.099619e+00 -4.963336e-01 -2.061484e-01 -7.829787e-01 2.846413e-01 2.744075e-01 8.972169e-03 6.963532e-01 7.375540e-01 1.015035e+00 2.329535e-01 8.775556e-02 1.691960e+00 -1.043036e+00 1.499099e-01 2.690712e-01 -4.000217e-01 5.698494e-02 1.200024e-02 -7.715065e-02 -2.265200e-01 2.895993e-01 6.140976e-01 -1.609593e-01 -7.179728e-02 1.714170e+00
<VARIANCE> 39
 3.838715e+01 4.367052e+01 2.082280e+01 2.403793e+01 1.275019e+01 3.492970e+01 3.891356e+01 3.921843e+01 2.522962e+01 2.684958e+01 2.749642e+01 1.502872e+01 2.145464e+01 7.201316e+00 6.294548e+00 3.138341e+00 4.454172e+00 2.197976e+00 8.604096e+00 3.005966e+00 4.914882e+00 3.046453e+00 5.497101e+00 2.213418e+00 3.003135e+00 8.598687e+00 7.205603e-01 4.485642e-01 9.823549e-01 4.622912e-01 4.541405e-01 1.157130e+00 7.577611e-01 9.843043e-01 5.494323e-01 1.043548e+00 4.196433e-01 4.641376e-01 2.952365e-01
<GCONST> 1.270355e+02
<MIXTURE> 15 4.555566e-02
<MEAN> 39
 -2.282537e+00 2.103124e+00 -1.121653e+01 -7.845016e+00 5.443449e+00 -8.720839e+00 1.810375e+00 -3.380592e+00 9.412061e+00 7.486361e+00 -4.093330e+00 -1.243020e+00 7.474550e+00 -1.306539e-01 5.276946e-01 6.906954e-01 2.424335e-01 -6.936414e-01 -1.006827e+00 -3.749791e-01 -3.705290e-01 -1.366422e+00 -9.075813e-02 6.913736e-01 3.058286e-01 -7.491401e-01 6.902349e-02 1.000156e-01 3.343459e-01 5.234025e-01 1.876325e-01 -1.619464e-01 -1.058472e-01 5.131904e-02 -3.217867e-01 -7.910386e-02 2.111965e-01 -2.248492e-02 -3.187430e-01
<VARIANCE> 39
 2.161821e+01 2.314768e+01 5.486053e+01 1.655400e+01 4.776191e+01 2.257664e+01 5.370453e+01 1.293236e+02 1.812595e+01 8.327193e+01 3.428615e+01 1.566247e+01 8.104263e+00 2.128756e-01 9.364240e-01 7.283143e-01 2.689807e+00 2.429873e+00 1.867405e+00 4.015123e+00 7.524586e+00 2.702516e+00 2.497878e+00 3.169550e+00 9.697489e-01 3.601145e-01 6.782965e-02 1.080379e-01 1.991141e-01 2.285797e-01 4.390722e-01 2.332009e-01 3.156281e-01 5.915249e-01 3.750205e-01 6.148798e-01 5.153091e-01 1.668474e-01 8.056555e-02
<GCONST> 1.038200e+02
<MIXTURE> 16 6.978463e-02
<MEAN> 39
 -4.475178e+00 -1.291972e+00 -2.670318e+00 2.595185e+00 4.685118e+00 7.676560e+00 -9.284740e+00 -2.988205e+00 7.205508e+00 -3.812370e+00 3.274042e+00 6.465639e+00 -3.157538e+00 1.856005e+00 1.830117e+00 -7.528194e-01 -1.587016e+00 -1.800368e+00 -1.921641e-01 1.013900e+00 -5.424573e-01 -1.209981e+00 -3.801412e-01 9.617287e-01 7.447078e-01 -3.813526e-01 4.885468e-01 1.072745e-01 -5.543864e-01 -1.033398e-01 -3.660904e-01 -3.316575e-01 1.189720e+00 -1.080332e-01 -8.170772e-01 6.531473e-01 -2.384699e-01 -1.255086e-01 -6.976502e-02
<VARIANCE> 39
 9.073125e+01 8.711677e+01 8.598985e+01 5.642503e+01 5.218243e+01 9.711936e+01 9.037080e+01 4.089449e+01 5.193155e+01 4.425653e+01 6.281873e+01 2.694922e+01 1.823343e+01 1.704760e+01 8.572817e+00 7.761766e+00 7.555691e+00 6.119683e+00 6.386874e+00 7.882926e+00 4.345551e+00 8.278869e+00 5.472119e+00 7.299748e+00 2.832885e+00 4.819392e+00 9.460357e-01 9.380198e-01 1.086760e+00 1.243612e+00 1.153286e+00 1.075555e+00 1.562230e+00 1.163321e+00 8.955036e-01 1.581964e+00 9.997008e-01 5.713516e-01 3.545524e-01
<GCONST> 1.483793e+02
<MIXTURE> 17 4.664027e-02
<MEAN> 39
 3.918643e+00 1.117291e+00 9.734510e+00 3.647685e+00 -2.802698e-01 -2.077794e+00 2.479592e-01 -1.657369e+00 -7.415394e+00 -7.179945e+00 -3.288493e+00 -2.801751e-01 -1.434129e+01 2.919874e-02 -5.375609e-01 -1.490650e+00 -1.815034e-01 5.063909e-01 9.488102e-01 -1.368934e-02 1.689694e+00 -9.820309e-02 -4.896206e-01 -1.025429e+00 2.334230e-01 -1.699894e+00 -6.062031e-01 -1.094516e-01 -4.513513e-01 -3.718000e-01 -2.941262e-01 5.524046e-02 -4.961702e-02 1.680734e-01 5.490072e-01 6.565768e-01 3.309447e-01 3.967345e-01 7.250898e-01
<VARIANCE> 39
 3.550137e+01 2.398172e+01 1.103177e+02 5.423928e+01 1.912296e+01 5.725892e+01 3.404919e+01 4.332865e+01 5.417739e+01 6.225941e+01 1.760660e+01 1.247705e+01 1.760224e+01 2.904598e+00 3.570364e+00 5.328866e+00 1.838425e+00 5.344200e+00 5.757276e+00 3.842824e+00 4.834891e+00 4.489058e+00 5.347459e+00 2.354878e+00 2.574485e+00 3.386290e+00 5.235839e-01 3.645598e-01 9.896470e-01 5.558535e-01 6.604800e-01 1.114844e+00 5.335867e-01 5.538242e-01 7.142860e-01 8.569252e-01 4.242446e-01 2.129474e-01 2.559995e-01
<GCONST> 1.269329e+02
<TRANSP> 5
 0.000000e+00 1.000000e+00 0.000000e+00 0.000000e+00 0.000000e+00
 0.000000e+00 9.435776e-01 5.642237e-02 0.000000e+00 0.000000e+00
 0.000000e+00 0.000000e+00 9.938897e-01 6.110301e-03 0.000000e+00
 0.000000e+00 0.000000e+00 0.000000e+00 9.752997e-01 2.470037e-02
 0.000000e+00 0.000000e+00 0.000000e+00 0.000000e+00 0.000000e+00
<ENDHMM>
~h "M002"
<BEGINHMM>
<NUMSTATES> 5
<STATE> 2
<NUMMIXES> 17
<MIXTURE> 1 6.751613e-02
<MEAN> 39
 -1.528728e+00 -4.990045e-01 -2.554019e+00 6.208382e+00 5.884363e+00 -3.222966e+00 1.086048e+01 3.558163e-02 5.713931e-01 -2.319434e+00 -3.147760e+00 4.489262e+00 -2.665706e+01 -2.501920e-01 3.752746e-01 2.061799e-01 1.197682e-01 -1.091028e-01 2.614716e-01 -3.580899e-01 -2.722273e-01 -8.042501e-02 9.498382e-02 1.227343e-01 -7.359660e-02 1.272728e+00 -1.297844e-01 1.997355e-01 1.091207e-01 -1.881683e-01 9.299409e-03 3.873599e-02 -1.502839e-01 1.083370e-03 6.220706e-03 1.748184e-01 1.106031e-01 -6.018684e-03 8.004369e-01
<VARIANCE> 39
 1.892485e+01 2.121901e+01 1.637119e+01 2.527144e+01 3.902424e+01 2.491071e+01 4.258754e+01 2.702050e+01 1.879105e+01 2.703320e+01 2.643409e+01 2.071646e+01 7.922698e+01 2.718801e+00 1.762029e+00 3.490311e+00 1.958211e+00 3.042076e+00 3.505337e+00 1.950115e+00 1.899438e+00 2.365916e+00 2.248101e+00 1.981913e+00 1.420888e+00 4.931093e+00 3.328841e-01 1.661826e-01 2.753468e-01 5.219520e-01 3.372113e-01 4.494824e-01 3.486933e-01 2.548570e-01 3.112091e-01 4.614258e-01 2.878203e-01 2.166125e-01 8.699042e-01
<GCONST> 1.120038e+02
<MIXTURE> 2 7.853834e-02
<MEAN> 39
 2.608405e-01 -3.488069e+00 -1.248502e+01 2.098854e+00 6.077007e+00 1.167090e+01 -5.047264e+00 -3.202498e+00 -4.397583e+00 3.096255e+00 5.346011e-02 -5.293193e-01 2.411578e+00 6.453979e-03 4.361021e-02 1.182418e-01 3.728837e-02 6.375612e-02 -2.329001e-02 2.351092e-02 -2.585957e-02 6.652007e-02 3.623272e-02 5.372070e-02 2.002712e-02 -2.430522e-02 2.000734e-03 1.361220e-02 3.246048e-02 -6.211730e-03 5.125879e-03 -1.161317e-02 3.814641e-02 3.593080e-02 6.562864e-03 -4.931296e-03 2.544971e-02 3.283828e-02 -3.921126e-03
<VARIANCE> 39
 1.233221e+00 3.023259e+00 2.721391e+01 1.664011e+01 1.914424e+01 1.779258e+01 2.671686e+01 8.834551e+00 1.799339e+01 1.657139e+01 1.137980e+01 1.332161e+01 2.444039e+00 8.118908e-02 2.164290e-01 7.823189e-01 5.958760e-01 1.064206e+00 1.372953e+00 1.416090e+00 8.196990e-01 8.568467e-01 1.522054e+00 1.256624e+00 1.153707e+00 4.996275e-02 1.438505e-02 4.488220e-02 1.447591e-01 1.260560e-01 2.356838e-01 2.265617e-01 2.951292e-01 1.603475e-01 1.672538e-01 3.393540e-01 2.692418e-01 2.647683e-01 7.111507e-03
<GCONST> 6.759433e+01
<MIXTURE> 3 7.478334e-02
<MEAN> 39
 5.387093e+00 -1.528923e+00 -2.464635e+01 -5.144537e+00 -5.419020e+00 1.481713e+01 -4.545822e+00 6.466108e+00 -5.154211e+00 7.665202e+00 -2.089567e+00 5.278282e-01 7.143724e+00 2.095756e-02 1.000964e-03 -4.608466e-02 -2.887506e-02 -6.910713e-02 8.880072e-02 5.212229e-02 8.265866e-02 -5.272798e-02 -6.655408e-02 -4.474600e-02 -6.497614e-03 3.123578e-02 -9.450678e-03 6.303553e-03 7.451873e-02 1.318113e-02 5.675570e-03 -3.951471e-02 -6.060796e-03 -6.304383e-02 -1.606297e-02 -2.421497e-02 -1.355127e-02 -3.204948e-02 -1.254089e-02
<VARIANCE> 39
 4.418688e+00 6.053196e+00 1.979254e+01 6.995595e+00 1.551219e+01 1.703010e+01 2.519216e+01 1.708427e+01 1.259007e+01 1.131628e+01 1.295402e+01 1.246694e+01 3.149127e+00 1.053117e-01 1.695890e-01 9.835039e-01 6.298741e-01 9.447682e-01 8.335531e-01 1.160009e+00 1.275227e+00 1.178028e+00 1.093294e+00 1.358635e+00 1.289168e+00 9.137245e-02 1.363559e-02 2.751147e-02 1.731880e-01 1.191254e-01 1.792294e-01 1.710452e-01 2.276865e-01 2.449737e-01 2.456441e-01 1.946843e-01 2.633874e-01 2.392285e-01 7.895691e-03
<GCONST> 6.800894e+01
<MIXTURE> 4 5.300727e-02
<MEAN> 39
 -6.566541e-01 5.490239e-01 3.986977e+00 3.723653e-01 1.656713e-01 -3.659190e+00 -8.937065e-01 -2.545514e+00 1.020592e+00 -5.325343e-01 4.594306e-02 -1.012021e+00 -1.110695e+00 8.494777e-02 1.627074e-01 2.895356e-01 3.155458e-01 3.133770e-01 5.190330e-01 6.514257e-01 3.454250e-01 2.336209e-01 3.368319e-01 3.785836e-01 7.754848e-02 3.700118e-02 -5.642836e-02 -4.388565e-02 9.856895e-02 1.551829e-01 1.869720e-01 8.200730e-02 2.266093e-01 2.039962e-01 2.100805e-02 -1.240405e-01 1.116366e-01 1.036591e-01 -2.910597e-02
<VARIANCE> 39
 7.302016e-01 1.080925e+00 3.313484e+00 2.684122e+00 4.077438e+00 7.413743e+00 4.765415e+00 5.731210e+00 3.592084e+00 5.648365e+00 6.010627e+00 7.431897e+00 8.285324e-01 5.372906e-02 1.428911e-01 2.574818e-01 5.614557e-01 7.689517e-01 5.830799e-01 8.545670e-01 8.252878e-01 1.519211e+00 6.995354e-01 1.091862e+00 8.269200e-01 3.408687e-02 6.609571e-03 1.775638e-02 5.012904e-02 6.654545e-02 9.290813e-02 1.188154e-01 1.345024e-01 1.531581e-01 1.465441e-01 1.390817e-01 2.035588e-01 1.728271e-01 4.365372e-03
<GCONST> 3.977187e+01
<MIXTURE> 5 7.384000e-02
<MEAN> 39
 -3.272765e-01 1.865344e+00 7.422510e+00 2.998259e+00 1.742071e+00 -4.373561e+00 5.416628e-01 -1.867269e+00 -7.212632e-01 -3.870830e+00 -1.326053e+00 -9.318966e-02 -1.259019e+00 -8.528107e-02 -5.416594e-02 -1.204954e-01 -1.005020e-01 -1.028820e-01 -3.401361e-01 -2.337062e-01 -7.281230e-02 1.672604e-01 -9.182932e-02 1.218592e-01 3.497247e-02 -6.543568e-02 -6.319389e-02 -1.220919e-01 -2.316457e-01 -3.147486e-01 -2.261857e-01 3.419411e-02 -4.588462e-03 1.136902e-01 2.807884e-01 2.512487e-01 7.867388e-02 -7.470158e-02 -2.018410e-02
<VARIANCE> 39
 1.357268e+00 2.629557e+00 4.688242e+00 2.533994e+00 4.493575e+00 4.858443e+00 7.536233e+00 8.815190e+00 8.903129e+00 8.016310e+00 1.018890e+01 9.603119e+00 8.285324e-01 6.345589e-02 2.002597e-01 3.813732e-01 4.448339e-01 6.090942e-01 6.581649e-01 7.199768e-01 8.335049e-01 9.666272e-01 1.074280e+00 1.026681e+00 1.020482e+00 3.408687e-02 1.332028e-02 3.887557e-02 7.032526e-02 7.898159e-02 1.397932e-01 1.411387e-01 1.433343e-01 1.472048e-01 1.928879e-01 1.995469e-01 2.389879e-01 2.106480e-01 4.401008e-03
<GCONST> 4.829290e+01
<MIXTURE> 6 4.456661e-02
<MEAN> 39
 -2.773243e+00 -2.277396e+00 3.031444e+00 -6.346024e-01 2.640013e+00 -8.555520e-04 4.912244e+00 1.681273e+00 3.452423e+00 -2.304753e-01 2.141514e+00 1.121515e+00 -2.237709e+00 -4.794936e-02 3.134256e-02 1.184718e-01 4.940047e-02 -6.630796e-03 -3.609834e-01 -3.018720e-02 3.267189e-03 1.202262e-01 -5.267084e-02 3.413000e-01 3.199081e-01 -4.840148e-02 1.145150e-01 1.911184e-01 2.704296e-01 3.207630e-01 1.862014e-01 -1.349995e-01 -2.823925e-01 -2.499091e-01 -6.164503e-02 -9.082136e-02 -3.394514e-02 -1.160040e-01 2.716995e-02
<VARIANCE> 39
 1.023327e+00 1.291310e+00 9.504570e+00 2.583662e+00 5.403410e+00 1.159199e+01 7.525034e+00 8.247044e+00 1.083272e+01 1.046998e+01 6.825228e+00 1.074110e+01 8.285324e-01 8.091536e-02 1.698484e-01 4.284607e-01 3.766064e-01 4.384318e-01 9.671733e-01 1.060209e+00 1.419157e+00 1.022692e+00 9.657245e-01 1.205903e+00 1.131693e+00 3.408687e-02 1.543256e-02 3.047202e-02 6.111556e-02 4.984032e-02 8.188318e-02 1.540598e-01 1.452490e-01 1.826132e-01 2.822769e-01 1.287747e-01 2.510415e-01 2.225004e-01 5.478569e-03
<GCONST> 4.975380e+01
<MIXTURE> 7 8.240476e-02
<MEAN> 39
 -1.642305e+00 -5.450845e-01 4.266577e+00 -2.337516e-01 -7.266794e-01 -5.239113e+00 -8.884085e-01 -1.950927e+00 5.433866e-01 -2.889077e+00 -4.674338e-01 -7.387410e-01 -1.734268e+00 -4.116192e-02 -7.744447e-02 -4.814927e-02 -2.265632e-01 -2.004888e-01 -4.283509e-02 1.774253e-02 7.768398e-02 -1.814341e-01 -8.354829e-02 -2.586764e-01 -1.337445e-01 1.142431e-02 1.209597e-01 1.674811e-01 9.465738e-02 1.863696e-01 2.010197e-01 2.796026e-01 2.961435e-01 1.710867e-01 1.063003e-01 2.322821e-01 1.377051e-01 1.320083e-01 6.630749e-02
<VARIANCE> 39
 7.302016e-01 1.150964e+00 4.767589e+00 2.825967e+00 4.866577e+00 6.000793e+00 6.917990e+00 5.976026e+00 9.280428e+00 8.827095e+00 1.058167e+01 8.117403e+00 8.285324e-01 8.074144e-02 2.243133e-01 3.550720e-01 4.590701e-01 5.527467e-01 6.547636e-01 8.055913e-01 8.843689e-01 1.354107e+00 1.504747e+00 1.029289e+00 1.080447e+00 3.408687e-02 1.030935e-02 2.793324e-02 7.428893e-02 8.776718e-02 1.319211e-01 1.455172e-01 1.594690e-01 1.532968e-01 2.604123e-01 2.463602e-01 2.677203e-01 1.931012e-01 4.365372e-03
<GCONST> 4.813690e+01
<MIXTURE> 8 4.222836e-02
<MEAN> 39
 3.596808e+00 4.784991e+00 -4.295971e-01 -6.011047e+00 -1.193163e+01 -6.485611e+00 -3.193801e+00 2.854211e+00 -7.142006e-01 1.514951e+00 -2.922610e+00 1.042823e+00 1.649912e+00 -1.245107e-01 -3.907456e-02 3.591382e-01 2.039164e-01 2.978672e-01 -6.642290e-02 1.853508e-01 3.093519e-02 2.925844e-01 -8.229173e-02 3.687529e-02 -1.271181e-01 -1.280125e-01 -3.557853e-03 -9.041301e-03 1.343056e-02 5.328592e-02 6.255762e-02 5.017490e-02 6.452585e-02 -2.403047e-02 -4.178125e-02 -3.810994e-02 -5.578244e-02 -6.854521e-02 3.406680e-03
<VARIANCE> 39
 2.838575e+00 3.108474e+00 2.336922e+01 1.531318e+01 1.541482e+01 1.360879e+01 2.904504e+01 4.529387e+01 2.549553e+01 1.258247e+01 1.222288e+01 1.693253e+01 2.070348e+00 9.318620e-02 1.236606e-01 2.563406e-01 4.062931e-01 1.252525e+00 9.618635e-01 1.427750e+00 1.167935e+00 9.237012e-01 1.756458e+00 1.963657e+00 1.372522e+00 3.408687e-02 1.861666e-02 2.424506e-02 4.327357e-02 5.054708e-02 2.145892e-01 1.945042e-01 2.866763e-01 2.341837e-01 1.717006e-01 3.814922e-01 3.854217e-01 2.869238e-01 6.045365e-03
<GCONST> 6.642102e+01
<MIXTURE> 9 5.847635e-02
<MEAN> 39
 -1.617395e+00 -1.529360e+00 1.815958e+00 2.573076e+00 5.929640e+00 1.973802e+00 2.490627e-01 -3.122654e+00 5.365755e-01 1.150819e+00 3.406696e+00 1.189179e-01 -1.202576e+00 -2.160461e-02 2.236133e-03 -3.545069e-02 -2.601727e-02 -1.397426e-01 -1.712795e-01 -1.671241e-02 -5.984928e-02 -7.898632e-02 -2.132714e-02 -7.686163e-02 -6.646874e-02 -2.785499e-02 5.677507e-02 5.837884e-02 -9.088536e-02 -2.453829e-01 -3.025530e-01 -9.643959e-02 1.104926e-01 2.728963e-01 1.682626e-01 -6.478376e-03 -1.913114e-01 -7.117756e-02 2.263798e-02
<VARIANCE> 39
 7.302016e-01 1.386302e+00 7.918926e+00 2.391528e+00 5.128246e+00 1.153635e+01 6.763361e+00 6.455328e+00 9.337140e+00 9.368036e+00 1.328304e+01 1.113329e+01 8.285324e-01 8.618721e-02 2.288923e-01 6.892780e-01 5.716179e-01 7.404491e-01 1.066514e+00 1.554010e+00 9.729676e-01 1.452174e+00 9.235715e-01 1.521429e+00 1.287210e+00 3.408687e-02 1.383217e-02 3.489877e-02 1.239024e-01 6.782521e-02 1.377239e-01 2.440910e-01 2.342006e-01 1.651011e-01 2.429106e-01 1.606124e-01 3.377598e-01 2.812407e-01 4.406895e-03
<GCONST> 5.459094e+01
<MIXTURE> 10 5.528391e-02
<MEAN> 39
 -6.480505e-01 1.288113e+00 5.459499e+00 -6.413509e-01 -1.986876e+00 -4.685447e+00 2.256840e+00 9.923804e-01 1.737102e+00 -1.307667e+00 -5.706714e-01 -6.036196e-01 -1.268032e+00 1.104808e-01 1.400364e-01 -4.338407e-02 1.100538e-01 8.673964e-02 -7.344124e-02 -8.094747e-03 1.096924e-02 -8.237187e-03 5.121426e-02 1.535110e-01 1.320214e-01 5.795380e-02 -4.180589e-02 -1.257747e-01 -5.294446e-02 2.849831e-01 4.274798e-01 1.643951e-01 -2.762639e-01 -3.179130e-01 -2.653003e-02 5.083756e-03 1.680526e-01 6.499106e-02 -2.010996e-02
<VARIANCE> 39
 7.302016e-01 1.115449e+00 2.762560e+00 3.402459e+00 2.732347e+00 3.806449e+00 3.762842e+00 7.241990e+00 8.930941e+00 1.116256e+01 8.836473e+00 8.341402e+00 8.285324e-01 7.556229e-02 1.710685e-01 4.149527e-01 5.083931e-01 7.333941e-01 5.688120e-01 1.099437e+00 8.658292e-01 1.280400e+00 1.424719e+00 1.122171e+00 7.904260e-01 3.408687e-02 1.412667e-02 3.565559e-02 7.406253e-02 1.013592e-01 7.205743e-02 1.073146e-01 1.285580e-01 1.576166e-01 2.838185e-01 2.987296e-01 2.328574e-01 1.772605e-01 6.287377e-03
<GCONST> 4.637693e+01
<MIXTURE> 11 5.162348e-02
<MEAN> 39
 -3.458925e+00 -1.352904e+00 8.133935e+00 2.119972e+00 3.470078e+00 -5.373985e+00 2.765037e+00 -3.433258e-01 5.048522e+00 -1.725130e+00 1.739241e+00 -9.679024e-01 -3.350963e+00 6.359604e-02 8.646018e-02 2.258311e-01 2.610236e-01 2.102346e-01 1.590576e-01 1.992698e-01 9.550738e-02 -2.657780e-02 -1.930128e-02 4.403049e-02 -3.774684e-02 2.576174e-02 1.895929e-02 4.465369e-03 -1.233523e-02 3.759110e-02 1.425764e-01 2.569702e-01 2.832264e-01 1.968052e-01 1.353098e-02 -1.790092e-03 1.162769e-02 1.408909e-01 1.497171e-02
<VARIANCE> 39
 8.374153e-01 1.315100e+00 3.068734e+00 2.316305e+00 4.496693e+00 5.915575e+00 5.597022e+00 7.948475e+00 7.782536e+00 1.119021e+01 7.959908e+00 9.275278e+00 8.285324e-01 8.336429e-02 1.820631e-01 2.999434e-01 2.933417e-01 6.877491e-01 1.144420e+00 9.479342e-01 1.415383e+00 1.339849e+00 1.085902e+00 8.514494e-01 1.070019e+00 3.408687e-02 1.519638e-02 3.319501e-02 6.930358e-02 5.603001e-02 1.081627e-01 1.522026e-01 1.416353e-01 2.421444e-01 2.197652e-01 2.407285e-01 2.070154e-01 2.308104e-01 4.495478e-03
<GCONST> 4.772298e+01
<MIXTURE> 12 7.640577e-02
<MEAN> 39
 -7.221653e-01 2.726726e-01 4.392735e+00 1.524766e+00 1.542629e+00 -2.213888e+00 8.804482e-01 -3.121425e-01 3.552159e+00 2.259673e+00 3.376934e+00 1.253468e+00 -1.154477e+00 -7.033122e-02 -9.716528e-02 -5.379726e-02 -1.563421e-01 -1.354029e-01 -1.092568e-01 -1.550962e-01 -1.849578e-01 8.880550e-02 1.455988e-02 -1.510912e-01 -8.135997e-02 -3.934669e-02 -3.863382e-02 -1.688351e-02 1.824400e-02 -1.112902e-01 -1.216513e-01 -6.930779e-02 1.342672e-02 -8.184154e-02 -4.337265e-01 -6.237301e-01 -5.176907e-01 -2.558058e-01 -2.188276e-02
<VARIANCE> 39
 7.302016e-01 1.197777e+00 5.087224e+00 3.799764e+00 4.551327e+00 9.591928e+00 8.633823e+00 5.846014e+00 8.316629e+00 4.863114e+00 4.905146e+00 7.011684e+00 8.285324e-01 7.983801e-02 1.582590e-01 4.727149e-01 5.340411e-01 8.691990e-01 9.007659e-01 9.494106e-01 9.291113e-01 1.226548e+00 1.388223e+00 1.418192e+00 1.024286e+00 3.408687e-02 1.502474e-02 3.855306e-02 6.654502e-02 9.521838e-02 1.086708e-01 1.646954e-01 1.712455e-01 1.428410e-01 2.023262e-01 1.233747e-01 1.333829e-01 1.626033e-01 6.098472e-03
<GCONST> 4.779111e+01
<MIXTURE> 13 5.229601e-02
<MEAN> 39
 -1.358808e+00 2.658918e-01 5.967194e+00 1.688377e+00 2.149093e+00 -1.767484e+00 4.736624e+00 1.712980e+00 2.363333e+00 -2.334073e+00 3.992010e-01 2.994633e-02 -1.741492e+00 7.826962e-02 3.425623e-02 2.163249e-02 2.736511e-01 4.553546e-01 4.804156e-01 1.451422e-01 1.127907e-01 1.537763e-01 4.920040e-01 5.397937e-01 2.983389e-01 5.607069e-02 2.830392e-02 7.950247e-03 -9.275395e-02 -7.939525e-02 -1.075141e-01 -1.871055e-01 -4.211951e-01 -2.726570e-01 -5.873090e-03 1.309211e-01 -2.642241e-02 2.798149e-03 2.162676e-02
<VARIANCE> 39
 7.302016e-01 8.520868e-01 3.513719e+00 1.705658e+00 3.335318e+00 5.530037e+00 8.191127e+00 4.643812e+00 7.739287e+00 5.900319e+00 5.784697e+00 8.681357e+00 8.285324e-01 7.075004e-02 1.809826e-01 3.619170e-01 4.128715e-01 5.590228e-01 1.145618e+00 1.019228e+00 9.242023e-01 8.141998e-01 1.067891e+00 9.126528e-01 5.816547e-01 3.408687e-02 1.601553e-02 2.833770e-02 8.682525e-02 4.535846e-02 6.943096e-02 1.410725e-01 1.524524e-01 1.471973e-01 2.119237e-01 1.874146e-01 1.682154e-01 1.728344e-01 4.570667e-03
<GCONST> 4.237044e+01
<MIXTURE> 14 4.437957e-02
<MEAN> 39
 -3.296241e+00 -9.892669e-01 9.153818e+00 3.499048e+00 5.698756e+00 -2.580962e+00 6.069082e+00 2.559421e+00 6.335106e+00 -1.652479e+00 1.479883e+00 -3.975558e-01 -3.308308e+00 -2.153106e-02 -5.586973e-02 -1.820369e-01 -2.319122e-01 -1.993836e-01 -5.106100e-02 3.219181e-02 6.996160e-02 7.339629e-03 2.325708e-03 -2.909524e-01 -4.822452e-02 -4.987372e-03 3.768744e-03 -2.109722e-02 -1.644693e-01 -2.192246e-01 -3.127066e-01 -2.111432e-01 -2.746969e-01 -2.322053e-01 -1.658193e-01 1.426466e-02 -2.117170e-02 -3.798122e-02 1.378084e-02
<VARIANCE> 39
 7.302016e-01 1.638175e+00 3.876196e+00 2.651654e+00 4.085141e+00 1.111443e+01 7.222783e+00 1.109286e+01 9.692765e+00 6.399287e+00 7.163729e+00 8.232693e+00 8.285324e-01 9.619106e-02 2.278771e-01 6.260006e-01 5.239466e-01 8.446071e-01 8.358327e-01 8.739372e-01 1.162869e+00 1.175434e+00 6.420707e-01 8.761719e-01 1.017631e+00 3.916223e-02 1.791657e-02 3.510944e-02 9.265149e-02 6.988516e-02 1.153855e-01 2.122554e-01 1.350089e-01 2.914323e-01 2.611137e-01 1.099931e-01 1.801642e-01 1.774146e-01 6.676388e-03
<GCONST> 5.014035e+01
<MIXTURE> 15 4.774607e-02
<MEAN> 39
 7.998243e+00 4.961704e+00 -1.265055e+01 -7.167191e+00 -1.758722e+01 9.654070e-01 -6.611315e+00 4.345377e-01 -1.209478e+01 -3.404963e-01 -5.903959e+00 7.298338e-01 7.223609e+00 -7.598313e-03 6.183978e-02 1.655805e-01 -5.022126e-02 -2.807265e-02 -1.707835e-01 5.194821e-02 -1.731220e-02 -4.062800e-03 -1.038431e-01 -1.457350e-01 -5.218432e-02 -4.419138e-02 -2.269012e-02 -2.349455e-02 -1.894461e-02 2.999073e-03 6.065683e-02 3.389960e-02 4.001688e-02 6.127670e-02 8.685561e-02 4.027760e-02 4.640481e-02 5.455077e-02 -1.848135e-02
<VARIANCE> 39
 1.459774e+00 4.729535e+00 3.338345e+01 3.838267e+00 1.108812e+01 1.558025e+01 1.077969e+01 2.958918e+01 1.771264e+01 2.199563e+01 2.368237e+01 1.478373e+01 2.711380e+00 8.336172e-02 1.695202e-01 9.116074e-01 2.780508e-01 8.870748e-01 1.332025e+00 1.083830e+00 1.917334e+00 1.449717e+00 1.166025e+00 1.478978e+00 1.332566e+00 9.395231e-02 1.454353e-02 2.886305e-02 1.958789e-01 4.979726e-02 1.795036e-01 3.081481e-01 2.190499e-01 3.252017e-01 2.528336e-01 2.146523e-01 3.274650e-01 2.867333e-01 1.517089e-02
<GCONST> 6.889503e+01
<MIXTURE> 16 4.820921e-02
<MEAN> 39
 -8.874918e-01 4.623960e-02 4.430275e+00 1.308723e+00 3.286809e+00 -2.861913e-01 2.897074e+00 9.650364e-01 3.463265e+00 -1.485005e+00 -1.116801e+00 -9.902326e-01 -1.338263e+00 -8.378743e-02 -1.833594e-01 -1.089472e-01 -1.811600e-01 -1.524897e-01 1.690022e-01 -2.422958e-01 -3.500679e-01 -3.600697e-01 -3.558167e-01 -4.512722e-01 -1.225542e-01 -1.847715e-02 -7.999638e-02 -4.430013e-02 -1.367009e-03 -6.053821e-02 -2.215577e-01 -2.851825e-01 -7.151417e-02 -2.076238e-01 -3.123437e-01 1.032377e-02 3.864024e-01 2.039618e-01 -3.940686e-02
<VARIANCE> 39
 7.302016e-01 1.857117e+00 2.884590e+00 2.108166e+00 3.700416e+00 6.771806e+00 7.602116e+00 6.303669e+00 5.595779e+00 6.003746e+00 5.292067e+00 7.442674e+00 8.285324e-01 5.207390e-02 1.282513e-01 5.323473e-01 5.870299e-01 6.188599e-01 9.221495e-01 7.893910e-01 1.136455e+00 1.234687e+00 1.392121e+00 1.299380e+00 1.203910e+00 3.408687e-02 9.400244e-03 3.101722e-02 7.679892e-02 4.895778e-02 5.319546e-02 1.408179e-01 2.026727e-01 1.476308e-01 1.861214e-01 1.532148e-01 1.657935e-01 1.923425e-01 4.365372e-03
<GCONST> 4.408257e+01
<MIXTURE> 17 4.868909e-02
<MEAN> 39
 -3.031928e-01 5.531784e-01 2.477634e+00 1.408999e-01 1.091519e+00 -4.815097e-01 7.739046e-01 -2.346955e+00 -2.292891e+00 -2.872069e+00 7.843944e-01 8.746379e-01 -7.974703e-01 5.663149e-03 -6.840597e-03 1.872296e-02 1.381167e-02 1.210594e-02 -1.297438e-01 -1.629881e-01 1.738260e-02 -4.878306e-02 -1.885459e-01 -1.759889e-01 -2.006302e-01 -1.136350e-02 -6.254968e-02 -7.669619e-02 9.605958e-02 3.941020e-02 2.724138e-02 -7.731916e-02 3.126803e-02 2.046615e-01 3.974873e-01 3.285764e-01 3.400991e-02 -6.332710e-02 -3.247258e-02
<VARIANCE> 39
 7.302016e-01 1.277966e+00 4.077582e+00 2.062782e+00 3.067189e+00 8.049012e+00 8.016313e+00 5.019530e+00 7.429066e+00 6.637800e+00 4.831923e+00 7.726682e+00 8.285324e-01 9.700355e-02 2.348016e-01 3.256653e-01 4.255294e-01 7.629720e-01 5.556299e-01 1.009433e+00 9.732852e-01 1.321560e+00 1.009004e+00 6.540992e-01 9.630493e-01 3.408687e-02 1.138330e-02 2.475110e-02 6.623022e-02 5.802275e-02 9.251441e-02 1.273820e-01 2.085181e-01 1.588609e-01 1.779045e-01 1.879227e-01 1.383893e-01 2.052280e-01 6.002092e-03
<GCONST> 4.412166e+01
<STATE> 3
<NUMMIXES> 17
<MIXTURE> 1 6.235954e-02
<MEAN> 39
 1.458615e+00 -6.825343e+00 -1.174050e+01 -9.832741e+00 1.165829e+01 5.173227e+00 4.220881e+00 -1.085984e-01 7.041600e+00 1.030044e+00 -7.734159e+00 -1.369409e+00 -1.115482e+01 -8.282903e-01 6.424302e-01 1.412275e-01 6.124894e-01 2.232404e-01 -2.983402e-01 8.004333e-01 -2.293715e-01 1.705352e-01 -4.351257e-01 1.258783e-01 5.326809e-01 6.541001e-01 -3.524669e-01 2.976222e-01 5.402167e-01 4.823819e-01 -3.729616e-01 -2.926396e-01 -6.092070e-02 1.658609e-01 -2.448632e-01 -5.675115e-02 3.484373e-01 2.103465e-01 8.097369e-01
<VARIANCE> 39
 5.358937e+01 4.702392e+01 4.435464e+01 9.540737e+01 9.898346e+01 5.906579e+01 7.727122e+01 7.587994e+01 6.303926e+01 5.632428e+01 4.997479e+01 6.881031e+01 6.885929e+01 5.218475e+00 5.048593e+00 4.430092e+00 5.993834e+00 6.291194e+00 5.826774e+00 6.863283e+00 6.447713e+00 4.448656e+00 4.056165e+00 4.208234e+00 4.940540e+00 7.833516e+00 5.519940e-01 5.056198e-01 6.490560e-01 6.527238e-01 9.705018e-01 9.281172e-01 1.214765e+00 8.484604e-01 7.996647e-01 7.238244e-01 7.532361e-01 8.353406e-01 8.974324e-01
<GCONST> 1.443596e+02
<MIXTURE> 2 7.148164e-02
<MEAN> 39
 -1.459949e+00 -7.054326e+00 -9.892879e+00 -7.977609e+00 4.985903e+00 8.983033e+00 1.538016e+00 2.442315e+00 5.311601e+00 4.171358e+00 -3.128759e+00 -4.738919e+00 1.239185e+01 4.149686e-02 -1.186229e-01 3.860683e-02 2.079150e-01 3.594434e-02 -3.257872e-01 -8.171090e-02 1.011332e-01 3.588666e-02 1.088532e-02 -1.963206e-01 -1.071019e-01 4.620174e-02 3.465550e-02 1.597214e-02 9.135588e-02 4.528620e-02 -5.716161e-02 -1.168110e-01 -1.568990e-01 1.632499e-01 -3.431182e-02 2.127699e-02 -4.581718e-02 5.489962e-02 -6.819438e-02
<VARIANCE> 39
 3.684226e+00 1.538573e+01 1.200086e+01 3.225165e+01 1.752481e+01 2.940834e+01 2.433461e+01 2.941815e+01 1.590346e+01 4.021052e+01 2.187952e+01 2.205355e+01 3.468162e+00 1.134119e-01 1.879046e-01 2.923572e-01 3.790001e-01 5.024781e-01 6.298532e-01 7.550392e-01 8.680506e-01 5.227253e-01 4.542140e-01 7.412933e-01 6.659409e-01 5.677025e-02 2.392593e-02 3.800171e-02 6.699343e-02 4.739552e-02 8.827035e-02 9.564944e-02 1.538628e-01 1.605185e-01 8.745613e-02 1.073898e-01 1.251041e-01 9.409524e-02 9.511502e-03
<GCONST> 6.074494e+01
<MIXTURE> 3 4.607844e-02
<MEAN> 39
 -7.518937e+00 5.150002e+00 1.507168e+01 7.014065e+00 -1.303798e+01 -1.603700e+00 -5.058936e+00 -2.683443e+00 -8.044858e+00 -8.986774e+00 1.103381e+01 3.877112e-01 7.474543e+00 -4.268958e-02 9.213086e-02 2.549115e-02 2.950394e-02 -1.726889e-01 -1.774350e-01 2.839182e-01 -1.548160e-01 -5.037032e-02 1.750129e-01 1.733551e-01 2.721847e-03 6.125708e-02 5.835477e-02 -3.142900e-02 -5.719270e-02 4.498141e-02 2.594088e-02 -1.092928e-01 5.525310e-02 7.733375e-02 4.584583e-02 2.682374e-02 -8.122483e-02 -2.977371e-02 -6.898778e-02
<VARIANCE> 39
 4.678617e+00 6.091010e+00 4.079670e+01 1.690406e+01 2.174048e+01 1.637906e+01 2.244905e+01 3.721064e+01 3.540553e+01 2.468796e+01 1.581487e+01 1.679985e+01 3.776032e+00 1.283063e-01 1.985574e-01 3.056482e-01 4.589769e-01 4.526720e-01 7.552781e-01 6.166059e-01 4.620343e-01 8.842336e-01 5.852856e-01 5.388625e-01 5.522744e-01 4.766386e-02 2.029042e-02 2.872328e-02 4.316537e-02 6.447822e-02 9.724617e-02 1.394282e-01 9.621149e-02 9.144726e-02 1.646027e-01 1.134072e-01 8.801489e-02 8.934752e-02 1.601183e-02
<GCONST> 5.964652e+01
<MIXTURE> 4 7.201570e-02
<MEAN> 39
 -1.028053e+00 -6.861393e+00 -1.014025e+01 -8.937781e+00 4.681866e+00 8.945619e+00 1.165248e+00 2.592967e+00 6.502555e+00 6.810460e+00 -1.193584e+00 -6.074889e+00 1.296116e+01 -1.820323e-01 -3.860879e-01 -1.492860e-01 3.347255e-01 1.503899e-01 -2.455115e-01 3.506221e-01 5.264806e-01 5.527797e-01 -3.630738e-01 -6.249644e-01 -4.532478e-01 2.646630e-01 1.814690e-01 1.663841e-01 3.185242e-01 1.885940e-01 -1.747116e-01 -3.232267e-01 -3.679742e-01 3.853741e-02 -2.316087e-01 -1.947004e-01 2.293208e-01 4.316634e-01 -3.204411e-01
<VARIANCE> 39
 5.836870e+00 1.302786e+01 1.785439e+01 2.973465e+01 2.040743e+01 3.198775e+01 3.333187e+01 2.638690e+01 2.808102e+01 3.912158e+01 2.366862e+01 1.681030e+01 6.174252e+00 3.835836e-01 7.035707e-01 1.429961e+00 1.878622e+00 1.235425e+00 3.423826e+00 3.392354e+00 3.289006e+00 1.771179e+00 2.595786e+00 2.087184e+00 2.102174e+00 3.369196e-01 5.221306e-02 9.433398e-02 1.425822e-01 2.355540e-01 2.467158e-01 2.716911e-01 4.106334e-01 3.537189e-01 2.935531e-01 4.635123e-01 2.725428e-01 3.595261e-01 4.566742e-02
<GCONST> 9.505826e+01
<MIXTURE> 5 6.205061e-02
<MEAN> 39
 3.952354e+00 8.233054e+00 -8.533279e+00 -1.426754e+01 -4.733345e+00 1.598501e+01 -6.829737e-01 -5.690340e+00 -5.194186e+00 2.940918e+00 4.946775e+00 6.135386e+00 5.307831e+00 -3.036762e-02 2.273607e-01 -1.720450e-02 -6.724651e-01 1.195905e-01 3.175046e-01 1.414939e-01 8.042615e-02 -9.530315e-02 -1.034058e-01 -1.721177e-01 1.518770e-01 -6.587791e-04 -1.254522e-02 -1.263748e-01 2.577372e-02 2.135096e-01 9.763811e-02 -1.818991e-01 -2.299895e-02 2.463564e-02 1.044812e-01 9.529815e-02 1.393999e-02 -1.990227e-01 -1.445515e-02
<VARIANCE> 39
 4.199188e+00 3.386659e+01 1.643592e+01 5.060947e+01 3.485563e+01 2.381687e+01 3.438082e+01 2.985968e+01 2.865311e+01 3.773487e+01 5.162128e+01 1.260555e+01 9.036054e+00 1.521009e-01 5.581974e-01 5.255613e-01 1.700100e+00 9.925885e-01 1.276465e+00 1.140486e+00 1.288469e+00 9.130735e-01 1.019505e+00 1.813287e+00 1.333403e+00 2.264718e-01 2.289603e-02 6.790324e-02 1.045868e-01 1.627441e-01 1.472125e-01 2.094708e-01 1.577124e-01 2.832690e-01 1.884729e-01 1.707327e-01 2.879413e-01 1.683867e-01 2.004818e-02
<GCONST> 8.254798e+01
<MIXTURE> 6 6.331245e-02
<MEAN> 39
 1.951413e+00 -2.332009e-01 -3.378138e+00 -8.132505e-02 1.352907e+00 4.232636e+00 -1.154195e+01 -5.435504e+00 6.385343e-01 5.905506e+00 5.477177e+00 -1.184438e+00 7.014043e+00 1.133763e-01 2.174459e-01 -6.245896e-01 -1.007477e+00 -4.167841e-01 1.538573e+00 3.559968e-01 -3.269494e-01 -3.515573e-01 1.482796e-01 4.510341e-01 5.274129e-01 1.096582e-01 -1.343186e-01 -7.583959e-02 6.448369e-03 -1.084069e-01 -8.300836e-02 -1.512681e-01 5.453835e-01 4.313620e-01 9.757324e-02 -3.228883e-01 -2.061443e-01 1.627168e-01 5.710679e-02
<VARIANCE> 39
 7.721674e+00 1.419711e+01 3.971879e+01 6.469946e+01 5.424428e+01 5.747065e+01 1.909252e+01 2.825573e+01 3.794297e+01 4.146101e+01 5.082289e+01 1.926282e+01 7.545887e+00 3.821963e-01 1.293755e+00 1.806502e+00 2.712020e+00 2.196507e+00 4.803152e+00 3.245065e+00 3.990705e+00 4.231595e+00 3.281268e+00 2.583521e+00 1.874108e+00 4.780084e-01 8.571203e-02 1.778647e-01 3.714932e-01 3.180459e-01 4.271362e-01 6.554644e-01 5.466526e-01 3.882129e-01 6.121997e-01 5.857378e-01 5.504265e-01 4.767415e-01 7.375924e-02
<GCONST> 1.099887e+02
<MIXTURE> 7 4.794791e-02
<MEAN> 39
 2.829521e+00 -8.707980e+00 -2.934522e+00 2.357885e+00 1.383555e-01 -3.003977e+00 -6.402062e+00 6.633361e+00 8.137527e+00 -3.012820e+00 1.010045e-01 -5.727455e-01 5.984219e+00 9.769538e-01 2.458708e-01 7.622119e-01 1.094192e+00 2.389293e-01 -5.936363e-01 -6.945320e-02 -9.633843e-01 -6.735158e-02 -8.407602e-01 -3.702763e-02 -1.367744e-01 -1.926968e+00 3.955786e-02 7.666828e-02 -9.304339e-02 -4.798495e-01 1.997226e-01 5.195922e-01 4.513582e-01 1.104192e-02 -4.772148e-01 5.840473e-01 -2.445638e-01 -4.361429e-01 -1.922030e-01
<VARIANCE> 39
 1.049293e+01 1.968183e+01 1.457975e+01 3.860238e+01 3.208091e+01 2.524459e+01 4.164530e+01 2.888713e+01 3.444816e+01 2.721293e+01 2.659522e+01 3.695387e+01 1.556348e+01 6.520199e-01 1.255569e+00 1.422390e+00 2.750962e+00 2.773781e+00 2.749551e+00 2.802313e+00 3.283128e+00 4.052057e+00 3.632284e+00 3.360044e+00 4.178699e+00 1.896025e+00 9.405994e-02 2.709120e-01 2.382322e-01 5.677395e-01 5.357326e-01 5.200434e-01 5.166007e-01 7.088685e-01 4.621933e-01 4.169450e-01 5.662573e-01 7.791515e-01 2.436715e-01
<GCONST> 1.131647e+02
<MIXTURE> 8 6.524136e-02
<MEAN> 39
 -9.024827e+00 3.242494e+00 7.129079e-01 4.883107e+00 4.197396e+00 -4.842287e+00 4.974412e+00 -1.437906e+00 3.672781e+00 -2.610084e+00 -3.627539e+00 4.385300e+00 -5.445723e+00 -3.779080e-01 6.680286e-01 1.215724e+00 2.853079e-01 -7.092981e-01 8.625352e-02 -1.046093e+00 2.658418e-01 -1.681664e-01 3.646750e-01 1.159199e+00 5.815235e-01 3.990191e+00 1.158741e+00 -4.210437e-01 -5.989729e-02 -5.465327e-01 -6.077843e-01 4.925566e-01 -6.173230e-01 3.354409e-02 -5.984040e-01 4.028300e-01 2.852672e-01 -5.449631e-01 -8.262348e-02
<VARIANCE> 39
 4.302644e+01 4.173461e+01 9.588446e+01 5.399551e+01 5.037824e+01 7.079343e+01 6.333108e+01 6.103851e+01 3.487274e+01 4.205074e+01 5.041505e+01 3.130238e+01 4.968503e+01 9.680652e+00 6.195389e+00 1.064244e+01 1.214581e+01 8.466465e+00 9.365800e+00 7.819973e+00 6.540907e+00 6.797551e+00 6.888108e+00 5.541912e+00 5.100267e+00 8.713314e+00 7.759982e-01 1.081077e+00 1.695849e+00 1.288125e+00 1.128641e+00 1.206875e+00 1.670589e+00 1.219559e+00 9.772028e-01 1.209065e+00 8.005914e-01 8.970059e-01 8.748968e-01
<GCONST> 1.506669e+02
<MIXTURE> 9 6.916745e-02
<MEAN> 39
 6.092286e+00 -2.907910e+00 4.272275e+00 8.647883e-01 -5.121960e-01 -1.499051e+00 4.118262e+00 -1.409072e+00 -2.961164e+00 1.764599e+00 -4.063231e+00 -2.544503e+00 -5.764190e-01 7.719354e-01 -1.339197e-01 1.356043e+00 -1.972697e-01 3.319952e-01 -3.810418e-01 8.157686e-01 -6.957139e-01 -6.043194e-01 -4.825469e-02 -8.318400e-01 -5.719892e-01 -1.319709e+00 -1.584214e-01 -1.002024e-01 -2.510520e-01 -1.610564e-01 -1.122483e-01 1.164017e-01 -3.294117e-01 2.894464e-01 1.782473e-01 2.962990e-02 2.655424e-01 -4.752744e-03 2.740532e-01
<VARIANCE> 39
 1.619983e+01 2.711102e+01 4.832697e+01 4.936210e+01 5.990382e+01 6.456396e+01 3.428510e+01 4.417981e+01 4.561479e+01 4.105949e+01 6.256910e+01 4.088810e+01 1.028691e+01 8.577327e-01 1.138179e+00 2.764054e+00 2.192921e+00 2.517823e+00 1.783045e+00 2.548522e+00 4.046303e+00 2.676259e+00 2.352974e+00 2.960817e+00 2.364783e+00 1.269897e+00 1.029103e-01 1.277808e-01 4.322824e-01 2.780401e-01 3.871162e-01 3.457934e-01 4.084092e-01 5.859453e-01 3.975601e-01 4.027313e-01 5.248943e-01 4.116969e-01 8.779838e-02
<GCONST> 1.127865e+02
<MIXTURE> 10 4.689646e-02
<MEAN> 39
 2.755214e+00 1.166857e+00 -7.849552e+00 -1.351398e+01 -5.922401e-01 1.411666e+01 -9.013342e-01 -4.297223e+00 -2.643811e+00 7.065639e+00 6.532159e+00 5.247194e-01 6.107873e+00 -4.503632e-02 -1.382844e+00 -5.788661e-01 -6.896191e-01 5.716254e-01 -1.446967e-01 -1.847971e-01 7.674527e-01 8.329815e-01 1.139405e+00 -3.125929e-01 -1.012930e+00 1.346013e+00 -1.675356e-01 -1.372870e-01 2.846872e-01 1.005806e+00 2.407357e-01 -7.092512e-01 2.671421e-01 1.045802e-01 3.367715e-01 -5.656562e-01 -6.680344e-01 -4.457606e-02 -5.723468e-01
<VARIANCE> 39
 1.086467e+01 2.701543e+01 1.296309e+01 5.228097e+01 2.585078e+01 4.277794e+01 4.185502e+01 3.722126e+01 3.259492e+01 5.826345e+01 2.139141e+01 3.351700e+01 1.203575e+01 1.863950e+00 2.049808e+00 2.492203e+00 7.756166e+00 2.593840e+00 5.217776e+00 4.436847e+00 3.108996e+00 3.991459e+00 5.117109e+00 4.041996e+00 3.843420e+00 4.574588e+00 2.182330e-01 3.837315e-01 4.517061e-01 7.414276e-01 4.051370e-01 5.473014e-01 5.326528e-01 6.602423e-01 5.644925e-01 1.013771e+00 5.527999e-01 7.246115e-01 4.615534e-01
<GCONST> 1.232899e+02
<MIXTURE> 11 4.738782e-02
<MEAN> 39
 9.020293e+00 -1.948965e-01 7.906814e+00 5.136752e+00 -2.214656e+00 -5.418863e+00 7.374137e+00 -2.285970e+00 -5.383803e+00 -2.619012e-01 -3.429720e+00 -3.203143e+00 -9.726717e+00 -1.851852e+00 6.116539e-01 -1.268793e+00 2.285821e-01 3.942963e-01 -1.652608e-01 -9.198734e-01 7.626895e-01 7.928784e-01 -6.049151e-01 4.293265e-01 2.961441e-01 1.059784e+00 -7.773418e-01 -5.687527e-02 -5.772952e-01 -3.561856e-01 9.723400e-02 4.480243e-01 -6.859519e-01 4.611825e-01 3.452038e-01 -3.990985e-03 3.268066e-01 3.094203e-01 1.027652e+00
<VARIANCE> 39
 2.065289e+01 3.949247e+01 8.705087e+01 7.365805e+01 8.491412e+01 8.777296e+01 8.150445e+01 6.936658e+01 7.201296e+01 6.939721e+01 7.371806e+01 4.725421e+01 6.551177e+01 4.011201e+00 2.337601e+00 7.428743e+00 5.148940e+00 6.177284e+00 4.906392e+00 6.929098e+00 8.807033e+00 3.997478e+00 3.738758e+00 4.124915e+00 3.559688e+00 4.223272e+00 3.810286e-01 4.473470e-01 1.511107e+00 1.166143e+00 1.132717e+00 8.179522e-01 1.085691e+00 1.661548e+00 8.375610e-01 9.695250e-01 7.374867e-01 6.073083e-01 6.785496e-01
<GCONST> 1.437067e+02
<MIXTURE> 12 7.178225e-02
<MEAN> 39
 -1.579027e-01 -8.390781e+00 -7.675168e+00 -5.591927e+00 4.491454e+00 3.567160e+00 -3.177436e+00 9.002189e+00 4.769577e+00 5.353476e+00 -4.074368e+00 -3.599788e+00 1.059577e+01 2.987624e-01 -6.454755e-02 7.663695e-01 4.389448e-01 -3.390927e-01 -7.298099e-01 -5.295675e-01 1.481957e-01 -8.804042e-02 -4.357298e-01 3.874132e-01 4.444562e-01 -3.566375e-01 7.349305e-02 3.466044e-01 2.630699e-01 2.092774e-01 7.598696e-02 -1.936509e-01 4.196308e-01 -8.610009e-01 3.921118e-02 -3.441945e-01 1.477827e-01 1.984420e-01 -5.008841e-01
<VARIANCE> 39
 8.970862e+00 1.777492e+01 2.022292e+01 2.901378e+01 4.247781e+01 3.416895e+01 4.435176e+01 4.443600e+01 2.828588e+01 2.907001e+01 2.932202e+01 2.308527e+01 7.647057e+00 9.340688e-01 1.287931e+00 2.623622e+00 3.079238e+00 2.540058e+00 4.718394e+00 4.385079e+00 4.718170e+00 2.834256e+00 4.087370e+00 2.733671e+00 2.849125e+00 1.735385e+00 1.338363e-01 2.081055e-01 3.804417e-01 3.356920e-01 3.060457e-01 3.311121e-01 5.983540e-01 6.163518e-01 4.397252e-01 5.557188e-01 4.138197e-01 4.080860e-01 1.258553e-01
<GCONST> 1.119089e+02
<MIXTURE> 13 7.230846e-02
<MEAN> 39
 -2.896565e+00 1.137477e-01 8.249668e+00 6.286702e+00 -1.147441e+01 -3.110508e+00 -4.037245e+00 4.794882e+00 -6.418439e+00 -3.901572e+00 7.829945e+00 2.353797e-01 7.117205e+00 7.418416e-02 -9.684112e-03 -2.572974e-02 1.485229e-01 -1.592017e-01 7.084789e-03 -2.819607e-02 -1.860519e-01 -2.652745e-01 1.122715e-02 1.241272e-01 -1.245579e-01 -6.967559e-02 1.749024e-01 3.886487e-02 -1.117161e-01 1.790973e-02 4.165843e-01 -6.628090e-02 1.761058e-01 -2.720509e-01 2.143556e-01 1.389260e-01 -3.147977e-01 -6.196349e-02 -3.114521e-01
<VARIANCE> 39
 9.227136e+00 1.872025e+01 4.472386e+01 2.655143e+01 2.492673e+01 4.746768e+01 2.944894e+01 5.168719e+01 5.060661e+01 3.067373e+01 1.927865e+01 3.433012e+01 7.282717e+00 7.682860e-01 6.313878e-01 2.716339e+00 1.724758e+00 2.449573e+00 1.748243e+00 2.700473e+00 2.475801e+00 2.437964e+00 1.631100e+00 2.136551e+00 1.426084e+00 1.174302e+00 8.507187e-02 9.775870e-02 1.972840e-01 2.870598e-01 2.910923e-01 3.088107e-01 4.926241e-01 5.007918e-01 4.025442e-01 3.678395e-01 4.126559e-01 2.209716e-01 1.021447e-01
<GCONST> 1.029154e+02
<MIXTURE> 14 6.627705e-02
<MEAN> 39
 1.013007e+01 -8.904940e+00 4.246188e-01 -3.691778e+00 5.182591e+00 -7.681629e-02 1.206555e+00 2.749728e+00 3.067951e-01 1.112575e+00 -5.870866e+00 -5.781235e+00 -1.002789e+01 2.819875e-01 5.555428e-02 -3.573329e-01 -7.552997e-02 2.206741e-02 -3.866737e-02 1.321356e-01 -1.101831e-01 -1.867452e-01 -3.905096e-02 -3.987906e-01 -3.241604e-01 -1.510759e+00 -3.480215e-01 3.309348e-01 -2.009825e-01 2.229244e-01 -1.466719e-01 -1.583547e-01 9.780164e-02 -1.164152e-01 1.877160e-01 -8.867384e-02 1.136490e-02 2.721363e-01 2.705948e-01
<VARIANCE> 39
 2.102400e+01 5.932539e+01 8.903867e+01 8.898076e+01 6.241131e+01 8.039845e+01 4.906820e+01 1.026261e+02 4.817394e+01 5.654004e+01 3.234091e+01 3.723985e+01 3.110379e+01 6.409236e-01 1.679722e+00 2.423548e+00 2.515252e+00 3.318112e+00 2.497065e+00 2.899545e+00 3.463077e+00 2.462674e+00 2.468613e+00 2.011765e+00 2.069275e+00 3.039710e-01 1.571271e-01 2.624599e-01 4.517414e-01 4.028092e-01 5.744066e-01 4.491484e-01 6.484758e-01 6.917421e-01 5.576965e-01 4.381727e-01 3.732640e-01 4.776677e-01 1.193540e-01
<GCONST> 1.193043e+02
<MIXTURE> 15 5.178817e-02
<MEAN> 39
 -4.356873e-01 -1.178348e+00 2.947400e+00 6.788960e+00 -3.402413e+00 -6.502408e+00 -4.143475e+00 4.136325e+00 2.295087e-01 -1.323490e+00 1.807270e+00 2.391764e-01 5.336437e+00 2.469584e-01 -9.423763e-01 -1.702900e+00 -7.430161e-01 -1.259319e+00 1.815530e+00 -2.444273e+00 9.974744e-01 -5.152841e-01 9.669559e-01 1.414930e+00 -8.928719e-01 2.027448e+00 2.143036e-01 2.110861e-02 -2.440085e-02 -6.307284e-01 3.219751e-01 7.092490e-01 5.827237e-01 -5.948981e-01 -2.557146e-01 3.119141e-01 -2.446830e-01 -2.188775e-01 -8.620231e-01
<VARIANCE> 39
 1.358477e+01 2.063459e+01 6.893852e+01 4.039348e+01 4.699648e+01 4.875306e+01 5.392202e+01 8.362598e+01 4.543662e+01 3.859451e+01 3.906817e+01 4.016764e+01 1.226403e+01 3.880076e+00 2.331759e+00 6.789024e+00 3.795644e+00 7.140118e+00 4.573627e+00 7.302422e+00 8.998628e+00 6.138139e+00 8.520984e+00 5.123764e+00 4.417723e+00 3.326086e+00 5.348122e-01 3.928615e-01 1.071958e+00 5.977200e-01 8.718817e-01 8.737405e-01 1.232335e+00 1.349088e+00 6.740509e-01 7.795143e-01 6.405534e-01 8.354201e-01 6.059911e-01
<GCONST> 1.365928e+02
<MIXTURE> 16 4.871572e-02
<MEAN> 39
 -2.640241e+00 2.824555e+00 -1.092477e+01 -1.120676e+01 1.434164e+00 7.004916e+00 3.866608e-01 -3.927640e+00 6.321710e+00 5.262327e+00 -2.008461e+00 5.665198e-01 2.118740e+00 1.913630e-01 7.462772e-02 -5.091913e-01 1.883306e-02 -1.087321e-02 -4.832273e-01 4.127183e-01 -2.281163e-01 2.027961e-01 -1.635878e-01 -2.920787e-01 4.779688e-02 -1.596099e+00 7.168573e-02 -2.412425e-01 7.854791e-02 -1.009371e-02 9.129856e-02 1.355620e-01 -3.727425e-02 4.403918e-02 -1.241415e-01 -1.860672e-02 -9.010925e-03 -1.222914e-01 -7.740634e-02
<VARIANCE> 39
 6.689509e+01 3.880498e+01 1.931756e+01 5.345466e+01 1.792799e+01 5.428007e+01 3.305041e+01 3.387320e+01 8.650006e+01 4.177145e+01 4.579357e+01 4.552647e+01 4.323917e+01 2.532898e+00 1.966663e+00 1.363383e+00 2.109321e+00 1.771697e+00 2.896201e+00 2.555342e+00 3.485733e+00 2.722827e+00 2.217640e+00 2.371627e+00 2.528652e+00 1.999108e+00 3.322815e-01 2.659193e-01 2.650954e-01 4.923151e-01 3.719165e-01 4.487164e-01 4.543230e-01 5.945770e-01 5.099432e-01 4.720782e-01 5.134914e-01 4.601354e-01 2.096240e-01
<GCONST> 1.187566e+02
<MIXTURE> 17 3.518162e-02
<MEAN> 39
 2.944437e+00 1.031250e+01 8.840233e+00 2.588082e+00 -2.763378e+00 -5.606338e-01 8.588846e+00 -9.009144e+00 -7.741464e+00 7.924954e-01 -1.259739e+00 2.659215e+00 -1.156558e+01 7.791321e-01 3.539328e-01 7.735162e-01 -1.529137e+00 -8.729122e-01 7.487620e-02 -6.404654e-02 -6.203476e-01 -6.450928e-01 4.033141e-01 -5.068786e-01 2.883959e-01 9.539773e-01 -4.954147e-01 -6.688845e-01 -6.328746e-01 1.606303e-02 3.911914e-01 -6.911277e-02 -1.117908e-01 4.264359e-01 5.081910e-01 -8.118492e-02 -8.072810e-02 -1.617339e-01 2.168323e-01
<VARIANCE> 39
 8.810735e+01 3.835487e+01 8.832456e+01 8.887610e+01 1.124883e+02 1.554603e+02 8.834020e+01 4.519393e+01 5.501365e+01 5.028732e+01 6.598881e+01 3.648530e+01 6.427232e+01 4.878377e+00 5.870915e+00 6.789768e+00 8.875934e+00 7.151243e+00 9.447294e+00 4.137486e+00 4.776281e+00 6.473797e+00 5.534009e+00 3.237982e+00 2.850476e+00 6.186559e+00 6.480244e-01 7.884744e-01 6.024030e-01 1.104037e+00 1.178737e+00 1.313276e+00 8.509033e-01 7.814279e-01 9.079527e-01 8.591883e-01 7.020186e-01 5.228412e-01 7.190481e-01
<GCONST> 1.463501e+02
<STATE> 4
<NUMMIXES> 17
<MIXTURE> 1 5.177138e-02
<MEAN> 39
 -8.510796e+00 3.196152e+00 -5.377445e+00 4.982699e+00 1.167596e+01 -2.357189e+00 4.460257e+00 -3.928882e+00 -1.913166e+00 -5.162563e-01 -3.249696e+00 4.814374e+00 -9.373481e+00 -1.042529e+00 2.926612e-01 -4.187378e-01 -7.077801e-01 8.845151e-02 -5.629025e-03 1.344104e-02 -1.534147e-01 8.175790e-01 6.771988e-01 5.816841e-01 1.281312e+00 2.729580e+00 1.065045e+00 -2.873046e-03 8.112605e-01 -2.737039e-01 -1.412845e+00 1.169250e-02 -2.239113e-01 2.954673e-01 -1.000860e-01 -9.810218e-02 4.637142e-01 -3.699254e-01 2.268857e-01
<VARIANCE> 39
 6.689480e+01 8.594321e+01 1.484586e+02 4.015990e+01 9.576800e+01 6.875078e+01 6.426021e+01 4.499371e+01 6.706680e+01 4.631992e+01 4.116151e+01 4.224559e+01 6.212348e+01 1.162859e+01 6.179659e+00 1.394703e+01 6.038227e+00 1.302646e+01 6.077404e+00 8.349747e+00 7.089759e+00 7.292834e+00 4.266928e+00 6.173125e+00 3.577364e+00 1.082956e+01 1.023630e+00 1.218953e+00 2.123562e+00 1.408345e+00 1.816020e+00 1.197881e+00 1.609653e+00 1.257162e+00 1.467171e+00 8.690781e-01 9.404493e-01 9.167767e-01 1.293034e+00
<GCONST> 1.546466e+02
<MIXTURE> 2 6.132073e-02
<MEAN> 39
 -2.157162e+00 -8.522161e+00 -5.414413e+00 -3.530417e+00 5.868249e-02 -1.820452e+00 -1.328388e+00 1.266810e+01 6.259158e+00 3.028048e-01 -2.144807e+00 -5.927126e-01 1.185398e+01 3.295620e-01 3.033732e-01 1.201528e+00 5.802464e-01 -4.572000e-01 -9.952743e-01 -6.228946e-01 2.177543e-02 -9.479494e-01 -2.840758e-01 6.545833e-01 6.240839e-01 -7.134127e-01 2.521164e-01 3.641152e-01 3.636001e-01 1.871241e-01 1.040195e-01 -1.805751e-01 -6.510589e-02 -6.478707e-01 -2.884141e-01 1.639370e-01 2.245871e-02 -3.899737e-02 -5.254878e-01
<VARIANCE> 39
 1.192086e+01 1.478623e+01 4.188278e+01 3.028510e+01 4.791983e+01 4.118672e+01 6.487121e+01 4.822585e+01 3.197150e+01 3.391541e+01 2.703722e+01 1.701118e+01 6.474267e+00 8.230533e-01 8.795190e-01 2.068046e+00 1.539625e+00 2.787880e+00 2.928590e+00 3.979613e+00 3.601169e+00 3.346954e+00 2.396504e+00 2.641110e+00 1.480491e+00 1.328253e+00 9.785470e-02 1.492491e-01 2.638016e-01 2.202891e-01 3.302943e-01 4.347572e-01 8.518781e-01 9.062142e-01 4.633943e-01 5.399296e-01 4.280413e-01 3.608308e-01 8.649913e-02
<GCONST> 1.089728e+02
<MIXTURE> 3 3.763467e-02
<MEAN> 39
 -2.625134e+00 -5.347826e+00 4.265466e+00 5.029121e+00 -1.290098e+01 -1.139199e+01 -3.824830e+00 1.103444e+01 -3.631523e+00 -4.439562e-01 8.003455e+00 4.028513e+00 9.788759e+00 3.623320e-01 -2.858829e-01 -6.885799e-01 -9.819175e-02 4.013186e-01 4.782831e-01 -3.880828e-01 -1.265434e-01 1.210408e-01 2.966506e-01 -6.213322e-01 -5.246753e-01 -7.006200e-02 -1.063257e-01 3.664851e-01 1.688821e-01 1.354188e-01 3.908480e-01 1.533566e-01 2.950899e-01 -3.861517e-01 2.743978e-02 -4.505433e-01 -2.845111e-01 -1.298947e-01 -3.050084e-01
<VARIANCE> 39
 4.928529e+00 1.172512e+01 3.113723e+01 3.873404e+01 3.895211e+01 2.534861e+01 3.199756e+01 2.769626e+01 3.910102e+01 1.743052e+01 2.424297e+01 1.206925e+01 5.156778e+00 5.918306e-01 2.494494e+00 4.478618e+00 2.100721e+00 3.416344e+00 2.642285e+00 3.407189e+00 3.691878e+00 3.954195e+00 3.908244e+00 3.409188e+00 1.993304e+00 1.236785e+00 8.947368e-02 1.362894e-01 3.419197e-01 2.091119e-01 3.235621e-01 2.544618e-01 5.886279e-01 5.091435e-01 5.666431e-01 4.072906e-01 4.417488e-01 3.537847e-01 9.264491e-02
<GCONST> 1.061365e+02
<MIXTURE> 4 4.248720e-02
<MEAN> 39
 -2.470105e+01 1.876950e+01 -1.511996e+00 2.547001e-01 1.002123e+01 -4.553573e+00 5.768590e+00 1.129546e+00 8.208212e-01 -2.282942e+00 3.577302e-01 8.734352e+00 -7.496418e+00 -4.362510e-01 -2.229261e-01 -3.084666e-01 -3.989631e-01 2.640983e-01 6.424492e-01 9.202088e-03 -6.511565e-02 1.503960e-01 -3.143319e-01 5.823157e-04 1.248297e-01 -7.259712e-01 5.560613e-01 -2.826487e-01 9.664036e-02 2.063316e-01 -3.231253e-01 -2.046059e-01 1.394242e-03 -1.386469e-01 -1.838540e-03 -1.141341e-02 -1.354213e-01 -1.083456e-01 -5.346550e-02
<VARIANCE> 39
 1.297691e+01 2.478800e+01 2.348864e+01 2.077327e+01 5.000531e+01 5.687368e+01 6.220243e+01 2.671745e+01 8.133459e+01 3.317290e+01 1.900450e+01 1.962490e+01 1.441479e+01 4.114364e+00 1.967088e+00 2.142131e+00 1.799304e+00 2.696470e+00 4.629977e+00 2.946486e+00 3.560096e+00 3.508307e+00 2.814931e+00 1.676494e+00 1.988744e+00 9.710002e-01 2.233782e-01 2.553543e-01 3.678607e-01 2.748488e-01 3.996616e-01 8.365172e-01 4.442355e-01 5.426542e-01 6.427475e-01 4.960628e-01 2.930842e-01 3.761955e-01 1.261501e-01
<GCONST> 1.141874e+02
<MIXTURE> 5 6.610938e-02
<MEAN> 39
 6.709469e+00 3.190497e+00 -8.193370e+00 -3.950513e+00 -7.790027e+00 1.668510e+01 -5.832868e+00 -1.218892e+01 -1.173591e-01 -5.854798e-01 1.029101e+01 3.683436e+00 1.872980e+00 2.062628e-01 -2.881682e-01 2.028425e-01 3.168324e-01 3.077443e-02 3.632863e-01 -1.394458e-01 -6.138548e-01 6.472189e-02 3.898187e-01 -2.692688e-01 -6.036615e-01 -9.557900e-02 -1.573192e-01 -1.581917e-02 3.452940e-01 3.430149e-01 7.266535e-01 -8.050923e-01 1.655408e-01 1.906523e-01 5.028826e-02 9.998593e-02 -7.221789e-01 -2.321669e-02 -2.922629e-01
<VARIANCE> 39
