~o
<STREAMINFO> 1 39
<VECSIZE> 39<NULLD><MFCC_D_A_Z_0><DIAGC>
~h "M001"
<BEGINHMM>
<NUMSTATES> 5
<STATE> 2
<NUMMIXES> 11
<MIXTURE> 1 8.452231e-02
<MEAN> 39
 -2.426694e+01 -2.447475e+00 -7.059003e-01 -1.810322e+00 9.260139e+00 5.082611e+00 3.655671e+00 1.000165e+01 5.836235e+00 2.338574e-01 4.970919e+00 1.172251e+01 -3.763606e+00 1.034756e-01 4.563838e-02 3.446926e-01 -2.031310e-01 -1.142450e-02 -6.953480e-02 -9.137648e-02 2.393261e-01 4.605391e-02 3.039636e-01 -2.998343e-01 -5.787306e-01 -3.487056e-02 5.532555e-01 1.449412e-02 -5.764393e-02 2.900940e-01 -1.193521e-01 -1.193445e-01 -1.511655e-01 -2.342286e-01 -3.492036e-01 -1.681611e-01 -2.189109e-01 -2.081458e-01 -3.368313e-01
<VARIANCE> 39
 2.873881e+01 3.494461e+01 1.303866e+01 2.897736e+01 2.762050e+01 3.033791e+01 3.736713e+01 2.555628e+01 1.599344e+01 1.618019e+01 9.524634e+00 1.859901e+01 3.010117e+01 4.673255e+00 3.810984e+00 1.625232e+00 4.803968e+00 4.249282e+00 3.414334e+00 2.897997e+00 4.099167e+00 2.274163e+00 2.304376e+00 1.727320e+00 2.839911e+00 4.792589e+00 1.886678e-01 1.023100e+00 3.794717e-01 1.165329e+00 9.952241e-01 7.054976e-01 6.073816e-01 1.255193e+00 6.927413e-01 3.426604e-01 2.996347e-01 4.851077e-01 3.445241e-01
<GCONST> 1.196339e+02
<MIXTURE> 2 8.049069e-02
<MEAN> 39
 -1.557171e+00 1.962778e+00 -1.378061e+01 -1.701285e+01 8.418805e+00 7.032466e+00 8.680109e+00 -5.593627e+00 2.622040e-01 3.047139e+00 4.168796e+00 -3.604021e+00 1.294726e+01 6.833025e-01 1.225184e-01 5.753137e-01 6.666770e-01 -4.483515e-01 -2.036023e-01 -4.761856e-02 8.483829e-01 -2.181633e-01 -6.033978e-01 1.417152e-01 5.418267e-01 -9.366408e-01 3.526836e-01 2.311536e-01 2.212503e-01 2.966882e-01 -2.633758e-01 5.779088e-02 -1.579126e-01 6.952437e-02 -1.639626e-02 2.190145e-02 -1.923169e-01 1.229370e-01 -8.213898e-01
<VARIANCE> 39
 5.517903e+00 7.624979e+00 1.584093e+01 1.886287e+01 1.938511e+01 9.987030e+00 3.733699e+01 1.304452e+01 6.743904e+00 1.448801e+01 2.809042e+01 1.304980e+01 3.850829e+00 1.227833e+00 6.647018e-01 1.098815e+00 1.282314e+00 1.832730e+00 1.140844e+00 1.276342e+00 1.225766e+00 1.509380e+00 1.114073e+00 1.541888e+00 1.277631e+00 2.748636e+00 1.088845e-01 1.254384e-01 2.383184e-01 3.880487e-01 6.395993e-01 3.509187e-01 2.892110e-01 2.510733e-01 4.049067e-01 3.629926e-01 2.503483e-01 2.505689e-01 1.607860e-01
<GCONST> 9.063375e+01
<MIXTURE> 3 7.137802e-02
<MEAN> 39
 -2.529577e+00 -7.392378e+00 -3.100486e+00 3.587106e+00 -3.865860e-01 5.297761e+00 3.861247e+00 4.250988e+00 8.816874e-01 -3.944165e+00 1.536120e+00 7.766169e+00 -2.214317e+01 -3.293809e-01 9.135185e-01 -1.389100e+00 8.564413e-01 1.426849e-01 -7.985930e-02 6.531866e-01 3.253231e-01 3.193335e-01 7.820957e-01 2.589758e-01 9.175467e-01 2.435323e-01 -3.141435e-01 8.378258e-01 2.208354e-01 6.613129e-01 -3.531973e-02 -2.059900e-01 -1.003632e-01 -3.919508e-01 3.777319e-01 1.541360e-03 -2.989448e-01 -7.631179e-02 6.682861e-01
<VARIANCE> 39
 7.921691e+00 5.052108e+00 3.937789e+01 8.750224e+00 3.815386e+01 2.435799e+01 1.985951e+01 3.217348e+01 1.521770e+01 2.112414e+01 1.630065e+01 1.988944e+01 6.382680e+00 1.150848e+00 1.519553e+00 2.867487e+00 1.739178e+00 2.403633e+00 2.630298e+00 1.896124e+00 1.932024e+00 2.082179e+00 1.708267e+00 1.763996e+00 2.141191e+00 3.337178e-01 5.261749e-01 2.291698e-01 1.241713e+00 4.900900e-01 6.020417e-01 5.481059e-01 3.750438e-01 6.490632e-01 3.702096e-01 3.895763e-01 4.263268e-01 4.711002e-01 2.127927e-01
<GCONST> 1.044969e+02
<MIXTURE> 4 6.307251e-02
<MEAN> 39
 -5.245397e+00 1.023179e+00 -6.582109e+00 1.074990e+01 1.089034e+00 3.557751e+00 7.286623e+00 2.760519e+00 3.492811e+00 -3.013477e+00 -5.077483e-02 8.777468e+00 -1.924116e+01 6.747326e-01 4.840742e+00 2.260797e+00 2.669693e+00 9.515492e-02 -1.699076e+00 -3.094487e-01 -2.968152e+00 -3.848921e-01 5.280165e-01 -1.484669e+00 -3.672163e-01 2.887533e+00 5.748321e-01 2.879600e-01 1.524190e+00 -2.308008e-01 -5.764589e-01 -7.757689e-01 -4.402116e-01 -1.123691e+00 -5.089299e-01 5.161815e-01 -3.652248e-01 -5.233681e-01 9.161026e-01
<VARIANCE> 39
 1.733981e+01 3.601058e+01 2.958639e+01 3.326211e+01 1.697669e+01 2.394999e+01 2.104055e+01 3.159002e+01 1.524192e+01 3.198084e+01 2.053036e+01 1.838590e+01 8.566618e+00 4.963740e+00 3.124378e+00 1.190180e+01 5.751171e+00 1.922678e+00 4.465481e+00 5.733983e+00 5.617214e+00 2.977125e+00 4.618073e+00 3.769460e+00 1.457397e+00 2.401676e+00 4.479903e-01 1.050176e+00 4.853670e-01 8.705125e-01 3.850488e-01 7.877386e-01 4.730557e-01 7.773191e-01 4.208848e-01 9.725285e-01 4.641619e-01 3.584710e-01 2.249253e-01
<GCONST> 1.215863e+02
<MIXTURE> 5 6.696907e-02
<MEAN> 39
 -1.791574e+00 -8.076279e+00 -2.531208e+00 7.692586e+00 -3.712160e+00 3.599349e+00 6.858665e-01 3.394140e+00 1.961079e+00 -6.658443e+00 -1.575020e+00 5.833425e+00 -2.274761e+01 1.154954e-01 5.360160e-01 3.413067e-01 4.363296e-01 2.631365e-01 9.949552e-02 6.645284e-01 -4.146765e-01 1.508336e-01 2.324230e-01 -1.140546e-01 3.072684e-02 1.440540e-01 -1.591629e-01 -7.068615e-02 -1.544571e-01 -4.993531e-02 2.228471e-01 1.664621e-01 2.576798e-01 1.436365e-01 1.880973e-01 1.860618e-01 3.766361e-01 -1.123137e-01 3.211037e-02
<VARIANCE> 39
 8.422452e+00 6.096901e+00 2.090387e+01 1.574909e+01 9.790348e+00 1.414001e+01 2.279146e+01 2.828377e+01 3.014590e+01 1.163548e+01 8.596448e+00 1.646847e+01 8.759510e+00 2.055402e-01 2.758319e-01 4.838260e-01 7.239158e-01 1.113236e+00 9.222538e-01 2.199720e+00 1.337497e+00 1.841754e+00 1.158402e+00 9.006486e-01 8.315261e-01 4.514825e-02 7.681073e-02 5.365103e-02 6.329630e-02 4.947216e-02 1.523244e-01 1.051023e-01 2.714266e-01 2.665413e-01 1.576903e-01 1.219936e-01 1.542801e-01 8.740724e-02 2.241865e-02
<GCONST> 7.027809e+01
<MIXTURE> 6 1.303025e-01
<MEAN> 39
 1.578045e+00 1.385609e+01 2.872690e+00 6.891110e+00 -3.874880e+00 -4.570997e+00 5.517685e+00 -1.146994e+01 -1.873258e-01 1.220090e+00 -5.761408e+00 5.419779e+00 -5.591360e+00 1.069074e+00 5.957498e-01 1.405545e+00 -2.328974e+00 -8.560408e-01 8.398475e-03 4.795957e-01 -1.820008e+00 -4.072706e-01 1.984309e+00 -6.514089e-01 -9.792725e-01 3.517666e+00 -5.595015e-01 -1.642350e+00 -4.223913e-01 -4.850309e-01 4.852699e-01 8.615342e-01 -2.402354e-01 1.251780e+00 3.196175e-01 -1.934348e-01 5.590910e-01 -5.817753e-02 -2.424025e-01
<VARIANCE> 39
 1.513104e+01 2.536414e+01 7.734534e+01 1.132571e+02 4.245133e+01 4.423631e+01 6.059896e+01 7.724721e+01 1.034643e+02 5.835906e+01 5.353934e+01 2.248361e+01 2.092225e+01 3.803575e+00 9.325229e+00 6.109069e+00 6.381258e+00 6.382156e+00 9.178503e+00 6.275801e+00 1.590016e+01 8.039755e+00 6.639852e+00 4.028224e+00 3.640831e+00 4.040033e+00 4.880766e-01 6.274474e-01 8.460562e-01 1.301514e+00 8.985568e-01 6.952912e-01 1.430421e+00 1.858303e+00 1.978219e+00 1.394677e+00 6.716772e-01 4.386905e-01 4.385945e-01
<GCONST> 1.438877e+02
<MIXTURE> 7 1.021596e-01
<MEAN> 39
 3.457082e+00 3.525124e+00 -1.167499e+01 -1.296995e+01 5.712820e+00 7.770801e+00 5.862410e+00 -3.666981e+00 2.470417e-01 3.326626e+00 9.787958e-01 -1.423073e+00 5.946571e-01 6.531590e-01 -1.013504e+00 -6.930837e-01 -1.315106e+00 1.044098e+00 1.868543e-01 5.996729e-01 -3.925582e-02 4.738059e-02 3.935167e-01 -2.207755e-02 -3.827006e-01 -3.817618e-01 -3.274493e-01 -6.237532e-01 2.196378e-02 3.846691e-01 -5.186788e-01 -1.798602e-01 -3.142003e-02 1.852342e-01 3.394261e-02 -3.140267e-01 1.615364e-01 3.489580e-01 -2.695448e-01
<VARIANCE> 39
 2.241058e+01 2.095086e+01 2.500002e+01 4.535032e+01 3.454088e+01 2.037144e+01 2.338761e+01 2.138633e+01 1.661281e+01 2.088157e+01 3.023015e+01 2.974197e+01 6.194265e+01 2.174724e+00 2.151646e+00 2.279231e+00 8.907065e+00 7.291793e+00 2.428788e+00 2.712814e+00 1.300871e+00 2.171905e+00 2.117047e+00 3.543549e+00 3.741058e+00 1.561629e+01 3.951886e-01 4.484601e-01 4.912958e-01 1.233516e+00 8.928719e-01 4.870512e-01 3.451382e-01 3.260774e-01 4.595194e-01 4.246016e-01 6.322714e-01 7.921447e-01 1.019878e+00
<GCONST> 1.224033e+02
<MIXTURE> 8 9.913441e-02
<MEAN> 39
 5.324525e+00 -6.460771e+00 -1.178385e+01 -7.781240e+00 -3.652158e+00 8.197913e+00 7.328552e+00 4.013557e+00 7.782026e-01 -1.236196e+00 -1.937732e-01 1.184014e+00 -1.478487e+01 -6.037682e-01 -5.150305e-01 5.169408e-01 1.116733e+00 -1.187844e+00 1.345946e-01 -1.576740e-01 1.069634e+00 2.126960e-01 -6.096749e-01 -4.749062e-01 -3.243923e-02 -7.903373e-01 -8.362392e-02 3.242891e-01 2.196376e-01 1.394708e-01 2.655994e-01 1.121062e-03 -1.040108e-01 -6.629044e-02 6.462259e-02 -2.656349e-02 -5.115413e-03 -1.591386e-01 2.489017e-01
<VARIANCE> 39
 8.636069e+00 7.620453e+00 1.740554e+01 2.325287e+01 3.021685e+01 3.837206e+01 2.672635e+01 2.845706e+01 2.648925e+01 4.171083e+01 3.678856e+01 3.327460e+01 5.779323e+00 4.648262e-01 1.260153e+00 1.683232e+00 1.677196e+00 2.420822e+00 2.455816e+00 1.756231e+00 2.366844e+00 1.820172e+00 2.242146e+00 3.623221e+00 4.065638e+00 1.973269e-01 1.263066e-01 1.696016e-01 3.869356e-01 2.977618e-01 3.090496e-01 4.914459e-01 2.859141e-01 5.302050e-01 3.553670e-01 3.941843e-01 7.586210e-01 8.824840e-01 6.846926e-02
<GCONST> 1.027887e+02
<MIXTURE> 9 1.025774e-01
<MEAN> 39
 -7.279658e-01 -9.186344e+00 -1.055760e+00 5.562911e+00 6.591914e-01 3.667449e+00 2.951187e+00 4.309095e+00 2.185520e+00 -3.555759e+00 1.376381e+00 4.468460e+00 -2.316755e+01 -3.353915e-01 -2.998614e-01 -2.979840e-01 -5.190555e-02 -2.257609e-01 1.538964e-02 -9.778774e-02 -2.201891e-01 3.752712e-02 1.439460e-01 1.121270e-01 -2.359633e-01 -9.572002e-02 -3.091132e-02 1.662166e-01 -9.478673e-02 -2.483159e-02 -4.917850e-02 -1.773252e-01 -5.542698e-02 -1.547871e-02 -1.487981e-01 -3.467758e-02 -4.660745e-02 1.961185e-01 8.180054e-02
<VARIANCE> 39
 5.035461e+00 4.714971e+00 9.967201e+00 1.197430e+01 2.414351e+01 1.450610e+01 3.936493e+01 3.108741e+01 1.430795e+01 2.098973e+01 1.604742e+01 1.456349e+01 5.044354e+00 1.377677e-01 3.453251e-01 3.762474e-01 3.368327e-01 7.796879e-01 9.562694e-01 1.140132e+00 2.009103e+00 1.647862e+00 1.792055e+00 1.716297e+00 1.373741e+00 5.831137e-02 2.071867e-02 6.550458e-02 7.039782e-02 7.641809e-02 1.143529e-01 7.718855e-02 1.106352e-01 2.591278e-01 1.792258e-01 1.586444e-01 1.111057e-01 1.955652e-01 1.564233e-02
<GCONST> 6.823820e+01
<MIXTURE> 10 1.149256e-01
<MEAN> 39
 -5.728489e+00 -5.101301e+00 -4.969485e+00 5.626985e+00 -9.734040e-01 2.682308e+00 2.216085e+00 1.942402e+00 3.220774e+00 -4.843234e+00 9.189746e-01 5.748080e+00 -1.819887e+01 -1.725159e+00 2.445485e+00 -1.009712e+00 -8.962696e-01 -3.289923e-01 -4.080724e-01 1.844742e-01 -2.250380e+00 9.147262e-01 4.781703e-01 -1.684237e-01 3.180344e-01 4.210910e+00 4.003476e-01 3.095115e-01 2.700369e-01 -9.563265e-01 1.303503e-01 2.039783e-01 1.747106e-01 -1.403783e-01 -2.447400e-01 3.459253e-01 -2.321881e-01 -3.225249e-01 1.324204e+00
<VARIANCE> 39
 4.009850e+01 2.571664e+01 1.957607e+01 3.378263e+01 5.087600e+01 1.979498e+01 2.028681e+01 3.085350e+01 2.341588e+01 2.945017e+01 1.062575e+01 2.183516e+01 2.825873e+01 8.874914e+00 6.383943e+00 5.818979e+00 5.043653e+00 4.941644e+00 3.373397e+00 5.465231e+00 3.777783e+00 7.586951e+00 2.599430e+00 4.346638e+00 2.308007e+00 4.641824e+00 9.124065e-01 6.373113e-01 8.210697e-01 8.664961e-01 9.738756e-01 6.549348e-01 9.927105e-01 7.406647e-01 6.882630e-01 6.540852e-01 4.431686e-01 5.858524e-01 6.807851e-01
<GCONST> 1.296974e+02
<MIXTURE> 11 8.446816e-02
<MEAN> 39
 -1.213753e+00 -9.552017e+00 -7.972997e-01 5.031802e+00 5.880342e-01 3.366498e+00 3.100712e+00 6.510530e+00 5.906842e-01 -4.985974e+00 5.505403e-01 4.642475e+00 -2.298952e+01 -1.092615e+00 8.786249e-01 -3.390161e-01 5.420113e-02 1.741229e-01 -4.167736e-01 8.712211e-02 -6.100379e-01 4.598661e-02 -2.456689e-02 -3.201777e-02 3.836461e-02 6.371269e-01 -5.705044e-01 4.948268e-01 -6.598586e-01 -1.792131e-01 -9.023122e-02 -1.446350e-01 3.856320e-02 -6.103665e-01 4.604582e-01 1.877515e-01 1.587168e-01 3.284780e-01 1.008362e+00
<VARIANCE> 39
 5.306250e+00 7.686937e+00 9.769337e+00 3.079178e+01 3.053393e+01 1.756432e+01 2.274759e+01 2.288524e+01 1.889481e+01 2.009291e+01 2.182890e+01 1.169354e+01 6.454495e+00 8.941770e-01 1.091843e+00 1.393663e+00 8.784147e-01 2.147986e+00 1.632972e+00 2.500474e+00 2.221853e+00 2.475725e+00 1.627102e+00 1.300396e+00 1.031384e+00 5.688114e-01 1.890994e-01 4.181404e-01 3.816303e-01 2.847025e-01 3.210745e-01 3.169338e-01 7.113063e-01 6.560935e-01 4.909724e-01 4.275815e-01 4.902681e-01 2.832132e-01 3.840005e-01
<GCONST> 9.895209e+01
<STATE> 3
<NUMMIXES> 11
<MIXTURE> 1 1.060111e-01
<MEAN> 39
 5.406319e+00 6.207405e+00 -8.077622e+00 -1.277579e+01 -4.530378e-01 8.437513e+00 4.647064e+00 -6.145866e+00 -4.344428e+00 3.965325e+00 -1.762705e+00 -1.245951e+00 3.948848e+00 -1.910898e-03 2.521294e-02 -1.862647e-02 -2.091059e-01 3.975697e-01 1.830752e-01 3.149060e-01 -3.429865e-01 -1.113595e-01 4.020919e-01 -2.292423e-01 -3.565055e-01 -7.418747e-02 -5.433583e-02 -2.841233e-01 1.792932e-01 5.079950e-01 6.029143e-02 -1.989697e-01 -3.051717e-01 9.505763e-02 1.183094e-01 -1.007528e-01 1.424609e-01 -5.149752e-02 -2.224988e-02
<VARIANCE> 39
 6.746929e+00 2.130087e+01 4.951019e+01 6.682865e+01 7.241406e+01 6.375447e+01 8.744572e+01 9.539872e+01 6.149729e+01 5.986901e+01 5.542549e+01 3.726805e+01 8.838306e+00 4.602473e-01 1.980295e+00 2.627850e+00 3.457663e+00 2.547442e+00 3.309105e+00 4.948141e+00 3.930441e+00 3.477976e+00 2.714367e+00 3.274506e+00 2.590760e+00 8.007264e-01 9.189816e-02 1.774086e-01 3.357893e-01 4.073690e-01 4.262288e-01 5.392437e-01 6.292520e-01 7.538484e-01 5.477694e-01 5.655708e-01 5.111880e-01 4.751074e-01 1.035694e-01
<GCONST> 1.184373e+02
<MIXTURE> 2 7.027013e-02
<MEAN> 39
 7.001500e+00 2.008106e-01 2.583356e+00 5.582301e+00 -1.416432e+00 9.549831e-01 -1.581133e+00 4.410454e+00 -8.840708e-01 -3.430246e+00 -2.813705e-01 1.309045e+00 -1.289644e+01 -2.781366e+00 -1.237958e+00 8.704593e-01 -4.091413e-01 1.096985e-01 1.031133e+00 -4.031212e-01 -2.088729e-01 6.544541e-01 1.952329e-01 1.714780e-01 9.180048e-01 1.475005e+00 -1.063340e+00 -3.428839e-01 7.288136e-02 -2.750614e-01 -8.641138e-02 -7.843729e-03 -1.677355e-01 -3.144123e-01 9.941314e-02 2.678798e-01 2.197857e-01 -6.349572e-02 1.717524e+00
<VARIANCE> 39
 4.029534e+01 5.936120e+01 9.417603e+01 9.338287e+01 6.388467e+01 6.240600e+01 4.535347e+01 8.887030e+01 6.172178e+01 4.521177e+01 3.826738e+01 3.264511e+01 2.029692e+01 6.069404e+00 5.498727e+00 9.773898e+00 8.194086e+00 8.221150e+00 7.301468e+00 5.684370e+00 8.110569e+00 6.889822e+00 5.206669e+00 4.423981e+00 3.496176e+00 6.771277e+00 9.258491e-01 9.089468e-01 1.416983e+00 1.468809e+00 1.060746e+00 1.161964e+00 1.231638e+00 1.331381e+00 1.420778e+00 8.262959e-01 8.152170e-01 5.697042e-01 4.989527e-01
<GCONST> 1.472164e+02
<MIXTURE> 3 1.092263e-01
<MEAN> 39
 -3.385625e+00 8.615689e-01 1.481374e+01 4.633090e+00 -1.174478e+01 -7.565234e+00 -2.006595e+00 1.817032e+00 -6.688570e+00 -1.368828e+00 9.120169e+00 -1.176313e-01 6.647923e+00 3.386379e-01 -4.066648e-02 -3.298857e-01 2.049540e-01 -1.890689e-01 -3.031250e-01 8.624570e-02 1.670264e-01 2.458597e-01 -1.399361e-01 1.373062e-01 -3.122229e-02 -1.548850e-01 2.078054e-01 -3.493716e-03 -3.115188e-01 1.549500e-01 5.681413e-01 2.397779e-01 -2.076726e-02 -8.274376e-02 3.171437e-01 1.696827e-04 -4.499296e-01 5.456297e-02 -4.668363e-01
<VARIANCE> 39
 1.891725e+01 3.293973e+01 5.233245e+01 4.349844e+01 3.742347e+01 3.658600e+01 4.308469e+01 6.085352e+01 5.634311e+01 3.259386e+01 3.601662e+01 3.293128e+01 1.077467e+01 1.866996e+00 2.611633e+00 4.017085e+00 2.813795e+00 4.768996e+00 3.139046e+00 2.926053e+00 2.420616e+00 3.911661e+00 2.505572e+00 3.726477e+00 2.623177e+00 2.016084e+00 2.860377e-01 3.416185e-01 5.100713e-01 4.147342e-01 6.867674e-01 6.036952e-01 5.402188e-01 6.292782e-01 6.600357e-01 4.342958e-01 5.299792e-01 4.957802e-01 2.321289e-01
<GCONST> 1.219588e+02
<MIXTURE> 4 9.876852e-02
<MEAN> 39
 5.609904e-01 -2.996564e+00 -8.255818e+00 -8.205963e+00 7.431398e+00 1.093845e+00 1.947146e-01 1.635175e+00 2.765654e+00 4.884153e+00 -2.313764e+00 -5.757063e+00 9.068419e+00 -3.235357e-01 -1.022740e+00 -5.884578e-01 2.912696e-01 6.445953e-01 -4.843133e-01 4.083141e-01 1.432425e+00 5.969931e-01 -5.348743e-01 -3.092456e-01 -2.063049e-01 6.459275e-01 -2.310465e-02 3.271365e-01 4.453602e-01 5.098880e-01 -3.462200e-01 -9.269444e-02 6.168636e-02 -1.174606e-01 -1.551337e-01 -4.780729e-01 -1.041606e-02 4.549103e-01 -5.797791e-01
<VARIANCE> 39
 1.577824e+01 2.495362e+01 6.137842e+01 5.663718e+01 7.473309e+01 7.236429e+01 7.680630e+01 8.344439e+01 7.429822e+01 7.131207e+01 6.067699e+01 3.306393e+01 1.122853e+01 2.077366e+00 3.472859e+00 5.386953e+00 8.527853e+00 5.706079e+00 6.953993e+00 7.156344e+00 5.582725e+00 5.710464e+00 5.497289e+00 3.683828e+00 4.760159e+00 2.856294e+00 3.324928e-01 4.751362e-01 5.791662e-01 8.239003e-01 8.057122e-01 9.243833e-01 1.072890e+00 1.235537e+00 1.093035e+00 9.293117e-01 7.268856e-01 6.228974e-01 3.192506e-01
<GCONST> 1.377811e+02
<MIXTURE> 5 1.017411e-01
<MEAN> 39
 3.950566e+00 9.106656e+00 7.159077e+00 7.451392e+00 -4.978052e+00 -6.643358e+00 2.912929e+00 -1.041947e+01 -3.013471e+00 4.425403e+00 -5.444439e+00 -2.565079e+00 -1.941400e+00 1.566191e-01 7.143602e-01 2.217402e-01 3.137621e-01 -1.505653e-01 8.000063e-02 -1.372195e-01 -5.724332e-01 2.065336e-01 9.921676e-03 1.286940e-01 7.512794e-02 -6.786556e-01 -4.166142e-02 -6.123610e-01 -2.882703e-01 -4.969876e-01 3.753715e-01 3.617152e-01 -3.095224e-01 8.139632e-01 -2.772788e-02 -3.423106e-01 2.437811e-01 -5.968526e-02 2.829710e-01
<VARIANCE> 39
 2.397464e+01 3.325617e+01 5.710911e+01 7.117997e+01 7.187716e+01 8.185455e+01 6.073720e+01 6.865344e+01 5.949357e+01 5.598322e+01 6.181295e+01 4.967865e+01 1.368301e+01 5.804556e-01 3.296352e+00 2.577215e+00 3.357373e+00 4.542451e+00 4.195293e+00 4.727533e+00 7.121343e+00 3.285557e+00 5.594610e+00 4.253810e+00 2.262397e+00 1.167060e+00 9.285209e-02 4.586339e-01 6.027373e-01 5.821981e-01 7.608851e-01 7.867869e-01 6.719053e-01 8.607855e-01 5.690735e-01 8.860353e-01 5.672530e-01 5.274052e-01 1.779042e-01
<GCONST> 1.281595e+02
<MIXTURE> 6 9.947818e-02
<MEAN> 39
 5.779706e+00 5.329580e-01 -8.308327e-01 2.664273e+00 -3.548034e+00 4.917276e+00 -6.138159e+00 -7.216326e+00 -4.186993e+00 1.838286e+00 5.230645e+00 -1.024486e+00 1.551311e+00 6.628518e-01 -7.904749e-02 -6.813302e-01 -1.307570e+00 1.104843e-01 3.497477e-01 1.273139e-01 7.262450e-01 -5.852532e-01 6.271383e-01 2.318994e-01 -8.127933e-01 6.820956e-01 -4.135372e-01 -1.941018e-01 -5.176559e-02 1.185692e-02 1.306699e-01 -1.551500e-01 5.289186e-01 4.672771e-01 3.453555e-01 -1.574607e-01 -4.524708e-01 1.339633e-01 -8.428384e-02
<VARIANCE> 39
 2.551026e+01 4.759975e+01 1.283335e+02 8.410751e+01 7.871948e+01 9.952087e+01 7.666149e+01 1.083828e+02 6.416786e+01 5.555249e+01 7.236166e+01 4.219053e+01 1.963756e+01 5.207323e+00 6.724733e+00 8.655766e+00 9.639333e+00 9.937850e+00 7.648446e+00 7.270889e+00 1.356360e+01 8.961762e+00 6.046943e+00 6.102508e+00 5.247865e+00 4.140209e+00 4.700995e-01 7.505231e-01 1.045025e+00 1.107569e+00 1.208052e+00 1.244714e+00 1.240836e+00 1.669754e+00 1.297948e+00 9.233760e-01 1.048814e+00 8.457633e-01 3.790952e-01
<GCONST> 1.503512e+02
<MIXTURE> 7 6.001496e-02
<MEAN> 39
 -1.655909e+00 -5.471116e+00 -7.857546e+00 -7.248697e+00 6.846291e+00 -6.356915e+00 5.235332e+00 7.440460e+00 3.372614e+00 -4.580692e-02 -3.610750e+00 -6.593272e+00 1.203370e+01 2.519555e-01 1.965330e-01 8.784811e-01 -7.990226e-02 -2.986214e-01 -6.023780e-02 -8.380650e-01 2.987547e-01 -7.885782e-02 -2.972266e-01 7.642604e-01 1.940548e-01 -2.049388e-01 1.898910e-01 1.982053e-01 3.809444e-01 2.722685e-01 -3.021423e-01 2.362153e-01 -4.170138e-01 -3.943649e-01 -6.099676e-02 1.464047e-01 5.568742e-02 3.353965e-01 -4.088510e-01
<VARIANCE> 39
 1.607105e+01 1.333344e+01 4.363251e+01 2.974370e+01 2.658671e+01 3.707731e+01 6.538073e+01 6.021327e+01 6.503812e+01 4.477290e+01 5.291500e+01 3.816113e+01 5.864410e+00 5.718980e-01 7.912982e-01 2.544417e+00 1.619886e+00 2.729077e+00 2.958551e+00 4.054074e+00 4.076437e+00 2.514830e+00 2.628999e+00 2.075495e+00 2.370794e+00 5.977172e-01 8.792901e-02 1.997797e-01 2.493545e-01 3.546700e-01 3.244835e-01 3.478201e-01 3.711452e-01 7.759766e-01 5.314532e-01 4.646401e-01 3.953896e-01 4.001004e-01 1.208105e-01
<GCONST> 1.099753e+02
<MIXTURE> 8 1.109482e-01
<MEAN> 39
 -1.050936e+01 -4.124998e+00 3.869844e+00 3.532265e+00 -1.482001e+00 4.242360e+00 -2.800815e+00 3.216038e+00 4.994926e+00 -3.068943e+00 -4.609183e-01 4.700183e+00 1.194597e+00 -4.028875e-01 3.591005e-01 3.679016e-01 -3.401074e-01 -3.960100e-01 -4.970243e-01 -4.626235e-01 -6.656864e-01 -6.721602e-01 -1.355567e-01 6.749038e-01 -3.250176e-01 2.220415e+00 1.363198e+00 5.766532e-01 -4.395091e-01 -3.829652e-01 -4.683654e-02 -4.342515e-01 1.229949e-01 -1.694967e-01 -6.473315e-01 2.686739e-01 2.255754e-01 -5.503091e-01 -4.820100e-01
<VARIANCE> 39
 6.735738e+01 7.530665e+01 1.404693e+02 1.019636e+02 8.153310e+01 6.570486e+01 6.116265e+01 8.714211e+01 7.055278e+01 4.516557e+01 4.781895e+01 3.072890e+01 4.531468e+01 1.246271e+01 7.804178e+00 9.276338e+00 8.910042e+00 6.938162e+00 7.082597e+00 7.723449e+00 9.052440e+00 9.146636e+00 5.321719e+00 4.637748e+00 4.589980e+00 9.801769e+00 9.657910e-01 1.410850e+00 1.577841e+00 1.822182e+00 1.573237e+00 1.351851e+00 1.408895e+00 1.395525e+00 1.312272e+00 1.038178e+00 8.464860e-01 8.523577e-01 8.080656e-01
<GCONST> 1.550443e+02
<MIXTURE> 9 8.688902e-02
<MEAN> 39
 2.322288e+00 -4.742429e+00 1.952700e+00 1.360241e-01 2.144074e+00 -4.923410e+00 -5.271106e+00 4.170426e+00 1.059608e+00 -1.537399e+00 9.905532e-01 -3.975573e+00 6.714302e+00 8.974300e-01 7.478076e-01 7.201170e-01 1.392025e+00 -2.000395e-01 -2.488357e-01 -2.273874e-01 -1.525225e+00 1.218176e-02 3.452442e-01 -5.655098e-01 7.872605e-01 -1.597445e+00 -5.485284e-03 4.324466e-01 -8.435655e-02 -1.267667e-01 -8.559272e-02 8.362232e-02 5.372739e-01 -2.775077e-01 -1.505770e-01 2.505249e-01 -1.784457e-01 -1.065825e-01 -2.824582e-01
<VARIANCE> 39
 1.431133e+01 2.411311e+01 4.604142e+01 5.866784e+01 4.336647e+01 5.537468e+01 5.477304e+01 8.201517e+01 7.203477e+01 3.277956e+01 5.054920e+01 4.223819e+01 9.270984e+00 1.162261e+00 2.751086e+00 3.361104e+00 4.218119e+00 3.694079e+00 4.158163e+00 4.452579e+00 5.822837e+00 3.084396e+00 3.094569e+00 3.114376e+00 2.712152e+00 1.929338e+00 1.286220e-01 3.887926e-01 4.422005e-01 6.848197e-01 6.134921e-01 7.888921e-01 6.319070e-01 1.049603e+00 5.747702e-01 4.626560e-01 4.834626e-01 5.342687e-01 2.391460e-01
<GCONST> 1.246892e+02
<MIXTURE> 10 9.314405e-02
<MEAN> 39
 7.977525e+00 -2.148236e-03 1.097036e+00 3.130059e+00 4.604459e-01 4.021605e-01 -2.032050e+00 5.777335e+00 -7.596116e-01 -1.989631e+00 -8.746294e-01 -7.804220e-01 -9.022326e+00 5.978733e-01 -7.405627e-02 -2.215743e-01 2.701553e-01 4.795644e-02 2.539047e-01 3.663166e-01 8.652719e-01 -1.435107e-01 -4.700715e-01 -6.321480e-01 2.288793e-01 -2.341349e+00 -7.035140e-01 -1.120268e-01 7.644503e-02 -2.623879e-01 -3.061501e-01 1.565707e-01 5.738275e-02 -3.219736e-01 1.819644e-01 1.541912e-01 2.292663e-01 1.101202e-01 6.468261e-01
<VARIANCE> 39
 6.304030e+01 4.814867e+01 9.037903e+01 8.559036e+01 6.753585e+01 6.768208e+01 5.387123e+01 9.842452e+01 5.744924e+01 5.807817e+01 4.042404e+01 3.323481e+01 3.139104e+01 2.480587e+00 2.928446e+00 3.669539e+00 4.563385e+00 4.313778e+00 4.612620e+00 4.587384e+00 5.737721e+00 3.600134e+00 3.029880e+00 3.049236e+00 2.375825e+00 2.674682e+00 3.502180e-01 3.876142e-01 5.780581e-01 8.512120e-01 8.323188e-01 8.904867e-01 8.672520e-01 8.876481e-01 6.566879e-01 6.481817e-01 6.199896e-01 5.323650e-01 3.388827e-01
<GCONST> 1.345181e+02
<MIXTURE> 11 6.349882e-02
<MEAN> 39
 -1.029855e+00 -5.541902e+00 -3.765463e+00 -7.834493e+00 6.892440e+00 -4.167341e+00 2.469422e+00 7.875026e+00 2.795061e+00 -3.561689e+00 -2.450070e+00 -5.155053e+00 1.176000e+01 3.220533e-02 -7.091548e-02 -3.643821e-01 -5.450105e-02 4.812584e-01 -1.198755e-01 -1.948531e-02 2.688896e-01 2.946142e-02 -2.982702e-01 -2.613156e-02 -2.115600e-01 1.023686e-02 6.971908e-02 9.813536e-02 2.147934e-01 2.375143e-01 -1.964265e-01 1.316652e-02 -2.718704e-01 -1.613950e-01 9.064951e-03 2.034409e-01 4.697286e-02 2.705657e-02 -1.980294e-01
<VARIANCE> 39
 1.084039e+01 9.837288e+00 4.153699e+01 2.622739e+01 5.606915e+01 5.050534e+01 6.294923e+01 4.791643e+01 4.742091e+01 5.236591e+01 4.031632e+01 3.022887e+01 3.259737e+00 1.880110e-01 3.371962e-01 1.343140e+00 8.090712e-01 2.044423e+00 9.905453e-01 1.585063e+00 1.281224e+00 2.271193e+00 1.477989e+00 1.961932e+00 1.119676e+00 1.482233e-01 4.557152e-02 7.865931e-02 1.536556e-01 1.477892e-01 2.120920e-01 1.721454e-01 3.324348e-01 3.274662e-01 3.725213e-01 3.089277e-01 2.561470e-01 2.752087e-01 2.515288e-02
<GCONST> 9.079174e+01
<STATE> 4
<NUMMIXES> 11
<MIXTURE> 1 9.225593e-02
<MEAN> 39
 1.277243e+01 6.361092e+00 -1.437816e+01 -1.286446e+00 -1.024878e+01 1.394064e+01 1.333578e+00 -9.836214e-01 -1.054926e+01 -1.411964e+00 6.010581e+00 9.999164e+00 -5.040437e+00 5.814394e-01 4.015415e-02 -7.489824e-01 -4.765838e-01 4.950953e-01 -1.236326e-01 4.242630e-01 -1.563662e-01 -4.633813e-01 5.765119e-01 -1.880446e-01 2.463510e-01 8.930240e-02 -6.940905e-01 -4.306982e-01 6.301264e-01 2.082259e-01 6.822259e-01 -1.267606e-01 -3.053922e-01 -8.737493e-02 6.291404e-01 -1.801310e-02 -2.418081e-01 -2.627864e-01 -3.363108e-02
<VARIANCE> 39
 1.137367e+01 3.771282e+01 3.860047e+01 5.410947e+01 1.131371e+02 5.982831e+01 7.735514e+01 6.798762e+01 8.439851e+01 3.357696e+01 5.497271e+01 2.396956e+01 1.147381e+01 3.370326e+00 2.446891e+00 5.262536e+00 3.139178e+00 1.440326e+01 4.934897e+00 5.690290e+00 6.579842e+00 1.005632e+01 4.095079e+00 3.856046e+00 2.492772e+00 1.907511e+00 8.068645e-01 4.522188e-01 9.109399e-01 4.427837e-01 1.091990e+00 8.345798e-01 6.905152e-01 1.139262e+00 1.284360e+00 6.695911e-01 9.167627e-01 4.956736e-01 1.231190e-01
<GCONST> 1.344883e+02
<MIXTURE> 2 1.307698e-01
<MEAN> 39
 -2.642120e+01 8.776764e-01 6.163178e+00 1.388913e+00 2.715425e+00 2.515718e+00 1.953035e+00 5.624136e+00 3.980824e+00 -2.837188e+00 2.856172e+00 7.965688e+00 -2.738824e+00 1.105869e-02 -4.724002e-01 -5.261274e-01 1.041169e-01 4.536016e-01 3.030058e-01 5.222314e-02 -1.591162e-02 1.211107e-01 2.419683e-01 -2.424008e-01 -3.749861e-02 -5.816299e-01 8.402357e-01 1.040876e-01 -2.151726e-02 6.848372e-02 -4.785702e-02 -1.600415e-01 -1.614798e-01 -1.828745e-01 -1.931053e-01 -7.168636e-02 -6.196677e-02 -8.611794e-02 -8.677878e-02
<VARIANCE> 39
 1.417675e+01 4.868038e+01 3.051015e+01 4.448352e+01 4.935233e+01 3.971405e+01 3.306623e+01 2.859041e+01 1.787292e+01 1.871133e+01 2.959886e+01 1.929775e+01 1.285811e+01 5.906296e+00 2.722201e+00 2.100899e+00 2.303238e+00 2.000177e+00 3.415328e+00 3.136563e+00 2.499051e+00 2.205707e+00 1.713255e+00 2.322134e+00 1.183843e+00 2.062878e+00 5.789328e-01 7.313204e-01 3.822719e-01 6.025282e-01 3.745218e-01 7.299811e-01 6.203224e-01 5.111353e-01 4.337270e-01 3.038005e-01 4.742313e-01 2.435800e-01 2.092448e-01
<GCONST> 1.154506e+02
<MIXTURE> 3 1.281014e-01
<MEAN> 39
 -1.454777e+00 8.715135e+00 -1.904629e+00 7.349736e+00 1.353038e+01 -6.574618e+00 1.221352e+00 -1.322631e+01 5.321920e+00 1.092682e+00 -6.528059e+00 2.469167e+00 -7.505779e+00 -1.933863e-01 -8.977581e-02 1.024203e+00 7.732985e-01 -3.852887e-01 6.932988e-01 4.636946e-01 -4.075947e-01 -2.731278e-01 -1.243343e+00 5.154991e-01 8.550500e-01 -1.807085e+00 -6.410792e-02 -5.782562e-01 9.918498e-02 -4.535553e-01 -5.605818e-01 1.672806e-01 2.294196e-02 6.196865e-01 -3.981634e-02 -9.441478e-02 7.759453e-02 1.972836e-02 3.194504e-02
<VARIANCE> 39
 3.252496e+01 4.017229e+01 7.623029e+01 5.527103e+01 7.089364e+01 8.286945e+01 7.056559e+01 5.103747e+01 1.231723e+02 6.299351e+01 4.982917e+01 2.694588e+01 3.305676e+01 8.900040e-01 4.625229e+00 5.399632e+00 4.077171e+00 5.260359e+00 3.385883e+00 5.404236e+00 7.187809e+00 5.316541e+00 5.660023e+00 2.997678e+00 2.415612e+00 6.282939e-01 1.699519e-01 3.731453e-01 8.689623e-01 8.386949e-01 5.755151e-01 7.160459e-01 1.110972e+00 9.849491e-01 1.096865e+00 8.702477e-01 5.510916e-01 4.580091e-01 8.568829e-02
<GCONST> 1.319375e+02
<MIXTURE> 4 1.160691e-01
<MEAN> 39
 -9.401044e-01 3.091098e+00 4.114092e+00 3.336864e+00 -5.423234e-01 -4.832952e-02 -2.289673e+00 -1.227039e+00 2.304327e-01 -1.679328e+00 1.749821e+00 4.806708e+00 -9.462730e+00 -2.073570e+00 -6.606248e-01 1.405298e-01 -5.169105e-01 7.008436e-01 -9.426095e-02 -3.754916e-01 9.351441e-01 1.196122e+00 -1.849497e-01 -1.945130e-01 2.116984e-01 6.133913e-01 -8.767669e-01 -2.440606e-01 -1.810375e-01 -3.799877e-01 -2.166159e-01 8.865093e-02 2.628085e-01 2.537329e-02 1.668431e-01 2.714169e-01 -1.081936e-01 -4.699568e-02 8.772450e-01
<VARIANCE> 39
 9.443494e+01 6.320936e+01 1.261364e+02 3.437552e+01 5.007518e+01 7.527582e+01 6.633540e+01 5.036815e+01 5.128740e+01 3.807877e+01 3.198514e+01 2.745254e+01 7.742376e+01 1.108623e+01 6.528056e+00 9.510845e+00 4.900656e+00 5.199942e+00 8.753590e+00 6.867701e+00 7.594861e+00 7.077410e+00 8.015647e+00 3.955506e+00 3.316664e+00 8.435352e+00 8.265408e-01 7.254739e-01 1.144047e+00 8.112379e-01 1.262841e+00 9.797978e-01 9.753832e-01 9.355704e-01 5.732102e-01 9.776555e-01 4.968710e-01 4.438853e-01 7.974832e-01
<GCONST> 1.456584e+02
<MIXTURE> 5 6.496764e-02
<MEAN> 39
 -5.102684e-01 -6.908551e+00 -6.631315e-01 2.441780e+00 1.754890e-01 4.975221e-02 1.676602e+00 3.849798e+00 9.311339e-01 -3.498009e+00 -1.719372e+00 4.225942e+00 -1.858766e+01 -2.547934e-02 -3.544035e-01 -2.878761e-01 3.935923e-01 -2.737598e-01 1.669590e-01 3.334846e-01 1.871615e-01 -1.397240e-02 -1.815772e-01 2.943293e-01 -1.001966e-02 -4.828677e-01 -7.644209e-02 2.795163e-01 7.784462e-02 1.407342e-03 1.790708e-01 -1.300554e-01 -6.644691e-02 -3.029339e-01 3.239954e-02 1.290831e-02 1.276130e-02 -4.500198e-02 2.535366e-01
<VARIANCE> 39
 1.395915e+01 9.620186e+00 1.343610e+01 2.666785e+01 1.897861e+01 2.424173e+01 2.003056e+01 3.465698e+01 1.420613e+01 2.728511e+01 2.146793e+01 2.153329e+01 8.737785e+01 2.280652e-01 3.221026e-01 9.936771e-01 9.744315e-01 9.845028e-01 1.688100e+00 1.546962e+00 2.117891e+00 2.083040e+00 1.684013e+00 1.995460e+00 9.485460e-01 7.136758e-02 9.026030e-02 1.162311e-01 1.706757e-01 1.533675e-01 2.119727e-01 2.474903e-01 2.794821e-01 3.142092e-01 3.785337e-01 3.086146e-01 2.329813e-01 1.607365e-01 6.605425e-02
<GCONST> 8.827424e+01
<MIXTURE> 6 8.439819e-02
<MEAN> 39
 -1.912021e+00 -9.331030e-01 6.785184e+00 4.210647e+00 -1.296305e+00 -9.911705e+00 3.771114e+00 4.613128e+00 -5.999634e+00 -7.111298e+00 -1.287041e+00 3.111999e+00 -9.106135e+00 8.920878e-01 -5.049664e-01 1.888888e-01 9.385196e-01 -5.416266e-01 3.291368e-01 2.046530e-01 3.462355e-01 -8.957576e-01 -3.108070e-01 -6.312397e-02 9.686696e-02 -1.340100e+00 -4.768594e-01 -5.083779e-02 -1.444564e-01 -2.595988e-01 1.908678e-02 6.097234e-01 -3.045987e-01 -1.112350e-01 6.262889e-01 3.399470e-01 2.308717e-01 2.245940e-01 3.482355e-01
<VARIANCE> 39
 5.322237e+01 2.291031e+01 1.126753e+02 3.118029e+01 2.890725e+01 1.705059e+02 3.975026e+01 6.736636e+01 4.081237e+01 1.898468e+01 3.070518e+01 2.159171e+01 9.720438e+01 2.819832e+00 2.369057e+00 7.253659e+00 2.693271e+00 2.152780e+00 6.086566e+00 3.165229e+00 4.490551e+00 4.906114e+00 2.968028e+00 2.554279e+00 1.642703e+00 1.484604e+00 6.607341e-01 2.797780e-01 1.008868e+00 5.551889e-01 5.900759e-01 7.960488e-01 7.085932e-01 5.993652e-01 8.753564e-01 6.186347e-01 4.944763e-01 3.414949e-01 4.589577e-01
<GCONST> 1.286249e+02
<MIXTURE> 7 4.917740e-02
<MEAN> 39
 4.570728e+00 7.461707e+00 -1.288336e+01 -1.131441e+01 1.909200e+00 7.767278e+00 6.233337e+00 -1.500641e+01 2.666794e-01 1.686729e+01 2.669302e+00 4.986009e-02 4.390930e+00 -4.984352e-01 -1.312307e+00 7.794569e-01 1.105570e+00 -3.732054e-01 8.753075e-01 -2.290602e+00 -1.118378e+00 1.214820e+00 6.473483e-01 3.974112e-02 -1.088669e-01 1.242705e-01 1.049362e-01 -2.000857e-01 7.436728e-02 5.916154e-01 1.230667e-01 -2.332257e-01 -4.375361e-01 7.007613e-01 3.476820e-01 -1.143457e+00 -1.839671e-01 3.901766e-01 -3.978060e-01
<VARIANCE> 39
 1.038486e+01 2.011886e+01 4.606109e+01 6.357046e+01 4.154892e+01 8.683773e+01 8.543612e+01 7.885727e+01 3.994683e+01 4.229329e+01 1.694190e+01 3.862546e+01 6.731222e+00 1.215195e+00 1.204513e+00 1.617420e+00 5.638582e+00 3.435773e+00 3.325865e+00 5.662144e+00 8.846088e+00 3.151435e+00 1.146133e+01 2.491714e+00 2.540812e+00 3.103494e+00 2.585323e-01 1.734583e-01 2.584621e-01 4.802616e-01 1.026243e+00 5.760268e-01 1.296775e+00 1.822324e+00 3.126681e-01 1.264448e+00 4.436329e-01 3.889741e-01 1.369888e-01
<GCONST> 1.238067e+02
<MIXTURE> 8 6.782243e-02
<MEAN> 39
 -1.522452e+01 -9.455240e+00 2.827779e+00 2.350706e+00 3.753374e+00 6.679554e+00 -7.111238e+00 6.770473e-01 3.952373e+00 -3.746188e+00 1.238307e+00 6.710787e+00 4.600211e-02 -2.664304e+00 5.289225e-01 -1.241269e+00 -7.608199e-01 -3.112032e-01 -7.584215e-01 8.340449e-01 8.234285e-01 1.813552e+00 5.629244e-01 -4.400602e-02 2.227712e-01 2.022060e+00 1.604796e+00 1.032011e+00 -1.953548e-01 2.728816e-01 -3.539211e-01 -5.632392e-01 8.400649e-01 5.464657e-03 -5.229842e-01 2.454146e-01 2.765404e-02 -3.053396e-01 -7.184032e-01
<VARIANCE> 39
 8.376257e+01 6.936394e+01 1.131710e+02 5.411079e+01 4.982899e+01 5.226859e+01 6.224340e+01 4.040306e+01 5.890822e+01 2.501000e+01 4.106062e+01 2.687100e+01 2.354729e+01 1.559018e+01 7.325379e+00 1.155501e+01 3.924008e+00 4.536514e+00 7.590157e+00 6.862672e+00 2.953536e+00 4.890342e+00 3.741755e+00 4.538177e+00 3.080429e+00 8.855729e+00 9.187918e-01 1.544093e+00 1.731791e+00 9.049228e-01 1.416545e+00 1.889446e+00 1.490916e+00 1.249522e+00 1.247864e+00 1.084002e+00 9.313468e-01 5.127938e-01 5.497714e-01
<GCONST> 1.464161e+02
<MIXTURE> 9 6.506421e-02
<MEAN> 39
 -2.380371e+00 -4.023605e+00 2.513974e+00 2.507098e+00 3.088764e+00 7.270855e-01 -1.970442e-01 -3.671233e+00 3.394135e+00 -6.249718e+00 -3.262856e+00 7.242413e+00 -1.616702e+01 2.807418e-01 -1.935045e+00 2.336752e-01 -6.757742e-01 -1.412833e+00 3.885394e-01 -1.095525e+00 1.758908e+00 -7.246548e-01 -6.580278e-01 1.600754e-01 -4.377353e-01 -1.731866e+00 5.488362e-02 4.407876e-01 -5.242024e-01 3.274649e-01 5.310012e-01 -1.126292e-01 2.471281e-01 -1.084371e-01 -1.254514e-01 3.965304e-01 1.037726e-01 -3.025174e-01 3.339618e-01
<VARIANCE> 39
 3.063726e+01 2.134633e+01 5.583851e+01 5.593185e+01 3.577172e+01 4.978099e+01 3.950980e+01 6.344268e+01 7.279763e+01 6.522353e+01 3.490820e+01 2.374120e+01 1.957121e+01 2.694943e+00 2.837167e+00 5.830442e+00 4.379302e+00 6.502820e+00 7.296350e+00 4.027778e+00 3.881325e+00 7.214576e+00 5.479820e+00 2.995444e+00 2.121223e+00 6.799680e-01 2.754581e-01 2.245617e-01 1.028939e+00 6.959969e-01 4.930951e-01 7.501667e-01 6.614085e-01 7.857707e-01 1.223399e+00 1.101967e+00 5.179332e-01 4.227363e-01 1.036478e-01
<GCONST> 1.284489e+02
<MIXTURE> 10 1.261039e-01
<MEAN> 39
 -2.763985e+00 2.015103e+00 -7.008687e+00 5.395543e-01 2.245414e+00 -6.087208e+00 2.583757e+00 -5.483370e+00 1.270265e+01 6.949692e+00 -6.437694e+00 1.832971e+00 6.759683e+00 1.470855e-01 4.538710e-01 -1.076956e-01 1.396042e-01 5.398625e-01 -6.447904e-01 3.651463e-02 -5.972989e-01 -3.376448e-01 -9.166544e-02 -3.982554e-01 -1.073408e-01 -5.288926e-01 -2.674188e-02 1.543135e-01 4.217838e-01 2.453193e-01 1.213926e-01 4.791974e-02 -2.984945e-01 1.330669e-01 -2.992674e-01 -3.251295e-01 3.871874e-01 9.546407e-02 -5.414240e-01
<VARIANCE> 39
 1.011228e+01 1.819266e+01 3.446465e+01 4.597047e+01 4.878183e+01 2.515985e+01 5.843697e+01 5.472854e+01 3.290256e+01 4.741348e+01 2.781823e+01 4.137239e+01 1.031569e+01 8.528361e-01 1.440570e+00 1.959659e+00 2.937721e+00 4.739515e+00 2.809416e+00 5.911548e+00 5.224442e+00 3.032814e+00 3.872323e+00 2.067373e+00 2.225553e+00 2.134134e+00 3.211269e-01 2.822021e-01 3.626511e-01 4.473242e-01 4.831732e-01 6.250192e-01 6.657127e-01 6.279233e-01 5.553645e-01 6.759753e-01 3.598239e-01 4.142954e-01 2.665636e-01
<GCONST> 1.184058e+02
<MIXTURE> 11 7.526817e-02
<MEAN> 39
 -5.151001e+00 -2.161023e+00 -3.262193e+00 1.207151e+00 5.710549e+00 5.832830e+00 -3.219542e+00 -2.694538e-01 6.368310e+00 -5.113115e-01 1.649529e+00 3.177675e+00 -1.194870e+00 3.799013e+00 2.246016e+00 -1.774458e+00 -1.493121e+00 -8.298908e-01 -5.055981e-01 8.828132e-01 -1.414098e+00 -1.241052e+00 5.028396e-01 2.976726e-02 -1.545442e-01 1.614546e-01 2.900372e-01 -1.123805e-01 -3.197773e-01 -9.702430e-02 -3.685870e-01 -2.952814e-01 5.961319e-01 -6.113804e-02 -6.116033e-01 1.437944e-01 -1.973765e-01 9.635790e-02 -2.134361e-01
<VARIANCE> 39
 9.121225e+01 5.447020e+01 4.492120e+01 7.088023e+01 7.507412e+01 1.160697e+02 9.190965e+01 6.154539e+01 4.619158e+01 4.554458e+01 5.534015e+01 2.603379e+01 2.757279e+01 1.059407e+01 7.629859e+00 5.705564e+00 8.377955e+00 8.009658e+00 8.359591e+00 8.330534e+00 4.966691e+00 5.795062e+00 4.495975e+00 9.760066e+00 4.349901e+00 5.445557e+00 1.338330e+00 9.951023e-01 7.321272e-01 1.359454e+00 1.437045e+00 1.323205e+00 1.450303e+00 1.049976e+00 7.081604e-01 1.198380e+00 8.817587e-01 5.051292e-01 4.797176e-01
<GCONST> 1.487355e+02
<TRANSP> 5
 0.000000e+00 1.000000e+00 0.000000e+00 0.000000e+00 0.000000e+00
 0.000000e+00 9.408719e-01 5.912813e-02 0.000000e+00 0.000000e+00
 0.000000e+00 0.000000e+00 9.939412e-01 6.058834e-03 0.000000e+00
 0.000000e+00 0.000000e+00 0.000000e+00 9.749411e-01 2.505886e-02
 0.000000e+00 0.000000e+00 0.000000e+00 0.000000e+00 0.000000e+00
<ENDHMM>
~h "M002"
<BEGINHMM>
<NUMSTATES> 5
<STATE> 2
<NUMMIXES> 11
<MIXTURE> 1 6.436403e-02
<MEAN> 39
 -1.466558e+00 -5.474147e-01 -2.546594e+00 6.142920e+00 6.016738e+00 -3.241333e+00 1.089897e+01 9.148454e-02 6.395811e-01 -2.138382e+00 -3.211576e+00 4.524553e+00 -2.655318e+01 -1.950060e-01 3.102011e-01 1.578368e-01 1.474955e-01 -2.020284e-01 2.298379e-01 -2.962368e-01 -1.774605e-01 -8.816066e-02 1.285028e-02 7.503922e-02 -6.199622e-02 1.066717e+00 -1.735839e-01 2.004049e-01 1.013653e-01 -1.310452e-01 1.588047e-02 3.612141e-02 -1.600129e-01 2.378127e-02 1.363185e-02 1.273282e-01 1.183507e-01 4.820984e-04 7.659321e-01
<VARIANCE> 39
 1.936146e+01 2.106417e+01 1.745010e+01 2.513568e+01 3.901502e+01 2.485881e+01 4.086452e+01 2.763676e+01 1.931682e+01 2.685394e+01 2.680088e+01 2.026830e+01 8.269897e+01 2.582641e+00 1.644887e+00 3.049612e+00 1.814351e+00 2.757115e+00 3.357351e+00 1.875438e+00 1.749541e+00 2.119423e+00 2.167498e+00 1.726683e+00 1.394195e+00 3.916894e+00 2.964110e-01 1.595634e-01 2.839256e-01 4.309260e-01 3.144372e-01 4.015684e-01 3.404263e-01 2.333280e-01 3.148170e-01 4.010251e-01 2.751175e-01 2.055592e-01 8.716539e-01
<GCONST> 1.101478e+02
<MIXTURE> 2 7.893501e-02
<MEAN> 39
 -6.975132e-01 -2.990284e+00 -6.979694e+00 2.617917e+00 7.146448e+00 8.116954e+00 -3.539855e+00 -3.841125e+00 -1.683594e+00 3.073373e+00 1.346448e+00 -1.274836e+00 8.053533e-01 1.093131e-02 3.277358e-02 6.437685e-02 -5.873394e-02 -6.007587e-02 -2.402691e-02 1.525922e-01 7.717025e-02 1.021916e-01 8.004069e-02 3.749144e-02 2.973582e-02 -2.888653e-02 1.310490e-02 2.449641e-02 3.371590e-02 -1.686439e-02 -5.718509e-02 -4.441256e-02 3.347380e-02 6.248179e-02 4.024254e-02 -1.188302e-02 2.721623e-02 4.027596e-02 6.429217e-03
<VARIANCE> 39
 1.301242e+00 2.120026e+00 3.052677e+01 9.015114e+00 1.233184e+01 1.872787e+01 1.890922e+01 7.798727e+00 1.370770e+01 1.319979e+01 1.402542e+01 1.046799e+01 2.473969e+00 8.075210e-02 2.225690e-01 7.714177e-01 6.119886e-01 1.118176e+00 1.387242e+00 1.248562e+00 9.219227e-01 1.158064e+00 1.440437e+00 1.450679e+00 1.186490e+00 3.408687e-02 1.781876e-02 4.972386e-02 1.511148e-01 1.273693e-01 2.328557e-01 2.557609e-01 2.697141e-01 1.740394e-01 2.026510e-01 3.139033e-01 3.261688e-01 2.763904e-01 4.666286e-03
<GCONST> 6.593712e+01
<MIXTURE> 3 1.039040e-01
<MEAN> 39
 4.343850e+00 -2.094636e+00 -2.271421e+01 -3.689358e+00 -3.257493e+00 1.469846e+01 -4.719872e+00 4.411374e+00 -5.909288e+00 6.207808e+00 -1.800031e+00 7.207788e-01 6.331393e+00 1.319688e-02 -1.034045e-03 -4.111864e-02 2.640880e-04 -3.320891e-02 2.651843e-02 -3.816366e-02 -3.146706e-02 -8.285998e-02 -5.886763e-02 -3.508744e-02 1.245273e-03 2.652571e-02 -5.153306e-03 1.600096e-02 6.438953e-02 -1.131704e-03 8.294327e-03 -3.566219e-02 2.196107e-02 -2.359732e-02 6.034286e-03 -1.152142e-02 4.167333e-03 -1.591687e-02 -1.434951e-02
<VARIANCE> 39
 7.111394e+00 6.750792e+00 2.830013e+01 1.770933e+01 3.534442e+01 1.560825e+01 3.045502e+01 2.564773e+01 1.480195e+01 1.903532e+01 1.243426e+01 1.313231e+01 4.921102e+00 9.824862e-02 1.770804e-01 1.006405e+00 5.988676e-01 9.303465e-01 9.404278e-01 1.397441e+00 1.099974e+00 1.120240e+00 1.178982e+00 1.328416e+00 1.241057e+00 9.135930e-02 1.309375e-02 3.086819e-02 1.720158e-01 1.176710e-01 1.798677e-01 1.772043e-01 2.770856e-01 2.244498e-01 2.322902e-01 2.232458e-01 2.577991e-01 2.508309e-01 9.046217e-03
<GCONST> 7.285265e+01
<MIXTURE> 4 1.112217e-01
<MEAN> 39
 -7.188048e-01 3.165253e-01 3.977448e+00 4.997972e-01 5.419090e-01 -2.641937e+00 7.320163e-01 -8.557121e-01 9.999165e-01 -1.687620e+00 -5.927091e-01 -1.090180e+00 -1.165099e+00 5.794604e-02 8.444822e-02 1.994165e-01 2.179461e-01 1.939981e-01 3.823770e-01 5.077729e-01 3.104455e-01 1.890470e-01 2.488322e-01 2.874021e-01 1.403936e-01 3.195056e-02 -3.881804e-02 -6.602336e-03 8.350953e-02 1.097225e-01 1.177751e-01 -2.153911e-02 2.890665e-02 -1.719065e-02 2.569496e-02 3.903342e-02 1.901784e-01 1.640574e-01 -2.145188e-02
<VARIANCE> 39
 7.302016e-01 9.839686e-01 4.472812e+00 1.949645e+00 4.326105e+00 9.850251e+00 7.297224e+00 7.267704e+00 9.223423e+00 6.475143e+00 4.986645e+00 6.824414e+00 8.285324e-01 6.043134e-02 1.426270e-01 3.303959e-01 4.730050e-01 7.711508e-01 7.410386e-01 7.471105e-01 6.962597e-01 1.310566e+00 8.527030e-01 9.501826e-01 9.139646e-01 3.408687e-02 8.207353e-03 1.680800e-02 5.653172e-02 5.877747e-02 1.032654e-01 1.517120e-01 1.698170e-01 1.570795e-01 2.274534e-01 1.621993e-01 1.491815e-01 1.709756e-01 4.365372e-03
<GCONST> 4.265400e+01
<MIXTURE> 5 9.171424e-02
<MEAN> 39
 -4.757538e-01 1.434979e+00 6.793386e+00 2.876013e+00 2.089407e+00 -3.691280e+00 4.514956e-01 -2.319295e+00 -1.049183e+00 -3.718864e+00 -7.920439e-01 -1.709876e-02 -1.284383e+00 -8.274014e-02 -3.355237e-02 -5.920856e-02 -3.333062e-02 -8.924945e-02 -2.963195e-01 -2.348558e-01 -1.359444e-01 2.520896e-02 -8.116826e-02 1.184595e-01 8.259056e-03 -6.223764e-02 -4.233157e-02 -7.590123e-02 -1.873939e-01 -2.957816e-01 -2.327174e-01 5.196362e-03 5.197493e-02 2.154925e-01 3.428785e-01 2.784157e-01 5.620394e-02 -7.057945e-02 -1.127075e-02
<VARIANCE> 39
 1.428876e+00 3.215912e+00 5.992264e+00 2.424142e+00 4.876278e+00 7.347350e+00 8.426141e+00 8.516660e+00 8.185303e+00 7.736047e+00 1.026502e+01 8.471364e+00 8.285324e-01 6.628916e-02 2.042446e-01 3.593576e-01 4.111638e-01 6.185603e-01 6.642567e-01 9.009707e-01 7.840998e-01 1.152827e+00 1.137008e+00 1.076373e+00 9.327133e-01 3.408687e-02 1.314839e-02 3.989195e-02 7.325555e-02 7.209511e-02 1.268366e-01 1.413703e-01 1.769407e-01 1.627778e-01 1.966823e-01 1.825980e-01 2.251747e-01 2.017004e-01 4.421437e-03
<GCONST> 4.939525e+01
<MIXTURE> 6 8.893426e-02
<MEAN> 39
 -2.901121e+00 -1.584291e+00 5.562548e+00 1.137195e+00 3.390640e+00 -1.889865e+00 4.147960e+00 1.806660e-01 3.593228e+00 -1.056087e+00 2.352417e+00 6.939402e-01 -2.604411e+00 1.058849e-01 2.106186e-01 2.960893e-01 3.376137e-01 2.590113e-01 1.713387e-02 2.124789e-01 1.730454e-01 9.115280e-02 9.593365e-02 3.871630e-01 3.181522e-01 3.108183e-02 9.642137e-02 1.240316e-01 5.058267e-02 5.924208e-02 2.803163e-02 -4.233418e-02 -6.632937e-02 5.651334e-02 8.666983e-03 -4.729289e-02 -1.450595e-01 -7.103070e-02 3.382063e-02
<VARIANCE> 39
 9.619547e-01 1.568087e+00 7.580206e+00 4.170268e+00 5.918761e+00 1.055539e+01 7.851588e+00 9.363015e+00 9.062255e+00 1.080244e+01 8.015753e+00 1.039065e+01 8.285324e-01 8.094563e-02 1.952392e-01 3.566686e-01 3.600547e-01 4.999114e-01 9.853776e-01 1.037727e+00 1.446955e+00 1.266259e+00 1.120009e+00 9.335669e-01 1.107737e+00 3.408687e-02 1.477471e-02 3.542263e-02 8.745252e-02 8.149955e-02 1.204028e-01 1.866803e-01 1.974912e-01 2.461807e-01 2.142939e-01 1.858319e-01 2.182720e-01 2.129506e-01 5.559871e-03
<GCONST> 5.249249e+01
<MIXTURE> 7 9.813454e-02
<MEAN> 39
 -1.540177e+00 -5.072287e-01 3.922954e+00 -4.166205e-01 -5.718084e-01 -4.593486e+00 -8.079919e-01 -2.159349e+00 4.609656e-01 -2.382292e+00 -5.921643e-02 -5.859159e-01 -1.650189e+00 -5.736958e-02 -9.691755e-02 -6.673896e-02 -2.560768e-01 -1.971620e-01 -6.192862e-02 -2.690376e-02 5.576643e-02 -1.801165e-01 -1.346230e-01 -3.194726e-01 -2.094692e-01 9.751356e-04 1.036415e-01 1.432137e-01 1.136354e-01 2.082801e-01 2.048884e-01 2.420947e-01 3.054349e-01 2.101893e-01 1.198691e-01 1.890077e-01 1.089159e-01 1.178492e-01 5.881213e-02
<VARIANCE> 39
 7.302016e-01 1.393865e+00 5.017062e+00 3.041465e+00 5.072648e+00 8.226209e+00 6.777997e+00 6.185076e+00 9.808691e+00 1.025715e+01 1.115186e+01 8.635837e+00 8.285324e-01 7.331979e-02 2.048192e-01 3.266283e-01 4.266214e-01 5.858412e-01 6.933219e-01 9.006116e-01 9.319377e-01 1.388552e+00 1.441925e+00 9.841511e-01 1.007761e+00 3.408687e-02 1.070594e-02 3.099806e-02 7.022353e-02 9.187914e-02 1.228007e-01 1.490455e-01 1.519188e-01 1.656082e-01 2.539951e-01 2.857458e-01 2.981006e-01 2.156196e-01 4.365372e-03
<GCONST> 4.940029e+01
<MIXTURE> 8 8.716014e-02
<MEAN> 39
 5.937358e+00 4.997204e+00 -6.667249e+00 -6.689655e+00 -1.501811e+01 -2.704905e+00 -4.963258e+00 1.480126e+00 -6.752961e+00 4.927946e-01 -4.571917e+00 8.761245e-01 4.552579e+00 -6.957512e-02 1.105041e-02 2.613954e-01 5.791522e-02 1.243877e-01 -1.046245e-01 1.387754e-01 4.070989e-02 1.538065e-01 -9.864203e-02 -5.935244e-02 -8.577868e-02 -9.189885e-02 -1.277059e-02 -1.639645e-02 1.511859e-03 2.788303e-02 5.762219e-02 3.334922e-02 4.480370e-02 1.279280e-02 2.422914e-02 6.637260e-03 7.475077e-04 -6.537294e-04 -6.476846e-03
<VARIANCE> 39
 6.795985e+00 3.595138e+00 5.980418e+01 9.390712e+00 2.066241e+01 2.725938e+01 2.221371e+01 3.885633e+01 5.336371e+01 1.884340e+01 2.106787e+01 1.624876e+01 9.729942e+00 9.013889e-02 1.506859e-01 6.096375e-01 3.553353e-01 1.094380e+00 1.183394e+00 1.261674e+00 1.625992e+00 1.232123e+00 1.458303e+00 1.732385e+00 1.342233e+00 6.335434e-02 1.704558e-02 2.733994e-02 1.251355e-01 5.126435e-02 2.010716e-01 2.628317e-01 2.577787e-01 2.937242e-01 2.245319e-01 2.981733e-01 3.663895e-01 2.949230e-01 1.099993e-02
<GCONST> 7.546163e+01
<MIXTURE> 9 1.436743e-01
<MEAN> 39
 -8.266425e-01 1.198454e-01 4.214091e+00 1.603438e+00 2.598688e+00 -1.115531e+00 1.753747e+00 1.145611e-01 3.103234e+00 9.891522e-01 2.504427e+00 1.097549e+00 -1.196336e+00 -6.540206e-02 -1.219309e-01 -6.956496e-02 -9.647086e-02 -8.635398e-02 -8.251409e-02 -2.461361e-01 -2.436988e-01 -8.989231e-04 -2.619854e-02 -1.960197e-01 -1.095138e-01 -3.323040e-02 -3.912218e-02 -3.329461e-02 -1.816099e-02 -1.346007e-01 -2.054282e-01 -1.484441e-01 -8.852479e-02 -1.445436e-01 -3.065127e-01 -3.283079e-01 -2.857215e-01 -1.862367e-01 -2.139189e-02
<VARIANCE> 39
 7.302016e-01 1.328793e+00 5.141899e+00 3.326497e+00 5.227948e+00 9.896420e+00 1.028351e+01 7.074709e+00 8.940869e+00 6.979711e+00 7.699869e+00 7.941956e+00 8.285324e-01 7.891289e-02 1.608437e-01 4.949464e-01 6.002758e-01 8.060535e-01 9.502003e-01 9.184040e-01 1.002310e+00 1.159717e+00 1.239070e+00 1.400708e+00 1.085896e+00 3.408687e-02 1.477441e-02 3.416933e-02 8.782377e-02 8.375352e-02 9.951720e-02 1.848575e-01 2.122772e-01 1.610823e-01 2.378643e-01 2.099369e-01 2.360262e-01 1.788831e-01 5.479376e-03
<GCONST> 5.100822e+01
<MIXTURE> 10 6.008033e-02
<MEAN> 39
 -4.194541e-01 1.652339e+00 5.363330e+00 -2.925697e-01 -1.413599e+00 -3.774487e+00 2.596589e+00 4.248481e-01 9.583397e-01 -1.578111e+00 -2.811354e-01 -2.596204e-01 -1.085298e+00 9.229388e-02 9.170094e-02 -1.454983e-01 6.783786e-02 1.939364e-01 -4.986367e-02 -2.146247e-01 -9.044511e-02 -9.537050e-03 -9.751846e-02 8.118359e-02 8.366092e-02 3.219917e-02 -7.633643e-02 -2.032267e-01 -1.130460e-01 1.849252e-01 3.417292e-01 9.046342e-02 -3.204083e-01 -2.348583e-01 5.459853e-02 5.892105e-02 1.014771e-01 -8.238476e-03 -3.853442e-02
<VARIANCE> 39
 7.302016e-01 9.074959e-01 3.715168e+00 4.204853e+00 4.125486e+00 5.749453e+00 4.423376e+00 9.207162e+00 9.602506e+00 1.153239e+01 9.810586e+00 8.403028e+00 8.285324e-01 9.621610e-02 2.344610e-01 4.525767e-01 5.435368e-01 6.886077e-01 6.153715e-01 1.019879e+00 9.934860e-01 1.175241e+00 1.751046e+00 1.198512e+00 8.429397e-01 3.476944e-02 1.736235e-02 2.693650e-02 6.892338e-02 1.156126e-01 1.008913e-01 9.132409e-02 1.269365e-01 2.026402e-01 2.596622e-01 3.520694e-01 2.694238e-01 1.849890e-01 7.347334e-03
<GCONST> 4.999994e+01
<MIXTURE> 11 7.187235e-02
<MEAN> 39
 -3.295491e+00 -1.035125e+00 8.767589e+00 2.741810e+00 4.570028e+00 -3.908886e+00 5.135718e+00 2.134930e+00 5.888704e+00 -2.073815e+00 8.791716e-01 -1.025327e+00 -3.318286e+00 -5.383721e-02 -1.077587e-01 -1.710363e-01 -1.987664e-01 -1.446729e-01 -1.526964e-02 -5.111317e-02 -6.342529e-02 -1.121540e-01 -7.470225e-02 -2.649281e-01 -1.650400e-01 -8.679587e-03 -3.931788e-03 -2.975341e-02 -8.898527e-02 -7.922734e-02 -9.059533e-02 1.499851e-02 -9.053069e-02 -1.724462e-01 -1.272748e-01 3.325332e-02 1.061722e-01 1.009385e-01 1.057371e-02
<VARIANCE> 39
 8.166691e-01 1.575480e+00 3.811241e+00 3.191522e+00 5.472921e+00 1.179981e+01 9.292100e+00 1.119228e+01 9.513364e+00 7.225513e+00 7.078721e+00 8.815261e+00 8.285324e-01 8.148963e-02 1.716074e-01 3.834536e-01 3.796673e-01 7.311871e-01 1.157326e+00 9.637630e-01 1.231161e+00 9.539983e-01 6.056250e-01 8.714979e-01 9.620450e-01 3.408687e-02 1.764427e-02 3.395421e-02 9.524791e-02 8.981410e-02 1.576456e-01 2.471716e-01 2.202854e-01 2.725646e-01 2.401182e-01 1.456785e-01 1.917866e-01 2.233689e-01 5.549970e-03
<GCONST> 5.118294e+01
<STATE> 3
<NUMMIXES> 11
<MIXTURE> 1 7.513729e-02
<MEAN> 39
 6.438647e-02 -5.711102e+00 -1.049643e+01 -7.755817e+00 9.520108e+00 2.857513e+00 3.959939e+00 7.997470e-02 6.810604e+00 4.157696e-01 -7.941505e+00 -3.739607e-01 -1.024369e+01 -1.172614e+00 8.069600e-01 1.622214e-01 5.426084e-01 4.506563e-01 -1.699106e-01 7.830206e-01 -2.354269e-01 1.957481e-01 -4.452268e-01 1.344196e-01 6.542017e-01 8.477449e-01 -2.008366e-01 2.676207e-01 6.213197e-01 4.145463e-01 -3.342456e-01 -1.812870e-01 -1.386189e-01 1.339275e-01 -2.747937e-01 -3.355346e-02 4.107516e-01 1.548052e-01 7.381593e-01
<VARIANCE> 39
 7.615417e+01 5.247434e+01 5.262194e+01 9.784692e+01 1.053942e+02 7.162013e+01 7.731762e+01 7.976260e+01 6.332466e+01 5.522041e+01 4.857180e+01 6.430865e+01 7.354032e+01 6.445885e+00 5.193467e+00 5.523736e+00 6.314399e+00 5.858239e+00 6.149196e+00 7.052405e+00 6.481018e+00 4.717369e+00 4.171577e+00 3.773679e+00 5.120644e+00 6.907759e+00 9.385141e-01 5.555226e-01 6.603125e-01 7.543631e-01 9.726807e-01 9.584213e-01 1.221279e+00 1.055527e+00 8.908448e-01 8.003008e-01 7.584937e-01 8.545572e-01 1.124514e+00
<GCONST> 1.472007e+02
<MIXTURE> 2 8.729884e-02
<MEAN> 39
 -1.436269e+00 -7.057568e+00 -1.004314e+01 -8.133497e+00 5.086389e+00 9.071997e+00 1.736814e+00 2.520253e+00 5.313279e+00 4.457158e+00 -2.835415e+00 -4.821662e+00 1.256735e+01 1.984765e-02 -1.243234e-01 3.084793e-02 2.091928e-01 3.879996e-02 -3.207376e-01 -2.843207e-02 8.761457e-02 6.612498e-02 6.164109e-02 -2.158973e-01 -1.481530e-01 5.825570e-02 5.572221e-02 1.827686e-02 1.112855e-01 5.627638e-02 -6.664735e-02 -1.388925e-01 -2.176474e-01 1.729542e-01 -3.674947e-02 8.841143e-03 -2.569970e-02 7.525458e-02 -9.084031e-02
<VARIANCE> 39
 4.132639e+00 1.456294e+01 1.221422e+01 3.076568e+01 1.739309e+01 2.908410e+01 2.597108e+01 2.751239e+01 1.980013e+01 4.192015e+01 2.104050e+01 2.090241e+01 4.004886e+00 1.362962e-01 2.301538e-01 3.427098e-01 4.381039e-01 5.463606e-01 7.098956e-01 1.057833e+00 1.113345e+00 6.130422e-01 5.832773e-01 8.505675e-01 6.949828e-01 7.152106e-02 2.934316e-02 4.337512e-02 7.539976e-02 6.243390e-02 1.020374e-01 1.045310e-01 2.093871e-01 1.846406e-01 9.917464e-02 1.446683e-01 1.366528e-01 1.169783e-01 1.291897e-02
<GCONST> 6.581515e+01
<MIXTURE> 3 6.092856e-02
<MEAN> 39
 -6.822691e+00 4.512273e+00 1.406430e+01 6.623937e+00 -1.274749e+01 -1.565013e+00 -4.646266e+00 -1.645798e+00 -7.961421e+00 -8.315254e+00 1.012196e+01 -3.261723e-01 7.233438e+00 -6.602482e-02 1.113270e-01 5.645039e-02 6.139693e-02 -2.041060e-01 -2.129328e-01 1.958879e-01 -1.362309e-01 -3.349838e-02 9.615520e-02 1.850913e-01 1.275121e-02 6.090446e-02 9.446512e-02 -3.175922e-02 -9.667570e-02 7.990082e-02 5.530328e-02 -1.056905e-01 4.825546e-02 7.667288e-02 7.225475e-02 1.590307e-02 -6.397844e-02 1.999563e-02 -9.240770e-02
<VARIANCE> 39
 8.069097e+00 1.000716e+01 4.469893e+01 1.937659e+01 2.276728e+01 1.932997e+01 2.442756e+01 4.216568e+01 3.727000e+01 2.723111e+01 1.862502e+01 2.415799e+01 4.357846e+00 1.744888e-01 2.207409e-01 3.970116e-01 6.082491e-01 6.135020e-01 9.611297e-01 7.378150e-01 6.915002e-01 1.084010e+00 6.632648e-01 5.941543e-01 6.922301e-01 6.413420e-02 2.604671e-02 3.625925e-02 5.552845e-02 8.431909e-02 1.307057e-01 1.523491e-01 1.487760e-01 1.315596e-01 1.850781e-01 1.591796e-01 1.207356e-01 1.134871e-01 2.662364e-02
<GCONST> 6.889677e+01
<MIXTURE> 4 1.303747e-01
<MEAN> 39
 -3.722860e-01 -7.584453e+00 -8.683710e+00 -7.053601e+00 4.596044e+00 5.837455e+00 -1.653583e+00 5.732295e+00 5.830176e+00 6.000829e+00 -2.589896e+00 -4.744437e+00 1.149991e+01 7.756134e-02 -2.320499e-01 3.003587e-01 4.056293e-01 -1.755642e-01 -4.460847e-01 -1.198475e-01 3.860322e-01 2.561746e-01 -5.327023e-01 -2.952138e-02 5.295860e-02 -4.180333e-02 1.206021e-01 2.675006e-01 2.900482e-01 1.868414e-01 -4.601559e-02 -2.359007e-01 6.878737e-02 -4.459307e-01 -1.283032e-01 -2.631152e-01 2.101341e-01 3.396552e-01 -4.120047e-01
<VARIANCE> 39
 7.152000e+00 1.579206e+01 2.214911e+01 3.477176e+01 3.499887e+01 3.919439e+01 4.440668e+01 4.875204e+01 2.668655e+01 3.514454e+01 3.162296e+01 2.265593e+01 8.271549e+00 7.269003e-01 1.108236e+00 2.474205e+00 2.435541e+00 2.109616e+00 4.465467e+00 4.320261e+00 4.288622e+00 2.579868e+00 3.486089e+00 2.863553e+00 2.690877e+00 1.106738e+00 9.323549e-02 1.602636e-01 2.775767e-01 3.013812e-01 2.937036e-01 3.285025e-01 6.135729e-01 6.631910e-01 4.059680e-01 5.527641e-01 3.577193e-01 4.014863e-01 9.314196e-02
<GCONST> 1.088367e+02
<MIXTURE> 5 9.644744e-02
<MEAN> 39
 3.939298e+00 6.138442e+00 -7.986796e+00 -1.162239e+01 -3.307753e+00 1.447590e+01 -2.386338e+00 -6.194980e+00 -4.335393e+00 3.760266e+00 5.004311e+00 4.801308e+00 5.428514e+00 -3.219863e-02 2.503507e-01 -9.217858e-02 -7.051389e-01 1.408265e-01 3.500972e-01 3.135428e-01 -1.098346e-02 -1.320438e-01 -5.366628e-02 -1.911323e-01 2.101855e-01 -1.723332e-02 -2.761642e-02 -1.573270e-01 6.099259e-02 2.314931e-01 5.525225e-02 -2.757318e-01 -8.774241e-03 1.425540e-01 1.868217e-01 3.473582e-02 -4.678103e-02 -1.961422e-01 8.701484e-03
<VARIANCE> 39
 5.463400e+00 4.096225e+01 2.103852e+01 7.903504e+01 3.768353e+01 3.401392e+01 4.339685e+01 3.079294e+01 2.811099e+01 4.053247e+01 5.736688e+01 1.741127e+01 9.634668e+00 2.412476e-01 7.053567e-01 5.849856e-01 2.026108e+00 1.212366e+00 1.639933e+00 1.516922e+00 1.636081e+00 1.585683e+00 1.840978e+00 1.900322e+00 1.759293e+00 3.234042e-01 3.664378e-02 8.292505e-02 1.362040e-01 2.230971e-01 1.829799e-01 2.907824e-01 2.028071e-01 3.350540e-01 2.831785e-01 3.208207e-01 3.329901e-01 1.954394e-01 4.753678e-02
<GCONST> 9.312309e+01
<MIXTURE> 6 1.155492e-01
<MEAN> 39
 -7.504069e-01 -8.874304e-01 3.303828e+00 5.280356e+00 -6.274039e+00 -1.515498e+00 -7.668635e+00 2.273259e+00 -2.517349e+00 -5.818609e-01 6.283907e+00 -5.749580e-01 7.002199e+00 1.073640e-01 -1.747386e-01 -5.799353e-01 -5.171458e-01 -4.560878e-01 1.152303e+00 -3.482600e-01 -6.435928e-02 -3.583529e-01 3.577194e-01 5.966809e-01 -1.675363e-01 3.621794e-01 1.706851e-02 6.530242e-02 -7.783839e-03 -2.091286e-01 3.295147e-01 2.363263e-02 5.199470e-01 -1.814967e-01 9.927896e-02 1.953227e-02 -3.309332e-01 5.980291e-02 -2.775749e-01
<VARIANCE> 39
 1.292476e+01 1.958302e+01 6.283668e+01 4.181345e+01 6.058143e+01 6.125501e+01 4.650771e+01 6.993231e+01 5.991848e+01 5.022011e+01 3.309460e+01 2.823890e+01 7.386288e+00 8.312676e-01 1.079695e+00 3.256780e+00 2.607145e+00 3.149399e+00 4.071080e+00 4.323001e+00 4.229409e+00 3.808249e+00 3.315419e+00 3.249623e+00 2.080979e+00 9.986270e-01 1.626669e-01 1.481150e-01 3.985831e-01 3.945713e-01 4.799426e-01 5.792229e-01 6.843409e-01 8.057479e-01 6.163561e-01 6.307760e-01 5.676371e-01 4.876837e-01 1.889111e-01
<GCONST> 1.188272e+02
<MIXTURE> 7 8.254208e-02
<MEAN> 39
 3.326632e+00 -6.067318e+00 3.924946e-01 3.418188e+00 -8.004889e-01 -4.790608e+00 -2.899602e+00 4.662580e+00 3.531320e+00 -1.525619e+00 -1.428696e-01 -5.064914e-01 2.868595e+00 1.117163e+00 1.764491e-01 1.079829e+00 5.562983e-01 4.791330e-01 -5.900397e-01 3.797533e-01 -8.812913e-01 -3.899451e-01 -4.594569e-01 -6.016245e-01 -4.046380e-01 -2.139189e+00 -2.063475e-02 -5.089818e-02 -8.799761e-02 -3.958326e-01 5.577775e-02 3.893373e-01 2.076517e-01 2.572474e-02 -2.031959e-01 3.251007e-01 -1.732234e-01 -2.576926e-01 -1.369879e-02
<VARIANCE> 39
 1.740493e+01 3.426568e+01 3.964626e+01 4.670907e+01 5.505623e+01 3.461510e+01 3.925442e+01 4.101909e+01 6.084281e+01 3.140549e+01 3.607143e+01 3.785689e+01 2.720830e+01 7.147357e-01 1.296512e+00 2.523109e+00 2.799669e+00 2.725808e+00 2.115376e+00 3.272385e+00 3.845247e+00 3.653611e+00 3.022165e+00 3.342323e+00 3.520462e+00 1.375725e+00 1.044207e-01 2.449529e-01 2.955534e-01 4.490716e-01 5.201959e-01 4.867651e-01 5.908440e-01 6.951277e-01 5.144389e-01 4.807329e-01 5.131615e-01 6.870022e-01 2.309518e-01
<GCONST> 1.181019e+02
<MIXTURE> 8 7.114112e-02
<MEAN> 39
 -6.429740e+00 3.096068e+00 1.295215e+00 6.284998e+00 4.936674e+00 -5.211463e+00 4.064915e+00 -6.829546e-01 3.093972e+00 -3.004773e+00 -3.334212e+00 3.943183e+00 -6.543067e+00 -2.568090e-01 6.864699e-01 1.073157e+00 -7.378660e-02 -8.938308e-01 6.053557e-02 -1.443655e+00 1.842116e-01 -2.981936e-01 6.794418e-01 1.243604e+00 4.843005e-01 4.214401e+00 1.004807e+00 -4.741600e-01 -2.333565e-01 -7.493064e-01 -6.192304e-01 5.285647e-01 -4.655133e-01 -3.866726e-02 -4.973299e-01 5.524002e-01 2.284511e-01 -5.591031e-01 -6.060788e-02
<VARIANCE> 39
 5.558493e+01 3.950495e+01 7.752641e+01 4.105957e+01 4.656352e+01 6.972339e+01 7.243249e+01 6.875462e+01 3.980626e+01 4.229412e+01 4.556999e+01 2.867307e+01 9.369843e+01 9.343331e+00 5.897188e+00 1.175110e+01 1.097962e+01 9.036536e+00 8.806699e+00 7.213924e+00 7.971347e+00 7.402693e+00 7.244551e+00 5.189787e+00 5.249550e+00 8.081720e+00 8.099402e-01 9.564052e-01 1.479506e+00 1.121114e+00 1.095363e+00 1.298398e+00 1.785937e+00 1.324203e+00 9.402661e-01 1.140794e+00 7.753245e-01 9.086680e-01 1.376310e+00
<GCONST> 1.513569e+02
<MIXTURE> 9 1.197245e-01
<MEAN> 39
 9.117201e+00 -5.695111e+00 2.236605e+00 -3.247536e+00 3.539046e+00 3.317969e-01 3.544247e+00 -4.295902e-01 -1.823875e+00 1.988902e+00 -6.082778e+00 -4.656773e+00 -7.032118e+00 2.467127e-01 -1.605070e-02 8.977805e-02 -5.520405e-02 4.142236e-02 -2.112078e-01 3.132099e-01 -2.663242e-01 -2.118626e-01 -3.239238e-02 -3.717091e-01 -3.331909e-01 -1.142689e+00 -3.687719e-01 2.025024e-01 -3.290263e-01 1.501613e-01 -1.630873e-01 -5.485988e-02 -1.402843e-01 1.196444e-01 2.495460e-01 -8.408859e-02 2.534702e-01 1.825330e-01 3.329257e-01
<VARIANCE> 39
 2.143861e+01 5.952168e+01 9.075269e+01 7.166743e+01 6.662587e+01 7.324686e+01 5.530108e+01 8.769268e+01 5.450192e+01 5.241325e+01 4.234240e+01 4.536983e+01 5.094908e+01 7.163684e-01 1.423425e+00 2.880303e+00 2.496201e+00 2.739634e+00 2.470755e+00 2.603573e+00 3.509670e+00 2.494533e+00 2.312936e+00 2.547409e+00 2.110605e+00 8.298241e-01 1.983543e-01 2.537568e-01 5.640730e-01 4.398300e-01 5.226251e-01 4.421484e-01 6.676760e-01 7.811788e-01 4.795408e-01 4.412762e-01 5.141949e-01 5.004264e-01 1.574567e-01
<GCONST> 1.221444e+02
<MIXTURE> 10 7.961448e-02
<MEAN> 39
 -6.460279e-01 1.274511e+00 -9.234516e+00 -1.241399e+01 1.061146e+00 1.030857e+01 1.573966e-01 -3.959280e+00 3.030910e+00 7.609822e+00 2.185442e+00 -1.788326e-01 4.760360e+00 1.809743e-01 -7.206210e-01 -5.101476e-01 -5.520935e-01 1.031270e-01 -8.710674e-02 8.869977e-03 2.772305e-01 4.854496e-01 5.426884e-01 -3.242216e-01 -5.671583e-01 6.157837e-03 -9.468848e-02 -1.875396e-01 1.718365e-01 5.334978e-01 2.350209e-01 -3.385814e-01 1.645580e-01 1.072409e-01 1.044390e-01 -4.192090e-01 -4.156304e-01 -7.027300e-02 -4.210976e-01
<VARIANCE> 39
 4.397675e+01 3.044057e+01 1.802860e+01 5.021933e+01 2.277513e+01 4.708866e+01 4.378344e+01 3.209792e+01 7.390479e+01 4.890034e+01 5.088561e+01 4.085431e+01 3.277438e+01 2.443605e+00 2.805613e+00 2.089412e+00 6.300002e+00 2.409535e+00 5.011460e+00 3.710103e+00 3.746318e+00 3.551895e+00 4.280823e+00 3.205588e+00 3.903308e+00 6.431514e+00 3.686664e-01 3.851283e-01 3.980870e-01 8.923098e-01 3.430538e-01 6.925535e-01 5.917139e-01 6.049204e-01 5.978474e-01 8.008974e-01 6.056963e-01 6.384367e-01 4.475072e-01
<GCONST> 1.280254e+02
<MIXTURE> 11 8.123494e-02
<MEAN> 39
 2.718487e+00 4.039757e+00 8.734729e+00 6.052428e+00 -4.500208e+00 -6.040159e+00 4.331087e+00 -2.812567e+00 -5.180878e+00 3.440055e-01 1.150867e-01 -5.605155e-02 -5.116607e+00 -3.257347e-01 -2.371186e-01 -1.067154e+00 -4.031896e-01 -6.767339e-01 5.147083e-01 -1.448540e+00 6.823569e-01 1.802861e-02 -5.793061e-02 5.627351e-01 -2.416717e-02 1.467656e+00 -3.176081e-01 -3.137536e-01 -5.890971e-01 -3.622371e-01 3.699680e-01 5.246632e-01 -1.825144e-01 1.710405e-01 2.272079e-01 -6.859035e-03 -9.498475e-02 -3.936256e-02 1.141765e-01
<VARIANCE> 39
 6.806907e+01 5.826785e+01 8.896906e+01 5.979741e+01 7.291626e+01 1.032240e+02 9.894682e+01 8.542677e+01 6.621904e+01 5.030006e+01 5.958705e+01 5.347824e+01 7.866538e+01 5.653164e+00 4.041308e+00 8.731454e+00 7.306490e+00 8.383246e+00 7.598949e+00 7.700099e+00 8.371972e+00 6.600692e+00 6.621713e+00 5.426470e+00 3.854340e+00 4.699193e+00 6.659384e-01 6.562942e-01 1.267133e+00 1.025620e+00 1.095180e+00 1.104446e+00 1.322959e+00 1.449239e+00 9.990196e-01 8.023759e-01 6.492527e-01 6.253262e-01 1.066423e+00
<GCONST> 1.502409e+02
<STATE> 4
<NUMMIXES> 11
<MIXTURE> 1 1.218340e-01
<MEAN> 39
 -7.818542e+00 5.636163e+00 9.165345e-01 4.735541e+00 5.971180e+00 -6.260999e+00 8.937842e-01 -1.630056e+00 1.337675e-01 -1.587991e+00 -1.797274e+00 5.658128e+00 -4.014984e+00 -7.947878e-01 -1.880031e-01 -4.723794e-01 -1.319632e+00 -1.008859e+00 5.216951e-01 -1.021820e+00 8.120171e-01 9.325949e-01 2.251330e-01 8.265828e-01 6.092609e-01 2.420131e+00 7.584986e-01 -2.810016e-01 2.674226e-01 -1.609852e-01 -8.023358e-01 3.272759e-01 9.954524e-02 6.218779e-02 -2.724473e-01 5.396455e-02 2.018066e-01 -4.980312e-01 -1.117918e-01
<VARIANCE> 39
 7.958386e+01 8.371722e+01 1.538857e+02 6.447416e+01 1.132891e+02 7.982706e+01 1.145045e+02 6.945808e+01 8.444968e+01 5.144033e+01 4.610697e+01 4.815529e+01 5.929495e+01 1.111772e+01 5.674394e+00 1.017799e+01 7.443398e+00 1.228946e+01 8.233905e+00 1.032759e+01 1.114104e+01 6.928952e+00 6.023811e+00 5.002313e+00 4.837667e+00 8.197876e+00 9.914468e-01 8.767262e-01 1.626664e+00 1.153964e+00 1.650388e+00 1.293960e+00 1.723319e+00 1.471418e+00 1.303521e+00 8.655228e-01 8.710078e-01 7.879819e-01 9.469654e-01
<GCONST> 1.566643e+02
<MIXTURE> 2 1.049655e-01
<MEAN> 39
 -1.862211e+00 -7.363645e+00 -7.729975e+00 -5.677385e+00 1.070257e+00 1.251623e+00 -1.879086e+00 9.464276e+00 6.757148e+00 2.841377e+00 -2.197603e+00 -1.817543e+00 1.161019e+01 1.224849e-01 -3.468308e-01 2.462000e-01 3.988425e-01 -2.328960e-01 -3.984056e-01 -3.829647e-01 5.681415e-01 -1.435066e-01 -2.693574e-01 1.165366e-01 4.856032e-03 -5.761885e-02 1.852974e-01 4.359812e-01 4.778435e-01 2.831811e-01 1.341211e-01 -2.062227e-01 -1.069585e-02 -5.543385e-01 -3.490421e-01 -9.002908e-02 2.667660e-02 2.038987e-01 -5.765520e-01
<VARIANCE> 39
 1.032759e+01 1.604855e+01 4.646021e+01 4.153966e+01 4.259686e+01 7.756164e+01 5.751257e+01 6.136526e+01 3.235937e+01 3.979484e+01 2.987417e+01 2.154283e+01 4.839988e+00 8.641748e-01 1.716361e+00 3.997815e+00 2.604199e+00 2.986408e+00 4.733890e+00 5.633465e+00 4.840118e+00 4.447771e+00 3.257004e+00 3.445194e+00 2.649487e+00 1.833017e+00 1.420306e-01 1.553964e-01 3.870739e-01 2.958965e-01 4.431986e-01 4.921640e-01 9.541359e-01 8.508552e-01 5.431294e-01 6.428330e-01 4.628767e-01 4.718189e-01 1.240821e-01
<GCONST> 1.176392e+02
<MIXTURE> 3 1.209491e-01
<MEAN> 39
 -5.992038e+00 3.336627e+00 1.400336e+01 8.070350e+00 -1.337906e+01 -8.852695e+00 -3.302344e+00 3.243016e+00 -5.082264e+00 -8.377272e+00 7.780843e+00 1.190061e+00 6.083985e+00 1.732168e-01 -1.741211e-01 -1.668650e-02 1.721286e-01 -2.753415e-01 -8.039297e-02 3.186492e-01 1.323651e-01 -4.115364e-02 2.654307e-02 -2.299927e-01 -2.680206e-01 -1.375187e-01 1.799921e-01 8.015515e-02 -2.330955e-01 2.073840e-02 5.375767e-01 -7.689510e-02 5.351702e-01 -1.473516e-01 8.002868e-02 2.791067e-01 -4.175471e-01 -7.786162e-02 -4.494237e-01
<VARIANCE> 39
 1.476104e+01 4.209623e+01 6.587638e+01 3.244819e+01 3.750125e+01 5.184303e+01 3.173245e+01 5.131910e+01 4.054829e+01 2.811827e+01 2.584912e+01 3.543650e+01 1.035093e+01 1.276049e+00 2.886474e+00 3.770043e+00 2.409434e+00 3.216072e+00 2.978653e+00 5.001411e+00 3.627105e+00 3.817277e+00 2.873064e+00 3.642816e+00 2.098737e+00 2.149171e+00 2.435353e-01 3.353541e-01 4.546921e-01 3.628743e-01 5.838121e-01 5.936235e-01 7.210035e-01 7.166088e-01 6.830449e-01 3.750378e-01 5.912316e-01 3.609379e-01 2.300904e-01
<GCONST> 1.204000e+02
<MIXTURE> 4 1.031907e-01
<MEAN> 39
 -4.949448e+00 8.247836e+00 -2.630438e+00 2.664496e+00 6.252362e+00 -3.726785e+00 6.475455e+00 -2.356818e+00 -9.036165e-01 -2.080123e+00 -2.363660e+00 3.789321e+00 -1.698016e+01 -7.764889e-02 -3.704329e-01 -1.811076e-01 1.033036e-01 2.348099e-01 2.121041e-01 3.837310e-01 1.800516e-01 -6.994920e-02 -2.333639e-01 -1.564065e-01 -5.783734e-02 -7.426134e-01 -4.249233e-02 -2.126235e-02 1.521167e-01 4.303972e-02 -4.457261e-02 3.610220e-03 -1.061656e-01 -6.202299e-02 2.596600e-02 6.446999e-03 -3.836695e-02 3.471724e-02 2.150833e-01
<VARIANCE> 39
 2.281299e+02 9.042618e+01 2.874316e+01 2.356832e+01 4.394605e+01 5.393787e+01 4.706986e+01 4.935723e+01 4.111190e+01 2.353783e+01 2.410283e+01 3.326772e+01 7.484492e+01 1.946895e+00 1.552787e+00 1.571893e+00 1.539857e+00 1.718468e+00 2.120857e+00 2.059530e+00 2.299051e+00 2.085514e+00 1.878419e+00 1.604673e+00 1.404384e+00 6.289242e-01 3.590104e-01 2.179156e-01 2.966509e-01 2.846553e-01 3.622065e-01 4.120984e-01 3.498541e-01 4.203496e-01 3.610949e-01 3.788582e-01 3.320871e-01 3.391419e-01 1.691515e-01
<GCONST> 1.132929e+02
<MIXTURE> 5 8.419504e-02
<MEAN> 39
 5.618836e+00 3.238401e+00 -8.598861e+00 -6.707847e+00 -5.410734e+00 1.626463e+01 -3.984959e+00 -1.032400e+01 -6.914293e-02 1.482960e+00 8.093340e+00 3.206849e+00 2.932224e+00 8.217747e-02 -5.806481e-01 -7.154246e-02 -2.309046e-01 -1.087827e-01 4.845445e-01 -3.206255e-01 -2.369005e-01 4.371644e-01 4.642892e-01 -2.515399e-02 -8.374889e-01 5.182101e-01 -1.511102e-01 -1.222085e-01 3.630950e-01 6.428934e-01 6.663318e-01 -8.349600e-01 2.314376e-01 1.396781e-01 -7.828205e-03 -1.185823e-01 -6.824715e-01 -1.997523e-02 -4.083519e-01
<VARIANCE> 39
 1.906377e+01 5.261596e+01 3.093322e+01 1.093822e+02 5.460350e+01 8.505177e+01 7.317062e+01 1.013443e+02 6.856052e+01 8.883215e+01 5.364557e+01 5.814598e+01 1.686317e+01 1.709793e+00 2.798002e+00 5.001496e+00 1.207602e+01 7.700091e+00 1.189061e+01 5.263872e+00 7.403390e+00 8.643653e+00 6.466474e+00 7.839332e+00 3.847586e+00 3.856896e+00 3.120991e-01 4.955221e-01 7.338576e-01 1.500642e+00 9.564651e-01 9.377532e-01 6.529812e-01 1.325485e+00 1.093278e+00 1.412093e+00 1.147239e+00 6.928274e-01 2.057678e-01
<GCONST> 1.428806e+02
<MIXTURE> 6 6.926590e-02
<MEAN> 39
 2.649830e+00 2.432121e+00 2.855116e-01 4.019976e+00 5.075994e+00 -3.241884e+00 -1.177830e+01 -7.889834e+00 8.284226e+00 1.810391e+00 -2.019462e+00 -4.288358e-01 -1.708891e+00 6.152899e-01 5.616491e-01 3.411625e-01 4.794405e-01 7.046557e-01 -6.851344e-01 5.668150e-01 -3.081307e-01 -4.208149e-01 2.235428e-02 -4.809533e-01 3.296183e-01 -1.463763e+00 -8.200368e-02 -2.349193e-02 -2.450122e-01 -3.519352e-01 -3.116499e-01 3.671656e-01 4.022634e-01 2.117307e-01 -3.163120e-01 2.865464e-03 3.278073e-01 1.209218e-01 1.102055e-01
<VARIANCE> 39
 3.939693e+01 6.246300e+01 7.833812e+01 3.439266e+01 3.614072e+01 8.248617e+01 6.284873e+01 1.084230e+02 8.724753e+01 4.788107e+01 5.645092e+01 5.446533e+01 4.110001e+01 2.306820e+00 1.855731e+00 5.480920e+00 3.331164e+00 6.173895e+00 6.966088e+00 3.941258e+00 7.008841e+00 5.411245e+00 4.078393e+00 5.182163e+00 3.670175e+00 1.977461e+00 2.862076e-01 2.981674e-01 5.105221e-01 5.043623e-01 5.200054e-01 7.888222e-01 5.885210e-01 8.582047e-01 8.688332e-01 6.403405e-01 6.373194e-01 6.597666e-01 1.886471e-01
<GCONST> 1.339431e+02
<MIXTURE> 7 8.795570e-02
<MEAN> 39
 8.352959e+00 2.532201e+00 6.039318e+00 6.568938e+00 2.637451e+00 -1.604620e+00 8.277686e+00 -7.275931e+00 -9.828224e+00 4.205009e-01 -4.121493e+00 -2.469198e+00 -1.106991e+01 -1.525472e+00 6.408715e-01 -5.156057e-01 -7.374480e-02 7.977373e-01 -2.302856e-01 -3.059437e-01 -8.960343e-02 4.598148e-01 -4.166148e-01 -4.790164e-03 5.525289e-01 1.085475e+00 -8.887484e-01 -1.246107e-01 -5.882123e-01 -5.861046e-01 -1.914510e-01 1.398466e-01 -7.312352e-01 6.464143e-01 8.222913e-01 -1.334403e-01 4.604293e-01 3.305471e-01 1.113815e+00
<VARIANCE> 39
 4.491942e+01 4.667415e+01 1.330404e+02 9.533373e+01 1.255563e+02 1.374518e+02 1.018839e+02 1.034922e+02 9.864725e+01 8.286820e+01 4.893026e+01 5.931434e+01 5.750312e+01 5.696333e+00 3.535665e+00 1.097740e+01 5.213429e+00 8.914489e+00 8.421570e+00 7.228412e+00 7.865588e+00 9.698186e+00 7.581356e+00 5.101646e+00 4.753417e+00 4.059258e+00 4.904700e-01 5.103706e-01 1.333826e+00 9.011543e-01 1.596444e+00 1.188790e+00 9.573073e-01 1.257690e+00 1.181029e+00 1.556367e+00 9.361888e-01 7.830696e-01 5.488119e-01
<GCONST> 1.524460e+02
<MIXTURE> 8 6.916754e-02
<MEAN> 39
 6.299937e+00 -2.393355e+00 1.428897e+01 5.886950e+00 -6.779421e+00 -8.488513e+00 5.441946e+00 4.141078e+00 -7.009925e+00 -1.767262e+00 -2.959750e+00 -5.247656e+00 -4.250781e+00 9.450928e-01 9.251236e-02 7.510500e-01 1.236272e-01 3.950150e-01 -2.900117e-01 3.325540e-01 -6.253955e-01 -6.939411e-01 6.159724e-01 -2.685898e-01 -2.501504e-01 -1.347792e+00 -2.208613e-01 1.617660e-01 -3.004360e-01 1.298969e-01 6.127296e-02 -2.807415e-02 -7.139444e-02 -9.787706e-02 2.073096e-01 -2.987043e-03 1.288329e-01 1.907824e-01 1.571843e-01
<VARIANCE> 39
 2.329440e+01 4.597283e+01 6.232584e+01 4.046981e+01 4.418737e+01 6.746889e+01 6.471651e+01 1.811976e+02 8.129827e+01 4.243827e+01 4.538211e+01 4.725686e+01 3.864798e+01 7.100351e-01 1.621403e+00 2.552602e+00 3.619757e+00 3.300314e+00 3.105599e+00 3.086210e+00 4.328324e+00 2.576871e+00 2.033434e+00 2.779544e+00 2.793898e+00 8.654748e-01 1.169867e-01 2.046490e-01 2.947931e-01 6.036730e-01 5.254178e-01 5.938926e-01 6.298523e-01 8.943676e-01 4.845587e-01 3.483950e-01 5.064371e-01 6.366948e-01 1.036894e-01
<GCONST> 1.217988e+02
<MIXTURE> 9 7.523303e-02
<MEAN> 39
 -1.433986e+00 -3.772687e+00 -4.454336e+00 -2.837419e+00 -6.259565e-01 2.145390e+00 -2.879537e+00 5.308656e+00 3.297201e+00 -3.260116e-01 1.096697e+00 -3.877404e-02 9.386597e+00 -1.795692e-02 4.457555e-02 1.425537e-01 1.575811e-01 -2.389293e-01 6.193377e-02 -1.972665e-01 -2.323764e-01 3.705048e-02 -2.018807e-01 2.034276e-01 2.937386e-02 -1.857128e-01 6.582285e-02 6.698595e-02 1.779762e-01 1.200792e-01 8.764100e-03 -1.619321e-01 -9.223333e-02 3.568788e-02 -4.261516e-03 -5.317597e-02 -8.124235e-02 5.407750e-02 -1.861224e-01
<VARIANCE> 39
 7.297398e+00 3.655124e+01 5.394978e+01 8.547025e+01 1.089633e+02 1.189318e+02 5.072589e+01 7.689371e+01 3.601310e+01 2.988109e+01 3.614776e+01 3.156282e+01 1.110354e+01 1.908354e-01 7.749568e-01 1.267066e+00 9.349787e-01 1.526105e+00 1.634861e+00 1.468068e+00 1.535719e+00 1.692362e+00 1.140871e+00 1.196671e+00 1.248672e+00 4.643247e-01 4.476475e-02 9.221647e-02 1.261157e-01 1.789510e-01 2.471216e-01 3.715371e-01 3.614334e-01 3.015154e-01 3.120880e-01 2.713090e-01 2.521130e-01 2.095777e-01 4.737557e-02
<GCONST> 9.779893e+01
<MIXTURE> 10 8.839652e-02
<MEAN> 39
 -4.384735e+00 7.561590e+00 1.486015e+01 1.146479e+01 -8.008534e+00 -1.214959e+01 5.006474e+00 -8.696243e-01 -6.357260e+00 -6.052749e+00 8.714058e-01 1.799091e+00 -6.024974e+00 4.421419e-01 3.522879e-01 -5.672606e-01 2.137474e-01 1.145512e+00 -1.717507e-01 9.863352e-01 -3.842643e-01 -1.060988e-01 1.847622e-01 -6.284900e-01 1.264754e-01 -1.976395e+00 -2.062894e-01 -2.371377e-01 -3.247278e-01 -4.185644e-01 2.616862e-01 4.225939e-01 -5.474933e-01 7.335208e-02 1.338238e-01 -1.431287e-03 1.194042e-01 7.640172e-02 3.033303e-01
<VARIANCE> 39
 6.023757e+01 4.494756e+01 6.358827e+01 4.495949e+01 5.357904e+01 3.922248e+01 6.851389e+01 6.796986e+01 6.646529e+01 3.698257e+01 4.524834e+01 3.747643e+01 5.246059e+01 2.823057e+00 3.042742e+00 3.583299e+00 3.322729e+00 4.431065e+00 4.159991e+00 5.946542e+00 4.017841e+00 3.503187e+00 2.920215e+00 3.260577e+00 3.821902e+00 2.265101e+00 5.790792e-01 4.241481e-01 6.015548e-01 6.100907e-01 8.165177e-01 6.773031e-01 8.319308e-01 6.930298e-01 6.027311e-01 5.265334e-01 6.809412e-01 7.158125e-01 5.095489e-01
<GCONST> 1.331297e+02
<MIXTURE> 11 7.483941e-02
<MEAN> 39
 3.993409e+00 -2.586102e+00 -5.786332e+00 -5.721928e+00 8.493765e+00 1.841024e+00 -5.189204e+00 3.037931e+00 5.378392e+00 6.666380e-01 -1.532768e+00 6.145268e-01 -5.235641e+00 8.698468e-01 1.922055e-01 3.737516e-01 6.934274e-01 3.251542e-01 -4.095753e-01 6.449670e-01 -6.949434e-01 -3.636845e-01 -1.566949e-01 -6.565641e-01 -2.350164e-01 -2.018369e+00 -9.863848e-02 6.844087e-02 -3.386043e-02 2.314071e-01 -3.067365e-01 1.286580e-01 1.958493e-01 -8.581086e-02 -2.047686e-01 -4.514210e-02 3.872280e-02 -2.404176e-01 1.402503e-01
<VARIANCE> 39
 7.010299e+01 4.994255e+01 6.426751e+01 4.652578e+01 6.721491e+01 9.583082e+01 6.725224e+01 7.300829e+01 5.571290e+01 3.460353e+01 4.139540e+01 5.119101e+01 8.233437e+01 1.796426e+00 2.039044e+00 2.651928e+00 3.755530e+00 3.369054e+00 5.362686e+00 4.336442e+00 3.926453e+00 3.547433e+00 2.287148e+00 2.447438e+00 3.011060e+00 1.048754e+00 2.857008e-01 2.828971e-01 4.069811e-01 5.389066e-01 6.275222e-01 8.261558e-01 6.931189e-01 7.284282e-01 6.822227e-01 4.224757e-01 4.462301e-01 5.667720e-01 2.037215e-01
<GCONST> 1.286257e+02
<TRANSP> 5
 0.000000e+00 1.000000e+00 0.000000e+00 0.000000e+00 0.000000e+00
 0.000000e+00 9.838123e-01 1.618774e-02 0.000000e+00 0.000000e+00
 0.000000e+00 0.000000e+00 9.916419e-01 8.358113e-03 0.000000e+00
 0.000000e+00 0.000000e+00 0.000000e+00 9.914710e-01 8.528979e-03
 0.000000e+00 0.000000e+00 0.000000e+00 0.000000e+00 0.000000e+00
<ENDHMM>
~h "M003"
<BEGINHMM>
<NUMSTATES> 5
<STATE> 2
<NUMMIXES> 11
<MIXTURE> 1 1.089088e-01
<MEAN> 39
 -4.544925e+00 -1.202439e-03 -2.065324e+00 7.149877e+00 7.617496e+00 -2.525753e+00 5.745332e+00 4.550452e+00 -3.812914e+00 5.762901e-01 -3.003902e+00 7.123698e+00 -2.633060e+01 7.179765e-02 5.127747e-02 -3.494763e-01 -4.894522e-02 -3.951233e-01 -3.009317e-01 4.317583e-01 4.904640e-02 -1.969150e-03 4.470721e-02 5.067407e-02 -1.654368e-01 6.247645e-02 -5.933248e-02 1.465265e-01 2.495295e-01 3.589592e-03 8.066250e-02 1.930048e-01 -2.632066e-02 3.197533e-03 1.246197e-01 -1.295584e-01 -6.696798e-02 -1.276715e-01 3.135955e-01
<VARIANCE> 39
 1.932144e+01 1.205399e+01 1.556372e+01 1.772712e+01 2.280839e+01 3.307851e+01 3.550377e+01 2.403421e+01 3.213811e+01 1.667477e+01 2.261824e+01 1.739514e+01 1.370392e+01 4.880255e-01 6.237821e-01 1.399202e+00 1.925671e+00 1.754988e+00 1.561322e+00 2.627836e+00 2.231461e+00 2.214924e+00 1.731527e+00 1.200227e+00 1.323415e+00 2.111125e-01 1.763373e-01 1.768262e-01 3.784430e-01 4.110346e-01 2.836562e-01 3.223004e-01 3.644777e-01 3.648687e-01 3.473777e-01 2.592126e-01 1.858761e-01 2.042618e-01 2.342488e-01
<GCONST> 9.696146e+01
<MIXTURE> 2 1.039165e-01
<MEAN> 39
 3.688961e+00 6.312348e+00 5.869576e+00 6.281662e+00 2.744925e+00 3.252425e+00 -1.530022e-01 1.324916e+00 -1.196462e+00 4.215916e-01 -3.033905e+00 -4.499542e-01 1.860383e+00 1.448502e-04 2.841355e-02 7.718661e-02 -4.644907e-02 -9.558607e-02 -9.376120e-02 -3.057085e-02 2.615615e-02 -3.816913e-02 4.049064e-02 -1.916406e-02 7.420545e-03 2.069938e-03 -3.169532e-02 -9.978101e-02 -1.099837e-01 -1.496239e-01 -1.614285e-01 -1.909606e-01 -1.300957e-01 -7.373391e-02 1.704026e-02 3.396765e-02 6.734305e-02 3.056946e-02 -1.019390e-02
<VARIANCE> 39
 1.671978e+00 4.528072e+00 3.296747e+00 5.563100e+00 7.252021e+00 9.973205e+00 1.811919e+01 2.115230e+01 2.515704e+01 1.688510e+01 1.165240e+01 6.172731e+00 8.285324e-01 7.005849e-02 2.344321e-01 3.704901e-01 7.568291e-01 9.322189e-01 1.019455e+00 1.099022e+00 1.608717e+00 1.493432e+00 1.195047e+00 9.486507e-01 7.826188e-01 3.408687e-02 1.162107e-02 2.788816e-02 4.214572e-02 1.176893e-01 1.640525e-01 1.533097e-01 1.825184e-01 3.145163e-01 2.581376e-01 2.357282e-01 1.984481e-01 1.384726e-01 4.365372e-03
<GCONST> 5.731160e+01
<MIXTURE> 3 5.999795e-02
<MEAN> 39
 1.068974e+00 1.753577e+00 1.817859e+00 6.105335e-01 -2.529408e+00 -4.030160e+00 -4.086404e+00 -3.449807e+00 -3.333557e+00 -1.428569e+00 -1.767286e+00 -1.256059e+00 4.544308e-01 9.490770e-02 1.589735e-01 5.409703e-02 2.594624e-01 1.935305e-01 2.698424e-01 1.406963e-01 -6.989441e-03 -3.295422e-01 -2.354581e-01 -2.371594e-01 -1.858091e-01 3.647299e-02 6.967424e-02 1.095175e-01 7.572114e-02 1.321651e-01 3.476085e-01 5.050155e-01 4.714206e-01 5.784796e-01 4.490557e-01 1.489161e-01 7.746242e-02 1.386839e-01 1.784432e-02
<VARIANCE> 39
 1.755551e+00 2.607409e+00 3.403528e+00 3.469159e+00 6.142943e+00 8.732822e+00 1.145035e+01 8.070310e+00 1.273746e+01 1.264561e+01 1.623502e+01 8.223156e+00 8.285324e-01 9.669837e-02 2.700453e-01 4.110392e-01 4.898635e-01 1.032405e+00 1.066485e+00 1.275776e+00 1.563182e+00 1.325136e+00 1.052710e+00 1.406760e+00 1.267838e+00 3.408687e-02 1.482343e-02 4.499264e-02 5.671631e-02 6.893475e-02 1.235703e-01 1.791695e-01 1.420628e-01 1.773954e-01 2.185572e-01 2.160807e-01 2.809609e-01 2.189997e-01 4.365372e-03
<GCONST> 5.541132e+01
<MIXTURE> 4 8.801690e-02
<MEAN> 39
 -1.509112e+00 -1.565236e+00 -4.158547e-02 -1.389926e+00 -8.795547e-01 -1.140505e+00 2.351061e+00 2.428913e+00 2.718967e+00 -7.466630e-01 -1.245006e+00 -1.790976e+00 -9.813815e-01 2.409925e-01 3.456743e-01 3.378328e-01 3.661786e-01 1.419760e-01 1.015271e-01 -1.738628e-01 8.141074e-02 9.645844e-02 -9.309411e-02 -4.199983e-01 -2.725934e-02 1.264447e-01 9.777086e-04 -3.554416e-02 -1.070672e-01 -6.502230e-02 6.002226e-02 3.262758e-02 -1.817528e-01 -2.764698e-01 -1.885183e-01 7.896625e-02 2.777038e-01 3.567983e-01 1.258884e-02
<VARIANCE> 39
 8.060955e-01 2.054194e+00 4.674378e+00 3.868366e+00 5.438829e+00 7.783475e+00 8.560811e+00 6.634876e+00 8.819061e+00 1.147787e+01 9.309429e+00 8.359949e+00 8.285324e-01 7.226476e-02 1.485173e-01 2.767032e-01 3.246484e-01 6.367010e-01 3.625492e-01 8.878273e-01 7.157953e-01 8.940503e-01 9.143602e-01 1.253936e+00 1.329185e+00 3.408687e-02 2.210152e-02 4.995877e-02 8.068386e-02 6.551042e-02 1.344032e-01 1.936430e-01 2.132236e-01 1.311581e-01 2.199896e-01 2.535436e-01 2.054936e-01 1.512710e-01 7.566124e-03
<GCONST> 4.919374e+01
<MIXTURE> 5 8.938711e-02
<MEAN> 39
 -1.060366e+00 -4.287065e+00 -9.141444e+00 -2.528725e+00 2.523153e+00 6.630279e+00 -9.476061e-01 -3.421559e+00 -3.986327e+00 2.966524e+00 4.128245e+00 1.461426e+00 6.128739e-01 -2.231982e-02 -9.427116e-03 9.535643e-02 1.077198e-01 1.009332e-01 -1.302476e-02 -6.770391e-02 -1.148546e-01 -1.949131e-02 9.405374e-02 1.044552e-01 -1.377943e-02 -1.958348e-02 -1.550625e-06 1.700122e-02 6.541395e-02 2.917974e-02 1.471270e-02 -4.252515e-02 -1.280998e-03 5.393834e-03 2.429578e-02 -1.123301e-02 2.230810e-03 -1.487500e-03 -7.211772e-03
<VARIANCE> 39
 1.402550e+00 3.243716e+00 1.026965e+01 1.174267e+01 2.723558e+01 2.868071e+01 1.053593e+01 3.376547e+01 3.125808e+01 1.622269e+01 2.615639e+01 1.155807e+01 8.285324e-01 1.242059e-01 2.707833e-01 1.402707e+00 4.528527e-01 8.562147e-01 1.963886e+00 1.124899e+00 1.086087e+00 1.378223e+00 1.645305e+00 1.645402e+00 1.367914e+00 6.595496e-02 2.638269e-02 5.575372e-02 2.708838e-01 8.513760e-02 1.892285e-01 3.903628e-01 2.353967e-01 2.155779e-01 2.801681e-01 3.124485e-01 3.428382e-01 2.887011e-01 1.332881e-02
<GCONST> 7.311263e+01
<MIXTURE> 6 4.963002e-02
<MEAN> 39
 -1.298337e-03 -2.982496e-01 -6.295935e-01 -2.717757e+00 -3.540532e+00 -3.350065e+00 -1.333390e+00 5.351628e-01 5.197744e-01 3.653983e-01 1.364514e+00 1.263373e+00 -6.365070e-02 6.753018e-03 -9.756667e-02 -8.960114e-02 -1.230447e-01 -3.717452e-02 2.807455e-01 3.755009e-01 6.293951e-01 6.341192e-01 5.244207e-01 4.594742e-01 2.607835e-01 1.914743e-02 7.507442e-02 2.193156e-01 2.954225e-01 4.732540e-01 4.184209e-01 2.273535e-01 1.124097e-01 -1.333522e-01 -1.423731e-01 -1.669582e-01 -3.510115e-01 -2.403309e-01 2.599339e-02
<VARIANCE> 39
 9.476353e-01 1.584775e+00 3.260285e+00 3.401097e+00 5.742711e+00 5.390747e+00 5.276635e+00 7.519026e+00 9.555808e+00 9.696581e+00 9.154158e+00 7.826619e+00 8.285324e-01 1.041331e-01 2.828924e-01 5.601897e-01 8.697718e-01 8.714567e-01 5.926421e-01 8.894913e-01 5.420138e-01 6.693690e-01 8.313094e-01 1.049120e+00 1.375551e+00 3.408687e-02 2.891326e-02 6.388546e-02 6.029294e-02 7.595597e-02 6.765340e-02 1.196253e-01 2.240337e-01 1.894317e-01 2.031069e-01 1.908722e-01 1.344170e-01 2.600381e-01 7.582917e-03
<GCONST> 4.984090e+01
<MIXTURE> 7 1.220349e-01
<MEAN> 39
 1.746627e+00 2.405694e+00 2.140376e+00 1.524626e+00 1.661710e-01 1.905896e-01 1.186377e-01 1.647501e+00 1.640780e+00 1.538486e+00 3.292465e-01 1.983875e-01 7.396937e-01 9.791652e-05 2.214010e-02 3.104921e-02 1.083135e-01 1.436077e-01 2.288646e-02 -9.686147e-02 -1.397840e-01 2.104301e-01 1.307054e-01 2.116988e-02 -3.152756e-02 -1.474565e-02 -6.211324e-02 -3.179935e-02 3.490510e-03 -3.416510e-02 -7.548477e-02 -1.423559e-01 -1.136724e-01 -2.766767e-01 -3.645799e-01 -2.568323e-01 -1.506265e-01 -8.944426e-02 -2.981032e-02
<VARIANCE> 39
 8.530337e-01 1.494795e+00 3.097681e+00 4.673918e+00 4.499681e+00 5.266723e+00 6.701544e+00 1.005393e+01 8.988757e+00 9.127048e+00 7.464308e+00 8.744370e+00 8.285324e-01 1.161098e-01 3.279364e-01 4.253604e-01 6.641544e-01 7.842911e-01 1.149214e+00 1.027746e+00 1.336852e+00 1.124422e+00 1.281786e+00 1.018826e+00 9.604530e-01 3.408687e-02 1.267461e-02 3.673995e-02 6.066357e-02 6.647626e-02 6.911179e-02 1.046555e-01 2.141624e-01 2.481634e-01 2.039554e-01 1.775164e-01 1.726930e-01 2.268003e-01 4.365372e-03
<GCONST> 4.997112e+01
<MIXTURE> 8 7.115659e-02
<MEAN> 39
 -1.069137e+00 -1.158525e+00 1.420516e-01 -5.238158e-01 6.563025e-01 -4.133645e-01 1.128051e+00 5.906576e-01 2.105592e+00 1.778890e+00 3.313419e+00 2.411116e+00 -7.065536e-01 -4.810365e-02 -3.682398e-02 1.123855e-01 1.826725e-01 2.327367e-01 2.289049e-02 3.777908e-01 4.953305e-01 -8.915671e-03 -1.062811e-02 3.771830e-01 1.081271e-01 -8.755163e-03 -4.128382e-02 -8.275693e-02 -1.220035e-01 -1.401392e-01 -2.158807e-01 -1.562160e-01 1.573691e-02 1.036131e-01 -3.473399e-03 -3.310011e-01 -4.641860e-01 -3.649521e-01 -2.005749e-02
<VARIANCE> 39
 7.302016e-01 1.636639e+00 3.120228e+00 2.290419e+00 4.337082e+00 4.777552e+00 7.076813e+00 1.048475e+01 9.728563e+00 7.757506e+00 4.946213e+00 5.983504e+00 8.285324e-01 6.849039e-02 2.345642e-01 5.608844e-01 5.071310e-01 6.143752e-01 6.582904e-01 9.423556e-01 9.491143e-01 1.212734e+00 1.288355e+00 1.098163e+00 9.489101e-01 3.408687e-02 1.960354e-02 2.561399e-02 7.286955e-02 8.211619e-02 1.343005e-01 1.095779e-01 1.925745e-01 1.942425e-01 1.993876e-01 2.093151e-01 1.504675e-01 1.554505e-01 7.030875e-03
<GCONST> 4.727723e+01
<MIXTURE> 9 1.203856e-01
<MEAN> 39
 1.708483e-02 7.104895e-01 1.656332e+00 6.519443e-01 -4.975592e-01 -2.073621e+00 -8.939565e-01 -1.218696e+00 -1.433627e+00 -3.069161e+00 -2.128069e+00 -6.662456e-01 -2.121956e-01 -7.113324e-02 -1.623390e-01 -2.267395e-01 -2.902833e-01 -1.985446e-01 -1.567110e-01 4.751033e-03 6.709571e-02 -3.428753e-02 -5.471276e-02 1.540870e-01 2.328671e-01 -3.567218e-02 -5.755197e-02 -1.597681e-01 -2.066447e-01 -2.035580e-01 -7.953113e-02 8.743171e-02 1.431314e-01 1.885770e-01 2.988701e-01 3.920609e-01 3.151227e-01 8.301424e-02 -2.039696e-02
<VARIANCE> 39
 1.874945e+00 3.911992e+00 3.012168e+00 2.609776e+00 5.832671e+00 5.221688e+00 6.684689e+00 6.548283e+00 8.156458e+00 7.071064e+00 7.602256e+00 6.066581e+00 8.285324e-01 1.162813e-01 2.826946e-01 4.051274e-01 4.762591e-01 5.119176e-01 9.372902e-01 1.141887e+00 1.300183e+00 1.256950e+00 1.335939e+00 1.284439e+00 8.000361e-01 3.408687e-02 1.921051e-02 3.940628e-02 6.665633e-02 7.861425e-02 1.057629e-01 1.083075e-01 1.759455e-01 2.039274e-01 1.815597e-01 1.555752e-01 1.972011e-01 1.881818e-01 5.167387e-03
<GCONST> 5.003157e+01
<MIXTURE> 10 1.067240e-01
<MEAN> 39
 -2.122934e+00 -2.986029e+00 -2.331979e+00 -3.139211e+00 -1.694639e+00 -2.121200e+00 -1.857712e-01 -8.692973e-01 7.029386e-01 -9.643912e-01 1.101653e-02 -3.400846e-01 -1.202186e+00 3.418994e-02 5.810382e-02 -1.196289e-02 -9.107301e-02 -6.754147e-02 9.308458e-03 -2.344330e-02 -1.349949e-01 -9.232991e-02 -1.287946e-01 -1.085369e-01 -1.001001e-01 1.356711e-02 9.216563e-02 1.432337e-01 2.301980e-01 2.503499e-01 1.690318e-01 1.619510e-01 1.518964e-01 2.369909e-01 1.201436e-01 3.435765e-02 3.677047e-02 2.684071e-02 4.894338e-02
<VARIANCE> 39
 7.302016e-01 1.377425e+00 4.669864e+00 3.490015e+00 5.243619e+00 4.931892e+00 6.550231e+00 7.816555e+00 7.206891e+00 8.326159e+00 7.686182e+00 5.611412e+00 8.285324e-01 1.015227e-01 2.229309e-01 3.986805e-01 3.684286e-01 6.467001e-01 8.941954e-01 1.085513e+00 1.190971e+00 9.205978e-01 1.239361e+00 1.172243e+00 1.009105e+00 5.007078e-02 1.766865e-02 3.906623e-02 7.484854e-02 6.015742e-02 9.745073e-02 1.248421e-01 1.581766e-01 1.929848e-01 1.569729e-01 1.572720e-01 2.111834e-01 1.614651e-01 6.535227e-03
<GCONST> 4.795090e+01
<MIXTURE> 11 7.984069e-02
<MEAN> 39
 -1.644856e+00 -2.527874e+00 -1.113595e+00 -1.231897e+00 7.990330e-01 6.685705e-01 2.782938e+00 1.531353e+00 1.911065e+00 -3.118650e-01 8.805704e-01 1.576034e-01 -8.980649e-01 -2.116241e-01 -3.132589e-01 -3.922514e-01 -4.022995e-01 -3.194165e-01 -2.040730e-01 -1.615783e-01 -4.785115e-01 -2.630060e-01 -5.332932e-02 -1.606941e-01 -2.474505e-01 -8.883292e-02 4.164432e-02 1.232280e-01 7.391997e-02 1.614354e-02 -1.669011e-01 -2.214881e-01 -2.846255e-01 -2.319654e-01 -1.485474e-01 -6.615843e-02 -1.044209e-01 -1.096165e-01 1.124618e-02
<VARIANCE> 39
 9.508156e-01 1.704633e+00 2.438019e+00 3.588650e+00 5.559424e+00 5.177222e+00 6.084761e+00 8.036144e+00 5.793696e+00 8.557343e+00 9.939573e+00 7.430243e+00 8.285324e-01 6.808702e-02 1.446747e-01 6.124247e-01 5.464376e-01 7.747657e-01 8.447684e-01 1.052357e+00 1.070069e+00 1.080743e+00 9.966500e-01 7.750353e-01 8.852735e-01 3.408687e-02 2.318702e-02 4.928579e-02 7.850055e-02 1.008934e-01 9.916386e-02 1.259697e-01 2.238462e-01 1.863287e-01 1.322813e-01 2.424610e-01 2.377323e-01 2.191260e-01 7.565851e-03
<GCONST> 4.944393e+01
<STATE> 3
<NUMMIXES> 11
<MIXTURE> 1 7.919284e-02
<MEAN> 39
 -1.967577e+00 4.295082e+00 2.563286e-01 6.215682e+00 8.392547e+00 -1.902574e-01 5.815114e+00 2.815703e+00 -4.131098e+00 5.160499e-01 -3.291687e+00 4.071496e+00 -2.003842e+01 -1.441763e-01 7.428374e-01 1.366820e+00 1.176823e-01 -6.156638e-01 8.118687e-01 -6.055657e-01 -5.168105e-01 4.213305e-01 -3.630323e-01 6.630678e-01 -6.523291e-01 2.972141e+00 1.205094e-01 -2.349268e-01 3.053432e-01 -4.758475e-01 -9.128015e-01 2.809522e-01 -6.312023e-01 -7.070586e-01 1.436927e-01 6.712461e-02 5.597032e-01 -1.348621e-01 1.300000e+00
<VARIANCE> 39
 5.853699e+01 3.925097e+01 1.134724e+02 5.459991e+01 3.203121e+01 5.457511e+01 4.597283e+01 3.575024e+01 3.208686e+01 2.020114e+01 2.173927e+01 2.250077e+01 4.303146e+01 1.055766e+01 6.101850e+00 1.092932e+01 9.489256e+00 6.671369e+00 6.285198e+00 7.134360e+00 9.233220e+00 4.410408e+00 3.737902e+00 3.313583e+00 3.650720e+00 6.611187e+00 8.033792e-01 7.103559e-01 1.321465e+00 1.183289e+00 9.311535e-01 1.194391e+00 7.405320e-01 8.964104e-01 6.086730e-01 6.553918e-01 5.494480e-01 7.424251e-01 5.300455e-01
<GCONST> 1.404953e+02
<MIXTURE> 2 7.723622e-02
<MEAN> 39
 1.669543e+00 -4.144598e-01 -1.185271e+01 -9.575684e+00 -4.615996e-01 1.236813e+01 1.411189e+00 -6.717854e-01 4.336240e+00 -2.946527e+00 4.874839e+00 -4.562617e+00 9.605970e+00 1.302993e-01 -4.786538e-02 -1.441954e-01 5.099888e-01 4.805956e-01 -6.282907e-01 3.665669e-01 -2.429974e-01 -1.528005e-01 3.475444e-01 -4.444526e-01 7.631288e-02 -2.067396e-01 1.535226e-01 5.435742e-02 3.463686e-01 3.114434e-01 1.782775e-01 -1.673257e-01 -9.054326e-02 -4.207246e-02 -2.458328e-01 6.794593e-02 -2.135752e-01 3.901245e-01 -5.756582e-01
<VARIANCE> 39
 1.302835e+01 2.533250e+01 2.417763e+01 2.749772e+01 3.705247e+01 8.677853e+01 6.593704e+01 5.111666e+01 3.294510e+01 2.637042e+01 5.648400e+01 1.625454e+01 1.334196e+01 1.333301e+00 1.369131e+00 1.864810e+00 1.616098e+00 1.845777e+00 1.592723e+00 3.469670e+00 1.779431e+00 2.085941e+00 2.259923e+00 3.123090e+00 1.463642e+00 2.326380e+00 1.447268e-01 1.985914e-01 2.066561e-01 2.294332e-01 3.921051e-01 3.184597e-01 4.469578e-01 4.182928e-01 3.032289e-01 2.874874e-01 3.782844e-01 2.566093e-01 2.034246e-01
<GCONST> 1.081529e+02
<MIXTURE> 3 9.217644e-02
<MEAN> 39
 -1.368289e+01 5.323184e+00 8.911232e+00 2.430243e-01 -8.039979e-01 -4.990636e+00 -1.821366e+00 3.513136e+00 -5.407761e+00 1.146721e+00 -8.887253e-01 3.116210e+00 1.062373e-01 6.505740e-02 3.229171e-01 2.933610e-01 1.578233e-01 -4.702630e-02 4.207363e-01 2.311258e-01 -1.649955e-01 -2.540529e-01 9.291337e-02 -1.715878e-01 1.616906e-01 -1.041801e+00 3.768746e-01 -1.265286e-01 7.652056e-03 8.493310e-02 -1.316850e-01 1.073796e-01 -2.182993e-02 -2.610491e-01 -2.068781e-02 -1.156805e-01 1.511640e-01 -1.593021e-01 -2.124062e-02
<VARIANCE> 39
 3.954625e+01 7.470538e+01 1.589342e+02 2.956481e+01 8.128811e+01 3.935471e+01 2.581201e+01 4.513450e+01 4.140855e+01 2.724343e+01 3.575538e+01 3.098710e+01 3.697395e+01 3.663140e+00 2.671867e+00 2.087326e+00 2.174605e+00 3.641549e+00 2.462972e+00 2.530437e+00 3.392426e+00 2.793997e+00 2.189648e+00 2.727019e+00 2.577072e+00 1.260729e+00 2.729354e-01 3.876372e-01 2.531929e-01 3.783292e-01 6.383161e-01 4.149831e-01 5.742242e-01 6.560726e-01 6.137176e-01 4.801007e-01 5.304604e-01 5.898048e-01 1.609531e-01
<GCONST> 1.219264e+02
<MIXTURE> 4 8.394682e-02
<MEAN> 39
 5.004983e+00 6.093413e-01 -3.122941e+00 -6.943843e+00 -5.675844e+00 1.376773e+01 -8.375427e+00 -5.642371e+00 1.109982e+00 -3.336152e+00 7.584307e+00 -1.343770e-01 5.080031e+00 3.278034e-01 -8.366373e-01 -1.219219e+00 -1.155849e+00 -2.797191e-01 1.109918e+00 3.933581e-01 7.596747e-02 1.168221e+00 -3.191909e-01 1.371034e-01 -1.108715e+00 1.414646e+00 -3.942179e-01 1.038472e-01 9.325290e-02 6.884921e-01 5.803062e-01 -9.059321e-01 8.282055e-01 2.557312e-01 -1.613918e-01 2.889920e-01 -6.880583e-01 3.087256e-01 -6.343225e-01
<VARIANCE> 39
 1.329310e+01 2.879764e+01 5.636331e+01 5.740378e+01 5.361451e+01 6.262304e+01 1.004551e+02 1.004664e+02 6.046112e+01 3.733437e+01 6.188070e+01 2.659525e+01 1.635091e+01 2.573137e+00 3.507578e+00 3.228235e+00 5.713269e+00 4.628457e+00 6.954442e+00 5.552120e+00 4.927666e+00 5.859846e+00 5.397583e+00 4.953374e+00 2.865518e+00 4.991470e+00 4.629857e-01 5.509260e-01 7.093773e-01 1.116826e+00 5.410560e-01 1.059654e+00 7.161795e-01 1.061758e+00 1.172805e+00 7.625780e-01 7.484789e-01 4.525680e-01 5.955985e-01
<GCONST> 1.364356e+02
<MIXTURE> 5 9.967744e-02
<MEAN> 39
 4.967830e+00 1.175845e+00 2.846224e+00 5.127677e+00 -3.600264e+00 2.601722e+00 -6.057914e+00 -1.399372e+01 -4.337284e+00 -1.779162e+00 4.591178e+00 -4.536747e+00 2.566336e+00 1.574693e-01 9.555840e-02 -3.588187e-01 5.388572e-01 1.226017e-01 -9.080809e-02 -1.106814e-01 -4.179751e-01 3.504980e-01 2.518304e-01 -3.677819e-01 -1.193083e-02 -1.868792e-01 -2.026716e-01 -6.948764e-02 2.329673e-01 -2.251141e-01 -2.215498e-01 1.031190e-01 -4.373036e-02 5.475968e-01 -6.013433e-02 2.741757e-02 3.467298e-02 7.865942e-02 1.427849e-01
<VARIANCE> 39
 5.727023e+00 1.577015e+01 4.426875e+01 7.445666e+01 4.132079e+01 6.302562e+01 1.739934e+02 8.766450e+01 2.922180e+01 4.557817e+01 5.322223e+01 4.379039e+01 5.846609e+00 7.420405e-01 7.975962e-01 4.283902e+00 3.141404e+00 3.765756e+00 4.580684e+00 4.237015e+00 9.402783e+00 2.587306e+00 3.259278e+00 3.710511e+00 3.122242e+00 5.013004e-01 9.651364e-02 9.193564e-02 2.994640e-01 6.015307e-01 5.218496e-01 8.866496e-01 7.460564e-01 1.316275e+00 5.991920e-01 6.965564e-01 6.404757e-01 6.226093e-01 7.589719e-02
<GCONST> 1.193924e+02
<MIXTURE> 6 1.086775e-01
<MEAN> 39
 -2.667821e+00 2.190442e+00 4.975692e+00 1.921955e+00 -1.277343e+00 5.924231e-01 -9.514019e-01 -1.238802e+00 -2.726518e+00 7.831922e-01 3.321211e-01 1.580285e+00 -1.755529e+00 3.958821e-01 -1.777766e-01 4.740034e-01 -2.045240e+00 -1.869515e+00 1.574015e+00 -2.082475e+00 3.566790e-02 -2.998396e-01 -7.046006e-01 1.416418e+00 -5.576035e-01 3.442383e+00 4.733172e-01 -1.799182e-02 -1.561658e-01 -1.096091e-01 -3.478527e-01 2.764128e-01 9.855178e-02 -8.166997e-02 -1.020388e-01 -1.588907e-01 2.425247e-01 -2.131571e-01 -4.101775e-01
<VARIANCE> 39
 4.887536e+01 6.864495e+01 1.020649e+02 9.199186e+01 5.435279e+01 7.603307e+01 1.006365e+02 1.297278e+02 6.662325e+01 4.814440e+01 5.204757e+01 7.317062e+01 4.488235e+01 7.334528e+00 7.459460e+00 1.393567e+01 9.076459e+00 6.900886e+00 8.990308e+00 6.612792e+00 2.081082e+01 7.937912e+00 4.111773e+00 5.359074e+00 5.153619e+00 7.052028e+00 1.253785e+00 1.316333e+00 1.336755e+00 1.534895e+00 1.022341e+00 1.342689e+00 1.477491e+00 2.518018e+00 1.297236e+00 9.158520e-01 8.814566e-01 9.274650e-01 6.750313e-01
<GCONST> 1.559486e+02
<MIXTURE> 7 9.478039e-02
<MEAN> 39
 -1.892798e+00 3.233186e+00 1.403062e+01 4.790667e-01 -1.657964e+01 3.604966e+00 -7.732626e+00 -4.308395e+00 -7.596717e+00 -2.949010e+00 5.978138e+00 -1.144815e+00 5.851916e+00 -1.612084e-01 2.278309e-01 9.249794e-02 -5.081589e-01 8.144779e-02 -1.082479e-01 3.917431e-01 -2.727726e-01 9.984919e-02 2.318896e-01 -6.123695e-01 -1.943509e-01 -5.833106e-02 6.100005e-02 -7.303320e-02 -1.376348e-01 1.062736e-01 2.530136e-01 -1.490241e-01 -1.313795e-01 5.676081e-02 6.362915e-03 -6.046168e-02 -1.561254e-05 7.706040e-02 -6.099509e-02
<VARIANCE> 39
 2.293331e+01 2.827125e+01 1.049275e+02 5.044931e+01 1.836489e+01 7.043060e+01 4.514592e+01 6.512008e+01 2.607904e+01 3.268727e+01 2.580336e+01 3.308217e+01 8.725617e+00 2.601765e-01 6.324621e-01 1.142044e+00 1.193886e+00 9.614784e-01 1.884413e+00 1.395057e+00 1.665785e+00 1.435828e+00 1.604559e+00 1.251323e+00 1.252199e+00 1.209796e-01 4.167625e-02 1.041916e-01 1.601993e-01 1.713631e-01 1.726024e-01 2.974555e-01 3.125929e-01 2.638586e-01 2.824672e-01 2.841877e-01 2.143942e-01 2.274362e-01 2.650972e-02
<GCONST> 9.298306e+01
<MIXTURE> 8 7.585172e-02
<MEAN> 39
 5.006374e+00 6.883759e+00 1.649091e+01 8.509619e+00 -5.512452e+00 -1.343135e+00 4.860471e-01 -6.835468e+00 -7.868241e+00 4.718650e+00 1.525515e+00 1.677760e-01 -1.254071e+01 2.930225e-01 -2.418675e-02 -3.692355e-01 -2.423570e-01 2.810959e-01 -4.020489e-01 5.639904e-01 -3.214304e-01 -6.343322e-02 6.395612e-01 3.683689e-01 3.727391e-01 -2.617250e-01 -5.844603e-01 -1.882440e-01 -6.700194e-01 -3.652720e-01 3.761028e-01 7.978826e-02 -1.487076e-01 7.458139e-01 8.782855e-02 -4.073777e-01 2.343766e-02 7.260513e-02 5.372774e-01
<VARIANCE> 39
 3.260182e+01 4.458593e+01 4.887614e+01 4.977321e+01 5.475605e+01 5.445947e+01 5.431391e+01 8.354968e+01 3.188533e+01 4.537711e+01 3.223819e+01 3.595177e+01 4.599823e+01 3.084544e+00 2.421556e+00 4.830517e+00 5.502038e+00 7.591219e+00 6.292752e+00 3.468496e+00 7.410836e+00 2.484776e+00 4.626688e+00 3.157983e+00 3.938972e+00 5.489610e+00 3.137051e-01 5.679160e-01 8.866257e-01 1.154331e+00 1.037540e+00 1.328699e+00 7.330062e-01 1.487943e+00 6.236534e-01 9.241102e-01 5.626873e-01 7.875088e-01 6.706282e-01
<GCONST> 1.373485e+02
<MIXTURE> 9 9.305627e-02
<MEAN> 39
 -2.100298e+00 -5.263017e-01 1.678009e+01 1.715539e+00 -1.500019e+01 1.850650e-02 -4.376594e+00 5.156075e-01 -9.177293e+00 -3.247900e+00 8.406587e+00 -3.081309e+00 6.512202e+00 1.328727e-01 -5.932005e-02 -3.902112e-01 3.791386e-01 -1.426524e-01 -3.095881e-01 2.656655e-01 -1.876993e-01 -9.970060e-02 -4.565961e-01 4.752688e-01 2.190839e-01 4.334249e-02 1.855471e-01 2.078519e-01 -4.396492e-01 1.107721e-01 7.485617e-01 3.293391e-02 2.386030e-01 -5.016869e-01 4.229674e-01 4.145205e-01 -5.337113e-01 -4.309480e-02 -4.950441e-01
<VARIANCE> 39
 8.393867e+00 2.380551e+01 3.597979e+01 5.567388e+01 2.359769e+01 6.416275e+01 6.206724e+01 8.176171e+01 3.059044e+01 3.037589e+01 2.870519e+01 2.676823e+01 1.240193e+01 1.459971e+00 2.125234e+00 3.695772e+00 2.550822e+00 6.794859e+00 4.718091e+00 4.548884e+00 6.087565e+00 4.186648e+00 2.723064e+00 4.107587e+00 2.233893e+00 1.904454e+00 1.912869e-01 2.995406e-01 5.703784e-01 4.521008e-01 6.044427e-01 9.629457e-01 5.460452e-01 1.342711e+00 6.330825e-01 5.415969e-01 5.515416e-01 5.423179e-01 1.074270e-01
<GCONST> 1.223126e+02
<MIXTURE> 10 1.141835e-01
<MEAN> 39
 7.782242e+00 2.710169e+00 -5.625836e+00 -1.694631e+00 2.629719e+00 2.780386e+00 8.447078e-01 -3.909198e+00 -2.405987e+00 1.258520e+00 -8.849950e-01 1.251862e+00 -9.585703e+00 1.497686e-01 -1.119804e-01 1.105958e-01 3.664297e-01 5.757076e-01 -4.946769e-01 3.546647e-01 3.525133e-01 -4.596904e-01 1.956218e-01 -5.431366e-01 5.152954e-01 -1.490093e+00 -3.326225e-01 -3.474020e-02 6.319170e-04 -9.609792e-02 -1.346027e-01 1.367643e-01 1.001898e-02 1.188042e-01 6.160004e-02 -5.550496e-02 1.150270e-01 -9.729948e-02 4.090772e-01
<VARIANCE> 39
 1.439290e+01 4.121257e+01 9.600173e+01 5.044732e+01 3.211932e+01 1.041541e+02 1.119926e+02 5.755123e+01 5.035663e+01 3.549618e+01 4.397477e+01 3.208154e+01 6.513985e+01 1.451978e+00 1.090564e+00 2.409560e+00 2.276330e+00 2.837430e+00 4.380495e+00 4.442293e+00 3.480808e+00 3.016441e+00 2.989976e+00 2.780005e+00 2.010535e+00 2.719400e+00 2.404791e-01 2.293971e-01 5.138725e-01 4.488752e-01 6.146315e-01 5.944461e-01 8.446492e-01 6.116612e-01 5.233989e-01 5.334841e-01 5.472921e-01 4.006678e-01 2.533540e-01
<GCONST> 1.244945e+02
<MIXTURE> 11 8.121596e-02
<MEAN> 39
 5.075475e-01 -4.450784e+00 -1.252465e+01 -6.406370e+00 2.552301e+00 7.935198e+00 4.856811e+00 -2.208475e+00 4.318221e+00 -3.524682e+00 -2.394956e+00 -1.713906e+00 1.139180e+01 4.986117e-02 2.440784e-02 -3.065516e-01 2.349911e-01 4.368404e-01 -6.547406e-01 -3.026436e-01 7.753094e-02 -2.582707e-01 5.325210e-02 -2.020311e-01 -1.630054e-01 -2.246055e-02 6.428146e-02 1.925182e-01 1.530634e-01 -4.722903e-02 -9.984993e-02 -1.325289e-01 -2.913471e-01 2.079990e-02 -1.409937e-01 8.933674e-02 1.813288e-01 -1.350277e-01 -1.483948e-01
<VARIANCE> 39
 1.587393e+01 1.653209e+01 3.372052e+01 2.647942e+01 5.554314e+01 1.026594e+02 3.009472e+01 4.673570e+01 1.923809e+01 2.947474e+01 3.717612e+01 1.751829e+01 1.134358e+01 2.986268e-01 5.785496e-01 7.177181e-01 6.398383e-01 1.330101e+00 1.595201e+00 1.741433e+00 1.521823e+00 1.546486e+00 1.328171e+00 1.477403e+00 1.278450e+00 2.257424e-01 5.281682e-02 7.814989e-02 1.099512e-01 1.163384e-01 1.816224e-01 2.253313e-01 2.488562e-01 2.921997e-01 3.234399e-01 1.993084e-01 2.806816e-01 1.734130e-01 5.011166e-02
<GCONST> 8.982334e+01
<STATE> 4
<NUMMIXES> 11
<MIXTURE> 1 8.639374e-02
<MEAN> 39
 4.912094e+00 1.999813e+00 -3.589568e-01 6.101593e+00 5.149563e+00 -4.094462e+00 2.728822e+00 1.102026e-02 -7.666932e-01 1.971581e+00 -3.600280e+00 1.427661e+00 -1.197609e+01 -2.316074e+00 -2.913896e-01 8.370597e-01 -1.485517e+00 -3.513143e-01 5.759990e-01 -1.163240e+00 2.019849e+00 -1.108577e-01 -3.030187e-01 8.287142e-01 7.109606e-01 1.555361e+00 -7.760932e-01 -2.208413e-01 2.474959e-01 -7.742261e-01 -5.353746e-01 3.763996e-01 -3.949218e-01 2.382400e-01 9.338298e-02 -1.406819e-01 5.408706e-01 -7.013118e-02 1.380884e+00
<VARIANCE> 39
 4.568263e+01 7.193965e+01 1.505890e+02 6.721908e+01 1.066783e+02 9.071004e+01 1.130628e+02 1.413644e+02 8.270822e+01 5.821943e+01 6.519481e+01 4.544833e+01 5.202855e+01 6.485518e+00 6.370853e+00 1.114796e+01 7.738771e+00 1.200336e+01 8.980789e+00 9.494216e+00 1.409072e+01 7.184561e+00 6.159143e+00 5.447724e+00 3.943618e+00 6.546086e+00 8.082836e-01 9.159820e-01 1.562218e+00 1.197081e+00 1.576926e+00 1.394670e+00 1.513798e+00 1.936832e+00 1.358741e+00 1.030185e+00 1.096553e+00 7.570452e-01 7.228090e-01
<GCONST> 1.567854e+02
<MIXTURE> 2 7.686041e-02
<MEAN> 39
