~o
<STREAMINFO> 1 39
<VECSIZE> 39<NULLD><MFCC_D_A_Z_0><DIAGC>
~h "M001"
<BEGINHMM>
<NUMSTATES> 5
<STATE> 2
<NUMMIXES> 24
<MIXTURE> 1 4.098155e-02
<MEAN> 39
 -2.616747e+01 -9.916419e-01 -7.271169e-01 -9.340485e-01 1.163899e+01 6.255608e+00 4.755753e+00 8.500450e+00 5.054429e+00 9.400777e-01 5.327039e+00 1.184543e+01 -2.942562e+00 -7.307796e-01 1.657818e-01 5.861648e-01 -1.565189e-01 5.644143e-01 -1.922475e-01 -1.123075e-01 1.160904e+00 7.753525e-01 6.646091e-01 -1.103540e-01 -1.055662e-01 7.850494e-01 6.470410e-01 -4.261484e-01 -1.626940e-01 6.415033e-02 -7.317135e-01 -2.272397e-01 -1.014809e-01 2.354935e-01 -2.958182e-02 -1.816381e-01 -8.448900e-02 -2.330161e-01 -3.303474e-01
<VARIANCE> 39
 1.918349e+01 3.204748e+01 1.490296e+01 3.778354e+01 2.498191e+01 1.852938e+01 2.611119e+01 2.106718e+01 1.666726e+01 2.092376e+01 1.133008e+01 2.185162e+01 1.839422e+01 2.335660e+00 2.079108e+00 1.888896e+00 5.731113e+00 3.801630e+00 3.889944e+00 3.349779e+00 2.805981e+00 1.308354e+00 1.858582e+00 1.629753e+00 2.026801e+00 2.790073e+00 1.440406e-01 5.799059e-01 5.376312e-01 1.436260e+00 5.547718e-01 7.117053e-01 4.418099e-01 9.068132e-01 2.904187e-01 4.559523e-01 3.620962e-01 6.252390e-01 1.178898e-01
<GCONST> 1.129334e+02
<MIXTURE> 2 4.091736e-02
<MEAN> 39
 -1.550865e+00 2.919350e+00 -1.433393e+01 -1.521231e+01 8.331498e+00 5.621383e+00 8.184635e+00 -4.585559e+00 -4.020700e-01 3.414944e+00 2.746968e+00 -2.054294e+00 1.231660e+01 1.290280e+00 5.183867e-01 1.215403e+00 7.379358e-01 -1.051444e+00 -1.768005e-01 -4.024262e-01 1.304101e+00 -5.476733e-01 -5.564469e-01 8.855391e-02 1.249471e+00 -1.923524e+00 4.945553e-01 1.670516e-01 1.912169e-01 1.459796e-01 -1.306628e-02 2.847859e-01 3.757098e-02 -1.438105e-01 1.824576e-01 1.914463e-01 -2.734091e-01 -9.865616e-02 -1.034314e+00
<VARIANCE> 39
 9.434072e+00 6.173788e+00 1.192630e+01 2.346354e+01 3.063206e+01 9.994927e+00 4.019818e+01 1.353649e+01 3.896748e+00 1.449760e+01 2.721317e+01 1.335450e+01 5.429082e+00 1.309225e+00 6.069981e-01 8.527173e-01 1.542001e+00 1.783517e+00 1.551559e+00 1.413461e+00 8.913559e-01 1.085902e+00 6.560788e-01 1.786756e+00 6.967790e-01 2.807303e+00 1.273281e-01 1.919296e-01 2.552283e-01 3.694640e-01 9.126441e-01 3.515909e-01 3.972680e-01 2.065010e-01 2.698888e-01 2.469336e-01 2.543744e-01 2.705594e-01 8.913265e-02
<GCONST> 8.971352e+01
<MIXTURE> 3 3.527656e-02
<MEAN> 39
 -5.155138e+00 -6.142757e+00 6.462052e-01 2.268435e+00 3.220646e+00 7.662265e+00 2.685559e+00 7.057790e+00 6.845250e-01 1.227533e+00 3.409150e+00 8.841818e+00 -2.080723e+01 -3.786483e-01 1.498532e+00 -2.372552e+00 6.785347e-01 4.438346e-01 -1.382418e+00 7.678173e-01 1.258455e-01 -2.335075e-01 8.494184e-01 -4.919990e-01 7.876019e-01 8.317717e-02 -3.391850e-01 6.648169e-01 -3.147439e-01 3.100345e-01 -4.925963e-01 -3.886994e-01 -9.784816e-02 -6.029651e-01 4.092073e-01 -4.677407e-01 -3.655333e-01 2.486307e-01 5.930641e-01
<VARIANCE> 39
 7.126606e+00 1.034854e+01 4.388443e+01 1.392988e+01 6.146266e+01 2.867148e+01 9.300075e+00 5.007825e+01 1.425300e+01 1.390638e+01 1.104496e+01 2.760440e+01 2.898429e+00 3.062759e+00 1.901631e+00 4.114603e+00 2.121821e+00 3.507864e+00 4.567303e+00 8.498957e-01 2.645361e+00 1.904815e+00 1.636418e+00 1.174177e+00 4.346632e+00 1.228774e+00 4.681287e-01 1.860284e-01 1.046627e+00 2.635086e-01 7.385319e-01 6.403363e-01 1.132542e-01 5.016637e-01 3.370419e-01 4.796099e-01 3.857733e-01 1.050421e+00 1.282217e-01
<GCONST> 1.064453e+02
<MIXTURE> 4 4.452620e-02
<MEAN> 39
 -5.361408e+00 2.360767e+00 -6.435559e+00 1.207750e+01 1.818260e+00 4.024632e+00 6.873915e+00 2.228151e+00 3.299984e+00 -3.766299e+00 1.455139e-01 7.945915e+00 -1.911570e+01 1.658844e+00 5.513680e+00 2.667453e+00 2.824492e+00 -5.226283e-02 -1.999611e+00 -5.673657e-01 -3.388051e+00 -8.980547e-01 4.460505e-02 -1.514690e+00 -4.942931e-01 2.544735e+00 6.885598e-01 3.374602e-01 1.566001e+00 -4.073849e-01 -6.868843e-01 -9.722886e-01 -2.928899e-01 -1.379935e+00 -4.865727e-01 7.804653e-01 -3.790075e-01 -3.703706e-01 8.157171e-01
<VARIANCE> 39
 1.840324e+01 3.512001e+01 2.380383e+01 3.062304e+01 1.388603e+01 2.080939e+01 1.458406e+01 2.995255e+01 1.749747e+01 2.451234e+01 1.702591e+01 1.469289e+01 9.934583e+00 1.770952e+00 1.903116e+00 3.438836e+00 1.957757e+00 2.339482e+00 3.083722e+00 2.111248e+00 4.707647e+00 1.781152e+00 4.648448e+00 2.675143e+00 1.122398e+00 1.083888e+00 3.656468e-01 1.064542e+00 5.008746e-01 8.621195e-01 3.313927e-01 6.964061e-01 2.934463e-01 6.178592e-01 4.403365e-01 5.752316e-01 4.285805e-01 3.354040e-01 1.640334e-01
<GCONST> 1.109759e+02
<MIXTURE> 5 2.596490e-02
<MEAN> 39
 -3.481137e+00 -7.670420e+00 -3.834874e+00 8.916147e+00 -4.406577e+00 6.063905e+00 -1.368894e+00 7.423759e+00 5.215616e+00 -6.616575e+00 -1.037095e+00 4.666471e+00 -2.129929e+01 -3.616094e-02 9.879010e-01 6.019482e-01 9.875019e-01 7.059523e-01 3.193992e-01 1.859417e+00 -3.428674e-01 1.693174e-01 4.836707e-01 7.480422e-02 -2.356272e-01 2.281783e-01 -6.738533e-02 -3.351798e-02 -7.919353e-02 3.261091e-03 1.850667e-01 6.631932e-02 1.143897e-01 -1.521997e-01 -6.099729e-02 8.812711e-02 3.517029e-01 -6.777053e-03 4.611354e-02
<VARIANCE> 39
 1.141206e+01 6.189931e+00 3.009042e+01 6.581938e+00 5.619382e+00 1.400227e+01 1.254716e+01 1.897918e+01 3.086793e+01 1.334625e+01 6.144135e+00 1.105569e+01 6.155457e+00 3.393366e-01 1.700219e-01 6.091577e-01 3.245631e-01 3.921194e-01 6.125284e-01 1.200077e+00 1.906534e+00 1.180337e+00 1.047192e+00 1.251984e+00 1.327763e-01 5.968840e-02 7.351556e-02 4.157949e-02 9.239265e-02 4.668048e-02 6.526454e-02 7.924873e-02 2.331431e-01 1.661707e-01 1.174841e-01 8.160234e-02 1.895796e-01 4.454844e-02 1.699277e-02
<GCONST> 6.039677e+01
<MIXTURE> 6 6.045109e-02
<MEAN> 39
 3.099669e+00 1.270454e+01 4.410669e+00 7.170820e-01 -7.421160e+00 -5.371673e-01 9.539736e+00 -1.438208e+01 1.768147e+00 3.847040e+00 -8.751000e+00 6.504014e+00 -1.848953e+00 2.208949e-02 -8.498943e-01 8.302264e-01 -2.610790e+00 -2.426251e-01 1.896854e+00 4.144476e-01 -2.597179e-02 6.829072e-01 6.841981e-01 -1.151415e-02 2.095287e-01 2.089730e+00 -7.499717e-01 -9.776666e-01 -4.037073e-01 2.513548e-01 9.699749e-01 4.640340e-01 -7.624627e-01 1.416805e+00 -1.023050e-01 -8.357148e-01 6.487395e-01 -8.329450e-02 -3.783931e-01
<VARIANCE> 39
 6.752211e+00 5.986516e+00 6.122092e+01 1.634817e+02 1.876288e+01 6.242659e+01 4.685181e+01 4.915936e+01 9.347490e+01 7.214056e+01 3.395054e+01 1.669618e+01 6.910354e+00 2.335857e+00 4.219738e+00 1.251665e+00 4.101560e+00 4.399665e+00 4.018708e+00 4.683648e+00 1.215282e+01 6.698352e+00 1.024570e+01 4.176523e+00 2.313487e+00 1.134763e+00 3.554421e-01 5.027901e-01 4.536632e-01 1.320127e+00 3.196277e-01 1.187147e+00 7.158810e-01 1.973108e+00 1.264914e+00 1.438954e+00 9.691078e-01 3.092985e-01 2.238419e-01
<GCONST> 1.289856e+02
<MIXTURE> 7 4.269303e-02
<MEAN> 39
 6.487497e+00 3.823174e+00 -9.735755e+00 -1.132270e+01 7.888906e+00 6.648054e+00 6.804221e+00 -1.761642e+00 -4.233566e-01 2.056192e+00 1.558128e+00 -9.073412e-01 -3.070809e+00 1.420666e+00 -8.433757e-01 -3.691678e-01 4.212265e-01 5.487379e-01 -4.982350e-02 2.518488e-01 4.776964e-01 5.633481e-01 8.934497e-02 -2.090798e-01 -2.428377e-01 -3.656818e+00 -5.867267e-01 -6.858513e-01 -4.260596e-01 -2.916487e-01 -6.371844e-01 2.235095e-02 4.174463e-02 -6.782030e-02 5.209469e-02 -4.958795e-02 -1.541675e-03 2.349543e-01 4.730895e-01
<VARIANCE> 39
 6.890628e+00 1.387300e+01 2.359972e+01 2.246294e+01 2.165050e+01 9.221817e+00 2.236980e+01 9.317436e+00 1.641027e+01 1.305342e+01 2.045373e+01 3.496320e+01 2.540339e+01 1.867337e+00 1.700143e+00 1.590180e+00 2.395749e+00 3.234232e+00 2.155144e+00 1.774193e+00 6.989944e-01 1.909874e+00 2.193743e+00 4.437679e+00 2.871443e+00 1.343705e+00 1.738796e-01 1.265123e-01 2.683792e-01 2.507924e-01 1.055645e+00 3.502103e-01 2.369786e-01 1.453202e-01 4.894897e-01 3.139988e-01 3.018774e-01 6.783822e-01 1.812563e-01
<GCONST> 1.011983e+02
<MIXTURE> 8 5.941879e-02
<MEAN> 39
 4.485168e+00 -6.308357e+00 -9.491378e+00 -4.845429e+00 -5.175209e+00 9.135908e+00 8.276672e+00 6.790185e+00 7.152760e-01 -4.521976e+00 -3.232812e+00 -4.806410e-01 -1.607014e+01 -4.773203e-01 5.773747e-02 9.525138e-01 1.254615e+00 -5.168245e-01 5.747561e-02 -2.584822e-01 8.060091e-01 2.267222e-01 -7.617092e-01 -6.827353e-01 -3.059839e-01 -5.035092e-01 -1.121302e-01 1.818532e-01 -1.394361e-02 -3.388467e-02 1.739266e-01 -7.240281e-02 -2.129494e-01 -4.105874e-01 8.368392e-02 2.595260e-01 4.187834e-01 2.943264e-01 3.185352e-01
<VARIANCE> 39
 7.859607e+00 4.868341e+00 1.103738e+01 7.978473e+00 3.125550e+01 3.080433e+01 2.968508e+01 2.377914e+01 2.558170e+01 2.858450e+01 2.110545e+01 2.455332e+01 4.038347e+00 3.055905e-01 5.755939e-01 1.033851e+00 1.255438e+00 1.747365e+00 2.385026e+00 2.382688e+00 2.397996e+00 1.698097e+00 1.705111e+00 3.256310e+00 2.655265e+00 6.415108e-02 1.023426e-01 1.495669e-01 4.789253e-01 3.275024e-01 3.499069e-01 4.376315e-01 2.978570e-01 3.522421e-01 4.286565e-01 3.133731e-01 4.429356e-01 5.210356e-01 1.321281e-01
<GCONST> 9.397619e+01
<MIXTURE> 9 3.699596e-02
<MEAN> 39
 3.921084e-01 -8.474984e+00 -2.758081e-01 5.747918e+00 -1.167932e+00 4.419046e+00 2.011254e+00 -3.050649e-01 2.175183e+00 -4.638898e+00 -1.224678e+00 4.007101e+00 -2.458676e+01 -3.054672e-01 -3.884218e-01 -3.754563e-01 -1.741640e-01 -4.761573e-01 1.887573e-01 -2.642776e-03 4.162384e-01 1.682436e-01 7.467843e-01 7.136035e-01 -1.032058e-01 -8.813267e-02 -1.160819e-01 1.782427e-01 1.817650e-02 7.089220e-02 -4.670583e-02 -2.845891e-01 2.169650e-02 2.561518e-02 -8.834511e-02 1.564098e-01 1.499448e-01 4.642002e-01 1.459492e-01
<VARIANCE> 39
 3.131486e+00 4.342073e+00 1.889362e+00 2.330114e+01 1.831409e+01 1.733050e+01 3.917884e+01 1.798147e+01 1.552417e+01 3.768640e+01 8.048176e+00 5.010477e+00 9.051396e+00 5.433455e-02 2.354863e-01 2.258146e-01 4.979089e-01 9.031680e-01 1.275529e+00 1.795546e+00 2.884746e+00 2.738828e+00 2.467283e+00 2.591261e+00 1.307387e+00 5.928476e-02 2.018847e-02 3.997519e-02 6.480437e-02 7.190975e-02 9.628553e-02 6.053271e-02 1.200350e-01 2.174595e-01 3.052495e-01 2.165405e-01 9.869979e-02 8.119491e-02 3.153306e-02
<GCONST> 6.592712e+01
<MIXTURE> 10 3.294313e-02
<MEAN> 39
 -1.040108e+01 -2.007475e+00 -8.253448e+00 5.352381e+00 -2.409179e-01 4.155754e+00 3.777357e+00 -4.940572e+00 5.937572e+00 -6.805914e+00 2.285638e+00 7.555858e+00 -1.012096e+01 1.018539e-01 2.834993e+00 1.655631e-01 -3.577461e+00 -1.108049e+00 6.122393e-01 5.684755e-01 -7.612590e-01 -1.282858e-01 8.903190e-01 -6.617802e-01 1.191471e-01 4.972346e+00 1.219771e+00 -3.522113e-01 9.144760e-01 -5.324578e-01 -7.978136e-02 -1.339923e-02 4.091185e-01 9.991230e-01 -5.497487e-01 8.297386e-01 -3.887343e-01 -3.170444e-01 -5.979993e-02
<VARIANCE> 39
 3.979034e+01 3.920526e+01 3.360234e+01 3.016074e+01 6.837002e+01 9.149294e+01 2.379141e+01 4.768892e+01 1.641387e+01 2.524092e+01 8.305943e+00 2.810621e+01 4.217629e+01 1.385336e+01 3.776838e+00 6.511132e+00 3.256432e+00 5.723554e+00 6.106493e+00 4.287302e+00 2.972944e+00 5.384316e+00 6.688467e+00 2.207545e+00 4.096857e+00 3.065795e+00 5.828515e-01 1.315830e+00 5.956389e-01 1.838855e+00 5.973180e-01 2.596709e+00 1.039989e+00 3.793678e-01 4.218691e-01 6.862367e-01 5.489393e-01 6.820272e-01 1.025167e+00
<GCONST> 1.341018e+02
<MIXTURE> 11 5.016927e-02
<MEAN> 39
 -2.395838e+00 -7.993928e+00 -3.236318e+00 5.544086e+00 1.984145e-01 2.880449e+00 3.745925e+00 2.780562e+00 -8.582964e-01 -7.300576e+00 8.646280e-01 7.659431e+00 -2.303373e+01 -3.065293e-01 7.367597e-01 -7.075423e-01 9.686293e-02 -6.251705e-02 2.958434e-01 3.566900e-01 6.325467e-01 8.748049e-02 3.774646e-01 1.070503e-01 3.083371e-01 2.981496e-01 -1.236365e-01 7.580877e-01 -9.582746e-02 5.198874e-01 1.113853e-01 8.239310e-03 2.572612e-01 6.083575e-02 5.606676e-01 3.260379e-01 -1.793226e-01 7.813606e-02 4.328754e-01
<VARIANCE> 39
 6.331973e+00 4.356787e+00 1.803742e+01 1.288457e+01 2.047473e+01 1.940339e+01 1.921955e+01 1.008447e+01 2.240968e+01 1.118403e+01 1.896206e+01 1.417215e+01 3.915257e+00 4.792714e-01 7.852185e-01 8.683379e-01 1.102165e+00 1.439571e+00 1.464327e+00 1.436180e+00 1.608091e+00 2.105217e+00 2.164127e+00 2.240351e+00 1.340113e+00 1.192265e-01 2.704651e-01 2.434364e-01 6.945150e-01 4.555713e-01 2.592566e-01 3.444160e-01 7.408149e-01 5.873983e-01 5.468381e-01 4.518470e-01 7.582154e-01 3.465928e-01 8.706608e-02
<GCONST> 9.293320e+01
<MIXTURE> 12 5.010857e-02
<MEAN> 39
 2.467157e+00 1.755245e+01 6.256041e+00 1.258578e+01 -1.363939e+00 -6.575455e+00 1.231983e+00 -1.307778e+01 -5.433818e+00 -6.206474e-01 -4.734764e+00 6.055723e+00 -8.854959e+00 1.941591e+00 1.881226e+00 3.454374e+00 -7.085502e-01 -2.405604e+00 -2.246195e+00 3.069708e-01 -4.471702e+00 -1.406155e+00 3.104355e+00 -8.536196e-01 -9.171503e-01 3.303063e+00 -7.839676e-01 -2.170021e+00 -5.399712e-01 -1.056154e+00 1.437625e-02 9.916265e-01 3.544611e-01 1.383653e+00 1.023369e+00 2.854868e-01 3.722486e-01 -1.496998e-02 -2.483522e-01
<VARIANCE> 39
 6.523964e+00 9.695919e+00 2.147251e+01 3.873317e+01 4.358380e+01 2.764089e+01 2.508179e+01 5.698282e+01 6.328253e+01 4.575756e+01 3.346695e+01 1.995907e+01 9.428422e+00 2.711691e+00 6.300578e+00 3.864437e+00 2.185884e+00 2.273907e+00 7.022301e+00 2.223052e+00 7.909600e+00 4.603621e+00 2.374170e+00 4.927884e+00 4.460584e+00 2.441234e+00 3.190640e-01 4.086001e-01 5.191406e-01 3.557263e-01 7.947284e-01 5.465587e-01 7.377319e-01 1.638170e+00 1.462274e+00 9.533811e-01 3.800681e-01 2.860235e-01 3.454390e-01
<GCONST> 1.232887e+02
<MIXTURE> 13 2.784025e-02
<MEAN> 39
 6.620044e-03 -6.622435e+00 -5.984514e+00 2.098847e+00 -5.751846e+00 3.314270e+00 8.067722e-01 6.060009e+00 -1.487046e+00 -6.689072e+00 -6.744263e-01 4.694108e+00 -1.980505e+01 -1.768615e+00 2.800713e+00 -1.559832e+00 5.190716e-01 3.067952e-01 -7.546560e-01 5.176935e-01 -1.159712e+00 1.346466e+00 4.719502e-01 -4.590202e-01 8.398036e-01 2.326969e+00 -2.301201e-01 5.847635e-01 -4.289708e-01 -9.001735e-01 9.909917e-01 6.503529e-02 4.158665e-01 -3.927419e-01 4.674338e-01 8.186151e-01 1.567778e-01 -2.217097e-01 1.780974e+00
<VARIANCE> 39
 1.728558e+01 1.256507e+01 2.230523e+01 2.566399e+01 3.023169e+01 1.890689e+01 2.788492e+01 2.751727e+01 1.280201e+01 6.363655e+00 1.802694e+01 1.142934e+01 5.197177e+00 1.221710e+00 9.281942e-01 4.316741e+00 2.788462e+00 2.234060e+00 1.945324e+00 8.808640e+00 2.349368e+00 3.893629e+00 2.135338e+00 6.136467e+00 1.600563e+00 1.970418e+00 2.037698e-01 4.870678e-01 1.916270e+00 1.701705e+00 3.796190e-01 4.777713e-01 5.774446e-01 7.418518e-01 2.712906e-01 2.939645e-01 4.884955e-01 2.191564e-01 2.024798e-01
<GCONST> 1.099258e+02
<MIXTURE> 14 5.190923e-02
<MEAN> 39
 6.402388e+00 -5.279590e+00 -1.454003e+01 -1.222991e+01 9.117990e-02 6.740609e+00 6.146521e+00 -1.144833e-01 1.146260e+00 3.138202e+00 3.480105e+00 2.501764e+00 -1.195429e+01 -6.648344e-01 -1.666772e+00 -2.706253e-01 6.421375e-01 -2.464081e+00 1.304514e-01 -2.090681e-01 8.483981e-01 -2.907561e-02 -4.006862e-01 -2.475631e-01 8.526914e-01 -1.313661e+00 -1.353532e-01 4.216676e-01 4.818982e-01 4.382121e-01 1.845850e-01 7.976618e-02 -3.146155e-03 2.863787e-01 -5.530453e-02 -3.452300e-01 -3.870756e-01 -4.721186e-01 2.954904e-01
<VARIANCE> 39
 1.118571e+01 1.569767e+01 1.112383e+01 2.430391e+01 2.515402e+01 4.257953e+01 1.665785e+01 1.339113e+01 2.643898e+01 2.436730e+01 3.374762e+01 3.688748e+01 1.069707e+01 6.601036e-01 1.101662e+00 1.983811e+00 1.962015e+00 1.821450e+00 2.741893e+00 1.241489e+00 2.726113e+00 2.212131e+00 2.385511e+00 3.641675e+00 5.110972e+00 1.803350e-01 2.228799e-01 1.653261e-01 2.172504e-01 2.686728e-01 4.423889e-01 5.388551e-01 1.985834e-01 4.105861e-01 2.854143e-01 3.363448e-01 7.774902e-01 1.079781e+00 6.489456e-02
<GCONST> 1.022001e+02
<MIXTURE> 15 5.564781e-02
<MEAN> 39
 -1.393455e+00 -9.484612e+00 -1.506093e+00 5.274911e+00 2.015867e+00 3.644183e+00 4.074027e+00 6.968263e+00 1.966491e+00 -2.795901e+00 2.531158e+00 4.774532e+00 -2.238762e+01 -3.406314e-01 -2.445167e-01 -2.977388e-01 4.372122e-03 -1.220716e-01 -1.389800e-01 -2.298979e-01 -6.354786e-01 1.437014e-01 -1.091654e-01 -2.225823e-01 -3.570799e-01 -1.269093e-01 2.232306e-02 1.322494e-01 -1.393930e-01 -5.410034e-02 -6.410335e-02 -1.136297e-01 -6.884436e-02 4.883425e-03 -1.874774e-01 -1.343115e-01 -1.382622e-01 2.550815e-02 3.744280e-02
<VARIANCE> 39
 4.697989e+00 4.732238e+00 1.448661e+01 4.504416e+00 2.299491e+01 1.194164e+01 3.697335e+01 2.169576e+01 1.365492e+01 9.162256e+00 1.599142e+01 2.094819e+01 1.686771e+00 1.852431e-01 4.317388e-01 4.312938e-01 2.108689e-01 6.177472e-01 8.650114e-01 7.280929e-01 1.086156e+00 5.206831e-01 9.852116e-01 9.482530e-01 1.457537e+00 5.269231e-02 1.699060e-02 6.484587e-02 7.339904e-02 5.850061e-02 1.330705e-01 7.574460e-02 9.102833e-02 2.436498e-01 1.070367e-01 1.259398e-01 1.069170e-01 1.964680e-01 5.304872e-03
<GCONST> 5.927780e+01
<MIXTURE> 16 3.689674e-02
<MEAN> 39
 -1.015862e+01 -4.145291e+00 -2.312638e+00 4.218863e+00 6.468706e+00 -5.013636e-01 3.194624e+00 3.485188e+00 4.253484e+00 -5.691287e+00 7.520664e-01 4.886456e+00 -1.570094e+01 -5.463121e-01 2.608508e+00 -9.970736e-01 2.460426e-01 -4.796481e-01 -1.150567e+00 -9.034608e-01 -3.200086e+00 -6.746101e-01 -6.723681e-01 -3.741510e-01 -3.551038e-02 3.122730e+00 6.919636e-01 3.359276e-01 1.174087e-01 -5.426698e-01 -5.748501e-01 1.517729e-01 -3.403042e-01 -4.526777e-01 -4.951054e-01 3.485142e-01 -1.195533e-01 1.258641e-01 1.136677e+00
<VARIANCE> 39
 1.812769e+01 3.685249e+01 1.396461e+01 3.982117e+01 2.683594e+01 1.600302e+01 2.701987e+01 3.682953e+01 2.495364e+01 1.621900e+01 1.111301e+01 1.323401e+01 1.308095e+01 1.770185e+01 9.910007e+00 2.911831e+00 1.024260e+00 2.029342e+00 1.115916e+00 3.687743e+00 5.348794e+00 1.879866e+01 1.239208e+00 2.840879e+00 2.277112e+00 1.127444e+01 8.955492e-01 1.045172e+00 2.604732e-01 6.596497e-01 4.156886e-01 4.569760e-01 1.188105e+00 1.164171e+00 1.532377e+00 3.017916e-01 3.591273e-01 4.522628e-01 3.971267e-01
<GCONST> 1.218539e+02
<MIXTURE> 17 3.843886e-02
<MEAN> 39
 -8.015853e+00 -1.736846e+00 -8.470119e+00 3.711552e+00 -3.292145e+00 -9.187057e-01 6.689781e+00 3.373959e+00 8.012553e+00 -1.759528e+00 -1.265459e+01 7.872593e+00 -4.038013e+00 9.643336e-01 1.529929e-01 -3.511066e-01 -5.872471e-01 8.000354e-01 -9.916093e-01 2.110569e-01 -1.635315e-01 -7.526268e-01 2.593374e-01 -1.318392e+00 -1.253437e+00 4.227602e+00 6.251358e-01 -2.816278e-02 3.598655e-01 -4.268167e-01 6.208714e-01 2.476693e-01 -1.293634e-01 3.047932e-01 -1.229955e+00 2.962015e-02 1.160879e+00 -4.163812e-01 -1.599603e-01
<VARIANCE> 39
 1.701278e+01 1.593013e+01 4.318037e+01 2.218534e+01 2.613229e+01 5.253425e+01 8.433586e+01 5.408350e+01 2.448535e+01 8.487639e+00 5.932617e+01 4.440571e+01 7.471223e+01 4.505918e+00 5.240123e+00 3.113791e+00 5.516216e+00 2.902532e+00 1.885542e+00 8.496821e+00 2.419627e+00 7.979423e+00 1.409868e+00 7.538330e+00 4.086717e+00 1.007636e+01 5.890914e-01 1.396246e+00 8.487325e-01 6.040332e-01 9.932866e-01 4.584221e-01 2.221558e+00 3.853099e-01 1.278777e+00 4.748124e-01 1.127183e+00 1.521207e+00 1.091036e+00
<GCONST> 1.345293e+02
<MIXTURE> 18 3.515844e-02
<MEAN> 39
 -1.322330e+00 7.310345e-01 -1.264125e+01 -1.925693e+01 8.228249e+00 8.825264e+00 8.977163e+00 -6.471102e+00 1.405412e+00 2.396242e+00 6.210032e+00 -5.019302e+00 1.349297e+01 -5.965562e-03 -3.406763e-01 -9.865692e-02 5.827366e-01 2.485692e-01 -2.918626e-01 4.843706e-01 1.036965e-01 2.663487e-01 -4.918770e-01 2.645275e-01 -4.119900e-01 1.715203e-01 1.736043e-01 3.074574e-01 1.659803e-01 5.286614e-01 -5.586501e-01 -1.668459e-01 -3.439301e-01 3.053814e-01 -2.888843e-01 -1.836199e-01 -9.356167e-02 3.202878e-01 -5.811496e-01
<VARIANCE> 39
 7.302016e-01 6.773229e+00 1.888010e+01 5.361743e+00 8.187904e+00 6.008917e+00 3.392495e+01 8.420284e+00 8.995780e+00 1.150659e+01 2.127067e+01 8.328934e+00 1.094115e+00 2.407324e-01 3.662843e-01 3.502245e-01 9.978328e-01 9.953477e-01 7.618174e-01 1.004745e+00 8.245727e-01 1.867887e+00 1.258137e+00 1.481513e+00 5.189177e-01 3.471729e-01 3.662967e-02 4.295732e-02 1.618449e-01 5.170570e-01 2.150608e-01 1.585799e-01 7.760619e-02 1.885661e-01 4.476813e-01 4.310095e-01 2.361150e-01 1.185954e-01 1.369106e-01
<GCONST> 6.919236e+01
<MIXTURE> 19 4.080622e-02
<MEAN> 39
 5.692507e-03 5.815882e+00 -1.370609e+01 -1.675732e+01 4.705107e+00 8.171082e+00 5.294394e+00 -7.526097e+00 -4.321607e+00 7.496002e+00 7.092046e-01 -5.225577e+00 8.954466e+00 6.119384e-01 -1.480916e+00 -9.440470e-01 -3.141456e+00 2.746038e+00 7.758533e-01 1.231154e+00 -1.892544e-01 -1.038708e+00 1.643557e+00 3.507536e-02 -1.666714e+00 3.515140e+00 -3.680675e-01 -1.117404e+00 6.724702e-01 1.949756e+00 -6.246476e-01 -7.212300e-01 -3.134127e-01 5.996103e-01 1.066598e+00 -9.980804e-01 1.484651e-01 1.005755e+00 -1.481611e+00
<VARIANCE> 39
 6.110903e+00 1.420370e+01 2.141309e+01 2.279002e+01 3.187011e+01 1.393189e+01 2.630300e+01 3.815051e+01 5.217105e+01 2.990199e+01 7.928272e+00 1.547266e+01 1.181089e+01 1.977814e+00 3.610722e+00 2.671713e+00 1.120785e+01 5.545747e+00 2.578699e+00 3.133685e+00 2.006008e+00 5.804119e+00 6.161833e+00 2.000608e+00 4.235918e+00 2.912534e+00 2.078062e-01 6.896218e-01 3.169449e-01 9.209985e-01 5.729408e-01 8.262357e-01 4.747560e-01 6.236871e-01 1.506700e+00 1.041596e+00 3.706053e-01 6.146879e-01 3.112829e-01
<GCONST> 1.192815e+02
<MIXTURE> 20 5.388281e-02
<MEAN> 39
 -2.962802e-01 -8.214523e+00 -2.318243e+00 8.561921e+00 -3.575741e+00 5.994747e+00 4.695989e+00 3.660626e+00 3.227427e+00 -1.894224e+00 1.177707e+00 5.930928e+00 -2.360771e+01 -2.579643e+00 8.113511e-01 7.712302e-01 7.250422e-01 -2.224094e-01 7.355050e-02 -5.138875e-01 -2.087964e+00 1.365897e+00 8.267789e-01 7.765682e-01 3.331842e-01 2.807000e+00 -6.246755e-01 5.409499e-01 5.567843e-01 -2.813397e-01 -1.777749e-01 -1.997926e-01 -5.103350e-01 -7.875223e-01 -5.629882e-02 -2.115255e-01 -2.868752e-01 -2.770111e-01 1.679029e+00
<VARIANCE> 39
 5.149773e+00 4.806427e+00 1.791897e+01 2.799717e+01 1.544833e+01 5.471018e+00 1.489028e+01 3.326345e+01 9.461755e+00 2.702995e+01 1.137869e+01 9.865545e+00 1.112938e+01 2.843360e+00 2.129288e+00 1.137181e+01 7.709797e+00 2.667243e+00 3.872605e+00 3.397985e+00 2.814871e+00 1.726673e+00 2.352387e+00 1.079699e+00 1.665233e+00 4.318641e+00 4.883765e-01 4.142401e-01 1.470458e+00 6.481693e-01 3.197045e-01 6.739923e-01 6.259349e-01 5.141224e-01 3.991234e-01 3.805759e-01 3.414108e-01 2.720796e-01 1.272581e-01
<GCONST> 1.081024e+02
<MIXTURE> 21 3.137229e-02
<MEAN> 39
 -2.482879e+01 -3.489236e+00 -7.983266e-01 -3.639532e+00 5.988486e+00 3.692266e+00 2.253696e+00 1.137158e+01 6.624035e+00 1.532957e-01 4.096470e+00 1.114995e+01 -1.983451e+00 8.063756e-01 -1.055241e+00 2.734393e-01 2.438960e-01 -1.093458e+00 3.027717e-01 -2.970895e-01 -1.024492e+00 -3.931318e-01 -2.141782e-01 -5.839875e-01 -1.043570e+00 -7.343043e-01 4.918918e-01 5.138904e-01 -1.502651e-02 6.010331e-01 6.860738e-01 -4.288016e-03 -9.310547e-02 -7.153158e-01 -5.230324e-01 -1.721319e-01 -4.016547e-01 -2.273699e-01 -5.877595e-01
<VARIANCE> 39
 8.985337e+00 3.792033e+01 6.276607e+00 1.965641e+01 1.809508e+01 3.518886e+01 5.425543e+01 2.751238e+01 1.224740e+01 8.517409e+00 1.167121e+01 2.167221e+01 1.053897e+01 4.184553e+00 3.066313e+00 9.652322e-01 4.144946e+00 4.039137e+00 2.579866e+00 4.225269e+00 3.399190e+00 8.101948e-01 2.337612e+00 2.884263e+00 2.320554e+00 4.787280e+00 2.781385e-01 9.050413e-01 1.671994e-01 8.746676e-01 6.007133e-01 7.057279e-01 8.643464e-01 9.415954e-01 5.903720e-01 2.481271e-01 2.183541e-01 3.527063e-01 2.931536e-01
<GCONST> 1.115987e+02
<MIXTURE> 22 4.261830e-02
<MEAN> 39
 -1.139437e+00 -1.132534e+01 -1.208420e+00 4.070090e+00 9.896326e-01 2.481737e+00 1.194917e+00 7.003411e+00 2.848691e+00 -4.365894e+00 1.219075e+00 3.562654e+00 -2.309064e+01 -1.025455e+00 5.016599e-01 -3.186285e-01 5.121005e-02 2.589243e-01 -7.216887e-02 3.050657e-01 -4.250203e-01 8.742525e-02 -2.009936e-01 -1.285871e-01 -1.933235e-02 4.867084e-01 -5.628170e-01 5.080334e-01 -3.379180e-01 6.213323e-02 4.976510e-02 -8.811886e-02 1.144527e-01 -6.354729e-01 6.833847e-02 -1.016162e-01 1.304878e-01 1.730674e-01 8.661678e-01
<VARIANCE> 39
 3.140639e+00 3.354707e+00 2.687434e+00 1.106951e+01 1.144427e+01 5.468527e+00 1.995851e+01 6.821437e+00 8.204014e+00 1.240635e+01 1.641801e+01 1.446507e+01 2.565278e+00 9.000298e-01 8.410201e-01 7.245533e-01 4.928034e-01 2.168688e+00 1.085638e+00 2.000179e+00 1.826509e+00 2.842433e+00 8.599686e-01 6.592738e-01 1.098153e+00 5.948055e-01 1.797878e-01 4.842021e-01 9.818609e-02 1.607686e-01 1.202222e-01 1.514336e-01 2.657461e-01 3.970674e-01 3.682248e-01 1.352490e-01 2.376066e-01 1.371702e-01 3.736016e-01
<GCONST> 7.815221e+01
<MIXTURE> 23 3.338378e-02
<MEAN> 39
 -3.895785e-01 -8.172512e+00 -1.436708e+00 7.203950e+00 -3.858613e+00 1.452772e+00 2.134573e+00 4.496051e-01 -7.479038e-01 -7.170299e+00 -1.577591e+00 7.145953e+00 -2.390088e+01 1.835641e-01 1.782097e-01 2.446936e-01 1.600748e-01 3.146133e-02 -7.734932e-03 -1.444800e-01 -4.923732e-01 1.702020e-01 1.170903e-01 -1.217968e-01 2.691121e-01 1.215401e-01 -1.846170e-01 -1.348435e-01 -2.057459e-01 -1.632927e-01 1.959074e-01 2.012651e-01 2.509237e-01 2.916659e-01 4.373709e-01 2.842751e-01 3.647538e-01 -2.239220e-01 -2.426616e-02
<VARIANCE> 39
 2.953150e+00 5.886714e+00 1.236867e+01 2.159930e+01 1.249459e+01 7.958622e+00 2.411264e+01 1.781751e+01 1.571832e+01 9.920244e+00 1.457088e+01 1.391353e+01 9.104625e+00 1.359407e-01 1.078169e-01 2.972986e-01 6.681733e-01 1.525070e+00 1.104902e+00 1.271883e+00 8.989821e-01 2.743547e+00 1.145886e+00 5.252082e-01 1.236429e+00 3.408687e-02 6.404483e-02 1.961052e-02 4.390900e-02 4.282320e-02 1.992627e-01 1.063669e-01 3.636198e-01 2.309712e-01 8.039273e-02 1.330063e-01 1.656568e-01 1.039090e-01 9.903604e-03
<GCONST> 6.300236e+01
<MIXTURE> 24 3.159833e-02
<MEAN> 39
 -4.474171e+00 3.341334e+00 -7.268227e+00 2.696831e+00 -6.954552e+00 3.805915e+00 7.754466e-01 -3.537329e+00 4.745527e+00 -2.221276e+00 1.731836e+00 4.764146e+00 -7.590407e+00 8.751523e-01 3.837978e+00 -2.110969e+00 -5.057796e+00 2.031872e+00 9.474084e-01 1.865744e+00 -2.422885e+00 -1.052792e+00 2.474948e+00 -8.089130e-01 -2.028421e+00 6.520860e+00 6.001787e-01 -7.075261e-01 -4.460857e-02 -1.434378e+00 1.050245e+00 4.162412e-01 6.690338e-01 2.022158e-01 -5.765218e-01 6.997096e-01 -1.600417e-01 -7.436002e-01 4.171553e-01
<VARIANCE> 39
 1.282981e+01 2.930783e+01 2.092747e+01 1.604684e+01 4.002063e+01 2.969345e+01 3.066719e+01 2.754299e+01 1.920572e+01 4.495082e+01 1.605868e+01 1.284907e+01 5.646400e+01 5.120328e+00 2.938117e+00 2.797548e+00 4.407534e+00 7.908570e+00 2.327171e+00 6.076955e+00 5.599902e+00 7.469847e+00 1.479978e+00 3.941375e+00 2.998177e+00 2.838842e+00 1.565135e-01 6.857989e-01 4.190315e-01 6.783909e-01 5.646605e-01 4.172328e-01 4.325877e-01 2.913131e-01 3.410531e-01 9.513872e-01 4.009890e-01 5.273008e-01 1.033247e+00
<GCONST> 1.212921e+02
<STATE> 3
<NUMMIXES> 24
<MIXTURE> 1 2.871883e-02
<MEAN> 39
 4.143631e+00 5.709089e+00 -1.138852e+01 -1.784934e+01 1.928324e+00 1.268016e+01 7.507113e+00 -6.404027e+00 -2.265387e+00 7.522172e+00 1.944546e+00 -1.390244e+00 5.753604e+00 -4.100215e-01 -1.314003e+00 -3.928206e-01 2.722140e-01 1.338103e+00 8.594865e-01 -6.150906e-01 -9.813081e-01 4.966403e-01 1.202121e+00 5.308140e-01 -1.194002e+00 7.723997e-01 3.575602e-02 -4.277682e-01 4.109838e-01 8.405044e-01 -3.010893e-02 -5.561723e-01 -5.685203e-01 3.163823e-01 1.951112e-01 -2.846443e-01 -1.420357e-01 -9.790082e-02 -7.937977e-02
<VARIANCE> 39
 4.730896e+00 1.918383e+01 4.065827e+01 2.276459e+01 4.958126e+01 6.624871e+01 5.159757e+01 3.949888e+01 6.921732e+01 6.700330e+01 4.361827e+01 4.141113e+01 5.751163e+00 4.067324e-01 1.928178e+00 2.607635e+00 3.328154e+00 2.103730e+00 3.249908e+00 5.202215e+00 3.315689e+00 4.707905e+00 3.086560e+00 2.146898e+00 3.512491e+00 4.454207e-01 8.454450e-02 2.418665e-01 3.267563e-01 4.573283e-01 4.982454e-01 7.001726e-01 5.074484e-01 5.960779e-01 5.196863e-01 6.048418e-01 3.552290e-01 6.348671e-01 6.524972e-02
<GCONST> 1.135831e+02
<MIXTURE> 2 4.958888e-02
<MEAN> 39
 7.164851e+00 -1.409154e+00 3.212847e+00 5.305907e+00 -2.764388e+00 1.000248e+00 -2.857777e-01 5.249810e+00 -6.064830e-01 -3.774070e+00 3.911996e-01 2.032004e+00 -1.464478e+01 -3.371428e+00 -1.445797e+00 8.326204e-01 -5.744755e-01 3.538909e-01 1.174982e+00 -4.742853e-01 -1.914157e-01 8.612717e-01 4.359263e-01 2.847724e-01 1.086171e+00 1.743120e+00 -1.117019e+00 -2.318055e-01 3.005969e-02 -2.050980e-01 1.107559e-01 4.900147e-02 -3.843100e-01 -3.810456e-01 9.901131e-02 2.681277e-01 1.462106e-01 -1.374308e-01 1.899151e+00
<VARIANCE> 39
 3.200821e+01 4.224988e+01 8.751479e+01 7.801848e+01 5.277105e+01 5.001852e+01 3.503940e+01 6.373294e+01 5.789361e+01 4.205701e+01 3.107327e+01 2.487680e+01 1.365414e+01 5.388216e+00 5.445945e+00 1.003705e+01 8.577581e+00 7.882501e+00 7.409328e+00 5.590993e+00 6.708094e+00 6.159914e+00 5.028095e+00 4.128120e+00 3.225940e+00 7.290717e+00 9.682599e-01 8.707879e-01 1.332575e+00 1.181329e+00 9.441174e-01 1.151375e+00 1.058457e+00 1.138085e+00 1.447232e+00 7.548452e-01 6.623524e-01 4.341148e-01 4.207975e-01
<GCONST> 1.424314e+02
<MIXTURE> 3 6.314813e-02
<MEAN> 39
 -8.622835e-01 -3.230936e+00 9.131514e+00 3.443520e+00 -7.205415e+00 -7.173269e+00 -4.391894e+00 5.347209e+00 -3.812800e+00 -1.317152e+00 6.971578e+00 -2.127576e+00 7.601337e+00 3.926588e-01 8.354448e-02 4.142542e-01 6.197284e-01 -4.324928e-01 -2.200039e-01 1.649579e-01 -4.698094e-01 -9.172919e-02 -1.210502e-01 1.960295e-01 3.243049e-01 -4.758945e-01 2.226182e-01 3.952387e-01 -7.238903e-02 9.565524e-02 4.375842e-01 9.724627e-02 1.815679e-01 -3.971617e-01 1.323542e-01 1.738849e-01 -4.542706e-01 2.426216e-02 -6.085756e-01
<VARIANCE> 39
 1.132550e+01 1.676653e+01 2.916381e+01 5.374548e+01 4.255071e+01 3.124811e+01 4.032341e+01 4.140921e+01 6.855173e+01 3.478067e+01 3.813898e+01 5.149821e+01 7.886447e+00 1.737592e+00 2.091975e+00 4.265871e+00 3.236751e+00 4.862075e+00 3.168089e+00 3.566988e+00 4.373233e+00 4.024740e+00 3.096438e+00 3.597360e+00 2.657227e+00 1.958439e+00 2.588491e-01 2.209763e-01 4.232776e-01 5.040686e-01 6.045017e-01 6.528513e-01 5.588583e-01 7.763484e-01 6.491672e-01 4.977413e-01 6.850054e-01 6.157191e-01 1.909330e-01
<GCONST> 1.213489e+02
<MIXTURE> 4 3.975449e-02
<MEAN> 39
 1.615993e+00 -9.163084e-01 -1.252366e+01 -1.283465e+01 9.133317e+00 7.392580e+00 3.565629e+00 -4.765175e+00 1.938518e+00 8.498924e+00 3.682841e-01 -6.927890e+00 9.122662e+00 3.227673e-02 -9.525273e-01 3.256385e-01 1.628098e+00 4.195900e-01 -1.066514e+00 -1.112410e+00 1.292084e+00 1.108452e+00 -9.800090e-01 -1.504245e-01 4.961730e-02 -8.817874e-02 1.555074e-01 2.250647e-01 3.735821e-01 6.911370e-01 -4.428037e-01 -3.543424e-01 -2.517505e-01 4.866048e-01 -1.708361e-01 -6.728283e-01 -2.994749e-01 5.584481e-01 -5.817024e-01
<VARIANCE> 39
 1.208987e+01 2.481064e+01 4.577198e+01 3.933990e+01 5.890290e+01 5.473758e+01 4.335764e+01 5.828170e+01 7.841233e+01 6.695747e+01 4.884111e+01 2.136669e+01 8.642198e+00 1.383279e+00 3.098969e+00 1.857724e+00 7.938814e+00 5.366861e+00 7.704585e+00 4.552244e+00 3.654534e+00 6.707721e+00 3.310647e+00 3.068725e+00 3.891117e+00 1.750224e+00 2.587894e-01 3.091963e-01 3.897395e-01 7.228001e-01 6.975641e-01 9.481654e-01 5.165335e-01 9.672962e-01 1.106766e+00 8.980921e-01 7.547314e-01 5.840963e-01 2.096307e-01
<GCONST> 1.279963e+02
<MIXTURE> 5 5.154960e-02
<MEAN> 39
 4.108954e+00 9.498064e+00 8.255146e+00 7.105987e+00 -6.230398e+00 -7.771692e+00 4.880596e+00 -9.787145e+00 -2.700655e+00 5.001485e+00 -6.246840e+00 -2.379329e+00 -1.662785e+00 3.428177e-01 1.518265e+00 3.435905e-01 1.008083e+00 -6.819565e-01 -1.646838e-01 1.631146e-01 -1.285033e+00 2.035352e-01 2.702753e-01 1.414081e-01 2.166692e-01 -1.219989e+00 -1.792764e-02 -6.054521e-01 -2.930936e-01 -3.267213e-01 5.256751e-01 4.082605e-01 -5.511015e-01 7.699198e-01 -4.905554e-02 -5.636288e-01 4.254412e-01 -5.533696e-02 2.333557e-01
<VARIANCE> 39
 2.013069e+01 2.906962e+01 5.044721e+01 5.836316e+01 6.914430e+01 6.701468e+01 5.896444e+01 6.730537e+01 6.227787e+01 4.920903e+01 4.889056e+01 3.151052e+01 1.295139e+01 5.351672e-01 2.981950e+00 2.909511e+00 2.927002e+00 4.576252e+00 4.434943e+00 4.694305e+00 6.756227e+00 3.088986e+00 6.794236e+00 4.107162e+00 2.036970e+00 7.218534e-01 7.569163e-02 3.351933e-01 3.903422e-01 5.112837e-01 5.903655e-01 6.576045e-01 5.898827e-01 7.461088e-01 5.234963e-01 7.683735e-01 4.408221e-01 4.821424e-01 1.347645e-01
<GCONST> 1.230955e+02
<MIXTURE> 6 4.226811e-02
<MEAN> 39
 7.899406e+00 3.392362e-01 -7.492095e+00 1.273773e+00 -7.334461e+00 1.174715e+01 -8.070385e+00 -9.704453e+00 -4.504803e+00 9.262568e-01 9.720920e+00 -3.532911e-01 3.229046e+00 1.150836e+00 7.809516e-01 -7.003712e-01 -1.519580e+00 -5.355211e-01 7.137870e-01 4.580958e-01 3.252224e-01 -7.874315e-01 6.132784e-01 1.622549e-01 -4.427720e-01 2.437269e-03 -5.325559e-01 -2.392849e-01 3.558394e-01 2.810275e-01 4.765148e-01 -5.464249e-01 5.568154e-01 5.396411e-01 4.494155e-01 -1.435309e-01 -8.610123e-01 2.299488e-01 -2.934973e-01
<VARIANCE> 39
 1.495612e+01 2.007601e+01 3.759374e+01 6.515971e+01 6.062399e+01 5.185840e+01 6.707240e+01 1.310694e+02 5.810271e+01 4.972419e+01 3.363105e+01 2.668761e+01 1.355875e+01 4.278961e+00 4.980581e+00 6.477720e+00 9.110168e+00 8.553589e+00 6.742464e+00 6.538375e+00 1.215197e+01 9.494785e+00 5.527536e+00 7.374996e+00 4.510477e+00 1.287058e+00 5.616162e-01 3.860397e-01 6.165830e-01 9.221171e-01 9.563612e-01 1.133716e+00 1.077984e+00 1.980815e+00 1.247038e+00 7.267509e-01 9.735299e-01 8.079752e-01 2.428431e-01
<GCONST> 1.399723e+02
<MIXTURE> 7 4.840448e-02
<MEAN> 39
 2.673343e-01 -5.744575e+00 -4.226497e+00 -8.047977e+00 6.114106e+00 -5.128635e+00 -2.281258e+00 1.087107e+01 2.374498e+00 -1.997161e+00 1.190454e+00 -7.520134e+00 1.124529e+01 5.603148e-01 -7.460756e-02 1.185928e+00 8.494985e-01 -7.145988e-01 -1.822427e-01 -1.400314e+00 1.095846e-02 -1.668634e-01 -1.611004e-01 3.959247e-01 7.018747e-01 -7.522081e-01 1.291507e-01 1.202420e-01 1.658453e-01 5.637346e-01 -2.340530e-01 1.349547e-01 8.052815e-02 -6.518019e-01 -2.743057e-02 2.037871e-01 -3.000717e-01 4.045261e-01 -3.810858e-01
<VARIANCE> 39
 1.520882e+01 1.484841e+01 3.602829e+01 2.897913e+01 3.224538e+01 6.117986e+01 7.144777e+01 5.602440e+01 6.294434e+01 4.662688e+01 4.517259e+01 3.367857e+01 4.971858e+00 4.328226e-01 9.694077e-01 1.727990e+00 2.132716e+00 2.785532e+00 2.791446e+00 3.557586e+00 3.811666e+00 1.940317e+00 2.059252e+00 2.324719e+00 2.212597e+00 4.615100e-01 1.034428e-01 1.827500e-01 2.036368e-01 2.272289e-01 2.893515e-01 4.661289e-01 6.783152e-01 6.135005e-01 4.232263e-01 4.006560e-01 3.491975e-01 3.499130e-01 1.056973e-01
<GCONST> 1.081435e+02
<MIXTURE> 8 5.240436e-02
<MEAN> 39
 2.028968e+00 -1.791201e+00 -4.083213e-01 -2.201921e+00 2.846511e+00 -2.403146e+00 -4.569345e+00 1.281168e+00 -4.547209e-02 4.106357e+00 -1.309309e+00 -4.313742e+00 5.297370e+00 -5.503849e-01 -1.488742e+00 -1.234586e+00 -2.060860e+00 3.439720e-01 7.355417e-02 1.171106e+00 2.200745e+00 -1.653060e-01 1.290218e-01 7.949897e-02 -7.150444e-01 2.346522e+00 -1.967479e-01 2.119803e-01 2.256832e-01 4.211966e-01 -3.153434e-01 7.192872e-02 6.516593e-01 -2.708301e-01 -7.271064e-03 -4.953435e-01 6.036871e-02 3.139972e-01 -4.191253e-01
<VARIANCE> 39
 1.883422e+01 3.131369e+01 9.840942e+01 8.745005e+01 5.406140e+01 5.076466e+01 7.914394e+01 6.569167e+01 1.017365e+02 5.102768e+01 7.160471e+01 4.362133e+01 2.124909e+01 4.063794e+00 5.824804e+00 9.573375e+00 5.569912e+00 9.057423e+00 6.240965e+00 6.769782e+00 9.837229e+00 7.487765e+00 7.458260e+00 4.607189e+00 6.184787e+00 2.592309e+00 5.304823e-01 8.133456e-01 1.048763e+00 8.442995e-01 1.019520e+00 8.554754e-01 1.314562e+00 1.128131e+00 1.497457e+00 9.064130e-01 7.546210e-01 8.764884e-01 5.260724e-01
<GCONST> 1.454922e+02
<MIXTURE> 9 2.610588e-02
<MEAN> 39
 2.705497e+00 -3.647903e+00 1.205320e-01 1.229751e+00 5.697994e+00 -1.911849e+00 -3.312854e+00 3.099958e+00 -3.830517e-04 -2.925406e+00 -4.316017e+00 -3.775060e+00 6.070138e+00 6.359817e-01 2.404098e+00 9.712110e-01 2.446090e+00 -1.129706e+00 -1.299626e+00 2.954606e-01 -3.465442e+00 2.521540e-01 1.508906e+00 -1.408026e+00 1.369689e+00 -1.835510e+00 -9.590903e-02 7.796190e-01 -8.103069e-02 -2.272177e-01 -4.477798e-01 -1.640964e-01 6.878227e-01 -5.050188e-01 -1.189361e-01 5.192148e-01 8.823586e-02 -1.088498e-01 -1.345468e-01
<VARIANCE> 39
 1.010520e+01 2.639385e+01 7.146539e+01 3.575755e+01 3.714699e+01 4.767034e+01 7.780643e+01 7.497654e+01 8.151414e+01 3.817923e+01 4.532846e+01 3.138459e+01 8.939352e+00 7.541428e-01 3.454284e+00 2.450775e+00 2.951164e+00 3.516704e+00 3.591356e+00 5.961354e+00 4.276727e+00 4.074382e+00 2.303183e+00 4.017212e+00 2.064480e+00 5.262473e-01 7.993553e-02 5.679061e-01 3.787671e-01 6.102182e-01 5.247780e-01 8.007179e-01 9.753852e-01 1.154187e+00 7.802537e-01 4.696170e-01 5.679531e-01 5.064813e-01 1.773716e-01
<GCONST> 1.218917e+02
<MIXTURE> 10 4.548625e-02
<MEAN> 39
 1.047876e+01 5.578015e+00 3.511764e+00 9.056701e+00 -2.328090e+00 8.265948e-01 -1.718518e+00 -3.257379e+00 -3.871696e+00 -2.845400e+00 9.925447e-01 6.189215e-01 -1.041702e+01 2.275248e-01 -4.303409e-01 1.802019e-01 1.976701e-01 1.295093e-01 -9.386148e-02 -3.972178e-01 1.216545e+00 -3.680854e-01 -7.714482e-01 -1.344457e-01 1.994044e-01 -1.450241e+00 -4.976135e-01 -2.458518e-01 1.971058e-01 -3.806173e-01 -1.411077e-01 -4.901165e-02 9.448527e-02 4.736780e-02 1.018598e-01 2.842239e-01 -1.196196e-01 -1.274481e-02 4.322931e-01
<VARIANCE> 39
 1.759768e+01 4.149129e+01 6.193987e+01 5.296428e+01 4.906931e+01 5.976872e+01 3.409069e+01 6.539992e+01 4.674228e+01 7.171529e+01 6.077114e+01 2.098357e+01 2.077409e+01 1.559847e+00 2.657187e+00 3.268345e+00 2.748374e+00 3.149761e+00 3.340180e+00 3.803542e+00 4.658062e+00 2.025167e+00 3.482719e+00 2.778262e+00 1.769093e+00 2.023658e+00 2.802531e-01 3.279461e-01 5.254372e-01 4.920318e-01 5.063378e-01 5.509184e-01 5.505641e-01 7.368393e-01 4.864006e-01 6.846206e-01 4.447174e-01 4.062495e-01 2.772793e-01
<GCONST> 1.234450e+02
<MIXTURE> 11 5.023374e-02
<MEAN> 39
 -1.523485e+00 -5.208507e+00 -5.584207e+00 -8.530054e+00 8.265967e+00 -3.873778e+00 4.783288e+00 6.843722e+00 3.405344e+00 -3.084018e+00 -3.851083e+00 -5.774174e+00 1.228118e+01 -3.172957e-03 5.009677e-02 3.668948e-03 -1.189631e-01 2.029184e-01 -6.701385e-02 -2.654763e-01 3.703566e-01 -1.329393e-01 -2.916818e-01 3.734480e-01 -2.106972e-01 -3.741615e-02 1.344934e-01 3.276827e-02 2.160887e-01 2.081010e-01 -2.465228e-01 2.548537e-02 -4.501156e-01 -2.236487e-02 6.535744e-02 1.879130e-01 8.924554e-02 5.778368e-02 -1.979842e-01
<VARIANCE> 39
 1.139950e+01 1.016507e+01 3.856727e+01 2.049446e+01 3.929683e+01 4.308308e+01 4.962574e+01 5.191053e+01 4.747331e+01 5.710182e+01 3.221580e+01 2.419312e+01 2.812260e+00 1.711615e-01 2.571161e-01 7.255839e-01 6.393692e-01 1.505602e+00 7.180867e-01 1.598120e+00 1.265076e+00 1.748895e+00 1.419401e+00 1.419219e+00 1.014044e+00 9.593855e-02 3.575451e-02 6.597042e-02 1.449176e-01 1.181502e-01 1.991735e-01 1.539543e-01 2.449814e-01 2.910241e-01 3.108870e-01 2.998016e-01 2.033099e-01 2.169504e-01 2.650709e-02
<GCONST> 8.444088e+01
<MIXTURE> 12 6.596750e-02
<MEAN> 39
 -4.014338e+00 -1.808679e+00 2.731615e+00 5.269261e+00 -9.684187e-01 5.600673e+00 -3.494674e+00 3.021179e-01 1.758433e+00 -3.723151e+00 -1.315331e+00 4.990613e+00 -3.228613e+00 -3.931582e-01 4.662417e-01 4.426154e-01 -1.032653e-01 -2.886886e-01 -9.404834e-02 -1.502099e-01 -1.043254e+00 -6.620526e-01 7.477387e-02 7.719278e-01 -1.571884e-01 1.817867e+00 6.734754e-01 1.754550e-01 -3.671786e-01 -4.302200e-01 -2.683913e-01 -3.927607e-01 2.751619e-01 -1.117077e-01 -2.889065e-01 4.353400e-01 3.711794e-01 -5.332730e-01 9.026866e-02
<VARIANCE> 39
 7.488898e+01 5.824893e+01 1.815926e+02 1.013995e+02 1.063263e+02 6.917815e+01 7.810011e+01 1.021914e+02 8.633012e+01 5.446671e+01 5.028812e+01 3.242327e+01 3.499975e+01 1.428965e+01 8.388290e+00 1.238708e+01 1.186888e+01 8.697001e+00 9.077506e+00 7.844303e+00 1.001522e+01 1.161577e+01 6.155602e+00 4.969939e+00 4.719928e+00 8.102299e+00 1.068188e+00 1.210636e+00 1.917283e+00 1.782582e+00 1.847383e+00 1.479090e+00 1.627163e+00 1.695683e+00 1.354730e+00 1.101470e+00 8.184443e-01 8.511611e-01 5.952010e-01
<GCONST> 1.582274e+02
<MIXTURE> 13 4.796987e-02
<MEAN> 39
 -7.150665e+00 6.389565e+00 2.053709e+01 6.989305e+00 -1.284717e+01 -7.164138e+00 -4.808098e-02 -2.240773e+00 -8.478302e+00 -1.480051e+00 7.303437e+00 2.220382e+00 3.471380e+00 3.585974e-01 1.111446e-01 -2.291531e-01 -2.547570e-01 -3.875113e-01 -6.318945e-01 -3.651635e-02 1.349828e-01 1.186479e-01 2.780602e-01 3.388377e-01 -2.605382e-01 -2.842558e-02 2.984783e-01 -2.817760e-01 -7.761270e-01 4.774961e-02 5.740057e-01 3.744121e-01 -1.653422e-01 6.825191e-02 5.781808e-01 -4.181903e-02 -3.287390e-01 -4.885329e-02 -4.262910e-01
<VARIANCE> 39
 2.015001e+01 2.222272e+01 4.385550e+01 5.422346e+01 2.890486e+01 5.139075e+01 3.768069e+01 4.984547e+01 3.866897e+01 3.032989e+01 3.577114e+01 3.185125e+01 1.636046e+01 3.748503e+00 4.917080e+00 5.298308e+00 3.425434e+00 7.598526e+00 5.381070e+00 3.933609e+00 2.869817e+00 5.131098e+00 2.262810e+00 4.515268e+00 2.732400e+00 3.852454e+00 4.375367e-01 5.174198e-01 7.349322e-01 7.047967e-01 9.945388e-01 7.389259e-01 6.192520e-01 7.857842e-01 8.253596e-01 4.761255e-01 5.815784e-01 5.017952e-01 3.965077e-01
<GCONST> 1.292956e+02
<MIXTURE> 14 3.164868e-02
<MEAN> 39
 7.217538e+00 1.048378e+01 -6.282016e+00 -1.278369e+01 -3.515897e+00 6.429600e+00 5.426591e+00 1.238307e+00 -8.373569e+00 2.132584e+00 -3.142021e+00 -2.266197e-01 3.887264e-01 6.614567e-02 1.744815e-03 -4.736838e-01 -6.230600e-01 2.898899e-01 1.499263e-01 1.327675e+00 1.344742e-02 -1.793548e-01 3.619793e-01 1.441005e-01 3.671530e-02 -6.696661e-02 -1.103570e-01 -4.785946e-01 -9.549572e-02 2.611920e-01 1.178378e-01 3.667191e-01 -1.648325e-01 -3.693075e-01 2.312024e-01 1.431786e-01 1.877728e-01 -3.866021e-02 1.793043e-01
<VARIANCE> 39
 1.140792e+01 6.880647e+00 5.539474e+01 6.235256e+01 9.920316e+01 7.136125e+01 1.173789e+02 5.600297e+01 5.660641e+01 3.476030e+01 3.101530e+01 3.675696e+01 5.181522e+00 6.459346e-01 1.292039e+00 2.870528e+00 3.391375e+00 2.523746e+00 3.776185e+00 4.643209e+00 6.397185e+00 2.695270e+00 2.695848e+00 2.013509e+00 2.447923e+00 9.321281e-01 1.064878e-01 1.196607e-01 5.212840e-01 5.453631e-01 5.932740e-01 5.365346e-01 7.656717e-01 7.216604e-01 5.949649e-01 5.348547e-01 4.180000e-01 5.025636e-01 1.494086e-01
<GCONST> 1.173955e+02
<MIXTURE> 15 2.584426e-02
<MEAN> 39
 -1.620503e+01 -6.001291e-01 1.053075e+00 -5.785393e+00 3.320423e+00 5.965837e+00 -2.419298e+00 9.242909e+00 8.053235e+00 -1.816854e+00 1.284849e+00 4.363557e+00 5.701285e+00 -1.242686e+00 1.222581e-01 1.083506e+00 6.197782e-01 -1.231652e+00 2.666646e-01 1.559159e-01 3.254071e-01 -1.001453e-01 -7.717988e-01 3.184453e-01 4.391057e-01 -5.310647e-01 1.089078e+00 7.078444e-02 -3.239571e-01 1.193561e-01 1.371827e-02 -6.796980e-01 -1.827173e-01 -2.627711e-01 -4.138003e-01 1.075561e-01 -2.069951e-01 -5.546381e-01 -4.268979e-01
<VARIANCE> 39
 7.508257e+01 2.976771e+01 6.359396e+01 2.803460e+01 5.379655e+01 3.074748e+01 4.051880e+01 5.380859e+01 3.119412e+01 2.975108e+01 3.647678e+01 3.704586e+01 3.375418e+01 1.087166e+01 3.161597e+00 2.153187e+00 3.647281e+00 3.206389e+00 6.043890e+00 4.947150e+00 3.770813e+00 3.375836e+00 3.374439e+00 3.422393e+00 3.219374e+00 5.220379e+00 9.358956e-01 6.460961e-01 4.190491e-01 5.434779e-01 6.990343e-01 6.762938e-01 8.330655e-01 7.695597e-01 6.311433e-01 5.862177e-01 5.490494e-01 5.622420e-01 1.819541e-01
<GCONST> 1.304579e+02
<MIXTURE> 16 3.772569e-02
<MEAN> 39
 5.240926e-01 -5.357416e+00 -5.968397e+00 -6.207524e+00 3.876326e+00 -4.608473e+00 -1.790319e+00 3.887792e+00 7.416079e+00 2.327319e+00 -1.165615e+00 -6.570793e+00 1.202465e+01 1.271789e-02 1.902509e-02 -1.919114e+00 -9.168496e-01 1.546668e+00 -2.775155e-02 9.212881e-01 4.575515e-01 3.245099e-01 6.592110e-02 -6.276716e-01 -9.267299e-01 4.354023e-01 -1.494702e-01 3.124364e-01 4.578913e-01 1.115637e-01 -2.152396e-02 2.592987e-01 -7.008384e-03 -2.387117e-01 -3.200817e-01 -1.062816e-01 8.971387e-02 3.454695e-01 -3.669845e-01
<VARIANCE> 39
 5.742385e+00 7.632185e+00 3.945564e+01 3.930457e+01 5.522154e+01 3.309397e+01 6.326238e+01 6.493999e+01 3.290906e+01 4.676055e+01 4.177659e+01 3.870772e+01 6.305337e+00 5.007330e-01 1.214242e+00 2.536362e+00 2.101572e+00 2.939136e+00 5.308369e+00 3.395153e+00 4.585382e+00 4.106408e+00 3.566083e+00 3.163896e+00 2.473526e+00 5.518788e-01 1.559937e-01 1.794024e-01 3.237221e-01 4.175858e-01 4.087123e-01 4.744714e-01 7.380031e-01 6.641647e-01 7.103892e-01 4.354843e-01 3.331992e-01 4.514301e-01 1.395107e-01
<GCONST> 1.130518e+02
<MIXTURE> 17 4.964667e-02
<MEAN> 39
 6.901563e+00 -2.400978e+00 -2.131218e+00 -5.777710e-01 3.960468e+00 3.478374e-01 -2.214588e+00 1.136562e+01 1.834335e+00 -1.663527e+00 -2.499405e+00 -3.275968e+00 -9.351408e+00 1.859825e-01 -7.108746e-02 3.321582e-02 2.098760e-01 -3.106894e-01 6.890938e-01 6.902280e-01 4.754817e-01 -7.243843e-02 -3.950998e-01 -4.814728e-01 2.197383e-01 -2.115518e+00 -1.022102e+00 -2.179041e-01 2.547803e-01 -2.780475e-02 -5.363615e-01 1.587050e-01 -1.042468e-01 -5.415038e-01 1.753395e-01 2.092467e-02 4.675092e-01 4.044053e-01 1.057194e+00
<VARIANCE> 39
 8.636015e+01 3.293454e+01 9.332735e+01 9.860888e+01 6.368369e+01 8.070462e+01 6.826807e+01 8.966236e+01 6.198315e+01 4.221825e+01 3.260157e+01 2.978290e+01 2.258852e+01 3.154607e+00 3.173689e+00 6.244989e+00 5.475153e+00 6.067034e+00 5.628698e+00 4.563436e+00 7.690053e+00 5.706218e+00 3.477355e+00 3.703271e+00 2.883004e+00 3.315692e+00 4.918989e-01 4.101559e-01 8.504767e-01 1.255884e+00 9.234902e-01 1.067960e+00 1.108811e+00 1.042705e+00 9.938187e-01 7.454169e-01 8.881120e-01 5.208367e-01 4.207045e-01
<GCONST> 1.400259e+02
<MIXTURE> 18 2.157626e-02
<MEAN> 39
 5.334521e+00 3.752134e+00 2.258808e+00 9.033792e+00 -2.948602e+00 -8.219212e+00 -2.628906e+00 -1.091410e+01 -2.752004e+00 4.913359e+00 -1.882128e+00 -6.763327e+00 1.072403e+00 4.305789e-01 1.958099e-01 -5.039674e-01 -1.738980e-01 -1.540529e-03 4.808179e-01 1.517212e-01 -1.289747e+00 4.281461e-01 8.591534e-01 -6.395927e-01 1.019415e-01 -4.097102e-01 -1.345113e-01 -6.744876e-02 3.253175e-01 -2.590089e-01 -1.847826e-01 2.373045e-01 -3.104977e-02 2.855604e-01 -1.524499e-01 -1.414145e-01 4.260199e-03 1.035113e-01 1.649938e-02
<VARIANCE> 39
 6.437487e+00 1.211023e+01 5.147679e+01 4.720268e+01 4.194819e+01 6.337772e+01 7.617423e+01 7.551601e+01 5.374358e+01 5.036152e+01 1.197425e+02 8.004975e+01 5.648213e+00 5.455854e-01 3.674854e-01 2.651256e+00 2.224759e+00 1.449817e+00 3.953756e+00 3.620355e+00 3.497847e+00 4.057287e+00 1.667848e+00 2.618330e+00 1.819256e+00 2.107516e-01 4.740406e-02 9.513668e-02 1.896552e-01 3.490664e-01 2.351261e-01 5.195066e-01 5.906044e-01 5.594054e-01 7.407733e-01 3.481918e-01 4.053036e-01 3.374700e-01 3.396602e-02
<GCONST> 1.074898e+02
<MIXTURE> 19 4.568807e-02
<MEAN> 39
 1.636691e+00 7.421313e+00 9.247190e+00 6.570879e+00 -1.052234e+00 -5.392341e+00 -2.784227e+00 -1.083070e+01 -3.151734e+00 2.068538e+00 -1.596958e+00 -2.079273e+00 -2.662318e+00 -2.788194e-01 -1.053765e+00 -7.714054e-01 -1.275964e+00 1.243858e+00 4.267350e-01 -1.092544e+00 1.046663e+00 4.378005e-01 -6.178433e-02 2.817197e-01 -6.670445e-01 8.504851e-01 -2.050750e-01 -9.084885e-01 -7.766058e-01 -6.343113e-01 6.719126e-02 3.454206e-01 2.300424e-01 1.197449e+00 1.401759e-01 -1.090334e-01 -8.233608e-02 4.400509e-02 7.294369e-01
<VARIANCE> 39
 3.179592e+01 7.339325e+01 5.479106e+01 6.902076e+01 8.111850e+01 8.430405e+01 5.329050e+01 6.631567e+01 5.630251e+01 6.376488e+01 6.838628e+01 5.437249e+01 2.162798e+01 1.191462e+00 4.453544e+00 4.943165e+00 5.000791e+00 5.999340e+00 6.259868e+00 6.592753e+00 1.072877e+01 4.705466e+00 4.608637e+00 4.651693e+00 4.366869e+00 1.905710e+00 2.107440e-01 7.900758e-01 1.028226e+00 1.010340e+00 1.567434e+00 1.107175e+00 1.063482e+00 1.137919e+00 8.420869e-01 1.093552e+00 9.977590e-01 7.627786e-01 1.916965e-01
<GCONST> 1.406258e+02
<MIXTURE> 20 3.180449e-02
<MEAN> 39
 -2.688413e+00 -1.460704e+00 1.295518e+01 2.855680e+00 -1.151771e+01 -8.178864e+00 -9.837516e-01 1.618579e+00 -5.850141e+00 -5.105637e-01 1.057558e+01 -1.009215e+00 8.089917e+00 2.452529e-01 -2.495752e-01 -7.763548e-01 8.770408e-02 4.655583e-01 -2.740547e-01 -6.568635e-02 3.229385e-01 4.649943e-01 -5.480314e-01 2.838175e-01 -1.956582e-01 1.444322e-02 1.728730e-01 -1.398481e-01 -1.537527e-01 2.198859e-01 2.672830e-01 1.685965e-01 -6.665196e-02 -5.663252e-03 6.229407e-02 -1.132821e-01 -3.261509e-01 6.257515e-02 -1.921777e-01
<VARIANCE> 39
 8.022642e+00 1.529273e+01 2.115742e+01 2.828227e+01 4.543219e+01 3.513905e+01 4.174586e+01 6.115789e+01 6.738795e+01 3.001530e+01 4.109461e+01 2.222326e+01 4.639420e+00 2.988800e-01 6.770745e-01 2.391588e+00 1.130005e+00 1.065794e+00 1.592093e+00 1.388955e+00 1.644564e+00 2.643790e+00 1.447142e+00 1.844428e+00 2.081780e+00 3.571232e-01 1.045979e-01 1.101766e-01 1.807867e-01 1.459545e-01 3.800538e-01 3.629012e-01 3.041339e-01 2.828961e-01 3.401496e-01 2.443469e-01 2.607410e-01 4.016928e-01 4.515931e-02
<GCONST> 9.610064e+01
<MIXTURE> 21 3.716996e-02
<MEAN> 39
 7.007515e+00 -7.705036e+00 7.674727e-01 5.519297e+00 -7.944153e-01 -2.523792e+00 -6.009617e+00 4.854783e+00 1.909811e+00 -9.805665e-01 3.700230e+00 -6.229011e-01 2.620552e+00 2.120169e+00 1.978214e-01 5.438079e-01 1.977589e+00 1.022906e+00 2.548331e-01 -1.187263e-01 6.401074e-01 -3.093867e-01 -8.526444e-01 -1.419375e+00 7.236582e-01 -3.471160e+00 -2.278297e-01 5.221539e-01 -2.092559e-02 -7.373048e-01 8.347749e-02 3.395120e-01 5.494090e-01 4.404381e-02 -8.713037e-02 1.436866e-01 -1.651343e-01 -2.991367e-01 -3.445735e-01
<VARIANCE> 39
 2.253795e+01 2.489020e+01 9.122259e+01 6.906511e+01 7.750484e+01 5.425437e+01 4.479887e+01 9.263467e+01 5.749997e+01 4.775172e+01 4.261831e+01 3.132649e+01 1.653189e+01 7.532029e-01 1.386742e+00 2.401030e+00 4.360560e+00 3.696602e+00 4.825938e+00 5.640324e+00 4.032952e+00 3.712327e+00 3.071123e+00 3.290632e+00 2.989393e+00 1.473797e+00 2.892652e-01 2.638107e-01 4.853508e-01 9.133582e-01 1.013763e+00 1.228719e+00 8.036225e-01 1.078597e+00 6.854346e-01 6.430693e-01 5.411428e-01 5.944626e-01 3.373430e-01
<GCONST> 1.285058e+02
<MIXTURE> 22 4.780742e-02
<MEAN> 39
 5.571775e+00 5.180924e+00 -5.160332e+00 -9.418263e+00 -1.287615e+00 7.615307e+00 3.758419e+00 -9.994551e+00 -4.364591e+00 2.782027e+00 -5.610392e+00 -1.112544e+00 3.643309e+00 1.025187e-01 6.985217e-01 5.379958e-01 5.993592e-03 -5.087033e-02 -3.787007e-01 1.832511e-01 -1.095451e-01 -1.746380e-01 -9.134086e-02 -8.524476e-01 -2.790200e-01 -4.631877e-01 -5.524766e-02 -1.124593e-01 1.285861e-02 2.716708e-01 7.807222e-02 -2.271835e-01 -2.189346e-01 2.768243e-01 7.686927e-03 -9.251636e-02 4.433885e-01 -8.062310e-02 -6.117351e-03
<VARIANCE> 39
 4.657860e+00 1.811497e+01 4.925788e+01 6.438647e+01 4.920687e+01 4.065904e+01 6.908889e+01 1.130956e+02 4.037506e+01 5.979580e+01 4.463184e+01 3.601084e+01 5.331429e+00 3.698256e-01 9.026457e-01 1.717826e+00 3.348744e+00 2.240808e+00 2.066160e+00 3.484701e+00 3.593273e+00 2.718075e+00 2.188048e+00 3.793649e+00 1.888253e+00 4.360329e-01 8.382674e-02 1.820775e-01 2.928786e-01 3.769049e-01 3.348048e-01 3.131611e-01 5.682975e-01 7.744546e-01 5.056085e-01 5.164118e-01 4.296436e-01 3.614276e-01 8.537272e-02
<GCONST> 1.100906e+02
<MIXTURE> 23 2.767037e-02
<MEAN> 39
 -1.184647e+01 -1.292338e+01 3.849402e+00 6.492311e+00 -3.098762e+00 4.681753e+00 -4.307893e+00 3.239200e+00 8.074273e+00 -2.596327e+00 -3.912964e-01 3.699575e+00 4.099363e+00 -5.750822e-02 9.362912e-01 -2.464904e-01 -1.003001e+00 2.924569e-01 -9.905391e-01 -1.931459e+00 -1.686355e+00 -8.500288e-01 8.721607e-02 7.467296e-01 -1.171960e+00 4.286430e+00 2.220803e+00 1.612206e+00 -7.344459e-01 -9.250467e-01 2.233286e-01 -4.536811e-01 1.800543e-01 -1.332191e-01 -1.303353e+00 9.120815e-02 3.597569e-01 -6.581768e-01 -1.232021e+00
<VARIANCE> 39
 3.930807e+01 4.631789e+01 8.097476e+01 8.518726e+01 5.462549e+01 6.031353e+01 5.546744e+01 4.338744e+01 4.189996e+01 5.259677e+01 3.801335e+01 2.008246e+01 2.516380e+01 1.236322e+01 1.005229e+01 8.687352e+00 9.728783e+00 6.155730e+00 5.307677e+00 7.125206e+00 1.085334e+01 8.627015e+00 5.518927e+00 4.620914e+00 4.740733e+00 6.604414e+00 6.835547e-01 1.076840e+00 1.340754e+00 2.504891e+00 1.691217e+00 1.631338e+00 1.539917e+00 1.569933e+00 1.107582e+00 1.166831e+00 6.773743e-01 8.386701e-01 6.550878e-01
<GCONST> 1.494727e+02
<MIXTURE> 24 3.180490e-02
<MEAN> 39
 -3.364889e+00 -6.016983e+00 -7.926961e+00 -5.507648e+00 8.126798e+00 -6.352669e+00 8.899492e+00 8.281613e+00 -6.253829e-02 -8.898458e-01 -8.966700e+00 -2.778211e+00 1.018723e+01 -2.679760e-01 -2.473028e-01 5.294603e-01 -1.044395e-01 -1.953943e-01 -1.656231e-01 8.281118e-01 4.570629e-01 -2.475366e-01 -5.738145e-01 2.558978e-01 2.073882e-01 3.563250e-01 1.014422e-01 3.785591e-01 4.363628e-01 -1.178241e-02 -2.238323e-01 1.748463e-01 -4.037656e-01 -3.546995e-01 1.047141e-01 3.145826e-02 3.557166e-01 1.432494e-02 -3.650169e-01
<VARIANCE> 39
 1.341972e+01 1.388920e+01 4.993859e+01 2.303892e+01 5.018957e+01 3.014726e+01 6.511139e+01 3.320136e+01 4.251862e+01 4.137988e+01 2.789149e+01 3.083002e+01 8.379741e+00 1.041901e+00 1.234363e+00 4.340649e+00 2.423587e+00 2.359917e+00 2.723729e+00 5.428701e+00 4.154281e+00 3.247787e+00 4.620393e+00 3.248621e+00 2.646603e+00 1.253090e+00 1.708785e-01 3.411517e-01 5.633252e-01 4.869960e-01 6.064671e-01 3.710707e-01 6.351600e-01 9.883353e-01 5.565299e-01 7.819867e-01 5.254759e-01 5.715110e-01 3.388780e-01
<GCONST> 1.187662e+02
<STATE> 4
<NUMMIXES> 24
<MIXTURE> 1 3.618080e-02
<MEAN> 39
 1.143135e+01 1.275709e+01 -1.533929e+01 -8.526030e+00 -8.647921e+00 1.123906e+01 1.038551e+01 -3.109816e+00 -6.524500e+00 -5.832959e-01 7.564589e-01 7.235129e+00 -2.349081e+00 1.782861e-01 1.306413e-01 -9.034995e-01 -9.372365e-01 -2.503130e-01 6.905974e-01 6.077507e-01 -2.049295e+00 1.973010e-01 1.558927e+00 8.703436e-01 -2.654507e-01 1.152862e+00 -8.345494e-01 -8.841586e-01 6.545588e-01 5.060906e-01 4.699564e-01 3.064634e-01 -4.892527e-01 -1.981005e-01 -7.432476e-02 4.934286e-01 9.847314e-02 -8.840721e-02 -4.838119e-02
<VARIANCE> 39
 6.721723e+00 7.529670e+00 2.811021e+01 3.983722e+01 1.608251e+02 8.373405e+01 3.829102e+01 2.922480e+01 4.371406e+01 4.921691e+01 1.711074e+01 1.755175e+01 1.329243e+01 4.022417e+00 2.861943e+00 5.330233e+00 4.053118e+00 5.011440e+00 6.404080e+00 4.746616e+00 4.226110e+00 2.780078e+00 6.049408e+00 1.319601e+00 2.021129e+00 4.072484e-01 1.207459e+00 4.047139e-01 6.428943e-01 3.261601e-01 1.065267e+00 1.006733e+00 4.517691e-01 7.122254e-01 6.897742e-01 5.983660e-01 4.777526e-01 3.479304e-01 6.020265e-02
<GCONST> 1.211736e+02
<MIXTURE> 2 5.157610e-02
<MEAN> 39
 -2.708064e+01 -7.328289e-01 5.537700e+00 3.735598e+00 2.391048e+00 1.831311e+00 1.837101e+00 3.993645e+00 4.180412e+00 -1.794976e+00 2.039427e+00 7.609951e+00 -2.445987e+00 1.425892e-01 -7.775242e-01 -3.176196e-01 2.677749e-03 -1.795213e-01 3.974810e-01 -8.042273e-02 -3.749022e-01 -1.493973e-01 6.011661e-01 3.783540e-01 1.002883e-01 -4.053411e-01 4.141594e-01 2.409118e-01 -5.188086e-02 -1.372379e-01 1.439936e-01 5.353376e-03 2.884859e-02 4.717543e-02 -1.632684e-01 -2.659379e-01 -6.841705e-02 6.526276e-03 -7.226510e-03
<VARIANCE> 39
 9.390994e+00 6.459959e+01 2.600849e+01 4.316280e+01 3.419003e+01 3.062415e+01 2.159306e+01 2.239133e+01 1.119101e+01 1.624254e+01 2.490510e+01 1.542042e+01 7.486513e+00 6.043452e-01 8.650740e-01 7.373927e-01 1.499097e+00 1.295967e+00 2.001049e+00 2.137611e+00 1.573017e+00 1.578967e+00 1.092379e+00 2.042546e+00 1.071902e+00 2.410894e-01 2.299511e-01 3.121566e-01 1.186448e-01 2.322255e-01 2.439714e-01 5.876881e-01 4.448762e-01 4.693511e-01 2.762246e-01 2.817868e-01 4.451143e-01 1.843345e-01 5.563501e-02
<GCONST> 9.525648e+01
<MIXTURE> 3 6.099495e-02
<MEAN> 39
 -8.319769e-01 8.796060e+00 -4.752437e+00 2.382009e+00 8.822312e+00 -9.980548e+00 -4.108527e+00 -1.074302e+01 8.091458e+00 8.372951e+00 -4.157681e+00 1.560471e-01 -1.390483e+00 3.329751e-02 1.584145e+00 1.503026e+00 1.558656e+00 1.429713e+00 -5.974663e-01 -1.044741e+00 -6.008410e-01 -2.905319e-01 -1.856014e+00 6.672220e-01 1.653278e-01 -2.219126e+00 -1.829392e-01 -1.432734e-01 3.359099e-01 -1.169829e-01 -2.797114e-01 3.251761e-01 5.236074e-01 2.426498e-01 1.454846e-01 -5.925926e-01 2.486281e-03 1.377812e-01 -6.459825e-02
<VARIANCE> 39
 1.717158e+01 2.856343e+01 6.126497e+01 4.436803e+01 6.402299e+01 4.013597e+01 6.561726e+01 6.741526e+01 1.376770e+02 5.821742e+01 6.100563e+01 3.568575e+01 1.682839e+01 7.731360e-01 1.409695e+00 4.336915e+00 2.451702e+00 2.766773e+00 2.814695e+00 4.636597e+00 5.442525e+00 4.985580e+00 5.850196e+00 2.707518e+00 2.772456e+00 6.862988e-01 8.659086e-02 2.509921e-01 5.043982e-01 4.288553e-01 4.400638e-01 6.888638e-01 6.252134e-01 9.676922e-01 9.159060e-01 7.193189e-01 6.171720e-01 3.938850e-01 8.608169e-02
<GCONST> 1.229275e+02
<MIXTURE> 4 4.548798e-02
<MEAN> 39
 1.073655e+01 -8.322035e-01 -1.021579e+01 1.456545e+00 3.483576e+00 1.188675e+01 -7.082057e+00 -4.638230e+00 -2.087467e+00 1.501054e+00 4.849983e+00 7.268984e+00 -8.188125e+00 -1.454569e+00 -1.063971e+00 2.282344e+00 5.602226e-01 1.869182e+00 -1.727045e+00 -8.013623e-01 1.132178e+00 2.199235e+00 -1.293094e+00 -9.093511e-01 -4.137967e-01 -1.150925e+00 -1.072646e+00 -1.110353e-02 5.406787e-01 -3.037086e-01 -8.077201e-01 -3.605246e-01 3.624749e-01 3.011405e-01 2.918236e-01 -1.372524e-01 1.052430e-01 1.187688e-02 6.209489e-01
<VARIANCE> 39
 3.827760e+01 2.208735e+01 5.849512e+01 5.376282e+01 3.221562e+01 2.142597e+01 4.642329e+01 5.566225e+01 6.949949e+01 3.768943e+01 3.654737e+01 2.568073e+01 2.434233e+01 8.779094e+00 4.229121e+00 6.912892e+00 4.989470e+00 9.120489e+00 3.784737e+00 1.192413e+01 1.112458e+01 1.379726e+01 8.034733e+00 4.214024e+00 2.659276e+00 4.794269e+00 8.146114e-01 4.554568e-01 1.258804e+00 1.194237e+00 1.521494e+00 4.337337e-01 1.285337e+00 8.980855e-01 9.532353e-01 6.137417e-01 7.454979e-01 4.953489e-01 4.380840e-01
<GCONST> 1.398349e+02
<MIXTURE> 5 5.231293e-02
<MEAN> 39
 3.773309e-01 -7.516143e+00 -6.737385e-01 2.989756e+00 4.506588e-01 1.067620e+00 1.541449e+00 4.088411e+00 5.329760e-01 -3.214642e+00 -1.861010e+00 4.151000e+00 -2.155717e+01 -9.524446e-02 -3.921272e-01 -4.182066e-01 3.211323e-01 -9.220323e-02 2.431982e-01 2.937970e-01 2.137768e-01 1.708274e-01 -2.809282e-01 9.268995e-04 -1.140785e-01 -4.823092e-01 -6.110051e-02 3.007688e-01 9.898091e-02 -6.189394e-04 1.309176e-01 -1.458237e-01 -6.593727e-02 -2.807071e-01 4.722710e-02 -3.290860e-02 1.781276e-02 -2.917422e-02 2.599798e-01
<VARIANCE> 39
 6.693613e+00 7.028486e+00 1.040281e+01 2.259654e+01 1.726570e+01 7.891204e+00 1.665694e+01 2.192818e+01 1.191236e+01 2.996405e+01 1.690966e+01 2.429873e+01 3.226240e+00 1.829970e-01 2.504507e-01 6.972161e-01 1.034952e+00 7.581584e-01 1.417170e+00 1.586843e+00 2.033800e+00 2.058949e+00 1.625800e+00 1.553084e+00 8.717086e-01 6.676102e-02 9.155131e-02 1.210130e-01 1.517533e-01 1.673239e-01 1.911363e-01 1.992942e-01 3.107719e-01 3.022300e-01 3.732099e-01 2.712590e-01 2.459112e-01 1.633744e-01 4.352066e-02
<GCONST> 7.906103e+01
<MIXTURE> 6 5.716672e-02
<MEAN> 39
 -6.664746e+00 4.414489e+00 1.222408e+01 4.421148e+00 -6.407871e+00 -1.551771e+01 5.670348e+00 6.430519e+00 -4.647064e+00 -3.780856e+00 2.526910e+00 4.758200e+00 8.267933e-01 -3.444827e-01 2.279359e-02 1.357184e+00 3.763262e-01 -7.089139e-01 5.804017e-01 -6.660875e-03 -2.854894e-01 -5.912586e-01 -4.522471e-01 4.656633e-01 5.860057e-01 -8.742529e-01 -3.979581e-01 -4.104709e-01 -4.275517e-01 -3.103030e-01 4.373347e-01 7.760424e-01 -7.344739e-02 -6.912885e-03 3.732378e-01 -1.278805e-02 -1.986610e-01 -1.211634e-01 -1.545050e-01
<VARIANCE> 39
 2.297485e+01 5.685493e+01 9.017953e+01 1.754148e+01 2.915269e+01 1.281512e+02 3.387370e+01 6.124892e+01 3.225152e+01 3.049564e+01 3.042554e+01 2.294046e+01 1.628307e+01 8.476409e+00 3.491994e+00 5.895840e+00 4.426757e+00 3.369977e+00 9.283973e+00 3.108990e+00 4.955777e+00 6.875521e+00 3.604427e+00 2.345982e+00 1.735496e+00 1.662702e+00 7.184501e-01 3.646206e-01 8.760555e-01 7.341315e-01 6.981761e-01 6.414002e-01 7.725044e-01 6.858667e-01 1.155263e+00 7.001529e-01 4.055642e-01 2.734036e-01 9.753164e-02
<GCONST> 1.283031e+02
<MIXTURE> 7 3.396432e-02
<MEAN> 39
 4.292317e+00 6.939724e+00 -1.136368e+01 -1.148420e+01 9.203779e-01 1.050069e+01 6.240182e+00 -1.561919e+01 -7.353508e-01 1.838373e+01 3.018730e+00 -2.307566e-01 5.120776e+00 -4.714199e-01 -1.776572e+00 8.021722e-01 1.342083e+00 -9.556661e-01 1.234708e+00 -2.389138e+00 -1.193724e+00 1.840692e+00 6.591671e-01 -8.853176e-02 -1.265846e-01 4.008572e-01 1.806985e-01 -2.086259e-01 -2.765698e-02 6.296564e-01 1.365236e-01 -3.725457e-01 -5.260876e-01 8.939044e-01 4.778118e-01 -1.400495e+00 -2.052796e-01 4.626958e-01 -4.971126e-01
<VARIANCE> 39
 9.483586e+00 1.753607e+01 4.261458e+01 6.832912e+01 4.161567e+01 6.945181e+01 9.456452e+01 8.108638e+01 3.363717e+01 3.283989e+01 1.935406e+01 3.829053e+01 6.797326e+00 1.370224e+00 4.276346e-01 1.693768e+00 5.279804e+00 2.346067e+00 2.304138e+00 6.448408e+00 8.448440e+00 2.041713e+00 1.177256e+01 2.490107e+00 2.625389e+00 2.793814e+00 3.167615e-01 1.979654e-01 2.177134e-01 4.831768e-01 1.000336e+00 5.180403e-01 1.572472e+00 2.088417e+00 2.788113e-01 1.208919e+00 3.303141e-01 4.711775e-01 1.162597e-01
<GCONST> 1.210503e+02
<MIXTURE> 8 5.838020e-02
<MEAN> 39
 -1.855574e+01 -1.264981e+01 2.990478e+00 3.487513e+00 4.859867e+00 7.703099e+00 -4.457044e+00 3.708109e-01 2.361122e+00 -1.936070e+00 7.814913e-01 5.953441e+00 -4.301435e-01 -1.293462e+00 8.537472e-01 -1.670404e+00 -7.872012e-01 -2.505360e-01 -3.853463e-01 4.943384e-01 5.349334e-01 1.424014e+00 5.454050e-01 -2.268844e-01 2.295607e-02 1.673791e+00 1.802621e+00 1.278812e+00 -9.446593e-02 1.368428e-01 -4.930855e-01 -8.950424e-01 5.160547e-01 1.282219e-01 -4.391072e-01 -1.969099e-01 -7.938936e-02 -1.843824e-01 -6.529391e-01
<VARIANCE> 39
 1.679393e+01 4.174892e+01 1.022048e+02 4.886096e+01 3.953931e+01 4.667113e+01 3.817720e+01 3.762466e+01 3.630251e+01 2.963515e+01 3.143608e+01 2.280226e+01 2.657517e+01 1.972959e+01 9.102941e+00 1.036242e+01 3.756721e+00 5.104813e+00 8.928538e+00 6.137602e+00 2.646042e+00 4.066787e+00 3.412967e+00 3.281527e+00 2.807205e+00 1.015346e+01 6.634092e-01 1.296535e+00 1.599851e+00 1.263786e+00 1.185406e+00 1.551824e+00 8.973343e-01 8.650645e-01 7.880246e-01 8.999030e-01 7.976927e-01 5.821290e-01 6.374478e-01
<GCONST> 1.403485e+02
<MIXTURE> 9 3.181941e-02
<MEAN> 39
 -4.099036e+00 -4.277524e+00 -2.683191e-01 2.405757e+00 8.060663e-01 -1.894552e+00 -3.125285e-01 2.757827e+00 -1.831386e+00 -4.618140e+00 -1.468892e+00 5.466052e+00 -1.956032e+01 1.866708e+00 -2.046575e+00 -8.815668e-01 1.029965e+00 -9.516895e-01 8.429601e-01 4.271919e-01 6.278951e-01 1.666204e-01 7.851435e-02 7.668419e-01 1.431949e-01 -1.865610e+00 -8.210820e-01 1.740997e-01 4.441265e-01 -3.640396e-01 2.530290e-01 4.684299e-01 2.544089e-02 -3.088765e-01 5.291154e-01 2.542914e-01 3.764154e-01 1.514293e-01 8.567219e-01
<VARIANCE> 39
 2.904854e+01 1.340970e+01 1.217348e+01 2.836474e+01 1.986724e+01 2.365771e+01 1.960552e+01 4.111549e+01 1.524887e+01 2.040755e+01 1.930338e+01 1.655068e+01 5.917435e+00 2.949154e+00 1.733749e+00 1.666135e+00 1.637362e+00 1.113992e+00 3.332616e+00 3.444327e+00 2.060586e+00 3.792681e+00 2.825398e+00 2.250546e+00 1.285059e+00 8.688065e-01 5.161526e-01 4.032583e-01 4.857301e-01 1.788886e-01 4.384382e-01 7.364996e-01 3.144978e-01 4.946515e-01 5.327708e-01 4.396233e-01 3.159485e-01 3.653647e-01 2.827652e-01
<GCONST> 1.069391e+02
<MIXTURE> 10 2.767513e-02
<MEAN> 39
 -3.905564e+00 2.661555e+00 -2.235664e+00 5.462284e+00 -8.072507e-01 -2.122383e+00 2.388634e+00 -8.368294e+00 1.504330e+01 6.338386e+00 -5.745703e+00 5.888458e+00 6.233840e+00 -1.586656e-01 3.521166e-01 2.202261e-01 7.656094e-02 6.340671e-01 4.437141e-01 6.949304e-01 -1.595821e-02 5.699747e-01 -1.177385e+00 -5.971088e-01 1.002390e+00 -1.516865e-01 2.927342e-01 2.789264e-01 1.185262e-01 2.245807e-02 1.305691e-01 -2.613126e-01 -5.936093e-01 2.237359e-01 -7.274402e-02 -1.765198e-01 2.292219e-01 -4.782062e-02 -6.599572e-01
<VARIANCE> 39
 3.700750e+00 8.526508e+00 6.631697e+00 3.897029e+01 1.390006e+01 1.654483e+01 5.013422e+01 4.377368e+01 2.068568e+01 3.851117e+01 2.217565e+01 1.859022e+01 8.003740e+00 6.559086e-01 1.125760e+00 8.414608e-01 2.560871e+00 2.892131e+00 2.398572e+00 4.837289e+00 4.666624e+00 2.559616e+00 2.953312e+00 1.038449e+00 1.067257e+00 1.260707e+00 1.267523e-01 1.725074e-01 2.199606e-01 4.821631e-01 2.973403e-01 6.867685e-01 8.942404e-01 3.814888e-01 4.126152e-01 7.857593e-01 2.968242e-01 2.840564e-01 4.517462e-01
<GCONST> 1.033477e+02
<MIXTURE> 11 3.840949e-02
<MEAN> 39
 -3.075146e+00 1.932706e+00 -2.455616e-01 -1.247635e+00 -2.333796e+00 -7.490963e+00 1.667634e-01 1.620702e+00 7.250387e+00 4.790761e+00 4.466172e-01 1.340584e+00 4.800131e+00 1.703925e+00 1.068444e+00 -1.809680e+00 -4.028777e-01 2.729873e-01 -2.049807e+00 1.726598e+00 -1.333048e+00 4.212895e-01 1.792002e+00 -1.218673e+00 -9.823455e-01 1.801969e+00 -8.098805e-02 -8.688164e-01 -1.199170e-01 3.481696e-01 6.976545e-01 1.117056e+00 2.533369e-01 -3.507097e-01 -3.162424e-01 -4.022431e-01 -5.133644e-01 3.003532e-02 -9.659351e-01
<VARIANCE> 39
 2.203932e+01 3.342255e+01 3.312843e+01 5.429886e+01 8.044170e+01 3.679515e+01 5.358510e+01 5.619435e+01 3.311922e+01 5.010390e+01 3.716054e+01 4.494412e+01 1.934614e+01 8.821431e+00 4.310395e+00 6.524412e+00 4.796736e+00 6.451574e+00 6.235052e+00 9.342074e+00 3.425081e+00 5.146352e+00 3.915236e+00 5.704944e+00 3.357767e+00 7.717815e+00 9.749760e-01 6.295030e-01 6.262273e-01 8.741676e-01 1.298110e+00 7.732744e-01 7.529462e-01 4.649294e-01 1.069231e+00 8.474275e-01 5.208077e-01 4.993138e-01 4.938448e-01
<GCONST> 1.375281e+02
<MIXTURE> 12 5.020768e-02
<MEAN> 39
 -2.691805e+01 3.914505e+00 7.297853e+00 5.364991e-02 3.201809e+00 1.382425e+00 2.156830e+00 8.161864e+00 3.732585e+00 -4.443374e+00 2.971802e+00 7.101166e+00 -9.614410e-01 -1.870810e+00 -6.345838e-01 -7.719204e-01 2.923741e-01 1.013342e+00 4.454199e-01 8.539048e-01 8.481253e-01 8.572691e-01 4.905368e-01 -3.791036e-01 1.093898e-01 -2.680649e-01 1.210110e+00 -1.366343e-01 1.695095e-01 1.562788e-01 -7.130675e-02 -1.875798e-02 -5.232302e-01 -4.524811e-01 -4.441728e-02 1.767772e-01 8.562598e-02 -9.753584e-02 -2.422212e-01
<VARIANCE> 39
 1.622989e+01 2.219036e+01 3.649832e+01 5.087144e+01 7.288097e+01 4.308110e+01 5.289281e+01 3.250420e+01 2.568767e+01 1.802144e+01 3.885383e+01 2.118004e+01 8.657823e+00 4.084772e+00 4.788189e+00 3.265616e+00 3.060635e+00 2.550093e+00 4.511702e+00 3.410605e+00 3.130754e+00 2.692829e+00 1.652431e+00 2.741803e+00 1.402373e+00 1.225467e+00 6.027909e-01 1.091510e+00 7.999517e-01 8.152336e-01 6.208851e-01 6.720425e-01 6.677081e-01 5.175327e-01 6.359401e-01 2.889010e-01 6.934736e-01 2.500006e-01 3.522694e-01
<GCONST> 1.214574e+02
<MIXTURE> 13 4.290802e-02
<MEAN> 39
 5.839056e-02 8.133490e+00 8.903704e-01 1.067433e+01 1.542330e+01 -6.081601e+00 5.749097e+00 -1.524259e+01 1.214440e+00 -4.458497e-01 -1.041607e+01 2.223592e+00 -9.941641e+00 -1.830171e-01 2.660907e-01 4.220906e-01 1.164845e+00 -4.823016e-01 8.986255e-01 1.090927e+00 -1.032275e+00 -1.523015e-01 -4.711320e-01 1.319431e-01 8.562124e-01 -1.406006e+00 -5.503236e-02 -6.918063e-01 5.423016e-02 -4.328871e-01 -6.181594e-01 2.152341e-01 -9.000514e-02 9.031540e-01 2.800935e-01 -1.120789e-01 3.419863e-01 2.405376e-01 8.371520e-02
<VARIANCE> 39
 3.792706e+01 4.441690e+01 9.119899e+01 4.357578e+01 6.520905e+01 6.782706e+01 3.537256e+01 2.807160e+01 8.159538e+01 2.827166e+01 3.129978e+01 1.906660e+01 2.628637e+01 8.094821e-01 1.847560e+00 3.315823e+00 2.720226e+00 2.957196e+00 2.086731e+00 3.227312e+00 4.346958e+00 4.392831e+00 2.418408e+00 2.790699e+00 2.864266e+00 3.983412e-01 1.147487e-01 3.120893e-01 8.234537e-01 9.200721e-01 8.922755e-01 5.023485e-01 7.074431e-01 7.513587e-01 4.151070e-01 2.340352e-01 3.541907e-01 5.421943e-01 1.012585e-01
<GCONST> 1.193646e+02
<MIXTURE> 14 3.450301e-02
<MEAN> 39
 -8.373631e-01 -1.523759e+00 5.746004e-01 3.970854e+00 -1.163071e+00 -1.325315e+00 3.582247e-01 1.561629e-01 1.494616e+00 -2.777529e+00 2.598746e-01 3.506923e+00 -1.901147e+01 -2.874458e+00 -4.117400e-01 -1.779573e-01 -1.202305e+00 5.407848e-01 5.050952e-01 1.254837e-01 7.743998e-01 8.936173e-01 1.036974e+00 3.456925e-01 7.239243e-02 2.517672e+00 -1.003884e+00 1.165910e-01 2.298842e-01 -3.569238e-01 1.514379e-01 -1.155953e-01 -7.438634e-02 -2.782232e-01 2.739587e-01 6.717590e-01 -2.357641e-01 -5.066810e-02 1.819271e+00
<VARIANCE> 39
 3.343338e+01 4.809071e+01 2.488787e+01 2.348551e+01 1.040652e+01 3.539066e+01 4.474499e+01 3.755632e+01 2.767967e+01 2.954695e+01 2.978693e+01 1.512617e+01 2.393867e+01 5.556279e+00 6.945644e+00 3.528243e+00 4.390676e+00 2.288816e+00 9.679038e+00 3.192280e+00 5.586032e+00 2.787416e+00 6.113279e+00 1.998924e+00 3.200096e+00 7.371555e+00 7.404497e-01 5.138437e-01 1.010334e+00 5.047157e-01 3.800003e-01 1.158763e+00 7.766046e-01 1.025611e+00 6.052967e-01 1.272056e+00 4.105771e-01 4.638563e-01 3.296097e-01
<GCONST> 1.281031e+02
<MIXTURE> 15 4.607375e-02
<MEAN> 39
 -2.205488e+00 2.254273e+00 -1.121144e+01 -7.857759e+00 5.723722e+00 -8.658577e+00 1.663379e+00 -3.385842e+00 9.419087e+00 7.500318e+00 -3.989218e+00 -1.368316e+00 7.424275e+00 -1.048250e-01 5.460034e-01 6.812989e-01 2.332891e-01 -6.864247e-01 -9.958814e-01 -4.049351e-01 -4.212162e-01 -1.327221e+00 -5.070673e-02 6.692507e-01 3.106800e-01 -7.663170e-01 7.553224e-02 8.704264e-02 3.336138e-01 5.374800e-01 1.852461e-01 -1.698521e-01 -1.080803e-01 3.091761e-02 -3.149451e-01 -7.735185e-02 2.131450e-01 -2.020648e-02 -3.172240e-01
<VARIANCE> 39
 2.171686e+01 2.304310e+01 5.531990e+01 1.688096e+01 5.070280e+01 2.247935e+01 5.234374e+01 1.291855e+02 1.828916e+01 8.288015e+01 3.360952e+01 1.588524e+01 8.062641e+00 2.158371e-01 9.514903e-01 7.408440e-01 2.622212e+00 2.545283e+00 1.862465e+00 4.017974e+00 7.298538e+00 2.604694e+00 2.464642e+00 3.213381e+00 9.758915e-01 3.938485e-01 6.826172e-02 1.103993e-01 1.930552e-01 2.295926e-01 4.354745e-01 2.383548e-01 3.212083e-01 5.633643e-01 3.674600e-01 6.096277e-01 5.090990e-01 1.688006e-01 8.347232e-02
<GCONST> 1.039544e+02
<MIXTURE> 16 3.471782e-02
<MEAN> 39
 9.790262e-01 -4.062381e+00 -8.040118e+00 3.927348e+00 1.966752e+00 1.030277e+01 -1.482854e+01 -3.982332e+00 9.388853e+00 -3.498102e+00 7.735118e+00 7.539516e+00 -1.440748e+00 9.563705e-01 9.635431e-01 -8.629686e-01 -1.229697e+00 -2.439021e+00 4.080737e-02 5.202649e-01 -4.982923e-01 -1.506506e+00 -1.261425e-01 2.331335e+00 1.217394e+00 -1.171197e-01 6.139646e-01 3.861446e-01 -2.221634e-01 -1.914656e-01 -2.487192e-01 1.493528e-02 1.743558e+00 5.488557e-02 -1.063738e+00 8.242400e-01 -4.316953e-01 -4.517911e-01 -4.170491e-01
<VARIANCE> 39
 6.051109e+01 3.083668e+01 6.472249e+01 4.827773e+01 5.836176e+01 7.869355e+01 2.493517e+01 3.889460e+01 4.165885e+01 2.499435e+01 6.339912e+01 3.161811e+01 1.229970e+01 9.888117e+00 2.072621e+00 7.966715e+00 3.637738e+00 5.644198e+00 4.757246e+00 7.512708e+00 3.830479e+00 1.403536e+01 5.636401e+00 6.370996e+00 3.424657e+00 5.703671e+00 7.988468e-01 6.267055e-01 9.728569e-01 1.056469e+00 1.398317e+00 1.325574e+00 9.783403e-01 1.665617e+00 1.125669e+00 1.042459e+00 1.336182e+00 4.506445e-01 2.854308e-01
<GCONST> 1.406974e+02
<MIXTURE> 17 4.683254e-02
<MEAN> 39
 5.701202e+00 1.118813e+00 8.588381e+00 4.159042e+00 -5.130354e-01 -2.157444e+00 1.631765e+00 -1.304309e+00 -7.727408e+00 -6.566384e+00 -2.916417e+00 7.606156e-01 -1.434423e+01 1.393996e-01 -3.296058e-01 -1.493508e+00 1.741128e-02 2.238894e-01 1.061201e+00 -3.823926e-01 1.715648e+00 -3.450975e-01 -4.792545e-01 -9.769523e-01 1.026304e-01 -1.733429e+00 -4.621844e-01 -5.818282e-02 -4.906345e-01 -4.486905e-01 -3.753527e-01 8.093422e-02 -1.604867e-01 1.427895e-01 4.556707e-01 5.248142e-01 3.391367e-01 2.760386e-01 6.458046e-01
<VARIANCE> 39
 2.512950e+01 2.376999e+01 1.028485e+02 5.749544e+01 2.403568e+01 7.863122e+01 2.680080e+01 4.495115e+01 5.853359e+01 6.607811e+01 2.181763e+01 1.660836e+01 1.267529e+01 1.860456e+00 3.888042e+00 5.418055e+00 2.306349e+00 6.289641e+00 5.723946e+00 2.780471e+00 5.134155e+00 4.333981e+00 4.928693e+00 2.348401e+00 2.599348e+00 3.451747e+00 4.516816e-01 3.217016e-01 7.631080e-01 5.381433e-01 7.100456e-01 1.030615e+00 5.833983e-01 6.924406e-01 7.885929e-01 9.546076e-01 4.334015e-01 3.147101e-01 1.555237e-01
<GCONST> 1.267667e+02
<MIXTURE> 18 4.298548e-02
<MEAN> 39
 -3.637190e+00 6.993241e+00 -3.199099e+00 8.286345e+00 1.286346e+01 -1.471094e+00 4.720093e+00 -1.497044e+01 7.989942e+00 -2.023831e+00 -5.204221e+00 7.365256e+00 -1.120350e+01 -2.737178e-01 -2.597583e+00 1.491178e+00 -1.091135e+00 -2.797345e+00 9.270203e-01 9.895944e-02 1.611884e+00 -2.783018e-01 -1.216478e+00 6.761342e-01 1.031287e+00 -1.888166e+00 1.242069e-01 -5.412452e-01 4.412531e-02 -7.470409e-01 -4.678811e-01 -2.527163e-01 -6.793145e-01 9.621029e-01 -5.887567e-01 -1.466001e-01 -1.377674e-01 -5.682917e-01 -3.873223e-05
<VARIANCE> 39
 2.756453e+01 5.005508e+01 3.388593e+01 4.633115e+01 4.550183e+01 1.309114e+02 2.589161e+01 3.866826e+01 9.720364e+01 3.825873e+01 3.227765e+01 2.455739e+01 2.473998e+01 1.392742e+00 2.137681e+00 6.337945e+00 4.942475e+00 3.979333e+00 4.484176e+00 4.833090e+00 5.019462e+00 7.607880e+00 6.484168e+00 3.302383e+00 2.812727e+00 6.473573e-01 2.714992e-01 5.108301e-01 7.660610e-01 9.099551e-01 3.633100e-01 8.862819e-01 7.270381e-01 7.100145e-01 1.412398e+00 9.995157e-01 7.000733e-01 3.157430e-01 9.076798e-02
<GCONST> 1.285754e+02
<MIXTURE> 19 3.688630e-02
<MEAN> 39
 -8.068808e+00 6.463730e+00 7.147882e+00 -2.233582e+00 5.560089e+00 1.615717e+00 -2.930853e+00 -1.952354e+00 3.885924e+00 -7.384990e+00 -6.053331e-01 4.618161e+00 -6.625283e+00 6.437563e-01 1.543327e+00 -6.881356e-01 -1.899326e+00 -4.700446e-01 2.759036e-02 2.205553e+00 5.070683e-01 -8.950260e-01 1.146862e-01 -1.964699e-01 2.685713e-01 1.133685e-01 -6.144300e-02 -3.692944e-01 -1.352659e+00 3.348902e-01 -1.152230e-01 -7.167118e-01 5.319326e-01 -2.964680e-01 -1.934129e-01 1.041416e+00 1.656335e-01 2.621940e-01 3.087489e-01
<VARIANCE> 39
 4.213717e+01 5.718887e+01 1.168165e+02 5.088167e+01 2.499304e+01 1.042004e+02 9.775593e+01 2.686796e+01 4.929120e+01 3.438369e+01 3.447451e+01 1.700436e+01 1.546420e+01 3.275695e+01 1.408002e+01 1.025979e+01 9.779867e+00 6.205425e+00 4.810712e+00 4.636036e+00 6.925028e+00 3.945038e+00 5.424330e+00 5.566094e+00 1.711462e+00 2.967027e+00 9.057621e-01 8.317461e-01 8.026079e-01 1.055468e+00 8.478482e-01 4.407089e-01 1.132449e+00 3.901175e-01 4.524883e-01 9.404920e-01 4.972783e-01 2.762096e-01 2.200556e-01
<GCONST> 1.378492e+02
<MIXTURE> 20 3.712478e-02
<MEAN> 39
 -2.327666e+01 7.778882e-01 5.846480e+00 -1.149467e+00 3.108556e+00 5.210208e+00 6.088768e-01 5.060376e+00 4.491290e+00 -3.292368e+00 2.900486e+00 9.364278e+00 -6.834814e+00 2.764676e+00 2.850330e-01 -1.216910e+00 -1.658387e-01 5.945253e-01 -6.229466e-01 -8.939088e-01 -5.590109e-01 -9.973105e-02 -4.058142e-01 -1.395816e+00 -5.500629e-01 -1.157457e+00 7.959174e-01 -2.642286e-02 -1.694952e-01 3.695168e-01 -3.746513e-01 -6.255474e-01 1.252807e-01 -1.408110e-02 -3.785592e-01 5.146543e-02 -1.743942e-01 -3.115336e-01 1.018081e-01
<VARIANCE> 39
 2.756967e+01 1.700340e+01 1.889661e+01 1.564055e+01 4.229392e+01 4.146374e+01 2.817269e+01 1.655961e+01 2.232465e+01 2.466002e+01 2.524295e+01 2.474335e+01 2.259818e+01 9.374984e+00 2.355827e+00 4.281211e+00 3.105050e+00 1.463597e+00 3.645041e+00 3.461734e+00 3.061125e+00 2.963829e+00 1.952496e+00 1.433549e+00 2.124209e+00 6.901854e+00 9.170847e-01 5.530856e-01 2.388901e-01 4.098353e-01 2.073807e-01 6.155116e-01 6.354736e-01 4.129501e-01 3.818356e-01 2.859909e-01 2.701551e-01 2.795708e-01 3.508872e-01
<GCONST> 1.152708e+02
<MIXTURE> 21 3.856833e-02
<MEAN> 39
 1.428517e+01 4.599202e+00 -1.441555e+01 1.853047e+00 -1.500675e+01 1.480097e+01 1.411561e-02 1.575596e+00 -1.699999e+01 -1.916514e+00 8.958996e+00 1.227693e+01 -5.498124e+00 6.069194e-01 2.459780e-02 -7.753708e-01 -1.783736e-01 1.084736e+00 -4.231745e-01 -3.875242e-01 8.723177e-01 -1.059646e+00 6.668448e-02 -6.912182e-01 6.005108e-01 4.473438e-03 -3.782386e-01 -4.266676e-02 3.859392e-01 5.995298e-03 1.109125e+00 -1.299363e-01 -5.136816e-01 -3.349952e-01 1.242533e+00 -2.969938e-01 -3.954481e-01 -3.593175e-01 -7.470836e-02
<VARIANCE> 39
 8.167479e+00 1.145358e+01 4.300172e+01 3.508522e+01 4.916177e+01 5.493230e+01 3.123785e+01 8.972028e+01 3.607329e+01 2.619647e+01 4.864415e+01 1.888786e+01 6.748076e+00 1.372389e+00 2.352819e+00 4.199021e+00 2.790031e+00 1.645575e+01 4.297443e+00 6.361757e+00 3.576309e+00 8.459133e+00 2.540106e+00 4.125629e+00 2.307139e+00 9.134929e-01 3.556083e-01 1.920755e-01 8.659433e-01 3.399131e-01 6.043609e-01 5.890020e-01 6.477317e-01 1.302096e+00 9.367789e-01 4.165094e-01 8.809516e-01 5.454192e-01 1.071317e-01
<GCONST> 1.221865e+02
<MIXTURE> 22 2.913240e-02
<MEAN> 39
 -1.944742e+00 -1.223243e+00 -1.114117e+01 -3.323736e+00 1.983026e+01 5.580574e-01 2.259382e+00 1.323402e+00 4.911846e+00 7.819966e-02 -1.052728e+01 -1.460301e+00 5.371861e+00 9.013866e-01 -2.158557e-01 -1.798009e+00 1.115435e+00 9.704254e-01 2.796792e-02 1.445533e+00 -1.576730e+00 -3.414458e-02 -1.654199e-01 -1.418017e+00 2.364004e-01 -7.057242e-02 -5.794925e-01 3.351293e-01 9.879618e-01 7.570779e-01 -9.918491e-01 -1.572250e-01 -7.342707e-02 -2.159742e-01 -5.537785e-01 -2.016849e-01 7.579499e-01 3.891897e-01 -5.341241e-01
<VARIANCE> 39
 2.801147e+01 2.219793e+01 2.056485e+01 2.399278e+01 1.060185e+02 6.781552e+01 4.902083e+01 3.433987e+01 1.142389e+02 6.125433e+01 2.858829e+01 3.784085e+01 1.387754e+01 3.987406e+00 2.455952e+00 4.379119e+00 4.882392e+00 7.690996e+00 8.961437e+00 5.917948e+00 5.964509e+00 3.185168e+00 4.027265e+00 2.397957e+00 3.374198e+00 3.872960e+00 9.160425e-01 6.504751e-01 3.770029e-01 2.542505e-01 5.907134e-01 4.804247e-01 1.268754e+00 2.065914e+00 1.006621e+00 8.472669e-01 4.915669e-01 5.033793e-01 1.143619e-01
<GCONST> 1.313447e+02
<MIXTURE> 23 3.209764e-02
<MEAN> 39
 -1.664943e+00 -4.825730e+00 1.493885e+00 3.213669e+00 1.058361e+00 7.892803e-01 -1.380955e+00 -5.226165e+00 4.274880e+00 -5.755346e+00 -4.301929e+00 7.137592e+00 -1.833875e+01 4.934455e-01 -2.177732e+00 2.499003e-01 -8.149987e-01 -2.047171e+00 2.717850e-01 -1.380570e+00 2.063810e+00 -1.474866e+00 -7.719637e-01 1.077967e-01 -5.182124e-01 -1.521972e+00 1.291728e-01 5.609344e-01 -4.572794e-01 5.445369e-01 8.107697e-01 2.231394e-01 4.376026e-01 -3.138990e-01 -2.106333e-01 3.355499e-01 1.203579e-01 -1.578359e-01 3.146895e-01
<VARIANCE> 39
 1.698745e+01 1.722332e+01 3.186863e+01 5.322095e+01 2.343422e+01 2.399556e+01 4.065828e+01 3.384283e+01 2.737303e+01 6.842586e+01 3.642863e+01 1.241782e+01 9.144070e+00 1.845897e+00 2.481024e+00 2.993339e+00 3.490607e+00 2.161510e+00 4.915355e+00 2.754805e+00 4.247729e+00 5.600755e+00 4.696315e+00 2.268271e+00 2.044858e+00 4.540998e-01 1.569948e-01 1.990485e-01 4.720984e-01 5.366154e-01 1.952950e-01 6.905976e-01 5.472825e-01 7.240330e-01 1.045983e+00 9.982060e-01 4.869417e-01 2.862137e-01 6.295992e-02
<GCONST> 1.144588e+02
<MIXTURE> 24 3.399188e-02
<MEAN> 39
 -2.931370e+00 3.097050e-01 -7.506326e+00 3.615527e+00 3.349590e-02 -5.952587e+00 8.072417e+00 -2.762113e+00 1.385992e+01 3.192989e+00 -5.873087e+00 3.948252e+00 9.066332e+00 4.134758e-01 2.970017e-01 -1.016598e+00 -6.998560e-01 1.003624e+00 -6.582063e-01 -3.264206e-02 -1.024581e+00 2.344486e-02 1.368935e+00 -7.066742e-01 -1.053046e+00 -5.609604e-01 -3.357122e-02 2.293292e-01 4.559629e-01 -2.793048e-02 1.492504e-01 1.534553e-01 -6.225654e-01 -2.618903e-01 -3.189367e-01 8.405515e-02 2.627115e-01 1.789532e-02 -4.614571e-01
<VARIANCE> 39
 6.004694e+00 8.126089e+00 2.083138e+01 7.454703e+00 5.299730e+01 9.875237e+00 2.304244e+01 1.389084e+01 9.158866e+00 2.896999e+01 2.292463e+01 3.520317e+01 3.291597e+00 4.621674e-01 8.907749e-01 1.224068e+00 2.052750e+00 4.733503e+00 1.907423e+00 2.365365e+00 2.264635e+00 1.731022e+00 1.650974e+00 1.254779e+00 1.500013e+00 5.739895e-01 1.096413e-01 2.753691e-01 3.517934e-01 3.678037e-01 5.427939e-01 4.149806e-01 4.212959e-01 2.735499e-01 2.568399e-01 3.160753e-01 2.168589e-01 3.975319e-01 8.014881e-02
<GCONST> 9.446239e+01
<TRANSP> 5
 0.000000e+00 1.000000e+00 0.000000e+00 0.000000e+00 0.000000e+00
 0.000000e+00 9.443411e-01 5.565894e-02 0.000000e+00 0.000000e+00
 0.000000e+00 0.000000e+00 9.938775e-01 6.122523e-03 0.000000e+00
 0.000000e+00 0.000000e+00 0.000000e+00 9.753505e-01 2.464949e-02
 0.000000e+00 0.000000e+00 0.000000e+00 0.000000e+00 0.000000e+00
<ENDHMM>
~h "M002"
<BEGINHMM>
<NUMSTATES> 5
<STATE> 2
<NUMMIXES> 24
<MIXTURE> 1 3.463335e-02
<MEAN> 39
 -8.657938e-01 -2.773110e-01 -2.059142e+00 7.762278e+00 6.832784e+00 -2.380351e+00 1.243925e+01 -6.898825e-01 3.738987e-01 -3.044154e+00 -2.942362e+00 4.636097e+00 -2.967112e+01 -9.261001e-01 9.524680e-01 9.324600e-01 3.156095e-01 4.729073e-01 4.599902e-01 -4.348356e-01 -2.784920e-01 3.758537e-01 3.056053e-01 2.945281e-01 -9.804417e-02 2.581946e+00 -1.601100e-01 3.162212e-01 2.370817e-01 -5.027876e-01 -1.808813e-01 -1.324467e-01 -3.305472e-01 -1.191974e-01 -2.756585e-02 4.166557e-01 1.355297e-01 -4.421778e-02 1.501396e+00
<VARIANCE> 39
 7.992719e+00 2.262607e+01 1.982247e+01 1.533323e+01 3.087680e+01 2.391425e+01 3.383525e+01 2.841196e+01 1.886720e+01 2.839975e+01 2.785251e+01 2.290363e+01 1.167287e+01 4.299179e+00 2.321131e+00 4.718397e+00 2.074598e+00 2.727786e+00 4.749559e+00 2.017664e+00 2.612409e+00 3.022757e+00 3.004378e+00 2.848578e+00 1.821649e+00 7.051322e+00 5.398976e-01 2.272314e-01 5.155153e-01 7.256849e-01 4.407238e-01 6.795692e-01 3.752338e-01 3.026507e-01 3.839356e-01 5.267410e-01 4.098456e-01 2.388577e-01 6.364692e-01
<GCONST> 1.150388e+02
<MIXTURE> 2 2.382960e-02
<MEAN> 39
 9.405291e-01 -2.154594e+00 -1.280706e+01 -3.296440e+00 3.331383e-01 1.251490e+01 9.145654e-02 -1.254495e+00 -8.193957e+00 5.298909e-01 -1.622726e-01 3.013527e+00 2.392862e+00 1.056283e-02 3.954135e-02 8.267240e-02 6.825192e-02 1.138098e-01 6.072702e-02 -3.306802e-02 -8.535698e-02 2.086906e-01 -1.776428e-01 -9.801555e-02 2.663398e-01 -2.772952e-02 -7.842957e-03 -2.119498e-02 4.675410e-03 1.270198e-01 1.929042e-01 7.162764e-02 -5.026980e-02 9.450293e-02 1.226841e-01 5.326652e-02 -5.214870e-02 -1.556572e-01 1.729892e-02
<VARIANCE> 39
 9.495785e-01 1.813110e+00 1.893255e+01 6.651851e+00 6.637918e+00 1.914860e+01 1.323002e+01 9.890956e+00 1.385355e+01 1.429404e+01 1.114830e+01 7.831243e+00 1.316271e+00 7.476200e-02 1.620977e-01 1.137261e+00 5.960082e-01 1.118888e+00 1.428772e+00 1.067111e+00 7.009091e-01 1.033343e+00 1.397799e+00 1.571560e+00 1.080590e+00 8.591831e-02 1.127360e-02 2.915469e-02 1.065341e-01 1.324758e-01 2.423962e-01 2.018058e-01 1.736831e-01 2.127502e-01 2.074748e-01 2.921095e-01 3.161404e-01 1.865496e-01 7.415683e-03
<GCONST> 6.149277e+01
<MIXTURE> 3 3.407204e-02
<MEAN> 39
 5.994881e+00 -6.704915e-01 -2.330893e+01 -4.264955e+00 -4.483892e+00 1.528888e+01 -4.235925e+00 6.826312e+00 -3.465057e+00 8.980227e+00 -1.877541e+00 -3.210843e-01 7.224251e+00 -1.596269e-02 6.481706e-02 2.694964e-01 6.599656e-02 1.703892e-01 2.153392e-01 3.635597e-01 2.404128e-01 8.145955e-02 2.548993e-01 5.112343e-01 1.519542e-01 -3.642588e-02 -4.095521e-02 -5.650096e-02 -1.430467e-01 -1.260323e-01 -1.413540e-01 -8.950272e-02 -9.012041e-02 -1.874658e-01 -3.441328e-01 -1.673265e-01 -2.888571e-02 9.852343e-02 2.140441e-02
<VARIANCE> 39
 5.210889e+00 6.448421e+00 1.157938e+01 6.348753e+00 1.348447e+01 1.524641e+01 2.204473e+01 1.431285e+01 1.081433e+01 1.004647e+01 1.137784e+01 8.900797e+00 3.067342e+00 7.433110e-02 1.541502e-01 5.205767e-01 4.749535e-01 8.613176e-01 8.496692e-01 6.984007e-01 8.437890e-01 1.225003e+00 1.160892e+00 1.224543e+00 1.397139e+00 3.783863e-02 1.221348e-02 2.703792e-02 1.049756e-01 7.418451e-02 1.423688e-01 1.840992e-01 1.688338e-01 1.799002e-01 1.590280e-01 2.527894e-01 3.002740e-01 2.390093e-01 6.285803e-03
<GCONST> 6.097898e+01
<MIXTURE> 4 2.944603e-02
<MEAN> 39
 -6.672540e-01 2.862637e-01 3.442498e+00 5.235217e-01 3.492424e-01 -4.025413e+00 -1.240207e+00 -2.639421e+00 7.242342e-02 -5.923964e-01 5.354642e-01 -5.175492e-01 -1.026698e+00 1.774943e-01 2.566198e-01 1.945162e-01 3.515433e-01 5.913582e-01 7.556168e-01 7.194756e-01 5.196078e-01 7.056018e-01 6.839169e-01 3.339938e-01 1.339599e-01 7.412674e-02 -4.839377e-02 -2.190383e-02 1.525219e-01 1.461444e-01 1.619992e-01 1.733996e-01 2.944397e-01 2.288857e-01 1.674963e-01 -8.462694e-02 7.658643e-02 4.122267e-02 -3.220413e-02
<VARIANCE> 39
 7.302016e-01 9.948469e-01 3.955709e+00 2.602412e+00 4.796686e+00 7.122058e+00 4.196883e+00 6.575238e+00 3.046375e+00 4.188030e+00 4.095639e+00 1.026484e+01 8.285324e-01 5.207009e-02 1.566362e-01 3.221302e-01 3.875836e-01 5.014731e-01 4.692073e-01 7.920781e-01 6.987396e-01 1.165865e+00 3.878322e-01 1.262352e+00 1.038569e+00 3.408687e-02 7.167995e-03 2.619266e-02 5.000810e-02 6.758498e-02 1.011651e-01 8.634685e-02 1.569516e-01 1.993537e-01 1.269096e-01 1.902435e-01 1.960078e-01 2.309016e-01 4.365372e-03
<GCONST> 3.907649e+01
<MIXTURE> 5 1.936694e-02
<MEAN> 39
 1.478438e+00 4.164794e+00 8.601168e+00 3.009081e+00 -4.714998e-01 -5.365997e+00 -2.434346e+00 -4.051368e+00 -2.902641e+00 -4.260952e+00 -3.887045e+00 -1.899105e+00 -4.771465e-01 -8.091059e-02 -9.079422e-03 1.586466e-01 2.053970e-01 3.030109e-01 1.483579e-01 2.024314e-01 -2.228588e-01 -3.606056e-01 -1.718490e-01 -1.819016e-01 -1.693192e-01 -4.889214e-02 -5.754693e-03 -2.204866e-02 -1.493275e-01 -1.713407e-01 -1.261519e-01 -9.386194e-02 -3.956699e-02 8.166866e-02 2.309908e-01 2.299196e-01 1.531551e-01 1.572010e-01 8.011517e-03
<VARIANCE> 39
 1.912123e+00 2.457440e+00 6.523504e+00 5.747888e+00 1.092462e+01 5.349150e+00 5.277592e+00 1.155053e+01 1.027616e+01 1.157737e+01 1.268709e+01 1.079501e+01 8.285324e-01 6.402841e-02 1.703977e-01 3.056732e-01 7.289832e-01 1.194801e+00 6.743300e-01 7.736763e-01 1.038436e+00 1.518000e+00 1.059041e+00 9.366899e-01 1.324305e+00 3.408687e-02 1.183278e-02 2.513090e-02 5.530394e-02 1.067958e-01 2.231575e-01 1.493057e-01 1.620277e-01 2.595597e-01 2.725818e-01 3.784350e-01 2.470925e-01 3.172577e-01 4.375032e-03
<GCONST> 5.532238e+01
<MIXTURE> 6 4.146618e-02
<MEAN> 39
 -2.803327e+00 -2.179149e+00 3.426387e+00 -5.931240e-01 2.610133e+00 -5.745082e-02 5.230139e+00 1.945708e+00 3.545635e+00 -2.993701e-01 2.316178e+00 1.086612e+00 -2.274472e+00 -3.466179e-02 5.110477e-02 8.356667e-02 2.335074e-02 -3.234973e-03 -2.652336e-01 -2.189255e-02 -4.675032e-03 5.512707e-02 -1.349151e-01 3.091422e-01 3.946212e-01 -3.785128e-02 1.066803e-01 1.866618e-01 2.680281e-01 2.999728e-01 1.714385e-01 -1.663286e-01 -2.797012e-01 -2.542508e-01 -5.040541e-02 -1.315958e-01 -9.815166e-02 -1.063724e-01 1.874438e-02
<VARIANCE> 39
 9.337343e-01 1.246216e+00 7.003186e+00 2.780021e+00 4.798164e+00 8.600921e+00 6.555173e+00 7.918564e+00 9.309381e+00 1.021435e+01 7.438273e+00 1.094389e+01 8.285324e-01 8.261211e-02 1.691418e-01 4.111182e-01 3.788399e-01 4.689227e-01 1.063629e+00 1.072364e+00 1.588320e+00 1.024651e+00 7.733950e-01 1.083173e+00 1.128161e+00 3.408687e-02 1.278108e-02 2.676937e-02 5.747734e-02 5.341843e-02 9.192955e-02 1.473471e-01 1.316957e-01 1.661717e-01 2.395752e-01 1.439262e-01 2.531905e-01 2.443192e-01 5.146624e-03
<GCONST> 4.821951e+01
<MIXTURE> 7 5.349595e-02
<MEAN> 39
 -1.702937e+00 -5.927327e-01 4.218452e+00 -7.904008e-01 -1.385443e+00 -5.459219e+00 -5.205657e-01 -1.468901e+00 1.164777e-01 -3.421859e+00 -1.417764e+00 -1.310082e+00 -1.772385e+00 2.925316e-02 -1.384247e-02 -4.178815e-02 -1.456383e-01 -1.615797e-01 6.625295e-02 1.796426e-01 2.208408e-01 -2.313068e-01 -7.613070e-02 -1.686661e-01 -9.364451e-02 4.624295e-02 1.378950e-01 1.803480e-01 8.266502e-02 2.816361e-01 3.225613e-01 3.203917e-01 2.120760e-01 8.218928e-02 1.504273e-01 2.950255e-01 2.804311e-01 2.162857e-01 7.111835e-02
<VARIANCE> 39
 7.302016e-01 1.209962e+00 5.255442e+00 2.759779e+00 4.540561e+00 6.030427e+00 7.582653e+00 6.097422e+00 9.888326e+00 8.900145e+00 9.002553e+00 7.201729e+00 8.285324e-01 7.479417e-02 2.529489e-01 4.007421e-01 4.769732e-01 5.177069e-01 7.201814e-01 8.619584e-01 1.010266e+00 1.348665e+00 1.664012e+00 1.013686e+00 1.239975e+00 3.408687e-02 9.970639e-03 2.907773e-02 8.183772e-02 8.344535e-02 1.145977e-01 1.596919e-01 2.031050e-01 1.494625e-01 2.790706e-01 2.746455e-01 2.488563e-01 1.550510e-01 4.365372e-03
<GCONST> 4.885791e+01
<MIXTURE> 8 3.862164e-02
<MEAN> 39
 3.676861e+00 4.734772e+00 -1.156135e+00 -6.640960e+00 -1.260558e+01 -6.361334e+00 -3.139560e+00 3.279435e+00 -6.656709e-01 1.855331e+00 -2.845876e+00 1.294724e+00 1.793336e+00 -1.277092e-01 -3.212372e-02 3.507503e-01 1.533035e-01 2.226963e-01 -1.187339e-01 1.502285e-01 4.224472e-02 3.387159e-01 -7.405899e-02 8.180293e-02 -5.977494e-02 -1.319725e-01 -3.813237e-03 -1.093256e-02 1.996054e-02 5.417499e-02 7.022297e-02 6.097391e-02 7.597256e-02 -1.285434e-02 -4.211890e-02 -5.799507e-02 -8.604098e-02 -1.018203e-01 1.154959e-03
<VARIANCE> 39
 3.076405e+00 3.284783e+00 1.999537e+01 1.203572e+01 1.230525e+01 1.452746e+01 3.172037e+01 4.686970e+01 2.784123e+01 1.190293e+01 1.304203e+01 1.751284e+01 2.118039e+00 9.471066e-02 1.235445e-01 2.645036e-01 3.478271e-01 1.176520e+00 9.661313e-01 1.456137e+00 1.227765e+00 9.415372e-01 1.868261e+00 2.050774e+00 1.328451e+00 3.408687e-02 1.871982e-02 2.278402e-02 4.301407e-02 4.736108e-02 2.049029e-01 1.942032e-01 3.018601e-01 2.459417e-01 1.834385e-01 3.771007e-01 4.019302e-01 2.786805e-01 6.029856e-03
<GCONST> 6.626026e+01
<MIXTURE> 9 4.626310e-02
<MEAN> 39
 -1.416101e+00 -2.368844e+00 -1.778041e+00 2.431372e+00 7.032966e+00 5.097445e+00 -5.645661e-01 -3.050348e+00 4.819921e-01 2.594484e+00 2.804440e+00 -8.890836e-01 -5.780138e-01 4.178976e-03 -4.550868e-03 -1.008005e-01 -1.659651e-01 -1.394717e-01 3.561141e-02 2.160298e-01 1.957448e-01 1.014275e-01 4.412696e-02 -1.931852e-01 -4.946721e-02 -2.378790e-02 3.402928e-02 4.060923e-02 -1.440968e-02 -7.501543e-02 -1.519427e-01 -1.285833e-01 -4.343634e-02 9.106183e-02 1.113445e-01 6.335332e-02 3.976198e-02 1.862863e-02 1.526962e-02
<VARIANCE> 39
 7.302016e-01 1.753073e+00 1.238601e+01 3.069275e+00 3.955974e+00 8.923236e+00 9.043164e+00 6.961487e+00 9.454572e+00 1.204090e+01 1.430498e+01 1.146788e+01 8.285324e-01 8.971937e-02 2.196715e-01 8.081968e-01 5.032836e-01 8.793531e-01 1.234417e+00 1.513095e+00 9.733192e-01 1.234376e+00 1.442090e+00 1.510007e+00 1.343838e+00 3.408687e-02 1.839245e-02 3.850111e-02 1.837082e-01 9.995963e-02 1.956708e-01 2.931043e-01 3.125834e-01 1.754557e-01 2.990472e-01 3.106171e-01 3.700660e-01 3.286043e-01 4.518522e-03
<GCONST> 5.956869e+01
<MIXTURE> 10 4.975229e-02
<MEAN> 39
 -6.442305e-01 1.299306e+00 5.261847e+00 -8.856167e-01 -2.072394e+00 -4.620683e+00 2.308556e+00 9.807642e-01 2.121078e+00 -5.186222e-01 -1.760998e-01 -5.837497e-01 -1.277374e+00 7.995883e-02 1.002446e-01 -8.447917e-02 2.044993e-02 7.085437e-02 -4.444087e-02 -3.730978e-02 -2.103600e-02 6.546651e-03 6.985451e-02 2.360064e-01 4.549869e-02 4.993001e-02 -3.713395e-02 -1.218729e-01 -1.259427e-02 3.192449e-01 4.375335e-01 1.507756e-01 -2.835609e-01 -3.130431e-01 -7.208773e-02 -8.755422e-02 1.160472e-01 6.631143e-02 -1.527240e-02
<VARIANCE> 39
 7.302016e-01 1.151149e+00 2.453449e+00 2.471942e+00 2.737723e+00 3.740838e+00 3.732451e+00 7.738412e+00 9.092518e+00 9.628382e+00 7.627186e+00 7.485778e+00 8.285324e-01 7.953664e-02 1.649318e-01 3.890268e-01 4.642573e-01 7.037652e-01 7.115800e-01 1.076428e+00 9.485897e-01 1.302533e+00 1.246447e+00 1.055119e+00 7.680008e-01 3.408687e-02 1.293506e-02 3.511121e-02 6.583785e-02 9.278329e-02 6.676677e-02 1.185683e-01 1.227886e-01 1.625721e-01 2.983560e-01 2.540025e-01 2.166321e-01 1.728674e-01 6.101209e-03
<GCONST> 4.499230e+01
<MIXTURE> 11 3.943765e-02
<MEAN> 39
 -3.744104e+00 -1.444154e+00 8.403785e+00 1.786704e+00 3.192830e+00 -6.061834e+00 2.702634e+00 -1.599719e-01 5.295702e+00 -2.091085e+00 1.235661e+00 -1.354880e+00 -3.571114e+00 -3.825276e-03 -1.696687e-02 1.651908e-01 1.730331e-01 9.505010e-02 4.415576e-02 2.827443e-02 -3.359869e-02 2.610088e-02 1.007304e-01 1.187987e-01 -1.368975e-01 -3.786129e-03 3.736272e-02 1.632236e-02 2.888334e-02 1.256193e-01 1.893175e-01 2.904637e-01 3.019280e-01 1.748161e-01 3.670507e-04 2.532290e-02 1.216420e-01 1.947757e-01 2.411644e-02
<VARIANCE> 39
 7.302016e-01 1.336402e+00 2.478146e+00 1.805754e+00 4.330860e+00 4.697068e+00 4.703069e+00 6.683940e+00 8.143404e+00 1.117412e+01 7.168266e+00 9.475998e+00 8.285324e-01 1.120467e-01 1.963881e-01 3.096361e-01 3.693260e-01 7.914953e-01 1.311117e+00 1.002629e+00 1.232113e+00 1.209145e+00 1.015039e+00 9.559879e-01 1.145984e+00 3.408687e-02 1.534905e-02 2.948746e-02 5.368006e-02 4.107035e-02 1.120577e-01 1.516756e-01 1.370939e-01 2.297921e-01 2.335633e-01 2.514577e-01 1.499794e-01 2.491001e-01 4.365372e-03
<GCONST> 4.642760e+01
<MIXTURE> 12 3.893220e-02
<MEAN> 39
 -3.184787e-01 1.236081e-01 3.344714e+00 1.923458e+00 2.737463e+00 -2.462910e-01 3.413385e-01 -6.487203e-01 2.328062e+00 2.050299e+00 3.776904e+00 1.212783e+00 -7.321390e-01 -1.218837e-01 -2.260325e-01 1.226432e-01 3.036078e-01 4.953062e-01 2.172649e-01 -1.943140e-01 -2.109500e-01 2.477496e-01 3.182981e-01 3.871855e-01 3.032378e-01 -3.671150e-02 -1.030073e-01 -5.093457e-02 4.902298e-02 -1.855838e-01 -2.183575e-01 -2.708143e-01 -6.492631e-03 -1.459979e-01 -2.532614e-01 -4.268325e-01 -5.191300e-01 -1.905171e-01 -7.066171e-02
<VARIANCE> 39
 7.302016e-01 9.253519e-01 3.738804e+00 4.871055e+00 5.221349e+00 8.382277e+00 6.485835e+00 5.752819e+00 6.288594e+00 5.922497e+00 7.600187e+00 9.406331e+00 8.285324e-01 6.396321e-02 8.349569e-02 2.618312e-01 5.931602e-01 6.040156e-01 4.686898e-01 8.545765e-01 7.439661e-01 1.335819e+00 1.320711e+00 1.428507e+00 8.526232e-01 3.408687e-02 1.235014e-02 3.185529e-02 6.368572e-02 1.031169e-01 1.366303e-01 1.912472e-01 1.662252e-01 1.562345e-01 2.016126e-01 1.967921e-01 1.641701e-01 1.864401e-01 5.075096e-03
<GCONST> 4.570210e+01
<MIXTURE> 13 5.550829e-02
<MEAN> 39
 -1.357116e+00 3.269928e-01 6.359512e+00 1.940226e+00 1.859511e+00 -2.408005e+00 4.250525e+00 1.095051e+00 1.743826e+00 -3.161020e+00 1.507314e-01 8.929146e-02 -1.767572e+00 8.531458e-02 1.083328e-01 9.849635e-02 3.735467e-01 5.479905e-01 3.224140e-01 -4.402891e-02 -1.179766e-01 -5.009704e-02 2.175668e-01 3.521570e-01 3.057660e-01 5.608514e-02 2.355296e-02 -1.529110e-02 -1.837069e-01 -1.410797e-01 -4.418565e-02 -7.243802e-02 -3.108579e-01 -1.315149e-01 1.275205e-01 2.737967e-01 -2.003291e-03 -4.601802e-02 2.172526e-02
<VARIANCE> 39
 7.302016e-01 9.219781e-01 3.482719e+00 1.786379e+00 3.581375e+00 5.316603e+00 6.709597e+00 5.660421e+00 6.396832e+00 5.617404e+00 7.332654e+00 7.744457e+00 8.285324e-01 7.495410e-02 1.861092e-01 4.443406e-01 3.366207e-01 4.735557e-01 1.142134e+00 1.121714e+00 9.853041e-01 1.020019e+00 1.214620e+00 1.066855e+00 7.302095e-01 3.408687e-02 1.455540e-02 2.736485e-02 8.466110e-02 4.846013e-02 7.698960e-02 1.274889e-01 1.652854e-01 1.511431e-01 1.867506e-01 1.377964e-01 1.788903e-01 1.663596e-01 4.365372e-03
<GCONST> 4.277853e+01
<MIXTURE> 14 4.856877e-02
<MEAN> 39
 -3.251899e+00 -1.027407e+00 9.052236e+00 3.607781e+00 5.665389e+00 -2.610093e+00 5.960686e+00 2.426950e+00 6.203588e+00 -1.564734e+00 1.715524e+00 -3.893766e-01 -3.248951e+00 2.802274e-02 1.417777e-02 -1.239895e-01 -1.216271e-01 -6.921544e-02 7.475781e-02 1.636722e-01 1.572028e-01 -2.489517e-02 -1.204910e-01 -2.410153e-01 6.866464e-02 9.863412e-03 -2.093812e-03 -2.065914e-02 -1.554097e-01 -2.273879e-01 -2.852060e-01 -1.826815e-01 -2.580978e-01 -2.084539e-01 -1.197918e-01 3.256637e-02 -6.009870e-02 -2.915348e-02 7.069082e-03
<VARIANCE> 39
 7.302016e-01 1.581082e+00 4.048069e+00 2.472111e+00 4.381191e+00 1.062957e+01 7.305053e+00 1.125175e+01 9.155811e+00 6.638805e+00 7.694026e+00 8.043041e+00 8.285324e-01 7.864318e-02 2.175412e-01 6.218634e-01 5.559613e-01 8.423314e-01 7.917966e-01 8.862786e-01 1.318777e+00 1.139750e+00 6.969558e-01 8.708574e-01 9.749951e-01 3.833039e-02 1.803315e-02 3.580017e-02 9.614511e-02 6.273456e-02 1.239507e-01 2.053096e-01 1.533865e-01 3.026469e-01 2.489979e-01 9.744181e-02 1.986046e-01 1.774443e-01 6.914263e-03
<GCONST> 5.014832e+01
<MIXTURE> 15 4.841656e-02
<MEAN> 39
 8.041451e+00 4.906227e+00 -1.293267e+01 -7.133961e+00 -1.748263e+01 1.181078e+00 -6.620873e+00 5.382767e-01 -1.208276e+01 -2.089469e-01 -5.894933e+00 7.271985e-01 7.284762e+00 -1.028935e-02 5.745875e-02 1.637276e-01 -4.953528e-02 -2.679147e-02 -1.711285e-01 5.339820e-02 -2.861830e-03 1.430887e-02 -9.803390e-02 -1.196428e-01 -2.431336e-02 -4.510013e-02 -2.309624e-02 -2.231250e-02 -1.291264e-02 7.347342e-03 6.775282e-02 3.863186e-02 2.816944e-02 5.655690e-02 9.053084e-02 4.539359e-02 5.740502e-02 4.389950e-02 -1.910173e-02
<VARIANCE> 39
 1.412066e+00 4.802207e+00 3.524196e+01 3.711697e+00 1.145183e+01 1.667320e+01 1.052829e+01 2.932824e+01 1.738182e+01 2.268367e+01 2.349051e+01 1.442342e+01 2.696489e+00 8.108994e-02 1.669144e-01 9.008485e-01 2.749932e-01 8.814477e-01 1.306073e+00 1.061915e+00 1.865986e+00 1.443770e+00 1.148781e+00 1.444278e+00 1.360571e+00 9.104907e-02 1.428851e-02 2.910947e-02 1.971589e-01 5.096462e-02 1.842164e-01 3.058842e-01 2.153032e-01 3.211620e-01 2.547442e-01 2.239701e-01 3.321851e-01 2.894672e-01 1.490704e-02
<GCONST> 6.881151e+01
<MIXTURE> 16 4.346192e-02
<MEAN> 39
 -9.586644e-01 4.568915e-02 4.226496e+00 9.416904e-01 3.250126e+00 3.108853e-02 3.999691e+00 2.068206e+00 4.065633e+00 -7.827257e-01 -5.118836e-01 -6.688561e-01 -1.391479e+00 -3.923655e-02 -1.579419e-01 -2.060534e-01 -2.589596e-01 -1.635657e-01 3.049918e-01 7.110303e-02 4.719158e-02 -8.794820e-02 6.836976e-02 -1.363954e-01 -3.368017e-02 8.715626e-03 -7.267608e-02 -5.379117e-02 1.081737e-02 -4.196813e-03 -1.968676e-01 -2.671382e-01 -2.242535e-01 -3.796586e-01 -4.428615e-01 -1.670165e-01 2.886834e-01 2.068436e-01 -3.061139e-02
<VARIANCE> 39
 7.302016e-01 1.828883e+00 4.071610e+00 2.019141e+00 3.543296e+00 5.279143e+00 9.145769e+00 4.444031e+00 5.336467e+00 5.087746e+00 5.715747e+00 8.269394e+00 8.285324e-01 4.763720e-02 1.324560e-01 5.356100e-01 5.914966e-01 4.660119e-01 9.537056e-01 8.755999e-01 8.949088e-01 1.170487e+00 1.395690e+00 1.427083e+00 1.178630e+00 3.408687e-02 9.339705e-03 2.863205e-02 8.062059e-02 4.647341e-02 5.714235e-02 1.339533e-01 2.140914e-01 1.188364e-01 1.516771e-01 1.472909e-01 2.195245e-01 2.054087e-01 4.365372e-03
<GCONST> 4.334612e+01
<MIXTURE> 17 4.407293e-02
<MEAN> 39
 -2.170361e-01 6.711186e-01 2.435556e+00 -1.966966e-01 1.170972e+00 4.111667e-01 1.741611e+00 -1.886386e+00 -2.324122e+00 -2.258593e+00 8.385600e-01 1.094789e+00 -6.833726e-01 7.138036e-02 1.019749e-01 1.526256e-01 1.676721e-01 9.580982e-02 -2.270550e-01 -1.733662e-01 -7.436963e-02 -1.733361e-01 -3.800507e-01 -1.506772e-01 -6.855673e-02 -2.812420e-04 -7.228753e-02 -9.017918e-02 6.278709e-02 6.572226e-02 2.036293e-02 -1.910316e-01 -1.612278e-01 6.941851e-02 3.185153e-01 1.666295e-01 -2.108326e-02 -1.270027e-01 -4.184362e-02
<VARIANCE> 39
 7.302016e-01 1.553401e+00 5.598945e+00 3.103669e+00 3.314330e+00 6.271407e+00 6.421720e+00 3.394363e+00 6.447174e+00 6.662168e+00 4.707387e+00 6.181223e+00 8.285324e-01 9.740914e-02 2.530478e-01 4.258919e-01 4.676991e-01 7.766336e-01 6.501873e-01 1.176851e+00 1.152643e+00 1.212815e+00 8.448700e-01 6.971468e-01 1.167424e+00 3.702754e-02 1.483939e-02 3.063626e-02 6.787492e-02 6.203657e-02 1.118213e-01 1.103806e-01 1.251507e-01 1.102709e-01 2.074716e-01 2.099535e-01 1.119844e-01 1.649820e-01 6.723213e-03
<GCONST> 4.457348e+01
<MIXTURE> 18 5.423966e-02
<MEAN> 39
 -1.750166e+00 -8.799191e-01 4.268754e+00 1.662431e+00 2.603865e+00 -2.448396e+00 1.132180e-02 -3.286979e+00 5.096962e-01 -1.484023e+00 2.088872e+00 9.633194e-01 -1.688573e+00 -1.195407e-01 -9.757783e-02 6.524760e-02 -9.273887e-02 -1.974172e-01 -2.968840e-01 -2.366769e-01 -2.716640e-01 -2.880494e-01 -1.039517e-01 -1.327335e-01 -1.229547e-01 -4.157074e-02 1.057181e-01 1.622641e-01 1.022991e-02 -1.622074e-01 -2.016073e-01 2.295035e-02 3.079247e-01 4.316783e-01 1.443626e-01 7.538831e-02 -1.716641e-01 -8.327896e-02 5.142495e-02
<VARIANCE> 39
