~o
<STREAMINFO> 1 39
<VECSIZE> 39<NULLD><MFCC_D_A_Z_0><DIAGC>
~h "M001"
<BEGINHMM>
<NUMSTATES> 5
<STATE> 2
<NUMMIXES> 12
<MIXTURE> 1 8.237219e-02
<MEAN> 39
 -2.443483e+01 -2.498485e+00 -5.305474e-01 -1.796517e+00 9.250810e+00 5.211359e+00 3.726654e+00 1.009439e+01 5.889382e+00 3.524453e-01 4.945232e+00 1.169155e+01 -3.599676e+00 1.889790e-01 -2.149813e-02 3.466406e-01 -1.286742e-01 -1.460966e-02 -8.888802e-02 -7.301810e-02 2.917183e-01 2.646893e-02 3.123106e-01 -3.089336e-01 -6.590125e-01 -1.084077e-01 5.509514e-01 3.326721e-02 -7.749652e-02 2.871196e-01 -1.178538e-01 -1.407031e-01 -1.525420e-01 -2.556943e-01 -3.505462e-01 -1.818576e-01 -2.246761e-01 -2.001995e-01 -3.398926e-01
<VARIANCE> 39
 2.781268e+01 3.502387e+01 1.178773e+01 2.916552e+01 2.775357e+01 3.000341e+01 3.771953e+01 2.540542e+01 1.589579e+01 1.580060e+01 9.683692e+00 1.881211e+01 2.932877e+01 4.411643e+00 3.646687e+00 1.536547e+00 4.604781e+00 4.322908e+00 3.454173e+00 2.918249e+00 4.036612e+00 2.255104e+00 2.313316e+00 1.727532e+00 2.521419e+00 4.606848e+00 1.896884e-01 1.007907e+00 3.616058e-01 1.183863e+00 1.014408e+00 6.963446e-01 6.135979e-01 1.258210e+00 7.018334e-01 3.395496e-01 3.035341e-01 4.921340e-01 3.459917e-01
<GCONST> 1.191477e+02
<MIXTURE> 2 8.009981e-02
<MEAN> 39
 -1.555824e+00 1.965046e+00 -1.377833e+01 -1.701203e+01 8.415176e+00 7.030363e+00 8.681717e+00 -5.592726e+00 2.605456e-01 3.048890e+00 4.170561e+00 -3.602443e+00 1.294533e+01 6.842908e-01 1.232024e-01 5.759496e-01 6.667429e-01 -4.486677e-01 -2.034534e-01 -4.795105e-02 8.478146e-01 -2.179986e-01 -6.030458e-01 1.417491e-01 5.424092e-01 -9.382817e-01 3.524601e-01 2.308225e-01 2.208963e-01 2.964120e-01 -2.625143e-01 5.809897e-02 -1.580662e-01 6.937377e-02 -1.602516e-02 2.184338e-02 -1.923187e-01 1.224846e-01 -8.212616e-01
<VARIANCE> 39
 5.517361e+00 7.635674e+00 1.584570e+01 1.885719e+01 1.940867e+01 9.992970e+00 3.732765e+01 1.303939e+01 6.747434e+00 1.449278e+01 2.809014e+01 1.304953e+01 3.855227e+00 1.229038e+00 6.653826e-01 1.099099e+00 1.282246e+00 1.831511e+00 1.140538e+00 1.275855e+00 1.225745e+00 1.508932e+00 1.113485e+00 1.541733e+00 1.277726e+00 2.752575e+00 1.089960e-01 1.256027e-01 2.384000e-01 3.880060e-01 6.410093e-01 3.507839e-01 2.891672e-01 2.509941e-01 4.050104e-01 3.628502e-01 2.502884e-01 2.509258e-01 1.607649e-01
<GCONST> 9.064449e+01
<MIXTURE> 3 7.155056e-02
<MEAN> 39
 -2.910485e+00 -7.396790e+00 -3.321170e+00 3.666916e+00 -2.980689e-01 5.609707e+00 4.293696e+00 4.164332e+00 1.293648e+00 -3.209503e+00 2.050663e+00 8.060177e+00 -2.212691e+01 -3.515949e-01 9.839339e-01 -1.363627e+00 9.800766e-01 2.069781e-01 -3.885161e-02 5.226731e-01 3.046470e-01 1.970190e-01 7.067319e-01 2.432648e-01 7.599680e-01 2.410119e-01 -2.776439e-01 8.572434e-01 3.275388e-01 6.390412e-01 -4.763678e-02 -1.985706e-01 -1.623237e-01 -3.959460e-01 3.206545e-01 -5.868291e-02 -3.149241e-01 -1.251718e-01 6.600309e-01
<VARIANCE> 39
 8.147156e+00 6.377399e+00 4.000459e+01 9.608817e+00 3.911629e+01 2.352094e+01 1.587426e+01 3.169055e+01 1.240718e+01 2.245325e+01 1.568864e+01 2.208166e+01 6.935489e+00 1.165577e+00 1.694499e+00 2.931682e+00 1.854437e+00 2.472954e+00 2.635257e+00 1.549439e+00 1.986464e+00 1.885596e+00 1.602829e+00 1.804101e+00 2.282150e+00 3.256570e-01 5.918446e-01 2.326875e-01 1.141244e+00 5.098209e-01 6.214929e-01 5.344137e-01 3.191965e-01 6.543801e-01 3.213458e-01 4.586330e-01 4.651818e-01 5.073059e-01 2.064981e-01
<GCONST> 1.046816e+02
<MIXTURE> 4 5.087050e-02
<MEAN> 39
 -4.861389e+00 1.578862e+00 -6.338759e+00 1.193917e+01 1.301680e+00 4.244345e+00 6.834585e+00 2.734210e+00 3.226336e+00 -4.109873e+00 1.160733e-01 7.711670e+00 -1.926184e+01 1.257998e+00 5.268113e+00 3.106011e+00 3.243334e+00 3.360254e-02 -2.001424e+00 -8.945655e-01 -3.433512e+00 -8.042373e-01 1.581541e-01 -1.302726e+00 -4.552988e-01 2.722472e+00 5.733158e-01 3.629653e-01 1.599186e+00 -3.354512e-01 -7.020164e-01 -9.545060e-01 -2.914138e-01 -1.317817e+00 -5.193089e-01 7.937813e-01 -3.530062e-01 -3.822804e-01 8.937657e-01
<VARIANCE> 39
 1.985833e+01 3.992918e+01 2.362667e+01 2.919611e+01 1.619111e+01 1.971833e+01 1.384761e+01 3.067916e+01 1.654364e+01 2.466291e+01 1.644718e+01 1.415774e+01 9.482149e+00 3.689631e+00 2.504401e+00 5.502989e+00 3.930979e+00 2.286592e+00 2.894046e+00 3.170826e+00 4.400658e+00 1.759317e+00 4.513526e+00 3.015808e+00 1.060100e+00 1.541681e+00 5.040504e-01 9.991357e-01 5.208576e-01 9.507208e-01 3.150731e-01 6.417054e-01 2.911636e-01 6.207526e-01 4.435154e-01 5.308459e-01 4.116741e-01 3.124529e-01 2.308442e-01
<GCONST> 1.142474e+02
<MIXTURE> 5 6.669918e-02
<MEAN> 39
 -1.788785e+00 -8.075966e+00 -2.530410e+00 7.691718e+00 -3.712800e+00 3.601087e+00 6.891181e-01 3.395569e+00 1.959948e+00 -6.653013e+00 -1.576197e+00 5.830508e+00 -2.274740e+01 1.152243e-01 5.360704e-01 3.421037e-01 4.362332e-01 2.634191e-01 1.002747e-01 6.659000e-01 -4.142628e-01 1.505099e-01 2.327175e-01 -1.139723e-01 3.080939e-02 1.441018e-01 -1.596991e-01 -7.105416e-02 -1.546988e-01 -5.008550e-02 2.223333e-01 1.655997e-01 2.570342e-01 1.431839e-01 1.880112e-01 1.855499e-01 3.765406e-01 -1.117809e-01 3.226934e-02
<VARIANCE> 39
 8.416712e+00 6.090095e+00 2.087922e+01 1.575193e+01 9.798971e+00 1.413018e+01 2.278213e+01 2.826360e+01 3.011157e+01 1.164370e+01 8.589447e+00 1.648397e+01 8.749822e+00 2.054148e-01 2.758910e-01 4.838525e-01 7.241172e-01 1.113173e+00 9.230635e-01 2.203337e+00 1.336384e+00 1.840467e+00 1.156671e+00 8.993820e-01 8.314896e-01 4.532883e-02 7.690646e-02 5.373107e-02 6.333367e-02 4.951528e-02 1.524484e-01 1.056166e-01 2.725413e-01 2.667345e-01 1.575511e-01 1.221000e-01 1.541320e-01 8.751339e-02 2.250482e-02
<GCONST> 7.029367e+01
<MIXTURE> 6 5.620347e-02
<MEAN> 39
 2.511899e+00 1.261255e+01 1.978688e+00 6.645111e-02 -7.445297e+00 -1.288818e+00 1.095707e+01 -1.161617e+01 5.614212e+00 2.963310e+00 -8.690268e+00 5.601658e+00 -1.626688e+00 2.085968e-01 -2.921539e-01 1.859098e-01 -3.342635e+00 2.244442e-02 1.837304e+00 5.624009e-01 1.773568e-01 -4.478308e-01 1.087127e+00 4.114606e-01 -3.903828e-01 3.011808e+00 -6.500742e-01 -1.167986e+00 -3.609363e-01 3.928617e-01 8.978437e-01 5.494134e-01 -7.680116e-01 1.067531e+00 -4.860207e-01 -4.885883e-01 9.182711e-01 -4.829066e-02 -3.652302e-01
<VARIANCE> 39
 9.928068e+00 4.662852e+00 6.904165e+01 1.873069e+02 2.092645e+01 6.118441e+01 4.265464e+01 4.042800e+01 5.756186e+01 9.038297e+01 3.997153e+01 1.351974e+01 1.144491e+01 3.745529e+00 5.523157e+00 1.820902e+00 6.661038e+00 4.903478e+00 4.422255e+00 7.225368e+00 1.356435e+01 8.021813e+00 1.388906e+01 4.617640e+00 4.457797e+00 3.055367e+00 3.889514e-01 4.607794e-01 4.781527e-01 1.529276e+00 7.063993e-01 1.138950e+00 8.460751e-01 1.942097e+00 6.966951e-01 1.952490e+00 6.081744e-01 2.451738e-01 2.772594e-01
<GCONST> 1.342843e+02
<MIXTURE> 7 9.585921e-02
<MEAN> 39
 3.368918e+00 3.878368e+00 -1.166129e+01 -1.296463e+01 5.942706e+00 7.850543e+00 5.761567e+00 -3.775747e+00 1.640393e-01 3.405066e+00 1.208658e+00 -1.467580e+00 1.067374e+00 7.386786e-01 -9.188631e-01 -7.274798e-01 -1.399082e+00 1.301564e+00 1.474734e-01 6.734238e-01 3.822469e-03 1.452208e-03 4.063920e-01 6.505722e-02 -5.435614e-01 -3.229589e-01 -3.358304e-01 -6.648284e-01 3.357612e-02 3.898461e-01 -5.568129e-01 -1.976153e-01 -2.797133e-02 1.924960e-01 4.863052e-02 -3.407009e-01 1.306146e-01 3.671760e-01 -3.030929e-01
<VARIANCE> 39
 2.295648e+01 1.989110e+01 2.550118e+01 4.553978e+01 3.511720e+01 1.828216e+01 2.437400e+01 2.228273e+01 1.652541e+01 2.133755e+01 2.936692e+01 2.940437e+01 6.036555e+01 2.140427e+00 2.108465e+00 2.331149e+00 9.302880e+00 6.512348e+00 2.403493e+00 2.627169e+00 1.305157e+00 2.195948e+00 2.206537e+00 3.375964e+00 3.351611e+00 1.650945e+01 3.955189e-01 4.442446e-01 5.048692e-01 1.287755e+00 8.937749e-01 4.616963e-01 3.643624e-01 3.248010e-01 4.668681e-01 4.246790e-01 5.967596e-01 7.595354e-01 1.059958e+00
<GCONST> 1.221818e+02
<MIXTURE> 8 1.044389e-01
<MEAN> 39
 5.297074e+00 -6.238106e+00 -1.179126e+01 -8.060498e+00 -3.352880e+00 8.104378e+00 7.340642e+00 3.696213e+00 8.309191e-01 -1.059022e+00 -3.471523e-01 1.079688e+00 -1.437716e+01 -6.127557e-01 -6.290999e-01 4.802643e-01 1.057162e+00 -1.298562e+00 1.732165e-01 -1.827606e-01 9.676765e-01 2.449782e-01 -5.655429e-01 -5.305379e-01 9.415208e-02 -8.171274e-01 -8.927931e-02 3.095761e-01 1.994141e-01 1.491061e-01 2.571043e-01 6.996668e-03 -1.034185e-01 -5.922697e-02 4.928494e-02 -1.806852e-02 3.321996e-02 -1.469106e-01 2.513513e-01
<VARIANCE> 39
 8.833855e+00 8.145031e+00 1.735476e+01 2.578850e+01 3.066861e+01 3.933202e+01 2.547571e+01 2.891698e+01 2.595206e+01 4.058638e+01 3.669254e+01 3.354746e+01 9.537328e+00 4.736996e-01 1.431980e+00 1.671988e+00 1.669193e+00 2.559339e+00 2.477473e+00 1.813851e+00 2.450549e+00 1.801351e+00 2.185056e+00 3.698724e+00 4.268893e+00 2.074770e-01 1.406636e-01 1.657396e-01 3.872296e-01 3.022493e-01 3.174800e-01 5.098075e-01 2.715091e-01 5.204027e-01 3.545850e-01 3.854712e-01 7.929092e-01 9.045025e-01 6.643128e-02
<GCONST> 1.039026e+02
<MIXTURE> 9 1.022499e-01
<MEAN> 39
 -7.261925e-01 -9.191707e+00 -1.056642e+00 5.552433e+00 6.567417e-01 3.669327e+00 2.949157e+00 4.316086e+00 2.186621e+00 -3.549006e+00 1.382712e+00 4.483512e+00 -2.316781e+01 -3.371847e-01 -2.976642e-01 -2.947419e-01 -5.208085e-02 -2.193556e-01 1.664627e-02 -9.723744e-02 -2.167865e-01 3.383915e-02 1.445147e-01 1.133570e-01 -2.376120e-01 -9.510865e-02 -3.117406e-02 1.664438e-01 -9.563903e-02 -2.523960e-02 -4.949290e-02 -1.782327e-01 -5.527770e-02 -1.583036e-02 -1.482584e-01 -3.500757e-02 -4.694853e-02 1.959971e-01 8.194339e-02
<VARIANCE> 39
 5.026394e+00 4.720680e+00 9.952072e+00 1.202975e+01 2.410737e+01 1.448352e+01 3.929524e+01 3.104525e+01 1.428078e+01 2.096884e+01 1.603824e+01 1.464592e+01 5.038343e+00 1.391777e-01 3.473653e-01 3.830131e-01 3.369133e-01 8.014727e-01 9.557096e-01 1.138106e+00 2.012088e+00 1.651277e+00 1.788976e+00 1.714144e+00 1.375893e+00 5.839183e-02 2.071875e-02 6.545646e-02 7.064227e-02 7.638150e-02 1.142101e-01 7.759403e-02 1.104983e-01 2.589481e-01 1.792661e-01 1.584214e-01 1.109565e-01 1.952018e-01 1.563313e-02
<GCONST> 6.829765e+01
<MIXTURE> 10 1.370546e-01
<MEAN> 39
 -6.099532e+00 -3.879393e+00 -5.484174e+00 5.374075e+00 -1.658579e+00 2.373235e+00 2.699416e+00 6.621795e-01 4.022349e+00 -3.651838e+00 1.191284e+00 6.534796e+00 -1.696315e+01 -1.563820e+00 2.571358e+00 -9.211000e-01 -1.265402e+00 -2.059606e-01 -1.203432e-01 3.807731e-01 -2.213140e+00 9.058107e-01 5.748314e-01 -3.849941e-01 1.695576e-01 4.543198e+00 4.578415e-01 1.267734e-01 3.902688e-01 -8.745381e-01 2.079709e-01 2.386369e-01 9.580882e-02 -5.242142e-03 -3.440184e-01 2.514157e-01 -2.553232e-01 -4.075827e-01 1.158247e+00
<VARIANCE> 39
 3.607117e+01 3.349968e+01 2.863103e+01 3.238420e+01 5.382993e+01 2.617196e+01 2.937574e+01 4.342117e+01 2.407844e+01 3.313408e+01 1.560907e+01 2.578394e+01 3.652068e+01 8.895051e+00 5.880580e+00 7.808612e+00 6.166115e+00 5.431792e+00 4.591399e+00 6.152498e+00 3.963039e+00 6.995864e+00 3.243051e+00 4.702359e+00 2.707719e+00 4.783366e+00 8.517225e-01 7.542992e-01 8.183170e-01 1.026905e+00 9.581167e-01 7.321472e-01 1.220658e+00 7.795175e-01 6.844572e-01 6.966437e-01 4.303191e-01 6.239403e-01 7.728122e-01
<GCONST> 1.344244e+02
<MIXTURE> 11 8.918662e-02
<MEAN> 39
 -1.163364e+00 -9.373574e+00 -7.588373e-01 5.166064e+00 7.898307e-01 3.217807e+00 2.638250e+00 6.460022e+00 3.333370e-01 -5.453371e+00 2.106504e-01 4.583645e+00 -2.289645e+01 -1.109416e+00 9.693103e-01 -4.773376e-01 1.852764e-03 9.550938e-02 -4.902840e-01 2.153651e-01 -6.834092e-01 2.020129e-01 4.337518e-02 -3.787636e-02 1.899165e-01 7.065169e-01 -5.208123e-01 5.374372e-01 -6.978124e-01 -1.852352e-01 -9.752412e-02 -1.638486e-01 9.361394e-02 -6.335343e-01 4.846945e-01 2.167472e-01 1.169878e-01 3.159387e-01 1.035357e+00
<VARIANCE> 39
 5.471025e+00 7.490016e+00 9.244758e+00 2.905526e+01 3.008002e+01 1.625869e+01 2.453340e+01 2.192954e+01 2.001699e+01 1.988159e+01 2.004825e+01 1.133959e+01 6.031011e+00 8.901075e-01 1.208694e+00 1.579850e+00 8.325351e-01 1.941464e+00 1.726032e+00 2.887768e+00 2.613544e+00 2.573888e+00 1.756898e+00 1.257693e+00 1.209323e+00 6.277619e-01 2.206531e-01 4.296052e-01 3.721482e-01 3.202723e-01 2.955990e-01 3.360878e-01 7.122701e-01 6.181791e-01 5.045909e-01 4.477137e-01 5.187082e-01 2.838317e-01 3.881133e-01
<GCONST> 9.975159e+01
<MIXTURE> 12 6.341504e-02
<MEAN> 39
 2.439608e+00 1.728420e+01 7.224630e+00 1.173228e+01 -1.407159e+00 -7.120303e+00 2.046813e+00 -1.380113e+01 -6.744130e+00 9.182802e-01 -3.991322e+00 4.986711e+00 -8.223274e+00 1.667150e+00 9.756901e-01 3.001634e+00 -1.018808e+00 -1.678540e+00 -1.826099e+00 -1.608626e-01 -3.374715e+00 -9.536853e-01 2.445694e+00 -8.873991e-01 -1.128028e+00 2.945058e+00 -7.070940e-01 -2.105918e+00 -7.617909e-01 -8.746182e-01 1.358942e-01 9.939151e-01 1.379543e-01 1.670261e+00 1.218779e+00 -9.096525e-04 3.154987e-01 9.757366e-02 -2.113007e-01
<VARIANCE> 39
 7.080249e+00 9.057048e+00 2.529248e+01 4.396916e+01 4.182797e+01 1.981038e+01 2.655266e+01 6.814345e+01 6.453185e+01 5.293285e+01 3.392017e+01 2.663091e+01 1.036111e+01 3.040836e+00 8.926607e+00 4.499267e+00 2.690022e+00 4.977402e+00 7.323701e+00 4.384325e+00 1.513427e+01 7.414587e+00 3.731678e+00 3.692059e+00 2.824420e+00 3.018577e+00 2.781964e-01 3.889842e-01 6.591147e-01 5.150231e-01 7.638628e-01 4.852853e-01 9.756427e-01 1.698453e+00 1.472069e+00 1.308070e+00 3.509801e-01 3.743430e-01 4.200782e-01
<GCONST> 1.286751e+02
<STATE> 3
<NUMMIXES> 12
<MIXTURE> 1 1.043922e-01
<MEAN> 39
 5.528834e+00 6.338850e+00 -7.873699e+00 -1.217303e+01 -7.005811e-01 8.213725e+00 4.481731e+00 -6.327754e+00 -4.404242e+00 3.690434e+00 -1.970549e+00 -1.135434e+00 3.751933e+00 3.206911e-02 9.271021e-02 -2.269425e-02 -2.247464e-01 3.470231e-01 1.889693e-01 3.591912e-01 -3.346539e-01 -1.733578e-01 3.630136e-01 -2.164953e-01 -3.271110e-01 -1.253374e-01 -5.618078e-02 -2.856222e-01 1.685725e-01 4.665201e-01 7.626133e-02 -1.804550e-01 -2.999060e-01 9.941471e-02 1.043168e-01 -7.945159e-02 1.654735e-01 -7.124902e-02 -6.829010e-03
<VARIANCE> 39
 6.455936e+00 2.045839e+01 5.028027e+01 7.585104e+01 7.032544e+01 6.399339e+01 8.908768e+01 9.966497e+01 6.139842e+01 5.737202e+01 5.667818e+01 3.725866e+01 8.628876e+00 4.447866e-01 1.818828e+00 2.546386e+00 3.363249e+00 2.450366e+00 3.206774e+00 4.742634e+00 3.892115e+00 3.303834e+00 2.632037e+00 3.278393e+00 2.467663e+00 7.431797e-01 8.831903e-02 1.753616e-01 3.332507e-01 4.064595e-01 4.154836e-01 5.225132e-01 6.230621e-01 7.635758e-01 5.512154e-01 5.431808e-01 4.990586e-01 4.551417e-01 9.951656e-02
<GCONST> 1.177243e+02
<MIXTURE> 2 7.036129e-02
<MEAN> 39
 7.407035e+00 -8.428198e-01 1.899607e+00 4.115532e+00 -1.316246e+00 1.097695e+00 -8.144156e-01 5.900998e+00 -4.152951e-01 -3.463156e+00 -3.505408e-01 6.599661e-01 -1.360023e+01 -2.697205e+00 -1.244597e+00 7.369534e-01 -4.564534e-01 1.451247e-02 1.030507e+00 -3.253992e-01 -1.593540e-01 7.001433e-01 1.828477e-01 1.901826e-01 9.579571e-01 1.133633e+00 -1.150018e+00 -3.056773e-01 1.541012e-01 -1.166683e-01 -5.525291e-02 -7.375245e-03 -2.818702e-01 -4.014539e-01 1.058935e-01 2.319535e-01 2.245309e-01 2.145463e-02 1.780010e+00
<VARIANCE> 39
 3.795001e+01 5.077896e+01 8.755066e+01 9.566022e+01 5.982384e+01 6.043591e+01 4.339749e+01 8.937460e+01 5.968576e+01 4.539156e+01 3.371011e+01 3.279971e+01 1.695553e+01 5.553034e+00 4.933953e+00 9.332676e+00 7.587083e+00 7.584500e+00 6.966014e+00 5.543828e+00 7.243563e+00 6.294271e+00 4.880360e+00 4.169927e+00 3.307676e+00 7.221165e+00 8.413462e-01 8.294640e-01 1.345932e+00 1.480466e+00 1.026841e+00 1.167780e+00 1.124984e+00 1.225522e+00 1.427889e+00 8.005162e-01 7.902473e-01 5.804664e-01 4.294466e-01
<GCONST> 1.450714e+02
<MIXTURE> 3 1.086941e-01
<MEAN> 39
 -3.505811e+00 1.071645e+00 1.481150e+01 4.594500e+00 -1.168452e+01 -7.639838e+00 -1.916172e+00 1.528093e+00 -6.610013e+00 -1.298567e+00 9.002377e+00 4.619875e-03 6.675985e+00 3.311898e-01 -7.261171e-03 -3.882299e-01 1.371616e-01 -1.846764e-01 -3.398254e-01 5.673490e-02 1.398648e-01 2.480854e-01 -8.760226e-02 1.961205e-01 -7.848766e-02 -9.050269e-02 2.001910e-01 -1.993565e-02 -3.257892e-01 1.536562e-01 5.681409e-01 2.580713e-01 -2.700699e-02 -7.062434e-02 3.194402e-01 -1.238202e-02 -4.431181e-01 4.821623e-02 -4.599845e-01
<VARIANCE> 39
 1.743190e+01 3.107454e+01 5.374022e+01 4.430729e+01 3.843499e+01 3.684343e+01 4.310766e+01 5.901957e+01 5.729935e+01 3.170882e+01 3.627764e+01 3.232326e+01 1.081258e+01 1.915012e+00 2.695381e+00 4.216579e+00 2.768280e+00 4.915435e+00 3.287526e+00 2.889460e+00 2.488472e+00 3.966919e+00 2.473202e+00 3.681888e+00 2.613239e+00 1.915999e+00 2.922439e-01 3.390942e-01 5.268218e-01 4.258395e-01 6.859370e-01 6.341290e-01 5.213996e-01 6.214064e-01 6.857889e-01 4.360673e-01 5.191389e-01 4.897764e-01 2.368486e-01
<GCONST> 1.220659e+02
<MIXTURE> 4 8.793318e-02
<MEAN> 39
 8.495525e-01 -2.423462e+00 -8.210356e+00 -9.156218e+00 7.262436e+00 2.037221e+00 5.760885e-01 -4.372497e-02 2.263916e+00 6.117521e+00 -2.213352e+00 -5.951785e+00 8.964961e+00 -3.155938e-01 -1.118183e+00 -6.906255e-01 1.400463e-01 7.757896e-01 -4.501240e-01 3.755045e-01 1.471616e+00 7.358135e-01 -4.671960e-01 -2.340190e-01 -4.622275e-01 7.961963e-01 -2.403118e-02 2.602593e-01 4.223187e-01 5.699649e-01 -3.420443e-01 -2.018580e-01 1.453275e-02 7.238603e-02 -1.100772e-01 -5.838008e-01 -3.344719e-02 4.701137e-01 -5.380474e-01
<VARIANCE> 39
 1.380479e+01 2.401660e+01 6.465736e+01 5.258624e+01 6.918459e+01 7.807022e+01 7.551752e+01 8.234566e+01 7.772161e+01 6.911368e+01 5.450795e+01 3.027567e+01 9.546052e+00 1.693553e+00 3.480582e+00 5.232529e+00 8.550815e+00 5.404222e+00 7.117255e+00 6.563237e+00 5.120800e+00 5.798832e+00 5.489487e+00 3.159835e+00 4.748399e+00 2.457952e+00 3.334958e-01 4.464564e-01 5.944009e-01 8.056720e-01 7.971101e-01 9.216535e-01 9.546748e-01 1.188932e+00 1.112414e+00 8.840286e-01 6.911808e-01 6.149157e-01 3.283224e-01
<GCONST> 1.361949e+02
<MIXTURE> 5 9.799700e-02
<MEAN> 39
 3.987376e+00 8.823145e+00 7.337863e+00 7.212498e+00 -4.915262e+00 -7.080490e+00 2.937283e+00 -1.048937e+01 -3.051621e+00 4.556027e+00 -5.505315e+00 -3.035020e+00 -1.786760e+00 1.493547e-01 7.096801e-01 2.248028e-01 2.890571e-01 -1.453993e-01 4.807365e-02 -1.329939e-01 -6.491840e-01 2.832626e-01 5.459534e-02 1.179142e-01 3.829406e-02 -6.544197e-01 -3.901114e-02 -6.170294e-01 -3.165908e-01 -4.969420e-01 3.930671e-01 3.920638e-01 -3.162855e-01 8.313650e-01 -2.668846e-02 -3.541869e-01 2.285495e-01 -4.577720e-02 2.892748e-01
<VARIANCE> 39
 2.061549e+01 3.576376e+01 5.167351e+01 7.331528e+01 7.308073e+01 7.832432e+01 6.035160e+01 6.556940e+01 5.928719e+01 5.416689e+01 6.176533e+01 5.133459e+01 1.384895e+01 5.468315e-01 3.390638e+00 2.685175e+00 3.399421e+00 4.661021e+00 4.322735e+00 4.770099e+00 7.233025e+00 3.292033e+00 5.475046e+00 4.185132e+00 2.432856e+00 1.176877e+00 9.024646e-02 4.670205e-01 6.064227e-01 5.966962e-01 7.529685e-01 7.774870e-01 6.779268e-01 8.635864e-01 5.680503e-01 8.650389e-01 5.709590e-01 5.413957e-01 1.784904e-01
<GCONST> 1.281063e+02
<MIXTURE> 6 8.743851e-02
<MEAN> 39
 6.444450e+00 4.870277e-01 -1.809830e+00 2.492398e+00 -3.775669e+00 5.774022e+00 -6.380683e+00 -7.787479e+00 -4.528487e+00 2.035574e+00 6.089021e+00 -1.415417e+00 1.751137e+00 7.037552e-01 -4.361987e-02 -6.590654e-01 -1.515455e+00 4.271837e-02 4.857416e-01 3.840796e-02 6.589212e-01 -5.904984e-01 8.361020e-01 3.015040e-01 -9.344833e-01 7.827901e-01 -4.679763e-01 -2.149639e-01 1.970185e-02 4.556585e-02 1.389320e-01 -1.922302e-01 5.284063e-01 5.119627e-01 3.897426e-01 -1.904731e-01 -5.309407e-01 2.026766e-01 -1.007359e-01
<VARIANCE> 39
 1.954400e+01 4.739441e+01 1.121786e+02 8.580680e+01 7.349827e+01 9.742910e+01 7.641802e+01 1.123337e+02 6.029627e+01 5.319775e+01 6.483001e+01 4.276357e+01 2.008277e+01 5.260958e+00 7.021383e+00 8.003402e+00 9.122159e+00 9.910658e+00 7.547440e+00 7.465861e+00 1.431137e+01 9.000593e+00 5.869831e+00 6.055374e+00 5.319780e+00 3.259341e+00 4.781655e-01 7.462883e-01 9.810044e-01 1.131654e+00 1.190015e+00 1.251565e+00 1.270254e+00 1.747661e+00 1.280187e+00 8.931840e-01 1.029269e+00 8.805370e-01 4.006225e-01
<GCONST> 1.495132e+02
<MIXTURE> 7 7.821392e-02
<MEAN> 39
 -9.716161e-01 -5.802082e+00 -6.284968e+00 -7.608434e+00 7.088339e+00 -5.896915e+00 2.357499e+00 8.987720e+00 2.424401e+00 -1.436824e+00 -2.058521e+00 -6.913201e+00 1.174852e+01 2.164458e-01 5.400248e-02 6.854499e-01 2.015592e-01 -2.279412e-01 -1.786459e-01 -5.674675e-01 1.846220e-01 -1.836301e-01 -3.464909e-01 4.788982e-01 3.000832e-01 -2.539153e-01 1.249661e-01 2.222814e-01 3.373019e-01 3.537338e-01 -2.893122e-01 2.282487e-01 -1.947645e-01 -5.320066e-01 -1.250661e-02 1.840587e-01 -5.152841e-02 3.678296e-01 -4.099933e-01
<VARIANCE> 39
 1.515494e+01 1.236593e+01 4.646655e+01 2.980792e+01 3.357365e+01 4.237255e+01 7.974077e+01 5.413113e+01 5.906441e+01 4.410043e+01 5.507442e+01 3.644715e+01 6.519934e+00 6.926823e-01 9.753330e-01 2.953510e+00 2.058446e+00 3.110817e+00 3.129619e+00 4.926562e+00 4.190372e+00 2.458985e+00 2.845793e+00 2.577255e+00 2.269793e+00 6.914954e-01 1.227518e-01 2.098446e-01 2.701204e-01 3.598815e-01 3.395305e-01 3.989468e-01 5.790091e-01 7.193998e-01 5.067328e-01 4.541504e-01 4.229625e-01 4.049088e-01 1.260091e-01
<GCONST> 1.130082e+02
<MIXTURE> 8 8.086087e-02
<MEAN> 39
 -7.759350e+00 3.901469e-01 2.685039e+00 2.494694e+00 5.766547e-01 2.776695e+00 -2.519359e+00 2.353295e+00 3.301594e+00 -2.250848e+00 -1.972314e+00 4.717392e+00 -8.711786e-01 -1.118329e+00 -4.596440e-01 2.858579e-01 -2.372744e-01 -5.420371e-01 4.349341e-02 3.582574e-01 3.036853e-01 -2.399966e-01 -1.575039e-01 6.678758e-01 3.255503e-01 1.617576e+00 7.791908e-01 3.497184e-02 -2.247007e-01 -1.099778e-01 -3.112961e-01 -3.367760e-01 1.863200e-01 -1.728627e-01 -3.581276e-01 2.238914e-01 2.913856e-01 -4.299572e-01 -5.108643e-02
<VARIANCE> 39
 7.574812e+01 5.105510e+01 1.782004e+02 9.135049e+01 9.375162e+01 7.220942e+01 7.356570e+01 1.026113e+02 8.904328e+01 4.798829e+01 6.032366e+01 3.294617e+01 4.519951e+01 1.082038e+01 6.463227e+00 1.013609e+01 8.535857e+00 7.547646e+00 6.873961e+00 6.930130e+00 8.186998e+00 9.215707e+00 5.754680e+00 4.917364e+00 3.692909e+00 8.084055e+00 7.911710e-01 1.066118e+00 1.792756e+00 1.296393e+00 1.457664e+00 1.035200e+00 1.504640e+00 1.381372e+00 1.222680e+00 1.002940e+00 8.532079e-01 8.214716e-01 5.856755e-01
<GCONST> 1.539354e+02
<MIXTURE> 9 8.134691e-02
<MEAN> 39
 2.775353e+00 -5.254171e+00 1.707825e+00 1.322540e+00 1.400285e+00 -4.110261e+00 -5.476812e+00 4.433991e+00 8.859595e-01 -1.402739e+00 1.321834e+00 -3.606432e+00 6.331684e+00 1.017326e+00 7.709489e-01 7.803646e-01 1.760508e+00 -1.825664e-01 -3.744493e-01 -2.021603e-01 -1.444078e+00 1.109823e-02 1.736018e-01 -8.562733e-01 9.637347e-01 -1.811624e+00 3.535704e-03 5.515097e-01 -7.313117e-02 -2.326265e-01 -3.723500e-02 9.996703e-02 6.027613e-01 -3.378629e-01 -1.713274e-01 2.734826e-01 -1.907023e-01 -1.361383e-01 -3.463255e-01
<VARIANCE> 39
 1.572568e+01 2.551074e+01 6.192136e+01 5.862953e+01 5.504134e+01 5.721931e+01 5.520992e+01 7.680524e+01 7.833693e+01 3.733084e+01 5.471457e+01 3.958547e+01 8.580416e+00 1.227905e+00 3.023538e+00 3.053549e+00 4.312591e+00 4.003123e+00 4.430605e+00 4.902484e+00 6.491840e+00 3.647170e+00 3.629643e+00 3.527112e+00 2.636614e+00 1.833259e+00 1.385062e-01 3.902053e-01 4.480884e-01 7.208427e-01 6.959348e-01 8.652948e-01 7.040074e-01 1.052158e+00 6.293488e-01 5.027954e-01 5.434775e-01 5.640298e-01 2.526686e-01
<GCONST> 1.271675e+02
<MIXTURE> 10 9.429511e-02
<MEAN> 39
 7.825707e+00 7.847314e-01 1.842806e+00 4.395742e+00 1.651073e-01 1.162037e-01 -2.712967e+00 4.186069e+00 -1.243675e+00 -2.037682e+00 -3.868897e-01 -4.522240e-01 -8.034727e+00 7.676246e-01 5.268115e-02 -1.100031e-01 3.999770e-01 2.454891e-01 2.380857e-01 3.691860e-01 8.434364e-01 -2.882745e-01 -5.138977e-01 -7.327753e-01 1.505541e-01 -2.330571e+00 -6.492923e-01 -1.091417e-01 3.951486e-02 -3.796934e-01 -3.155898e-01 1.686835e-01 1.340246e-01 -2.242756e-01 1.877004e-01 1.838486e-01 1.917985e-01 6.001404e-02 5.472617e-01
<VARIANCE> 39
 6.416029e+01 5.506450e+01 9.651443e+01 8.688162e+01 7.233582e+01 7.160590e+01 5.138431e+01 9.972641e+01 5.651373e+01 5.699585e+01 4.532518e+01 3.318887e+01 3.162698e+01 2.281169e+00 2.981073e+00 3.808274e+00 4.549180e+00 4.467545e+00 4.666940e+00 4.588633e+00 6.262953e+00 3.510230e+00 3.184454e+00 3.102657e+00 2.357154e+00 2.824995e+00 3.204046e-01 4.035351e-01 5.641661e-01 7.602475e-01 8.185481e-01 8.648205e-01 8.361095e-01 8.842409e-01 6.262484e-01 6.958382e-01 6.583675e-01 5.195764e-01 2.841631e-01
<GCONST> 1.347288e+02
<MIXTURE> 11 6.017807e-02
<MEAN> 39
 -1.426083e+00 -5.310582e+00 -4.443007e+00 -7.482687e+00 6.412661e+00 -4.502921e+00 3.864544e+00 6.869380e+00 3.542478e+00 -2.579920e+00 -3.103107e+00 -4.878004e+00 1.192890e+01 2.998690e-02 -8.953081e-03 -3.150307e-01 -1.411719e-01 4.390897e-01 -2.447318e-02 -1.166392e-01 2.661327e-01 8.063473e-02 -2.152179e-01 1.037650e-01 -3.000709e-01 7.565180e-03 9.897627e-02 6.893164e-02 2.314463e-01 1.843388e-01 -1.856531e-01 2.229164e-02 -3.724342e-01 -6.306521e-02 -2.080485e-02 1.649002e-01 1.112223e-01 -3.621820e-03 -1.922505e-01
<VARIANCE> 39
 1.118170e+01 9.633619e+00 4.528841e+01 2.659837e+01 5.384455e+01 4.670623e+01 5.692616e+01 5.045428e+01 5.012012e+01 5.659975e+01 4.149214e+01 2.907257e+01 3.085030e+00 1.665579e-01 2.692437e-01 1.352208e+00 6.404516e-01 1.883615e+00 8.091655e-01 1.471233e+00 1.176067e+00 1.998955e+00 1.360695e+00 1.836830e+00 1.161602e+00 1.140580e-01 4.199884e-02 6.848338e-02 1.507087e-01 1.239296e-01 2.030216e-01 1.521420e-01 2.745068e-01 2.776033e-01 3.618102e-01 2.958802e-01 2.453784e-01 2.396965e-01 2.477172e-02
<GCONST> 8.807519e+01
<MIXTURE> 12 4.827824e-02
<MEAN> 39
 -1.181948e+01 -9.042561e+00 4.984657e+00 4.845713e+00 -3.634135e+00 4.936958e+00 -2.940413e+00 3.636330e+00 6.348582e+00 -3.495509e+00 2.892367e-01 3.981475e+00 3.778857e+00 4.776759e-01 1.186199e+00 1.958397e-01 -6.691710e-01 -8.299077e-02 -1.109979e+00 -1.496242e+00 -1.598127e+00 -1.121838e+00 -7.135016e-02 5.499275e-01 -1.093652e+00 3.024852e+00 1.844513e+00 1.147516e+00 -6.994278e-01 -7.131208e-01 2.801686e-01 -4.637059e-01 5.679113e-02 -1.788997e-01 -9.642110e-01 2.559118e-01 2.304202e-01 -6.707330e-01 -9.528950e-01
<VARIANCE> 39
 5.818381e+01 6.503510e+01 9.342375e+01 1.026412e+02 5.509184e+01 6.134501e+01 5.564177e+01 6.121854e+01 4.692325e+01 4.498408e+01 3.952697e+01 2.890180e+01 3.265898e+01 1.221914e+01 8.210482e+00 9.193358e+00 9.387040e+00 6.812542e+00 6.586892e+00 7.258630e+00 9.444557e+00 9.008893e+00 4.856080e+00 4.629558e+00 4.814262e+00 9.938616e+00 8.863924e-01 1.311514e+00 1.100572e+00 2.175869e+00 1.461952e+00 1.664173e+00 1.357970e+00 1.440577e+00 1.265023e+00 1.058316e+00 7.997139e-01 7.860802e-01 7.201847e-01
<GCONST> 1.518848e+02
<STATE> 4
<NUMMIXES> 12
<MIXTURE> 1 8.746751e-02
<MEAN> 39
 1.285605e+01 6.413478e+00 -1.451810e+01 -1.112124e+00 -1.062655e+01 1.404500e+01 1.239037e+00 -7.671860e-01 -1.079972e+01 -1.449806e+00 6.119828e+00 1.018556e+01 -5.124794e+00 4.575330e-01 -4.760858e-02 -6.519114e-01 -3.952782e-01 6.134750e-01 -1.027400e-01 3.394713e-01 -1.642082e-01 -4.133789e-01 5.268923e-01 -2.037385e-01 2.132605e-01 8.288049e-02 -6.395089e-01 -3.946448e-01 6.593322e-01 1.839737e-01 6.940863e-01 -1.197226e-01 -3.002061e-01 -1.176618e-01 6.350642e-01 -4.325030e-02 -2.580143e-01 -2.898292e-01 -4.071287e-02
<VARIANCE> 39
 1.110938e+01 3.665997e+01 3.881026e+01 5.351100e+01 1.134456e+02 5.929599e+01 7.515248e+01 6.612746e+01 8.492625e+01 3.332788e+01 5.256120e+01 2.206005e+01 1.130228e+01 2.974502e+00 2.253315e+00 5.012845e+00 2.973257e+00 1.405991e+01 4.833216e+00 5.546524e+00 6.722581e+00 1.005831e+01 4.081623e+00 3.924635e+00 2.472577e+00 1.970122e+00 7.389445e-01 3.932760e-01 9.110835e-01 4.250821e-01 1.068476e+00 8.253053e-01 6.793429e-01 1.056626e+00 1.311702e+00 6.418483e-01 8.814726e-01 4.616776e-01 1.228223e-01
<GCONST> 1.333765e+02
<MIXTURE> 2 7.546496e-02
<MEAN> 39
 -2.497953e+01 1.078751e+00 5.253458e+00 2.931549e+00 9.131453e-01 7.845594e-01 2.199548e+00 5.167749e+00 3.580898e+00 -2.527197e+00 2.708181e+00 7.554363e+00 -8.717403e-01 -1.337264e+00 -9.689131e-01 -6.794595e-01 -2.743528e-02 7.001770e-01 1.100924e+00 5.536860e-01 4.288289e-01 4.461076e-01 3.722385e-01 2.216914e-01 2.088826e-01 -3.878778e-01 7.648127e-01 3.924778e-04 1.626581e-01 1.845457e-02 1.533731e-01 8.783168e-02 -2.410286e-01 -2.284930e-01 -1.702753e-01 -4.133060e-02 2.537078e-02 -9.640869e-02 -9.861577e-02
<VARIANCE> 39
 2.846184e+01 8.862872e+01 5.418593e+01 5.551455e+01 6.268604e+01 3.924194e+01 4.276456e+01 4.401410e+01 2.245861e+01 2.083616e+01 3.611753e+01 1.891025e+01 9.025278e+00 4.662918e+00 3.180855e+00 1.775654e+00 2.269415e+00 2.413167e+00 3.283508e+00 2.642520e+00 3.009997e+00 2.328994e+00 1.691948e+00 2.276895e+00 9.913045e-01 5.439337e-01 5.163372e-01 1.033385e+00 4.832922e-01 6.360660e-01 4.384992e-01 5.525184e-01 7.216919e-01 5.649128e-01 4.685679e-01 3.951141e-01 5.939932e-01 2.535451e-01 1.949273e-01
<GCONST> 1.182152e+02
<MIXTURE> 3 1.239964e-01
<MEAN> 39
 -1.568775e+00 8.710721e+00 -1.987792e+00 7.200161e+00 1.373824e+01 -6.594366e+00 8.704173e-01 -1.311000e+01 5.094426e+00 1.295127e+00 -6.394670e+00 2.260139e+00 -7.097099e+00 -2.150366e-01 8.261269e-03 1.076625e+00 8.162231e-01 -3.097388e-01 6.598725e-01 4.770170e-01 -5.016105e-01 -2.421757e-01 -1.253740e+00 5.462311e-01 8.951570e-01 -1.818032e+00 -6.845486e-02 -5.811146e-01 1.120125e-01 -4.680087e-01 -5.846738e-01 1.814798e-01 6.698509e-02 6.229096e-01 -5.109164e-03 -1.084091e-01 6.386445e-02 4.504030e-02 3.029914e-02
<VARIANCE> 39
 3.283021e+01 4.240340e+01 7.853268e+01 5.553370e+01 7.007768e+01 8.616006e+01 7.368756e+01 5.352040e+01 1.240506e+02 6.146462e+01 5.024228e+01 2.666072e+01 3.155112e+01 9.112266e-01 4.356194e+00 5.468488e+00 4.021092e+00 5.374041e+00 3.511508e+00 5.580539e+00 6.911243e+00 5.186697e+00 5.811126e+00 3.028457e+00 2.360103e+00 6.431300e-01 1.687106e-01 3.876843e-01 8.756165e-01 8.503299e-01 5.627230e-01 7.197132e-01 1.117695e+00 1.023702e+00 1.096535e+00 8.620430e-01 5.621763e-01 4.536495e-01 8.753412e-02
<GCONST> 1.322136e+02
<MIXTURE> 4 1.162579e-01
<MEAN> 39
 1.147405e+00 1.013260e+00 3.368945e+00 3.347040e+00 1.064100e+00 1.364548e+00 -2.615166e+00 -9.986098e-01 -8.526292e-01 -3.067686e+00 1.139589e+00 3.979600e+00 -1.226084e+01 -1.868825e+00 -6.850922e-01 1.961785e-01 -5.043906e-01 7.778997e-01 1.076226e-01 -6.016337e-01 1.044098e+00 1.051653e+00 -1.873488e-01 -2.451726e-01 1.249584e-01 2.187653e-01 -9.130665e-01 -4.597769e-02 -1.330197e-01 -3.670577e-01 -4.052090e-01 -1.300993e-01 2.338782e-01 4.046705e-02 2.377849e-01 4.026654e-01 1.526951e-02 8.776779e-02 1.057051e+00
<VARIANCE> 39
 8.363160e+01 5.789761e+01 1.218816e+02 4.373911e+01 3.698029e+01 6.869262e+01 6.087543e+01 5.076280e+01 5.741144e+01 4.755885e+01 3.327493e+01 2.578728e+01 5.279897e+01 1.038636e+01 6.121343e+00 9.053010e+00 4.871415e+00 5.557760e+00 8.572502e+00 6.543272e+00 7.211703e+00 7.559597e+00 7.848914e+00 3.482393e+00 3.351953e+00 8.851053e+00 7.627770e-01 5.771837e-01 1.150704e+00 8.256800e-01 1.092057e+00 9.337866e-01 1.029610e+00 9.155779e-01 6.003042e-01 9.848671e-01 5.190782e-01 4.576516e-01 6.005403e-01
<GCONST> 1.442468e+02
<MIXTURE> 5 6.072684e-02
<MEAN> 39
 1.390180e-01 -7.531753e+00 -4.945425e-01 2.908611e+00 2.747730e-01 1.223139e+00 1.200725e+00 3.490747e+00 4.471586e-01 -3.391215e+00 -1.840530e+00 4.379139e+00 -2.145017e+01 -1.746399e-02 -4.999546e-01 -4.106897e-01 3.441337e-01 -1.445185e-01 3.441971e-01 2.450915e-01 2.644344e-01 1.652856e-01 -1.288785e-01 1.891447e-01 -8.382373e-02 -5.222816e-01 -1.065175e-01 3.216794e-01 5.337020e-02 -2.405538e-02 1.812596e-01 -1.694430e-01 -5.618860e-02 -3.095685e-01 7.617786e-02 9.015554e-03 4.186707e-02 -1.218871e-02 3.024268e-01
<VARIANCE> 39
 7.898312e+00 6.756339e+00 1.101696e+01 2.136850e+01 1.670582e+01 8.991904e+00 1.729177e+01 2.376237e+01 1.313241e+01 2.829909e+01 1.900283e+01 2.307570e+01 3.641345e+00 3.162996e-01 3.739928e-01 8.149658e-01 1.044011e+00 7.539074e-01 1.543172e+00 1.543936e+00 2.077860e+00 2.057031e+00 1.867390e+00 2.008145e+00 8.747640e-01 7.826076e-02 1.223876e-01 1.436277e-01 2.098710e-01 1.703200e-01 2.400091e-01 2.560369e-01 3.184987e-01 3.104572e-01 4.423387e-01 3.142587e-01 2.524301e-01 1.750914e-01 6.316745e-02
<GCONST> 8.349211e+01
<MIXTURE> 6 7.443079e-02
<MEAN> 39
 -2.918670e+00 -4.221661e-01 7.683776e+00 4.614851e+00 -2.231010e+00 -1.284803e+01 4.724979e+00 5.665985e+00 -6.263171e+00 -7.091936e+00 -5.745731e-01 3.511725e+00 -6.232988e+00 8.879240e-01 -4.175290e-01 5.557182e-01 1.043615e+00 -6.189380e-01 4.176145e-01 3.159325e-01 1.962973e-01 -9.764021e-01 -4.936397e-01 2.927069e-02 1.407018e-01 -1.279472e+00 -4.172607e-01 -8.393934e-02 -2.135198e-01 -3.012260e-01 1.459051e-01 7.379645e-01 -2.994379e-01 -1.136690e-01 6.390636e-01 2.953232e-01 1.275479e-01 1.344628e-01 1.807460e-01
<VARIANCE> 39
 4.546767e+01 2.472340e+01 1.244860e+02 2.899223e+01 3.016838e+01 1.424883e+02 3.703398e+01 6.328888e+01 4.168463e+01 1.708393e+01 3.194371e+01 2.153981e+01 1.024395e+02 3.356444e+00 2.276695e+00 7.042803e+00 2.472121e+00 2.278320e+00 7.326824e+00 3.212176e+00 4.661710e+00 5.062046e+00 3.355008e+00 2.694001e+00 1.578143e+00 1.544928e+00 6.151153e-01 2.271315e-01 1.067292e+00 6.018081e-01 5.164100e-01 6.240143e-01 6.862194e-01 6.196821e-01 9.404861e-01 6.356480e-01 5.414568e-01 3.314576e-01 3.526411e-01
<GCONST> 1.282038e+02
<MIXTURE> 7 4.814218e-02
<MEAN> 39
 4.626495e+00 7.539177e+00 -1.287617e+01 -1.133385e+01 1.857501e+00 7.958008e+00 6.243913e+00 -1.484726e+01 8.483383e-02 1.679480e+01 2.710441e+00 1.480528e-01 4.373256e+00 -5.018988e-01 -1.337796e+00 7.932500e-01 1.122828e+00 -3.659489e-01 9.009680e-01 -2.302011e+00 -1.105358e+00 1.242867e+00 6.655205e-01 2.388663e-02 -1.108047e-01 1.384513e-01 1.074578e-01 -1.981458e-01 7.782029e-02 5.915970e-01 1.188788e-01 -2.354378e-01 -4.371104e-01 6.915653e-01 3.580990e-01 -1.146964e+00 -1.764945e-01 3.898399e-01 -4.005522e-01
<VARIANCE> 39
 1.045484e+01 1.994245e+01 4.632333e+01 6.375069e+01 4.224084e+01 8.494294e+01 8.592690e+01 8.016849e+01 3.810287e+01 4.319962e+01 1.728302e+01 3.858716e+01 6.754603e+00 1.228019e+00 1.166413e+00 1.638522e+00 5.660097e+00 3.436152e+00 3.329026e+00 5.694451e+00 8.917844e+00 3.118147e+00 1.152953e+01 2.459805e+00 2.565156e+00 3.120811e+00 2.586680e-01 1.711770e-01 2.640744e-01 4.796195e-01 1.038084e+00 5.904285e-01 1.310164e+00 1.849045e+00 3.052423e-01 1.267637e+00 4.393414e-01 3.936278e-01 1.380487e-01
<GCONST> 1.238905e+02
<MIXTURE> 8 6.569844e-02
<MEAN> 39
 -1.620854e+01 -1.015426e+01 3.374556e+00 2.455667e+00 4.219383e+00 7.521140e+00 -6.373518e+00 7.294756e-01 3.256357e+00 -3.567579e+00 1.598499e+00 6.222884e+00 -3.209669e-01 -2.122808e+00 9.872640e-01 -1.221782e+00 -8.707956e-01 -3.836878e-01 -7.109931e-01 8.261602e-01 7.258103e-01 1.666615e+00 6.202511e-01 -1.368050e-01 1.773794e-01 1.848076e+00 1.694681e+00 1.135540e+00 -2.223103e-01 1.963205e-01 -4.514351e-01 -7.930034e-01 8.015974e-01 8.024971e-02 -4.638721e-01 1.472594e-01 -3.997999e-02 -2.259056e-01 -6.943288e-01
<VARIANCE> 39
 7.021438e+01 6.283137e+01 1.033569e+02 5.408473e+01 4.340642e+01 5.340628e+01 6.657992e+01 3.698360e+01 4.530217e+01 2.554244e+01 4.117318e+01 2.452687e+01 2.396237e+01 2.089594e+01 9.095389e+00 1.203653e+01 4.257874e+00 4.680915e+00 7.692447e+00 6.367439e+00 2.890673e+00 4.483405e+00 3.567693e+00 4.489682e+00 3.153672e+00 9.123831e+00 8.886213e-01 1.506708e+00 1.738819e+00 1.068184e+00 1.229442e+00 1.657110e+00 1.450197e+00 1.099500e+00 9.998233e-01 1.059238e+00 9.532748e-01 4.844989e-01 6.209460e-01
<GCONST> 1.456147e+02
<MIXTURE> 9 6.593596e-02
<MEAN> 39
 -2.690566e+00 -2.631106e+00 1.774403e+00 2.245048e+00 3.878824e+00 5.645974e-01 6.035293e-01 -4.951064e+00 4.795752e+00 -5.395573e+00 -3.930394e+00 7.559542e+00 -1.641273e+01 2.826686e-01 -2.111652e+00 2.443130e-01 -7.001418e-01 -1.896599e+00 7.612573e-02 -8.668725e-01 1.917640e+00 -9.766285e-01 -6.085498e-01 3.696054e-01 -3.311051e-01 -1.600321e+00 6.492835e-02 3.357254e-01 -4.542499e-01 4.068536e-01 4.766488e-01 2.747882e-02 1.402906e-01 -1.262030e-01 -2.665308e-01 3.032615e-01 1.110463e-01 -3.173755e-01 3.225422e-01
<VARIANCE> 39
 3.498542e+01 2.816035e+01 4.024960e+01 5.564878e+01 3.157781e+01 4.290868e+01 4.705544e+01 6.419305e+01 5.463999e+01 5.692751e+01 3.844985e+01 1.960593e+01 1.644353e+01 2.619801e+00 2.709073e+00 5.098645e+00 4.507942e+00 3.607690e+00 4.777741e+00 4.105863e+00 3.883920e+00 6.421094e+00 4.559658e+00 2.708537e+00 2.008012e+00 6.697404e-01 2.794816e-01 2.771947e-01 1.020787e+00 5.102362e-01 4.247706e-01 6.607193e-01 7.234622e-01 7.258561e-01 1.055418e+00 9.473903e-01 4.601630e-01 4.126633e-01 1.096142e-01
<GCONST> 1.253598e+02
<MIXTURE> 10 1.216571e-01
<MEAN> 39
 -3.029697e+00 2.104455e+00 -6.851635e+00 -5.572095e-02 2.025035e+00 -6.040412e+00 3.195185e+00 -5.348854e+00 1.256026e+01 6.373894e+00 -6.330411e+00 2.392279e+00 6.996786e+00 1.284465e-01 5.468445e-01 1.267445e-01 1.385458e-01 3.989103e-01 -5.526267e-01 -2.498365e-01 -4.213628e-01 -3.542101e-01 -6.050907e-02 -1.064216e-01 -4.434485e-02 -7.647071e-01 3.839630e-02 2.037496e-01 3.595866e-01 2.015691e-01 1.296471e-01 -7.964966e-02 -3.151459e-01 1.045118e-01 -2.620852e-01 -2.072673e-01 3.529494e-01 -8.309588e-03 -4.757004e-01
<VARIANCE> 39
 8.989061e+00 1.748330e+01 3.511282e+01 5.150458e+01 4.062820e+01 2.517762e+01 5.861678e+01 6.539299e+01 3.013705e+01 5.102693e+01 2.739381e+01 3.400033e+01 1.038249e+01 6.207940e-01 1.356184e+00 1.756120e+00 2.971404e+00 4.166185e+00 2.408587e+00 4.526842e+00 5.390695e+00 3.376022e+00 3.830790e+00 2.067513e+00 2.151302e+00 1.204223e+00 1.655184e-01 1.890239e-01 3.224115e-01 4.062913e-01 3.884470e-01 4.519660e-01 6.010129e-01 6.154710e-01 4.884609e-01 5.986511e-01 3.369133e-01 3.197503e-01 2.113106e-01
<GCONST> 1.139067e+02
<MIXTURE> 11 9.338568e-02
<MEAN> 39
 -2.664465e+00 3.148156e-01 -4.160587e+00 2.095664e-01 4.602417e+00 1.894395e+00 -2.257864e+00 -1.133727e-01 7.382954e+00 1.045734e+00 -2.745370e-01 2.522159e+00 1.071393e+00 2.552779e+00 1.544977e+00 -1.993507e+00 -1.114604e+00 -5.525717e-01 -1.011005e+00 1.307785e+00 -1.281032e+00 -5.814156e-01 5.631366e-01 -3.067379e-01 -2.366643e-02 7.699743e-01 -4.817129e-02 -3.668965e-01 -1.685691e-01 1.084511e-01 -1.211525e-01 1.990925e-01 4.551800e-01 -1.528913e-01 -6.285394e-01 2.338946e-02 -7.499049e-02 1.012061e-01 -4.302434e-01
<VARIANCE> 39
 5.572520e+01 4.604207e+01 5.085843e+01 6.518792e+01 1.224477e+02 1.240537e+02 9.179836e+01 4.961913e+01 5.516489e+01 6.003941e+01 6.280453e+01 4.605027e+01 3.004635e+01 1.070435e+01 6.532659e+00 5.401017e+00 7.704033e+00 8.913346e+00 7.647229e+00 8.755831e+00 4.216302e+00 6.348957e+00 4.330964e+00 8.914772e+00 3.970506e+00 6.601949e+00 1.351470e+00 9.432328e-01 8.208393e-01 1.221802e+00 1.730189e+00 1.510391e+00 1.413604e+00 1.120747e+00 9.741141e-01 1.380580e+00 9.143305e-01 6.382359e-01 4.874651e-01
<GCONST> 1.504437e+02
<MIXTURE> 12 6.683393e-02
<MEAN> 39
 -2.639565e+01 1.377025e+00 7.064986e+00 9.459937e-02 3.728473e+00 4.196092e+00 1.008484e+00 5.189585e+00 4.017705e+00 -2.629251e+00 2.964104e+00 8.282644e+00 -4.527121e+00 1.357052e+00 -1.611311e-02 -5.609624e-01 1.084547e-01 2.017288e-01 -3.622509e-01 -4.784096e-01 -6.100935e-01 -1.412964e-01 -1.737927e-02 -8.420855e-01 -2.882366e-01 -8.169095e-01 8.493249e-01 1.112440e-01 -2.237903e-01 9.212699e-02 -2.237466e-01 -3.595342e-01 1.207076e-02 -6.279132e-02 -1.991370e-01 -1.038559e-01 -1.648000e-01 -1.309602e-01 -5.023061e-02
<VARIANCE> 39
 1.366626e+01 2.433235e+01 1.461721e+01 2.451059e+01 4.174554e+01 3.795668e+01 2.233361e+01 2.322409e+01 1.383855e+01 1.913055e+01 2.261621e+01 1.922596e+01 1.364311e+01 6.285097e+00 2.060295e+00 2.604979e+00 2.528020e+00 1.389076e+00 3.064542e+00 3.166720e+00 1.996987e+00 2.347307e+00 1.831436e+00 1.632677e+00 1.470782e+00 3.513805e+00 7.026622e-01 5.293326e-01 2.256976e-01 5.325243e-01 3.134762e-01 8.126828e-01 4.850850e-01 5.071337e-01 3.939700e-01 2.586969e-01 2.929939e-01 2.483636e-01 2.360587e-01
<GCONST> 1.103560e+02
<TRANSP> 5
 0.000000e+00 1.000000e+00 0.000000e+00 0.000000e+00 0.000000e+00
 0.000000e+00 9.411869e-01 5.881307e-02 0.000000e+00 0.000000e+00
 0.000000e+00 0.000000e+00 9.939224e-01 6.077645e-03 0.000000e+00
 0.000000e+00 0.000000e+00 0.000000e+00 9.752023e-01 2.479776e-02
 0.000000e+00 0.000000e+00 0.000000e+00 0.000000e+00 0.000000e+00
<ENDHMM>
~h "M002"
<BEGINHMM>
<NUMSTATES> 5
<STATE> 2
<NUMMIXES> 12
<MIXTURE> 1 6.672572e-02
<MEAN> 39
 -1.525396e+00 -3.984445e-01 -2.462965e+00 6.266079e+00 5.946205e+00 -3.258416e+00 1.097296e+01 4.273620e-02 6.906679e-01 -2.308669e+00 -3.158168e+00 4.581182e+00 -2.668623e+01 -2.331883e-01 3.779888e-01 1.750180e-01 1.348801e-01 -1.484692e-01 2.521890e-01 -3.274293e-01 -2.434708e-01 -8.092341e-02 7.922846e-02 1.386738e-01 -8.752918e-02 1.242708e+00 -1.357398e-01 1.922677e-01 9.637088e-02 -1.784711e-01 1.020624e-03 3.944181e-02 -1.682825e-01 1.219027e-02 -3.026428e-04 1.691163e-01 1.158951e-01 -1.221552e-02 7.930366e-01
<VARIANCE> 39
 1.924516e+01 2.117855e+01 1.705560e+01 2.471991e+01 3.877393e+01 2.489513e+01 4.013313e+01 2.705805e+01 1.917498e+01 2.722395e+01 2.636926e+01 2.044773e+01 7.892624e+01 2.740669e+00 1.793433e+00 3.382526e+00 1.883482e+00 2.849533e+00 3.508595e+00 1.906659e+00 1.816904e+00 2.212069e+00 2.213112e+00 1.962819e+00 1.405239e+00 4.816257e+00 3.324855e-01 1.621352e-01 2.797931e-01 4.861071e-01 3.359925e-01 4.249072e-01 3.355475e-01 2.498754e-01 3.171420e-01 4.557829e-01 2.801072e-01 2.113587e-01 8.716382e-01
<GCONST> 1.114351e+02
<MIXTURE> 2 8.347857e-02
<MEAN> 39
 -1.388632e-01 -3.525256e+00 -1.078810e+01 2.653958e+00 6.792838e+00 1.049042e+01 -4.915163e+00 -3.575074e+00 -3.515529e+00 3.121771e+00 3.805596e-01 -1.007624e+00 1.900990e+00 1.654065e-02 5.385101e-02 8.311608e-02 -3.986615e-03 -1.041571e-03 1.334024e-02 5.403994e-02 -4.448017e-02 2.921237e-02 8.038615e-02 4.584430e-02 5.550292e-03 -2.349450e-02 1.033476e-02 3.211575e-02 4.489173e-02 -1.949943e-02 -2.736835e-02 -2.210689e-02 5.740444e-02 4.306434e-02 3.368882e-02 3.122729e-03 5.601107e-02 7.474662e-02 -1.206693e-03
<VARIANCE> 39
 1.519850e+00 2.843385e+00 3.597900e+01 1.270908e+01 1.558664e+01 2.130745e+01 2.480662e+01 7.496518e+00 1.713220e+01 1.488415e+01 1.211880e+01 1.222229e+01 3.348539e+00 8.370047e-02 2.327606e-01 8.656380e-01 6.164525e-01 1.155288e+00 1.443328e+00 1.408565e+00 7.991154e-01 9.807066e-01 1.464791e+00 1.379289e+00 1.187818e+00 4.495641e-02 1.674681e-02 5.095109e-02 1.522410e-01 1.181122e-01 2.351923e-01 2.544151e-01 3.166895e-01 1.534997e-01 1.720201e-01 3.371449e-01 2.810431e-01 2.622828e-01 6.775266e-03
<GCONST> 6.848774e+01
<MIXTURE> 3 8.535191e-02
<MEAN> 39
 5.241442e+00 -1.441958e+00 -2.392069e+01 -5.142455e+00 -5.529506e+00 1.444917e+01 -4.417130e+00 5.927607e+00 -5.705400e+00 6.960964e+00 -2.050828e+00 7.350354e-01 6.955571e+00 2.569111e-02 9.174881e-03 -5.003661e-02 -1.644219e-02 -5.486378e-02 2.996251e-02 9.419610e-03 4.818293e-02 -5.249892e-02 -4.438908e-02 -1.640566e-02 3.089262e-02 3.640743e-02 -9.196858e-03 3.625596e-03 5.855940e-02 1.331935e-02 1.274720e-02 -2.365362e-02 -2.857325e-04 -4.077791e-02 -1.247761e-02 -2.590393e-02 -1.013457e-02 -3.451106e-02 -1.211669e-02
<VARIANCE> 39
 5.218897e+00 5.811839e+00 2.278573e+01 6.650042e+00 2.091868e+01 1.858187e+01 2.603803e+01 1.835023e+01 1.461925e+01 1.555856e+01 1.286178e+01 1.243749e+01 3.921782e+00 1.045042e-01 1.688874e-01 1.036011e+00 5.973586e-01 9.007408e-01 8.149052e-01 1.169794e+00 1.199339e+00 1.182963e+00 1.133154e+00 1.368239e+00 1.325177e+00 9.353190e-02 1.310922e-02 2.628327e-02 1.683723e-01 1.177519e-01 1.779579e-01 1.663942e-01 2.229141e-01 2.425290e-01 2.381934e-01 1.913424e-01 2.650912e-01 2.476631e-01 8.293036e-03
<GCONST> 6.920647e+01
<MIXTURE> 4 1.125903e-01
<MEAN> 39
 -7.065999e-01 3.027874e-01 3.831014e+00 5.274967e-01 8.991663e-01 -2.144700e+00 8.980070e-01 -9.211854e-01 9.152093e-01 -1.848867e+00 -7.092401e-01 -1.014193e+00 -1.140909e+00 4.885960e-02 5.942266e-02 1.601041e-01 1.470609e-01 1.231044e-01 3.580444e-01 4.315374e-01 2.466511e-01 1.107394e-01 1.920817e-01 2.054870e-01 9.558751e-02 2.310847e-02 -4.349817e-02 -1.493553e-02 7.792857e-02 9.400386e-02 7.740237e-02 -6.284918e-02 2.673403e-02 -4.323662e-03 2.977261e-02 8.757351e-02 2.403818e-01 1.775115e-01 -2.358004e-02
<VARIANCE> 39
 7.302016e-01 1.001567e+00 4.480644e+00 1.760595e+00 3.891767e+00 9.645724e+00 7.412783e+00 6.827147e+00 9.922678e+00 6.897151e+00 5.001056e+00 6.983103e+00 8.285324e-01 6.041060e-02 1.405015e-01 3.476114e-01 5.219580e-01 7.839890e-01 7.125058e-01 7.057237e-01 7.659025e-01 1.369725e+00 8.467901e-01 1.005463e+00 9.033435e-01 3.408687e-02 8.150189e-03 1.661298e-02 5.220853e-02 5.352591e-02 9.941950e-02 1.479317e-01 1.749898e-01 1.478440e-01 2.313317e-01 1.768215e-01 1.528862e-01 1.783286e-01 4.365372e-03
<GCONST> 4.267576e+01
<MIXTURE> 5 9.068996e-02
<MEAN> 39
 -4.207120e-01 1.481991e+00 6.750593e+00 2.792979e+00 1.977600e+00 -3.614554e+00 5.292299e-01 -2.171222e+00 -1.032767e+00 -3.905553e+00 -1.073796e+00 -5.720830e-02 -1.253008e+00 -8.737327e-02 -4.724659e-02 -6.928267e-02 -3.115037e-02 -7.164305e-02 -2.925710e-01 -2.808565e-01 -1.605486e-01 4.126335e-02 -1.126994e-01 8.528902e-02 -1.083790e-02 -6.276646e-02 -4.912046e-02 -8.703888e-02 -1.895421e-01 -2.812413e-01 -2.106458e-01 7.403257e-03 3.791371e-02 1.999970e-01 3.372464e-01 3.118269e-01 1.066546e-01 -6.283941e-02 -1.322642e-02
<VARIANCE> 39
 1.411726e+00 3.291288e+00 6.223986e+00 2.510443e+00 4.835133e+00 7.535779e+00 8.584190e+00 9.506457e+00 8.699568e+00 6.921689e+00 9.434208e+00 8.225574e+00 8.285324e-01 6.468945e-02 2.026812e-01 3.688021e-01 4.135699e-01 6.131623e-01 6.551741e-01 8.925810e-01 8.285298e-01 1.093760e+00 1.113836e+00 1.051312e+00 9.651352e-01 3.408687e-02 1.447512e-02 4.104154e-02 7.807503e-02 7.148328e-02 1.209994e-01 1.420273e-01 1.794646e-01 1.740280e-01 2.107379e-01 1.812518e-01 2.169332e-01 1.984605e-01 4.879526e-03
<GCONST> 4.974582e+01
<MIXTURE> 6 7.488105e-02
<MEAN> 39
 -2.871083e+00 -2.037586e+00 4.056353e+00 3.516690e-01 3.102013e+00 -9.324399e-01 4.315895e+00 3.997646e-01 3.201603e+00 -6.891794e-01 2.184172e+00 8.309107e-01 -2.389634e+00 2.093144e-02 8.392266e-02 1.643401e-01 2.120772e-01 7.677354e-02 -2.530983e-01 -5.129184e-02 -8.011162e-02 3.738092e-02 -1.444803e-02 3.306734e-01 2.077385e-01 -3.649026e-03 1.251913e-01 1.915336e-01 1.874394e-01 1.668892e-01 7.990199e-02 -1.123834e-01 -1.618990e-01 -7.458227e-03 3.027480e-02 -3.569590e-02 -6.351837e-02 -6.782470e-02 3.514410e-02
<VARIANCE> 39
 1.058138e+00 1.298343e+00 8.140720e+00 3.470325e+00 5.914946e+00 1.019140e+01 7.759154e+00 1.042181e+01 1.034997e+01 1.052979e+01 7.848063e+00 1.048575e+01 8.285324e-01 8.018481e-02 1.882549e-01 3.956755e-01 3.512548e-01 5.160263e-01 9.034098e-01 1.133233e+00 1.333582e+00 1.092601e+00 1.006489e+00 1.172615e+00 1.149211e+00 3.408687e-02 1.307352e-02 2.538181e-02 7.148687e-02 7.706416e-02 1.084902e-01 1.500486e-01 1.679421e-01 2.535653e-01 2.349409e-01 1.470746e-01 2.460033e-01 2.217058e-01 5.354771e-03
<GCONST> 5.124834e+01
<MIXTURE> 7 8.960773e-02
<MEAN> 39
 -1.536531e+00 -4.620688e-01 4.014718e+00 -4.355679e-01 -8.044639e-01 -5.023072e+00 -1.063110e+00 -2.223688e+00 4.331534e-01 -2.554372e+00 -1.714082e-01 -6.686516e-01 -1.666834e+00 -3.352733e-02 -6.638798e-02 -5.065982e-02 -2.077646e-01 -1.507750e-01 -7.898585e-03 2.655442e-02 7.680205e-02 -1.740163e-01 -1.181744e-01 -3.046288e-01 -1.705727e-01 1.185392e-02 1.070018e-01 1.512524e-01 1.197301e-01 2.155156e-01 2.245195e-01 2.792305e-01 3.222955e-01 2.141957e-01 1.202885e-01 1.874648e-01 9.778098e-02 1.083318e-01 6.035940e-02
<VARIANCE> 39
 7.302016e-01 1.280321e+00 5.061559e+00 3.005892e+00 4.932395e+00 7.056391e+00 6.125498e+00 6.148453e+00 9.297415e+00 9.759341e+00 1.071759e+01 8.439554e+00 8.285324e-01 7.759117e-02 2.118352e-01 3.411151e-01 4.577196e-01 5.930033e-01 7.263747e-01 9.326439e-01 9.592581e-01 1.472928e+00 1.445857e+00 9.385325e-01 9.946517e-01 3.408687e-02 1.032521e-02 2.953334e-02 7.388012e-02 9.036863e-02 1.224663e-01 1.465592e-01 1.509237e-01 1.666605e-01 2.500411e-01 2.769883e-01 2.751193e-01 2.086997e-01 4.365372e-03
<GCONST> 4.895570e+01
<MIXTURE> 8 8.487396e-02
<MEAN> 39
 5.888790e+00 5.078141e+00 -6.310861e+00 -6.688733e+00 -1.502095e+01 -2.936154e+00 -4.901744e+00 1.392112e+00 -6.666470e+00 4.444565e-01 -4.606550e+00 8.508512e-01 4.454387e+00 -7.748813e-02 3.968848e-03 2.670513e-01 5.509817e-02 1.284314e-01 -1.015274e-01 1.421886e-01 4.304238e-02 1.580075e-01 -1.102975e-01 -5.983608e-02 -8.883334e-02 -9.772202e-02 -1.249412e-02 -1.587205e-02 4.762401e-03 2.943798e-02 5.925383e-02 3.330272e-02 4.845157e-02 1.482183e-02 2.608492e-02 7.216393e-03 -2.361014e-03 -1.485371e-03 -6.182036e-03
<VARIANCE> 39
 6.846418e+00 3.392253e+00 5.591713e+01 9.607963e+00 2.107966e+01 2.565207e+01 2.225809e+01 3.936463e+01 5.424471e+01 1.897769e+01 2.130512e+01 1.633398e+01 9.543803e+00 8.871721e-02 1.473064e-01 5.819650e-01 3.613467e-01 1.110425e+00 1.194947e+00 1.254812e+00 1.636066e+00 1.243389e+00 1.461836e+00 1.737458e+00 1.328856e+00 6.256815e-02 1.729223e-02 2.770503e-02 1.244898e-01 5.212912e-02 2.036340e-01 2.646003e-01 2.575086e-01 2.948875e-01 2.263350e-01 3.012263e-01 3.713886e-01 2.977133e-01 1.098261e-02
<GCONST> 7.541111e+01
<MIXTURE> 9 8.386125e-02
<MEAN> 39
 -1.042165e+00 -1.265455e-01 4.099023e+00 2.151157e+00 3.603972e+00 -2.084891e-01 1.734686e+00 -2.512784e-01 2.292892e+00 1.088491e+00 3.536195e+00 9.873689e-01 -1.230167e+00 3.380733e-02 -3.266030e-03 4.240600e-02 1.584452e-01 1.967172e-01 1.169766e-01 1.378147e-02 1.162217e-01 3.104217e-01 4.073599e-01 2.615212e-01 3.316672e-01 2.470946e-02 -1.670942e-02 -2.335310e-02 -7.260828e-02 -2.340880e-01 -3.074816e-01 -2.185262e-01 -1.153883e-01 -1.219085e-01 -1.363322e-01 -2.938133e-01 -4.384382e-01 -1.854633e-01 -1.792920e-02
<VARIANCE> 39
 7.302016e-01 1.415296e+00 7.121539e+00 4.207504e+00 5.740201e+00 1.335082e+01 1.191357e+01 7.498353e+00 6.827105e+00 6.606729e+00 7.361251e+00 9.388021e+00 8.285324e-01 7.508883e-02 1.586824e-01 4.724288e-01 5.363961e-01 8.092642e-01 1.069547e+00 1.103120e+00 9.703352e-01 1.071407e+00 9.659144e-01 1.167723e+00 7.129610e-01 3.408687e-02 1.669175e-02 3.370710e-02 8.964251e-02 9.367617e-02 1.094498e-01 2.091085e-01 2.189251e-01 1.806891e-01 1.885373e-01 1.967603e-01 1.826349e-01 1.809488e-01 5.524995e-03
<GCONST> 5.121878e+01
<MIXTURE> 10 6.418435e-02
<MEAN> 39
 -5.125836e-01 1.522418e+00 5.405761e+00 -3.640881e-01 -1.497652e+00 -4.048690e+00 2.656305e+00 5.886588e-01 1.241948e+00 -1.333230e+00 -1.697628e-01 -2.880684e-01 -1.157063e+00 1.042809e-01 1.192520e-01 -1.269156e-01 1.004261e-01 2.109158e-01 4.771669e-03 -9.552204e-02 -2.658672e-02 3.635028e-02 -3.469110e-02 1.303941e-01 1.365556e-01 4.525984e-02 -6.095055e-02 -1.783571e-01 -1.063460e-01 2.041653e-01 3.529017e-01 1.148858e-01 -3.313576e-01 -2.715589e-01 1.308470e-02 1.309943e-03 7.279795e-02 -1.103845e-02 -3.028473e-02
<VARIANCE> 39
 7.302016e-01 9.911839e-01 3.428620e+00 4.131298e+00 4.219687e+00 5.665544e+00 4.739618e+00 9.293159e+00 9.338148e+00 1.091261e+01 9.206488e+00 8.549360e+00 8.285324e-01 9.179462e-02 2.189778e-01 4.329146e-01 4.998886e-01 6.650025e-01 6.141417e-01 1.124847e+00 9.685672e-01 1.206386e+00 1.706701e+00 1.187030e+00 8.263572e-01 3.408687e-02 1.641657e-02 2.936461e-02 6.837960e-02 1.106474e-01 9.753586e-02 9.522836e-02 1.258017e-01 1.990030e-01 2.673637e-01 3.310657e-01 2.532844e-01 1.777297e-01 6.935820e-03
<GCONST> 4.945808e+01
<MIXTURE> 11 8.711773e-02
<MEAN> 39
 -3.245724e+00 -9.721739e-01 8.821423e+00 2.829332e+00 4.547193e+00 -3.997319e+00 4.668528e+00 1.517652e+00 5.691879e+00 -2.029748e+00 1.149080e+00 -9.244094e-01 -3.296219e+00 3.615114e-04 -4.046997e-03 -3.993019e-03 -4.307199e-02 5.899969e-03 9.818836e-02 1.493195e-01 1.406235e-01 -6.800436e-03 2.702411e-02 -1.218203e-01 -5.095708e-02 5.038260e-03 -6.581398e-03 -4.178197e-02 -1.238780e-01 -9.552409e-02 -8.794947e-02 3.958407e-02 -2.790159e-02 -8.116892e-02 -9.117733e-02 4.734701e-02 6.551173e-02 8.703530e-02 1.287675e-02
<VARIANCE> 39
 7.665629e-01 1.416480e+00 3.512509e+00 2.854691e+00 5.670092e+00 1.060767e+01 9.453117e+00 1.099967e+01 8.897771e+00 7.890787e+00 7.540906e+00 8.549281e+00 8.285324e-01 8.798503e-02 2.149700e-01 4.569839e-01 4.322830e-01 7.140933e-01 1.073367e+00 9.594234e-01 1.304338e+00 1.141479e+00 8.166944e-01 8.660918e-01 1.036473e+00 3.408687e-02 1.525986e-02 2.899155e-02 7.751279e-02 7.547957e-02 1.563211e-01 2.347241e-01 2.235666e-01 2.824570e-01 2.409130e-01 1.643455e-01 1.990920e-01 2.143694e-01 5.607836e-03
<GCONST> 5.134851e+01
<MIXTURE> 12 7.663175e-02
<MEAN> 39
 -8.064861e-01 1.233450e-01 4.194996e+00 1.443950e+00 2.178714e+00 -1.718829e+00 1.185788e+00 -3.695090e-01 3.408304e+00 1.228760e+00 2.211488e+00 1.084638e+00 -1.221856e+00 -1.498667e-01 -2.108984e-01 -1.472144e-01 -3.595990e-01 -3.640918e-01 -2.753774e-01 -3.624655e-01 -4.435358e-01 -3.248123e-01 -4.608405e-01 -6.221459e-01 -5.374354e-01 -8.000582e-02 -4.312803e-02 -3.249660e-02 -4.247381e-03 -8.063547e-02 -1.107871e-01 -3.495205e-02 4.877803e-02 -4.022020e-02 -3.853872e-01 -3.796767e-01 -2.424306e-01 -1.940503e-01 -1.323199e-02
<VARIANCE> 39
 7.302016e-01 1.414805e+00 5.247575e+00 2.218779e+00 5.860540e+00 9.993497e+00 8.678797e+00 8.574179e+00 1.148441e+01 7.918489e+00 7.531218e+00 7.897101e+00 8.285324e-01 7.190723e-02 1.793086e-01 4.794129e-01 5.664188e-01 7.257094e-01 8.950547e-01 9.028928e-01 9.504998e-01 1.119943e+00 1.247433e+00 1.254126e+00 1.104755e+00 3.408687e-02 1.273374e-02 3.480583e-02 9.235521e-02 6.686146e-02 8.683540e-02 1.618414e-01 2.085222e-01 1.717938e-01 2.884403e-01 2.023001e-01 2.268452e-01 2.011468e-01 5.467226e-03
<GCONST> 5.045428e+01
<STATE> 3
<NUMMIXES> 12
<MIXTURE> 1 7.118234e-02
<MEAN> 39
 1.863451e+00 -6.100597e+00 -1.115457e+01 -8.264413e+00 1.041849e+01 3.900774e+00 3.786315e+00 -4.228551e-01 6.865653e+00 4.850092e-01 -7.756394e+00 -1.389628e+00 -1.177605e+01 -1.097262e+00 8.117852e-01 1.936815e-01 5.787804e-01 2.231714e-01 -3.622752e-01 6.749054e-01 -2.213655e-01 2.186157e-01 -4.879611e-01 1.376608e-01 6.907738e-01 6.423457e-01 -3.935246e-01 2.595672e-01 5.965243e-01 3.924167e-01 -3.713300e-01 -2.319157e-01 -1.118390e-01 1.959973e-01 -2.304039e-01 -1.005656e-02 3.878651e-01 2.243476e-01 9.052500e-01
<VARIANCE> 39
 5.633503e+01 5.133083e+01 4.759800e+01 1.048522e+02 1.010564e+02 6.586855e+01 7.900109e+01 7.036309e+01 6.812831e+01 5.868951e+01 4.905088e+01 6.523193e+01 6.637691e+01 5.521133e+00 4.973298e+00 4.818818e+00 5.580022e+00 5.859598e+00 5.640181e+00 6.868704e+00 6.481987e+00 4.576009e+00 4.201850e+00 3.932651e+00 4.942263e+00 7.396201e+00 5.657784e-01 5.246577e-01 6.762445e-01 7.171683e-01 9.734499e-01 9.169830e-01 1.190735e+00 8.521211e-01 8.529015e-01 7.566671e-01 7.742605e-01 8.350207e-01 8.275312e-01
<GCONST> 1.448706e+02
<MIXTURE> 2 8.113261e-02
<MEAN> 39
 -1.442346e+00 -7.107957e+00 -9.938430e+00 -8.073836e+00 5.108895e+00 8.985415e+00 1.659152e+00 2.564496e+00 5.181192e+00 4.296104e+00 -2.959589e+00 -4.728012e+00 1.246584e+01 3.441788e-02 -1.197188e-01 3.309000e-02 1.968169e-01 1.896120e-02 -3.124157e-01 -5.258708e-02 7.972407e-02 5.448074e-02 6.296673e-02 -1.862350e-01 -1.269790e-01 5.176537e-02 4.280411e-02 1.854904e-02 1.030922e-01 5.427285e-02 -6.109559e-02 -1.278062e-01 -1.903308e-01 1.746457e-01 -2.832293e-02 1.410942e-02 -4.244088e-02 5.956313e-02 -8.002436e-02
<VARIANCE> 39
 4.117457e+00 1.506867e+01 1.192422e+01 3.176427e+01 1.792407e+01 2.934440e+01 2.499438e+01 2.816607e+01 1.854521e+01 4.102459e+01 2.137471e+01 2.141123e+01 3.795702e+00 1.289156e-01 2.091206e-01 3.279962e-01 4.238954e-01 5.435816e-01 6.800607e-01 9.371063e-01 1.047089e+00 5.627794e-01 5.171362e-01 8.160817e-01 6.779693e-01 6.608431e-02 2.681011e-02 4.110847e-02 7.420918e-02 5.416475e-02 9.585521e-02 9.951377e-02 1.801108e-01 1.745890e-01 9.321262e-02 1.288615e-01 1.324736e-01 1.073283e-01 1.131259e-02
<GCONST> 6.391883e+01
<MIXTURE> 3 5.991186e-02
<MEAN> 39
 -6.850353e+00 4.595624e+00 1.417644e+01 6.688058e+00 -1.277753e+01 -1.529465e+00 -4.629879e+00 -1.750776e+00 -7.984471e+00 -8.394573e+00 1.017167e+01 -3.412697e-01 7.228127e+00 -6.464467e-02 1.126370e-01 5.187084e-02 6.032275e-02 -2.011995e-01 -2.175542e-01 1.988637e-01 -1.397147e-01 -3.821605e-02 9.811907e-02 1.858714e-01 1.287400e-02 6.145534e-02 9.230370e-02 -3.058283e-02 -9.689450e-02 7.849131e-02 5.138492e-02 -1.068298e-01 5.023490e-02 7.729910e-02 7.143130e-02 1.807660e-02 -6.330300e-02 1.665254e-02 -9.049409e-02
<VARIANCE> 39
 7.963604e+00 9.290005e+00 4.340319e+01 1.854770e+01 2.260159e+01 1.894633e+01 2.440578e+01 4.113690e+01 3.685915e+01 2.682582e+01 1.845799e+01 2.362064e+01 4.302747e+00 1.708687e-01 2.176784e-01 3.910315e-01 5.980393e-01 6.040083e-01 9.556381e-01 7.286596e-01 6.783370e-01 1.081615e+00 6.538154e-01 5.912502e-01 6.900205e-01 6.321818e-02 2.563489e-02 3.572284e-02 5.479574e-02 8.280088e-02 1.297461e-01 1.514874e-01 1.449570e-01 1.290640e-01 1.832005e-01 1.587941e-01 1.191341e-01 1.120956e-01 2.604383e-02
<GCONST> 6.827294e+01
<MIXTURE> 4 7.040868e-02
<MEAN> 39
 -5.907521e-01 -6.692154e+00 -9.879272e+00 -8.366515e+00 3.842501e+00 8.413534e+00 -5.357563e-02 2.566924e+00 6.700293e+00 7.282313e+00 -9.568099e-01 -5.961660e+00 1.275902e+01 -1.789862e-01 -3.860779e-01 -7.274070e-02 3.484761e-01 1.424357e-01 -2.921093e-01 2.714150e-01 6.726259e-01 5.025154e-01 -5.682107e-01 -5.939302e-01 -3.539770e-01 2.242232e-01 1.692237e-01 1.971297e-01 3.428149e-01 1.851974e-01 -1.393621e-01 -3.255627e-01 -3.081129e-01 -4.819740e-02 -2.508901e-01 -2.765166e-01 2.837150e-01 4.812866e-01 -3.352252e-01
<VARIANCE> 39
 4.632644e+00 1.327038e+01 2.139342e+01 3.256509e+01 1.944112e+01 3.253452e+01 3.721072e+01 3.255774e+01 2.532588e+01 3.864559e+01 2.690171e+01 1.972403e+01 6.367429e+00 4.437478e-01 8.778767e-01 1.872804e+00 1.921411e+00 1.459482e+00 3.827126e+00 3.685194e+00 3.328410e+00 2.056180e+00 2.884352e+00 2.402122e+00 2.249978e+00 3.949816e-01 5.036214e-02 1.039822e-01 1.504764e-01 2.675713e-01 2.579759e-01 2.965590e-01 4.261827e-01 3.916157e-01 3.234367e-01 5.083867e-01 2.934956e-01 3.618596e-01 4.104677e-02
<GCONST> 9.794040e+01
<MIXTURE> 5 8.871059e-02
<MEAN> 39
 3.911516e+00 6.370479e+00 -8.089836e+00 -1.170733e+01 -3.620461e+00 1.454451e+01 -2.272373e+00 -6.098821e+00 -4.391998e+00 3.804530e+00 5.140132e+00 4.988878e+00 5.520109e+00 -2.180379e-02 2.755612e-01 -7.505299e-02 -7.115400e-01 1.101496e-01 3.885933e-01 2.714489e-01 9.543010e-03 -1.295992e-01 -1.237998e-01 -1.881892e-01 2.271768e-01 -2.528943e-02 -2.527067e-02 -1.457624e-01 5.920295e-02 2.141932e-01 6.125046e-02 -2.593760e-01 -1.329105e-02 1.261124e-01 1.672421e-01 3.222547e-02 -3.980575e-02 -2.035870e-01 5.861950e-03
<VARIANCE> 39
 5.171854e+00 3.997509e+01 2.058145e+01 7.924379e+01 3.678115e+01 3.304123e+01 4.198717e+01 3.089009e+01 2.854583e+01 4.022828e+01 5.762160e+01 1.698676e+01 9.270938e+00 2.229612e-01 6.443880e-01 5.765190e-01 1.922773e+00 1.128624e+00 1.597220e+00 1.334725e+00 1.528117e+00 1.448779e+00 1.584767e+00 1.796302e+00 1.683241e+00 2.779508e-01 3.379088e-02 7.634963e-02 1.275873e-01 1.941440e-01 1.780097e-01 2.791290e-01 1.904196e-01 3.267149e-01 2.618493e-01 2.822918e-01 3.290394e-01 1.828808e-01 3.882873e-02
<GCONST> 9.085639e+01
<MIXTURE> 6 1.225258e-01
<MEAN> 39
 -7.819894e-01 -4.991810e-01 3.539879e+00 5.013690e+00 -5.692988e+00 -1.611055e+00 -7.669848e+00 1.605508e+00 -2.423532e+00 -3.324620e-01 6.104592e+00 -5.843983e-01 6.814723e+00 1.092542e-01 -1.616565e-01 -5.832810e-01 -5.084727e-01 -5.312933e-01 1.164203e+00 -3.805355e-01 9.155111e-03 -3.927602e-01 3.347217e-01 6.420735e-01 -1.461004e-01 3.789220e-01 1.815528e-02 3.398930e-02 -3.967289e-02 -2.162871e-01 2.867855e-01 4.875416e-02 5.034989e-01 -1.155498e-01 9.898609e-02 2.176637e-02 -3.157372e-01 6.452985e-02 -2.558514e-01
<VARIANCE> 39
 1.311822e+01 1.832934e+01 6.432596e+01 4.737164e+01 6.971713e+01 6.169901e+01 4.726164e+01 6.736964e+01 5.929218e+01 5.270258e+01 3.382193e+01 2.851723e+01 7.544406e+00 8.853860e-01 1.091935e+00 3.299364e+00 2.642154e+00 3.240183e+00 4.098792e+00 4.723990e+00 4.482810e+00 3.798429e+00 3.293335e+00 3.223726e+00 2.109057e+00 1.015698e+00 1.628467e-01 1.641434e-01 4.178732e-01 3.999995e-01 5.198743e-01 5.801095e-01 6.790110e-01 7.741283e-01 6.099899e-01 6.179554e-01 5.551000e-01 4.727105e-01 1.965835e-01
<GCONST> 1.195906e+02
<MIXTURE> 7 6.706180e-02
<MEAN> 39
 2.945433e+00 -6.907475e+00 -7.588003e-01 3.714990e+00 -1.140504e+00 -4.816395e+00 -3.774206e+00 5.549031e+00 4.702431e+00 -1.904161e+00 4.880138e-01 8.058113e-02 4.065773e+00 1.092725e+00 2.272559e-01 1.048184e+00 7.549159e-01 5.084847e-01 -6.287193e-01 2.973467e-01 -1.061452e+00 -2.856062e-01 -6.266221e-01 -5.293812e-01 -2.959814e-01 -2.178661e+00 4.863544e-03 -2.539941e-02 -3.897327e-02 -4.534340e-01 1.343432e-01 4.422895e-01 2.750916e-01 -5.232754e-04 -2.919008e-01 3.806389e-01 -2.479008e-01 -3.411420e-01 -9.415254e-02
<VARIANCE> 39
 1.436807e+01 2.648233e+01 2.855995e+01 4.243341e+01 4.860360e+01 3.194196e+01 3.768296e+01 3.427594e+01 5.310868e+01 3.008339e+01 3.225189e+01 3.887041e+01 2.433181e+01 6.965502e-01 1.176453e+00 2.450722e+00 2.696461e+00 2.702595e+00 2.210438e+00 3.303572e+00 3.646115e+00 3.977196e+00 3.294808e+00 3.726020e+00 3.861228e+00 1.433417e+00 9.772276e-02 2.445421e-01 2.775059e-01 4.472795e-01 5.085942e-01 4.893071e-01 5.885041e-01 7.036275e-01 4.916130e-01 4.938464e-01 5.385495e-01 7.162746e-01 2.392223e-01
<GCONST> 1.166049e+02
<MIXTURE> 8 8.222557e-02
<MEAN> 39
 -7.461506e+00 2.010866e+00 4.887370e-01 4.790380e+00 3.073354e+00 -5.683550e+00 2.334146e+00 5.708235e-01 3.702326e+00 -2.168374e+00 -2.783979e+00 4.081391e+00 -2.672886e+00 -3.303723e-02 1.832715e-01 3.957812e-01 -1.412256e-01 -8.965168e-01 5.701336e-01 -1.427494e+00 3.789346e-01 -2.418389e-01 7.334695e-01 1.211611e+00 1.880833e-01 3.816401e+00 1.078150e+00 -3.362207e-01 -1.262456e-01 -5.766070e-01 -4.028001e-01 5.962532e-01 -2.590149e-01 -1.912379e-01 -5.634781e-01 4.231694e-01 1.659963e-01 -5.996713e-01 -4.369647e-01
<VARIANCE> 39
 4.825375e+01 4.161297e+01 7.494463e+01 4.812073e+01 4.642031e+01 6.553040e+01 7.392502e+01 8.234462e+01 3.354218e+01 3.880068e+01 4.669756e+01 3.040866e+01 6.051627e+01 8.758647e+00 6.125420e+00 1.255871e+01 1.136021e+01 8.872196e+00 8.995659e+00 8.413855e+00 7.322522e+00 6.938253e+00 8.422860e+00 5.492883e+00 5.873816e+00 8.282723e+00 7.418366e-01 9.678739e-01 1.537761e+00 1.174827e+00 1.157890e+00 1.210806e+00 1.882032e+00 1.480900e+00 8.508136e-01 1.113929e+00 7.668161e-01 8.130500e-01 1.056049e+00
<GCONST> 1.509905e+02
<MIXTURE> 9 1.206385e-01
<MEAN> 39
 8.519019e+00 -5.844211e+00 2.033038e+00 -2.965597e+00 3.117425e+00 -7.031199e-02 2.735062e+00 3.809194e-02 -1.183058e+00 1.935370e+00 -5.650384e+00 -4.633121e+00 -5.874479e+00 4.100921e-01 -6.550075e-02 2.595704e-01 -1.419469e-01 1.409627e-01 -1.649870e-01 3.436660e-01 -3.007400e-01 -2.955775e-01 8.256264e-03 -4.572610e-01 -4.371848e-01 -1.283372e+00 -2.940185e-01 1.537953e-01 -3.061666e-01 1.086517e-01 -1.663898e-01 -2.635241e-02 -1.126681e-01 1.016313e-01 2.081649e-01 -5.173298e-02 2.070868e-01 1.637037e-01 2.824697e-01
<VARIANCE> 39
 2.354481e+01 5.476506e+01 8.363059e+01 6.791403e+01 6.543578e+01 7.164188e+01 4.923330e+01 8.356635e+01 5.624255e+01 4.998227e+01 4.435170e+01 4.083097e+01 4.271629e+01 7.002560e-01 1.418041e+00 2.966286e+00 2.403078e+00 2.823671e+00 2.257325e+00 2.681144e+00 3.467820e+00 2.528845e+00 2.249130e+00 2.476299e+00 2.043636e+00 6.898263e-01 1.529280e-01 2.342817e-01 4.411537e-01 3.725255e-01 4.712237e-01 4.398032e-01 5.958859e-01 7.203825e-01 4.837585e-01 4.255165e-01 4.609483e-01 4.493903e-01 1.088667e-01
<GCONST> 1.195569e+02
<MIXTURE> 10 8.001344e-02
<MEAN> 39
 3.175087e-02 2.131748e+00 -9.216874e+00 -1.275006e+01 7.375783e-01 1.121926e+01 2.906982e-01 -4.356765e+00 1.780419e+00 6.849000e+00 2.658493e+00 3.472384e-01 4.517714e+00 1.742649e-01 -6.952251e-01 -5.089082e-01 -6.064776e-01 1.404138e-01 -1.457143e-01 8.957084e-02 2.618338e-01 3.784605e-01 6.128158e-01 -3.141372e-01 -4.983553e-01 1.790999e-02 -8.752460e-02 -2.198982e-01 1.805404e-01 5.706533e-01 2.308893e-01 -3.823630e-01 1.310969e-01 9.652443e-02 1.383077e-01 -3.541867e-01 -4.096180e-01 -6.755958e-02 -3.951160e-01
<VARIANCE> 39
 4.566428e+01 3.441234e+01 1.663727e+01 5.066090e+01 2.269461e+01 4.482623e+01 4.294262e+01 3.278132e+01 7.490537e+01 5.380764e+01 4.879666e+01 4.017360e+01 2.772849e+01 2.392869e+00 2.666240e+00 2.030668e+00 6.061449e+00 2.310461e+00 4.781567e+00 3.667525e+00 3.774993e+00 3.551275e+00 4.263348e+00 3.302761e+00 3.647948e+00 5.932218e+00 3.596377e-01 3.624238e-01 3.814200e-01 8.898428e-01 3.521353e-01 6.780348e-01 5.670491e-01 6.133925e-01 6.133299e-01 8.380758e-01 6.195361e-01 6.200942e-01 4.282890e-01
<GCONST> 1.274570e+02
<MIXTURE> 11 8.320764e-02
<MEAN> 39
 4.901112e+00 4.338508e+00 9.698125e+00 6.006333e+00 -3.014529e+00 -5.195509e+00 7.215446e+00 -4.459281e+00 -6.322888e+00 2.186397e-01 -1.677618e+00 -6.757425e-01 -9.106205e+00 -6.451811e-01 2.411241e-01 -5.234464e-01 -2.364039e-01 -2.831127e-01 -4.869323e-02 -7.862224e-01 3.479709e-01 1.489849e-01 -3.042960e-01 1.801414e-01 1.813263e-01 1.083454e+00 -5.165386e-01 -3.218615e-01 -6.260322e-01 -3.195520e-01 2.175615e-01 3.753586e-01 -4.566086e-01 3.886757e-01 3.438779e-01 -2.808622e-02 7.932086e-02 7.600132e-02 5.425354e-01
<VARIANCE> 39
 6.666651e+01 5.970596e+01 7.719207e+01 6.622880e+01 9.585765e+01 1.059318e+02 8.348228e+01 7.002100e+01 6.186917e+01 5.660312e+01 6.956474e+01 5.415410e+01 7.428050e+01 5.776744e+00 3.914653e+00 8.440280e+00 6.341164e+00 7.449553e+00 6.693125e+00 6.697653e+00 8.376939e+00 6.112581e+00 4.314433e+00 4.317321e+00 3.284195e+00 5.138932e+00 5.433164e-01 6.756608e-01 1.155903e+00 1.113745e+00 1.221462e+00 1.080391e+00 1.101881e+00 1.247798e+00 9.314597e-01 8.541338e-01 7.205186e-01 6.531864e-01 8.278211e-01
<GCONST> 1.483788e+02
<MIXTURE> 12 7.297385e-02
<MEAN> 39
 -3.791143e-01 -8.565303e+00 -7.677075e+00 -5.839402e+00 5.079458e+00 3.501504e+00 -2.786264e+00 9.022383e+00 4.781759e+00 4.839826e+00 -4.233866e+00 -3.259849e+00 1.037107e+01 3.387870e-01 -1.072016e-01 6.168499e-01 4.478905e-01 -4.033191e-01 -6.072516e-01 -5.224997e-01 5.155079e-02 1.129496e-02 -3.426253e-01 4.261675e-01 3.657140e-01 -2.706961e-01 7.220649e-02 3.376139e-01 2.149642e-01 1.966465e-01 7.687254e-02 -1.525471e-01 4.469470e-01 -8.485982e-01 3.216887e-02 -2.705777e-01 9.385342e-02 1.478748e-01 -5.170547e-01
<VARIANCE> 39
 1.072441e+01 1.720628e+01 1.985911e+01 3.179442e+01 4.607787e+01 3.816491e+01 4.718074e+01 4.492872e+01 2.797227e+01 2.876449e+01 2.925711e+01 2.299997e+01 7.949297e+00 9.531417e-01 1.383835e+00 2.797233e+00 3.290030e+00 2.490330e+00 4.823043e+00 4.432243e+00 4.873872e+00 2.813859e+00 4.126803e+00 2.611237e+00 3.025994e+00 2.011771e+00 1.504424e-01 2.294233e-01 3.986252e-01 3.734633e-01 3.229932e-01 3.407419e-01 6.059099e-01 6.497608e-01 4.271506e-01 5.987956e-01 3.980311e-01 4.065845e-01 1.571694e-01
<GCONST> 1.135774e+02
<STATE> 4
<NUMMIXES> 12
<MIXTURE> 1 5.652316e-02
<MEAN> 39
 -5.637382e+00 3.407031e+00 -8.281238e+00 3.511575e+00 1.326347e+01 -1.343796e+00 4.049889e+00 -3.804365e+00 -3.786204e-01 1.687197e+00 -3.876730e+00 5.284557e+00 -8.483320e+00 -3.363603e-01 1.869916e-01 -5.414698e-01 -1.825951e+00 -2.913006e-01 1.046166e+00 -1.836071e-01 1.438411e-01 9.652991e-01 8.692532e-01 6.549606e-01 9.481245e-01 2.709585e+00 6.911122e-01 -1.340826e-01 7.521029e-01 -3.892530e-01 -1.380787e+00 2.149484e-01 -1.699111e-01 2.281113e-01 -8.687142e-02 -1.861531e-01 3.474014e-01 -4.080794e-01 2.756551e-01
<VARIANCE> 39
 8.537745e+01 8.840652e+01 1.026297e+02 7.315128e+01 7.707540e+01 7.920982e+01 6.773889e+01 6.387091e+01 7.510062e+01 4.161076e+01 4.401665e+01 3.996026e+01 6.013344e+01 1.198270e+01 7.417500e+00 1.276620e+01 9.732202e+00 1.536317e+01 8.229639e+00 1.025568e+01 1.068044e+01 7.069387e+00 4.833922e+00 6.175722e+00 3.725633e+00 1.042691e+01 1.300823e+00 1.302235e+00 1.898120e+00 1.539292e+00 1.737433e+00 1.278911e+00 1.538739e+00 1.582022e+00 1.476627e+00 8.810529e-01 9.787810e-01 7.446844e-01 1.101371e+00
<GCONST> 1.574235e+02
<MIXTURE> 2 1.069796e-01
<MEAN> 39
 -1.879017e+00 -7.436852e+00 -7.612857e+00 -5.602913e+00 1.071059e+00 1.028671e+00 -1.812620e+00 9.649220e+00 6.696875e+00 2.775352e+00 -2.226642e+00 -1.712324e+00 1.160425e+01 1.232278e-01 -3.191943e-01 2.549759e-01 3.867003e-01 -2.442949e-01 -3.847383e-01 -4.049207e-01 5.637015e-01 -1.751637e-01 -2.604403e-01 1.346609e-01 4.927117e-03 -6.578900e-02 1.851283e-01 4.342721e-01 4.716206e-01 2.840111e-01 1.211462e-01 -2.019508e-01 -2.552674e-02 -5.440788e-01 -3.400894e-01 -9.326422e-02 3.220555e-02 1.895881e-01 -5.659150e-01
<VARIANCE> 39
 1.026336e+01 1.581143e+01 4.665067e+01 4.071001e+01 4.465559e+01 7.534352e+01 5.712678e+01 6.047453e+01 3.237376e+01 3.936163e+01 2.973037e+01 2.213329e+01 4.906139e+00 8.439490e-01 1.690780e+00 3.977258e+00 2.509758e+00 2.991057e+00 4.671975e+00 5.582001e+00 4.725219e+00 4.407993e+00 3.192956e+00 3.459216e+00 2.515004e+00 1.788207e+00 1.385473e-01 1.532208e-01 3.770281e-01 2.842232e-01 4.339468e-01 4.844383e-01 9.268420e-01 8.410202e-01 5.391974e-01 6.263493e-01 4.519240e-01 4.652660e-01 1.223938e-01
<GCONST> 1.171290e+02
<MIXTURE> 3 1.148269e-01
<MEAN> 39
 -5.666092e+00 2.752861e+00 1.339852e+01 7.696911e+00 -1.350456e+01 -8.559673e+00 -3.333022e+00 3.608281e+00 -5.062508e+00 -8.101902e+00 7.815023e+00 9.801084e-01 6.352116e+00 1.722738e-01 -6.221990e-02 -4.744226e-02 1.965938e-01 -6.897841e-02 -1.356090e-01 4.757187e-01 5.284357e-02 -2.305075e-02 5.467219e-02 -3.869274e-01 -2.618818e-01 -3.110697e-01 1.346424e-01 1.093351e-01 -1.759372e-01 4.037980e-02 5.188504e-01 -1.024492e-01 5.278403e-01 -1.589433e-01 8.760951e-02 2.464479e-01 -4.069305e-01 -5.121960e-02 -4.262088e-01
<VARIANCE> 39
 1.282982e+01 4.099913e+01 6.218894e+01 3.321907e+01 3.774458e+01 5.277749e+01 2.953824e+01 5.228592e+01 3.990824e+01 2.732490e+01 2.571853e+01 3.330816e+01 9.686469e+00 1.074536e+00 2.696578e+00 3.554343e+00 2.281110e+00 2.628920e+00 2.784382e+00 4.525755e+00 3.267540e+00 3.658409e+00 2.799715e+00 3.305601e+00 1.990869e+00 1.856111e+00 2.021567e-01 3.099618e-01 4.099311e-01 3.426085e-01 5.364040e-01 5.662577e-01 6.727698e-01 6.510873e-01 6.584899e-01 3.804224e-01 5.580059e-01 3.526042e-01 1.930798e-01
<GCONST> 1.177989e+02
<MIXTURE> 4 1.037402e-01
<MEAN> 39
 -5.524840e+00 8.505752e+00 -2.543156e+00 2.651710e+00 6.314125e+00 -3.843457e+00 6.502382e+00 -2.232705e+00 -8.177533e-01 -2.195763e+00 -2.319234e+00 3.984344e+00 -1.684974e+01 -7.715432e-02 -3.971657e-01 -2.027391e-01 8.684188e-02 2.239181e-01 2.197251e-01 3.697453e-01 1.707326e-01 -5.856444e-02 -2.197296e-01 -1.480502e-01 -5.874111e-02 -7.547793e-01 -2.262360e-02 -3.001001e-02 1.461349e-01 5.485731e-02 -5.342305e-02 -1.115324e-02 -1.014997e-01 -7.466820e-02 2.232586e-02 1.209560e-02 -3.393881e-02 2.819055e-02 2.090472e-01
<VARIANCE> 39
 2.244382e+02 9.112669e+01 2.828091e+01 2.382377e+01 4.402014e+01 5.428493e+01 4.694859e+01 5.087220e+01 4.252855e+01 2.320478e+01 2.384426e+01 3.288043e+01 7.609212e+01 2.177798e+00 1.537229e+00 1.613773e+00 1.578956e+00 1.713858e+00 2.140002e+00 2.049034e+00 2.368257e+00 2.057497e+00 1.878039e+00 1.612512e+00 1.380944e+00 6.992968e-01 3.649817e-01 2.252994e-01 3.060845e-01 2.785898e-01 3.681400e-01 4.314615e-01 3.478935e-01 4.211665e-01 3.710674e-01 3.830748e-01 3.305385e-01 3.369611e-01 1.761542e-01
<GCONST> 1.137787e+02
<MIXTURE> 5 8.545639e-02
<MEAN> 39
 5.606270e+00 2.944101e+00 -8.577942e+00 -6.457496e+00 -5.427696e+00 1.612579e+01 -4.162294e+00 -1.015440e+01 3.746011e-02 1.402516e+00 8.087892e+00 3.032252e+00 3.028642e+00 6.636966e-02 -5.680045e-01 -9.431019e-02 -1.480398e-01 -5.988871e-02 4.463720e-01 -3.006069e-01 -1.879855e-01 4.312949e-01 4.344749e-01 -8.682551e-02 -8.458518e-01 4.609642e-01 -1.461058e-01 -9.901629e-02 3.629402e-01 6.237672e-01 6.765091e-01 -8.420074e-01 2.367997e-01 1.355503e-01 -2.016833e-02 -9.919525e-02 -6.875007e-01 3.229232e-03 -4.099549e-01
<VARIANCE> 39
 1.957932e+01 5.218146e+01 3.207860e+01 1.108605e+02 5.306670e+01 8.492173e+01 7.432655e+01 1.002172e+02 6.836930e+01 8.823693e+01 5.310278e+01 5.944950e+01 1.709768e+01 1.647797e+00 2.793854e+00 5.018076e+00 1.163445e+01 7.759657e+00 1.151493e+01 5.301892e+00 7.445771e+00 8.839302e+00 6.485380e+00 8.077570e+00 3.889154e+00 3.733012e+00 2.919381e-01 4.803124e-01 7.342283e-01 1.491574e+00 9.248007e-01 9.234488e-01 6.652303e-01 1.299037e+00 1.085510e+00 1.413360e+00 1.122158e+00 7.181926e-01 2.079547e-01
<GCONST> 1.427530e+02
<MIXTURE> 6 4.895148e-02
<MEAN> 39
 -2.594778e-01 4.603022e+00 3.734125e+00 4.292745e+00 5.701351e+00 -5.671608e+00 -1.553580e+01 -9.703068e+00 1.096496e+01 1.103364e+00 -2.075353e+00 4.929264e-01 -6.951444e-01 3.583696e-01 6.285483e-01 2.600118e-01 1.455086e-01 6.264196e-01 -5.260898e-01 2.854993e-02 6.514677e-02 -3.351846e-01 -4.510168e-02 -2.587169e-01 4.816239e-01 -1.076733e+00 1.205057e-01 -9.779602e-02 -4.633383e-01 -2.221356e-01 -4.611221e-01 4.921691e-01 6.193787e-01 1.610812e-01 -5.143002e-01 5.698013e-02 3.487651e-01 1.011872e-01 1.772736e-02
<VARIANCE> 39
 2.326862e+01 7.050750e+01 7.328430e+01 3.617561e+01 3.813885e+01 6.384906e+01 4.111137e+01 1.092014e+02 8.002991e+01 4.569586e+01 5.302805e+01 4.665047e+01 3.199401e+01 2.332851e+00 2.249559e+00 5.466874e+00 3.977338e+00 5.249221e+00 8.097632e+00 4.382602e+00 7.157818e+00 4.393584e+00 3.434103e+00 4.902443e+00 3.286943e+00 1.704342e+00 2.716911e-01 3.731086e-01 4.974262e-01 6.721348e-01 4.980147e-01 7.313325e-01 5.646451e-01 9.866180e-01 8.037632e-01 5.582346e-01 6.687216e-01 5.921072e-01 1.488038e-01
<GCONST> 1.320003e+02
<MIXTURE> 7 8.406807e-02
<MEAN> 39
 8.571846e+00 2.514363e+00 6.611462e+00 6.646302e+00 2.294227e+00 -1.880803e+00 8.323937e+00 -7.174912e+00 -9.891245e+00 5.123131e-01 -4.207201e+00 -2.682585e+00 -1.094060e+01 -1.524132e+00 6.867533e-01 -5.378521e-01 -3.594054e-02 7.166505e-01 -2.553390e-01 -3.354704e-01 -7.210520e-02 4.419140e-01 -4.543641e-01 1.054020e-02 5.356758e-01 1.090009e+00 -8.989954e-01 -1.252753e-01 -6.253397e-01 -5.772591e-01 -1.468364e-01 1.478082e-01 -7.435978e-01 6.536731e-01 8.151004e-01 -1.665992e-01 4.696751e-01 3.394819e-01 1.106674e+00
<VARIANCE> 39
 4.398183e+01 4.528277e+01 1.188336e+02 9.759918e+01 1.202623e+02 1.363342e+02 1.023303e+02 1.079835e+02 1.005836e+02 8.570422e+01 4.883789e+01 5.871581e+01 5.780518e+01 5.482219e+00 3.389503e+00 1.059322e+01 5.298437e+00 8.435606e+00 8.451315e+00 7.213779e+00 7.929624e+00 9.762115e+00 7.599280e+00 5.129307e+00 4.855125e+00 3.674964e+00 4.787947e-01 4.948933e-01 1.291788e+00 9.218948e-01 1.534796e+00 1.202778e+00 9.572636e-01 1.281838e+00 1.211273e+00 1.579513e+00 9.435815e-01 7.800881e-01 5.331111e-01
<GCONST> 1.520797e+02
<MIXTURE> 8 7.768653e-02
<MEAN> 39
 6.202390e+00 -1.883240e+00 1.395433e+01 6.155677e+00 -6.867887e+00 -8.636701e+00 5.878795e+00 3.768886e+00 -6.939399e+00 -1.853699e+00 -2.860060e+00 -5.092346e+00 -4.769753e+00 9.770907e-01 1.142151e-01 6.423337e-01 1.656739e-01 3.752909e-01 -2.737825e-01 3.959106e-01 -6.549580e-01 -6.511704e-01 5.873782e-01 -2.295016e-01 -2.441726e-01 -1.430660e+00 -2.401868e-01 1.357587e-01 -2.911318e-01 8.790845e-02 6.700969e-02 1.568578e-02 -1.231362e-01 -5.882815e-02 2.026979e-01 -1.566721e-02 1.351134e-01 1.666272e-01 1.852360e-01
<VARIANCE> 39
 2.407518e+01 4.614983e+01 6.069212e+01 4.239294e+01 4.544918e+01 6.438570e+01 6.700391e+01 1.752630e+02 8.050761e+01 4.231693e+01 4.422186e+01 4.547735e+01 4.346697e+01 8.049423e-01 1.689249e+00 2.665740e+00 3.786615e+00 3.437581e+00 3.140881e+00 3.539628e+00 4.576870e+00 2.592493e+00 2.041307e+00 2.840426e+00 2.853714e+00 9.414488e-01 1.309007e-01 2.148727e-01 2.999235e-01 6.246329e-01 5.353960e-01 6.127222e-01 6.710106e-01 9.200021e-01 4.866777e-01 3.497966e-01 5.092686e-01 6.163292e-01 1.137750e-01
<GCONST> 1.229440e+02
<MIXTURE> 9 7.173414e-02
<MEAN> 39
 -1.318494e+00 -3.563389e+00 -4.791561e+00 -2.987692e+00 -1.805304e-01 2.549556e+00 -3.060464e+00 4.846282e+00 3.601816e+00 -3.673694e-01 9.237931e-01 -1.100241e-01 9.199105e+00 -2.803321e-02 3.493535e-02 1.052486e-01 1.539190e-01 -2.290974e-01 1.106072e-01 -1.879544e-01 -2.556610e-01 1.100682e-01 -1.910484e-01 1.891979e-01 3.595261e-02 -1.779020e-01 6.751285e-02 5.463750e-02 1.780692e-01 1.070905e-01 -3.330512e-03 -1.621754e-01 -8.823368e-02 4.798284e-02 -6.199238e-03 -3.340236e-02 -7.151220e-02 6.089527e-02 -1.763125e-01
<VARIANCE> 39
 7.504397e+00 3.707911e+01 5.245935e+01 8.817170e+01 1.094924e+02 1.207952e+02 5.209282e+01 7.562766e+01 3.713466e+01 3.015973e+01 3.604689e+01 3.316758e+01 1.226791e+01 1.891194e-01 7.687210e-01 1.160694e+00 9.463727e-01 1.490662e+00 1.556369e+00 1.453679e+00 1.524661e+00 1.520323e+00 1.058185e+00 1.052200e+00 1.241850e+00 4.652179e-01 4.413947e-02 9.016839e-02 1.222914e-01 1.839042e-01 2.509875e-01 3.729348e-01 3.702936e-01 2.905514e-01 3.077855e-01 2.616130e-01 2.474782e-01 2.140695e-01 4.784269e-02
<GCONST> 9.749268e+01
<MIXTURE> 10 8.209008e-02
<MEAN> 39
 -5.317086e+00 8.246172e+00 1.517064e+01 1.163983e+01 -7.747313e+00 -1.230329e+01 4.749558e+00 -1.305068e+00 -6.610653e+00 -6.100393e+00 1.337788e+00 2.301971e+00 -5.905249e+00 2.844145e-01 3.813979e-01 -6.445651e-01 1.313475e-01 1.249745e+00 -1.782378e-01 1.033867e+00 -3.311683e-01 -1.189586e-01 1.834809e-01 -6.593540e-01 1.940646e-01 -1.913318e+00 -2.153362e-01 -2.505880e-01 -3.552718e-01 -4.339625e-01 2.673900e-01 4.224336e-01 -5.579487e-01 8.442138e-02 1.741413e-01 -3.493757e-03 9.676587e-02 7.823153e-02 3.122049e-01
<VARIANCE> 39
 5.330322e+01 4.578794e+01 6.822904e+01 4.377538e+01 5.793753e+01 3.807814e+01 6.153273e+01 6.317806e+01 6.293747e+01 3.901241e+01 4.491401e+01 3.492413e+01 5.160652e+01 3.175442e+00 3.161401e+00 3.811626e+00 3.253917e+00 4.522725e+00 4.182954e+00 5.622068e+00 3.902317e+00 3.579011e+00 2.903671e+00 3.348028e+00 3.832692e+00 2.429533e+00 6.084790e-01 4.450595e-01 6.579037e-01 5.828671e-01 8.702159e-01 7.043920e-01 7.917109e-01 6.783323e-01 6.048195e-01 5.472128e-01 6.945793e-01 7.454881e-01 5.446629e-01
<GCONST> 1.334373e+02
<MIXTURE> 11 9.216119e-02
<MEAN> 39
 5.529919e+00 -2.569921e+00 -6.056939e+00 -3.840912e+00 7.874976e+00 2.081405e+00 -5.119756e+00 1.374969e+00 4.940779e+00 1.487306e+00 -1.776383e+00 -4.045826e-01 -5.352677e+00 9.036982e-01 2.507876e-01 3.923347e-01 7.168671e-01 5.392564e-01 -5.546173e-01 9.119526e-01 -6.799635e-01 -3.843075e-01 -3.655640e-02 -7.106650e-01 -2.146092e-01 -2.058791e+00 -2.019263e-01 7.268970e-02 1.282582e-02 3.131932e-02 -2.597408e-01 1.515056e-01 1.520634e-01 -9.296132e-03 -1.332759e-01 -7.003601e-02 1.034765e-01 -1.272348e-01 2.062839e-01
<VARIANCE> 39
 5.792741e+01 4.129590e+01 5.726651e+01 5.431440e+01 6.421232e+01 9.453382e+01 5.616237e+01 7.973489e+01 5.293939e+01 3.873145e+01 4.525971e+01 5.202955e+01 7.689659e+01 1.889653e+00 1.950660e+00 3.120117e+00 3.412730e+00 4.401094e+00 5.302215e+00 3.747887e+00 4.258181e+00 4.311152e+00 3.025003e+00 2.799898e+00 3.325078e+00 1.263527e+00 2.799256e-01 2.634515e-01 3.917145e-01 5.615127e-01 6.265726e-01 8.150754e-01 6.466335e-01 7.165689e-01 7.186793e-01 5.198995e-01 4.922734e-01 6.446001e-01 2.049896e-01
<GCONST> 1.296936e+02
<MIXTURE> 12 7.577313e-02
<MEAN> 39
 -8.920269e+00 6.963366e+00 9.016036e+00 6.482242e+00 -1.673875e+00 -9.949268e+00 -1.450822e+00 2.584432e-01 -6.559597e-01 -5.129203e+00 7.031762e-01 5.908154e+00 -5.956497e-02 -9.472697e-01 -6.556675e-01 -1.496995e-01 -6.824132e-01 -1.787927e+00 1.405056e-01 -1.812073e+00 1.134921e+00 6.927243e-01 -3.673118e-01 1.081455e+00 2.604496e-01 2.222204e+00 7.536975e-01 -3.748307e-01 -1.872684e-01 -2.364728e-02 -2.068824e-01 3.861152e-01 3.261452e-01 -4.880438e-02 -3.303652e-01 3.051951e-01 1.881036e-02 -5.812404e-01 -4.556515e-01
<VARIANCE> 39
 7.153082e+01 6.146510e+01 1.000279e+02 5.502614e+01 6.816043e+01 5.436672e+01 1.186429e+02 6.583949e+01 8.656180e+01 4.457542e+01 4.619501e+01 5.569329e+01 3.462384e+01 9.628736e+00 3.826604e+00 8.562447e+00 5.410086e+00 9.064759e+00 7.825170e+00 8.791117e+00 1.069611e+01 7.616203e+00 6.266287e+00 4.177732e+00 5.419352e+00 6.008501e+00 7.655474e-01 4.882549e-01 1.075199e+00 7.877253e-01 1.163651e+00 1.205434e+00 1.709277e+00 1.337507e+00 1.155914e+00 6.955847e-01 8.314025e-01 7.451871e-01 7.206169e-01
<GCONST> 1.495320e+02
<TRANSP> 5
 0.000000e+00 1.000000e+00 0.000000e+00 0.000000e+00 0.000000e+00
 0.000000e+00 9.838547e-01 1.614537e-02 0.000000e+00 0.000000e+00
 0.000000e+00 0.000000e+00 9.916350e-01 8.364955e-03 0.000000e+00
 0.000000e+00 0.000000e+00 0.000000e+00 9.914663e-01 8.533658e-03
 0.000000e+00 0.000000e+00 0.000000e+00 0.000000e+00 0.000000e+00
<ENDHMM>
~h "M003"
<BEGINHMM>
<NUMSTATES> 5
<STATE> 2
<NUMMIXES> 12
<MIXTURE> 1 1.098376e-01
<MEAN> 39
 -4.523983e+00 -4.138255e-02 -2.098994e+00 7.176658e+00 7.641434e+00 -2.583902e+00 5.789667e+00 4.577342e+00 -3.758766e+00 5.589918e-01 -3.038767e+00 7.139924e+00 -2.633560e+01 6.555437e-02 4.998376e-02 -3.484919e-01 -5.708315e-02 -3.958703e-01 -2.889400e-01 4.353912e-01 5.909190e-02 1.073525e-02 5.506139e-02 5.481126e-02 -1.651364e-01 6.848005e-02 -6.481487e-02 1.423475e-01 2.443514e-01 6.838911e-04 7.022649e-02 1.951673e-01 -2.918225e-02 -3.262666e-03 1.207908e-01 -1.277605e-01 -6.739005e-02 -1.293567e-01 3.299886e-01
<VARIANCE> 39
 1.922494e+01 1.219256e+01 1.555000e+01 1.770298e+01 2.276770e+01 3.326509e+01 3.546519e+01 2.420785e+01 3.242475e+01 1.656958e+01 2.260580e+01 1.745019e+01 1.369721e+01 4.940631e-01 6.192865e-01 1.394800e+00 1.947214e+00 1.762927e+00 1.572829e+00 2.613231e+00 2.225868e+00 2.225379e+00 1.732874e+00 1.198561e+00 1.327489e+00 2.230867e-01 1.784407e-01 1.812494e-01 3.794144e-01 4.112178e-01 2.945611e-01 3.205929e-01 3.632992e-01 3.665238e-01 3.465729e-01 2.594085e-01 1.848460e-01 2.065282e-01 2.623430e-01
<GCONST> 9.724987e+01
<MIXTURE> 2 9.320412e-02
<MEAN> 39
 3.783791e+00 6.518281e+00 6.038776e+00 6.499700e+00 2.846350e+00 3.207555e+00 -4.108170e-01 1.109722e+00 -1.500250e+00 3.715896e-01 -3.296964e+00 -5.380925e-01 1.915794e+00 -1.932278e-02 -1.502680e-02 9.590392e-03 -1.388927e-01 -1.839498e-01 -2.096832e-01 -1.090787e-01 -5.987460e-02 -3.155386e-02 5.985084e-02 1.486057e-03 -2.974204e-02 6.429898e-04 -2.748076e-02 -9.509160e-02 -1.105413e-01 -1.506087e-01 -1.779320e-01 -1.861016e-01 -1.193897e-01 -7.153379e-02 2.480257e-02 1.601446e-02 6.259186e-02 3.344233e-02 -7.609758e-03
<VARIANCE> 39
 1.669124e+00 4.399182e+00 3.295152e+00 5.599932e+00 7.784431e+00 1.042673e+01 1.850132e+01 2.192412e+01 2.646470e+01 1.672407e+01 1.167156e+01 6.361706e+00 8.285324e-01 6.839833e-02 2.290986e-01 3.294962e-01 7.149996e-01 8.763484e-01 8.387830e-01 1.073824e+00 1.445006e+00 1.507490e+00 1.244525e+00 9.044067e-01 7.831555e-01 3.408687e-02 1.163100e-02 2.861854e-02 4.445471e-02 1.235594e-01 1.698096e-01 1.540341e-01 1.700672e-01 3.292298e-01 2.509383e-01 2.267120e-01 1.996872e-01 1.326556e-01 4.365372e-03
<GCONST> 5.696540e+01
<MIXTURE> 3 6.061745e-02
<MEAN> 39
 9.774141e-01 1.679231e+00 1.740255e+00 4.136682e-01 -2.568744e+00 -4.229863e+00 -4.353115e+00 -3.642498e+00 -3.424885e+00 -1.478262e+00 -1.800822e+00 -1.186409e+00 4.126956e-01 7.227294e-02 1.000839e-01 1.567988e-02 1.981234e-01 6.748807e-02 1.152131e-01 -4.134906e-03 -8.517302e-02 -4.252954e-01 -3.114447e-01 -2.727430e-01 -2.558177e-01 3.130125e-02 8.038289e-02 1.198922e-01 7.508556e-02 1.486366e-01 3.305676e-01 4.962313e-01 4.813667e-01 5.815689e-01 4.561351e-01 1.462325e-01 8.590577e-02 1.494791e-01 2.261903e-02
<VARIANCE> 39
 1.982842e+00 2.966337e+00 3.819968e+00 3.746867e+00 5.842525e+00 7.560607e+00 1.031845e+01 8.538283e+00 1.281352e+01 1.291114e+01 1.623313e+01 8.471696e+00 8.285324e-01 9.754457e-02 2.722440e-01 4.267807e-01 4.708311e-01 9.387338e-01 1.008322e+00 1.269872e+00 1.587621e+00 1.398399e+00 1.201491e+00 1.369455e+00 1.293117e+00 3.408687e-02 1.817832e-02 5.440031e-02 6.242866e-02 7.662512e-02 1.455882e-01 1.797654e-01 1.379465e-01 1.784599e-01 2.234006e-01 2.108992e-01 2.883129e-01 2.333193e-01 4.365372e-03
<GCONST> 5.654850e+01
<MIXTURE> 4 7.537846e-02
<MEAN> 39
 -1.515345e+00 -1.518388e+00 2.352382e-02 -1.493673e+00 -1.116744e+00 -1.278275e+00 2.688546e+00 2.720678e+00 2.748326e+00 -1.057819e+00 -1.795221e+00 -1.837206e+00 -9.819404e-01 2.497384e-01 3.753704e-01 3.281926e-01 3.617851e-01 7.261858e-02 5.128378e-02 -1.987775e-01 -9.488199e-03 4.993942e-02 -1.429938e-01 -5.195634e-01 -5.182553e-02 1.333511e-01 7.241206e-03 -2.542762e-02 -9.370501e-02 -4.415712e-02 6.787866e-02 2.241405e-02 -2.470154e-01 -3.131816e-01 -2.051729e-01 1.086117e-01 3.446509e-01 3.323502e-01 1.595628e-02
<VARIANCE> 39
 8.437039e-01 1.940320e+00 4.894147e+00 4.163128e+00 5.876930e+00 8.191773e+00 8.169683e+00 5.845509e+00 8.151021e+00 1.183632e+01 8.367759e+00 9.180948e+00 8.285324e-01 7.343918e-02 1.434744e-01 2.676179e-01 2.832235e-01 6.087351e-01 4.290673e-01 7.797744e-01 6.431953e-01 9.341025e-01 8.289397e-01 1.092893e+00 1.363379e+00 3.408687e-02 2.122275e-02 4.676523e-02 7.376744e-02 7.417853e-02 1.450921e-01 2.217624e-01 2.088161e-01 1.197742e-01 1.899818e-01 2.288626e-01 1.895550e-01 1.805185e-01 8.006335e-03
<GCONST> 4.866005e+01
<MIXTURE> 5 8.007091e-02
<MEAN> 39
 -1.193920e+00 -4.665348e+00 -9.613754e+00 -2.087963e+00 3.470150e+00 7.454184e+00 -1.098917e+00 -4.229079e+00 -4.996984e+00 2.838462e+00 4.640105e+00 1.653056e+00 6.684331e-01 -1.567867e-03 1.585822e-02 4.829456e-02 7.826480e-02 1.032191e-01 2.902877e-02 -9.569602e-02 -1.407236e-01 5.218791e-03 1.399932e-01 1.010294e-01 -9.895075e-03 -1.091028e-02 4.159148e-03 3.550544e-02 7.685223e-02 1.387188e-02 -2.738911e-02 -5.653985e-02 -6.482742e-03 -3.916609e-03 3.838910e-02 -5.504678e-03 1.093418e-02 1.420756e-02 -8.911234e-03
<VARIANCE> 39
 1.308005e+00 2.039897e+00 8.637596e+00 1.008786e+01 1.986338e+01 2.454100e+01 1.032184e+01 2.658816e+01 2.249369e+01 1.607084e+01 2.569861e+01 1.146700e+01 8.285324e-01 1.237192e-01 2.741077e-01 1.361961e+00 4.223963e-01 8.405751e-01 2.113007e+00 1.190296e+00 9.764197e-01 1.437857e+00 1.635780e+00 1.672870e+00 1.278328e+00 6.878518e-02 2.554255e-02 5.397770e-02 2.704566e-01 6.946681e-02 1.677217e-01 4.127288e-01 2.392750e-01 1.907884e-01 2.889617e-01 3.300306e-01 3.741847e-01 2.772035e-01 1.437944e-02
<GCONST> 7.086830e+01
<MIXTURE> 6 5.322017e-02
<MEAN> 39
 4.341089e-02 -2.681497e-01 -9.644258e-01 -3.148121e+00 -3.981188e+00 -3.208095e+00 -1.136794e+00 1.092242e+00 1.309925e+00 8.004638e-01 1.216677e+00 1.200978e+00 -1.317284e-02 -3.143320e-02 -1.250791e-01 -3.957728e-02 -6.712208e-02 -1.735920e-02 2.132066e-01 4.240422e-01 6.534806e-01 6.094204e-01 4.437138e-01 4.071642e-01 3.117964e-01 1.131027e-03 7.413949e-02 1.966044e-01 2.743566e-01 4.680547e-01 4.514381e-01 2.198555e-01 1.045152e-01 -1.378775e-01 -1.815521e-01 -1.497187e-01 -3.170654e-01 -2.350653e-01 2.619665e-02
<VARIANCE> 39
 9.400058e-01 1.447504e+00 5.483623e+00 6.375441e+00 7.574791e+00 5.353810e+00 6.535711e+00 1.170096e+01 1.340589e+01 1.035517e+01 9.104342e+00 7.615325e+00 8.285324e-01 1.126506e-01 2.755611e-01 7.890849e-01 8.948519e-01 8.613926e-01 6.224775e-01 8.269835e-01 5.899946e-01 6.762211e-01 8.239636e-01 1.144445e+00 1.562425e+00 3.408687e-02 2.888500e-02 6.684467e-02 7.012067e-02 7.918164e-02 8.175451e-02 1.162180e-01 2.273910e-01 1.870236e-01 1.984131e-01 1.735116e-01 1.411949e-01 2.518311e-01 7.122717e-03
<GCONST> 5.311187e+01
<MIXTURE> 7 5.693099e-02
<MEAN> 39
 2.208801e+00 2.931368e+00 2.539604e+00 2.425749e+00 8.595926e-01 9.532143e-01 5.150298e-01 2.069929e+00 1.660667e+00 1.449731e+00 2.015760e-01 4.545064e-02 1.025967e+00 2.635121e-01 4.626235e-01 5.033488e-01 6.840845e-01 7.679750e-01 9.698719e-01 4.799297e-01 6.313765e-01 4.969038e-01 1.605350e-01 -1.291652e-01 7.956822e-02 9.347209e-02 -7.821750e-02 -3.015674e-02 1.091561e-02 -8.172917e-02 -8.458953e-02 -1.324819e-01 -1.403068e-01 -2.111438e-01 -2.454145e-01 -1.185940e-01 -1.118010e-01 -7.251073e-02 -4.583913e-02
<VARIANCE> 39
 9.596906e-01 2.280514e+00 2.199517e+00 4.943056e+00 4.245851e+00 7.376280e+00 7.946205e+00 8.673303e+00 7.940760e+00 9.630998e+00 9.017501e+00 5.520164e+00 8.285324e-01 5.874605e-02 1.773794e-01 3.617013e-01 6.120028e-01 5.440145e-01 7.108495e-01 8.317407e-01 1.331110e+00 1.339066e+00 1.238782e+00 9.659794e-01 9.123242e-01 3.408687e-02 1.161476e-02 3.619515e-02 5.466079e-02 8.005298e-02 6.805032e-02 9.666027e-02 1.720263e-01 2.358008e-01 3.192610e-01 2.284025e-01 1.860206e-01 1.715925e-01 4.365372e-03
<GCONST> 4.772903e+01
<MIXTURE> 8 8.742485e-02
<MEAN> 39
 -9.353011e-01 -1.163411e+00 1.130926e-01 -7.248121e-01 2.152744e-01 -4.096400e-01 3.731054e-01 3.268219e-01 1.830769e+00 1.664575e+00 3.080562e+00 1.616024e+00 -5.911062e-01 -3.531440e-02 -4.380732e-02 5.549117e-02 1.405593e-01 1.759419e-01 1.447506e-02 2.709289e-01 3.622949e-01 -9.972367e-02 -1.568980e-01 2.560812e-01 1.857751e-01 -7.529783e-04 -8.047383e-02 -1.318847e-01 -2.284047e-01 -1.867369e-01 -1.368193e-01 -6.723710e-02 1.761699e-01 1.378172e-01 6.532008e-02 -2.557401e-01 -3.929263e-01 -2.254909e-01 -4.369804e-02
<VARIANCE> 39
 7.302016e-01 1.920427e+00 3.653395e+00 3.050777e+00 5.933437e+00 5.273532e+00 6.992521e+00 9.635272e+00 9.021074e+00 8.814099e+00 4.982796e+00 7.974129e+00 8.285324e-01 7.509217e-02 2.530411e-01 7.339669e-01 7.203127e-01 9.110280e-01 6.317368e-01 1.111849e+00 1.177934e+00 1.151419e+00 1.482648e+00 1.091101e+00 1.112824e+00 3.408687e-02 1.525932e-02 2.558657e-02 7.451068e-02 7.801603e-02 1.404095e-01 1.145516e-01 1.772791e-01 1.962223e-01 1.541295e-01 2.173695e-01 1.260724e-01 2.238989e-01 5.289473e-03
<GCONST> 4.972675e+01
<MIXTURE> 9 1.137813e-01
<MEAN> 39
 -4.775047e-02 5.696470e-01 1.429074e+00 5.868790e-01 -3.259670e-01 -1.855304e+00 -7.084269e-01 -1.193451e+00 -1.633963e+00 -3.375368e+00 -2.474531e+00 -9.922357e-01 -2.594291e-01 -3.816137e-02 -1.249559e-01 -1.956425e-01 -2.697714e-01 -1.567767e-01 -8.624627e-02 1.215732e-02 1.013940e-01 -6.698873e-04 9.257320e-03 1.808047e-01 2.409886e-01 -2.266059e-02 -6.380191e-02 -1.564232e-01 -1.723535e-01 -1.921286e-01 -8.534677e-02 6.063168e-02 1.205651e-01 1.650573e-01 3.139628e-01 4.364526e-01 3.615587e-01 1.255666e-01 -2.023084e-02
<VARIANCE> 39
 1.892439e+00 4.065866e+00 3.656585e+00 2.700212e+00 5.926337e+00 6.310287e+00 6.735575e+00 7.119227e+00 7.635358e+00 6.353452e+00 6.325711e+00 5.530767e+00 8.285324e-01 1.135043e-01 2.618423e-01 3.590474e-01 4.497007e-01 4.738574e-01 8.892217e-01 1.066097e+00 1.230823e+00 1.231914e+00 1.314821e+00 1.232567e+00 6.203591e-01 3.408687e-02 1.859695e-02 3.991710e-02 7.822560e-02 8.110262e-02 9.859238e-02 1.230654e-01 1.677264e-01 2.095162e-01 1.896105e-01 1.506930e-01 1.856121e-01 1.862857e-01 4.927275e-03
<GCONST> 4.939216e+01
<MIXTURE> 10 9.506693e-02
<MEAN> 39
 -2.057739e+00 -3.018535e+00 -2.524763e+00 -3.384851e+00 -1.732533e+00 -1.974607e+00 -2.097969e-01 -1.099764e+00 3.637245e-01 -1.223322e+00 -2.886439e-01 -2.677577e-01 -1.163727e+00 4.516599e-02 7.219956e-02 -2.760462e-02 -7.423826e-02 3.417954e-02 1.204427e-01 1.206036e-01 -3.301565e-02 -1.221120e-02 -5.691955e-02 -4.046495e-02 -6.104362e-03 2.586922e-02 7.450873e-02 1.301189e-01 2.313833e-01 2.538166e-01 1.445367e-01 1.237857e-01 1.476028e-01 2.883248e-01 1.876214e-01 9.001857e-02 1.004719e-01 -3.500258e-04 3.939793e-02
<VARIANCE> 39
 7.302016e-01 1.326123e+00 5.097987e+00 3.498108e+00 5.577324e+00 4.401278e+00 5.618973e+00 7.007590e+00 5.860357e+00 7.365497e+00 6.984344e+00 5.663423e+00 8.285324e-01 1.083900e-01 2.410813e-01 4.101483e-01 3.904349e-01 7.249044e-01 8.987144e-01 1.004203e+00 1.147657e+00 8.384272e-01 1.181741e+00 1.281558e+00 9.944136e-01 5.224838e-02 1.588346e-02 3.070919e-02 7.262027e-02 5.310681e-02 1.155337e-01 1.341151e-01 1.466743e-01 1.630284e-01 1.270891e-01 1.339618e-01 1.919801e-01 1.418490e-01 6.833373e-03
<GCONST> 4.642638e+01
<MIXTURE> 11 9.204915e-02
<MEAN> 39
 -1.844137e+00 -2.562607e+00 -1.171623e+00 -1.203643e+00 5.261905e-01 7.471613e-02 2.848654e+00 1.816484e+00 2.489971e+00 2.186159e-01 1.384825e+00 3.640393e-01 -1.053866e+00 -1.741671e-01 -2.399107e-01 -1.977665e-01 -2.578311e-01 -2.670118e-01 -2.115067e-01 -1.982170e-01 -3.585753e-01 -1.994159e-01 -1.576736e-02 -1.500441e-01 -3.796140e-01 -8.843148e-02 9.094986e-02 1.529536e-01 1.308765e-01 4.876640e-02 -1.190499e-01 -1.466190e-01 -3.205688e-01 -2.643068e-01 -2.414844e-01 -1.696888e-01 -2.075210e-01 -1.084652e-01 4.372119e-02
<VARIANCE> 39
 9.176115e-01 1.735612e+00 2.440428e+00 3.206045e+00 4.755708e+00 6.374912e+00 6.187647e+00 8.032472e+00 6.542074e+00 8.287352e+00 9.128386e+00 7.815553e+00 8.285324e-01 7.232874e-02 1.513688e-01 5.426643e-01 4.453325e-01 5.315194e-01 7.724229e-01 1.065211e+00 1.136451e+00 1.114348e+00 1.008922e+00 8.950699e-01 8.832587e-01 3.408687e-02 2.058753e-02 4.557692e-02 6.690177e-02 9.394923e-02 1.075847e-01 1.489125e-01 1.893597e-01 1.706279e-01 1.342188e-01 2.336790e-01 2.299012e-01 2.357595e-01 6.568241e-03
<GCONST> 4.844947e+01
<MIXTURE> 12 8.241617e-02
<MEAN> 39
 1.498050e+00 2.273495e+00 2.204661e+00 1.304915e+00 -1.197055e-01 -6.590182e-02 1.077522e-01 1.341663e+00 1.549952e+00 1.331258e+00 1.614498e-01 3.723165e-01 5.863202e-01 -1.868771e-01 -2.630953e-01 -2.643256e-01 -2.772521e-01 -2.532311e-01 -5.486413e-01 -3.924170e-01 -6.185486e-01 -4.041560e-02 7.959193e-02 1.257125e-01 -7.169171e-02 -9.490320e-02 -4.161819e-02 -4.368799e-02 -1.810627e-02 -1.616104e-02 -5.687916e-02 -1.322873e-01 -9.629098e-02 -2.373094e-01 -3.827853e-01 -2.767929e-01 -1.324397e-01 -9.974070e-02 -1.478188e-02
<VARIANCE> 39
 8.046306e-01 1.398757e+00 3.487983e+00 4.005788e+00 4.549047e+00 5.358794e+00 6.213106e+00 1.090970e+01 9.565536e+00 1.010856e+01 5.864504e+00 9.707120e+00 8.285324e-01 7.753534e-02 2.421382e-01 2.975071e-01 4.036917e-01 6.773215e-01 7.946878e-01 9.831799e-01 1.009821e+00 8.690047e-01 1.134912e+00 1.145112e+00 8.968666e-01 3.408687e-02 1.290675e-02 3.755767e-02 5.760674e-02 5.313288e-02 6.808531e-02 1.240965e-01 2.461712e-01 2.828224e-01 1.564554e-01 1.824164e-01 1.687381e-01 2.485485e-01 4.365372e-03
<GCONST> 4.715901e+01
<STATE> 3
<NUMMIXES> 12
<MIXTURE> 1 8.002137e-02
<MEAN> 39
 -2.087627e+00 4.298580e+00 4.851806e-01 6.108573e+00 8.413392e+00 -1.545297e-01 5.667800e+00 2.798372e+00 -4.213477e+00 5.177710e-01 -3.243531e+00 4.055121e+00 -1.989567e+01 -1.392827e-01 7.372126e-01 1.312210e+00 1.245608e-01 -5.982445e-01 8.226298e-01 -6.004011e-01 -4.997988e-01 4.150864e-01 -3.381103e-01 6.664388e-01 -6.817452e-01 2.957825e+00 1.402548e-01 -2.252956e-01 2.867411e-01 -4.698655e-01 -9.256777e-01 2.766377e-01 -6.237779e-01 -7.076094e-01 1.471419e-01 6.603827e-02 5.674484e-01 -1.277023e-01 1.279571e+00
<VARIANCE> 39
 5.801357e+01 3.861400e+01 1.141447e+02 5.552604e+01 3.216437e+01 5.482377e+01 4.713873e+01 3.429058e+01 3.221978e+01 2.028654e+01 2.162512e+01 2.221689e+01 4.414566e+01 1.055223e+01 6.130323e+00 1.115893e+01 9.610878e+00 6.662944e+00 6.442819e+00 7.205138e+00 9.250652e+00 4.375107e+00 3.698752e+00 3.335918e+00 3.600684e+00 6.720426e+00 7.895189e-01 7.129254e-01 1.292721e+00 1.217684e+00 9.240809e-01 1.236666e+00 7.801408e-01 8.831493e-01 6.146953e-01 6.514499e-01 5.524718e-01 7.401374e-01 5.380223e-01
<GCONST> 1.406428e+02
<MIXTURE> 2 9.219788e-02
<MEAN> 39
 3.059717e+00 7.227519e-01 -1.221428e+01 -1.081114e+01 -1.540043e+00 1.513414e+01 -1.061658e-01 -5.721578e-01 4.254879e+00 -4.361485e+00 5.753511e+00 -3.664756e+00 8.342805e+00 1.059147e-01 -5.786554e-02 -2.024305e-01 4.768389e-01 4.172883e-01 -4.539376e-01 4.939991e-01 -1.513565e-01 -1.032401e-01 1.147976e-01 -3.811716e-01 -7.940967e-02 -1.887171e-01 1.053449e-01 -1.215539e-02 3.199658e-01 3.126845e-01 1.847116e-01 -2.037394e-01 -1.912878e-02 -1.010100e-01 -2.626532e-01 1.131772e-01 -2.261412e-01 2.863519e-01 -4.461237e-01
<VARIANCE> 39
 9.706033e+00 2.050808e+01 2.699549e+01 2.374255e+01 3.967061e+01 6.207753e+01 7.085123e+01 5.023249e+01 3.246624e+01 2.788656e+01 4.636837e+01 2.070660e+01 9.720006e+00 1.292729e+00 1.249386e+00 1.984072e+00 1.583478e+00 1.829465e+00 1.746404e+00 2.969536e+00 1.882906e+00 2.047923e+00 2.263682e+00 2.768770e+00 1.662685e+00 2.298613e+00 1.316594e-01 1.464076e-01 1.896417e-01 2.285654e-01 3.356173e-01 2.996780e-01 5.014181e-01 4.349720e-01 2.779047e-01 2.757465e-01 3.650334e-01 2.813546e-01 2.403453e-01
<GCONST> 1.065921e+02
<MIXTURE> 3 9.469565e-02
<MEAN> 39
 -1.328639e+01 5.091649e+00 8.472610e+00 1.185546e-01 -7.213574e-01 -5.091436e+00 -1.810337e+00 3.309578e+00 -5.260257e+00 1.198077e+00 -1.023499e+00 2.834533e+00 4.695654e-01 3.928446e-02 3.704164e-01 3.032808e-01 1.816009e-01 -2.877026e-02 3.612427e-01 2.210839e-01 -1.555740e-01 -2.740982e-01 8.141693e-02 -1.930174e-01 2.120632e-01 -1.048405e+00 3.654099e-01 -1.186574e-01 8.460807e-03 8.592090e-02 -1.302509e-01 1.253202e-01 -1.917614e-03 -2.474154e-01 -2.008094e-02 -1.168253e-01 1.543225e-01 -1.386451e-01 -3.751562e-02
<VARIANCE> 39
 4.312273e+01 7.483730e+01 1.621285e+02 2.927374e+01 7.796358e+01 4.049687e+01 2.568048e+01 4.716138e+01 4.150795e+01 2.683554e+01 3.589186e+01 3.264908e+01 3.813003e+01 3.484454e+00 2.647098e+00 2.090927e+00 2.159457e+00 3.603904e+00 2.498947e+00 2.654835e+00 3.412974e+00 2.847906e+00 2.175164e+00 2.746473e+00 2.527546e+00 1.242571e+00 2.828391e-01 3.936257e-01 2.508152e-01 3.845046e-01 6.322978e-01 4.230762e-01 5.766570e-01 6.507713e-01 6.041762e-01 4.671702e-01 5.174329e-01 5.894675e-01 1.659591e-01
<GCONST> 1.221297e+02
<MIXTURE> 4 8.403729e-02
<MEAN> 39
 4.857332e+00 8.403262e-01 -2.108033e+00 -6.427870e+00 -5.311165e+00 1.291796e+01 -8.650390e+00 -5.759489e+00 4.870076e-01 -3.321382e+00 7.530489e+00 1.738646e-01 4.607645e+00 4.159163e-01 -8.888777e-01 -1.240788e+00 -1.570532e+00 -6.289229e-01 1.509992e+00 1.775257e-01 5.798822e-03 1.258104e+00 -2.601382e-01 3.095419e-01 -1.132632e+00 1.696608e+00 -4.882726e-01 2.751987e-02 3.211542e-02 6.948183e-01 5.786750e-01 -9.290354e-01 9.300642e-01 3.104556e-01 -8.941312e-02 3.703803e-01 -7.235225e-01 2.869005e-01 -6.305127e-01
<VARIANCE> 39
 1.422945e+01 3.918477e+01 5.725460e+01 7.856780e+01 5.493478e+01 7.071151e+01 9.329256e+01 1.081333e+02 6.130585e+01 3.701291e+01 6.174165e+01 2.730517e+01 1.897439e+01 2.710962e+00 3.474069e+00 3.147823e+00 6.365746e+00 4.584606e+00 7.457801e+00 5.976089e+00 5.403078e+00 5.917969e+00 5.599024e+00 5.427936e+00 2.892556e+00 4.977157e+00 4.806769e-01 6.880401e-01 7.990703e-01 1.461838e+00 5.875024e-01 1.084184e+00 7.173390e-01 1.221962e+00 1.212054e+00 8.179274e-01 8.389881e-01 5.034924e-01 5.883210e-01
<GCONST> 1.391678e+02
<MIXTURE> 5 9.925518e-02
<MEAN> 39
 4.900256e+00 1.184540e+00 2.948477e+00 5.244946e+00 -3.484323e+00 2.450137e+00 -5.977289e+00 -1.392556e+01 -4.427033e+00 -1.791840e+00 4.581235e+00 -4.612307e+00 2.545108e+00 1.617005e-01 9.686996e-02 -3.934540e-01 5.434344e-01 1.246899e-01 -1.108689e-01 -1.024395e-01 -4.391818e-01 3.772267e-01 2.656758e-01 -3.945107e-01 -2.036251e-02 -1.809020e-01 -1.944988e-01 -6.315191e-02 2.338223e-01 -2.291369e-01 -2.414133e-01 1.139247e-01 -5.198923e-02 5.437613e-01 -6.529047e-02 4.027588e-02 4.507846e-02 8.065841e-02 1.393917e-01
<VARIANCE> 39
 5.741302e+00 1.592105e+01 4.260291e+01 7.310403e+01 4.236355e+01 6.205876e+01 1.747831e+02 8.781786e+01 2.843722e+01 4.602955e+01 5.233950e+01 4.149084e+01 5.979431e+00 7.535163e-01 7.996111e-01 4.273363e+00 3.162178e+00 3.809712e+00 4.643195e+00 4.261041e+00 9.445985e+00 2.582023e+00 3.252768e+00 3.749710e+00 3.133963e+00 5.085327e-01 9.543948e-02 9.335461e-02 2.989829e-01 6.054949e-01 5.091366e-01 8.972434e-01 7.532307e-01 1.280779e+00 5.866156e-01 7.117293e-01 6.331376e-01 6.141648e-01 7.575582e-02
<GCONST> 1.193317e+02
<MIXTURE> 6 1.033117e-01
<MEAN> 39
