~o
<STREAMINFO> 1 39
<VECSIZE> 39<NULLD><MFCC_D_A_Z_0><DIAGC>
~h "M001"
<BEGINHMM>
<NUMSTATES> 5
<STATE> 2
<NUMMIXES> 8
<MIXTURE> 1 1.061048e-01
<MEAN> 39
 -2.246549e+01 -2.080639e+00 -1.973333e+00 -1.116848e+00 6.916085e+00 5.107018e+00 2.921255e+00 8.177311e+00 6.308864e+00 1.947356e-01 3.902106e+00 1.089542e+01 -4.336102e+00 1.639193e-01 2.545493e-01 3.030300e-01 -6.326337e-01 1.663568e-01 -1.706470e-01 -5.547060e-02 -1.761731e-01 -6.472523e-02 3.678219e-01 -5.871220e-01 -8.076290e-01 8.300000e-01 6.444852e-01 -3.182248e-03 2.515315e-02 1.832187e-01 9.447280e-02 -7.199279e-02 4.119911e-02 -8.753170e-02 -4.560317e-01 -1.512990e-01 -1.496081e-01 -2.215106e-01 -2.843488e-01
<VARIANCE> 39
 4.662392e+01 3.382548e+01 2.250802e+01 3.055795e+01 5.731500e+01 3.111692e+01 3.794232e+01 3.967086e+01 1.715318e+01 1.635702e+01 1.780509e+01 2.866046e+01 2.950204e+01 5.512335e+00 4.748300e+00 2.267277e+00 7.219984e+00 4.564628e+00 3.974747e+00 3.506850e+00 5.024475e+00 2.182214e+00 2.485432e+00 3.077093e+00 3.325701e+00 9.836037e+00 2.142635e-01 1.092696e+00 3.873033e-01 1.187696e+00 1.231574e+00 6.551332e-01 7.358701e-01 1.162243e+00 6.733257e-01 3.316796e-01 3.434669e-01 6.093795e-01 3.932498e-01
<GCONST> 1.271676e+02
<MIXTURE> 2 8.506989e-02
<MEAN> 39
 -1.508277e+00 1.975104e+00 -1.373895e+01 -1.695226e+01 8.325253e+00 7.055816e+00 8.728945e+00 -5.579259e+00 2.936099e-01 3.074127e+00 4.177145e+00 -3.566202e+00 1.288159e+01 6.609077e-01 7.736151e-02 5.907234e-01 6.074376e-01 -4.076196e-01 -1.794681e-01 -4.811152e-02 8.270410e-01 -1.809569e-01 -6.126263e-01 2.086297e-01 5.475242e-01 -8.850459e-01 3.215348e-01 2.261903e-01 2.234236e-01 3.250624e-01 -2.872211e-01 6.174350e-02 -1.703874e-01 7.392342e-02 -8.147667e-03 2.241138e-02 -1.877155e-01 1.283582e-01 -8.269836e-01
<VARIANCE> 39
 5.490969e+00 7.504539e+00 1.565423e+01 1.865885e+01 1.939976e+01 9.816945e+00 3.666543e+01 1.275130e+01 6.665380e+00 1.420058e+01 2.740005e+01 1.281817e+01 3.923991e+00 1.235019e+00 7.418460e-01 1.083660e+00 1.463434e+00 1.869726e+00 1.153647e+00 1.270009e+00 1.214077e+00 1.537374e+00 1.095110e+00 1.744824e+00 1.255301e+00 2.842707e+00 1.463665e-01 1.243383e-01 2.342720e-01 4.129357e-01 6.577031e-01 3.438561e-01 2.924345e-01 2.464311e-01 3.994253e-01 3.552590e-01 2.457510e-01 2.508830e-01 1.586093e-01
<GCONST> 9.113451e+01
<MIXTURE> 3 1.269053e-01
<MEAN> 39
 -1.931274e+00 -8.654469e+00 -1.304739e+00 4.882450e+00 2.728581e-01 4.413810e+00 3.053072e+00 5.232588e+00 6.506455e-01 -4.431973e+00 1.512708e+00 6.367518e+00 -2.284029e+01 -6.070389e-01 7.943541e-01 -8.984767e-01 3.689546e-01 1.300244e-01 -7.360604e-02 5.442542e-01 1.125317e-01 3.191219e-01 5.655839e-01 9.773697e-02 4.746507e-01 3.726248e-01 -4.665980e-01 6.836432e-01 -2.910135e-01 2.600591e-01 -6.256364e-02 -1.652095e-01 5.489355e-02 -5.014112e-01 4.433264e-01 4.931296e-02 -1.432769e-01 1.283871e-01 7.976916e-01
<VARIANCE> 39
 6.700089e+00 6.976626e+00 2.163049e+01 1.763359e+01 3.023086e+01 2.094855e+01 1.920324e+01 2.356773e+01 1.707096e+01 2.185770e+01 1.851908e+01 1.816195e+01 6.157491e+00 1.139601e+00 1.040310e+00 1.832812e+00 1.234210e+00 2.161561e+00 1.695479e+00 2.074270e+00 1.974232e+00 2.250396e+00 1.522007e+00 1.595783e+00 1.724931e+00 3.544472e-01 3.829062e-01 3.239865e-01 7.405329e-01 4.229326e-01 4.176204e-01 4.644683e-01 5.012047e-01 5.980384e-01 4.629863e-01 4.023881e-01 4.979202e-01 4.049005e-01 2.832339e-01
<GCONST> 1.018548e+02
<MIXTURE> 4 1.709743e-01
<MEAN> 39
 -4.589792e+00 -4.972346e+00 -5.112028e+00 6.738402e+00 -1.133743e+00 3.407844e+00 4.478875e+00 2.994655e+00 2.957435e+00 -3.842283e+00 7.332175e-01 6.664653e+00 -2.008213e+01 -1.658057e+00 2.734830e+00 -2.436401e-01 6.724370e-01 5.896537e-02 -6.583411e-01 -1.880054e-02 -2.113586e+00 1.060901e+00 2.389426e-01 -3.047737e-01 3.041822e-01 3.552764e+00 2.975116e-01 5.076342e-01 6.417754e-01 -5.263172e-01 -5.818712e-02 -1.905630e-01 -1.948499e-01 -5.689597e-01 -2.307662e-01 2.712119e-01 -2.728458e-01 -3.740301e-01 1.314007e+00
<VARIANCE> 39
 2.461384e+01 2.400660e+01 2.807878e+01 3.504749e+01 3.703946e+01 2.067592e+01 2.722977e+01 3.646743e+01 1.678533e+01 3.409675e+01 1.561051e+01 2.148240e+01 1.482220e+01 5.198025e+00 5.396601e+00 9.838385e+00 6.806963e+00 3.684262e+00 3.968434e+00 5.382884e+00 3.406612e+00 2.785706e+00 2.778894e+00 3.920895e+00 1.838249e+00 4.319388e+00 8.399696e-01 6.490004e-01 1.410131e+00 1.042034e+00 7.675256e-01 7.996398e-01 9.365556e-01 9.434665e-01 5.626190e-01 7.119676e-01 5.054039e-01 4.410450e-01 4.131370e-01
<GCONST> 1.278341e+02
<MIXTURE> 5 1.804983e-01
<MEAN> 39
 -1.233545e+00 -8.848104e+00 -1.631252e+00 6.303953e+00 -7.479628e-01 3.494290e+00 1.945025e+00 3.604653e+00 1.901337e+00 -4.789918e+00 2.737187e-01 5.084022e+00 -2.300286e+01 -1.822791e-01 4.770100e-02 -4.239521e-02 1.102604e-01 -1.032155e-03 6.008698e-02 1.456147e-01 -2.808864e-01 3.637180e-03 1.277272e-01 -3.213413e-03 -1.460497e-01 1.134305e-02 -8.796061e-02 8.930299e-02 -1.267518e-01 -3.279305e-02 3.783371e-02 -4.330118e-02 8.465839e-02 9.492037e-02 2.339008e-02 7.022394e-02 1.301369e-01 9.946477e-02 6.518324e-02
<VARIANCE> 39
 6.592092e+00 5.593784e+00 1.482635e+01 1.449968e+01 2.241620e+01 1.397445e+01 3.131008e+01 2.693871e+01 2.116712e+01 1.959088e+01 1.581879e+01 1.548690e+01 6.335128e+00 2.286320e-01 4.841853e-01 5.460061e-01 5.330811e-01 1.153505e+00 1.023019e+00 1.637230e+00 1.792800e+00 1.820165e+00 1.618799e+00 1.456730e+00 1.188120e+00 7.069718e-02 4.489928e-02 7.352161e-02 7.005066e-02 6.655786e-02 1.547004e-01 1.189227e-01 2.011855e-01 2.470794e-01 2.241548e-01 1.837988e-01 1.960902e-01 1.989899e-01 1.841767e-02
<GCONST> 7.479533e+01
<MIXTURE> 6 1.165544e-01
<MEAN> 39
 -9.933960e-01 1.173610e+01 5.517510e-01 8.231595e+00 -1.084656e+00 -2.948391e+00 3.924398e+00 -7.557435e+00 1.278905e-01 -2.618819e+00 -5.273217e+00 6.205812e+00 -9.237048e+00 2.416575e+00 3.176476e+00 2.038431e+00 -1.389105e+00 -1.811508e+00 -1.243444e+00 7.725082e-01 -3.950506e+00 -1.380730e+00 2.224101e+00 -1.419000e+00 -6.672340e-01 3.684041e+00 -3.298997e-01 -1.494193e+00 -7.082010e-04 -9.434529e-01 4.055559e-02 6.887721e-01 3.013459e-02 6.038516e-01 2.115593e-01 5.141321e-01 4.897182e-01 -1.117334e-01 1.035724e-01
<VARIANCE> 39
 3.443577e+01 4.466339e+01 4.913644e+01 8.286932e+01 5.899543e+01 3.855659e+01 5.952443e+01 8.889386e+01 7.756174e+01 3.734612e+01 5.530543e+01 1.833878e+01 2.047368e+01 4.305875e+00 7.677746e+00 6.844459e+00 9.117886e+00 3.684011e+00 8.042346e+00 5.515072e+00 6.735703e+00 9.699145e+00 5.914831e+00 3.656479e+00 3.780681e+00 4.124770e+00 7.807255e-01 1.158833e+00 6.879190e-01 9.235705e-01 1.089871e+00 9.501456e-01 1.441888e+00 2.001019e+00 1.631084e+00 1.053322e+00 8.410264e-01 5.595110e-01 5.905352e-01
<GCONST> 1.440731e+02
<MIXTURE> 7 1.307282e-01
<MEAN> 39
 4.028761e+00 1.465515e+00 -1.238950e+01 -1.306019e+01 4.455158e+00 7.170859e+00 5.677829e+00 -3.061002e+00 6.936606e-01 3.817518e+00 1.782314e+00 -6.525180e-01 -2.331590e+00 3.712600e-01 -1.184453e+00 -7.539176e-01 -9.166534e-01 4.168088e-01 2.336489e-01 4.695211e-01 1.500381e-01 5.929481e-02 4.250461e-01 -2.045401e-02 -3.175836e-01 -5.796238e-01 -2.770262e-01 -4.123171e-01 1.195902e-01 4.133766e-01 -3.398004e-01 -1.111124e-01 -2.878403e-02 2.541482e-01 1.986640e-02 -3.557872e-01 9.517813e-03 1.302856e-01 -1.600833e-01
<VARIANCE> 39
 1.830040e+01 3.874664e+01 2.459314e+01 3.759224e+01 3.575990e+01 2.445671e+01 2.387731e+01 3.049941e+01 1.915057e+01 2.190880e+01 3.391158e+01 3.818327e+01 8.005842e+01 2.097572e+00 1.768230e+00 2.251147e+00 8.447218e+00 8.140472e+00 2.612680e+00 2.726157e+00 1.637097e+00 2.354106e+00 2.321576e+00 3.685226e+00 4.931092e+00 1.223012e+01 3.353472e-01 6.231231e-01 4.982948e-01 1.025195e+00 8.722034e-01 5.319505e-01 3.397471e-01 4.633431e-01 3.880875e-01 4.035937e-01 7.598867e-01 1.097356e+00 8.671747e-01
<GCONST> 1.249021e+02
<MIXTURE> 8 8.316516e-02
<MEAN> 39
 4.868206e+00 -6.366539e+00 -1.029404e+01 -5.491580e+00 -5.139328e+00 9.068317e+00 8.398916e+00 6.143275e+00 2.196265e-01 -4.065350e+00 -2.388105e+00 7.517785e-01 -1.581037e+01 -5.956703e-01 -8.518145e-02 8.652024e-01 1.221878e+00 -8.467095e-01 -1.938168e-02 -2.914580e-01 8.709680e-01 -5.189462e-03 -9.740304e-01 -5.995394e-01 -7.591204e-02 -6.230075e-01 -1.029444e-01 2.815878e-01 4.831474e-02 4.033650e-03 2.982824e-01 -7.980876e-02 -1.842054e-01 -3.250914e-01 1.019188e-01 1.933076e-01 2.225636e-01 4.924915e-02 3.267984e-01
<VARIANCE> 39
 9.876057e+00 5.121656e+00 1.399543e+01 1.308135e+01 3.009044e+01 3.279473e+01 2.613819e+01 2.999353e+01 2.374551e+01 2.473230e+01 2.296441e+01 2.253319e+01 5.924799e+00 4.224534e-01 6.474062e-01 1.076513e+00 1.292842e+00 1.954913e+00 2.492998e+00 1.902150e+00 2.862279e+00 1.773965e+00 1.675265e+00 2.865386e+00 2.539493e+00 1.650057e-01 1.036739e-01 1.931693e-01 5.047724e-01 3.338521e-01 3.088363e-01 4.354638e-01 3.010522e-01 4.278725e-01 4.171219e-01 3.131184e-01 5.659627e-01 5.245522e-01 1.436975e-01
<GCONST> 9.742066e+01
<STATE> 3
<NUMMIXES> 8
<MIXTURE> 1 1.414644e-01
<MEAN> 39
 4.820711e+00 4.895484e+00 -8.667645e+00 -1.183167e+01 1.540134e+00 8.044677e+00 3.783225e+00 -6.541445e+00 -2.934844e+00 5.140122e+00 -1.508305e+00 -2.071511e+00 4.555977e+00 -2.807276e-02 -1.309446e-01 -1.041752e-02 2.798815e-03 4.679791e-01 5.068035e-02 8.751965e-02 -1.456655e-01 1.085788e-01 2.680976e-01 -2.163522e-01 -3.629032e-01 -5.499534e-02 -3.900848e-02 -2.204784e-01 2.252529e-01 5.409632e-01 -6.222253e-02 -2.796949e-01 -2.525916e-01 2.209681e-01 1.083235e-01 -2.291655e-01 5.246869e-02 5.848516e-02 -8.797622e-02
<VARIANCE> 39
 9.929816e+00 2.692864e+01 5.329781e+01 7.311701e+01 8.515035e+01 6.529771e+01 8.819012e+01 9.186024e+01 7.188216e+01 6.459177e+01 5.648482e+01 3.613795e+01 1.223730e+01 5.581011e-01 2.424234e+00 2.674893e+00 4.468395e+00 3.037441e+00 4.001576e+00 5.134625e+00 4.712530e+00 4.305193e+00 3.194821e+00 3.219029e+00 2.983492e+00 1.012410e+00 1.118694e-01 2.237076e-01 3.569781e-01 4.966822e-01 5.662464e-01 6.305290e-01 6.609014e-01 8.109956e-01 6.022027e-01 6.438453e-01 5.960405e-01 5.189019e-01 1.360858e-01
<GCONST> 1.239023e+02
<MIXTURE> 2 1.292604e-01
<MEAN> 39
 7.835356e+00 -3.785853e-01 2.110096e+00 4.687041e+00 -4.325294e-01 7.526022e-01 -1.573699e+00 5.314275e+00 -1.310512e+00 -3.512179e+00 -6.731659e-01 3.486504e-01 -1.177127e+01 -1.207675e+00 -6.766210e-01 3.137738e-01 -2.024690e-01 5.339158e-02 7.145903e-01 -4.417571e-02 2.930868e-01 2.949415e-01 -1.265558e-01 -1.968185e-01 5.855603e-01 -4.971026e-01 -9.876885e-01 -2.387528e-01 8.855813e-02 -2.799200e-01 -2.118881e-01 4.142042e-02 -1.072039e-01 -3.879271e-01 1.985613e-01 2.762704e-01 2.377458e-01 4.124936e-02 1.311636e+00
<VARIANCE> 39
 4.637138e+01 5.027605e+01 8.629985e+01 8.660847e+01 6.132032e+01 6.388045e+01 4.785683e+01 8.933076e+01 5.696772e+01 5.048011e+01 3.795434e+01 3.469234e+01 2.481090e+01 6.999038e+00 4.784803e+00 7.205714e+00 6.378565e+00 6.071615e+00 6.127626e+00 5.291680e+00 6.927101e+00 5.382885e+00 4.235751e+00 3.888539e+00 3.130194e+00 8.337429e+00 6.555234e-01 6.368807e-01 1.018112e+00 1.183655e+00 9.348090e-01 1.031211e+00 1.042396e+00 1.075357e+00 1.054038e+00 7.510787e-01 7.054007e-01 5.768510e-01 6.060614e-01
<GCONST> 1.434033e+02
<MIXTURE> 3 1.650151e-01
<MEAN> 39
 2.538932e-01 -4.046391e+00 4.997568e+00 3.339583e-01 -2.979839e+00 -6.043756e+00 -3.435461e+00 5.623269e+00 -1.572329e+00 -8.964081e-01 4.907868e+00 -3.343983e+00 8.049030e+00 5.712302e-01 4.476001e-02 1.402016e-01 7.260705e-01 -7.370427e-02 -2.664933e-01 -4.759379e-02 -1.893039e-01 -6.159974e-03 -1.070582e-01 -1.552551e-01 3.685352e-01 -6.619017e-01 1.123317e-01 3.378957e-01 -2.654324e-02 1.225528e-01 1.844944e-01 1.350331e-01 2.754075e-01 -3.458376e-01 5.588011e-02 9.093157e-02 -3.744626e-01 8.818857e-02 -4.911045e-01
<VARIANCE> 39
 1.503221e+01 1.962125e+01 7.419957e+01 6.048814e+01 7.626073e+01 4.254075e+01 5.491077e+01 5.563234e+01 7.660313e+01 3.711951e+01 5.907309e+01 3.990414e+01 9.541789e+00 1.522499e+00 2.225328e+00 4.365359e+00 4.004466e+00 4.262227e+00 3.901485e+00 4.192321e+00 5.073772e+00 3.658918e+00 3.196215e+00 3.449582e+00 3.145607e+00 2.574586e+00 2.230445e-01 2.872142e-01 4.243785e-01 5.271528e-01 6.311471e-01 6.546816e-01 6.450270e-01 7.729400e-01 6.116545e-01 4.771558e-01 5.328010e-01 5.452698e-01 2.297183e-01
<GCONST> 1.258314e+02
<MIXTURE> 4 1.002231e-01
<MEAN> 39
 -3.264944e+00 -2.808201e+00 -6.120691e+00 -2.855746e+00 6.120582e+00 1.317838e+00 -2.769668e+00 5.713416e+00 6.032008e+00 1.496663e+00 -3.962536e+00 -2.351553e-01 3.149806e+00 -4.449524e-01 -5.159220e-01 -3.418627e-02 5.553926e-01 -1.023320e-01 -1.948323e-01 4.811434e-01 8.302404e-01 -3.212201e-03 -6.434267e-01 -1.260568e-01 3.672950e-01 3.339923e-01 3.165554e-01 3.673346e-01 3.618562e-01 1.683025e-01 -4.358024e-01 -8.718315e-02 3.480852e-01 -4.068312e-01 -5.531293e-01 -1.420988e-01 3.126051e-01 -8.520654e-02 -3.329759e-01
<VARIANCE> 39
 8.367252e+01 3.690363e+01 8.637431e+01 7.500331e+01 7.110580e+01 6.214635e+01 8.410744e+01 8.755190e+01 7.935478e+01 5.429293e+01 5.229462e+01 5.062814e+01 5.303382e+01 6.588058e+00 5.505974e+00 7.750401e+00 8.978665e+00 6.869408e+00 6.417607e+00 7.065375e+00 9.109356e+00 7.379634e+00 6.243413e+00 4.988135e+00 4.330745e+00 7.570366e+00 8.352628e-01 8.205672e-01 1.155725e+00 1.175849e+00 1.146884e+00 1.106980e+00 1.414772e+00 1.291551e+00 1.167153e+00 1.186529e+00 7.744917e-01 9.253284e-01 5.844924e-01
<GCONST> 1.509448e+02
<MIXTURE> 5 1.341101e-01
<MEAN> 39
 1.925394e+00 7.533752e+00 9.967633e+00 6.802503e+00 -6.718811e+00 -6.780827e+00 1.386221e+00 -6.854553e+00 -3.824499e+00 2.430821e+00 -1.441798e+00 -1.772032e+00 -7.538527e-01 1.704473e-01 7.459732e-01 6.003379e-02 3.942313e-01 -1.484506e-01 -4.840391e-02 3.362022e-02 -6.395293e-01 3.207125e-01 1.500668e-01 -1.313121e-01 1.842649e-01 -7.435884e-01 -7.843494e-03 -4.197979e-01 -2.633920e-01 -2.659428e-01 3.151012e-01 3.383405e-01 -2.474802e-01 4.605142e-01 8.020208e-03 -2.295712e-01 1.276799e-01 -7.989766e-04 1.305393e-01
<VARIANCE> 39
 5.233410e+01 3.372395e+01 7.775571e+01 6.349765e+01 7.207058e+01 6.753786e+01 5.878398e+01 7.471945e+01 5.806227e+01 5.400379e+01 8.383072e+01 4.909443e+01 3.027592e+01 8.198974e-01 2.732061e+00 2.144469e+00 2.630913e+00 3.701199e+00 3.231202e+00 3.764590e+00 5.182281e+00 2.643350e+00 3.923563e+00 3.286697e+00 2.024090e+00 9.939644e-01 1.305050e-01 3.779666e-01 4.787224e-01 5.078825e-01 7.002161e-01 5.687412e-01 6.149095e-01 7.655210e-01 5.154202e-01 6.477332e-01 5.297164e-01 4.977181e-01 1.717782e-01
<GCONST> 1.262468e+02
<MIXTURE> 6 1.359020e-01
<MEAN> 39
 4.177505e+00 2.669675e+00 2.776230e+00 3.845080e+00 -4.597415e+00 2.008848e+00 -3.589759e+00 -7.787536e+00 -4.671131e+00 1.828076e+00 3.618289e+00 -5.572718e-01 8.139405e-01 5.885252e-01 -2.691773e-01 -6.142808e-01 -1.214417e+00 2.179970e-01 2.633905e-01 -5.408849e-04 7.224188e-01 -2.462564e-01 4.576618e-01 3.414694e-01 -7.700737e-01 4.994632e-01 -3.734911e-01 -3.906668e-01 -2.859740e-01 -1.605065e-01 2.747516e-01 -1.412270e-03 3.054522e-01 6.798331e-01 4.396000e-01 -1.862233e-01 -3.360059e-01 8.790518e-02 -3.195471e-03
<VARIANCE> 39
 3.817706e+01 5.948098e+01 1.521696e+02 8.948761e+01 8.496458e+01 1.133523e+02 7.589898e+01 9.844893e+01 6.446289e+01 6.113055e+01 8.062814e+01 4.416225e+01 2.513117e+01 4.427804e+00 6.331358e+00 7.917290e+00 8.307772e+00 9.662553e+00 7.730232e+00 6.756728e+00 1.227356e+01 8.252785e+00 6.082091e+00 5.781574e+00 4.598458e+00 4.663650e+00 4.593467e-01 7.797178e-01 1.134529e+00 1.176124e+00 1.256831e+00 1.280176e+00 1.161188e+00 1.597808e+00 1.268540e+00 1.042297e+00 9.715623e-01 8.060369e-01 4.639532e-01
<GCONST> 1.513061e+02
<MIXTURE> 7 1.223045e-01
<MEAN> 39
 -1.237719e+00 -5.449859e+00 -6.195004e+00 -8.006639e+00 7.416387e+00 -4.753187e+00 3.471277e+00 7.301578e+00 3.473204e+00 -1.664923e+00 -3.249999e+00 -6.175449e+00 1.198403e+01 8.499056e-02 3.787882e-02 5.438449e-02 -6.201276e-02 1.710188e-01 -1.712710e-01 -2.443871e-01 3.287785e-01 -2.969500e-03 -2.792203e-01 2.414911e-01 -1.098901e-01 -4.175752e-02 1.123883e-01 1.387763e-01 3.027331e-01 2.642058e-01 -2.651312e-01 1.211580e-01 -3.224151e-01 -2.618442e-01 -4.639949e-02 1.574188e-01 6.346414e-02 2.037000e-01 -2.860753e-01
<VARIANCE> 39
 1.314585e+01 1.138471e+01 4.389641e+01 2.747229e+01 4.048982e+01 4.618715e+01 6.830657e+01 5.600299e+01 5.243980e+01 5.595016e+01 4.420646e+01 3.264123e+01 4.545446e+00 3.907378e-01 5.887660e-01 2.377748e+00 1.265890e+00 2.475321e+00 1.993612e+00 3.365976e+00 2.714732e+00 2.415150e+00 2.096685e+00 2.210214e+00 1.715798e+00 3.857531e-01 7.026439e-02 1.372283e-01 2.104768e-01 2.520199e-01 2.855379e-01 2.614937e-01 3.940802e-01 5.440814e-01 4.535007e-01 3.954968e-01 3.211435e-01 3.371066e-01 6.859713e-02
<GCONST> 1.034463e+02
<MIXTURE> 8 7.171153e-02
<MEAN> 39
 -1.052774e+01 -6.429778e+00 7.416690e+00 6.119340e+00 -4.043052e+00 4.939672e+00 -2.928118e+00 1.697593e+00 3.878938e+00 -4.118217e+00 1.223162e+00 4.849428e+00 2.105632e+00 -1.459331e-01 7.076921e-01 3.313475e-01 -7.374669e-01 -3.555648e-01 -7.266659e-01 -9.710560e-01 -1.206711e+00 -9.189157e-01 1.338748e-01 8.383192e-01 -6.963314e-01 2.887675e+00 1.594835e+00 8.390893e-01 -7.749937e-01 -6.432775e-01 1.231304e-01 -4.777113e-01 6.256340e-02 -6.142601e-02 -6.686682e-01 3.336654e-01 1.676718e-01 -6.210601e-01 -7.030438e-01
<VARIANCE> 39
 6.870101e+01 7.776058e+01 1.189448e+02 9.117542e+01 6.540722e+01 7.110422e+01 5.986277e+01 7.313258e+01 6.115703e+01 3.904371e+01 3.710002e+01 2.748835e+01 3.459708e+01 1.428415e+01 8.631618e+00 1.008618e+01 9.047224e+00 7.236752e+00 7.522730e+00 7.567081e+00 9.042199e+00 9.413133e+00 4.699983e+00 4.627283e+00 4.454800e+00 9.407182e+00 9.607353e-01 1.435041e+00 1.144567e+00 1.913520e+00 1.575118e+00 1.668478e+00 1.469449e+00 1.489706e+00 1.370290e+00 9.557018e-01 7.749821e-01 7.776948e-01 8.060487e-01
<GCONST> 1.536411e+02
<STATE> 4
<NUMMIXES> 8
<MIXTURE> 1 8.699697e-02
<MEAN> 39
 1.284103e+01 6.500505e+00 -1.478364e+01 -1.370850e+00 -1.121546e+01 1.373149e+01 1.712609e+00 -2.450595e-01 -1.116154e+01 -1.712876e+00 5.932740e+00 1.007497e+01 -5.255579e+00 3.344497e-01 -2.237510e-01 -3.516027e-01 -3.379081e-01 5.329956e-01 6.197922e-02 1.131993e-01 -3.945693e-01 -5.462856e-01 5.809320e-01 -1.674034e-01 2.797626e-02 5.684117e-02 -5.679786e-01 -3.422691e-01 6.744562e-01 1.718536e-01 6.287579e-01 -4.391238e-02 -3.251333e-01 -1.868435e-01 5.985482e-01 -1.732587e-02 -2.433427e-01 -2.563330e-01 -5.858569e-02
<VARIANCE> 39
 1.003014e+01 4.047136e+01 3.923566e+01 6.010475e+01 1.117146e+02 6.314719e+01 7.960619e+01 6.403313e+01 8.010286e+01 2.969155e+01 5.314673e+01 2.271385e+01 1.367898e+01 1.669680e+00 1.982956e+00 4.178982e+00 2.836527e+00 1.332180e+01 5.274565e+00 5.710953e+00 6.220778e+00 7.523000e+00 3.989591e+00 3.653583e+00 2.218895e+00 1.817227e+00 6.326621e-01 3.569483e-01 9.346044e-01 4.006613e-01 1.136086e+00 8.681504e-01 7.009574e-01 1.074129e+00 1.142694e+00 6.269428e-01 8.972597e-01 4.569931e-01 1.126611e-01
<GCONST> 1.317410e+02
<MIXTURE> 2 1.330633e-01
<MEAN> 39
 -2.659512e+01 5.456830e-01 6.047091e+00 1.629845e+00 2.806120e+00 2.539621e+00 1.797366e+00 5.545704e+00 3.913298e+00 -2.859890e+00 2.786628e+00 7.947391e+00 -2.514725e+00 -4.102015e-02 -4.529446e-01 -5.005143e-01 1.340535e-01 4.377856e-01 3.279846e-01 5.942949e-02 -1.931440e-02 1.329326e-01 2.668618e-01 -2.245811e-01 -3.163014e-02 -5.840067e-01 8.492567e-01 1.318053e-01 -4.139064e-03 6.744667e-02 -3.934800e-02 -1.335409e-01 -1.633288e-01 -1.881781e-01 -1.701445e-01 -7.103934e-02 -5.506045e-02 -8.100221e-02 -1.071788e-01
<VARIANCE> 39
 1.294869e+01 5.203247e+01 3.297395e+01 4.499886e+01 4.910659e+01 4.033640e+01 3.303783e+01 3.001634e+01 1.784524e+01 1.794755e+01 3.008208e+01 1.960350e+01 1.139940e+01 5.123229e+00 2.539284e+00 1.947500e+00 2.153025e+00 1.956908e+00 3.105100e+00 3.065663e+00 2.464823e+00 1.992221e+00 1.648699e+00 2.226471e+00 1.131550e+00 1.879956e+00 5.756068e-01 7.327029e-01 3.884246e-01 5.999326e-01 3.825147e-01 7.484254e-01 6.303348e-01 4.934815e-01 4.232471e-01 2.993676e-01 4.835760e-01 2.448562e-01 2.009241e-01
<GCONST> 1.145930e+02
<MIXTURE> 3 1.439017e-01
<MEAN> 39
 -1.670120e+00 9.163762e+00 -1.387730e+00 6.043212e+00 1.096283e+01 -8.929957e+00 1.969161e-01 -1.255362e+01 7.718414e+00 2.396780e+00 -6.315981e+00 2.608993e+00 -6.868145e+00 -1.084225e-01 1.495396e-01 9.911422e-01 7.241648e-01 -4.763053e-02 3.654628e-01 9.856172e-02 -6.721529e-02 -3.496172e-01 -1.223876e+00 4.075890e-01 4.260738e-01 -1.776824e+00 -3.698063e-02 -4.643486e-01 4.357189e-02 -2.783706e-01 -4.280664e-01 2.779203e-01 1.184852e-01 5.351406e-01 -1.145764e-01 -1.249997e-01 1.016686e-01 -2.428115e-02 1.714371e-02
<VARIANCE> 39
 2.719069e+01 3.469709e+01 6.169270e+01 5.786919e+01 5.166573e+01 3.712821e+01 7.653933e+01 5.048095e+01 1.144744e+02 7.128445e+01 4.782182e+01 3.125216e+01 4.255014e+01 7.965585e-01 4.851323e+00 5.148956e+00 3.926426e+00 5.045463e+00 3.430110e+00 5.664182e+00 6.414303e+00 5.687940e+00 5.421885e+00 2.833155e+00 2.728280e+00 4.994676e-01 1.484880e-01 3.895884e-01 7.637021e-01 6.993096e-01 5.594581e-01 5.552880e-01 9.899099e-01 8.983086e-01 9.897860e-01 8.880388e-01 4.994082e-01 4.868987e-01 7.972166e-02
<GCONST> 1.293388e+02
<MIXTURE> 4 9.905680e-02
<MEAN> 39
 -2.530588e+00 2.795581e+00 2.834363e+00 3.429377e+00 -1.846514e+00 -6.190607e-01 -1.574600e+00 1.849804e-01 4.096680e-01 -2.462232e+00 1.812864e+00 6.582183e+00 -8.054373e+00 -2.868225e+00 -5.594209e-01 -1.290353e-01 -7.251209e-01 1.593347e-01 -7.833696e-03 2.874443e-01 3.576822e-01 1.911405e+00 5.449541e-01 -8.648561e-02 4.550288e-01 1.677472e+00 -8.335579e-01 -2.927537e-01 -6.319427e-02 -3.506159e-01 4.712756e-02 2.126737e-01 2.601057e-01 8.969016e-02 9.526911e-02 2.117123e-01 -1.452655e-01 -1.770368e-01 7.239861e-01
<VARIANCE> 39
 1.017291e+02 6.928126e+01 1.108768e+02 3.289592e+01 6.070360e+01 7.068821e+01 7.441050e+01 4.089903e+01 5.833755e+01 3.357821e+01 3.755183e+01 2.402566e+01 9.906744e+01 1.069178e+01 7.856791e+00 1.124541e+01 5.324072e+00 5.281821e+00 9.677752e+00 6.834997e+00 6.075584e+00 7.330269e+00 5.418211e+00 4.443960e+00 2.910151e+00 6.489531e+00 1.116243e+00 9.858753e-01 9.793695e-01 8.139325e-01 1.619130e+00 1.078821e+00 1.095802e+00 7.689483e-01 8.656472e-01 8.427312e-01 5.551032e-01 4.101062e-01 9.789327e-01
<GCONST> 1.468394e+02
<MIXTURE> 5 1.135252e-01
<MEAN> 39
 -1.771689e+00 -3.738883e+00 -2.225913e+00 3.027882e+00 3.732444e-01 -2.974952e+00 4.116912e+00 2.270842e+00 5.177913e+00 -1.729671e+00 -2.990359e+00 4.639567e+00 -8.656442e+00 3.400254e-02 -7.682522e-02 -9.039638e-02 7.193094e-02 -1.779574e-01 -3.785547e-01 1.987329e-01 2.282085e-01 -2.300850e-01 -1.698235e-01 1.514504e-01 3.120876e-02 -5.337699e-01 -1.825599e-02 2.706638e-01 1.333566e-01 -1.742692e-02 1.319157e-01 -1.652637e-01 -2.511599e-01 -2.938116e-01 1.716901e-03 8.882757e-02 -9.759318e-04 -9.021555e-02 6.115289e-02
<VARIANCE> 39
 1.492529e+01 2.537446e+01 2.066430e+01 3.248483e+01 2.315294e+01 5.383204e+01 3.258478e+01 5.999240e+01 5.373942e+01 3.111172e+01 2.541625e+01 2.369369e+01 2.164960e+02 2.586441e-01 7.222335e-01 1.362859e+00 1.653492e+00 1.762108e+00 2.321378e+00 1.953435e+00 2.243667e+00 2.203554e+00 2.068563e+00 1.695332e+00 1.266384e+00 2.016487e-01 8.079694e-02 1.076143e-01 1.651878e-01 2.191043e-01 2.633894e-01 2.750803e-01 3.955429e-01 2.857676e-01 3.115951e-01 3.377667e-01 2.213062e-01 1.951669e-01 1.065168e-01
<GCONST> 1.002282e+02
<MIXTURE> 6 1.617107e-01
<MEAN> 39
 -1.611942e+00 -1.675587e+00 5.752882e+00 3.226897e+00 6.196001e-02 -4.314240e+00 1.174796e+00 8.006595e-01 -1.567134e+00 -6.675465e+00 -1.641820e+00 4.485164e+00 -1.288536e+01 6.932049e-01 -1.048873e+00 9.055275e-02 3.119929e-01 -5.903500e-01 5.280410e-01 -1.920564e-01 9.813045e-01 -8.167936e-01 -5.481863e-01 -9.482318e-02 -9.368781e-02 -1.589337e+00 -3.232160e-01 8.209346e-02 -4.345437e-01 -2.981754e-02 2.131517e-01 2.534769e-01 -6.803034e-02 -1.223877e-01 2.944059e-01 4.497477e-01 2.148698e-01 6.171570e-02 4.399020e-01
<VARIANCE> 39
 5.089592e+01 2.964611e+01 9.676662e+01 4.534859e+01 2.875923e+01 1.323661e+02 4.618488e+01 6.566861e+01 8.201038e+01 3.901179e+01 3.261482e+01 2.283186e+01 5.835491e+01 3.546650e+00 3.226647e+00 6.746013e+00 3.744392e+00 3.972794e+00 6.481763e+00 4.238660e+00 4.796766e+00 5.633571e+00 4.459154e+00 2.823853e+00 1.996531e+00 1.513176e+00 5.294816e-01 3.449468e-01 1.000770e+00 6.796191e-01 6.526107e-01 9.685328e-01 8.606164e-01 6.299819e-01 1.096410e+00 8.218908e-01 4.389319e-01 4.056917e-01 3.324607e-01
<GCONST> 1.336022e+02
<MIXTURE> 7 1.426347e-01
<MEAN> 39
 1.247994e-01 3.049207e+00 -9.575180e+00 -3.842742e+00 6.505376e+00 1.950573e+00 2.404306e+00 -9.280340e+00 4.772488e+00 9.539823e+00 -3.417159e+00 2.373377e-01 4.526626e+00 -2.770292e-02 -5.075598e-01 6.425681e-02 9.251217e-01 1.566353e-01 2.467919e-01 -4.201078e-01 -8.587143e-01 3.980420e-01 -1.074896e-01 -3.625804e-01 2.199387e-01 -2.060068e-01 -5.360400e-02 -4.167875e-02 4.661798e-01 3.182405e-01 -1.607742e-01 -7.557435e-02 -2.456090e-01 4.283688e-01 -9.968370e-02 -7.240123e-01 2.875782e-01 2.933275e-01 -5.647563e-01
<VARIANCE> 39
 3.022147e+01 3.086868e+01 3.687498e+01 7.883640e+01 1.227643e+02 1.164942e+02 7.986000e+01 9.289733e+01 7.547743e+01 8.691532e+01 6.084830e+01 3.717138e+01 1.671665e+01 2.198823e+00 2.025476e+00 3.070180e+00 4.929351e+00 6.595110e+00 4.408279e+00 9.886291e+00 8.612406e+00 3.951867e+00 8.699623e+00 3.164166e+00 3.107590e+00 4.202669e+00 5.734826e-01 4.467961e-01 4.883778e-01 9.459355e-01 9.501729e-01 7.925782e-01 1.232875e+00 1.418129e+00 7.788349e-01 1.148071e+00 6.342148e-01 4.084853e-01 3.283226e-01
<GCONST> 1.391480e+02
<MIXTURE> 8 1.191091e-01
<MEAN> 39
 -1.039455e+01 -5.004419e+00 9.216098e-02 8.443630e-01 4.025140e+00 7.595350e+00 -4.521998e+00 4.901468e-01 4.611535e+00 -3.048469e+00 2.083201e+00 5.556830e+00 -1.189879e+00 1.207889e+00 1.789195e+00 -1.219790e+00 -1.499301e+00 -9.355268e-01 -9.325394e-01 9.014871e-01 1.651297e-02 -1.706938e-02 3.770611e-01 1.135153e-01 -4.931020e-02 8.605787e-01 9.323067e-01 4.842981e-01 -3.270621e-01 9.672239e-02 -2.421768e-01 -5.656617e-01 6.710729e-01 -4.355974e-02 -5.795650e-01 2.438849e-01 -2.177930e-01 -1.729747e-01 -4.117966e-01
<VARIANCE> 39
 1.286649e+02 8.010619e+01 8.619026e+01 6.127312e+01 5.083484e+01 8.186931e+01 8.276989e+01 5.150340e+01 4.166615e+01 2.694417e+01 4.902644e+01 2.856738e+01 2.576084e+01 2.513278e+01 8.482479e+00 9.012884e+00 6.281837e+00 7.220957e+00 8.367796e+00 7.528477e+00 4.135953e+00 7.741247e+00 4.184363e+00 7.609006e+00 3.587931e+00 7.581008e+00 1.752811e+00 1.577975e+00 1.268696e+00 1.240328e+00 1.237193e+00 1.505364e+00 1.279248e+00 1.020758e+00 7.671708e-01 1.012824e+00 9.873560e-01 5.323192e-01 6.447624e-01
<GCONST> 1.504718e+02
<TRANSP> 5
 0.000000e+00 1.000000e+00 0.000000e+00 0.000000e+00 0.000000e+00
 0.000000e+00 9.390958e-01 6.090423e-02 0.000000e+00 0.000000e+00
 0.000000e+00 0.000000e+00 9.940308e-01 5.969197e-03 0.000000e+00
 0.000000e+00 0.000000e+00 0.000000e+00 9.736292e-01 2.637081e-02
 0.000000e+00 0.000000e+00 0.000000e+00 0.000000e+00 0.000000e+00
<ENDHMM>
~h "M002"
<BEGINHMM>
<NUMSTATES> 5
<STATE> 2
<NUMMIXES> 8
<MIXTURE> 1 6.532656e-02
<MEAN> 39
 -1.614524e+00 -4.811917e-01 -2.437690e+00 6.283330e+00 5.912866e+00 -3.420123e+00 1.084296e+01 -6.958704e-02 5.924156e-01 -2.367413e+00 -3.154004e+00 4.574417e+00 -2.671617e+01 -2.605236e-01 3.321221e-01 1.076240e-01 1.147168e-01 -1.755839e-01 2.884085e-01 -3.191265e-01 -2.448254e-01 -5.977575e-02 4.149178e-02 1.645386e-01 -8.448632e-02 1.199722e+00 -1.401922e-01 1.972432e-01 8.377698e-02 -1.689823e-01 2.465740e-02 6.111339e-02 -1.618996e-01 2.294081e-02 1.193331e-02 1.668424e-01 1.170854e-01 -4.696657e-03 7.957855e-01
<VARIANCE> 39
 1.919666e+01 2.124533e+01 1.657485e+01 2.424788e+01 3.788403e+01 2.427820e+01 4.150788e+01 2.736408e+01 1.905306e+01 2.742182e+01 2.691511e+01 2.079930e+01 7.789314e+01 2.646957e+00 1.672785e+00 2.777404e+00 1.852942e+00 2.812594e+00 3.285728e+00 1.907052e+00 1.719540e+00 2.108741e+00 2.182054e+00 1.971929e+00 1.408405e+00 4.822467e+00 3.293869e-01 1.596008e-01 2.753416e-01 4.826636e-01 3.067982e-01 4.129829e-01 3.440185e-01 2.292229e-01 3.114142e-01 4.562012e-01 2.780350e-01 2.145170e-01 8.845419e-01
<GCONST> 1.106803e+02
<MIXTURE> 2 9.237063e-02
<MEAN> 39
 -1.427966e+00 -2.153289e+00 -8.368517e-01 1.607128e+00 5.548391e+00 3.916120e+00 2.209192e-01 -2.122656e+00 1.048759e+00 2.280858e+00 2.791735e+00 -3.159958e-01 -7.325131e-01 -1.703112e-02 3.701959e-03 6.317848e-02 -6.448878e-02 -9.071814e-02 -1.118767e-01 9.137039e-02 7.279301e-02 1.987276e-02 1.569191e-03 -4.030792e-03 2.327196e-02 -2.763199e-02 4.007793e-02 7.913148e-02 6.122673e-02 -2.189972e-02 -1.075278e-01 -1.377897e-01 -3.011638e-02 2.786855e-02 -1.122357e-02 -7.510680e-02 -3.787257e-02 1.078511e-02 6.775260e-03
<VARIANCE> 39
 7.465501e-01 1.696182e+00 1.556824e+01 5.313973e+00 8.338368e+00 1.400916e+01 1.319206e+01 8.819325e+00 9.873660e+00 1.183304e+01 1.265413e+01 1.166808e+01 8.417746e-01 8.404234e-02 1.982254e-01 6.773008e-01 4.963102e-01 7.680897e-01 1.122766e+00 1.173965e+00 1.085788e+00 1.351730e+00 1.211267e+00 1.512157e+00 1.189425e+00 3.408687e-02 1.550669e-02 3.453193e-02 1.311981e-01 1.039994e-01 1.574590e-01 2.110461e-01 2.683105e-01 2.305628e-01 2.555237e-01 2.919779e-01 3.603027e-01 2.987126e-01 4.382529e-03
<GCONST> 5.977164e+01
<MIXTURE> 3 1.273779e-01
<MEAN> 39
 3.472893e+00 -2.202812e+00 -1.995078e+01 -2.468357e+00 -1.685911e+00 1.325964e+01 -4.979156e+00 2.715739e+00 -5.228011e+00 5.685106e+00 -1.435243e+00 4.619916e-01 5.409211e+00 4.961174e-02 3.708075e-02 -6.912336e-02 3.986076e-02 1.380366e-02 1.431224e-01 9.386516e-02 1.071713e-01 -3.321773e-03 4.823506e-02 3.515600e-02 6.907755e-02 4.636452e-02 1.545179e-03 1.917867e-02 5.146071e-02 9.511738e-03 9.703643e-03 -3.991467e-02 1.018077e-02 -1.510822e-02 -1.839379e-02 -3.629418e-02 1.055911e-02 -1.533500e-02 -6.268017e-03
<VARIANCE> 39
 8.251389e+00 8.265421e+00 4.707049e+01 2.710618e+01 6.384087e+01 2.859278e+01 2.667882e+01 3.850697e+01 1.401706e+01 1.649135e+01 1.163305e+01 1.344121e+01 6.275040e+00 1.076235e-01 2.088946e-01 1.139431e+00 6.451169e-01 1.034943e+00 1.122428e+00 1.460991e+00 1.196991e+00 1.140908e+00 1.128989e+00 1.265623e+00 1.263875e+00 1.023775e-01 1.379663e-02 3.582904e-02 1.737540e-01 1.266911e-01 2.060486e-01 1.974009e-01 2.850689e-01 2.465947e-01 2.251000e-01 2.210714e-01 2.697910e-01 2.649852e-01 9.470944e-03
<GCONST> 7.729309e+01
<MIXTURE> 4 1.518038e-01
<MEAN> 39
 -5.481593e-01 8.519855e-01 4.499591e+00 2.072544e-01 -2.991827e-01 -3.122620e+00 1.452416e+00 -3.222487e-01 9.499347e-01 -1.311321e+00 1.358947e-01 -2.802127e-01 -1.093441e+00 9.429068e-02 1.282332e-01 1.251279e-01 2.626693e-01 2.942874e-01 2.260403e-01 2.253894e-01 1.336440e-01 6.987321e-02 8.312938e-02 2.440193e-01 1.900371e-01 4.564594e-02 -5.534660e-02 -7.662561e-02 1.678503e-02 1.390036e-01 2.042368e-01 2.232026e-02 -1.168927e-01 -1.170685e-01 3.367217e-02 -2.653689e-02 4.528400e-02 2.212973e-02 -3.231289e-02
<VARIANCE> 39
 7.302016e-01 1.213130e+00 4.526668e+00 2.829044e+00 4.117198e+00 8.212665e+00 7.759892e+00 8.766025e+00 9.140541e+00 7.902352e+00 6.970367e+00 7.697478e+00 8.285324e-01 6.715275e-02 1.663245e-01 3.905503e-01 4.396015e-01 6.756138e-01 6.836575e-01 9.611576e-01 7.419435e-01 1.221811e+00 1.102639e+00 9.749665e-01 7.914656e-01 3.408687e-02 1.147322e-02 3.029622e-02 7.167200e-02 7.417358e-02 9.562679e-02 1.390949e-01 1.783228e-01 2.006280e-01 2.370195e-01 2.200121e-01 1.952987e-01 1.827328e-01 5.469528e-03
<GCONST> 4.686665e+01
<MIXTURE> 5 1.832402e-01
<MEAN> 39
 -6.820140e-01 7.289385e-01 5.448993e+00 2.302232e+00 2.433222e+00 -2.373108e+00 1.401560e+00 -6.575487e-01 1.569535e+00 -9.903376e-01 1.194383e+00 6.629959e-01 -1.261247e+00 -8.584782e-02 -1.184219e-01 -9.586642e-02 -6.231467e-02 -6.514556e-02 -1.513245e-01 -3.117796e-01 -2.216427e-01 8.051413e-02 -3.043009e-02 -6.081493e-02 -9.318454e-02 -5.405923e-02 -5.459255e-02 -7.259669e-02 -1.085795e-01 -2.450410e-01 -2.527947e-01 -9.120772e-02 -4.590941e-02 -1.316835e-02 -5.687557e-02 -8.846706e-02 -1.616584e-01 -1.427230e-01 -2.096594e-02
<VARIANCE> 39
 7.302016e-01 1.693321e+00 5.602069e+00 2.752167e+00 4.238881e+00 8.188966e+00 8.530437e+00 7.271997e+00 1.142943e+01 1.064391e+01 8.554209e+00 7.647874e+00 8.285324e-01 7.296444e-02 1.623727e-01 4.257408e-01 5.218180e-01 7.223809e-01 8.746325e-01 8.985626e-01 9.740523e-01 1.154094e+00 1.310974e+00 1.338612e+00 1.062071e+00 3.408687e-02 1.470568e-02 3.728298e-02 8.888005e-02 6.850335e-02 9.366857e-02 1.644568e-01 1.812221e-01 1.487700e-01 3.056926e-01 2.573897e-01 2.415836e-01 1.806750e-01 5.137828e-03
<GCONST> 5.060674e+01
<MIXTURE> 6 1.468562e-01
<MEAN> 39
 -3.132894e+00 -1.258842e+00 7.418512e+00 1.991698e+00 3.984054e+00 -3.069037e+00 4.770677e+00 1.286837e+00 4.983361e+00 -1.630878e+00 1.641102e+00 -1.199218e-02 -3.025588e+00 2.437289e-02 3.804547e-02 3.211940e-02 4.665041e-02 6.586934e-02 4.171433e-02 1.289053e-01 8.992519e-02 -1.133999e-02 -5.513795e-03 5.853880e-03 4.057353e-02 1.289176e-02 3.871720e-02 3.624506e-02 -2.490452e-02 -1.298119e-02 -2.684686e-02 -5.604468e-03 -6.716494e-02 -6.077212e-02 -7.495935e-02 -2.102517e-02 -3.686079e-02 -1.428796e-02 2.045571e-02
<VARIANCE> 39
 9.503073e-01 1.604307e+00 6.519951e+00 4.216262e+00 5.746587e+00 1.093059e+01 8.850962e+00 1.120896e+01 9.926889e+00 8.802623e+00 7.527239e+00 1.034045e+01 8.285324e-01 8.344906e-02 2.029850e-01 4.284651e-01 4.458666e-01 6.711772e-01 1.092934e+00 1.035130e+00 1.299288e+00 1.090938e+00 8.860386e-01 9.971070e-01 1.058899e+00 3.408687e-02 1.840852e-02 3.814650e-02 9.268408e-02 8.962534e-02 1.432720e-01 2.206684e-01 2.208453e-01 2.722657e-01 2.414076e-01 1.801278e-01 2.153146e-01 2.156074e-01 5.652986e-03
<GCONST> 5.398335e+01
<MIXTURE> 7 1.285310e-01
<MEAN> 39
 -1.463639e+00 -1.982332e-01 4.443973e+00 -1.218734e-01 -3.922105e-01 -4.624855e+00 -5.038937e-01 -1.978530e+00 6.234782e-01 -2.820230e+00 -7.841209e-01 -1.048023e+00 -1.672406e+00 -3.859344e-02 -5.752446e-02 -4.002851e-02 -2.467020e-01 -2.626393e-01 -6.995938e-02 3.532213e-02 6.929867e-02 -1.177983e-01 -2.850584e-02 -1.916719e-01 -1.628927e-01 -5.480154e-04 8.135486e-02 1.022857e-01 8.409090e-02 1.910274e-01 1.959181e-01 2.109903e-01 2.646565e-01 1.866769e-01 1.077848e-01 2.375010e-01 2.201011e-01 1.743058e-01 4.862922e-02
<VARIANCE> 39
 7.302016e-01 1.577171e+00 4.909849e+00 3.290720e+00 5.334690e+00 7.347543e+00 7.482606e+00 6.909239e+00 1.044049e+01 1.104316e+01 1.005755e+01 8.133043e+00 8.285324e-01 8.141270e-02 2.283255e-01 3.335522e-01 4.804201e-01 6.049949e-01 7.150416e-01 9.380357e-01 9.790114e-01 1.415955e+00 1.491501e+00 1.068627e+00 1.031014e+00 3.408687e-02 1.342276e-02 3.728335e-02 6.966351e-02 9.318471e-02 1.341395e-01 1.473293e-01 1.702251e-01 1.760252e-01 2.719854e-01 2.960022e-01 2.759519e-01 1.899131e-01 4.395126e-03
<GCONST> 5.094038e+01
<MIXTURE> 8 1.044896e-01
<MEAN> 39
 5.246954e+00 4.101752e+00 -6.872836e+00 -5.133292e+00 -1.153261e+01 -7.592906e-01 -4.868290e+00 6.231894e-01 -6.736695e+00 2.122244e-01 -4.430794e+00 2.942420e-01 4.192940e+00 -9.870080e-02 -1.706207e-02 2.751867e-01 -3.100017e-03 6.128017e-02 -2.335179e-01 -1.985042e-02 -1.514636e-01 7.386739e-02 -1.525327e-01 -8.444869e-02 -1.073179e-01 -1.127736e-01 -2.288605e-02 -2.995721e-02 -4.331138e-03 -1.511361e-03 2.957996e-02 3.415332e-02 5.484153e-02 4.273911e-02 8.414332e-02 5.348369e-02 1.086009e-02 1.794537e-02 -1.142969e-02
<VARIANCE> 39
 9.087805e+00 8.054251e+00 9.369009e+01 1.797293e+01 5.989843e+01 5.403399e+01 2.353774e+01 3.488073e+01 4.654139e+01 2.256632e+01 2.037327e+01 1.623732e+01 1.120533e+01 6.970201e-02 1.417140e-01 4.795611e-01 3.866753e-01 1.102250e+00 1.028970e+00 1.026333e+00 1.334524e+00 1.131341e+00 1.467032e+00 1.666617e+00 1.269753e+00 3.434831e-02 1.541204e-02 2.899679e-02 1.096308e-01 6.900714e-02 2.098837e-01 2.416082e-01 2.228017e-01 2.407435e-01 2.157379e-01 3.019845e-01 3.282567e-01 2.744872e-01 8.528179e-03
<GCONST> 7.698296e+01
<STATE> 3
<NUMMIXES> 8
<MIXTURE> 1 9.718123e-02
<MEAN> 39
 -2.328225e+00 -2.497421e+00 -6.050838e+00 -2.436694e+00 7.516575e+00 2.845748e-01 4.902687e+00 -2.495005e-01 5.262125e+00 -4.595446e-01 -6.612668e+00 3.520816e-01 -9.603865e+00 -1.454558e+00 1.138824e+00 9.083630e-01 7.848448e-01 1.129170e-02 -3.859300e-01 2.621289e-01 -8.159332e-02 -4.619695e-02 -4.316823e-01 4.604519e-01 8.519759e-01 2.160499e+00 1.964301e-01 5.259762e-02 4.668891e-01 7.914279e-02 -4.634222e-01 -6.086100e-02 -3.845810e-01 7.561227e-02 -3.586614e-01 9.601962e-02 4.343531e-01 3.204009e-02 6.203685e-01
<VARIANCE> 39
 9.562583e+01 6.033684e+01 7.368633e+01 1.022709e+02 7.600073e+01 7.216689e+01 8.102363e+01 7.413410e+01 5.733479e+01 5.493578e+01 5.135535e+01 5.301657e+01 9.378812e+01 7.565703e+00 5.796931e+00 8.032746e+00 7.184411e+00 7.099885e+00 7.251799e+00 8.096354e+00 6.567112e+00 5.884412e+00 4.550167e+00 4.339229e+00 5.065254e+00 8.359475e+00 1.367578e+00 8.162831e-01 1.019096e+00 1.164778e+00 1.176185e+00 1.083200e+00 1.578137e+00 1.242297e+00 1.030790e+00 9.431383e-01 8.092381e-01 9.747617e-01 1.353826e+00
<GCONST> 1.525674e+02
<MIXTURE> 2 8.592293e-02
<MEAN> 39
 -1.515676e+00 -6.934963e+00 -1.010996e+01 -8.467593e+00 5.230794e+00 9.325083e+00 1.699589e+00 2.303805e+00 5.341442e+00 4.709435e+00 -3.002779e+00 -4.936279e+00 1.262304e+01 1.555035e-02 -1.230180e-01 2.581740e-02 2.111914e-01 5.253909e-02 -3.174386e-01 -2.562549e-02 8.454718e-02 5.674880e-02 7.317958e-02 -2.270962e-01 -1.563227e-01 5.827957e-02 5.541889e-02 1.933394e-02 1.125228e-01 5.804897e-02 -7.015435e-02 -1.410657e-01 -2.239536e-01 1.773918e-01 -3.469178e-02 5.376054e-03 -1.811729e-02 7.486936e-02 -9.166060e-02
<VARIANCE> 39
 3.860517e+00 1.420250e+01 1.210916e+01 2.628355e+01 1.664472e+01 2.564875e+01 2.640739e+01 2.532021e+01 2.005797e+01 3.923102e+01 2.015713e+01 2.058059e+01 3.952870e+00 1.357804e-01 2.345835e-01 3.436367e-01 4.445803e-01 5.382406e-01 7.137770e-01 1.061937e+00 1.130397e+00 6.140029e-01 5.832274e-01 8.394403e-01 6.972581e-01 7.181420e-02 2.943382e-02 4.385479e-02 7.597467e-02 6.317376e-02 1.013256e-01 1.034263e-01 2.081889e-01 1.833383e-01 9.727642e-02 1.448418e-01 1.349256e-01 1.188224e-01 1.306986e-02
<GCONST> 6.523232e+01
<MIXTURE> 3 1.352333e-01
<MEAN> 39
 -1.586639e+00 4.876934e+00 3.107971e+00 -1.937260e+00 -8.549278e+00 5.570532e+00 -3.448310e+00 -2.361163e+00 -6.127959e+00 -2.125046e+00 7.616928e+00 2.270471e+00 6.623275e+00 -3.257444e-02 1.884580e-01 3.795017e-02 -3.446473e-01 -8.378032e-02 1.068029e-01 2.121028e-01 -2.027588e-02 -7.154979e-02 -2.287830e-02 -1.720189e-02 1.345399e-01 1.145582e-02 5.356509e-02 -8.113054e-02 -3.084978e-02 1.250354e-01 7.856380e-02 -1.482315e-01 2.196288e-02 4.795724e-02 1.188396e-01 1.203856e-02 -7.648953e-02 -7.668929e-02 -5.807529e-02
<VARIANCE> 39
 3.136232e+01 3.224950e+01 1.430586e+02 1.249256e+02 4.733781e+01 9.487546e+01 2.951624e+01 5.198072e+01 4.000973e+01 6.796659e+01 4.380520e+01 2.817160e+01 7.556787e+00 1.706626e-01 3.713952e-01 4.760953e-01 1.292157e+00 8.449178e-01 1.182047e+00 9.481627e-01 9.494976e-01 1.048279e+00 8.963442e-01 1.030347e+00 9.864824e-01 1.111529e-01 3.057966e-02 4.535077e-02 8.939481e-02 1.157659e-01 1.437141e-01 1.806175e-01 1.518822e-01 2.009507e-01 1.924520e-01 1.668081e-01 2.134982e-01 1.420438e-01 3.025085e-02
<GCONST> 8.686303e+01
<MIXTURE> 4 1.348169e-01
<MEAN> 39
 -4.108330e-01 -7.297491e+00 -8.872355e+00 -7.442285e+00 4.343771e+00 6.252221e+00 -1.393776e+00 5.032282e+00 5.701114e+00 6.363331e+00 -2.041941e+00 -4.679622e+00 1.154006e+01 3.614349e-02 -2.716703e-01 2.889848e-01 4.122687e-01 -8.501388e-02 -5.153765e-01 -8.246098e-02 4.063681e-01 3.467717e-01 -5.080065e-01 -1.046345e-01 -3.438035e-02 5.298004e-03 1.319439e-01 2.653983e-01 3.026930e-01 2.297768e-01 -2.441104e-02 -2.698237e-01 3.601899e-02 -3.841964e-01 -1.361505e-01 -2.872339e-01 1.641738e-01 3.370503e-01 -4.326223e-01
<VARIANCE> 39
 7.208114e+00 1.660128e+01 2.194666e+01 3.621788e+01 3.275103e+01 4.140973e+01 4.264897e+01 5.142649e+01 2.698111e+01 3.746714e+01 3.504206e+01 2.334051e+01 7.977153e+00 7.678833e-01 1.143193e+00 2.351997e+00 2.502222e+00 2.060822e+00 4.443884e+00 4.189643e+00 4.097280e+00 2.644184e+00 3.498356e+00 2.954967e+00 2.936419e+00 1.160795e+00 8.633410e-02 1.530413e-01 2.609414e-01 3.136056e-01 2.901180e-01 3.266638e-01 5.841580e-01 6.477002e-01 3.993863e-01 5.787693e-01 3.980651e-01 4.151185e-01 1.000113e-01
<GCONST> 1.092564e+02
<MIXTURE> 5 1.400079e-01
<MEAN> 39
 5.362826e+00 1.335799e+00 -3.467661e+00 -9.457784e+00 1.874570e+00 8.529694e+00 2.612912e+00 -6.792598e+00 -2.446225e+00 4.153603e+00 -1.712877e+00 -4.891409e-01 -1.236304e+00 1.570062e-01 -1.744901e-01 -3.383420e-02 -2.285928e-02 4.008223e-02 -3.760691e-01 2.627803e-01 6.758063e-02 -4.964678e-02 6.696106e-02 -1.676622e-01 -2.602195e-01 -5.782354e-01 -2.090915e-01 -1.078630e-01 -1.416359e-01 2.832614e-01 -3.835478e-02 -1.838384e-01 -1.067421e-01 3.678359e-01 2.669477e-01 -5.699803e-02 1.190126e-01 -2.712272e-02 1.360612e-01
<VARIANCE> 39
 3.547940e+01 4.361102e+01 9.297729e+01 9.873722e+01 7.303502e+01 6.938976e+01 6.763241e+01 3.455737e+01 5.285254e+01 4.727231e+01 7.068747e+01 5.909751e+01 5.899809e+01 1.008518e+00 1.398573e+00 2.541437e+00 2.622295e+00 2.366448e+00 2.657478e+00 2.588872e+00 3.406933e+00 2.891166e+00 2.846266e+00 3.158271e+00 2.386071e+00 2.487793e+00 1.966339e-01 2.275759e-01 4.967111e-01 5.624580e-01 4.375923e-01 5.107143e-01 5.356337e-01 5.979307e-01 4.714361e-01 5.166713e-01 6.710469e-01 4.635801e-01 2.026213e-01
<GCONST> 1.247720e+02
<MIXTURE> 6 1.419143e-01
<MEAN> 39
 1.566439e-01 -1.562123e+00 7.273947e-01 3.655958e+00 -5.172007e+00 5.196721e-02 -7.341946e+00 2.061609e+00 -1.451812e+00 6.291234e-01 6.124794e+00 -6.582304e-01 7.180675e+00 1.945368e-01 -2.646044e-01 -6.173002e-01 -5.852708e-01 -3.158760e-01 1.083300e+00 -4.600633e-01 -3.231841e-02 -2.877601e-01 4.262729e-01 4.766342e-01 -2.270999e-01 3.077300e-01 -6.439902e-03 7.881522e-02 8.239798e-02 -1.852638e-01 3.420081e-01 -1.911057e-04 5.633059e-01 -1.962024e-01 4.786789e-02 -2.874527e-02 -4.373083e-01 5.551687e-03 -3.598648e-01
<VARIANCE> 39
 1.209371e+01 1.988540e+01 6.167762e+01 5.812706e+01 5.331485e+01 7.910994e+01 4.844839e+01 6.683476e+01 5.932226e+01 5.661189e+01 3.507435e+01 2.701776e+01 7.312677e+00 1.063621e+00 1.374014e+00 3.570018e+00 3.366204e+00 3.339267e+00 4.566099e+00 4.956247e+00 4.805987e+00 4.118896e+00 4.285617e+00 3.613855e+00 2.927684e+00 2.056459e+00 1.709958e-01 1.937016e-01 4.288614e-01 4.775324e-01 4.608743e-01 7.134745e-01 6.940438e-01 8.635348e-01 6.276227e-01 7.586309e-01 5.690429e-01 5.289199e-01 2.795013e-01
<GCONST> 1.236135e+02
<MIXTURE> 7 1.527366e-01
<MEAN> 39
 4.651040e+00 -7.693210e+00 -6.672618e-01 -2.939060e-01 3.000061e+00 -3.223070e+00 -3.491210e-01 4.718424e+00 4.130307e+00 -3.425027e-01 -4.329261e+00 -2.696254e+00 -2.719988e+00 6.678098e-01 1.546919e-01 3.868189e-01 2.092850e-01 3.169775e-01 -3.322049e-01 4.727566e-01 -7.323089e-01 -2.541550e-01 -2.337174e-01 -5.501344e-01 -2.485975e-01 -1.884959e+00 -1.845892e-01 1.416827e-01 -1.551044e-01 -1.271924e-01 -6.713469e-02 1.967863e-01 1.033781e-01 -1.188927e-01 -8.532350e-02 1.123869e-01 -2.167543e-03 -1.342720e-02 1.643519e-01
<VARIANCE> 39
 4.912433e+01 4.565392e+01 8.113610e+01 7.359983e+01 7.092091e+01 5.587341e+01 4.467013e+01 5.166222e+01 6.820703e+01 4.423811e+01 4.035285e+01 4.446317e+01 6.456543e+01 1.111651e+00 1.762106e+00 2.952656e+00 2.960671e+00 3.316346e+00 2.364829e+00 3.430701e+00 4.026905e+00 3.104943e+00 2.652243e+00 2.736643e+00 3.136092e+00 1.094402e+00 2.176882e-01 3.205892e-01 4.079728e-01 5.547714e-01 6.263590e-01 5.000240e-01 6.791520e-01 6.590918e-01 5.698127e-01 5.100298e-01 4.302962e-01 7.017290e-01 2.182029e-01
<GCONST> 1.255940e+02
<MIXTURE> 8 1.121808e-01
<MEAN> 39
 -5.030373e-01 4.700034e+00 6.677905e+00 5.554139e+00 -1.805051e+00 -6.037663e+00 3.742326e+00 -2.729624e+00 -2.523771e+00 -9.050547e-02 -2.306781e-01 2.249946e+00 -4.663345e+00 5.646062e-02 -2.777455e-01 -6.844711e-01 -8.788294e-01 -7.731909e-01 7.092063e-01 -1.680412e+00 5.634627e-01 4.739757e-02 5.511515e-01 7.148113e-01 -8.405962e-02 2.717251e+00 9.414712e-02 -4.908134e-01 -5.792307e-01 -4.151598e-01 1.036094e-01 5.590468e-01 -2.367269e-01 1.770401e-01 3.121282e-02 1.194364e-01 -3.102610e-02 -3.190289e-01 -1.018472e-01
<VARIANCE> 39
 7.203735e+01 4.616259e+01 1.058373e+02 7.376874e+01 6.727126e+01 1.017789e+02 7.648857e+01 7.254405e+01 6.792472e+01 5.803183e+01 4.611460e+01 4.396857e+01 7.611375e+01 7.144801e+00 4.832152e+00 9.988243e+00 1.030736e+01 8.712215e+00 8.457890e+00 6.679661e+00 8.416477e+00 7.006320e+00 7.742771e+00 5.401063e+00 4.214500e+00 7.178515e+00 1.164863e+00 7.241068e-01 1.352243e+00 1.378319e+00 1.119248e+00 1.334072e+00 1.354941e+00 1.386398e+00 1.056056e+00 1.200882e+00 6.358676e-01 7.289225e-01 1.242860e+00
<GCONST> 1.531931e+02
<STATE> 4
<NUMMIXES> 8
<MIXTURE> 1 1.326448e-01
<MEAN> 39
 -7.176334e+00 5.238690e+00 4.281620e-01 4.100817e+00 6.295636e+00 -5.869277e+00 -5.047599e-01 -1.816745e+00 1.330209e+00 -8.164231e-01 -2.145651e+00 5.729255e+00 -3.515307e+00 -6.731055e-01 -1.357427e-01 -4.713657e-01 -1.240911e+00 -8.648130e-01 4.263182e-01 -8.193046e-01 7.525610e-01 7.994153e-01 2.584582e-01 7.859537e-01 5.426345e-01 2.156448e+00 6.934049e-01 -2.725848e-01 2.147571e-01 -1.387811e-01 -7.908005e-01 3.601260e-01 1.534189e-01 3.245075e-02 -3.186810e-01 6.598777e-04 2.543562e-01 -5.073497e-01 -1.083496e-01
<VARIANCE> 39
 8.162898e+01 8.850961e+01 1.474423e+02 6.554263e+01 1.059867e+02 8.162954e+01 1.248748e+02 7.819132e+01 8.680498e+01 4.945250e+01 4.463469e+01 4.720532e+01 5.776326e+01 1.049656e+01 5.667214e+00 1.029969e+01 7.525039e+00 1.220468e+01 8.686480e+00 1.026612e+01 1.140855e+01 6.896770e+00 5.678454e+00 5.402600e+00 4.818544e+00 8.590012e+00 1.003846e+00 8.839434e-01 1.582721e+00 1.159445e+00 1.569902e+00 1.257429e+00 1.673901e+00 1.468479e+00 1.275329e+00 8.297186e-01 8.527828e-01 7.919199e-01 8.627681e-01
<GCONST> 1.565886e+02
<MIXTURE> 2 1.617478e-01
<MEAN> 39
 -1.723872e+00 -6.728500e+00 -6.932613e+00 -4.771474e+00 1.696817e+00 1.565342e+00 -2.816741e+00 8.731677e+00 5.921553e+00 1.413011e+00 -1.241368e+00 -1.619828e+00 1.080112e+01 1.434236e-01 -9.148233e-02 3.056687e-01 3.094644e-01 -1.703647e-01 -2.747939e-01 -3.819075e-01 1.855705e-01 -1.430050e-01 -2.795767e-01 1.551913e-01 7.138906e-02 -2.790279e-01 1.369300e-01 3.094836e-01 3.512200e-01 1.856183e-01 5.117225e-02 -1.687516e-01 -2.740346e-02 -3.420764e-01 -2.233852e-01 -3.760028e-02 -3.231540e-03 1.343825e-01 -4.139685e-01
<VARIANCE> 39
 8.824715e+00 1.949720e+01 4.534064e+01 4.483636e+01 6.024068e+01 7.177357e+01 6.192538e+01 6.194967e+01 3.220424e+01 3.823140e+01 3.006489e+01 2.462841e+01 8.194575e+00 6.266056e-01 1.240823e+00 2.868084e+00 2.003721e+00 2.412625e+00 3.726843e+00 3.953694e+00 3.695685e+00 3.346709e+00 2.509311e+00 2.571707e+00 1.924495e+00 1.349072e+00 1.101752e-01 1.574654e-01 2.866470e-01 2.355334e-01 3.470729e-01 4.420933e-01 7.540078e-01 7.160845e-01 4.982936e-01 4.846943e-01 3.769359e-01 3.646989e-01 1.179143e-01
<GCONST> 1.125112e+02
<MIXTURE> 3 1.466184e-01
<MEAN> 39
 -6.052687e+00 3.293385e+00 1.408447e+01 8.208743e+00 -1.324934e+01 -9.274410e+00 -2.764175e+00 3.215566e+00 -5.364655e+00 -7.848932e+00 7.525397e+00 1.502715e+00 5.828887e+00 1.307003e-01 -4.504122e-02 5.948924e-02 1.819127e-01 -1.905116e-01 -1.217411e-01 3.678523e-01 5.853393e-02 -5.010357e-02 2.902136e-03 -2.397056e-01 -2.217673e-01 -2.370141e-01 1.631281e-01 5.468922e-02 -2.416024e-01 1.557453e-02 4.966507e-01 -3.168621e-02 4.198710e-01 -1.195608e-01 9.585165e-02 2.208434e-01 -3.571672e-01 -4.967216e-02 -4.026043e-01
<VARIANCE> 39
 1.645126e+01 4.604297e+01 6.643499e+01 3.155270e+01 3.843852e+01 4.880985e+01 3.360053e+01 5.305568e+01 4.090958e+01 3.218222e+01 2.744650e+01 3.331482e+01 1.346594e+01 1.301539e+00 2.723112e+00 3.585763e+00 2.228633e+00 3.293818e+00 2.964799e+00 4.903777e+00 3.424813e+00 3.687085e+00 2.753678e+00 3.516722e+00 2.093843e+00 2.290704e+00 2.584626e-01 3.330785e-01 4.610202e-01 3.530418e-01 6.188341e-01 5.693274e-01 7.787659e-01 6.866522e-01 6.691489e-01 3.976217e-01 6.136128e-01 3.852510e-01 2.674423e-01
<GCONST> 1.211437e+02
<MIXTURE> 4 1.156303e-01
<MEAN> 39
 -4.520193e+00 6.712915e+00 -2.231997e+00 2.277187e+00 6.348177e+00 -3.808729e+00 3.541265e+00 -1.776779e+00 1.179003e+00 -2.057882e+00 -2.642926e+00 3.835872e+00 -1.307048e+01 -1.088302e-01 -1.463573e-01 -6.349575e-02 1.141631e-01 3.256198e-01 1.981939e-01 2.236124e-01 -7.589670e-03 1.056439e-01 -2.922993e-01 -1.715918e-01 -2.946992e-02 -7.005610e-01 5.015360e-02 -6.375978e-02 9.663360e-02 6.288660e-02 -1.459534e-01 7.779206e-03 -6.205048e-02 -5.196140e-02 -2.625451e-02 6.943826e-02 -1.776633e-02 -3.616104e-02 1.306263e-01
<VARIANCE> 39
 2.048888e+02 9.516524e+01 4.243328e+01 2.895964e+01 4.842804e+01 5.540269e+01 8.869605e+01 4.789567e+01 6.506908e+01 2.491938e+01 2.784431e+01 3.635513e+01 1.156155e+02 1.218981e+00 1.354055e+00 1.367627e+00 1.450399e+00 1.710358e+00 2.234055e+00 2.467427e+00 2.344314e+00 2.024140e+00 1.779044e+00 1.465585e+00 1.240000e+00 5.173387e-01 2.623979e-01 1.906374e-01 2.777028e-01 2.554592e-01 3.501428e-01 4.214729e-01 3.660407e-01 4.083724e-01 3.591527e-01 3.682984e-01 3.279840e-01 3.172263e-01 1.071452e-01
<GCONST> 1.135061e+02
<MIXTURE> 5 1.065921e-01
<MEAN> 39
 4.904339e+00 2.887494e+00 -8.476989e+00 -7.331472e+00 -4.137818e+00 1.534778e+01 -4.153464e+00 -9.393239e+00 1.221240e+00 1.971142e+00 7.094252e+00 2.465869e+00 3.644155e+00 1.139386e-01 -5.825758e-01 -1.078909e-02 2.229671e-02 -2.184945e-02 3.326381e-01 -3.226430e-01 -9.717790e-02 3.450588e-01 2.460150e-01 -6.608748e-02 -7.292393e-01 3.280136e-01 -9.723264e-02 -6.496216e-02 3.280280e-01 5.610238e-01 5.552130e-01 -6.968408e-01 2.584567e-01 1.265992e-01 -1.061011e-01 -1.079307e-01 -6.195979e-01 3.916689e-02 -4.245234e-01
<VARIANCE> 39
 2.037504e+01 5.647604e+01 2.948186e+01 1.141739e+02 5.634168e+01 8.905814e+01 7.134588e+01 1.037979e+02 7.119610e+01 7.866611e+01 5.286021e+01 5.615578e+01 1.975727e+01 1.658334e+00 2.665782e+00 4.486784e+00 1.038270e+01 7.008949e+00 1.109499e+01 4.616288e+00 7.006986e+00 7.844960e+00 5.872026e+00 7.226331e+00 3.981935e+00 3.826928e+00 2.775597e-01 4.637464e-01 6.772290e-01 1.400644e+00 9.147433e-01 9.636252e-01 6.311285e-01 1.210182e+00 1.079159e+00 1.283825e+00 1.047174e+00 7.359517e-01 2.214052e-01
<GCONST> 1.416361e+02
<MIXTURE> 6 1.181568e-01
<MEAN> 39
 7.330549e+00 -1.875306e+00 1.368005e+00 -2.160791e-02 4.322705e+00 -7.503275e-01 -3.465932e+00 -8.458241e-01 6.092131e-01 2.746294e+00 -3.792336e+00 -2.745625e+00 -5.269387e+00 7.617042e-01 4.229821e-01 7.544287e-01 6.526196e-01 2.616535e-01 -4.010278e-01 9.757038e-01 -9.540714e-01 -6.696748e-01 2.347945e-01 -5.981030e-01 -3.124244e-02 -1.575819e+00 -2.843362e-01 1.116870e-01 -2.378703e-01 6.230507e-02 -2.289030e-01 1.139932e-01 1.604945e-01 3.138517e-02 8.189093e-02 -2.100883e-01 3.077836e-01 4.796236e-02 2.587523e-01
<VARIANCE> 39
 3.222139e+01 3.602943e+01 1.563801e+02 6.196627e+01 8.395576e+01 1.058510e+02 9.557721e+01 1.028619e+02 1.137017e+02 4.306593e+01 4.506144e+01 4.841735e+01 5.766900e+01 1.413964e+00 1.467821e+00 3.488033e+00 3.437748e+00 4.867385e+00 4.475950e+00 3.373278e+00 4.155391e+00 4.019608e+00 3.136404e+00 3.329183e+00 3.823042e+00 1.493666e+00 2.593682e-01 2.431144e-01 4.762434e-01 6.241027e-01 6.382421e-01 8.905436e-01 6.397359e-01 7.914785e-01 7.510780e-01 4.441875e-01 5.124310e-01 6.793981e-01 2.060935e-01
<GCONST> 1.318980e+02
<MIXTURE> 7 9.775610e-02
<MEAN> 39
 5.890438e+00 3.955750e+00 7.923828e+00 8.400014e+00 6.163387e-01 -3.705288e+00 8.573130e+00 -6.712039e+00 -9.995276e+00 -1.383455e+00 -2.643909e+00 -1.886645e+00 -1.118600e+01 -1.690122e+00 7.185847e-01 -8.605865e-01 -2.538272e-01 9.643865e-01 -8.020259e-02 -3.969828e-01 4.435136e-02 6.277291e-01 -4.472297e-01 5.948435e-03 5.982578e-01 9.971988e-01 -8.723243e-01 -1.589212e-01 -5.561109e-01 -6.170751e-01 -1.293407e-01 1.678099e-01 -7.306824e-01 5.680853e-01 7.756200e-01 -4.544860e-02 3.566353e-01 3.718525e-01 1.112971e+00
<VARIANCE> 39
 7.424799e+01 5.413523e+01 1.320259e+02 9.218687e+01 1.190075e+02 1.366394e+02 9.384753e+01 9.738956e+01 9.253475e+01 8.337939e+01 5.644696e+01 5.909859e+01 5.666903e+01 5.343604e+00 3.696723e+00 9.653285e+00 4.956647e+00 8.511823e+00 8.015512e+00 6.911518e+00 7.230231e+00 8.648379e+00 7.243510e+00 4.839504e+00 4.455341e+00 4.136636e+00 5.592840e-01 5.108398e-01 1.333472e+00 9.093735e-01 1.562173e+00 1.164550e+00 9.241061e-01 1.200520e+00 1.147902e+00 1.495863e+00 9.553808e-01 7.101811e-01 6.102671e-01
<GCONST> 1.522156e+02
<MIXTURE> 8 1.208465e-01
<MEAN> 39
 -6.537783e-01 4.488669e+00 1.071305e+01 8.085991e+00 -5.347707e+00 -1.022023e+01 4.224686e+00 3.370920e-01 -3.568401e+00 -4.897026e+00 -3.615474e-01 -2.313060e-01 -7.603408e+00 1.152911e+00 -1.977413e-01 -1.873114e-01 2.189883e-01 7.278429e-01 -3.601363e-01 7.218914e-01 -1.510652e-01 -4.345598e-01 3.943058e-01 -4.959540e-01 -1.360776e-01 -2.134497e+00 -1.405487e-01 -8.255809e-02 -1.535909e-01 -2.682244e-01 1.584067e-01 2.971420e-01 -3.402620e-01 3.398661e-02 -5.767798e-03 7.256295e-02 7.206085e-02 6.374006e-02 2.306192e-01
<VARIANCE> 39
 6.372021e+01 7.158315e+01 8.399881e+01 5.526647e+01 7.707980e+01 5.650576e+01 9.589085e+01 1.622892e+02 8.945947e+01 2.766279e+01 3.901867e+01 5.312381e+01 6.042491e+01 1.833023e+00 2.766443e+00 3.546920e+00 3.631133e+00 3.773311e+00 4.128857e+00 5.015526e+00 4.746802e+00 3.505474e+00 2.407046e+00 3.196013e+00 3.567158e+00 1.327758e+00 3.226863e-01 3.622363e-01 4.588593e-01 5.805328e-01 6.084241e-01 6.438791e-01 8.134102e-01 8.807842e-01 5.170851e-01 4.422293e-01 5.712941e-01 7.190543e-01 2.198955e-01
<GCONST> 1.324546e+02
<TRANSP> 5
 0.000000e+00 1.000000e+00 0.000000e+00 0.000000e+00 0.000000e+00
 0.000000e+00 9.838314e-01 1.616861e-02 0.000000e+00 0.000000e+00
 0.000000e+00 0.000000e+00 9.916000e-01 8.399974e-03 0.000000e+00
 0.000000e+00 0.000000e+00 0.000000e+00 9.915089e-01 8.491090e-03
 0.000000e+00 0.000000e+00 0.000000e+00 0.000000e+00 0.000000e+00
<ENDHMM>
~h "M003"
<BEGINHMM>
<NUMSTATES> 5
<STATE> 2
<NUMMIXES> 8
<MIXTURE> 1 1.094198e-01
<MEAN> 39
 -4.527595e+00 -4.889732e-02 -2.093748e+00 7.186818e+00 7.643780e+00 -2.562042e+00 5.761572e+00 4.604885e+00 -3.757654e+00 5.509323e-01 -3.035980e+00 7.134203e+00 -2.633286e+01 6.155711e-02 4.621442e-02 -3.532249e-01 -5.761323e-02 -4.019044e-01 -2.939134e-01 4.358065e-01 5.413868e-02 7.255897e-03 5.829160e-02 6.124340e-02 -1.562577e-01 6.409664e-02 -6.735689e-02 1.392611e-01 2.394694e-01 -2.944363e-03 6.807519e-02 1.919997e-01 -2.748019e-02 -4.351922e-03 1.203431e-01 -1.282703e-01 -6.643858e-02 -1.276953e-01 3.294712e-01
<VARIANCE> 39
 1.920289e+01 1.221274e+01 1.555455e+01 1.774305e+01 2.272277e+01 3.311034e+01 3.535540e+01 2.398798e+01 3.247697e+01 1.663160e+01 2.262539e+01 1.746645e+01 1.366311e+01 4.905934e-01 6.182966e-01 1.387184e+00 1.933327e+00 1.734605e+00 1.565960e+00 2.620880e+00 2.229912e+00 2.233279e+00 1.727737e+00 1.187768e+00 1.304285e+00 2.194746e-01 1.752939e-01 1.812620e-01 3.745525e-01 4.078597e-01 2.968951e-01 3.180610e-01 3.622536e-01 3.639957e-01 3.482925e-01 2.593541e-01 1.851645e-01 2.058655e-01 2.640844e-01
<GCONST> 9.712035e+01
<MIXTURE> 2 1.336887e-01
<MEAN> 39
 3.426959e+00 5.623766e+00 5.377024e+00 5.648404e+00 2.517962e+00 2.928715e+00 5.796606e-02 1.719667e+00 -5.070314e-01 7.571014e-01 -2.434361e+00 -4.045791e-01 1.703703e+00 1.252453e-02 5.912948e-02 1.052358e-01 -1.102629e-02 -8.110330e-02 -5.089723e-02 -5.867885e-02 -1.650886e-02 -1.239230e-02 3.669441e-02 -7.227988e-02 1.708522e-02 8.087116e-04 -4.252777e-02 -7.973137e-02 -9.773441e-02 -1.317122e-01 -1.466581e-01 -1.901176e-01 -1.420636e-01 -1.477702e-01 -7.504607e-02 -2.625628e-02 2.849163e-02 9.132102e-03 -1.657447e-02
<VARIANCE> 39
 1.674783e+00 5.438525e+00 3.885255e+00 6.129596e+00 6.574625e+00 9.351501e+00 1.640941e+01 1.947150e+01 2.316564e+01 1.468700e+01 1.163439e+01 6.452921e+00 8.285324e-01 7.652045e-02 2.545846e-01 3.793606e-01 7.442246e-01 9.396065e-01 1.127219e+00 1.147088e+00 1.621894e+00 1.404585e+00 1.191993e+00 9.668955e-01 8.364045e-01 3.408687e-02 1.204539e-02 2.992343e-02 4.306564e-02 1.105607e-01 1.474689e-01 1.382236e-01 1.918805e-01 3.219852e-01 2.866699e-01 2.411343e-01 1.966806e-01 1.581779e-01 4.365372e-03
<GCONST> 5.777316e+01
<MIXTURE> 3 1.040364e-01
<MEAN> 39
 1.100529e+00 1.570148e+00 1.362519e+00 -2.887874e-02 -2.384650e+00 -3.171892e+00 -2.633783e+00 -1.423564e+00 -1.605111e+00 -3.363129e-01 -5.245330e-01 -6.512317e-01 4.770121e-01 2.154084e-01 2.901524e-01 2.153606e-01 4.389562e-01 4.147272e-01 4.877681e-01 2.628370e-01 2.551707e-01 8.013640e-02 -2.264030e-02 -8.381715e-02 8.608273e-02 1.078762e-01 4.370461e-02 9.767962e-02 8.874302e-02 1.581591e-01 2.777203e-01 3.528124e-01 2.703781e-01 2.466934e-01 2.108702e-01 1.780471e-02 -4.789666e-02 4.298412e-02 8.380846e-03
<VARIANCE> 39
 1.173545e+00 2.201324e+00 3.653352e+00 4.699183e+00 5.727801e+00 8.945375e+00 1.075670e+01 1.217127e+01 1.596662e+01 1.439984e+01 1.483212e+01 7.293014e+00 8.285324e-01 9.065583e-02 2.368260e-01 3.956293e-01 5.514326e-01 8.595555e-01 9.570826e-01 9.362532e-01 1.210332e+00 1.360964e+00 1.124743e+00 1.068962e+00 1.026928e+00 3.408687e-02 1.816625e-02 6.280594e-02 8.849256e-02 1.096379e-01 1.126727e-01 1.956885e-01 1.834351e-01 2.784984e-01 3.229318e-01 2.633915e-01 2.512493e-01 1.841810e-01 4.433773e-03
<GCONST> 5.676395e+01
<MIXTURE> 4 1.225249e-01
<MEAN> 39
 -1.384976e+00 -1.634614e+00 -3.048293e-01 -1.149336e+00 -7.339189e-02 -4.282002e-01 1.867557e+00 1.074263e+00 1.950083e+00 -2.339467e-01 6.594589e-02 -4.807975e-01 -8.663739e-01 2.140874e-01 3.755048e-01 5.112350e-01 4.203983e-01 1.062678e-01 2.261343e-02 -5.678004e-02 2.739480e-01 5.542890e-02 -2.516245e-02 -9.121469e-02 6.615158e-02 1.051551e-01 -2.098713e-02 -3.912098e-02 -7.605886e-02 -7.010826e-02 -4.668507e-02 -1.041400e-01 -1.175433e-01 -6.384575e-02 -5.586459e-02 -1.829172e-02 7.227124e-02 1.167044e-01 -8.451489e-03
<VARIANCE> 39
 7.302016e-01 2.052128e+00 4.011727e+00 3.721575e+00 4.547050e+00 5.140343e+00 8.098940e+00 1.058245e+01 9.561489e+00 1.038028e+01 1.155927e+01 1.011272e+01 8.285324e-01 6.417688e-02 1.405081e-01 2.398123e-01 3.413696e-01 6.463342e-01 4.994475e-01 9.344245e-01 7.637807e-01 9.585339e-01 1.153156e+00 1.228472e+00 1.121013e+00 3.408687e-02 2.325009e-02 4.383881e-02 7.946276e-02 8.266309e-02 1.335181e-01 1.392932e-01 2.178964e-01 1.917855e-01 2.195926e-01 2.673945e-01 2.621703e-01 2.441523e-01 7.900400e-03
<GCONST> 5.042190e+01
<MIXTURE> 5 9.089316e-02
<MEAN> 39
 -1.077107e+00 -4.251876e+00 -9.130600e+00 -2.678068e+00 2.361763e+00 6.522368e+00 -8.773685e-01 -3.375621e+00 -4.031724e+00 2.756516e+00 3.948426e+00 1.448474e+00 5.975294e-01 -1.930859e-02 -9.763625e-03 5.806652e-02 6.745570e-02 5.920479e-02 -1.382212e-02 -8.967914e-02 -1.107807e-01 -1.362629e-02 8.548101e-02 8.641421e-02 -4.246952e-02 -1.700908e-02 4.606516e-03 2.245571e-02 8.855861e-02 5.016233e-02 2.614482e-02 -4.367685e-02 2.672661e-03 2.240484e-02 3.737822e-02 -1.531167e-03 7.625055e-03 2.510018e-03 -7.382406e-03
<VARIANCE> 39
 1.559392e+00 3.366940e+00 9.858843e+00 1.215336e+01 2.815659e+01 2.895292e+01 1.088498e+01 3.415236e+01 3.070432e+01 1.676048e+01 2.685386e+01 1.144110e+01 8.285324e-01 1.279213e-01 2.707816e-01 1.411000e+00 5.502606e-01 9.420257e-01 1.989894e+00 1.152051e+00 1.126454e+00 1.385029e+00 1.609872e+00 1.639831e+00 1.362455e+00 6.525546e-02 2.698577e-02 5.742501e-02 2.715061e-01 9.005876e-02 1.926125e-01 3.857808e-01 2.343005e-01 2.280936e-01 2.876987e-01 3.058397e-01 3.375084e-01 2.877073e-01 1.327120e-02
<GCONST> 7.388136e+01
<MIXTURE> 6 1.341491e-01
<MEAN> 39
 -1.805633e+00 -2.377573e+00 -1.653365e+00 -2.983573e+00 -2.404390e+00 -2.992789e+00 -3.007641e-01 -8.812724e-02 1.040349e+00 -7.363704e-01 3.086056e-01 1.282584e-01 -1.078318e+00 1.955864e-03 -2.357454e-02 -1.093056e-01 -1.324059e-01 -4.454504e-02 6.856328e-02 1.187919e-01 6.639758e-02 7.974787e-02 8.559865e-02 4.088859e-02 -6.348324e-02 -1.082843e-03 9.579623e-02 1.458608e-01 1.985234e-01 2.822309e-01 2.593701e-01 2.521226e-01 1.372057e-01 8.346063e-02 -4.547401e-03 -1.939370e-02 -4.132985e-02 -4.251245e-02 5.211713e-02
<VARIANCE> 39
 9.281046e-01 2.235878e+00 5.268496e+00 3.294615e+00 5.978591e+00 4.540082e+00 6.199082e+00 8.065131e+00 8.503713e+00 9.548264e+00 8.781645e+00 8.349679e+00 8.285324e-01 8.967739e-02 2.036779e-01 3.764066e-01 3.934897e-01 6.417893e-01 7.680834e-01 1.051526e+00 9.756746e-01 9.497649e-01 1.190118e+00 1.340694e+00 1.136670e+00 4.021910e-02 1.995210e-02 4.719245e-02 8.859586e-02 6.811146e-02 1.027451e-01 1.091687e-01 1.749457e-01 2.495969e-01 2.037990e-01 2.016174e-01 2.302935e-01 2.434185e-01 6.541118e-03
<GCONST> 5.091130e+01
<MIXTURE> 7 1.880871e-01
<MEAN> 39
 6.824030e-01 1.433951e+00 1.872544e+00 8.540483e-01 -3.127024e-01 -1.240347e+00 -5.935639e-01 -5.392753e-02 1.235241e-01 -8.015252e-01 -7.947704e-01 1.027646e-02 1.264875e-01 -1.274825e-01 -2.335083e-01 -2.750969e-01 -2.681460e-01 -1.315045e-01 -2.120712e-01 -7.412408e-02 -1.035014e-01 2.954108e-03 1.846995e-02 1.537620e-01 5.202271e-02 -6.786873e-02 -6.605088e-02 -1.238310e-01 -1.252084e-01 -1.327490e-01 -9.787492e-02 -2.516955e-02 5.909749e-02 4.333892e-03 -5.439627e-03 5.367504e-02 6.967850e-02 -1.719132e-02 -2.396490e-02
<VARIANCE> 39
 1.614338e+00 2.593554e+00 2.371631e+00 2.957776e+00 4.662276e+00 5.457410e+00 7.068109e+00 9.402179e+00 1.129224e+01 1.319997e+01 1.026980e+01 8.851673e+00 8.285324e-01 9.531883e-02 2.642742e-01 3.750114e-01 4.991706e-01 5.615982e-01 8.080060e-01 1.159851e+00 1.381759e+00 1.278068e+00 1.338734e+00 1.344419e+00 1.083916e+00 3.408687e-02 1.525406e-02 3.990087e-02 7.525497e-02 7.705024e-02 9.433461e-02 1.235228e-01 2.198648e-01 2.777676e-01 2.707040e-01 2.419572e-01 2.728107e-01 2.466235e-01 4.707204e-03
<GCONST> 5.308995e+01
<MIXTURE> 8 1.171993e-01
<MEAN> 39
 -1.622319e+00 -2.368996e+00 -1.056730e+00 -1.094271e+00 7.087131e-01 2.240471e-01 2.164289e+00 9.080727e-01 1.612863e+00 -3.913025e-01 1.008810e+00 3.019559e-01 -8.908796e-01 -2.116601e-01 -3.171513e-01 -3.499152e-01 -3.217701e-01 -1.806291e-01 -1.395603e-01 -3.079828e-02 -2.831970e-01 -1.616347e-01 -1.303159e-01 -8.694760e-02 -1.397441e-01 -8.010345e-02 2.796268e-02 7.314130e-02 3.035218e-02 -4.773410e-02 -1.733580e-01 -1.808960e-01 -1.903020e-01 -1.064519e-01 -6.309829e-02 -2.256207e-02 -1.276241e-01 -1.127944e-01 7.949870e-03
<VARIANCE> 39
 8.547612e-01 1.502784e+00 2.370838e+00 3.290933e+00 5.595377e+00 5.857611e+00 8.528810e+00 9.928739e+00 7.413173e+00 1.072785e+01 1.129487e+01 7.457875e+00 8.285324e-01 6.167288e-02 1.347052e-01 5.515739e-01 4.903505e-01 7.890435e-01 8.677633e-01 1.080737e+00 1.284448e+00 1.045419e+00 1.023784e+00 8.640141e-01 8.680215e-01 3.408687e-02 2.167040e-02 4.468792e-02 7.884398e-02 9.706445e-02 1.036619e-01 1.244685e-01 2.450017e-01 2.254715e-01 1.667121e-01 2.826164e-01 2.825142e-01 2.058434e-01 6.924581e-03
<GCONST> 5.085316e+01
<STATE> 3
<NUMMIXES> 8
<MIXTURE> 1 6.992798e-02
<MEAN> 39
 -2.832761e+00 3.465152e+00 6.484020e-01 6.397315e+00 6.682750e+00 -1.310539e+00 6.722478e+00 4.037533e+00 -3.549495e+00 8.596959e-01 -2.955048e+00 4.652285e+00 -2.043173e+01 8.246611e-03 6.366768e-01 7.443720e-01 -8.570897e-02 -9.933119e-02 1.078785e+00 -4.077988e-01 -4.275993e-01 6.552758e-01 -6.194940e-01 3.730474e-01 -5.679135e-01 2.971446e+00 2.239596e-01 -1.638007e-01 4.062747e-01 -3.884386e-01 -7.692038e-01 3.794147e-01 -7.545999e-01 -7.609283e-01 1.138830e-01 -5.445397e-02 4.617018e-01 -2.010069e-01 1.349459e+00
<VARIANCE> 39
 5.922459e+01 3.556279e+01 8.882930e+01 3.651398e+01 5.500241e+01 4.252635e+01 3.941994e+01 3.366680e+01 3.178624e+01 1.821327e+01 2.902046e+01 2.133631e+01 5.684127e+01 1.053542e+01 5.932073e+00 8.627943e+00 9.932058e+00 6.415579e+00 6.031850e+00 6.533108e+00 6.390602e+00 3.134249e+00 3.426813e+00 3.342382e+00 3.827460e+00 5.681728e+00 8.451554e-01 7.348447e-01 1.074358e+00 1.070786e+00 1.008804e+00 1.184807e+00 6.158997e-01 8.277602e-01 5.239572e-01 6.527143e-01 5.414572e-01 7.413579e-01 5.001345e-01
<GCONST> 1.383158e+02
<MIXTURE> 2 1.471137e-01
<MEAN> 39
 2.199140e+00 -2.590280e+00 -1.210646e+01 -8.330340e+00 5.379795e-01 1.147048e+01 2.868010e+00 -7.509075e-01 4.970757e+00 -4.458850e+00 1.124788e+00 -2.433979e+00 9.785200e+00 -2.474946e-03 3.284043e-02 -2.395449e-01 2.781423e-01 4.827522e-01 -6.285636e-01 -6.370308e-02 -1.412627e-01 -6.327707e-02 5.415120e-02 -3.677360e-01 -1.018246e-01 1.175106e-02 6.607556e-02 1.280179e-01 2.805380e-01 1.460578e-01 2.262821e-02 -1.711669e-01 -2.184924e-01 -5.079608e-02 -2.139176e-01 1.174493e-01 -8.702614e-03 1.033851e-01 -2.804892e-01
<VARIANCE> 39
 1.204400e+01 2.786595e+01 3.059840e+01 3.233541e+01 5.250679e+01 1.124720e+02 5.637233e+01 4.990873e+01 2.284662e+01 2.761544e+01 6.882730e+01 1.956085e+01 1.246033e+01 6.246752e-01 8.895045e-01 1.341562e+00 8.587599e-01 1.564500e+00 1.848817e+00 3.113158e+00 1.846303e+00 1.729550e+00 1.788291e+00 2.102871e+00 1.392492e+00 8.326846e-01 9.709396e-02 1.419301e-01 1.625637e-01 1.597100e-01 2.742777e-01 2.846084e-01 3.914664e-01 3.919355e-01 3.076968e-01 2.313174e-01 3.122670e-01 2.812375e-01 1.418165e-01
<GCONST> 1.021876e+02
<MIXTURE> 3 1.180597e-01
<MEAN> 39
 -1.024429e+01 1.420544e+00 9.556327e+00 1.936526e+00 -5.489928e+00 -5.750452e+00 -3.572758e+00 3.934665e+00 -6.438758e+00 -1.037628e+00 3.074475e+00 1.350546e+00 3.884227e+00 3.679171e-02 -2.162286e-01 -7.915344e-02 4.942791e-01 1.745890e-01 1.592109e-01 -3.302355e-01 -1.434186e-01 1.766175e-01 -8.273164e-02 -1.969445e-01 1.991400e-01 -4.164241e-01 3.689690e-01 5.790304e-02 -3.092943e-02 7.831261e-02 1.599921e-01 2.578216e-01 -4.861602e-02 -2.164459e-01 9.880082e-02 1.343181e-01 -1.416502e-01 -8.647195e-02 -1.927535e-01
<VARIANCE> 39
 6.214417e+01 6.001898e+01 1.071446e+02 4.438723e+01 1.017619e+02 2.051406e+01 3.923130e+01 4.831617e+01 3.711720e+01 3.381100e+01 5.117056e+01 2.815080e+01 3.754881e+01 1.722779e+00 1.177597e+00 3.103337e+00 1.510334e+00 3.307108e+00 2.177757e+00 3.819908e+00 2.418934e+00 3.133472e+00 1.863748e+00 2.266409e+00 2.104110e+00 8.084187e-01 1.554052e-01 2.441555e-01 2.915992e-01 2.714601e-01 5.452237e-01 3.682041e-01 5.520015e-01 5.673201e-01 5.962519e-01 4.347605e-01 5.069471e-01 5.548750e-01 1.347022e-01
<GCONST> 1.179592e+02
<MIXTURE> 4 1.681256e-01
<MEAN> 39
 2.641459e+00 -1.327571e-01 6.235983e+00 -2.063371e+00 -9.207267e+00 8.211806e+00 -6.700526e+00 -3.006190e+00 -3.824050e+00 -2.921638e+00 6.989810e+00 -1.841017e+00 4.758352e+00 4.091519e-02 -3.936063e-01 -4.994040e-01 -4.104183e-01 -5.563632e-01 3.272939e-01 3.082954e-01 6.857616e-01 2.088223e-01 -5.378831e-01 6.249989e-01 -2.218973e-01 6.969454e-01 -1.037899e-01 2.744322e-01 -1.681903e-01 3.472790e-01 5.065835e-01 -4.375339e-01 6.820308e-01 -2.998163e-01 1.518855e-01 2.880634e-01 -3.945954e-01 1.206430e-01 -5.070107e-01
<VARIANCE> 39
 2.185074e+01 2.862268e+01 1.404759e+02 6.336011e+01 6.348207e+01 9.890353e+01 9.838733e+01 1.126007e+02 5.870049e+01 3.885601e+01 5.655463e+01 4.383812e+01 1.332877e+01 2.037835e+00 2.830606e+00 3.848464e+00 3.948357e+00 7.033015e+00 6.225261e+00 5.272271e+00 9.125441e+00 6.120912e+00 4.471363e+00 5.278928e+00 3.370804e+00 3.504258e+00 3.966491e-01 4.658444e-01 7.501311e-01 8.498893e-01 8.209776e-01 1.272583e+00 5.502400e-01 1.720824e+00 1.073744e+00 8.054966e-01 8.434796e-01 6.054361e-01 3.179929e-01
<GCONST> 1.388610e+02
<MIXTURE> 5 1.401358e-01
<MEAN> 39
 5.031576e+00 1.923026e+00 2.549320e+00 4.481767e+00 -1.904325e+00 2.106301e+00 -3.768315e+00 -1.455880e+01 -2.712934e+00 -7.157083e-01 3.123293e+00 -4.855168e+00 1.831154e+00 9.438679e-02 5.847387e-02 -1.844991e-01 3.376731e-01 4.657721e-02 -7.848553e-03 -1.006319e-01 -1.784871e-01 1.921559e-01 1.831337e-01 -3.273484e-01 5.269181e-02 -1.330013e-01 -2.578276e-01 -1.161634e-01 2.054325e-01 -2.454090e-01 -2.625744e-01 1.084328e-01 -9.772602e-02 7.964585e-01 -1.310223e-01 -4.890881e-02 4.436186e-02 1.151124e-01 2.116141e-01
<VARIANCE> 39
 6.196705e+00 1.788480e+01 4.867726e+01 7.067038e+01 3.821003e+01 5.682856e+01 1.865333e+02 9.607625e+01 4.234554e+01 4.658090e+01 6.015572e+01 3.166512e+01 8.972253e+00 9.047399e-01 9.790200e-01 3.979078e+00 3.574189e+00 3.805098e+00 4.814239e+00 3.698228e+00 1.094700e+01 2.619584e+00 3.595380e+00 3.460438e+00 2.724168e+00 1.062792e+00 1.321525e-01 1.271482e-01 3.708821e-01 5.542643e-01 5.702797e-01 8.340471e-01 8.821340e-01 1.438823e+00 6.060853e-01 6.352948e-01 6.739158e-01 5.604639e-01 1.225824e-01
<GCONST> 1.228282e+02
<MIXTURE> 6 1.097282e-01
<MEAN> 39
 -1.290102e+00 5.016946e+00 5.561176e+00 3.273298e+00 1.565690e-01 1.837446e+00 5.566008e-01 -2.120471e+00 -3.193836e+00 1.246997e+00 4.486004e-01 1.836418e+00 -5.781013e+00 1.232725e+00 3.806109e-02 8.424683e-01 -2.176296e+00 -2.247435e+00 1.698572e+00 -2.256616e+00 -1.510972e+00 -2.322529e-01 -3.519976e-01 1.548454e+00 -8.783270e-01 3.644718e+00 2.699434e-01 -2.984481e-01 -2.537316e-01 -2.360544e-01 -2.648140e-01 2.288866e-01 6.824341e-02 2.250369e-01 -1.312957e-01 -1.264055e-01 2.192670e-01 -1.531815e-01 -3.655897e-01
<VARIANCE> 39
 6.707161e+01 8.026698e+01 1.162271e+02 1.262560e+02 7.063994e+01 6.528103e+01 9.900888e+01 1.370777e+02 6.985309e+01 5.953787e+01 4.725707e+01 6.154145e+01 6.206330e+01 7.515801e+00 8.451542e+00 1.293736e+01 1.104610e+01 6.373191e+00 1.082577e+01 5.945391e+00 1.827171e+01 6.513779e+00 4.962465e+00 4.356730e+00 4.127201e+00 5.451907e+00 1.554094e+00 1.477919e+00 1.459852e+00 1.923369e+00 1.412611e+00 1.320800e+00 1.501721e+00 2.566270e+00 1.157913e+00 1.141799e+00 7.875105e-01 8.413157e-01 7.711637e-01
<GCONST> 1.577918e+02
<MIXTURE> 7 1.137810e-01
<MEAN> 39
 -1.448044e+00 2.891107e+00 1.335461e+01 1.114055e+00 -1.673521e+01 3.243199e+00 -7.075976e+00 -3.882832e+00 -7.877096e+00 -2.812430e+00 6.065157e+00 -9.881862e-01 5.797010e+00 -1.134472e-01 2.121075e-01 3.387221e-02 -5.533005e-01 -2.759794e-02 -1.565816e-02 4.154842e-01 -3.474242e-01 6.076000e-02 1.841702e-01 -4.923225e-01 -2.473873e-01 -4.218976e-02 7.762139e-02 -9.315257e-02 -1.666946e-01 9.275625e-02 2.922999e-01 -1.555870e-01 -1.848876e-01 3.037649e-02 7.151651e-02 -6.395712e-02 -3.269637e-02 1.200207e-02 -6.485344e-02
<VARIANCE> 39
 2.129021e+01 2.258859e+01 9.730849e+01 5.019506e+01 1.765443e+01 6.751705e+01 4.770884e+01 7.157401e+01 2.434781e+01 3.448611e+01 2.526227e+01 3.312328e+01 6.996525e+00 2.610884e-01 6.574209e-01 1.268089e+00 1.336485e+00 1.104085e+00 2.290790e+00 1.589520e+00 1.825909e+00 1.427120e+00 1.506293e+00 1.323065e+00 1.352994e+00 1.191306e-01 4.144280e-02 9.612852e-02 1.525272e-01 1.919206e-01 2.042182e-01 3.397717e-01 3.105903e-01 2.785535e-01 3.049651e-01 2.816724e-01 2.613101e-01 2.557735e-01 3.045039e-02
<GCONST> 9.412878e+01
<MIXTURE> 8 1.331235e-01
<MEAN> 39
 1.984668e+00 4.695983e+00 8.198288e+00 4.541698e+00 -2.593688e+00 -2.319935e+00 -1.264618e-01 -5.621867e-01 -6.358271e+00 2.601099e+00 1.993005e-01 8.888988e-01 -8.579405e+00 1.558145e-02 6.085173e-01 -1.741540e-01 -6.698159e-02 8.182291e-01 -5.275466e-01 6.316917e-01 2.158670e-01 -4.027581e-01 6.967877e-01 -2.927411e-01 4.991309e-01 -1.455159e+00 -3.476607e-01 -9.354480e-02 -3.097182e-01 -2.299194e-01 -3.200801e-02 1.067690e-01 -1.308512e-01 8.772530e-02 1.497879e-01 -2.827057e-01 1.303943e-01 -2.082373e-02 4.698486e-01
<VARIANCE> 39
 8.109526e+01 4.766938e+01 1.425733e+02 5.258019e+01 6.832880e+01 1.071062e+02 4.407333e+01 7.537624e+01 3.642179e+01 4.309513e+01 4.650224e+01 2.868532e+01 8.078173e+01 3.729299e+00 2.615722e+00 3.448070e+00 3.558196e+00 4.976698e+00 5.084079e+00 3.662486e+00 6.055750e+00 3.785936e+00 3.927952e+00 3.001965e+00 3.316716e+00 3.256758e+00 3.595753e-01 4.036420e-01 6.104388e-01 7.830514e-01 1.011819e+00 1.150879e+00 7.197824e-01 1.057248e+00 6.039608e-01 7.347229e-01 6.434376e-01 6.510206e-01 4.081644e-01
<GCONST> 1.367375e+02
<STATE> 4
<NUMMIXES> 8
<MIXTURE> 1 7.684817e-02
<MEAN> 39
 3.764100e+00 2.945770e+00 -1.302908e+00 6.004625e+00 6.650734e+00 -3.786521e+00 4.561653e+00 -1.452555e+00 -1.421440e+00 1.809787e+00 -3.891325e+00 1.035546e+00 -1.195951e+01 -2.480183e+00 -1.646914e-01 1.003235e+00 -1.638893e+00 -4.981888e-01 7.453085e-01 -1.426011e+00 2.027869e+00 1.739522e-02 -3.608115e-01 1.027265e+00 6.500115e-01 2.204078e+00 -5.388992e-01 -3.367761e-01 2.431776e-01 -7.977422e-01 -6.450034e-01 3.655732e-01 -4.762592e-01 3.154748e-01 1.669845e-01 -1.370938e-01 5.327199e-01 -5.918163e-02 1.365575e+00
<VARIANCE> 39
 4.901377e+01 6.578861e+01 1.432251e+02 7.071313e+01 9.561811e+01 1.008211e+02 1.140686e+02 1.701897e+02 7.884188e+01 5.638211e+01 5.591209e+01 4.356448e+01 5.344994e+01 6.876258e+00 7.002220e+00 1.190502e+01 7.763060e+00 1.176788e+01 8.882389e+00 9.753536e+00 1.485517e+01 7.529140e+00 6.270499e+00 4.910377e+00 4.076928e+00 5.268110e+00 8.466744e-01 8.187656e-01 1.654932e+00 1.224095e+00 1.558792e+00 1.409684e+00 1.507025e+00 2.402469e+00 1.231280e+00 9.855800e-01 9.406309e-01 6.431348e-01 6.982566e-01
<GCONST> 1.564869e+02
<MIXTURE> 2 8.535804e-02
<MEAN> 39
 4.728072e+00 4.529651e+00 -1.024094e+01 -9.743791e+00 1.596479e+00 1.435075e+01 -8.398609e+00 -3.282840e+00 1.788691e+00 2.962749e+00 8.044706e+00 -2.434547e+00 3.244678e+00 2.697463e-01 -5.397788e-01 -4.726417e-01 -7.286556e-02 6.978687e-01 3.210080e-01 2.017579e-01 -1.886248e-01 3.598045e-01 3.854360e-01 -2.193209e-01 -5.272456e-01 4.174438e-01 -1.341831e-01 -1.940684e-01 2.521105e-01 7.791626e-01 3.582461e-01 -8.061578e-01 5.795565e-01 1.861373e-01 -1.926446e-01 -8.650929e-02 -6.767631e-01 3.138128e-01 -5.298459e-01
<VARIANCE> 39
 1.152868e+01 5.045300e+01 4.452959e+01 7.062497e+01 5.911946e+01 6.120363e+01 1.276715e+02 5.100390e+01 7.247528e+01 5.438972e+01 3.640792e+01 3.412870e+01 1.700869e+01 2.665844e+00 4.433852e+00 4.525093e+00 1.075163e+01 5.608774e+00 1.032447e+01 7.360416e+00 8.177303e+00 7.316326e+00 5.108594e+00 7.454688e+00 3.996119e+00 5.131962e+00 4.194486e-01 5.295521e-01 5.690544e-01 1.095905e+00 8.026281e-01 8.612512e-01 9.663482e-01 1.113025e+00 9.826641e-01 9.010479e-01 7.996672e-01 7.177795e-01 4.158119e-01
<GCONST> 1.406439e+02
<MIXTURE> 3 1.520136e-01
<MEAN> 39
 -9.191614e-01 -8.192418e+00 -9.712932e+00 -1.191251e+00 2.634591e+00 -1.711805e+00 7.228493e+00 2.024264e+00 4.787322e+00 -1.610988e+00 -3.880720e+00 -2.313152e+00 1.184933e+01 9.689634e-02 -3.465298e-01 1.717864e-01 1.226512e-01 -6.662471e-02 -6.278976e-01 5.585368e-02 2.749339e-01 1.002408e-01 -1.689536e-01 -2.240703e-01 1.577238e-01 -1.068205e-02 8.998595e-02 1.303332e-01 3.592528e-01 -7.555978e-02 -1.501324e-01 -7.315160e-02 -3.357395e-01 4.018117e-02 -4.365607e-03 6.263781e-02 8.246054e-02 2.295003e-02 -2.037221e-01
<VARIANCE> 39
 7.766523e+00 1.625170e+01 8.109754e+01 1.834822e+01 9.223354e+01 4.568912e+01 5.263107e+01 5.584126e+01 3.649989e+01 3.036872e+01 4.358725e+01 2.276442e+01 7.841554e+00 3.877819e-01 7.837836e-01 1.610085e+00 1.207125e+00 1.768788e+00 1.613870e+00 1.995606e+00 1.668115e+00 1.401898e+00 1.456531e+00 1.619899e+00 1.177919e+00 2.205816e-01 6.530558e-02 1.118808e-01 1.498179e-01 1.930087e-01 2.516778e-01 2.236961e-01 3.314924e-01 3.126182e-01 2.544255e-01 2.855033e-01 2.792874e-01 2.314461e-01 4.792536e-02
<GCONST> 9.569060e+01
<MIXTURE> 4 1.728085e-01
<MEAN> 39
 -9.246828e+00 2.001853e+00 7.988881e+00 2.898361e-01 -1.608304e-01 -4.616963e+00 -2.492720e+00 6.066550e+00 -2.029271e+00 1.304775e+00 1.328337e+00 4.789036e+00 -9.805807e-01 -1.846329e-01 -1.627028e-02 1.255413e-02 -4.506838e-01 -8.300708e-01 4.683029e-01 -5.562512e-01 -6.254647e-03 1.515353e-01 -3.016738e-01 4.535751e-01 -3.294474e-01 1.145731e+00 6.705363e-01 -3.015443e-02 -4.737448e-01 5.971632e-02 4.584971e-02 1.602791e-01 2.766045e-01 -3.898576e-01 9.527983e-02 -3.656289e-03 -1.512878e-01 -3.356714e-01 -3.426924e-01
<VARIANCE> 39
 9.545955e+01 8.111005e+01 1.802353e+02 6.176365e+01 1.588808e+02 7.014520e+01 8.629488e+01 8.545570e+01 9.229412e+01 3.889967e+01 5.706979e+01 4.703619e+01 3.355513e+01 8.103368e+00 5.977623e+00 9.423048e+00 5.755103e+00 1.042052e+01 6.005735e+00 7.657185e+00 9.862407e+00 6.209283e+00 4.641979e+00 6.078808e+00 4.376266e+00 9.475327e+00 1.060777e+00 9.964955e-01 1.052900e+00 8.565853e-01 1.729157e+00 1.040116e+00 1.349445e+00 1.490328e+00 1.075767e+00 9.348956e-01 9.460511e-01 7.348186e-01 5.955090e-01
<GCONST> 1.533551e+02
<MIXTURE> 5 1.204881e-01
<MEAN> 39
 6.723766e+00 1.437143e+00 1.843066e+00 6.634863e+00 1.148523e+00 -4.585732e+00 4.020659e+00 -9.377968e+00 1.988672e+00 -2.314300e-01 -3.620748e+00 -2.499849e+00 -4.239280e+00 3.908467e-01 5.672756e-01 1.223289e-01 1.372770e+00 8.570123e-02 -2.706710e-01 3.222671e-01 -1.002248e+00 -3.453493e-02 3.790332e-01 -1.722268e-01 -3.727663e-02 -1.143609e+00 -2.330031e-01 -1.158194e-01 -2.342469e-01 -4.747908e-01 3.092496e-02 3.280740e-01 -2.318718e-01 7.058346e-01 1.129562e-03 -4.169441e-02 1.372219e-01 8.914150e-02 2.777274e-01
<VARIANCE> 39
 2.292933e+01 5.758782e+01 7.614984e+01 6.008010e+01 8.127926e+01 9.990918e+01 1.463881e+02 1.117267e+02 9.005499e+01 7.343923e+01 5.741362e+01 3.619477e+01 4.206328e+01 7.753340e-01 1.834393e+00 3.154370e+00 3.771491e+00 3.374609e+00 5.639050e+00 4.916282e+00 7.405933e+00 3.653349e+00 3.455160e+00 3.486193e+00 2.677878e+00 1.145798e+00 1.377575e-01 2.790283e-01 3.926195e-01 6.152650e-01 6.710109e-01 8.590275e-01 9.444183e-01 1.161743e+00 7.339114e-01 8.710692e-01 6.603339e-01 5.840434e-01 1.587835e-01
<GCONST> 1.320679e+02
<MIXTURE> 6 1.641098e-01
<MEAN> 39
 -9.821294e-02 -7.259588e+00 -3.526868e+00 -1.867436e+00 -8.688123e-01 -2.779638e+00 6.737185e-01 4.966539e+00 5.681068e+00 -8.446906e-01 -1.740949e+00 -1.229436e+00 8.928832e+00 4.117233e-01 2.013486e-01 2.089968e-01 2.854755e-01 2.204217e-01 -3.559776e-01 -1.621145e-01 -4.247794e-01 -2.467490e-02 2.610722e-02 -1.940349e-01 4.779041e-03 -6.239985e-01 4.800538e-02 3.894478e-01 5.754990e-02 3.779464e-01 2.736378e-01 -3.219070e-03 3.185073e-01 -4.028897e-01 -2.684496e-01 5.186170e-02 -8.023973e-02 1.114020e-01 -5.673621e-01
<VARIANCE> 39
 1.586760e+01 3.029759e+01 1.096130e+02 2.873879e+01 1.120105e+02 5.583511e+01 8.693201e+01 5.869267e+01 4.725499e+01 3.509089e+01 5.409769e+01 3.364708e+01 1.115342e+01 1.504101e+00 2.673372e+00 5.595700e+00 2.936245e+00 4.095925e+00 3.766686e+00 7.741420e+00 5.777612e+00 4.030796e+00 2.974239e+00 4.135735e+00 2.819165e+00 2.871526e+00 2.482264e-01 2.936032e-01 5.829546e-01 6.005468e-01 6.550124e-01 6.323241e-01 1.071432e+00 9.652695e-01 6.700017e-01 5.308571e-01 7.164152e-01 5.063903e-01 2.392938e-01
<GCONST> 1.292464e+02
<MIXTURE> 7 1.115500e-01
<MEAN> 39
 -9.520868e-01 6.708733e+00 4.158812e+00 -6.759775e+00 -3.337530e+00 3.710605e+00 -5.619668e+00 -1.689703e+00 -2.072672e+00 -1.486720e-01 3.176836e+00 3.561698e-01 -1.011191e+00 -1.506537e-01 2.693302e-02 -1.521061e-01 -4.993072e-02 1.954697e-01 -1.231191e-01 4.686034e-01 -1.426692e-02 -1.021280e-01 3.062528e-01 -1.017481e-01 1.333613e-01 -2.863183e-01 7.522234e-02 -1.972769e-01 -8.761639e-02 2.590482e-01 1.320318e-01 -1.855229e-01 4.934973e-02 6.362402e-02 1.065245e-01 6.093448e-02 -8.778908e-02 4.318363e-03 1.250362e-03
<VARIANCE> 39
 6.212740e+01 4.044833e+01 2.472056e+02 6.325853e+01 9.126833e+01 1.053221e+02 1.744518e+02 8.835223e+01 5.710531e+01 3.279039e+01 4.886695e+01 3.289870e+01 7.968129e+01 5.762845e-01 1.393205e+00 1.780665e+00 1.402109e+00 2.120322e+00 2.167960e+00 3.024732e+00 2.511511e+00 2.051142e+00 2.115576e+00 2.270899e+00 1.759929e+00 6.619399e-01 1.109821e-01 1.616450e-01 2.747551e-01 2.093780e-01 4.177250e-01 4.074721e-01 5.251966e-01 4.604675e-01 3.451465e-01 3.328620e-01 3.933368e-01 3.404624e-01 7.437979e-02
<GCONST> 1.171230e+02
<MIXTURE> 8 1.168169e-01
<MEAN> 39
 3.844147e+00 -4.637460e-01 -3.168736e+00 2.748787e+00 5.239667e+00 -1.736351e+00 2.340765e+00 3.009217e+00 -9.522699e-01 1.655680e+00 -4.441151e+00 1.554626e+00 -1.189118e+01 3.929026e-01 -9.252606e-02 -6.644145e-01 3.056122e-01 7.848208e-01 -3.377351e-01 1.108685e+00 4.890652e-01 -4.104639e-01 -5.038363e-02 -6.387412e-01 4.171010e-01 -2.110366e+00 -5.993894e-01 -1.102580e-02 1.727370e-01 -2.660879e-01 -2.852474e-01 4.028871e-02 -2.574279e-01 -7.547534e-02 1.227374e-01 -1.691931e-02 3.670320e-01 2.727119e-02 7.246781e-01
<VARIANCE> 39
 6.816216e+01 6.256883e+01 1.677596e+02 5.955901e+01 1.143988e+02 7.501238e+01 1.092389e+02 6.975304e+01 7.056748e+01 3.743366e+01 5.610086e+01 4.157693e+01 5.640511e+01 3.187009e+00 2.866604e+00 4.355385e+00 4.457953e+00 5.372575e+00 4.617322e+00 5.953305e+00 5.167699e+00 4.222031e+00 3.707378e+00 3.754413e+00 2.529372e+00 2.571770e+00 5.338989e-01 5.851163e-01 8.478827e-01 8.025657e-01 1.027323e+00 8.255441e-01 1.026707e+00 8.715500e-01 8.829764e-01 6.863770e-01 7.443178e-01 5.159234e-01 4.000554e-01
<GCONST> 1.404707e+02
<TRANSP> 5
 0.000000e+00 1.000000e+00 0.000000e+00 0.000000e+00 0.000000e+00
 0.000000e+00 9.705755e-01 2.942448e-02 0.000000e+00 0.000000e+00
 0.000000e+00 0.000000e+00 9.826593e-01 1.734069e-02 0.000000e+00
 0.000000e+00 0.000000e+00 0.000000e+00 9.940481e-01 5.951905e-03
 0.000000e+00 0.000000e+00 0.000000e+00 0.000000e+00 0.000000e+00
<ENDHMM>
~h "M004"
<BEGINHMM>
<NUMSTATES> 5
<STATE> 2
<NUMMIXES> 8
<MIXTURE> 1 1.512643e-01
<MEAN> 39
 -2.162141e+00 6.398831e-01 -1.059189e+01 6.472829e+00 4.586439e+00 -7.379345e-01 1.101518e+01 -5.929281e+00 -4.539165e-01 -6.772079e+00 -2.468402e+00 2.560029e+00 -1.844496e+01 1.280404e-01 1.569292e-01 5.355888e-02 3.993423e-01 3.058805e-01 5.993848e-01 -7.586822e-02 -2.005378e-01 -3.944106e-02 3.963768e-01 5.204032e-02 -1.709798e-01 4.012771e-01 -5.997898e-02 1.774805e-01 2.749560e-01 -6.547920e-02 -2.817814e-02 6.645812e-02 -1.732066e-01 6.748342e-02 1.787999e-01 1.081537e-01 6.092145e-02 -1.094066e-01 3.261057e-01
<VARIANCE> 39
 1.353333e+01 2.908257e+01 2.920309e+01 2.365828e+01 2.249652e+01 3.968084e+01 7.199734e+01 3.322549e+01 2.520458e+01 4.131622e+01 2.562469e+01 1.521782e+01 7.740244e+01 1.771722e+00 1.290555e+00 3.675739e+00 1.755435e+00 1.447547e+00 3.559226e+00 3.300251e+00 1.815046e+00 2.400543e+00 2.452322e+00 1.260697e+00 1.102388e+00 9.892696e-01 4.285333e-01 3.132412e-01 7.742789e-01 3.737998e-01 2.761512e-01 6.766820e-01 6.931280e-01 3.029862e-01 4.316809e-01 3.795291e-01 2.816919e-01 2.843556e-01 3.816902e-01
<GCONST> 1.124576e+02
<MIXTURE> 2 1.131717e-01
<MEAN> 39
 -6.819009e-01 -7.572644e-01 1.832674e-01 -5.261545e-01 -9.413593e-01 -1.130696e+00 1.372951e+00 2.026617e+00 2.632472e+00 1.382763e+00 1.734736e+00 7.087678e-01 -4.897891e-01 1.081805e-01 1.891971e-01 1.787045e-01 2.288154e-01 1.623550e-01 2.723893e-01 3.793560e-01 4.363390e-01 1.948856e-01 1.990941e-01 1.487192e-01 2.136099e-02 5.150497e-02 1.153330e-01 1.797784e-01 1.388455e-01 1.013348e-01 9.465612e-02 5.240575e-02 -1.376830e-01 -2.197475e-01 -2.815363e-01 -2.356528e-01 -3.035729e-01 -1.459034e-01 4.945754e-02
<VARIANCE> 39
 7.302016e-01 1.287912e+00 4.789711e+00 3.390546e+00 6.470085e+00 9.707414e+00 6.737108e+00 8.725357e+00 1.000602e+01 1.042817e+01 8.614207e+00 8.901962e+00 8.285324e-01 5.886364e-02 1.712341e-01 3.790520e-01 4.471234e-01 6.723261e-01 9.585074e-01 8.053486e-01 1.059037e+00 1.114229e+00 9.842337e-01 1.186788e+00 8.918685e-01 3.408687e-02 1.126580e-02 2.324056e-02 6.025747e-02 7.344364e-02 1.341886e-01 2.174634e-01 1.808620e-01 2.822149e-01 2.571164e-01 2.133900e-01 2.548975e-01 2.958010e-01 4.738335e-03
<GCONST> 5.019849e+01
<MIXTURE> 3 1.481238e-01
<MEAN> 39
 2.900251e-01 7.190689e-01 1.623550e+00 1.772038e+00 1.852708e+00 1.154370e+00 1.438738e+00 6.860436e-01 4.186276e-01 -5.813222e-01 6.651259e-01 1.253372e-01 -9.062140e-02 1.514404e-02 3.755153e-02 1.027479e-01 1.363051e-01 2.393073e-01 2.337580e-01 3.089560e-02 5.429396e-02 3.946019e-02 9.450938e-02 -6.178835e-02 -3.020777e-02 -9.167487e-04 -4.062173e-02 -5.087607e-02 -1.010327e-01 -3.407435e-01 -3.939856e-01 -3.186377e-01 -1.461508e-01 -4.155776e-02 -1.890561e-02 2.413946e-02 -1.484191e-01 -7.671832e-03 -9.431693e-03
<VARIANCE> 39
 7.302016e-01 1.352585e+00 5.854858e+00 4.041024e+00 3.205949e+00 5.677261e+00 5.394179e+00 4.745409e+00 7.949959e+00 9.548807e+00 8.883477e+00 7.802737e+00 8.285324e-01 8.102945e-02 2.081437e-01 3.396685e-01 5.064685e-01 6.120526e-01 6.236142e-01 6.913433e-01 9.805654e-01 1.204390e+00 1.243652e+00 1.220981e+00 1.484359e+00 3.408687e-02 8.748926e-03 2.597260e-02 6.695260e-02 5.999927e-02 8.653229e-02 1.229551e-01 1.359960e-01 1.506302e-01 2.000872e-01 2.118366e-01 1.950638e-01 1.812266e-01 4.365372e-03
<GCONST> 4.550266e+01
<MIXTURE> 4 1.408932e-01
<MEAN> 39
 6.718042e-02 4.394076e-01 7.626042e-01 -1.194143e+00 -2.108088e+00 -2.434929e+00 -5.846154e-01 -6.459673e-01 -1.533916e+00 -2.061588e+00 -1.271273e+00 -1.142487e-01 -1.045781e-01 5.197464e-02 1.212401e-01 2.625014e-01 5.282455e-01 4.772946e-01 3.571406e-01 3.789335e-01 3.298373e-01 2.087039e-01 1.701463e-02 1.605187e-01 -1.439771e-02 1.542109e-03 -2.074668e-02 -4.045602e-02 -2.329758e-02 1.217543e-01 2.608713e-01 2.732505e-01 1.550679e-01 1.668149e-01 2.466549e-01 1.912619e-01 1.415656e-01 5.153042e-02 -1.239541e-02
<VARIANCE> 39
 7.302016e-01 1.450542e+00 5.941126e+00 4.453957e+00 4.919753e+00 7.559079e+00 5.363493e+00 7.394133e+00 8.806408e+00 6.517050e+00 4.697800e+00 6.598641e+00 8.285324e-01 6.355315e-02 1.239280e-01 3.547976e-01 3.450413e-01 7.257573e-01 1.098842e+00 7.827241e-01 1.159885e+00 1.162543e+00 1.071508e+00 9.403688e-01 9.193199e-01 3.408687e-02 1.229822e-02 2.870867e-02 8.320989e-02 8.560764e-02 1.160027e-01 1.391305e-01 1.031416e-01 2.130442e-01 2.062105e-01 1.711139e-01 1.402662e-01 2.055329e-01 4.417764e-03
<GCONST> 4.588013e+01
<MIXTURE> 5 5.052929e-02
<MEAN> 39
 6.821526e-01 -3.347239e+00 -1.110528e+01 1.912225e+00 7.350507e+00 1.087212e+01 -6.891245e+00 -7.248876e+00 -3.432702e+00 7.341107e+00 2.512293e+00 -2.254218e+00 2.273142e+00 -6.793100e-02 1.293371e-01 6.535693e-01 -1.899911e-01 -2.562604e-01 -5.518059e-01 3.772879e-01 1.325921e-01 3.995287e-01 -1.229719e-01 -6.490649e-02 -1.023994e-01 -1.702618e-01 -6.765317e-03 -1.587009e-02 -5.239379e-02 1.539683e-02 -2.614916e-02 -2.656780e-02 -3.229568e-02 5.438297e-02 -1.623745e-03 -3.136199e-03 5.885816e-02 5.918901e-02 1.794769e-02
<VARIANCE> 39
 7.302016e-01 2.883260e+00 2.528636e+01 5.335668e+00 6.919757e+00 2.790574e+01 1.686525e+01 7.214032e+00 1.310141e+01 1.047364e+01 1.087284e+01 1.101109e+01 1.338284e+00 8.747246e-02 2.159156e-01 4.641398e-01 1.049296e+00 8.949232e-01 1.235280e+00 2.909536e+00 9.836345e-01 9.743667e-01 1.347973e+00 1.703774e+00 1.994583e+00 9.375177e-02 1.726045e-02 4.781551e-02 8.623216e-02 2.208284e-01 1.918314e-01 2.728815e-01 5.297430e-01 2.060139e-01 1.396660e-01 3.178413e-01 4.470036e-01 5.081477e-01 1.868315e-02
<GCONST> 6.817799e+01
<MIXTURE> 6 1.513008e-01
<MEAN> 39
 2.416267e-01 1.274027e+00 2.507083e+00 5.894316e-01 -6.260234e-01 -8.788086e-01 2.077484e+00 2.590360e+00 1.807679e+00 -3.339940e-01 -1.053450e+00 -2.339230e-01 -1.703213e-01 -3.006579e-02 -7.094105e-02 -1.275589e-01 -1.861070e-01 -2.048452e-01 -2.867389e-01 -2.360859e-01 -4.064136e-01 -1.484056e-01 -1.971753e-01 -8.144133e-02 5.794179e-02 -7.960133e-03 -6.365990e-02 -1.401627e-01 -1.600261e-01 -7.224573e-02 -4.201628e-03 -6.700733e-02 -2.459082e-01 -3.439086e-01 -2.106899e-01 -8.419047e-02 1.537475e-01 8.578757e-02 -2.485483e-02
<VARIANCE> 39
 7.302016e-01 8.614054e-01 3.117738e+00 2.684966e+00 3.915601e+00 4.820978e+00 5.693467e+00 7.973237e+00 5.952183e+00 7.484635e+00 9.967364e+00 9.234164e+00 8.285324e-01 7.737685e-02 1.661140e-01 4.093617e-01 4.120296e-01 6.101852e-01 9.047493e-01 1.008159e+00 8.860138e-01 8.118619e-01 9.521397e-01 1.017690e+00 9.695165e-01 3.408687e-02 1.403389e-02 2.609037e-02 7.413300e-02 6.480831e-02 9.438489e-02 1.482624e-01 1.649848e-01 1.899562e-01 1.695888e-01 1.868635e-01 2.594787e-01 2.311507e-01 6.175877e-03
<GCONST> 4.539642e+01
<MIXTURE> 7 1.138172e-01
<MEAN> 39
 -4.928212e-02 7.381684e-01 1.888888e+00 4.581209e-02 -1.206432e+00 -3.245730e+00 -2.153824e+00 -1.548130e+00 -2.324114e-01 -9.353579e-01 -1.670006e-01 6.196600e-01 -3.158818e-01 -6.088485e-02 -1.385696e-01 -1.277529e-01 -2.957835e-01 -4.050928e-01 -3.981708e-01 -3.195004e-01 -1.545613e-01 -2.894553e-01 -3.395304e-01 -2.952110e-01 -2.133353e-01 -2.851694e-02 -5.744056e-03 -3.877139e-02 -7.544732e-03 7.464302e-02 1.341761e-01 3.141710e-01 4.303890e-01 3.739576e-01 1.448778e-01 2.848113e-02 -2.480478e-02 -1.006546e-01 7.393930e-04
<VARIANCE> 39
 7.302016e-01 9.648479e-01 4.409085e+00 3.390803e+00 3.849832e+00 6.032020e+00 6.510010e+00 5.298656e+00 7.129172e+00 7.461214e+00 8.914024e+00 1.153354e+01 8.285324e-01 5.750538e-02 1.692142e-01 3.505958e-01 3.133962e-01 4.518603e-01 7.380483e-01 1.021993e+00 8.753732e-01 1.209755e+00 8.549389e-01 1.236719e+00 1.062636e+00 3.408687e-02 1.538444e-02 3.534530e-02 9.976089e-02 8.210658e-02 9.996745e-02 1.426635e-01 1.592061e-01 1.558315e-01 1.666041e-01 2.068830e-01 2.438486e-01 2.425974e-01 6.102756e-03
<GCONST> 4.645130e+01
<MIXTURE> 8 1.308969e-01
<MEAN> 39
 -2.912575e-01 -9.583067e-01 -1.568179e+00 -2.085611e+00 -5.372546e-01 9.102230e-01 8.322580e-01 -1.581264e-01 -1.215366e+00 -8.575557e-01 -9.394084e-01 -9.960299e-02 -5.812185e-02 -7.428358e-02 -8.862672e-02 -1.823425e-01 -4.197025e-01 -3.695895e-01 -2.529814e-01 -1.546267e-01 -1.350298e-01 -4.011827e-03 1.830492e-01 1.325279e-01 2.245945e-01 -2.925676e-02 5.933440e-02 1.408287e-01 1.861471e-01 1.995280e-01 -5.661289e-03 -1.289743e-01 -7.216972e-03 8.579314e-02 8.768461e-02 7.319285e-02 1.384320e-01 5.025326e-02 1.989366e-02
<VARIANCE> 39
 7.302016e-01 1.192971e+00 6.278677e+00 4.035523e+00 7.130107e+00 8.921209e+00 5.774363e+00 5.422579e+00 1.029628e+01 1.084291e+01 9.155444e+00 1.013652e+01 8.285324e-01 8.338286e-02 1.752141e-01 4.214188e-01 4.083284e-01 8.432716e-01 8.302354e-01 6.423069e-01 1.194641e+00 1.249038e+00 9.815958e-01 1.143985e+00 1.176506e+00 3.408687e-02 1.114570e-02 2.446887e-02 5.832335e-02 8.701850e-02 2.067785e-01 2.027163e-01 1.328286e-01 1.775414e-01 2.507371e-01 2.353760e-01 2.150559e-01 2.461636e-01 5.273197e-03
<GCONST> 5.051735e+01
<STATE> 3
<NUMMIXES> 8
<MIXTURE> 1 9.870309e-02
<MEAN> 39
 -1.488433e+00 4.442605e+00 -4.081801e+00 6.056355e+00 3.438782e+00 -1.744571e+00 6.366888e+00 -6.341913e+00 4.303771e+00 -4.705258e+00 -7.626191e-01 2.394210e-01 -7.840169e+00 -3.038140e-01 9.683628e-02 9.481751e-01 -6.899766e-01 -1.309010e-01 6.609772e-01 -2.113623e+00 6.121640e-01 7.521586e-02 5.319506e-01 6.693062e-01 -3.894637e-01 2.775842e+00 3.203324e-01 -5.406254e-01 6.724689e-01 -8.107831e-01 -5.978656e-01 2.360307e-01 -7.604264e-01 6.650239e-01 -5.653278e-01 5.933455e-01 2.297743e-01 -8.626309e-02 7.275176e-01
<VARIANCE> 39
 6.505666e+01 7.219297e+01 9.931642e+01 6.941212e+01 5.442455e+01 7.638718e+01 8.011459e+01 6.956026e+01 6.380394e+01 4.244094e+01 4.389622e+01 3.258580e+01 6.678143e+01 1.100376e+01 8.084452e+00 1.317134e+01 1.071124e+01 9.173371e+00 9.764783e+00 1.194475e+01 8.459424e+00 8.030895e+00 7.674821e+00 4.719952e+00 4.319150e+00 4.771016e+00 1.177743e+00 1.129344e+00 1.666460e+00 1.376967e+00 1.266372e+00 1.237976e+00 1.616762e+00 1.130486e+00 1.321649e+00 9.392465e-01 7.421848e-01 6.127273e-01 9.213725e-01
<GCONST> 1.540612e+02
<MIXTURE> 2 1.463363e-01
<MEAN> 39
 1.648009e+00 -9.829355e+00 -8.780098e-01 -4.183395e+00 -1.021146e+00 5.585918e+00 -5.507237e+00 1.005803e+01 -8.821459e-01 3.770369e+00 -4.508106e+00 -1.568445e+00 1.039112e+01 -6.985771e-03 -3.718827e-02 1.065508e-01 1.630277e-01 1.104603e-01 -2.193062e-01 1.205812e-01 7.143120e-03 9.449201e-04 -4.272803e-01 -1.201478e-01 1.008050e-01 -9.292665e-02 1.213475e-01 2.799554e-01 2.397052e-01 1.416298e-01 2.375595e-02 -1.746541e-01 3.949474e-03 -3.950590e-01 -1.256199e-01 9.533887e-02 1.910927e-01 -2.421234e-02 -3.243628e-01
<VARIANCE> 39
 1.420014e+01 2.375472e+01 5.199588e+01 2.757660e+01 4.002018e+01 6.304308e+01 4.979740e+01 4.647021e+01 2.742107e+01 4.891132e+01 2.936126e+01 2.376785e+01 6.278791e+00 4.691082e-01 1.050264e+00 1.997754e+00 1.033638e+00 1.582362e+00 2.224170e+00 2.063303e+00 2.385547e+00 1.950182e+00 3.209572e+00 2.142408e+00 1.550720e+00 5.094959e-01 5.707480e-02 1.486765e-01 1.786413e-01 2.545877e-01 2.214271e-01 3.312847e-01 3.437544e-01 3.902732e-01 3.021291e-01 5.081755e-01 2.867105e-01 2.235297e-01 6.880366e-02
<GCONST> 1.013837e+02
<MIXTURE> 3 9.430346e-02
<MEAN> 39
 3.026751e+00 -7.657921e-01 1.119066e+01 7.265943e-01 1.371254e+00 -5.814940e+00 3.150342e+00 5.823482e+00 -9.446610e+00 9.882183e+00 -6.490831e+00 -3.669296e+00 1.841269e+00 1.270864e-01 3.651398e-01 3.672336e-01 3.675958e-01 9.280062e-02 -4.537121e-01 3.894365e-01 -1.549433e-01 5.198633e-02 5.521920e-01 5.096622e-02 7.799884e-02 -5.465915e-01 -4.524240e-02 -2.202555e-01 -4.006460e-01 -2.566659e-01 -2.655073e-01 6.213761e-01 -3.478947e-01 9.081320e-02 4.878491e-01 -6.281929e-01 3.472381e-01 1.182070e-01 2.100326e-01
<VARIANCE> 39
 1.494897e+01 2.195140e+01 4.463802e+01 2.740826e+01 4.080073e+01 6.297325e+01 6.363869e+01 6.501729e+01 5.352992e+01 5.111202e+01 3.542840e+01 4.623005e+01 1.183668e+01 5.131946e-01 1.799103e+00 2.453460e+00 3.129679e+00 2.421604e+00 4.406630e+00 4.505982e+00 3.417780e+00 4.360253e+00 4.994513e+00 3.637145e+00 2.759154e+00 1.067687e+00 1.003033e-01 2.465397e-01 3.280265e-01 5.103647e-01 5.396929e-01 6.478137e-01 6.974302e-01 7.156091e-01 5.484455e-01 6.966590e-01 5.304130e-01 6.102777e-01 1.314014e-01
<GCONST> 1.197065e+02
<MIXTURE> 4 1.547845e-01
<MEAN> 39
 6.250645e+00 8.949094e-01 3.363449e+00 1.198958e+00 -2.556892e+00 -1.668676e+00 3.734488e+00 -3.252769e+00 -2.638238e-01 -2.367920e+00 1.195314e+00 -2.786860e-01 -6.705058e+00 -3.580919e-01 6.246098e-01 -8.887326e-01 4.935618e-01 4.253127e-01 -3.558684e-01 9.682539e-01 -9.340988e-01 7.841707e-01 -7.090585e-01 2.953202e-02 1.869121e-01 -1.399278e+00 -4.386949e-01 -1.484436e-01 -1.359809e-01 -1.873344e-01 7.905825e-02 2.050474e-01 -4.819556e-01 3.268480e-01 -8.080426e-02 2.541326e-01 -4.986179e-02 -8.908938e-02 5.790745e-01
<VARIANCE> 39
 2.424491e+01 4.155871e+01 1.139665e+02 8.185851e+01 6.613566e+01 7.127773e+01 7.348592e+01 7.681335e+01 6.629840e+01 6.466734e+01 4.760803e+01 3.983126e+01 3.881128e+01 1.744076e+00 2.747007e+00 4.601123e+00 3.769755e+00 4.676172e+00 5.324810e+00 5.513691e+00 4.877131e+00 4.059587e+00 5.130621e+00 2.882957e+00 2.894721e+00 2.595381e+00 2.940336e-01 4.071939e-01 7.212265e-01 8.455599e-01 8.239234e-01 9.357419e-01 1.050372e+00 8.726106e-01 8.180532e-01 9.057265e-01 5.220237e-01 4.866956e-01 3.759863e-01
<GCONST> 1.358259e+02
<MIXTURE> 5 1.501933e-01
<MEAN> 39
 3.537830e+00 -4.102835e+00 5.429193e+00 -3.532703e+00 -2.668654e+00 2.844751e+00 -7.652475e+00 2.085585e+00 -7.886090e-01 3.809719e+00 2.637037e+00 -3.116492e+00 4.764544e+00 1.441144e-01 -1.779042e+00 4.574414e-01 -1.459828e+00 -1.165116e+00 1.263049e+00 -1.526988e+00 2.316036e+00 -1.067941e+00 9.110240e-01 -7.131217e-02 -3.881581e-01 1.910467e+00 -2.980306e-01 3.582170e-01 -4.380780e-01 3.862829e-01 1.987433e-01 -3.006352e-01 7.743773e-01 -2.688096e-01 5.911706e-02 -2.713175e-01 -3.079005e-01 3.423313e-01 -4.402468e-01
<VARIANCE> 39
 2.665916e+01 5.469956e+01 9.139268e+01 5.985752e+01 6.409296e+01 7.295044e+01 8.991516e+01 9.265165e+01 6.201338e+01 7.361314e+01 4.850675e+01 3.801972e+01 2.777472e+01 3.148995e+00 3.374875e+00 7.279716e+00 6.863427e+00 5.844424e+00 6.067328e+00 7.935260e+00 5.461784e+00 7.586792e+00 6.920348e+00 4.102396e+00 3.535120e+00 2.503109e+00 4.081311e-01 6.243328e-01 1.017978e+00 1.059115e+00 9.137335e-01 9.373678e-01 1.350523e+00 1.215277e+00 1.006542e+00 1.150691e+00 5.919802e-01 6.011960e-01 4.759676e-01
<GCONST> 1.429022e+02
<MIXTURE> 6 1.243416e-01
<MEAN> 39
 3.146675e+00 -1.102118e+00 4.693870e+00 -9.255119e+00 -5.384830e+00 8.201677e+00 -3.279956e+00 2.552689e+00 -8.830270e+00 2.742498e+00 3.676931e+00 -2.888721e-01 6.171816e+00 9.112862e-02 3.673632e-02 4.027839e-02 -7.979050e-02 2.811813e-02 9.077433e-02 1.361510e-01 3.890356e-02 -5.089406e-01 3.291894e-01 -3.922516e-01 -4.065577e-02 -1.418693e-01 3.270075e-02 -3.984380e-02 6.069468e-03 3.914000e-01 1.935418e-01 -4.159932e-01 3.090901e-03 -1.310774e-01 3.601557e-01 -9.961771e-02 -1.400951e-01 -1.203483e-01 -1.514322e-01
<VARIANCE> 39
 3.018487e+01 3.910671e+01 9.403362e+01 7.585948e+01 5.918930e+01 7.807776e+01 1.016659e+02 6.934495e+01 3.699471e+01 4.615264e+01 3.618145e+01 4.900255e+01 1.160307e+01 4.959002e-01 1.310718e+00 1.816428e+00 2.864719e+00 1.925900e+00 2.937606e+00 3.333929e+00 2.323338e+00 2.716922e+00 2.547370e+00 2.102338e+00 2.152704e+00 7.124367e-01 8.707964e-02 1.706154e-01 2.366433e-01 3.067698e-01 3.400319e-01 4.806071e-01 6.473677e-01 4.329554e-01 4.612439e-01 4.356137e-01 3.599626e-01 3.557269e-01 1.033443e-01
<GCONST> 1.145556e+02
<MIXTURE> 7 1.239901e-01
<MEAN> 39
 2.415635e+00 -5.984093e+00 6.549349e+00 -1.332322e+00 -5.862346e+00 4.617598e-01 -7.689625e+00 6.055456e+00 -3.133267e+00 2.296402e+00 5.575181e-01 -2.141291e+00 6.786184e+00 5.036632e-01 9.393719e-01 -3.706387e-01 1.086751e+00 5.305776e-01 -1.075371e+00 1.401456e+00 -1.831029e+00 5.251575e-01 -7.165339e-01 -5.296366e-02 2.547334e-01 -1.334594e+00 -7.095994e-02 5.235413e-01 -2.518085e-01 1.952245e-01 3.070628e-01 -3.374846e-01 7.990616e-01 -4.516911e-01 2.333554e-01 -1.942613e-01 -3.026771e-02 4.915508e-02 -5.205060e-01
<VARIANCE> 39
 2.740162e+01 4.979260e+01 8.650415e+01 3.958192e+01 6.894418e+01 5.648562e+01 5.623101e+01 7.048720e+01 7.246063e+01 5.280583e+01 6.241844e+01 3.265165e+01 1.366852e+01 1.304985e+00 2.750249e+00 2.852674e+00 3.236919e+00 2.549582e+00 4.760413e+00 5.577457e+00 3.700271e+00 4.505505e+00 4.521510e+00 3.015936e+00 2.330388e+00 1.744569e+00 2.778739e-01 4.232237e-01 6.690652e-01 4.981312e-01 6.730812e-01 7.236784e-01 7.293592e-01 8.878882e-01 8.738095e-01 8.039409e-01 5.900317e-01 5.119358e-01 2.227337e-01
<GCONST> 1.291707e+02
<MIXTURE> 8 1.073390e-01
<MEAN> 39
 -1.435084e+01 1.321183e+01 -2.605958e+00 3.986925e+00 1.970341e+00 -9.021500e+00 4.880651e+00 -5.530089e+00 3.981241e+00 -3.479996e+00 2.716936e+00 2.685792e+00 1.126657e+00 -1.225643e-01 -1.427252e-01 5.026228e-02 -1.071243e-01 -6.171023e-02 -1.193920e-01 -4.653042e-01 9.256847e-02 3.517906e-01 5.467886e-02 1.092262e-01 1.125757e-01 3.544710e-01 6.581649e-01 -5.250239e-01 3.175355e-01 -1.129772e-01 -1.775508e-01 3.988047e-01 -2.136040e-01 3.628882e-01 -3.654047e-01 1.302843e-01 -1.149956e-01 -1.982044e-01 -4.351705e-02
<VARIANCE> 39
 7.577196e+01 9.338690e+01 1.437616e+02 5.249969e+01 1.316335e+02 1.004073e+02 7.379803e+01 7.782948e+01 8.991043e+01 3.891659e+01 3.923361e+01 3.287410e+01 3.637935e+01 7.252812e+00 7.377033e+00 7.075126e+00 3.861390e+00 7.652081e+00 6.528484e+00 7.465285e+00 6.414385e+00 5.074774e+00 3.246563e+00 3.209392e+00 2.840533e+00 4.214290e+00 7.560886e-01 8.119474e-01 9.820995e-01 8.754445e-01 1.291992e+00 1.316244e+00 1.307313e+00 1.231020e+00 1.026664e+00 6.678355e-01 5.482983e-01 4.884126e-01 4.428818e-01
<GCONST> 1.459084e+02
<STATE> 4
<NUMMIXES> 8
<MIXTURE> 1 1.200753e-01
<MEAN> 39
 -2.292948e+00 2.254060e+00 -7.745301e+00 2.482316e+00 3.358301e+00 8.268061e-01 2.871771e+00 -5.856178e+00 6.551589e+00 -4.696269e+00 2.046111e+00 5.034988e+00 -4.514136e+00 5.788472e-01 -1.360894e+00 1.606549e+00 -2.805537e+00 -1.486749e+00 1.647438e+00 -2.805187e+00 9.908132e-01 2.758407e-01 1.371313e+00 2.215752e-01 -5.787541e-01 2.949869e+00 7.646697e-02 -2.028890e-01 -1.665449e-02 -8.032264e-02 -1.699758e-02 -5.676985e-02 -1.598340e-01 1.887162e-01 -4.683275e-01 3.173579e-01 -1.351956e-01 -1.749123e-01 8.612853e-02
<VARIANCE> 39
 1.738616e+02 7.720338e+01 8.939634e+01 1.203001e+02 7.365196e+01 1.284831e+02 1.063059e+02 1.174409e+02 9.500215e+01 8.283756e+01 5.971110e+01 3.741451e+01 3.977600e+01 1.676204e+01 6.684103e+00 6.204564e+00 1.047876e+01 9.287348e+00 9.354426e+00 8.104666e+00 1.053996e+01 1.126826e+01 9.441027e+00 4.636713e+00 4.256483e+00 4.276031e+00 1.561352e+00 8.372648e-01 1.119358e+00 2.036080e+00 1.354779e+00 1.188591e+00 1.774762e+00 1.657886e+00 1.313567e+00 1.369369e+00 7.468610e-01 5.790758e-01 9.537092e-01
