~o
<STREAMINFO> 1 39
<VECSIZE> 39<NULLD><MFCC_D_A_Z_0><DIAGC>
~h "M001"
<BEGINHMM>
<NUMSTATES> 5
<STATE> 2
<NUMMIXES> 9
<MIXTURE> 1 9.329629e-02
<MEAN> 39
 -2.398050e+01 -2.627707e+00 -1.103302e+00 -1.531289e+00 8.680982e+00 5.055931e+00 3.017555e+00 9.241091e+00 6.040569e+00 -9.344669e-02 4.493435e+00 1.115536e+01 -4.156669e+00 8.427846e-02 -1.097341e-03 4.464533e-01 -1.955744e-01 -6.698836e-02 -8.485641e-02 -2.328404e-01 -3.005785e-02 2.673135e-02 2.344322e-01 -3.931623e-01 -5.575542e-01 5.573744e-02 6.072286e-01 9.688222e-02 -2.476016e-02 2.633833e-01 -8.508892e-02 -8.444937e-02 -4.658865e-02 -1.845490e-01 -4.004347e-01 -1.309256e-01 -1.823137e-01 -1.510784e-01 -3.325660e-01
<VARIANCE> 39
 2.835085e+01 3.396217e+01 1.728203e+01 3.166486e+01 3.054627e+01 2.865917e+01 3.932573e+01 3.016979e+01 1.648002e+01 1.682002e+01 1.330677e+01 2.212040e+01 2.946759e+01 5.907497e+00 3.926581e+00 1.936895e+00 5.788969e+00 4.045255e+00 3.551665e+00 3.324228e+00 4.734949e+00 2.300794e+00 2.426852e+00 2.677431e+00 2.894204e+00 4.949667e+00 2.102746e-01 1.079022e+00 3.913374e-01 1.215492e+00 9.429478e-01 6.889091e-01 7.040610e-01 1.197847e+00 6.746063e-01 3.578430e-01 3.134601e-01 5.188844e-01 3.564573e-01
<GCONST> 1.226501e+02
<MIXTURE> 2 8.209635e-02
<MEAN> 39
 -1.538305e+00 1.951097e+00 -1.379508e+01 -1.697356e+01 8.420452e+00 7.054796e+00 8.718210e+00 -5.602874e+00 3.031060e-01 3.051960e+00 4.126243e+00 -3.609179e+00 1.292560e+01 6.621953e-01 9.358779e-02 5.735253e-01 6.233938e-01 -4.244027e-01 -1.837160e-01 -4.980633e-02 8.356195e-01 -1.934234e-01 -6.143402e-01 1.847801e-01 5.409253e-01 -8.902366e-01 3.339690e-01 2.303972e-01 2.248897e-01 3.175607e-01 -2.878309e-01 5.842545e-02 -1.661975e-01 7.260337e-02 -1.665002e-02 2.574080e-02 -1.872439e-01 1.266445e-01 -8.236929e-01
<VARIANCE> 39
 5.511600e+00 7.511249e+00 1.533220e+01 1.880839e+01 1.858471e+01 9.896284e+00 3.707316e+01 1.283302e+01 6.639630e+00 1.434663e+01 2.727974e+01 1.277672e+01 3.849296e+00 1.215506e+00 7.097558e-01 1.065743e+00 1.395898e+00 1.864012e+00 1.149873e+00 1.275980e+00 1.222067e+00 1.533580e+00 1.103411e+00 1.679077e+00 1.263289e+00 2.756099e+00 1.323155e-01 1.242864e-01 2.355338e-01 4.000578e-01 6.322024e-01 3.474108e-01 2.913799e-01 2.490835e-01 3.981364e-01 3.577126e-01 2.471192e-01 2.495245e-01 1.597180e-01
<GCONST> 9.077227e+01
<MIXTURE> 3 1.387463e-01
<MEAN> 39
 -1.865127e+00 -8.754050e+00 -1.391905e+00 4.423520e+00 4.284084e-01 4.298070e+00 3.070153e+00 5.353993e+00 6.390219e-01 -4.380288e+00 1.420966e+00 6.187008e+00 -2.273884e+01 -7.248269e-01 8.288381e-01 -8.747563e-01 3.004990e-01 1.410234e-01 -1.431766e-01 4.570203e-01 -2.451877e-02 2.306057e-01 4.352572e-01 1.196081e-01 4.844010e-01 4.413316e-01 -4.549843e-01 6.674335e-01 -3.108400e-01 1.919780e-01 -8.059268e-02 -1.609251e-01 3.417127e-02 -4.951633e-01 4.401518e-01 6.986403e-02 -1.207502e-01 1.406569e-01 8.221195e-01
<VARIANCE> 39
 6.611242e+00 6.990771e+00 2.159229e+01 1.919277e+01 3.193764e+01 2.161206e+01 1.993117e+01 2.696450e+01 1.789174e+01 2.097099e+01 1.922668e+01 1.758493e+01 6.331799e+00 1.184837e+00 1.145886e+00 1.949513e+00 1.264583e+00 2.351863e+00 1.837399e+00 2.126339e+00 2.210266e+00 2.378158e+00 1.672387e+00 1.541048e+00 1.747538e+00 4.706640e-01 3.631920e-01 3.236904e-01 7.579286e-01 4.512192e-01 4.478413e-01 4.447147e-01 5.130552e-01 6.561755e-01 4.746975e-01 3.991844e-01 4.992095e-01 4.089902e-01 3.153016e-01
<GCONST> 1.034719e+02
<MIXTURE> 4 1.744200e-01
<MEAN> 39
 -5.104860e+00 -4.061817e+00 -5.271407e+00 6.997512e+00 -1.122807e+00 3.608052e+00 4.559978e+00 2.696772e+00 3.400825e+00 -3.843658e+00 5.287069e-01 6.905349e+00 -1.945746e+01 -1.266089e+00 2.992953e+00 -4.160234e-02 5.993572e-01 -1.300510e-02 -7.585627e-01 -7.027415e-02 -2.263490e+00 7.256001e-01 2.783194e-01 -5.323378e-01 1.804546e-01 3.631019e+00 3.726460e-01 4.376106e-01 6.813539e-01 -5.520725e-01 -4.463179e-02 -2.363675e-01 -1.615292e-01 -5.533052e-01 -2.946133e-01 3.186510e-01 -2.844428e-01 -3.987933e-01 1.288009e+00
<VARIANCE> 39
 2.731944e+01 2.872714e+01 2.663852e+01 3.674314e+01 3.902742e+01 2.092284e+01 2.594090e+01 3.323341e+01 1.804084e+01 3.387184e+01 1.560059e+01 2.403807e+01 1.696283e+01 6.886487e+00 6.042546e+00 1.000159e+01 7.402460e+00 3.661653e+00 4.375935e+00 5.490066e+00 4.201270e+00 4.478353e+00 3.008416e+00 4.330731e+00 1.977718e+00 4.923912e+00 8.045661e-01 6.910105e-01 1.274079e+00 1.064143e+00 8.891925e-01 8.039545e-01 9.468822e-01 9.826218e-01 5.826051e-01 7.550529e-01 4.884705e-01 4.740583e-01 4.186637e-01
<GCONST> 1.303091e+02
<MIXTURE> 5 7.569160e-02
<MEAN> 39
 -1.896400e+00 -8.157643e+00 -2.572410e+00 7.295523e+00 -3.190517e+00 3.671868e+00 9.659765e-01 3.251641e+00 2.044274e+00 -6.566324e+00 -1.351002e+00 5.812637e+00 -2.273121e+01 8.557985e-02 5.216248e-01 2.649488e-01 3.702567e-01 1.733910e-01 -5.941264e-02 4.924982e-01 -4.945306e-01 8.457366e-02 1.862157e-01 -9.608398e-02 8.331009e-02 1.539127e-01 -1.560207e-01 -3.196799e-02 -1.671328e-01 -2.529963e-02 2.198625e-01 1.621241e-01 2.810016e-01 1.815667e-01 1.690494e-01 2.009579e-01 3.788863e-01 -4.302007e-02 4.522795e-02
<VARIANCE> 39
 8.053336e+00 5.781462e+00 1.982727e+01 1.565077e+01 1.277771e+01 1.416693e+01 2.291323e+01 2.707464e+01 2.904014e+01 1.144759e+01 9.189350e+00 1.500821e+01 8.105841e+00 2.233870e-01 2.905440e-01 5.571573e-01 7.135480e-01 1.315472e+00 1.223430e+00 2.389011e+00 1.383826e+00 1.807084e+00 1.552045e+00 1.417288e+00 9.654086e-01 4.663279e-02 7.128020e-02 6.131002e-02 6.372882e-02 5.228597e-02 1.677958e-01 1.005608e-01 2.633125e-01 2.654811e-01 1.602465e-01 1.770932e-01 1.830768e-01 1.570114e-01 2.248821e-02
<GCONST> 7.321795e+01
<MIXTURE> 6 1.295549e-01
<MEAN> 39
 1.920923e-01 1.251254e+01 9.844679e-01 7.135032e+00 -2.697140e+00 -3.389635e+00 4.610289e+00 -9.764715e+00 -5.458606e-01 -8.749421e-01 -5.449471e+00 5.644630e+00 -7.468878e+00 1.929231e+00 2.204055e+00 1.698225e+00 -1.910648e+00 -1.403200e+00 -5.761665e-01 9.255490e-01 -3.359255e+00 -9.163198e-01 2.450799e+00 -1.020638e+00 -7.893219e-01 3.708772e+00 -4.546999e-01 -1.595632e+00 -1.441931e-01 -7.693343e-01 3.228765e-01 8.032931e-01 -9.206662e-02 9.441918e-01 3.090689e-01 1.921363e-01 5.197864e-01 -8.316101e-02 -1.062630e-01
<VARIANCE> 39
 2.671419e+01 3.752872e+01 6.485938e+01 9.943716e+01 5.215359e+01 4.186789e+01 6.569638e+01 8.660432e+01 8.296542e+01 5.437180e+01 5.582763e+01 2.210876e+01 2.255389e+01 4.098985e+00 8.434147e+00 7.159518e+00 8.292207e+00 5.299068e+00 8.965617e+00 4.988030e+00 7.646484e+00 8.460322e+00 5.273696e+00 3.624280e+00 4.452481e+00 4.085157e+00 7.154766e-01 9.543999e-01 8.106673e-01 1.207243e+00 1.034603e+00 7.587667e-01 1.524879e+00 2.034212e+00 1.643294e+00 1.331460e+00 8.591340e-01 5.360081e-01 4.839801e-01
<GCONST> 1.452271e+02
<MIXTURE> 7 1.209611e-01
<MEAN> 39
 3.776810e+00 2.264982e+00 -1.205359e+01 -1.332250e+01 4.615303e+00 7.246894e+00 5.978952e+00 -3.302635e+00 4.207982e-01 3.571123e+00 1.622872e+00 -4.559442e-01 -1.347303e+00 4.609755e-01 -1.197665e+00 -7.736026e-01 -1.059363e+00 5.469487e-01 1.985785e-01 3.814840e-01 1.554744e-02 4.873444e-02 5.105355e-01 9.985846e-02 -1.791259e-01 -5.249131e-01 -2.836881e-01 -4.782216e-01 7.360474e-02 4.108574e-01 -3.636009e-01 -1.502054e-01 -7.332762e-02 2.363593e-01 3.579294e-02 -3.245022e-01 6.795925e-02 1.373088e-01 -2.052845e-01
<VARIANCE> 39
 1.945821e+01 3.412266e+01 2.577901e+01 4.165041e+01 3.893592e+01 2.251431e+01 2.448778e+01 2.369407e+01 1.731048e+01 2.174307e+01 3.568800e+01 3.648954e+01 7.331865e+01 2.147902e+00 1.967303e+00 2.218271e+00 8.420885e+00 8.058817e+00 2.600772e+00 2.736500e+00 1.406658e+00 2.374463e+00 2.107014e+00 3.561750e+00 4.161226e+00 1.329127e+01 3.680218e-01 5.831568e-01 4.738862e-01 1.117223e+00 9.106980e-01 4.961362e-01 3.609306e-01 4.017359e-01 4.074555e-01 4.182131e-01 7.408002e-01 1.062743e+00 8.906792e-01
<GCONST> 1.243184e+02
<MIXTURE> 8 8.607425e-02
<MEAN> 39
 5.175853e+00 -6.535223e+00 -1.100943e+01 -6.205825e+00 -4.401389e+00 8.878484e+00 7.677366e+00 5.239089e+00 5.844926e-01 -2.874988e+00 -1.664761e+00 3.994895e-01 -1.545820e+01 -5.899374e-01 -1.496156e-01 8.826025e-01 1.245341e+00 -8.948773e-01 9.122313e-02 -1.219346e-01 1.081151e+00 1.003930e-01 -9.799743e-01 -7.384648e-01 -2.486072e-01 -6.793307e-01 -1.163798e-01 2.984526e-01 1.769622e-01 9.036203e-02 2.704431e-01 -2.355090e-02 -9.900893e-02 -2.119187e-01 8.065363e-02 8.114871e-02 1.339348e-01 5.066391e-02 3.029288e-01
<VARIANCE> 39
 9.861300e+00 6.043221e+00 1.579887e+01 1.224624e+01 3.071993e+01 3.598123e+01 2.888680e+01 2.633228e+01 2.684443e+01 3.429262e+01 2.623121e+01 2.702765e+01 5.274796e+00 4.272343e-01 6.809367e-01 1.040657e+00 1.322666e+00 2.137438e+00 2.404797e+00 2.009248e+00 2.699684e+00 1.688576e+00 1.633482e+00 3.095160e+00 3.553686e+00 1.557941e-01 1.229142e-01 1.741537e-01 4.858267e-01 3.142902e-01 3.341545e-01 4.868635e-01 3.210084e-01 4.163053e-01 4.024040e-01 3.686224e-01 6.531388e-01 6.336007e-01 1.024367e-01
<GCONST> 9.906863e+01
<MIXTURE> 9 9.915908e-02
<MEAN> 39
 -6.598208e-01 -9.179396e+00 -9.651526e-01 5.670116e+00 7.596603e-01 3.577715e+00 2.899671e+00 4.391095e+00 1.991453e+00 -3.534492e+00 1.331740e+00 4.392506e+00 -2.319150e+01 -3.524709e-01 -3.175429e-01 -2.797348e-01 -3.539531e-02 -1.925803e-01 9.641250e-02 -3.908192e-02 -1.553554e-01 5.043292e-02 1.013104e-01 5.794172e-02 -2.997392e-01 -1.107856e-01 -3.152855e-02 1.584239e-01 -9.195504e-02 -3.561638e-02 -7.287411e-02 -1.867426e-01 -7.881046e-02 -3.996006e-02 -1.405537e-01 -2.620198e-02 -4.749747e-02 1.984655e-01 8.008976e-02
<VARIANCE> 39
 5.035839e+00 4.807793e+00 9.900769e+00 1.222229e+01 2.484803e+01 1.446547e+01 3.992976e+01 3.162282e+01 1.411028e+01 2.153818e+01 1.655605e+01 1.501120e+01 5.090509e+00 1.321442e-01 3.456134e-01 3.855088e-01 3.444944e-01 6.898178e-01 8.093422e-01 1.040265e+00 1.955011e+00 1.687693e+00 1.614014e+00 1.434330e+00 1.228033e+00 5.488744e-02 2.187518e-02 6.706933e-02 7.204050e-02 7.751521e-02 9.733382e-02 7.495304e-02 9.893621e-02 2.506469e-01 1.891356e-01 1.633536e-01 1.122948e-01 2.026122e-01 1.594963e-02
<GCONST> 6.750439e+01
<STATE> 3
<NUMMIXES> 9
<MIXTURE> 1 1.234066e-01
<MEAN> 39
 5.042760e+00 5.531351e+00 -8.500864e+00 -1.278738e+01 8.604677e-01 8.604605e+00 4.305667e+00 -6.127546e+00 -3.843112e+00 4.592307e+00 -1.364443e+00 -1.743881e+00 4.334466e+00 -3.206779e-02 -1.018637e-01 -1.486049e-02 -7.100958e-02 4.909568e-01 1.284089e-01 1.868280e-01 -2.586966e-01 8.603862e-02 3.611505e-01 -2.630974e-01 -3.826218e-01 -2.948302e-02 -4.314740e-02 -2.513738e-01 2.120374e-01 5.618442e-01 -2.975344e-02 -2.634814e-01 -2.728310e-01 1.620771e-01 1.317501e-01 -1.794930e-01 6.132065e-02 2.316852e-02 -6.337707e-02
<VARIANCE> 39
 8.606694e+00 2.432381e+01 5.193693e+01 6.426133e+01 8.407699e+01 6.287696e+01 8.662392e+01 9.144094e+01 6.396159e+01 6.412668e+01 5.571294e+01 3.639427e+01 1.042491e+01 5.174870e-01 2.291696e+00 2.719721e+00 3.923557e+00 2.852772e+00 3.664252e+00 5.069710e+00 4.103734e+00 4.154798e+00 2.952566e+00 3.271683e+00 2.918746e+00 9.129648e-01 1.021713e-01 2.028657e-01 3.463988e-01 4.543011e-01 5.242370e-01 6.151122e-01 6.548336e-01 8.036149e-01 5.616404e-01 6.312959e-01 5.685561e-01 5.146301e-01 1.216408e-01
<GCONST> 1.216831e+02
<MIXTURE> 2 1.300206e-01
<MEAN> 39
 7.699292e+00 -1.479471e-01 1.961334e+00 4.700613e+00 -5.279498e-01 7.032968e-01 -1.594532e+00 5.331470e+00 -1.297207e+00 -3.465492e+00 -7.245429e-01 4.720849e-01 -1.186413e+01 -1.279158e+00 -6.910205e-01 3.424177e-01 -2.151342e-01 1.415210e-02 6.876696e-01 -3.415737e-02 2.404070e-01 3.084164e-01 -1.083998e-01 -1.468897e-01 5.847918e-01 -3.678973e-01 -9.687530e-01 -2.569885e-01 8.869927e-02 -2.682633e-01 -1.914849e-01 3.156340e-02 -1.084779e-01 -3.885324e-01 1.901933e-01 2.699739e-01 2.387164e-01 3.004671e-02 1.314215e+00
<VARIANCE> 39
 4.768265e+01 5.155033e+01 8.505917e+01 8.842804e+01 6.088547e+01 6.428195e+01 4.810435e+01 9.087477e+01 5.809532e+01 5.170794e+01 3.930745e+01 3.453005e+01 2.329442e+01 6.749341e+00 4.724096e+00 7.253617e+00 6.383334e+00 6.163647e+00 6.103832e+00 5.302412e+00 7.015487e+00 5.520657e+00 4.241627e+00 3.877775e+00 3.174565e+00 8.245716e+00 6.572324e-01 6.570343e-01 1.021052e+00 1.225068e+00 9.332957e-01 1.019359e+00 1.059701e+00 1.111794e+00 1.078052e+00 7.600824e-01 7.314584e-01 5.799282e-01 5.801967e-01
<GCONST> 1.436460e+02
<MIXTURE> 3 8.630103e-02
<MEAN> 39
 -1.294213e+00 -1.588826e+00 1.130768e+01 3.375501e+00 -8.746620e+00 -7.245422e+00 -2.419569e+00 3.858670e+00 -4.877994e+00 -1.496961e+00 8.949011e+00 -1.391161e+00 7.130158e+00 8.228508e-01 8.812598e-02 3.057057e-01 1.057761e+00 -1.599667e-01 2.382357e-02 -1.791989e-01 -2.624309e-01 -1.363581e-01 -1.958117e-01 -5.839493e-02 2.448058e-01 -1.097886e+00 2.159353e-01 2.304109e-01 -1.542827e-01 1.483757e-01 4.127429e-01 1.455468e-01 1.703027e-01 -1.223941e-01 1.727900e-01 1.109295e-01 -5.835255e-01 1.030258e-01 -5.779619e-01
<VARIANCE> 39
 1.896123e+01 2.919439e+01 6.549187e+01 5.471613e+01 5.979981e+01 3.756152e+01 4.257946e+01 5.798656e+01 6.892641e+01 3.371886e+01 4.274381e+01 2.849710e+01 9.795714e+00 1.511055e+00 2.299516e+00 2.580120e+00 2.602757e+00 4.043188e+00 3.054582e+00 3.070273e+00 2.419124e+00 2.957413e+00 2.729609e+00 3.415711e+00 2.195287e+00 2.344584e+00 2.354240e-01 2.484791e-01 4.146558e-01 4.341931e-01 7.199994e-01 5.580606e-01 5.559651e-01 5.616778e-01 5.863461e-01 4.526674e-01 4.830105e-01 4.605034e-01 1.962049e-01
<GCONST> 1.203812e+02
<MIXTURE> 4 1.179456e-01
<MEAN> 39
 9.952224e-01 -3.889612e+00 -7.259825e+00 -3.953170e+00 6.417478e+00 8.025094e-02 -2.669518e+00 5.096213e+00 4.812110e+00 2.410411e+00 -2.963032e+00 -3.736476e+00 6.190679e+00 7.943872e-02 -5.745993e-01 5.353724e-02 8.502737e-01 1.970461e-01 -3.492322e-01 1.398906e-01 1.028380e+00 6.608398e-02 -6.652803e-01 -3.760735e-01 3.636592e-01 -2.735014e-01 -5.689725e-02 4.348197e-01 4.005593e-01 1.465781e-01 -3.427135e-01 6.619048e-02 3.362176e-01 -3.214852e-01 -3.328395e-01 -2.302928e-01 1.351572e-01 1.879913e-01 -4.545583e-01
<VARIANCE> 39
 4.454362e+01 3.042675e+01 6.287955e+01 7.305861e+01 6.547860e+01 6.286526e+01 8.812121e+01 9.271858e+01 7.328667e+01 6.121959e+01 5.935130e+01 3.957630e+01 3.316444e+01 4.033507e+00 4.412995e+00 5.716769e+00 8.818900e+00 6.519490e+00 6.734270e+00 7.664036e+00 9.116975e+00 5.948667e+00 5.754397e+00 4.654168e+00 4.790723e+00 6.029229e+00 4.250937e-01 5.836662e-01 7.403970e-01 1.115752e+00 9.479408e-01 1.115449e+00 1.343493e+00 1.196444e+00 1.112361e+00 1.048031e+00 7.974970e-01 8.374368e-01 4.722529e-01
<GCONST> 1.455319e+02
<MIXTURE> 5 1.223014e-01
<MEAN> 39
 3.491036e+00 8.537433e+00 7.657145e+00 7.262954e+00 -5.094943e+00 -6.093831e+00 2.120216e+00 -8.315900e+00 -2.823559e+00 3.450620e+00 -3.828584e+00 -1.737502e+00 -2.006469e+00 1.547971e-01 8.111721e-01 2.291037e-01 4.103943e-01 -1.941398e-01 1.696560e-03 -6.390308e-03 -5.911546e-01 1.880529e-01 9.558777e-02 -6.755142e-02 2.146256e-01 -8.010900e-01 -4.617191e-02 -5.058632e-01 -2.271084e-01 -3.948057e-01 2.918726e-01 3.583608e-01 -2.777124e-01 6.107786e-01 -3.931532e-02 -2.857074e-01 2.335837e-01 -6.208252e-02 2.149543e-01
<VARIANCE> 39
 4.516533e+01 3.203765e+01 7.512355e+01 6.458791e+01 7.132668e+01 8.050600e+01 5.913601e+01 8.083690e+01 5.810870e+01 5.457067e+01 6.654607e+01 4.905241e+01 2.272020e+01 7.538954e-01 3.003865e+00 2.173209e+00 2.825678e+00 3.973355e+00 3.662613e+00 4.294335e+00 6.256134e+00 2.864215e+00 4.855697e+00 3.751924e+00 2.025533e+00 1.036981e+00 1.093785e-01 4.428354e-01 5.037050e-01 5.415509e-01 7.088200e-01 6.855379e-01 6.250391e-01 8.541385e-01 5.391486e-01 7.619117e-01 5.153993e-01 5.041094e-01 1.622704e-01
<GCONST> 1.274114e+02
<MIXTURE> 6 1.252045e-01
<MEAN> 39
 4.149487e+00 1.812951e+00 3.123294e+00 3.607031e+00 -5.280662e+00 2.816709e+00 -4.262434e+00 -7.345477e+00 -5.027033e+00 1.182219e+00 4.756233e+00 -4.398142e-01 1.174680e+00 7.407922e-01 -1.314848e-01 -7.011090e-01 -1.296918e+00 1.250042e-01 2.531175e-01 9.711389e-02 6.739526e-01 -4.137480e-01 5.123730e-01 3.713404e-01 -8.755114e-01 4.944510e-01 -3.441741e-01 -3.096031e-01 -3.066881e-01 -8.931621e-02 2.859828e-01 -5.095572e-02 3.391027e-01 5.875541e-01 4.482246e-01 -9.866142e-02 -4.003596e-01 7.411219e-02 -6.775446e-02
<VARIANCE> 39
 3.901910e+01 5.311729e+01 1.601309e+02 8.570302e+01 8.041587e+01 1.078078e+02 7.442863e+01 1.011186e+02 6.352954e+01 5.874342e+01 7.371809e+01 4.075774e+01 2.274872e+01 4.817580e+00 6.364630e+00 8.441441e+00 8.699352e+00 9.749941e+00 7.836814e+00 6.644760e+00 1.182786e+01 8.427508e+00 5.664404e+00 5.879734e+00 4.514499e+00 4.808742e+00 4.871894e-01 7.033556e-01 1.161597e+00 1.098582e+00 1.234804e+00 1.256357e+00 1.139293e+00 1.559894e+00 1.256479e+00 9.578250e-01 9.474320e-01 7.703279e-01 4.423263e-01
<GCONST> 1.505677e+02
<MIXTURE> 7 1.267955e-01
<MEAN> 39
 -1.115670e+00 -5.525965e+00 -6.252761e+00 -7.995290e+00 7.514441e+00 -4.662593e+00 3.375241e+00 7.528904e+00 3.309103e+00 -1.747199e+00 -3.166580e+00 -6.305412e+00 1.197525e+01 1.160155e-01 3.906097e-02 1.499275e-01 8.681999e-03 1.154098e-01 -1.695333e-01 -3.017823e-01 2.727763e-01 -1.464628e-02 -2.679978e-01 2.529677e-01 -3.416134e-02 -8.744734e-02 1.138417e-01 1.501708e-01 2.966930e-01 2.841196e-01 -2.691357e-01 1.055607e-01 -3.078148e-01 -2.868872e-01 -2.760994e-02 1.689343e-01 5.043972e-02 2.226695e-01 -2.966072e-01
<VARIANCE> 39
 1.334577e+01 1.168335e+01 4.105323e+01 2.729707e+01 3.784264e+01 4.581311e+01 6.914689e+01 5.795301e+01 5.402782e+01 5.618766e+01 4.438590e+01 3.185268e+01 4.450026e+00 4.035549e-01 6.291048e-01 2.399453e+00 1.417525e+00 2.548503e+00 2.061494e+00 3.414250e+00 2.728739e+00 2.371889e+00 2.062001e+00 2.198527e+00 1.806573e+00 4.193248e-01 7.179680e-02 1.445729e-01 2.101124e-01 2.569341e-01 2.827106e-01 2.721650e-01 4.076567e-01 5.841929e-01 4.577012e-01 3.982952e-01 3.227383e-01 3.371274e-01 7.074824e-02
<GCONST> 1.040533e+02
<MIXTURE> 8 9.239432e-02
<MEAN> 39
 -1.132021e+01 -4.883925e+00 4.882381e+00 4.026454e+00 -2.114377e+00 4.729057e+00 -2.869481e+00 2.949257e+00 4.493887e+00 -3.373191e+00 4.257473e-01 5.101503e+00 1.187487e+00 -4.309904e-01 4.789811e-01 3.569565e-01 -4.899758e-01 -3.236552e-01 -4.794086e-01 -6.494806e-01 -9.455395e-01 -7.258712e-01 1.070598e-02 7.055379e-01 -4.740979e-01 2.545239e+00 1.558061e+00 6.697989e-01 -5.132867e-01 -4.050688e-01 -4.153088e-02 -4.771590e-01 1.043104e-01 -1.701389e-01 -6.551843e-01 2.656700e-01 1.766942e-01 -5.848916e-01 -5.608313e-01
<VARIANCE> 39
 6.505353e+01 8.056699e+01 1.318795e+02 1.000901e+02 7.753967e+01 6.890629e+01 5.910033e+01 8.191347e+01 6.843476e+01 4.342270e+01 4.195227e+01 2.874954e+01 4.346438e+01 1.314563e+01 8.212236e+00 9.347681e+00 8.853941e+00 6.775681e+00 7.273008e+00 7.475269e+00 8.423826e+00 9.400113e+00 4.883636e+00 4.567883e+00 4.419960e+00 9.519160e+00 8.491650e-01 1.472359e+00 1.505705e+00 1.933522e+00 1.639060e+00 1.427075e+00 1.391962e+00 1.502818e+00 1.343686e+00 1.029570e+00 8.201565e-01 8.281516e-01 8.341751e-01
<GCONST> 1.545211e+02
<MIXTURE> 9 7.562120e-02
<MEAN> 39
 -3.621541e-01 -3.315151e+00 6.113205e+00 1.432841e-01 -2.465429e+00 -6.888737e+00 -4.018391e+00 2.901903e+00 -1.198887e+00 -1.984956e-01 2.548851e+00 -3.808950e+00 7.735881e+00 8.309793e-02 6.971885e-02 -4.893045e-01 -7.538518e-02 3.057764e-02 -5.523676e-01 3.586212e-01 -1.733669e-01 5.443521e-01 1.454397e-01 -1.001829e-01 1.567103e-01 1.122760e-01 6.563492e-02 1.956804e-01 -1.490965e-01 3.282585e-02 1.101721e-01 1.100639e-01 2.337005e-01 -2.857444e-01 -5.572317e-02 9.553267e-03 -1.018343e-01 -3.999364e-02 -1.976929e-01
<VARIANCE> 39
 1.065694e+01 1.574336e+01 4.211209e+01 5.508533e+01 6.669666e+01 3.793504e+01 5.499974e+01 5.726520e+01 6.932353e+01 3.166223e+01 4.895472e+01 5.416996e+01 7.389689e+00 9.252677e-01 2.245782e+00 5.617538e+00 3.322170e+00 3.850666e+00 3.198447e+00 3.487306e+00 7.144360e+00 3.853549e+00 2.867403e+00 2.719312e+00 3.078260e+00 1.441054e+00 1.413372e-01 3.312541e-01 4.077639e-01 4.400535e-01 4.959303e-01 5.595664e-01 6.015777e-01 8.951878e-01 5.041117e-01 3.976389e-01 4.089992e-01 5.691438e-01 1.790878e-01
<GCONST> 1.208289e+02
<STATE> 4
<NUMMIXES> 9
<MIXTURE> 1 8.637671e-02
<MEAN> 39
 1.296330e+01 6.489154e+00 -1.467968e+01 -1.161056e+00 -1.095973e+01 1.411835e+01 1.327224e+00 -5.676730e-01 -1.127490e+01 -1.351924e+00 6.023770e+00 1.012206e+01 -5.138263e+00 3.452630e-01 -8.451686e-02 -5.415843e-01 -3.632928e-01 6.192341e-01 -1.261840e-02 2.299359e-01 -2.394986e-01 -3.105148e-01 5.306652e-01 -2.537115e-01 1.658947e-01 1.040300e-01 -6.204125e-01 -3.798700e-01 6.655766e-01 1.736806e-01 6.925640e-01 -9.101392e-02 -3.101116e-01 -1.584723e-01 6.776070e-01 -4.138204e-02 -2.505571e-01 -2.646456e-01 -3.963853e-02
<VARIANCE> 39
 1.055613e+01 3.681572e+01 3.858084e+01 5.544038e+01 1.102407e+02 5.917997e+01 7.409032e+01 6.633430e+01 7.695827e+01 3.393314e+01 5.183564e+01 2.211155e+01 1.166934e+01 2.281079e+00 2.232293e+00 4.559372e+00 2.900634e+00 1.354750e+01 5.129660e+00 5.532637e+00 6.551085e+00 9.230920e+00 3.888125e+00 3.696027e+00 2.398251e+00 1.833922e+00 6.902620e-01 3.908746e-01 9.323188e-01 4.071898e-01 1.090777e+00 8.259733e-01 6.659996e-01 1.065494e+00 1.239221e+00 6.473072e-01 8.721524e-01 4.506415e-01 1.227946e-01
<GCONST> 1.323927e+02
<MIXTURE> 2 1.297080e-01
<MEAN> 39
 -2.657985e+01 7.564205e-01 6.174120e+00 1.485252e+00 2.805613e+00 2.493626e+00 1.917453e+00 5.659321e+00 3.998327e+00 -2.780404e+00 2.803031e+00 7.920721e+00 -2.630234e+00 8.771449e-03 -4.412749e-01 -5.273250e-01 1.097420e-01 4.529832e-01 3.112830e-01 6.084630e-02 -3.837531e-02 1.299479e-01 2.647395e-01 -2.455933e-01 -4.719761e-02 -5.611079e-01 8.561870e-01 1.235519e-01 -2.193820e-02 6.474316e-02 -4.920570e-02 -1.534160e-01 -1.636934e-01 -1.948249e-01 -1.769754e-01 -7.252135e-02 -6.469592e-02 -8.574907e-02 -9.231983e-02
<VARIANCE> 39
 1.306082e+01 4.903933e+01 3.050756e+01 4.416180e+01 4.957574e+01 4.009946e+01 3.302524e+01 2.878523e+01 1.803615e+01 1.841451e+01 2.980441e+01 1.961392e+01 1.167695e+01 5.719015e+00 2.671902e+00 2.108019e+00 2.300020e+00 1.990517e+00 3.286619e+00 3.093728e+00 2.523052e+00 2.131648e+00 1.665819e+00 2.272637e+00 1.178338e+00 1.979956e+00 5.765516e-01 7.286506e-01 3.859037e-01 6.080899e-01 3.771663e-01 7.422286e-01 6.297455e-01 4.989820e-01 4.234004e-01 2.998276e-01 4.784639e-01 2.456168e-01 2.132907e-01
<GCONST> 1.151071e+02
<MIXTURE> 3 1.292405e-01
<MEAN> 39
 -1.472303e+00 9.114921e+00 -1.256756e+00 7.238571e+00 1.237975e+01 -7.455224e+00 8.729895e-01 -1.317218e+01 6.467055e+00 1.324076e+00 -6.413138e+00 2.713848e+00 -7.645003e+00 -1.979579e-01 -1.776280e-02 1.059640e+00 7.338916e-01 -2.971190e-01 4.921570e-01 3.231361e-01 -2.160310e-01 -2.339854e-01 -1.320596e+00 4.952580e-01 7.278788e-01 -1.807061e+00 -5.988397e-02 -5.634314e-01 3.531927e-02 -4.126274e-01 -5.088000e-01 1.941109e-01 8.067611e-02 6.041687e-01 -7.922611e-02 -8.441506e-02 5.436538e-02 4.147969e-04 4.047054e-02
<VARIANCE> 39
 3.099213e+01 3.769501e+01 6.913904e+01 5.308767e+01 5.665873e+01 6.704256e+01 7.398114e+01 5.129027e+01 1.244809e+02 6.579639e+01 4.864278e+01 3.105762e+01 3.203807e+01 7.865045e-01 4.943141e+00 5.524320e+00 4.020167e+00 5.307521e+00 3.309027e+00 5.415854e+00 7.025019e+00 5.415943e+00 5.500663e+00 3.119482e+00 2.657170e+00 5.541590e-01 1.808107e-01 3.671387e-01 8.321841e-01 8.301691e-01 5.686948e-01 6.969675e-01 1.061642e+00 9.543358e-01 1.096643e+00 8.847435e-01 5.199436e-01 5.010723e-01 8.058151e-02
<GCONST> 1.312237e+02
<MIXTURE> 4 1.072443e-01
<MEAN> 39
 -1.228096e+00 3.222280e+00 3.727774e+00 3.398238e+00 -1.383506e+00 -8.630161e-01 -1.573459e+00 -4.140322e-01 -1.419716e-03 -2.003694e+00 2.012614e+00 5.360818e+00 -8.577426e+00 -2.316590e+00 -5.489321e-01 3.204676e-02 -6.157539e-01 4.798361e-01 -8.611748e-02 -1.355790e-01 6.201001e-01 1.294622e+00 1.809575e-01 -1.551939e-01 3.282486e-01 1.218572e+00 -9.851938e-01 -3.511155e-01 -1.460297e-01 -4.035069e-01 -5.206154e-02 2.040397e-01 2.157356e-01 8.293077e-02 1.941099e-01 2.530725e-01 -1.624918e-01 -8.273266e-02 8.520393e-01
<VARIANCE> 39
 9.638208e+01 6.458982e+01 1.196033e+02 3.549259e+01 5.366799e+01 7.357098e+01 6.674839e+01 4.786917e+01 4.812396e+01 3.215608e+01 3.359249e+01 2.748487e+01 8.998140e+01 1.231144e+01 8.059229e+00 9.585517e+00 5.383955e+00 5.274090e+00 1.019061e+01 6.963054e+00 7.509097e+00 7.217256e+00 7.681719e+00 4.221538e+00 3.262973e+00 6.703787e+00 9.096274e-01 8.546249e-01 1.096398e+00 7.969341e-01 1.472491e+00 1.094023e+00 9.323430e-01 7.890498e-01 5.828116e-01 8.652198e-01 5.057406e-01 4.261653e-01 9.361335e-01
<GCONST> 1.463101e+02
<MIXTURE> 5 9.643307e-02
<MEAN> 39
 -1.662572e+00 -4.203582e+00 -1.997492e+00 3.251740e+00 5.373453e-01 -2.686287e+00 4.111389e+00 2.868786e+00 4.781023e+00 -2.094444e+00 -2.702332e+00 4.571970e+00 -9.342611e+00 2.401162e-02 -1.138445e-01 -1.218744e-01 7.214111e-02 -2.246988e-01 -4.134099e-01 2.915355e-01 2.442499e-01 -2.179386e-01 -2.112033e-01 1.748459e-01 2.176167e-02 -4.770242e-01 -1.600551e-02 2.680173e-01 1.076834e-01 -4.930604e-02 1.005659e-01 -1.557151e-01 -2.263226e-01 -3.027272e-01 1.324502e-02 9.307120e-02 -1.765910e-02 -8.608969e-02 7.237199e-02
<VARIANCE> 39
 1.492000e+01 2.321191e+01 1.833849e+01 3.141167e+01 2.335251e+01 5.240223e+01 3.211880e+01 5.554397e+01 5.008058e+01 2.903669e+01 2.376122e+01 2.370669e+01 2.155663e+02 2.286958e-01 5.391537e-01 1.284885e+00 1.628514e+00 1.737570e+00 2.256682e+00 1.623806e+00 2.046019e+00 2.083129e+00 1.902343e+00 1.682672e+00 1.211865e+00 1.634689e-01 7.577711e-02 9.649144e-02 1.480703e-01 1.994599e-01 2.525621e-01 2.644284e-01 3.826738e-01 2.867200e-01 3.077778e-01 3.254580e-01 2.189827e-01 1.942396e-01 8.778269e-02
<GCONST> 9.770918e+01
<MIXTURE> 6 8.379229e-02
<MEAN> 39
 -1.688175e+00 -1.810390e+00 5.545421e+00 2.982387e+00 -9.581022e-01 -6.575516e+00 2.691363e+00 3.380648e+00 -4.410914e+00 -7.660994e+00 -2.414544e+00 2.947874e+00 -1.191940e+01 4.498215e-01 -7.752272e-01 -1.194201e-01 5.157307e-01 -5.026602e-01 5.475533e-01 9.603158e-02 7.764637e-01 -4.298993e-01 2.745292e-01 3.435324e-01 1.797756e-01 -1.123167e+00 -4.546435e-01 1.490163e-02 -1.473065e-01 -1.790426e-01 9.911476e-02 4.675086e-01 -2.651320e-01 -2.493214e-01 5.436557e-01 5.355480e-01 3.765598e-01 2.958956e-01 4.627753e-01
<VARIANCE> 39
 4.765423e+01 2.741172e+01 8.705489e+01 3.184965e+01 2.441542e+01 1.476889e+02 4.612164e+01 6.211209e+01 6.298506e+01 1.941245e+01 2.843544e+01 1.948849e+01 8.764267e+01 2.305535e+00 2.506171e+00 7.653085e+00 2.687457e+00 1.975160e+00 4.004483e+00 3.877645e+00 4.596356e+00 5.243081e+00 2.786381e+00 2.676485e+00 1.610521e+00 1.245476e+00 7.078871e-01 3.054540e-01 8.595912e-01 5.407702e-01 6.527172e-01 8.963637e-01 8.403491e-01 6.065856e-01 1.049239e+00 4.888020e-01 3.753152e-01 3.100738e-01 4.885071e-01
<GCONST> 1.278759e+02
<MIXTURE> 7 1.536078e-01
<MEAN> 39
 -8.607107e-02 3.485257e+00 -9.865828e+00 -4.814956e+00 5.057385e+00 -9.533347e-01 2.863228e+00 -8.809123e+00 6.987028e+00 1.068878e+01 -3.914431e+00 1.405085e-01 5.511739e+00 -7.687321e-02 -1.317866e-01 1.330987e-01 7.618016e-01 2.537084e-01 8.567075e-02 -5.195565e-01 -1.054885e+00 1.024829e-01 1.732568e-01 -3.641575e-01 -6.216777e-02 -2.916657e-01 7.164388e-03 1.823401e-02 4.057822e-01 4.441671e-01 -7.728972e-03 8.724228e-03 -2.846479e-01 3.297429e-01 -1.126711e-01 -6.866548e-01 2.889946e-01 2.515312e-01 -5.625504e-01
<VARIANCE> 39
 2.431676e+01 2.982412e+01 4.492231e+01 6.764515e+01 8.966495e+01 1.024685e+02 7.888454e+01 8.286092e+01 7.438178e+01 7.187667e+01 5.259733e+01 3.533601e+01 9.752063e+00 1.255875e+00 2.090069e+00 2.129560e+00 4.677513e+00 5.090899e+00 3.995302e+00 8.453745e+00 6.828118e+00 4.022938e+00 6.940662e+00 2.586208e+00 2.679110e+00 3.498823e+00 3.936618e-01 3.694739e-01 4.278112e-01 5.652919e-01 8.098909e-01 6.528695e-01 1.004454e+00 1.152079e+00 6.467241e-01 1.021474e+00 5.699602e-01 3.711491e-01 2.474143e-01
<GCONST> 1.322290e+02
<MIXTURE> 8 1.337491e-01
<MEAN> 39
 -1.035725e+01 -5.447972e+00 -2.233312e-01 1.843947e+00 4.792561e+00 7.100448e+00 -5.460875e+00 3.269776e-02 5.255119e+00 -2.657305e+00 1.544526e+00 5.587110e+00 -7.902230e-01 4.933755e-01 1.420055e+00 -1.439314e+00 -1.406017e+00 -7.516816e-01 -7.171668e-01 8.154544e-01 -4.707728e-02 3.025219e-01 3.865212e-01 1.378538e-01 1.756000e-01 1.092116e+00 9.583518e-01 4.844429e-01 -2.942370e-01 8.542121e-02 -3.630685e-01 -5.076424e-01 7.798179e-01 3.787364e-03 -6.113327e-01 2.207622e-01 -1.022501e-01 -1.467685e-01 -4.246807e-01
<VARIANCE> 39
 1.155485e+02 7.758508e+01 9.625202e+01 6.541623e+01 5.910367e+01 7.795865e+01 7.810301e+01 4.951967e+01 5.498832e+01 3.119128e+01 5.068309e+01 2.949423e+01 2.437175e+01 2.433597e+01 8.248696e+00 9.331553e+00 5.606124e+00 7.082945e+00 7.448272e+00 7.570960e+00 4.719291e+00 8.370720e+00 3.973402e+00 7.370647e+00 3.701895e+00 7.422106e+00 1.578700e+00 1.514039e+00 1.268332e+00 1.223485e+00 1.366611e+00 1.588005e+00 1.334806e+00 1.166311e+00 1.001614e+00 1.081205e+00 9.663529e-01 5.786651e-01 5.960447e-01
<GCONST> 1.512977e+02
<MIXTURE> 9 7.984634e-02
<MEAN> 39
 -1.863320e+00 -2.923011e+00 4.409574e+00 3.297055e+00 1.489673e+00 -5.307445e-02 7.253674e-03 -2.472924e+00 1.098712e+00 -4.739240e+00 -1.070092e+00 6.643571e+00 -1.455905e+01 1.033347e+00 -1.635258e+00 -9.161597e-02 -5.725460e-02 -7.455239e-01 4.619218e-01 -8.115057e-01 1.166341e+00 -9.200972e-01 -1.331968e+00 -5.928964e-01 -4.168125e-01 -2.240013e+00 -1.181454e-01 2.459745e-01 -4.812920e-01 1.429899e-01 3.044989e-01 -8.755071e-02 1.075049e-01 5.301072e-02 -3.276884e-02 1.471803e-01 2.534146e-02 -2.715108e-01 3.578687e-01
<VARIANCE> 39
 4.632467e+01 2.156569e+01 1.119794e+02 5.455876e+01 4.053261e+01 1.053280e+02 3.322545e+01 6.419944e+01 7.700806e+01 6.493887e+01 3.797939e+01 2.251986e+01 2.670284e+01 4.421932e+00 3.190018e+00 6.682993e+00 4.684056e+00 7.827601e+00 8.883477e+00 4.544783e+00 4.786932e+00 6.459761e+00 4.548555e+00 2.521971e+00 2.175972e+00 1.258783e+00 3.196677e-01 3.586166e-01 1.158011e+00 7.156599e-01 6.820350e-01 8.161228e-01 7.148401e-01 6.739978e-01 9.795636e-01 1.185005e+00 5.014427e-01 3.767153e-01 1.284026e-01
<GCONST> 1.333649e+02
<TRANSP> 5
 0.000000e+00 1.000000e+00 0.000000e+00 0.000000e+00 0.000000e+00
 0.000000e+00 9.403266e-01 5.967340e-02 0.000000e+00 0.000000e+00
 0.000000e+00 0.000000e+00 9.939565e-01 6.043457e-03 0.000000e+00
 0.000000e+00 0.000000e+00 0.000000e+00 9.747733e-01 2.522662e-02
 0.000000e+00 0.000000e+00 0.000000e+00 0.000000e+00 0.000000e+00
<ENDHMM>
~h "M002"
<BEGINHMM>
<NUMSTATES> 5
<STATE> 2
<NUMMIXES> 9
<MIXTURE> 1 6.549984e-02
<MEAN> 39
 -1.596117e+00 -4.904895e-01 -2.534958e+00 6.101220e+00 5.773150e+00 -3.370022e+00 1.073573e+01 -9.295512e-03 5.453656e-01 -2.312942e+00 -3.096223e+00 4.545196e+00 -2.636790e+01 -2.199007e-01 3.145181e-01 4.708539e-02 1.130143e-01 -1.989965e-01 3.070132e-01 -3.205154e-01 -2.331247e-01 -9.395142e-02 5.150739e-02 1.687854e-01 -7.561583e-02 1.174243e+00 -1.351368e-01 1.918791e-01 7.727182e-02 -1.646343e-01 3.407541e-02 7.425939e-02 -1.501844e-01 2.512441e-02 1.569421e-02 1.610084e-01 1.117226e-01 6.701452e-04 7.780991e-01
<VARIANCE> 39
 1.919242e+01 2.117344e+01 1.725790e+01 2.565447e+01 3.952152e+01 2.469997e+01 4.270825e+01 2.748327e+01 1.930685e+01 2.738047e+01 2.705857e+01 2.075982e+01 8.588544e+01 2.545189e+00 1.628703e+00 2.979182e+00 1.843328e+00 2.839389e+00 3.256387e+00 1.871897e+00 1.776957e+00 2.118574e+00 2.174915e+00 1.916697e+00 1.384221e+00 4.717229e+00 3.231603e-01 1.546527e-01 2.531919e-01 4.742232e-01 3.012209e-01 3.929416e-01 3.476416e-01 2.291232e-01 3.102385e-01 4.500252e-01 2.792238e-01 2.163585e-01 8.781572e-01
<GCONST> 1.107041e+02
<MIXTURE> 2 8.211421e-02
<MEAN> 39
 -1.199508e+00 -2.137245e+00 -2.011820e+00 1.650284e+00 5.890430e+00 4.944260e+00 -3.630091e-01 -2.483481e+00 6.254876e-01 2.636659e+00 2.740716e+00 -3.422303e-01 -4.388272e-01 -1.917386e-03 5.873838e-03 3.685202e-02 -9.983073e-02 -1.114384e-01 -4.829496e-02 1.227382e-01 1.478601e-01 1.024705e-01 -1.993675e-02 -6.371509e-02 -2.179977e-02 -1.686305e-02 1.611453e-02 3.349406e-02 4.084744e-02 -2.279363e-02 -9.322134e-02 -1.160521e-01 -2.583830e-02 1.165097e-02 -2.997269e-02 -6.237041e-02 -3.701315e-02 2.082360e-03 1.460249e-03
<VARIANCE> 39
 7.934316e-01 2.020283e+00 1.515476e+01 6.261680e+00 8.912533e+00 1.154400e+01 1.301289e+01 8.453327e+00 1.134601e+01 1.256050e+01 1.426845e+01 1.192461e+01 8.302538e-01 8.888656e-02 2.099663e-01 7.465134e-01 5.015094e-01 7.984803e-01 1.157079e+00 1.273951e+00 1.037354e+00 1.240615e+00 1.332497e+00 1.577375e+00 1.213976e+00 3.408687e-02 1.768095e-02 3.837758e-02 1.436150e-01 1.046774e-01 1.809444e-01 2.502887e-01 2.839521e-01 2.075560e-01 2.590680e-01 3.145470e-01 3.798561e-01 3.054243e-01 5.276782e-03
<GCONST> 6.163067e+01
<MIXTURE> 3 1.310665e-01
<MEAN> 39
 3.480325e+00 -2.399961e+00 -2.060738e+01 -2.148278e+00 -8.611987e-01 1.408136e+01 -5.186658e+00 2.522698e+00 -5.569739e+00 5.578118e+00 -1.536647e+00 2.372046e-01 5.532273e+00 1.090516e-02 1.097311e-02 -1.770980e-03 -1.682958e-03 -2.569267e-02 8.356686e-03 -7.780741e-03 -1.931371e-02 -3.777748e-02 -4.939343e-03 2.494303e-02 3.027625e-02 1.087504e-02 -6.625709e-03 7.115307e-03 5.279839e-02 -5.832684e-03 1.271521e-04 -2.810132e-02 1.979211e-02 -7.583220e-03 1.443736e-02 -1.016240e-02 4.110589e-03 -1.155906e-02 -1.157988e-02
<VARIANCE> 39
 8.401331e+00 6.159277e+00 4.136290e+01 2.501241e+01 5.173108e+01 1.637635e+01 2.780702e+01 3.511112e+01 1.358692e+01 1.859019e+01 1.171888e+01 1.332828e+01 6.333145e+00 9.222607e-02 1.996516e-01 9.362946e-01 6.396596e-01 1.030816e+00 1.089453e+00 1.344890e+00 1.030627e+00 1.057130e+00 1.188673e+00 1.309889e+00 1.234620e+00 7.904851e-02 1.366023e-02 3.712055e-02 1.636734e-01 1.259402e-01 2.048024e-01 1.923002e-01 2.599942e-01 2.092624e-01 2.174009e-01 2.305716e-01 2.575817e-01 2.498418e-01 8.203801e-03
<GCONST> 7.457216e+01
<MIXTURE> 4 1.531173e-01
<MEAN> 39
 -5.265049e-01 8.814796e-01 4.405884e+00 7.599082e-02 -3.271334e-01 -2.943909e+00 1.641566e+00 -2.368956e-01 1.029655e+00 -1.245995e+00 8.200675e-02 -2.844536e-01 -1.084750e+00 7.525743e-02 8.719243e-02 6.619103e-02 2.276482e-01 2.639760e-01 1.748729e-01 1.393225e-01 4.699630e-02 3.388259e-02 8.323514e-02 2.706769e-01 1.716701e-01 3.966301e-02 -6.267960e-02 -8.999465e-02 2.732545e-02 1.630721e-01 2.133706e-01 2.921331e-03 -1.431911e-01 -1.286771e-01 2.723071e-02 -2.947730e-02 6.666737e-02 2.417528e-02 -3.506137e-02
<VARIANCE> 39
 7.302016e-01 1.226692e+00 4.484208e+00 2.571394e+00 4.267114e+00 8.605223e+00 7.718374e+00 8.679838e+00 9.217279e+00 8.285170e+00 7.700267e+00 8.079247e+00 8.285324e-01 7.040115e-02 1.671107e-01 3.978000e-01 4.660415e-01 6.911690e-01 6.757904e-01 9.832619e-01 7.954168e-01 1.289935e+00 1.210511e+00 1.042220e+00 8.007447e-01 3.408687e-02 1.127334e-02 2.983334e-02 7.507370e-02 7.044940e-02 1.015750e-01 1.428620e-01 1.777149e-01 2.059132e-01 2.403741e-01 2.351434e-01 2.231181e-01 1.916124e-01 5.437449e-03
<GCONST> 4.782880e+01
<MIXTURE> 5 9.307349e-02
<MEAN> 39
 -8.800095e-01 7.850682e-01 6.607310e+00 3.212082e+00 2.834810e+00 -3.086416e+00 1.139651e+00 -1.470358e+00 1.526771e-01 -2.044255e+00 1.041157e+00 1.825133e-01 -1.421615e+00 4.457520e-02 1.148195e-01 7.008377e-02 1.675082e-01 1.954402e-01 -3.035626e-02 4.157407e-02 1.348230e-01 2.250221e-01 2.522954e-01 2.493874e-01 2.868351e-01 7.055270e-03 -9.815795e-03 -4.044003e-02 -2.261738e-01 -3.568602e-01 -2.958179e-01 -2.879526e-02 -4.637184e-02 8.981676e-02 2.379887e-01 6.843583e-02 -1.859870e-01 -7.970759e-02 -1.013397e-03
<VARIANCE> 39
 1.077176e+00 2.530054e+00 5.274075e+00 2.145241e+00 4.116304e+00 7.926901e+00 9.478533e+00 7.588060e+00 8.703210e+00 9.146156e+00 8.127746e+00 7.800575e+00 8.285324e-01 6.791321e-02 1.808243e-01 3.972436e-01 4.017116e-01 7.446657e-01 1.007259e+00 9.816364e-01 7.514641e-01 1.131823e+00 1.275302e+00 1.153819e+00 7.453669e-01 3.408687e-02 1.442663e-02 3.588133e-02 6.854250e-02 5.087803e-02 1.054358e-01 1.628485e-01 1.698380e-01 1.551809e-01 2.259658e-01 1.942170e-01 1.738878e-01 1.885139e-01 4.365372e-03
<GCONST> 4.831197e+01
<MIXTURE> 6 1.485546e-01
<MEAN> 39
 -3.146068e+00 -1.349840e+00 7.178680e+00 1.841352e+00 3.945179e+00 -2.880321e+00 4.749436e+00 1.364907e+00 5.068155e+00 -1.482540e+00 1.665277e+00 -2.239747e-02 -3.000463e+00 1.185625e-02 2.296061e-02 4.431756e-02 4.761788e-02 4.588336e-02 1.652541e-02 1.051768e-01 5.098877e-02 -2.544650e-02 -3.663669e-02 -2.787699e-03 5.488307e-02 4.734754e-03 4.427022e-02 5.057580e-02 -3.194839e-04 8.966285e-03 -1.885738e-02 -2.596571e-02 -7.945319e-02 -8.433396e-02 -9.157539e-02 -2.921602e-02 -2.887104e-02 -9.392863e-03 2.009151e-02
<VARIANCE> 39
 9.133803e-01 1.577528e+00 7.450348e+00 4.462540e+00 5.974691e+00 1.193927e+01 8.916267e+00 1.087101e+01 9.748321e+00 9.134497e+00 7.815332e+00 1.062087e+01 8.285324e-01 8.212719e-02 1.941567e-01 4.363344e-01 4.516550e-01 6.704701e-01 1.104006e+00 1.021788e+00 1.344623e+00 1.050429e+00 8.342025e-01 1.020112e+00 1.103053e+00 3.408687e-02 1.812348e-02 3.913293e-02 9.274369e-02 8.927472e-02 1.442768e-01 2.229104e-01 2.182650e-01 2.717309e-01 2.432931e-01 1.802639e-01 2.201362e-01 2.258465e-01 5.538708e-03
<GCONST> 5.433737e+01
<MIXTURE> 7 1.280889e-01
<MEAN> 39
 -1.483285e+00 -3.513416e-01 4.215027e+00 -1.251153e-01 -2.610231e-01 -4.458883e+00 -6.254912e-01 -2.172668e+00 3.517435e-01 -2.647781e+00 -4.183553e-01 -8.360404e-01 -1.637930e+00 -2.556077e-02 -3.251562e-02 -8.894388e-03 -2.027247e-01 -1.992919e-01 -2.460969e-02 8.667722e-02 1.161417e-01 -8.641641e-02 -3.516164e-02 -2.205111e-01 -1.471353e-01 4.550233e-03 8.988085e-02 1.239472e-01 8.961093e-02 1.750315e-01 1.737741e-01 2.102599e-01 2.798387e-01 2.095644e-01 1.277584e-01 2.115398e-01 1.652572e-01 1.464414e-01 4.935405e-02
<VARIANCE> 39
 7.302016e-01 1.474859e+00 5.050105e+00 3.317428e+00 5.493243e+00 7.651685e+00 7.026062e+00 6.445897e+00 1.027072e+01 1.168542e+01 1.079876e+01 8.349342e+00 8.285324e-01 7.817236e-02 2.150734e-01 3.243623e-01 4.553677e-01 5.893934e-01 7.137845e-01 9.217682e-01 9.431295e-01 1.482631e+00 1.417370e+00 1.007329e+00 1.023372e+00 3.408687e-02 1.145831e-02 3.128016e-02 6.520084e-02 9.208073e-02 1.312077e-01 1.490284e-01 1.610341e-01 1.676383e-01 2.625073e-01 3.047841e-01 2.846920e-01 1.908037e-01 4.365372e-03
<GCONST> 5.014439e+01
<MIXTURE> 8 9.125558e-02
<MEAN> 39
 5.780480e+00 4.958534e+00 -6.144196e+00 -6.362523e+00 -1.449742e+01 -2.779098e+00 -4.824569e+00 1.344394e+00 -6.603912e+00 3.616491e-01 -4.634671e+00 7.036800e-01 4.377485e+00 -6.687581e-02 1.460006e-02 2.481280e-01 5.897767e-02 1.154127e-01 -1.064809e-01 1.200460e-01 -5.057514e-05 1.319797e-01 -9.084901e-02 -6.406327e-02 -9.066261e-02 -8.777149e-02 -1.195474e-02 -1.471305e-02 -3.756592e-03 1.960959e-02 4.880119e-02 2.319959e-02 3.526039e-02 1.924284e-02 3.465081e-02 7.901563e-03 1.065562e-02 8.604375e-03 -6.745132e-03
<VARIANCE> 39
 7.207845e+00 3.573072e+00 6.662633e+01 1.178314e+01 2.643813e+01 2.690263e+01 2.216130e+01 3.934813e+01 5.262830e+01 1.877640e+01 2.092129e+01 1.676625e+01 1.025497e+01 8.864433e-02 1.479896e-01 6.047912e-01 3.578080e-01 1.070672e+00 1.142538e+00 1.220559e+00 1.603463e+00 1.222859e+00 1.435140e+00 1.670429e+00 1.336160e+00 6.204066e-02 1.673884e-02 2.722858e-02 1.223987e-01 5.949932e-02 2.073992e-01 2.556803e-01 2.538900e-01 2.903141e-01 2.227886e-01 2.937019e-01 3.559718e-01 3.004008e-01 1.066105e-02
<GCONST> 7.594336e+01
<MIXTURE> 9 1.072251e-01
<MEAN> 39
 -5.943727e-01 7.253357e-01 5.071395e+00 1.773707e+00 2.030624e+00 -2.301713e+00 1.470794e+00 -2.071440e-01 2.665203e+00 -6.288084e-01 8.009391e-01 6.598095e-01 -1.235229e+00 -1.725688e-01 -2.542994e-01 -1.629993e-01 -2.368134e-01 -2.606964e-01 -2.269187e-01 -4.868549e-01 -4.356734e-01 -7.210289e-02 -2.190289e-01 -2.843933e-01 -3.716224e-01 -9.750718e-02 -7.128112e-02 -7.543291e-02 -2.992667e-02 -1.579410e-01 -1.991004e-01 -1.048085e-01 3.194950e-03 -4.564294e-02 -2.706152e-01 -1.632800e-01 -8.281992e-02 -1.398418e-01 -2.519570e-02
<VARIANCE> 39
 7.302016e-01 1.801186e+00 4.517107e+00 2.193743e+00 3.984442e+00 7.322955e+00 8.593932e+00 7.688926e+00 1.044255e+01 1.084799e+01 9.240297e+00 7.617398e+00 8.285324e-01 6.460462e-02 1.361235e-01 4.237355e-01 5.815439e-01 6.829323e-01 8.005260e-01 7.191358e-01 1.010746e+00 1.119480e+00 1.150813e+00 1.250258e+00 1.100356e+00 3.408687e-02 1.312539e-02 3.698543e-02 7.774112e-02 6.434088e-02 7.896435e-02 1.423316e-01 1.880220e-01 1.556825e-01 2.483606e-01 2.735888e-01 2.733208e-01 1.775047e-01 5.249151e-03
<GCONST> 4.882854e+01
<STATE> 3
<NUMMIXES> 9
<MIXTURE> 1 8.946465e-02
<MEAN> 39
 -1.323952e+00 -3.191209e+00 -7.576022e+00 -4.711411e+00 7.393399e+00 1.493927e+00 4.910695e+00 -3.238074e-01 5.352217e+00 8.882397e-01 -6.612555e+00 -7.015280e-02 -9.472605e+00 -1.335150e+00 9.541606e-01 5.670983e-01 5.907153e-01 3.242593e-01 -2.575915e-01 4.092181e-01 -8.389994e-02 1.742944e-01 -4.043900e-01 2.561496e-01 6.147402e-01 1.608113e+00 -8.924617e-03 1.392904e-01 5.721137e-01 2.797008e-01 -3.467960e-01 -1.738206e-01 -2.729779e-01 6.895646e-02 -3.066554e-01 -9.746397e-02 3.996821e-01 1.330244e-01 6.261953e-01
<VARIANCE> 39
 9.357855e+01 5.451849e+01 6.298464e+01 9.791605e+01 8.537934e+01 7.086020e+01 7.995782e+01 7.760493e+01 6.467767e+01 5.590575e+01 5.377211e+01 5.614431e+01 9.692576e+01 7.377428e+00 6.180424e+00 7.251506e+00 7.373724e+00 5.881251e+00 7.135294e+00 7.744650e+00 6.667261e+00 5.188407e+00 4.490436e+00 3.998684e+00 5.358963e+00 7.647258e+00 1.280090e+00 6.761274e-01 8.686623e-01 1.095976e+00 1.113536e+00 1.083666e+00 1.420365e+00 1.165534e+00 9.938648e-01 8.884451e-01 8.130277e-01 8.946201e-01 1.385955e+00
<GCONST> 1.512717e+02
<MIXTURE> 2 8.593552e-02
<MEAN> 39
 -1.512756e+00 -6.936379e+00 -1.011190e+01 -8.471066e+00 5.229270e+00 9.339977e+00 1.711178e+00 2.288207e+00 5.339336e+00 4.704101e+00 -2.994583e+00 -4.932552e+00 1.261676e+01 1.496600e-02 -1.242749e-01 2.557415e-02 2.120940e-01 5.250918e-02 -3.180266e-01 -2.510465e-02 8.413360e-02 5.944262e-02 7.260133e-02 -2.252882e-01 -1.584101e-01 5.977500e-02 5.481499e-02 1.948230e-02 1.118801e-01 5.770190e-02 -6.950217e-02 -1.404281e-01 -2.232826e-01 1.777840e-01 -3.535932e-02 5.983290e-03 -1.889783e-02 7.424137e-02 -9.129292e-02
<VARIANCE> 39
 3.855783e+00 1.422542e+01 1.211948e+01 2.638150e+01 1.667242e+01 2.581394e+01 2.636012e+01 2.523767e+01 2.001728e+01 3.927023e+01 2.023847e+01 2.060339e+01 3.952198e+00 1.359472e-01 2.342034e-01 3.431676e-01 4.445782e-01 5.396118e-01 7.136555e-01 1.056483e+00 1.125719e+00 6.142722e-01 5.823860e-01 8.425594e-01 6.991209e-01 7.234302e-02 2.927195e-02 4.388968e-02 7.581245e-02 6.332001e-02 1.017657e-01 1.030127e-01 2.068403e-01 1.830989e-01 9.741654e-02 1.447294e-01 1.348625e-01 1.182020e-01 1.298649e-02
<GCONST> 6.522476e+01
<MIXTURE> 3 1.242646e-01
<MEAN> 39
 -1.644674e+00 4.994999e+00 3.275658e+00 -1.683141e+00 -8.766884e+00 5.557935e+00 -3.439273e+00 -2.382124e+00 -6.368819e+00 -2.296329e+00 7.829645e+00 2.246482e+00 6.618701e+00 -2.219395e-02 2.022059e-01 4.970864e-02 -3.535288e-01 -9.827168e-02 9.753273e-02 2.258642e-01 -3.380271e-02 -7.993143e-02 -2.950126e-02 -2.365526e-02 1.510626e-01 1.056162e-02 4.749426e-02 -7.931802e-02 -2.191114e-02 1.145025e-01 7.430083e-02 -1.463601e-01 1.201394e-02 5.037098e-02 1.155600e-01 1.277420e-02 -6.975056e-02 -7.934447e-02 -4.452046e-02
<VARIANCE> 39
 3.222846e+01 3.129483e+01 1.473193e+02 1.201343e+02 4.597829e+01 9.309294e+01 2.787074e+01 5.004457e+01 3.932693e+01 6.872815e+01 4.271680e+01 2.818979e+01 7.278218e+00 1.547077e-01 3.628346e-01 4.522360e-01 1.303890e+00 8.039647e-01 1.198626e+00 9.137362e-01 8.929459e-01 1.036654e+00 8.726723e-01 1.011655e+00 9.361596e-01 9.251363e-02 2.810188e-02 4.187011e-02 7.861698e-02 1.071410e-01 1.370042e-01 1.776480e-01 1.418126e-01 1.875599e-01 1.861019e-01 1.582028e-01 2.038857e-01 1.355858e-01 2.087932e-02
<GCONST> 8.492664e+01
<MIXTURE> 4 1.336150e-01
<MEAN> 39
 -3.824519e-01 -7.463218e+00 -8.718430e+00 -7.099744e+00 4.320879e+00 5.891518e+00 -1.651024e+00 5.531672e+00 5.776806e+00 6.284150e+00 -2.266597e+00 -4.691532e+00 1.158460e+01 6.505357e-02 -2.495836e-01 3.107963e-01 4.174299e-01 -9.942782e-02 -5.125836e-01 -1.155317e-01 3.783832e-01 3.223956e-01 -5.173945e-01 -8.188906e-02 1.252096e-02 -6.517392e-02 1.296622e-01 2.715310e-01 2.993063e-01 2.180654e-01 -3.038213e-02 -2.550460e-01 6.305199e-02 -4.176814e-01 -1.282567e-01 -2.926538e-01 1.725529e-01 3.344889e-01 -4.304369e-01
<VARIANCE> 39
 7.258468e+00 1.645906e+01 2.211598e+01 3.274486e+01 3.148105e+01 3.949020e+01 4.268649e+01 4.917822e+01 2.729061e+01 3.667485e+01 3.303864e+01 2.284582e+01 7.898600e+00 7.575483e-01 1.163319e+00 2.413407e+00 2.590626e+00 2.027431e+00 4.428925e+00 4.284067e+00 4.221560e+00 2.666535e+00 3.482759e+00 2.940558e+00 2.889503e+00 1.195825e+00 9.104579e-02 1.573489e-01 2.677566e-01 3.046852e-01 2.883275e-01 3.332867e-01 6.088245e-01 6.485195e-01 4.052037e-01 5.771849e-01 3.976201e-01 4.191717e-01 1.001439e-01
<GCONST> 1.091962e+02
<MIXTURE> 5 1.510253e-01
<MEAN> 39
 2.944873e+00 2.059967e+00 -6.553310e+00 -1.105663e+01 1.982895e+00 1.003461e+01 2.072937e-01 -6.204577e+00 -1.309756e-01 4.965316e+00 -7.920817e-03 1.919150e-01 1.514365e+00 1.291569e-01 -2.377159e-01 -1.793124e-01 -7.466049e-02 4.327663e-02 -2.506483e-01 2.230110e-01 1.031471e-01 4.485514e-02 1.783201e-01 -1.602756e-01 -1.994088e-01 -4.842588e-01 -7.668352e-02 -1.894032e-01 -2.712765e-02 2.726190e-01 1.514798e-02 -2.007905e-01 3.473204e-02 2.546275e-01 1.795253e-01 -6.405152e-02 -5.664008e-02 -9.627006e-02 -1.884442e-02
<VARIANCE> 39
 4.623816e+01 4.044970e+01 5.279494e+01 8.082639e+01 6.154265e+01 5.997169e+01 6.471741e+01 3.416274e+01 6.454971e+01 4.973029e+01 6.758688e+01 5.032164e+01 4.982975e+01 1.153692e+00 1.556233e+00 1.811967e+00 3.030885e+00 2.265630e+00 2.738316e+00 2.671203e+00 3.141159e+00 3.006800e+00 3.086705e+00 2.935137e+00 2.427407e+00 2.822712e+00 2.016109e-01 2.268397e-01 3.412401e-01 5.791983e-01 4.059016e-01 5.395418e-01 4.568180e-01 5.623944e-01 5.082236e-01 5.499510e-01 6.605099e-01 4.223409e-01 2.024758e-01
<GCONST> 1.233367e+02
<MIXTURE> 6 1.231465e-01
<MEAN> 39
 -2.771472e-01 -1.485338e+00 1.817314e+00 5.120409e+00 -6.253447e+00 -9.475984e-01 -7.579860e+00 2.590123e+00 -1.705357e+00 -2.636096e-01 6.325711e+00 -6.342493e-01 7.256221e+00 1.479054e-01 -2.389832e-01 -6.599084e-01 -6.250365e-01 -4.153804e-01 1.259456e+00 -5.338265e-01 -6.427741e-03 -3.861412e-01 4.131707e-01 6.142796e-01 -1.876708e-01 3.994266e-01 3.315506e-04 1.033088e-01 6.363191e-02 -2.405050e-01 3.869004e-01 3.434432e-02 5.664600e-01 -2.534295e-01 3.884442e-02 1.534902e-02 -4.163692e-01 4.204207e-02 -3.570867e-01
<VARIANCE> 39
 1.296686e+01 2.060272e+01 6.271161e+01 4.186844e+01 5.066168e+01 6.607077e+01 4.762589e+01 6.791482e+01 5.832824e+01 5.342843e+01 3.350036e+01 2.737186e+01 7.261154e+00 9.969505e-01 1.236388e+00 3.636544e+00 2.871752e+00 3.364314e+00 4.362899e+00 4.863858e+00 4.801574e+00 3.916925e+00 4.078204e+00 3.501424e+00 2.713003e+00 1.401433e+00 1.676644e-01 1.607662e-01 4.076836e-01 4.044341e-01 4.460718e-01 6.553605e-01 7.064179e-01 8.840206e-01 6.162398e-01 7.209012e-01 5.280004e-01 5.069143e-01 2.557928e-01
<GCONST> 1.213260e+02
<MIXTURE> 7 1.018941e-01
<MEAN> 39
 5.332766e+00 -5.728063e+00 4.341183e+00 3.778694e+00 -1.297685e+00 -5.699613e+00 2.973188e-01 3.399953e+00 4.262706e-01 -1.288449e+00 -1.944339e+00 -1.095038e+00 5.435378e-01 9.332013e-01 2.583592e-01 1.084673e+00 2.918661e-01 3.653567e-01 -5.732901e-01 6.428457e-01 -8.900917e-01 -3.873438e-01 -2.715954e-01 -6.676998e-01 -4.184088e-01 -1.884741e+00 -1.316776e-01 -2.774879e-03 -2.602714e-01 -2.584807e-01 1.963370e-02 3.084755e-01 -8.731309e-03 1.249217e-01 -5.128098e-02 1.918870e-01 -2.929555e-02 -1.788783e-01 9.838127e-02
<VARIANCE> 39
 2.709280e+01 3.243002e+01 6.032193e+01 4.609034e+01 4.920429e+01 3.513126e+01 4.898904e+01 4.733543e+01 7.495029e+01 3.232456e+01 4.595890e+01 4.039730e+01 3.132158e+01 8.720150e-01 1.225111e+00 2.682591e+00 2.766785e+00 2.660022e+00 2.012952e+00 3.049568e+00 3.728560e+00 3.387571e+00 2.385370e+00 2.840184e+00 3.322145e+00 1.420198e+00 1.587229e-01 2.137098e-01 4.142914e-01 5.271807e-01 5.201953e-01 5.000314e-01 7.012286e-01 6.813871e-01 5.306781e-01 4.662728e-01 5.054908e-01 6.770455e-01 2.120725e-01
<GCONST> 1.202076e+02
<MIXTURE> 8 1.309912e-01
<MEAN> 39
 -6.846521e-01 4.174669e+00 6.478961e+00 5.816293e+00 -6.519327e-01 -5.901698e+00 4.114638e+00 -2.659586e+00 -1.940093e+00 -6.456816e-01 -1.202879e+00 2.142561e+00 -5.253932e+00 -9.705357e-02 -6.293775e-02 -3.502442e-01 -5.203775e-01 -8.643792e-01 4.298604e-01 -1.578705e+00 5.099825e-01 -7.780130e-02 3.573248e-01 8.327259e-01 7.617810e-02 2.834821e+00 1.812141e-01 -4.415626e-01 -5.683755e-01 -4.693381e-01 -2.414445e-02 5.661945e-01 -3.157561e-01 1.895218e-01 -3.169642e-02 1.954167e-01 4.655760e-02 -3.301387e-01 -3.753848e-02
<VARIANCE> 39
 7.869445e+01 4.792152e+01 9.753409e+01 6.065168e+01 7.353259e+01 9.163941e+01 8.225507e+01 7.274282e+01 6.990444e+01 5.715438e+01 5.021019e+01 4.352542e+01 7.921048e+01 7.194985e+00 4.839146e+00 1.083394e+01 1.006899e+01 8.724171e+00 8.534299e+00 6.794233e+00 8.180003e+00 7.086185e+00 7.488872e+00 5.398632e+00 4.338208e+00 7.574106e+00 1.181380e+00 7.749320e-01 1.353593e+00 1.243361e+00 1.210034e+00 1.208099e+00 1.490696e+00 1.401490e+00 1.080000e+00 1.199008e+00 6.898574e-01 7.700830e-01 1.214464e+00
<GCONST> 1.535537e+02
<MIXTURE> 9 5.965666e-02
<MEAN> 39
 7.665472e+00 -1.107759e+01 -3.422191e+00 -4.553110e+00 8.075728e+00 4.993285e-01 9.612170e-01 5.188829e+00 3.533942e+00 -8.189150e-02 -7.240998e+00 -6.339087e+00 -9.997926e+00 2.356247e-01 -7.286146e-02 -4.901968e-01 -1.269353e-01 2.133624e-01 5.399860e-02 2.907270e-01 -3.654140e-01 -8.105613e-02 -5.457081e-02 -4.808823e-01 -2.164851e-01 -1.608702e+00 -4.149649e-01 4.509247e-01 -7.059664e-02 2.017734e-01 -2.894785e-01 -1.463974e-01 1.102626e-01 -2.611407e-01 1.075405e-01 1.242732e-03 1.766713e-01 3.741664e-01 4.095574e-01
<VARIANCE> 39
 2.970311e+01 4.304314e+01 8.149549e+01 6.805506e+01 6.939893e+01 6.337897e+01 4.599366e+01 7.260080e+01 5.565791e+01 4.838691e+01 3.222972e+01 3.609133e+01 4.401876e+01 7.389330e-01 1.922982e+00 1.965673e+00 2.683725e+00 4.077945e+00 2.366164e+00 3.358779e+00 3.880016e+00 2.425476e+00 2.662274e+00 2.442976e+00 2.484779e+00 5.797529e-01 1.906236e-01 3.160337e-01 5.528431e-01 4.662341e-01 7.138158e-01 3.784843e-01 6.990148e-01 6.034619e-01 5.927225e-01 4.445492e-01 3.995041e-01 5.293514e-01 1.714686e-01
<GCONST> 1.216805e+02
<STATE> 4
<NUMMIXES> 9
<MIXTURE> 1 1.348533e-01
<MEAN> 39
 -7.918824e+00 6.208669e+00 1.383112e+00 4.843589e+00 5.776098e+00 -6.415928e+00 3.157620e-01 -2.190667e+00 4.379485e-01 -1.439824e+00 -1.697338e+00 5.665640e+00 -3.994479e+00 -7.311628e-01 -7.012715e-02 -4.569168e-01 -1.245739e+00 -8.302444e-01 4.339448e-01 -9.389908e-01 7.470245e-01 8.012015e-01 2.079791e-01 7.951761e-01 5.448887e-01 2.102743e+00 7.021657e-01 -3.086942e-01 2.126586e-01 -1.745831e-01 -7.772985e-01 3.603720e-01 9.624402e-02 6.928902e-02 -2.653744e-01 1.919752e-02 2.213115e-01 -4.874419e-01 -9.407604e-02
<VARIANCE> 39
 7.950894e+01 8.454859e+01 1.510136e+02 6.288987e+01 1.097815e+02 8.175763e+01 1.225432e+02 7.356954e+01 8.829105e+01 5.052134e+01 4.510349e+01 4.772743e+01 5.596529e+01 1.080515e+01 5.608895e+00 1.001113e+01 7.362684e+00 1.206816e+01 8.550945e+00 9.821851e+00 1.104209e+01 7.002539e+00 5.834848e+00 5.185030e+00 4.650419e+00 8.780555e+00 9.862477e-01 8.544759e-01 1.558421e+00 1.128575e+00 1.580381e+00 1.294083e+00 1.650487e+00 1.427124e+00 1.276064e+00 8.351776e-01 8.534584e-01 8.023744e-01 8.752742e-01
<GCONST> 1.562707e+02
<MIXTURE> 2 8.094636e-02
<MEAN> 39
 -1.897972e+00 -7.213344e+00 -8.372415e+00 -6.611228e+00 1.671745e+00 2.416821e+00 -1.883483e+00 8.706171e+00 7.253921e+00 3.262625e+00 -2.597855e+00 -2.243632e+00 1.153203e+01 9.383378e-02 -4.654976e-01 2.610430e-01 5.835797e-01 -3.754506e-01 -4.805238e-01 -2.559193e-01 7.490962e-01 -6.057762e-02 -4.188584e-01 1.099187e-01 2.714805e-02 4.766654e-02 2.262454e-01 4.874198e-01 5.342018e-01 2.895016e-01 1.447541e-01 -1.983689e-01 3.239170e-02 -6.201928e-01 -4.286569e-01 -5.555009e-02 5.056190e-02 2.542843e-01 -6.362516e-01
<VARIANCE> 39
 1.137593e+01 1.528236e+01 4.534826e+01 4.271472e+01 3.715916e+01 7.787891e+01 5.854387e+01 6.450827e+01 3.358578e+01 4.194486e+01 2.976409e+01 1.969750e+01 4.766731e+00 1.067874e+00 1.861667e+00 4.282377e+00 2.654233e+00 2.983047e+00 4.935567e+00 6.129736e+00 5.436290e+00 4.513970e+00 3.275615e+00 3.329734e+00 2.832117e+00 2.113665e+00 1.469409e-01 1.628712e-01 4.077932e-01 3.201272e-01 4.834423e-01 5.299734e-01 1.093188e+00 9.606025e-01 5.933723e-01 7.071988e-01 4.980780e-01 4.990339e-01 1.214720e-01
<GCONST> 1.193468e+02
<MIXTURE> 3 1.296299e-01
<MEAN> 39
 -5.996290e+00 3.121206e+00 1.384797e+01 7.970150e+00 -1.350319e+01 -8.989218e+00 -3.164846e+00 3.329407e+00 -5.362554e+00 -7.927821e+00 7.916739e+00 1.473749e+00 6.250577e+00 1.543178e-01 -1.451907e-01 -3.323558e-02 1.656732e-01 -2.624021e-01 -4.441627e-02 2.961333e-01 1.043360e-01 -2.663113e-02 7.742461e-03 -2.339680e-01 -2.679642e-01 -1.241244e-01 1.623921e-01 8.850504e-02 -2.296030e-01 3.103382e-02 5.349591e-01 -5.988156e-02 4.928067e-01 -1.342661e-01 1.073573e-01 2.368227e-01 -4.027066e-01 -8.507634e-02 -4.413527e-01
<VARIANCE> 39
 1.538498e+01 4.472120e+01 6.749223e+01 3.265061e+01 3.752757e+01 5.018381e+01 3.132687e+01 5.319469e+01 4.009689e+01 3.191482e+01 2.545045e+01 3.368658e+01 1.127576e+01 1.176995e+00 2.720580e+00 3.662589e+00 2.275879e+00 3.148777e+00 2.853369e+00 4.808350e+00 3.395103e+00 3.637561e+00 2.810032e+00 3.580324e+00 2.042744e+00 1.985449e+00 2.508753e-01 3.202594e-01 4.543176e-01 3.435385e-01 5.968571e-01 5.795677e-01 7.148842e-01 6.989743e-01 6.753091e-01 3.922339e-01 5.671666e-01 3.518261e-01 2.288070e-01
<GCONST> 1.199224e+02
<MIXTURE> 4 9.830050e-02
<MEAN> 39
 -5.285507e+00 8.147361e+00 -2.617717e+00 2.577653e+00 6.424607e+00 -3.522660e+00 6.485278e+00 -2.114833e+00 -8.560133e-01 -2.147483e+00 -2.451520e+00 3.948037e+00 -1.663864e+01 -8.563116e-02 -3.266531e-01 -1.387417e-01 1.211999e-01 2.713922e-01 2.113347e-01 3.605564e-01 1.162246e-01 -5.619204e-02 -2.595516e-01 -1.825717e-01 -6.111890e-02 -7.084539e-01 -1.550517e-02 -2.121586e-02 1.371273e-01 5.531511e-02 -6.920732e-02 -2.064474e-02 -9.988904e-02 -7.622787e-02 1.880348e-02 1.476987e-02 -4.742134e-02 1.781614e-02 1.855164e-01
<VARIANCE> 39
 2.313084e+02 9.077425e+01 2.890779e+01 2.375101e+01 4.456382e+01 5.236440e+01 4.775330e+01 4.539997e+01 4.232135e+01 2.324654e+01 2.451588e+01 3.354297e+01 8.114218e+01 1.613487e+00 1.427138e+00 1.488374e+00 1.465173e+00 1.623033e+00 2.078567e+00 2.049305e+00 2.211560e+00 2.051391e+00 1.833369e+00 1.546185e+00 1.292974e+00 5.508020e-01 3.318420e-01 2.038605e-01 2.866931e-01 2.767130e-01 3.608256e-01 4.112079e-01 3.464504e-01 4.119544e-01 3.507037e-01 3.788789e-01 3.261479e-01 3.290651e-01 1.560679e-01
<GCONST> 1.121694e+02
<MIXTURE> 5 9.159877e-02
<MEAN> 39
 5.306653e+00 3.444623e+00 -8.472686e+00 -6.874563e+00 -5.171062e+00 1.592726e+01 -4.016601e+00 -1.033801e+01 4.513477e-01 1.668250e+00 7.835687e+00 3.019691e+00 3.164404e+00 9.161159e-02 -5.893640e-01 -5.374297e-03 -1.593213e-01 -5.660493e-02 4.440700e-01 -3.321348e-01 -1.962864e-01 4.035470e-01 3.816048e-01 -6.054072e-02 -8.214900e-01 4.754600e-01 -1.322192e-01 -1.126814e-01 3.351542e-01 6.104673e-01 6.206945e-01 -7.771514e-01 2.359227e-01 1.509224e-01 -5.682658e-02 -1.199570e-01 -6.548796e-01 6.904335e-03 -4.148008e-01
<VARIANCE> 39
 1.979151e+01 5.363215e+01 3.015644e+01 1.141154e+02 5.254928e+01 8.671292e+01 7.283528e+01 1.028111e+02 7.089744e+01 8.515622e+01 5.245315e+01 5.866483e+01 1.767356e+01 1.650342e+00 2.704808e+00 4.977899e+00 1.142080e+01 7.463999e+00 1.170395e+01 4.951149e+00 7.293225e+00 8.308105e+00 6.220965e+00 7.916669e+00 4.017447e+00 3.885045e+00 2.981584e-01 4.904772e-01 7.025298e-01 1.490262e+00 9.406729e-01 9.408207e-01 6.387727e-01 1.287908e+00 1.108162e+00 1.368651e+00 1.128471e+00 7.356288e-01 2.179828e-01
<GCONST> 1.426112e+02
<MIXTURE> 6 1.294584e-01
<MEAN> 39
 5.466186e+00 -1.812379e+00 -2.902699e+00 -1.467422e+00 6.552698e+00 1.972657e-02 -7.149500e+00 -1.418390e+00 5.124285e+00 2.374219e+00 -2.510613e+00 -7.514430e-01 -3.729861e+00 7.650001e-01 3.154458e-01 5.366761e-01 5.590472e-01 4.163426e-01 -4.110057e-01 7.116019e-01 -6.564440e-01 -4.355059e-01 -1.351434e-02 -5.908897e-01 1.310051e-02 -1.680520e+00 -1.666861e-01 4.435104e-02 -1.269292e-01 7.028669e-03 -3.063393e-01 2.441041e-01 2.612321e-01 6.857254e-02 -1.349115e-01 -1.027299e-01 1.959697e-01 -5.657518e-02 1.820420e-01
<VARIANCE> 39
 3.967625e+01 3.979346e+01 9.116898e+01 5.799488e+01 6.329325e+01 9.519807e+01 7.787178e+01 9.178755e+01 8.598877e+01 4.101381e+01 4.852188e+01 5.338735e+01 6.576910e+01 1.618542e+00 1.683509e+00 3.598065e+00 3.250911e+00 4.957131e+00 5.544181e+00 3.915681e+00 5.057806e+00 4.540212e+00 3.146854e+00 3.355159e+00 3.453844e+00 1.563661e+00 2.466609e-01 2.742637e-01 4.648162e-01 5.782443e-01 5.823880e-01 8.439649e-01 6.566211e-01 7.511668e-01 7.849752e-01 4.843928e-01 5.457191e-01 6.724464e-01 1.817332e-01
<GCONST> 1.316255e+02
<MIXTURE> 7 9.507477e-02
<MEAN> 39
 7.428108e+00 2.969237e+00 7.170884e+00 7.577204e+00 1.170756e+00 -2.445663e+00 8.271167e+00 -6.904861e+00 -1.001521e+01 -4.131519e-01 -3.268423e+00 -2.336145e+00 -1.130859e+01 -1.516007e+00 6.380205e-01 -6.402696e-01 -6.820060e-02 8.330383e-01 -2.054807e-01 -2.635114e-01 -9.661122e-02 4.607269e-01 -3.641042e-01 -5.437101e-02 5.581899e-01 9.558030e-01 -9.082679e-01 -1.189720e-01 -5.792166e-01 -5.894574e-01 -1.221172e-01 1.074567e-01 -7.042037e-01 5.711480e-01 8.058663e-01 -8.533048e-02 3.877288e-01 3.642372e-01 1.135735e+00
<VARIANCE> 39
 5.407096e+01 4.773126e+01 1.351759e+02 9.443780e+01 1.221026e+02 1.335062e+02 9.761127e+01 9.967026e+01 9.354933e+01 8.508312e+01 5.299553e+01 5.954132e+01 5.613676e+01 5.438388e+00 3.602057e+00 1.030260e+01 5.110788e+00 8.549869e+00 8.076337e+00 6.938221e+00 7.245104e+00 8.977715e+00 7.441553e+00 4.843014e+00 4.669423e+00 4.132684e+00 5.132243e-01 5.062240e-01 1.349402e+00 9.414884e-01 1.575338e+00 1.149078e+00 9.497897e-01 1.243542e+00 1.138902e+00 1.498846e+00 9.537793e-01 7.396536e-01 5.610278e-01
<GCONST> 1.520259e+02
<MIXTURE> 8 1.477870e-01
<MEAN> 39
 -8.686757e-02 3.621369e+00 1.357287e+01 8.579767e+00 -6.642362e+00 -1.068439e+01 4.478168e+00 1.147938e+00 -4.925313e+00 -4.806063e+00 -9.182987e-01 -1.074567e+00 -5.621110e+00 8.340541e-01 1.682403e-01 -1.618020e-02 2.782236e-01 7.689602e-01 -3.126501e-01 7.676024e-01 -4.393120e-01 -3.827218e-01 3.724943e-01 -4.322969e-01 -3.791020e-02 -1.880091e+00 -1.442209e-01 -4.921277e-02 -2.766749e-01 -1.938716e-01 1.563002e-01 2.313038e-01 -3.084757e-01 -3.274574e-03 5.673672e-02 6.060101e-02 1.421850e-01 1.081440e-01 1.951541e-01
<VARIANCE> 39
 6.419770e+01 7.119430e+01 6.851343e+01 4.940618e+01 6.187820e+01 5.235161e+01 8.280076e+01 1.494760e+02 9.055089e+01 3.237935e+01 4.699897e+01 5.117359e+01 5.193859e+01 1.746945e+00 2.551902e+00 3.275830e+00 3.568410e+00 3.654107e+00 3.616405e+00 4.977711e+00 4.215664e+00 3.161134e+00 2.357683e+00 3.149674e+00 3.462507e+00 1.513695e+00 3.143497e-01 3.416674e-01 4.250447e-01 6.057131e-01 5.983990e-01 6.106704e-01 7.957870e-01 8.207536e-01 5.309923e-01 4.389739e-01 6.001241e-01 6.660379e-01 2.549695e-01
<GCONST> 1.310876e+02
<MIXTURE> 9 9.234457e-02
<MEAN> 39
 -1.513599e+00 -5.391385e+00 -5.421132e+00 -3.313618e+00 9.692814e-01 1.389722e+00 -3.202760e+00 7.504223e+00 4.423705e+00 3.783271e-02 1.050758e-01 -7.709645e-01 9.868488e+00 5.486161e-02 9.555503e-02 2.108779e-01 3.129361e-02 -9.256477e-02 -4.518856e-02 -3.617083e-01 -1.739935e-01 -1.057404e-01 -1.289018e-01 1.728486e-01 3.241117e-02 -3.230109e-01 6.669631e-02 1.327220e-01 2.126008e-01 1.393001e-01 8.452767e-03 -1.950496e-01 -9.377861e-02 -7.497007e-02 -2.894419e-02 -5.204925e-02 -7.252689e-02 7.075150e-02 -2.373702e-01
<VARIANCE> 39
 6.445516e+00 3.022736e+01 4.497646e+01 5.922865e+01 8.129633e+01 8.943521e+01 5.737472e+01 6.998061e+01 2.816964e+01 3.013643e+01 2.883682e+01 2.858935e+01 1.127882e+01 2.657154e-01 8.749558e-01 1.667961e+00 1.266072e+00 1.960542e+00 2.280977e+00 2.039108e+00 1.860431e+00 2.233904e+00 1.639275e+00 1.811213e+00 1.524658e+00 6.402408e-01 6.088889e-02 1.010327e-01 1.597750e-01 1.877559e-01 2.446008e-01 3.792468e-01 4.188925e-01 3.657970e-01 3.175289e-01 3.085807e-01 2.667660e-01 2.394767e-01 6.103440e-02
<GCONST> 1.011744e+02
<TRANSP> 5
 0.000000e+00 1.000000e+00 0.000000e+00 0.000000e+00 0.000000e+00
 0.000000e+00 9.838232e-01 1.617676e-02 0.000000e+00 0.000000e+00
 0.000000e+00 0.000000e+00 9.915934e-01 8.406637e-03 0.000000e+00
 0.000000e+00 0.000000e+00 0.000000e+00 9.915180e-01 8.482050e-03
 0.000000e+00 0.000000e+00 0.000000e+00 0.000000e+00 0.000000e+00
<ENDHMM>
~h "M003"
<BEGINHMM>
<NUMSTATES> 5
<STATE> 2
<NUMMIXES> 9
<MIXTURE> 1 1.079841e-01
<MEAN> 39
 -4.577984e+00 2.481329e-02 -2.044900e+00 7.124088e+00 7.612085e+00 -2.478071e+00 5.701204e+00 4.517871e+00 -3.875668e+00 5.909630e-01 -2.972849e+00 7.104229e+00 -2.631530e+01 7.660380e-02 5.148930e-02 -3.509389e-01 -3.512382e-02 -3.942559e-01 -3.160293e-01 4.286279e-01 3.720619e-02 -1.549883e-02 3.802223e-02 4.540491e-02 -1.655373e-01 5.598262e-02 -5.333870e-02 1.499424e-01 2.520037e-01 6.862058e-03 8.733985e-02 1.904766e-01 -2.176645e-02 1.017187e-02 1.285157e-01 -1.304122e-01 -6.591914e-02 -1.253572e-01 2.985510e-01
<VARIANCE> 39
 1.934567e+01 1.187868e+01 1.557584e+01 1.774174e+01 2.285538e+01 3.295045e+01 3.550680e+01 2.394010e+01 3.183272e+01 1.679434e+01 2.255775e+01 1.732108e+01 1.365548e+01 4.822262e-01 6.278982e-01 1.400859e+00 1.894716e+00 1.731619e+00 1.539316e+00 2.640347e+00 2.236714e+00 2.211102e+00 1.723083e+00 1.203541e+00 1.327194e+00 1.987850e-01 1.747239e-01 1.752270e-01 3.761866e-01 4.122202e-01 2.762084e-01 3.233529e-01 3.635143e-01 3.637296e-01 3.487110e-01 2.589310e-01 1.868778e-01 2.016543e-01 2.097868e-01
<GCONST> 9.666351e+01
<MIXTURE> 2 1.159624e-01
<MEAN> 39
 3.555693e+00 6.025285e+00 5.685812e+00 5.996777e+00 2.674788e+00 3.222447e+00 4.721429e-02 1.535707e+00 -8.377373e-01 5.648990e-01 -2.746327e+00 -5.413218e-01 1.790286e+00 1.480607e-02 5.708599e-02 1.043288e-01 -1.883665e-02 -1.150169e-01 -8.094884e-02 -6.069599e-02 1.291111e-02 -7.038908e-02 -1.269054e-02 -6.999983e-02 -7.519608e-04 7.700926e-03 -3.571427e-02 -9.816807e-02 -1.075530e-01 -1.390616e-01 -1.482676e-01 -1.912766e-01 -1.241240e-01 -8.335231e-02 -1.561885e-02 1.922802e-02 5.688708e-02 4.333774e-02 -1.409386e-02
<VARIANCE> 39
 1.734903e+00 4.860942e+00 3.452472e+00 5.922937e+00 6.777480e+00 9.295939e+00 1.712678e+01 2.037649e+01 2.437967e+01 1.584446e+01 1.168060e+01 6.471654e+00 8.285324e-01 7.577619e-02 2.488103e-01 3.903775e-01 7.938154e-01 9.573494e-01 1.139189e+00 1.090256e+00 1.608008e+00 1.425866e+00 1.188135e+00 9.764733e-01 8.115582e-01 3.408687e-02 1.224248e-02 2.701497e-02 4.233387e-02 1.129130e-01 1.537221e-01 1.436676e-01 1.827863e-01 3.081260e-01 2.577463e-01 2.323694e-01 1.971218e-01 1.422558e-01 4.365372e-03
<GCONST> 5.747021e+01
<MIXTURE> 3 7.435717e-02
<MEAN> 39
 1.207191e+00 1.715139e+00 1.671337e+00 4.679242e-01 -2.414199e+00 -3.555074e+00 -3.321400e+00 -2.004440e+00 -2.039214e+00 -5.040117e-01 -9.051105e-01 -8.491626e-01 5.362524e-01 2.287484e-01 3.449320e-01 2.535902e-01 5.135426e-01 4.615065e-01 5.354916e-01 3.244480e-01 1.590337e-01 -4.153333e-02 -1.098162e-01 -1.671456e-01 4.514034e-02 1.135167e-01 5.208739e-02 1.171155e-01 8.322217e-02 1.355148e-01 3.015616e-01 4.259605e-01 3.455726e-01 3.402427e-01 2.546613e-01 3.410245e-02 -1.430113e-03 6.333250e-02 1.225880e-02
<VARIANCE> 39
 1.306761e+00 2.328084e+00 3.387734e+00 3.858094e+00 5.924987e+00 9.611303e+00 1.191150e+01 1.233849e+01 1.803525e+01 1.515265e+01 1.676679e+01 8.008929e+00 8.285324e-01 1.004614e-01 2.409615e-01 4.045081e-01 5.068551e-01 9.370819e-01 1.023939e+00 1.035619e+00 1.296629e+00 1.414227e+00 1.054484e+00 1.166443e+00 1.137579e+00 3.408687e-02 1.518248e-02 5.379521e-02 7.623746e-02 8.485981e-02 1.178324e-01 1.892741e-01 1.697504e-01 2.631850e-01 3.429187e-01 2.564289e-01 2.812448e-01 1.991142e-01 4.365372e-03
<GCONST> 5.715638e+01
<MIXTURE> 4 1.111427e-01
<MEAN> 39
 -1.402963e+00 -1.524028e+00 -1.240492e-01 -1.205348e+00 -3.544443e-01 -6.452039e-01 1.941820e+00 1.396624e+00 2.218158e+00 -3.639481e-01 -2.108874e-01 -9.447775e-01 -8.833706e-01 2.303494e-01 3.825411e-01 4.868529e-01 4.281020e-01 1.306783e-01 4.413887e-02 -1.370803e-01 2.156046e-01 1.029265e-01 -2.896459e-02 -1.349355e-01 7.576849e-02 1.071792e-01 -2.672659e-02 -6.252592e-02 -1.085465e-01 -8.673725e-02 -1.585749e-02 -5.871197e-02 -1.086007e-01 -1.200837e-01 -1.056004e-01 1.794661e-02 1.343614e-01 2.226000e-01 -7.388373e-03
<VARIANCE> 39
 7.321069e-01 2.253263e+00 4.372403e+00 3.653251e+00 4.934797e+00 5.928874e+00 8.557305e+00 9.858006e+00 9.859122e+00 1.076091e+01 1.194940e+01 9.731193e+00 8.285324e-01 5.637456e-02 1.255877e-01 2.415798e-01 3.580192e-01 6.763610e-01 4.418223e-01 9.009197e-01 7.638504e-01 9.091446e-01 1.137321e+00 1.349733e+00 1.176136e+00 3.408687e-02 2.321902e-02 5.023943e-02 7.876906e-02 6.974170e-02 1.292619e-01 1.529527e-01 2.284341e-01 1.850274e-01 2.163772e-01 2.694574e-01 2.591830e-01 1.956758e-01 7.747472e-03
<GCONST> 5.039981e+01
<MIXTURE> 5 9.040169e-02
<MEAN> 39
 -1.033778e+00 -4.241145e+00 -9.107286e+00 -2.583405e+00 2.450293e+00 6.598746e+00 -8.691540e-01 -3.334444e+00 -3.908597e+00 2.952389e+00 4.062491e+00 1.525321e+00 6.181739e-01 -2.002566e-02 -6.519671e-03 7.294483e-02 7.317654e-02 6.989798e-02 -9.975970e-03 -6.326329e-02 -8.924287e-02 5.454863e-03 1.197085e-01 1.010956e-01 -2.508454e-02 -1.877610e-02 -1.852731e-03 1.584156e-02 7.043247e-02 3.551383e-02 1.990520e-02 -4.786827e-02 2.364551e-06 9.906460e-03 2.334112e-02 -1.656326e-02 4.997842e-04 -1.065811e-02 -8.485110e-03
<VARIANCE> 39
 1.513608e+00 3.441369e+00 1.014881e+01 1.197641e+01 2.795254e+01 2.837137e+01 1.052626e+01 3.419970e+01 3.143108e+01 1.612569e+01 2.621477e+01 1.106772e+01 8.285324e-01 1.240654e-01 2.710088e-01 1.431266e+00 5.486385e-01 9.759486e-01 1.954907e+00 1.117153e+00 1.125401e+00 1.362592e+00 1.541958e+00 1.633554e+00 1.365388e+00 6.542386e-02 2.606277e-02 5.431570e-02 2.690315e-01 8.638687e-02 1.926390e-01 3.867406e-01 2.336656e-01 2.170616e-01 2.786891e-01 3.206473e-01 3.412397e-01 2.825504e-01 1.333864e-02
<GCONST> 7.348705e+01
<MIXTURE> 6 1.404381e-01
<MEAN> 39
 -1.652922e+00 -2.309295e+00 -1.860857e+00 -3.177702e+00 -2.392992e+00 -2.770320e+00 -4.971640e-01 -4.453304e-01 5.762253e-01 -7.525619e-01 3.001528e-01 8.377667e-02 -9.647692e-01 8.611360e-03 -2.534001e-02 -9.252734e-02 -1.203879e-01 -6.429074e-02 5.888104e-02 6.679225e-02 1.091318e-02 -1.373337e-02 1.889539e-02 2.809597e-02 -7.267576e-02 9.571854e-03 9.744522e-02 1.665824e-01 2.447833e-01 3.360754e-01 2.779347e-01 2.323037e-01 1.516074e-01 1.385565e-01 5.849646e-02 -1.633899e-02 -6.278599e-02 -4.616054e-02 4.829302e-02
<VARIANCE> 39
 1.160800e+00 2.476571e+00 5.197234e+00 3.126967e+00 6.025650e+00 5.194210e+00 6.341987e+00 8.281691e+00 7.699564e+00 8.412412e+00 8.351443e+00 8.054936e+00 8.285324e-01 1.025858e-01 2.540455e-01 4.323846e-01 4.279071e-01 6.136743e-01 8.705633e-01 1.136862e+00 1.190064e+00 1.057475e+00 1.220984e+00 1.229738e+00 1.141617e+00 4.210212e-02 2.279045e-02 5.381259e-02 8.380238e-02 7.011905e-02 1.016768e-01 1.268882e-01 1.810226e-01 2.330332e-01 1.770386e-01 1.721697e-01 2.134825e-01 2.477388e-01 6.744415e-03
<GCONST> 5.209969e+01
<MIXTURE> 7 1.161289e-01
<MEAN> 39
 1.557588e+00 2.145845e+00 1.842724e+00 1.136889e+00 -3.549571e-02 5.973533e-03 6.176293e-02 1.361639e+00 1.248678e+00 1.213307e+00 3.034543e-01 6.214979e-01 6.177453e-01 -6.622791e-02 -9.071051e-02 -8.848173e-02 -5.210372e-02 1.062625e-01 6.904476e-04 9.537465e-03 -2.136524e-02 3.462283e-01 2.920144e-01 1.723952e-01 3.047362e-02 -4.034024e-02 -6.813642e-02 -4.494169e-02 3.678099e-03 -2.640181e-02 -8.122057e-02 -1.762497e-01 -1.478569e-01 -2.882904e-01 -3.114644e-01 -2.276838e-01 -1.570162e-01 -1.661629e-01 -2.978182e-02
<VARIANCE> 39
 9.513296e-01 1.755061e+00 2.892148e+00 4.478729e+00 4.331910e+00 4.051219e+00 6.187718e+00 9.249618e+00 9.127411e+00 9.836402e+00 7.595140e+00 7.996124e+00 8.285324e-01 9.891554e-02 2.728653e-01 3.545887e-01 4.826505e-01 5.913638e-01 8.669116e-01 1.010773e+00 1.342194e+00 1.078683e+00 1.141051e+00 1.093506e+00 9.945561e-01 3.408687e-02 1.206345e-02 3.716671e-02 6.098448e-02 6.916045e-02 7.728460e-02 1.069431e-01 2.018748e-01 2.307234e-01 2.251655e-01 2.092322e-01 1.856797e-01 2.121817e-01 4.365372e-03
<GCONST> 4.848711e+01
<MIXTURE> 8 1.312141e-01
<MEAN> 39
 -1.608959e+00 -2.238038e+00 -7.778667e-01 -9.940366e-01 7.112017e-01 1.356404e-01 2.294498e+00 1.236228e+00 1.940146e+00 2.414960e-02 1.265994e+00 8.123590e-01 -9.081567e-01 -1.837786e-01 -2.720241e-01 -2.872183e-01 -2.669820e-01 -1.040791e-01 -8.510800e-02 1.219694e-01 -1.099217e-01 -1.079049e-01 -6.717023e-02 -3.050746e-02 -1.274342e-01 -7.094180e-02 2.686660e-02 6.221907e-02 5.988015e-03 -5.504145e-02 -1.890116e-01 -1.845414e-01 -2.021698e-01 -1.257482e-01 -8.202521e-02 -7.633970e-02 -1.559447e-01 -1.794314e-01 7.335657e-03
<VARIANCE> 39
 8.320627e-01 1.587371e+00 2.595331e+00 3.058012e+00 5.573222e+00 5.899565e+00 7.184542e+00 8.961622e+00 8.198785e+00 1.096090e+01 1.113418e+01 7.747858e+00 8.285324e-01 6.009171e-02 1.235414e-01 5.224469e-01 4.915909e-01 7.839774e-01 7.904296e-01 1.049180e+00 1.138921e+00 9.782365e-01 1.038430e+00 9.363797e-01 8.927094e-01 3.408687e-02 2.098437e-02 4.406665e-02 7.875064e-02 8.728164e-02 1.074394e-01 1.208471e-01 2.052284e-01 2.143937e-01 1.872694e-01 2.736623e-01 2.820738e-01 2.076226e-01 7.330070e-03
<GCONST> 5.018890e+01
<MIXTURE> 9 1.123688e-01
<MEAN> 39
 9.524529e-02 8.621992e-01 1.804650e+00 7.298785e-01 -6.230311e-01 -2.404637e+00 -1.332373e+00 -1.331061e+00 -1.205017e+00 -2.671202e+00 -1.819601e+00 -8.192825e-01 -1.957175e-01 -1.057466e-01 -2.264939e-01 -3.001839e-01 -3.229361e-01 -2.905766e-01 -2.955513e-01 -1.765921e-01 -8.680740e-02 -1.802225e-01 -1.671656e-01 7.970508e-02 1.276312e-01 -5.809688e-02 -4.874148e-02 -1.472395e-01 -1.964126e-01 -1.985719e-01 -7.166050e-02 1.412169e-01 2.258087e-01 2.402398e-01 2.727491e-01 3.052633e-01 2.404997e-01 1.234569e-01 -1.432069e-02
<VARIANCE> 39
 1.635782e+00 3.179044e+00 2.709671e+00 2.573938e+00 5.559013e+00 4.639746e+00 6.752727e+00 7.749526e+00 9.362248e+00 8.935537e+00 9.322036e+00 6.768362e+00 8.285324e-01 1.043189e-01 2.805267e-01 4.169050e-01 5.350704e-01 5.219820e-01 8.253204e-01 1.184898e+00 1.412294e+00 1.351507e+00 1.450525e+00 1.372709e+00 1.004126e+00 3.408687e-02 1.828221e-02 3.350740e-02 6.645130e-02 8.953466e-02 1.138907e-01 9.319304e-02 1.874162e-01 2.294188e-01 1.972246e-01 1.801669e-01 2.447279e-01 2.027622e-01 5.624540e-03
<GCONST> 5.137972e+01
<STATE> 3
<NUMMIXES> 9
<MIXTURE> 1 7.480330e-02
<MEAN> 39
 -1.764996e+00 4.156043e+00 8.760577e-01 7.009515e+00 7.097266e+00 -1.454961e+00 6.275349e+00 3.785248e+00 -3.678021e+00 8.648182e-01 -3.055979e+00 4.247504e+00 -2.050472e+01 -1.172063e-01 6.184657e-01 7.958655e-01 -2.028485e-01 -2.897742e-01 8.841578e-01 -4.246142e-01 -4.397556e-01 6.553584e-01 -3.996886e-01 5.258684e-01 -5.581344e-01 3.068949e+00 1.372825e-01 -2.599027e-01 2.913538e-01 -4.836366e-01 -8.258848e-01 3.678935e-01 -7.063383e-01 -7.418606e-01 1.106371e-01 -5.660683e-02 4.981152e-01 -1.440303e-01 1.375485e+00
<VARIANCE> 39
 5.438485e+01 3.632085e+01 8.479797e+01 4.135703e+01 5.089966e+01 4.179063e+01 4.319208e+01 3.557693e+01 2.931641e+01 1.847802e+01 2.757964e+01 2.234542e+01 5.079166e+01 1.100960e+01 6.154335e+00 9.341004e+00 1.010087e+01 6.796592e+00 7.360259e+00 6.902089e+00 8.347714e+00 3.151196e+00 3.543636e+00 3.408338e+00 3.901542e+00 5.541790e+00 8.154800e-01 7.269005e-01 1.095828e+00 1.079126e+00 9.297703e-01 1.151784e+00 6.347736e-01 8.109354e-01 4.892273e-01 6.669200e-01 5.440755e-01 7.152531e-01 4.973708e-01
<GCONST> 1.388033e+02
<MIXTURE> 2 1.365870e-01
<MEAN> 39
 2.005419e+00 -2.755819e+00 -1.203732e+01 -8.516634e+00 7.706409e-01 1.166776e+01 3.262468e+00 -1.030770e+00 5.005746e+00 -4.265587e+00 1.137361e+00 -2.396221e+00 9.979589e+00 1.827601e-02 -1.686796e-02 -2.510374e-01 2.871164e-01 4.856370e-01 -6.578287e-01 -5.933626e-02 -3.644883e-02 -1.198648e-01 1.156562e-01 -3.766181e-01 -7.527000e-02 1.120290e-02 8.842110e-02 1.347190e-01 2.731637e-01 1.391193e-01 2.974670e-03 -1.836662e-01 -2.629840e-01 -2.220504e-02 -1.969983e-01 1.168552e-01 8.823611e-03 8.431971e-02 -2.872024e-01
<VARIANCE> 39
 1.194166e+01 2.912897e+01 2.987452e+01 3.141961e+01 5.498391e+01 1.053524e+02 5.724963e+01 4.979885e+01 2.114572e+01 2.731636e+01 6.532854e+01 2.024150e+01 1.168973e+01 5.942184e-01 8.323014e-01 1.190170e+00 8.087068e-01 1.592567e+00 1.741007e+00 2.835686e+00 1.673478e+00 1.655182e+00 1.825855e+00 2.220157e+00 1.349212e+00 6.771520e-01 9.084065e-02 1.429200e-01 1.553828e-01 1.524348e-01 2.725783e-01 2.670084e-01 3.599859e-01 3.678595e-01 3.033260e-01 2.311849e-01 3.203913e-01 2.708363e-01 1.377560e-01
<GCONST> 1.008326e+02
<MIXTURE> 3 1.122286e-01
<MEAN> 39
 -1.131040e+01 2.108440e+00 8.356035e+00 1.120378e+00 -3.529210e+00 -6.316816e+00 -2.781600e+00 4.875006e+00 -5.535327e+00 -4.873371e-01 1.523721e+00 1.882306e+00 3.269183e+00 1.426158e-02 5.553494e-02 6.527017e-02 3.414381e-01 2.516720e-01 2.342552e-01 -2.771481e-01 -1.370483e-01 1.532287e-01 3.169021e-02 -2.524860e-01 1.071289e-01 -7.284248e-01 3.762150e-01 -8.200708e-03 5.075271e-03 7.880006e-02 7.873782e-03 2.363988e-01 3.292349e-03 -2.731459e-01 2.447157e-02 5.284211e-02 -1.847686e-02 -1.295945e-01 -1.448144e-01
<VARIANCE> 39
 5.829530e+01 7.078149e+01 1.172654e+02 3.662771e+01 9.615517e+01 2.422352e+01 3.273468e+01 4.251987e+01 3.831192e+01 3.374126e+01 4.962551e+01 3.034904e+01 4.158324e+01 2.538234e+00 2.117005e+00 2.608856e+00 1.803172e+00 3.646455e+00 2.192805e+00 3.389220e+00 2.832011e+00 3.090282e+00 2.003661e+00 2.419883e+00 2.227628e+00 1.124194e+00 1.809053e-01 3.147996e-01 2.733938e-01 3.057646e-01 5.851072e-01 3.631119e-01 5.499074e-01 6.159153e-01 5.761590e-01 5.043567e-01 4.993676e-01 5.378242e-01 1.698236e-01
<GCONST> 1.204616e+02
<MIXTURE> 4 9.643199e-02
<MEAN> 39
 4.925347e+00 1.271621e-01 -4.132943e+00 -6.063761e+00 -4.892039e+00 1.255447e+01 -7.526382e+00 -3.455090e+00 1.877697e+00 -3.213887e+00 7.037420e+00 -1.035948e+00 5.253731e+00 3.502364e-01 -6.032088e-01 -9.395424e-01 -6.271310e-01 2.225558e-01 6.379173e-01 4.906601e-01 2.578774e-02 1.151181e+00 1.565054e-02 -2.824135e-02 -8.533010e-01 7.024888e-01 -2.449972e-01 1.853288e-01 2.199033e-01 4.784330e-01 3.619892e-01 -6.121982e-01 7.288539e-01 5.298430e-03 -2.770432e-01 2.717604e-01 -4.554234e-01 3.046850e-01 -5.712701e-01
<VARIANCE> 39
 1.160605e+01 2.778774e+01 6.680115e+01 5.481599e+01 5.282645e+01 8.048457e+01 1.073819e+02 9.604121e+01 4.601241e+01 4.124769e+01 6.725355e+01 2.570703e+01 1.516383e+01 2.649186e+00 3.226618e+00 3.708675e+00 5.414332e+00 4.681814e+00 6.343587e+00 5.837245e+00 4.229089e+00 4.598254e+00 5.203469e+00 4.539164e+00 2.753364e+00 5.702933e+00 3.975123e-01 4.997320e-01 6.603311e-01 9.857329e-01 5.902523e-01 1.204562e+00 6.405914e-01 9.036774e-01 8.812800e-01 8.401956e-01 7.122758e-01 4.308955e-01 5.076649e-01
<GCONST> 1.350693e+02
<MIXTURE> 5 1.251746e-01
<MEAN> 39
 4.811997e+00 1.705888e+00 2.222000e+00 4.671500e+00 -2.262795e+00 1.934574e+00 -4.464093e+00 -1.419605e+01 -2.838221e+00 -1.311261e+00 3.198156e+00 -4.788751e+00 2.293976e+00 1.298725e-01 1.263705e-01 -2.164960e-01 4.939876e-01 2.394765e-02 -5.351248e-02 -5.286915e-02 -4.208997e-01 2.441919e-01 2.063222e-01 -3.483485e-01 2.334098e-02 -2.085958e-01 -2.079782e-01 -1.075684e-01 2.122248e-01 -2.333194e-01 -2.361488e-01 1.189453e-01 -9.024983e-02 6.629577e-01 -1.235106e-01 1.332903e-02 5.801043e-02 9.568715e-02 1.695688e-01
<VARIANCE> 39
 5.455294e+00 1.697483e+01 4.703747e+01 6.978426e+01 4.067653e+01 5.499831e+01 1.796857e+02 9.860914e+01 4.318214e+01 4.400661e+01 5.976495e+01 3.178929e+01 6.887833e+00 7.694942e-01 9.318596e-01 4.142597e+00 3.076184e+00 3.714850e+00 4.758060e+00 3.820680e+00 1.025440e+01 2.645234e+00 3.189706e+00 3.613163e+00 2.765024e+00 7.194769e-01 1.157774e-01 1.066434e-01 3.285726e-01 5.656049e-01 5.514740e-01 8.680215e-01 8.172593e-01 1.403291e+00 5.948039e-01 6.025136e-01 6.636609e-01 5.728206e-01 9.922971e-02
<GCONST> 1.207035e+02
<MIXTURE> 6 1.029792e-01
<MEAN> 39
 -1.665694e+00 4.480125e+00 5.274157e+00 3.246992e+00 -1.251751e-01 1.590236e+00 8.640223e-01 -2.613248e+00 -2.864814e+00 1.310210e+00 7.177588e-01 1.905067e+00 -5.152647e+00 1.027490e+00 -2.982024e-02 6.719455e-01 -2.293062e+00 -2.096855e+00 1.723902e+00 -2.151783e+00 -1.110547e+00 -2.641729e-01 -4.345933e-01 1.475589e+00 -8.429189e-01 3.665433e+00 3.473101e-01 -2.071586e-01 -2.287104e-01 -2.367989e-01 -2.169090e-01 2.285897e-01 4.451627e-02 2.810335e-01 -1.731118e-01 -1.613916e-01 1.791410e-01 -1.702155e-01 -4.177641e-01
<VARIANCE> 39
 6.884199e+01 7.987319e+01 1.067254e+02 1.176772e+02 6.165373e+01 6.932212e+01 1.000099e+02 1.482411e+02 6.820099e+01 5.967085e+01 5.112346e+01 6.646172e+01 5.448297e+01 7.621041e+00 7.999549e+00 1.215329e+01 1.010519e+01 6.240649e+00 9.704799e+00 6.248387e+00 1.991406e+01 6.528675e+00 4.783840e+00 4.566856e+00 4.257897e+00 5.963892e+00 1.632188e+00 1.463663e+00 1.489913e+00 1.790987e+00 1.363933e+00 1.383638e+00 1.543647e+00 2.801908e+00 1.193814e+00 1.081864e+00 7.957382e-01 8.681155e-01 7.151387e-01
<GCONST> 1.576778e+02
<MIXTURE> 7 1.141712e-01
<MEAN> 39
 -1.642781e+00 2.565040e+00 1.355338e+01 1.441882e+00 -1.664153e+01 2.541855e+00 -7.017061e+00 -3.446582e+00 -7.844915e+00 -2.871936e+00 6.214430e+00 -1.036578e+00 5.972088e+00 -1.070855e-01 1.616150e-01 -3.815073e-03 -4.631751e-01 -2.326115e-02 -8.660623e-02 3.915774e-01 -3.187190e-01 -1.036280e-02 1.577224e-01 -4.532806e-01 -1.815289e-01 -2.866539e-02 8.010928e-02 -7.589207e-02 -1.659286e-01 7.805776e-02 3.031646e-01 -1.164303e-01 -1.972549e-01 3.229131e-02 7.148716e-02 -5.204996e-02 -6.565087e-02 3.050131e-02 -7.661242e-02
<VARIANCE> 39
 2.070667e+01 2.484837e+01 9.112182e+01 5.021394e+01 1.812383e+01 7.000317e+01 4.455545e+01 7.154671e+01 2.431363e+01 3.353276e+01 2.609514e+01 3.252190e+01 7.770915e+00 2.857836e-01 6.617049e-01 1.407605e+00 1.355090e+00 1.108514e+00 2.196527e+00 1.737668e+00 1.751728e+00 1.513100e+00 1.599617e+00 1.333312e+00 1.383532e+00 1.240529e-01 4.219654e-02 1.026814e-01 1.626105e-01 1.797552e-01 1.977060e-01 3.391806e-01 3.279452e-01 2.859799e-01 3.296636e-01 2.733699e-01 2.783061e-01 2.819817e-01 3.162238e-02
<GCONST> 9.500346e+01
<MIXTURE> 8 1.439905e-01
<MEAN> 39
 5.225233e+00 5.160029e+00 6.685831e+00 4.181187e+00 -1.883357e+00 -1.114288e+00 -1.949630e+00 -3.439548e+00 -5.766318e+00 2.769360e+00 4.614717e-01 1.680497e+00 -1.110779e+01 7.863082e-02 3.161464e-01 -6.680471e-02 1.988982e-01 7.925947e-01 -6.259391e-01 7.822301e-01 2.114842e-01 -4.757288e-01 4.499583e-01 -3.366082e-01 5.716953e-01 -1.404712e+00 -3.983876e-01 -4.741867e-02 -2.849735e-01 -2.179378e-01 -1.680071e-02 1.230284e-01 -5.441676e-02 2.111808e-01 1.379662e-01 -2.407593e-01 1.118874e-01 -4.379301e-02 5.109597e-01
<VARIANCE> 39
 5.965150e+01 3.545882e+01 1.242385e+02 5.405220e+01 5.825061e+01 1.037285e+02 7.259546e+01 8.161531e+01 3.735051e+01 4.315717e+01 4.538666e+01 3.435246e+01 6.740289e+01 2.749243e+00 1.849209e+00 3.350346e+00 3.376355e+00 4.686041e+00 5.390015e+00 3.699286e+00 4.674225e+00 3.489903e+00 4.207435e+00 3.103968e+00 3.168319e+00 3.244492e+00 3.152043e-01 3.004342e-01 6.540857e-01 7.604551e-01 9.927152e-01 1.109897e+00 7.967314e-01 9.344193e-01 5.964739e-01 7.696601e-01 6.794027e-01 6.566018e-01 4.007671e-01
<GCONST> 1.350147e+02
<MIXTURE> 9 9.362929e-02
<MEAN> 39
 -2.486992e-01 1.179419e-01 1.517947e+01 9.378357e-01 -1.276273e+01 3.795130e+00 -4.666529e+00 -2.691715e+00 -8.542288e+00 -2.091128e+00 6.707041e+00 -2.711269e+00 4.693805e+00 -1.103074e-01 -2.630165e-01 -7.743593e-02 -9.104053e-02 -1.075925e+00 -3.458828e-02 6.675719e-02 8.814428e-01 -6.251284e-01 -8.829444e-01 1.096196e+00 2.752437e-01 7.425805e-01 -2.679570e-03 2.348080e-01 -5.128582e-01 2.861839e-01 6.513556e-01 -2.460524e-01 4.561263e-01 -4.538536e-01 5.553200e-01 2.570139e-01 -3.937398e-01 9.455997e-03 -4.348967e-01
<VARIANCE> 39
 1.602127e+01 3.035087e+01 5.292527e+01 5.704974e+01 4.871575e+01 7.389787e+01 8.432390e+01 1.104602e+02 3.450290e+01 3.362352e+01 3.980042e+01 5.076681e+01 1.192406e+01 1.813816e+00 2.507618e+00 4.066081e+00 3.328888e+00 7.974895e+00 5.872950e+00 4.614776e+00 1.218701e+01 5.341502e+00 3.243064e+00 4.913168e+00 3.123996e+00 1.795235e+00 3.744837e-01 4.762321e-01 4.939360e-01 6.485892e-01 9.116331e-01 1.123266e+00 5.271530e-01 2.100924e+00 8.123998e-01 7.140672e-01 9.088001e-01 6.388813e-01 1.702228e-01
<GCONST> 1.329199e+02
<STATE> 4
<NUMMIXES> 9
<MIXTURE> 1 8.191347e-02
<MEAN> 39
 4.094721e+00 2.616109e+00 -8.529634e-01 6.183290e+00 6.158910e+00 -3.994074e+00 4.195306e+00 -7.483635e-01 -1.374894e+00 1.655799e+00 -4.049971e+00 1.125220e+00 -1.235021e+01 -2.415402e+00 -2.339081e-01 9.203491e-01 -1.431198e+00 -3.729681e-01 6.170272e-01 -1.259835e+00 1.947048e+00 -6.236244e-02 -3.109329e-01 8.786588e-01 6.987626e-01 1.880210e+00 -6.698681e-01 -3.105331e-01 2.745461e-01 -8.060273e-01 -6.170495e-01 3.603959e-01 -4.955227e-01 2.939647e-01 1.355366e-01 -1.009257e-01 5.641489e-01 -3.211647e-02 1.413966e+00
<VARIANCE> 39
 4.887590e+01 6.805033e+01 1.552536e+02 6.832748e+01 1.016202e+02 9.976091e+01 1.092874e+02 1.551675e+02 8.211817e+01 5.445116e+01 5.948238e+01 4.360199e+01 4.969129e+01 6.457674e+00 6.541656e+00 1.160958e+01 7.872092e+00 1.195880e+01 8.783342e+00 9.660391e+00 1.456844e+01 7.197786e+00 5.986649e+00 5.041180e+00 3.809932e+00 5.930621e+00 8.955675e-01 8.498074e-01 1.660955e+00 1.216259e+00 1.603099e+00 1.378252e+00 1.474965e+00 2.221188e+00 1.269214e+00 9.713752e-01 9.903921e-01 6.591950e-01 6.789259e-01
<GCONST> 1.563545e+02
<MIXTURE> 2 8.175828e-02
<MEAN> 39
 4.730474e+00 4.794980e+00 -1.067260e+01 -9.906330e+00 1.936406e+00 1.453638e+01 -8.528902e+00 -2.902627e+00 1.645186e+00 3.215717e+00 8.178678e+00 -2.494012e+00 3.112108e+00 2.014164e-01 -4.866325e-01 -4.597990e-01 -1.281300e-01 6.496511e-01 3.612580e-01 1.282903e-01 -1.669729e-01 3.371149e-01 3.453111e-01 -1.556063e-01 -5.218503e-01 4.638669e-01 -1.250347e-01 -2.056785e-01 2.628314e-01 7.905000e-01 3.569781e-01 -8.062854e-01 5.742296e-01 1.490691e-01 -1.895781e-01 -1.153691e-01 -6.682347e-01 3.143713e-01 -5.200624e-01
<VARIANCE> 39
 1.206185e+01 5.277636e+01 4.524078e+01 6.952020e+01 5.871436e+01 5.986317e+01 1.279671e+02 4.987340e+01 7.571149e+01 5.484456e+01 3.716107e+01 3.479119e+01 1.680544e+01 2.578153e+00 4.517271e+00 4.619034e+00 1.096165e+01 5.769326e+00 1.018432e+01 7.486961e+00 8.489100e+00 7.389328e+00 5.295928e+00 7.608787e+00 4.056550e+00 4.860092e+00 4.156322e-01 5.496476e-01 5.661520e-01 1.059937e+00 8.022066e-01 8.437276e-01 9.884108e-01 1.140123e+00 1.018722e+00 8.978857e-01 7.936184e-01 7.632748e-01 4.038149e-01
<GCONST> 1.409581e+02
<MIXTURE> 3 1.477974e-01
<MEAN> 39
 -8.823829e-01 -8.211656e+00 -9.926596e+00 -1.112445e+00 2.781915e+00 -1.780834e+00 7.292239e+00 1.924768e+00 4.795149e+00 -1.660771e+00 -4.050027e+00 -2.375978e+00 1.188815e+01 9.255552e-02 -3.504958e-01 1.668761e-01 1.258539e-01 -5.955786e-02 -6.230829e-01 7.344496e-02 2.765712e-01 1.057532e-01 -1.837329e-01 -2.330380e-01 1.656857e-01 -6.150403e-03 8.535425e-02 1.198314e-01 3.615297e-01 -8.140359e-02 -1.515938e-01 -7.316500e-02 -3.327636e-01 5.221904e-02 7.027992e-04 6.665920e-02 8.023385e-02 1.906063e-02 -1.952234e-01
<VARIANCE> 39
 7.594931e+00 1.611162e+01 7.956609e+01 1.771095e+01 9.025731e+01 4.431541e+01 5.251310e+01 5.553045e+01 3.702260e+01 3.045997e+01 4.177121e+01 2.258730e+01 7.882689e+00 3.802408e-01 7.584143e-01 1.553713e+00 1.181315e+00 1.722596e+00 1.598681e+00 1.906289e+00 1.635254e+00 1.383740e+00 1.424717e+00 1.519083e+00 1.164982e+00 2.104218e-01 6.332653e-02 1.069345e-01 1.472962e-01 1.900346e-01 2.474685e-01 2.194388e-01 3.268673e-01 3.015280e-01 2.488539e-01 2.814217e-01 2.679344e-01 2.309419e-01 4.490625e-02
<GCONST> 9.480820e+01
<MIXTURE> 4 9.737774e-02
<MEAN> 39
 -1.473220e+01 2.163762e+00 7.903795e-01 -8.978702e-01 8.225504e+00 -2.648403e+00 4.661173e-01 8.654658e+00 -2.540375e-01 2.543913e+00 -1.191223e+00 6.296328e+00 -3.454262e+00 -6.368464e-01 3.407605e-01 -7.656410e-02 -4.578851e-01 -2.521914e-01 2.561991e-01 -3.957914e-01 1.174240e-01 7.976947e-02 -3.805136e-01 3.285098e-01 -1.754692e-01 1.235281e+00 1.045348e+00 -1.575263e-01 -1.294764e-02 1.641135e-01 -6.093861e-01 3.666397e-02 -6.806066e-02 -5.009921e-01 -4.318586e-02 -1.149321e-01 1.056649e-01 -4.530939e-01 -7.922117e-02
<VARIANCE> 39
 9.121951e+01 1.061912e+02 1.432188e+02 6.311176e+01 1.003631e+02 6.763666e+01 8.165671e+01 7.096730e+01 8.273207e+01 3.838092e+01 4.527099e+01 4.289250e+01 3.401489e+01 9.937423e+00 6.549776e+00 7.970423e+00 5.168493e+00 8.265758e+00 5.542750e+00 7.550546e+00 6.864908e+00 5.833287e+00 4.506499e+00 4.722505e+00 4.359701e+00 1.018817e+01 9.203022e-01 1.205600e+00 9.842088e-01 7.833359e-01 1.292579e+00 9.904682e-01 1.188797e+00 1.110509e+00 9.440451e-01 9.889857e-01 8.669506e-01 7.639537e-01 5.185839e-01
<GCONST> 1.501271e+02
<MIXTURE> 5 1.040707e-01
<MEAN> 39
 6.248989e+00 1.681645e+00 1.872047e+00 6.947253e+00 1.470704e+00 -5.070507e+00 4.365637e+00 -1.112797e+01 2.448385e+00 -1.944104e-01 -3.387785e+00 -3.018208e+00 -3.004563e+00 4.124624e-01 6.655722e-01 1.714269e-01 1.436125e+00 6.401952e-02 -2.361653e-01 2.266517e-01 -1.180089e+00 -3.174387e-02 3.244383e-01 -1.256306e-01 -1.509924e-01 -1.089880e+00 -1.982461e-01 -1.601281e-01 -2.488660e-01 -5.482615e-01 6.357151e-03 4.044968e-01 -2.404809e-01 8.583484e-01 4.127665e-03 -7.382877e-02 1.160041e-01 1.075799e-01 2.664707e-01
<VARIANCE> 39
 1.756710e+01 5.384411e+01 7.083427e+01 6.373124e+01 8.710475e+01 1.018629e+02 1.569798e+02 1.075138e+02 9.675790e+01 8.232190e+01 5.906746e+01 3.385934e+01 3.152307e+01 7.390445e-01 1.990363e+00 3.406701e+00 4.107303e+00 3.262786e+00 6.268352e+00 5.039297e+00 7.961271e+00 3.966711e+00 3.604741e+00 3.604717e+00 2.715678e+00 1.310783e+00 1.316609e-01 2.914014e-01 4.053866e-01 6.686823e-01 6.784665e-01 8.764537e-01 9.952116e-01 1.178460e+00 8.118576e-01 9.282005e-01 7.034748e-01 5.940922e-01 1.730988e-01
<GCONST> 1.329142e+02
<MIXTURE> 6 1.593183e-01
<MEAN> 39
 -7.479736e-02 -7.542402e+00 -4.409222e+00 -1.923592e+00 -3.258166e-01 -2.654150e+00 1.231451e+00 5.155786e+00 6.021887e+00 -8.695003e-01 -2.197588e+00 -1.403539e+00 9.142082e+00 3.879948e-01 1.883673e-01 2.740643e-01 2.854391e-01 1.575986e-01 -4.682861e-01 -2.200780e-01 -4.258675e-01 -1.394796e-02 5.163558e-02 -1.624671e-01 5.609800e-02 -5.974115e-01 4.575061e-02 4.043995e-01 1.065233e-01 3.709428e-01 2.290201e-01 -5.241247e-03 2.563242e-01 -4.424264e-01 -2.802857e-01 5.529114e-02 -3.722397e-02 1.089859e-01 -5.449677e-01
<VARIANCE> 39
 1.553812e+01 2.978729e+01 1.008661e+02 2.765135e+01 1.105247e+02 5.548232e+01 8.467811e+01 5.544493e+01 4.229552e+01 3.536160e+01 5.203114e+01 3.231784e+01 1.086779e+01 1.386552e+00 2.513183e+00 5.507163e+00 2.827891e+00 3.974046e+00 3.532990e+00 7.702843e+00 5.574336e+00 3.784157e+00 2.922114e+00 3.989713e+00 2.674980e+00 2.610555e+00 2.298045e-01 2.751606e-01 5.325248e-01 5.947573e-01 6.166738e-01 6.115120e-01 1.057068e+00 8.929026e-01 6.231533e-01 5.157985e-01 6.832221e-01 4.926443e-01 2.209828e-01
<GCONST> 1.274959e+02
<MIXTURE> 7 1.026530e-01
<MEAN> 39
 -8.420014e-01 6.883306e+00 4.375947e+00 -7.146338e+00 -3.992748e+00 4.192623e+00 -5.367974e+00 -1.916353e+00 -1.917883e+00 -3.675555e-01 3.342906e+00 -8.628294e-02 1.726504e-01 -1.118696e-01 3.865819e-02 -1.879493e-01 -5.514701e-02 1.179717e-01 -1.187350e-01 4.762162e-01 -8.774094e-02 -8.706836e-02 3.449722e-01 -3.310713e-02 1.241828e-01 -2.197646e-01 7.214922e-02 -2.090859e-01 -8.058202e-02 2.612383e-01 1.292147e-01 -2.063303e-01 2.489411e-02 8.128291e-02 9.338145e-02 7.323639e-02 -7.725699e-02 2.251236e-02 -6.527102e-03
<VARIANCE> 39
 5.647691e+01 4.086218e+01 2.502041e+02 6.437848e+01 8.886742e+01 1.048289e+02 1.828512e+02 8.996001e+01 5.713447e+01 3.419279e+01 5.135877e+01 2.848008e+01 6.181860e+01 4.847272e-01 1.353606e+00 1.725688e+00 1.321123e+00 2.043407e+00 2.059344e+00 2.850059e+00 2.442413e+00 1.800318e+00 2.073719e+00 2.255131e+00 1.672620e+00 6.234457e-01 9.627474e-02 1.562723e-01 2.443882e-01 2.003866e-01 4.040428e-01 4.015194e-01 5.105590e-01 4.700943e-01 3.072591e-01 3.417895e-01 4.085531e-01 3.239537e-01 6.731616e-02
<GCONST> 1.154646e+02
<MIXTURE> 8 1.278330e-01
<MEAN> 39
 4.692120e+00 -1.017682e+00 -3.112053e+00 2.730129e+00 4.640911e+00 -1.485834e+00 2.243257e+00 2.615176e+00 -5.881013e-01 1.360245e+00 -4.363961e+00 1.311482e+00 -1.131150e+01 5.179935e-01 -1.044060e-01 -6.661149e-01 3.811705e-01 7.149993e-01 -2.944832e-01 1.021836e+00 3.857306e-01 -2.827410e-01 7.866990e-02 -6.080735e-01 4.483842e-01 -2.096466e+00 -5.288881e-01 3.047349e-02 9.122644e-02 -2.173383e-01 -1.865128e-01 1.975109e-02 -1.950658e-01 -8.049197e-02 1.148737e-01 -1.697444e-03 3.005371e-01 -1.148620e-02 5.941242e-01
<VARIANCE> 39
 6.027685e+01 6.264461e+01 1.527118e+02 6.019172e+01 1.045348e+02 7.806781e+01 1.156056e+02 6.537798e+01 7.031471e+01 3.717949e+01 5.467538e+01 4.193605e+01 6.053928e+01 2.542435e+00 2.466746e+00 3.826636e+00 4.327403e+00 4.920646e+00 4.251107e+00 6.060146e+00 5.143966e+00 4.049999e+00 3.552176e+00 3.815763e+00 2.453805e+00 2.151283e+00 3.921768e-01 4.976096e-01 6.990286e-01 6.879835e-01 9.359969e-01 7.849966e-01 1.012440e+00 8.285502e-01 7.899491e-01 6.362332e-01 6.470668e-01 4.979906e-01 2.936429e-01
<GCONST> 1.375832e+02
<MIXTURE> 9 9.726907e-02
<MEAN> 39
 -3.347912e+00 1.456562e+00 1.502810e+01 1.184269e+00 -9.134375e+00 -6.552208e+00 -5.127714e+00 3.271185e+00 -3.845157e+00 -6.819791e-02 3.911576e+00 2.356621e+00 2.188404e+00 2.938610e-01 -2.413387e-01 9.968013e-02 -4.179844e-01 -1.097755e+00 7.382101e-01 -5.633085e-01 -2.721918e-02 1.491658e-01 -2.234430e-01 3.391479e-01 -5.180261e-01 7.165245e-01 2.105457e-01 9.015708e-02 -8.713648e-01 7.717016e-03 7.428855e-01 2.266200e-01 6.461335e-01 -1.720418e-01 2.500128e-01 9.821627e-02 -4.460838e-01 -1.093522e-01 -6.079746e-01
<VARIANCE> 39
 2.520457e+01 4.810042e+01 1.221025e+02 5.269118e+01 7.234409e+01 6.000710e+01 7.696054e+01 8.914989e+01 8.654385e+01 3.416280e+01 5.468895e+01 4.612618e+01 2.432295e+01 5.138834e+00 5.175145e+00 1.011144e+01 5.813082e+00 1.164529e+01 6.094742e+00 7.625484e+00 1.215507e+01 6.781656e+00 4.600327e+00 6.989815e+00 4.086195e+00 7.535705e+00 7.216783e-01 6.652439e-01 8.230495e-01 8.856341e-01 1.202526e+00 9.942723e-01 1.218929e+00 1.894615e+00 1.131656e+00 8.101832e-01 8.483199e-01 6.338003e-01 5.304458e-01
<GCONST> 1.473550e+02
<TRANSP> 5
 0.000000e+00 1.000000e+00 0.000000e+00 0.000000e+00 0.000000e+00
 0.000000e+00 9.705281e-01 2.947192e-02 0.000000e+00 0.000000e+00
 0.000000e+00 0.000000e+00 9.835857e-01 1.641426e-02 0.000000e+00
 0.000000e+00 0.000000e+00 0.000000e+00 9.939325e-01 6.067467e-03
 0.000000e+00 0.000000e+00 0.000000e+00 0.000000e+00 0.000000e+00
<ENDHMM>
~h "M004"
<BEGINHMM>
<NUMSTATES> 5
<STATE> 2
<NUMMIXES> 9
<MIXTURE> 1 1.515824e-01
<MEAN> 39
 -2.171903e+00 6.773719e-01 -1.058344e+01 6.502595e+00 4.603042e+00 -7.391029e-01 1.106722e+01 -5.942823e+00 -4.302308e-01 -6.784298e+00 -2.474945e+00 2.574315e+00 -1.848237e+01 1.293663e-01 1.718299e-01 6.258569e-02 4.025152e-01 3.076262e-01 6.045761e-01 -7.413610e-02 -1.983763e-01 -3.372566e-02 4.015796e-01 5.813349e-02 -1.691111e-01 4.089177e-01 -5.539606e-02 1.748335e-01 2.752917e-01 -7.173405e-02 -3.426063e-02 6.580167e-02 -1.766682e-01 6.871364e-02 1.760405e-01 1.102337e-01 6.297462e-02 -1.121868e-01 3.300117e-01
<VARIANCE> 39
 1.348279e+01 2.903753e+01 2.924064e+01 2.359483e+01 2.240904e+01 3.961963e+01 7.186423e+01 3.325806e+01 2.525042e+01 4.128409e+01 2.561937e+01 1.530601e+01 7.699123e+01 1.797408e+00 1.319895e+00 3.700281e+00 1.773785e+00 1.452333e+00 3.557206e+00 3.284483e+00 1.827554e+00 2.421018e+00 2.449745e+00 1.273228e+00 1.086394e+00 1.002753e+00 4.239174e-01 3.085145e-01 7.775810e-01 3.770176e-01 2.769498e-01 6.756077e-01 6.954524e-01 3.029559e-01 4.320232e-01 3.819927e-01 2.823891e-01 2.867625e-01 3.856070e-01
<GCONST> 1.125406e+02
<MIXTURE> 2 1.093866e-01
<MEAN> 39
 -5.207201e-01 -6.201386e-01 1.113477e-02 -7.999376e-01 -1.187798e+00 -9.567756e-01 1.446175e+00 2.293895e+00 3.060183e+00 2.033992e+00 1.996323e+00 9.837648e-01 -3.878399e-01 1.208683e-01 1.742992e-01 1.391126e-01 1.836922e-01 1.183609e-01 1.851016e-01 2.473803e-01 3.999934e-01 1.771008e-01 1.699713e-01 1.287045e-01 2.253240e-02 5.400423e-02 8.356050e-02 1.416414e-01 1.189268e-01 1.071866e-01 1.415471e-01 5.030125e-02 -1.492887e-01 -2.758662e-01 -3.812703e-01 -3.592634e-01 -3.530781e-01 -1.771034e-01 3.548840e-02
<VARIANCE> 39
 7.302016e-01 1.239936e+00 5.514514e+00 3.740434e+00 6.029652e+00 1.044212e+01 6.290871e+00 6.901005e+00 8.506589e+00 8.034221e+00 7.144882e+00 7.270691e+00 8.285324e-01 5.885680e-02 1.835470e-01 4.106480e-01 4.709590e-01 6.762694e-01 9.099693e-01 8.463932e-01 1.193842e+00 1.177545e+00 1.049719e+00 1.294363e+00 1.061058e+00 3.408687e-02 1.201228e-02 2.376903e-02 6.308708e-02 8.833681e-02 1.366229e-01 1.983465e-01 1.644214e-01 2.261623e-01 2.126150e-01 1.583673e-01 2.032043e-01 2.598507e-01 4.749841e-03
<GCONST> 4.907567e+01
<MIXTURE> 3 1.514342e-01
<MEAN> 39
 2.953010e-01 7.281050e-01 1.612978e+00 1.697452e+00 1.938945e+00 1.417267e+00 1.620925e+00 4.486961e-01 1.901973e-01 -5.402824e-01 3.325292e-01 -2.761126e-02 -6.627329e-02 -3.262478e-02 -1.703388e-02 3.839991e-02 2.727968e-02 1.295204e-01 1.309609e-01 -3.531951e-02 -4.340049e-02 -4.623372e-02 9.854273e-02 5.163040e-02 2.252826e-03 -1.947191e-02 -4.624005e-02 -5.391808e-02 -9.304052e-02 -3.214363e-01 -4.098950e-01 -3.613728e-01 -1.507295e-01 1.540333e-02 2.359807e-02 2.871007e-02 -1.032501e-01 7.457634e-03 -1.691162e-02
<VARIANCE> 39
 7.302016e-01 1.252827e+00 5.127131e+00 3.952005e+00 2.755654e+00 4.833267e+00 5.064031e+00 4.760182e+00 7.511169e+00 9.215389e+00 1.020222e+01 8.233877e+00 8.285324e-01 7.240857e-02 2.007286e-01 3.773288e-01 5.175678e-01 6.153507e-01 6.688538e-01 6.985857e-01 1.076506e+00 1.144454e+00 1.145660e+00 1.255593e+00 1.482729e+00 3.408687e-02 9.092383e-03 2.673597e-02 6.384604e-02 6.552207e-02 7.593396e-02 1.184587e-01 1.391056e-01 1.460172e-01 2.027203e-01 2.019485e-01 2.157645e-01 1.888843e-01 4.365372e-03
<GCONST> 4.508867e+01
<MIXTURE> 4 1.302038e-01
<MEAN> 39
 4.328961e-02 2.395624e-01 3.721242e-01 -1.378290e+00 -2.109866e+00 -2.333771e+00 -5.929157e-01 -8.091833e-01 -1.970718e+00 -2.458902e+00 -1.230694e+00 2.922601e-02 -8.257291e-02 6.947487e-02 1.183320e-01 2.415521e-01 5.626611e-01 5.671461e-01 3.959385e-01 3.022282e-01 2.326400e-01 1.680773e-01 -2.345476e-02 1.449070e-01 -3.224687e-04 2.972085e-03 -1.528290e-02 -1.944639e-02 1.529078e-02 1.384010e-01 2.529976e-01 2.613232e-01 1.539195e-01 1.855567e-01 3.048598e-01 2.642775e-01 1.392992e-01 2.937448e-02 -1.258962e-02
<VARIANCE> 39
 7.302016e-01 1.498310e+00 5.689046e+00 4.347632e+00 4.782535e+00 7.902563e+00 5.730436e+00 7.184427e+00 7.633316e+00 6.319318e+00 4.363148e+00 6.944704e+00 8.285324e-01 6.684209e-02 1.268186e-01 3.245667e-01 3.601482e-01 6.872951e-01 1.067784e+00 8.214312e-01 1.115763e+00 1.205636e+00 1.009685e+00 7.837253e-01 8.645732e-01 3.408687e-02 1.359312e-02 2.959082e-02 9.075730e-02 9.285941e-02 1.197354e-01 1.327405e-01 1.068031e-01 2.075051e-01 1.834790e-01 1.626381e-01 1.342010e-01 2.093516e-01 4.675074e-03
<GCONST> 4.554395e+01
<MIXTURE> 5 5.048403e-02
<MEAN> 39
 6.824661e-01 -3.344597e+00 -1.110179e+01 1.916454e+00 7.353205e+00 1.087155e+01 -6.885745e+00 -7.245417e+00 -3.426362e+00 7.348489e+00 2.502172e+00 -2.255301e+00 2.274110e+00 -6.816195e-02 1.304642e-01 6.547740e-01 -1.889380e-01 -2.550891e-01 -5.534934e-01 3.815768e-01 1.384136e-01 4.058945e-01 -1.237320e-01 -6.239165e-02 -1.016433e-01 -1.704879e-01 -6.413593e-03 -1.602650e-02 -5.389194e-02 1.457695e-02 -2.636501e-02 -2.525831e-02 -3.253074e-02 5.437364e-02 -2.460118e-03 -4.591698e-03 6.093645e-02 5.998660e-02 1.784846e-02
<VARIANCE> 39
 7.302016e-01 2.891474e+00 2.536764e+01 5.325491e+00 6.917527e+00 2.795083e+01 1.689795e+01 7.235664e+00 1.317894e+01 1.042743e+01 1.089617e+01 1.102562e+01 1.336404e+00 8.748231e-02 2.163947e-01 4.629081e-01 1.049511e+00 8.965156e-01 1.236889e+00 2.901992e+00 9.821332e-01 9.541613e-01 1.345639e+00 1.702821e+00 1.994965e+00 9.374724e-02 1.732100e-02 4.779121e-02 8.588000e-02 2.208545e-01 1.922207e-01 2.733570e-01 5.296826e-01 2.060852e-01 1.400518e-01 3.177660e-01 4.466489e-01 5.076895e-01 1.868766e-02
<GCONST> 6.817171e+01
<MIXTURE> 6 8.455975e-02
<MEAN> 39
 3.785046e-01 1.288308e+00 2.579885e+00 1.006038e+00 -3.731778e-01 -1.271827e+00 1.929221e+00 4.155538e+00 2.556205e+00 -7.513018e-01 -1.646241e+00 -6.646427e-01 -1.530467e-01 1.148363e-01 1.117826e-01 -2.175798e-03 -3.257989e-02 1.174367e-01 2.839059e-01 1.717038e-01 -3.027154e-02 1.248376e-01 7.568006e-02 -1.461856e-01 4.986617e-02 6.243816e-02 -6.955783e-02 -1.178355e-01 -1.275592e-01 -9.123139e-02 -1.946054e-02 7.996739e-03 -2.108597e-01 -5.701399e-01 -2.788905e-01 -1.656684e-02 2.694046e-01 1.794005e-01 -2.308133e-02
<VARIANCE> 39
 7.302016e-01 1.184220e+00 4.073446e+00 2.466005e+00 3.724404e+00 3.966012e+00 6.584205e+00 4.884841e+00 6.787199e+00 7.607535e+00 9.194695e+00 8.812275e+00 8.285324e-01 8.633952e-02 1.553594e-01 3.468539e-01 4.242649e-01 6.905727e-01 6.466811e-01 8.211308e-01 8.880877e-01 9.613164e-01 1.129190e+00 1.101912e+00 8.641813e-01 3.408687e-02 1.563005e-02 2.592160e-02 5.257379e-02 5.460371e-02 1.047158e-01 1.537061e-01 1.793835e-01 1.486788e-01 1.583017e-01 1.857323e-01 2.278357e-01 2.172584e-01 5.576989e-03
<GCONST> 4.431845e+01
<MIXTURE> 7 1.129834e-01
<MEAN> 39
 -7.446450e-03 9.277358e-01 2.370121e+00 4.013559e-01 -1.088414e+00 -3.334602e+00 -2.051260e+00 -1.477588e+00 -1.052650e-01 -1.047022e+00 -6.143863e-01 5.604179e-01 -3.435431e-01 -6.255013e-02 -1.011520e-01 -8.195975e-02 -2.644419e-01 -3.802009e-01 -2.815795e-01 -1.179437e-01 -6.235920e-02 -1.376348e-01 -1.515468e-01 -2.087682e-01 -1.692508e-01 -2.197927e-02 -7.655394e-03 -5.464719e-02 -5.641428e-02 3.858070e-02 1.126014e-01 3.099347e-01 4.068607e-01 3.622665e-01 1.036642e-01 2.106735e-02 4.406044e-02 -9.024148e-02 5.142050e-03
<VARIANCE> 39
 7.302016e-01 8.223331e-01 3.189585e+00 2.771197e+00 3.991993e+00 5.480379e+00 6.135703e+00 4.703248e+00 7.156568e+00 5.956118e+00 8.250836e+00 1.107976e+01 8.285324e-01 5.258216e-02 1.563319e-01 3.679358e-01 3.326320e-01 4.441837e-01 7.793997e-01 1.024625e+00 9.601675e-01 1.261957e+00 9.634724e-01 1.344100e+00 1.088257e+00 3.408687e-02 1.451877e-02 3.321934e-02 7.858905e-02 7.312401e-02 1.027908e-01 1.427621e-01 1.497660e-01 1.386563e-01 1.840770e-01 1.700101e-01 2.296579e-01 2.387829e-01 5.821896e-03
<GCONST> 4.468615e+01
<MIXTURE> 8 1.364018e-01
<MEAN> 39
 -3.962044e-01 -1.037160e+00 -1.534137e+00 -2.017422e+00 -5.075364e-01 5.839728e-01 4.429502e-01 -4.154463e-01 -1.324057e+00 -1.090944e+00 -8.386703e-01 -3.426124e-01 -1.362013e-01 -8.674141e-02 -8.718433e-02 -1.046154e-01 -3.662151e-01 -3.426670e-01 -1.836184e-01 -5.522098e-02 -3.960288e-02 -2.786730e-02 7.278635e-02 1.512530e-02 1.460690e-01 -3.641928e-02 7.496083e-02 1.604588e-01 2.071787e-01 2.051480e-01 -1.667902e-02 -9.987024e-02 4.279324e-02 1.238434e-01 1.388703e-01 1.258925e-01 1.321867e-01 8.283363e-02 2.862838e-02
<VARIANCE> 39
 7.380323e-01 1.146851e+00 5.905978e+00 4.076727e+00 7.388275e+00 8.808990e+00 6.875117e+00 6.340038e+00 9.334660e+00 9.943286e+00 9.760076e+00 1.065491e+01 8.285324e-01 7.399193e-02 1.784594e-01 4.182601e-01 4.015339e-01 8.221671e-01 9.175792e-01 7.049914e-01 1.104383e+00 1.206166e+00 9.850304e-01 1.070649e+00 1.092302e+00 3.408687e-02 1.306516e-02 2.858992e-02 5.961829e-02 7.653885e-02 1.974121e-01 2.173391e-01 1.649826e-01 2.048417e-01 2.145897e-01 2.158588e-01 2.354639e-01 2.668041e-01 5.804874e-03
<GCONST> 5.112859e+01
<MIXTURE> 9 7.296149e-02
