~o
<STREAMINFO> 1 39
<VECSIZE> 39<NULLD><MFCC_D_A_Z_0><DIAGC>
~h "M001"
<BEGINHMM>
<NUMSTATES> 5
<STATE> 2
<NUMMIXES> 21
<MIXTURE> 1 4.107143e-02
<MEAN> 39
 -2.619128e+01 -1.049990e+00 -7.133071e-01 -9.155242e-01 1.160724e+01 6.218485e+00 4.736374e+00 8.498097e+00 5.021353e+00 9.370064e-01 5.334926e+00 1.186504e+01 -2.933457e+00 -7.348786e-01 1.819069e-01 5.820997e-01 -1.484635e-01 5.848164e-01 -2.013231e-01 -1.025542e-01 1.162359e+00 7.656490e-01 6.635322e-01 -1.035510e-01 -7.971276e-02 7.877312e-01 6.482740e-01 -4.163223e-01 -1.681016e-01 5.820691e-02 -7.167171e-01 -2.201908e-01 -9.186614e-02 2.451835e-01 -2.206011e-02 -1.787847e-01 -7.599242e-02 -2.319419e-01 -3.288529e-01
<VARIANCE> 39
 1.923435e+01 3.165490e+01 1.488334e+01 3.791308e+01 2.572594e+01 1.846346e+01 2.612615e+01 2.113230e+01 1.676406e+01 2.096760e+01 1.137579e+01 2.187263e+01 1.846284e+01 2.347333e+00 2.068895e+00 1.896952e+00 5.728278e+00 3.787414e+00 3.886322e+00 3.345684e+00 2.834016e+00 1.321541e+00 1.873173e+00 1.623458e+00 1.948190e+00 2.793448e+00 1.430335e-01 5.800741e-01 5.374727e-01 1.438065e+00 5.706118e-01 7.142600e-01 4.327078e-01 8.984463e-01 2.924101e-01 4.589527e-01 3.590170e-01 6.269151e-01 1.185732e-01
<GCONST> 1.129646e+02
<MIXTURE> 2 4.116259e-02
<MEAN> 39
 -1.550864e+00 2.919349e+00 -1.433393e+01 -1.521231e+01 8.331497e+00 5.621384e+00 8.184639e+00 -4.585559e+00 -4.020698e-01 3.414944e+00 2.746966e+00 -2.054291e+00 1.231659e+01 1.290279e+00 5.183858e-01 1.215403e+00 7.379347e-01 -1.051442e+00 -1.767990e-01 -4.024265e-01 1.304101e+00 -5.476717e-01 -5.564477e-01 8.855422e-02 1.249471e+00 -1.923524e+00 4.945547e-01 1.670514e-01 1.912166e-01 1.459796e-01 -1.306631e-02 2.847859e-01 3.757047e-02 -1.438102e-01 1.824581e-01 1.914462e-01 -2.734088e-01 -9.865643e-02 -1.034314e+00
<VARIANCE> 39
 9.434076e+00 6.173787e+00 1.192630e+01 2.346355e+01 3.063207e+01 9.994931e+00 4.019818e+01 1.353650e+01 3.896748e+00 1.449761e+01 2.721319e+01 1.335449e+01 5.429082e+00 1.309227e+00 6.069999e-01 8.527172e-01 1.542004e+00 1.783518e+00 1.551560e+00 1.413461e+00 8.913569e-01 1.085904e+00 6.560788e-01 1.786759e+00 6.967795e-01 2.807308e+00 1.273288e-01 1.919296e-01 2.552284e-01 3.694646e-01 9.126448e-01 3.515911e-01 3.972681e-01 2.065009e-01 2.698888e-01 2.469336e-01 2.543746e-01 2.705595e-01 8.913263e-02
<GCONST> 8.971355e+01
<MIXTURE> 3 5.949921e-02
<MEAN> 39
 -3.898533e+00 -7.038719e+00 -2.046966e+00 2.875916e+00 2.517112e+00 5.934566e+00 3.292457e+00 5.814511e+00 1.327884e+00 -1.217065e+00 3.245275e+00 9.080556e+00 -2.136080e+01 -3.983722e-01 1.327513e+00 -1.721962e+00 7.855197e-01 5.020468e-01 -4.713415e-01 6.081462e-01 4.663360e-01 -1.350344e-01 6.609746e-01 -1.601053e-01 4.470753e-01 1.958020e-01 -2.760480e-01 7.498665e-01 -8.797830e-02 4.710945e-01 -2.622650e-01 -2.792313e-01 -8.902647e-02 -4.149725e-01 3.626441e-01 -2.715650e-01 -3.622267e-01 4.978984e-02 5.752970e-01
<VARIANCE> 39
 1.042125e+01 1.108158e+01 4.324021e+01 1.354374e+01 4.269643e+01 2.910711e+01 1.082095e+01 4.040932e+01 1.346239e+01 2.178004e+01 1.328856e+01 2.087109e+01 3.240766e+00 2.231847e+00 1.604698e+00 3.482753e+00 1.606257e+00 3.042796e+00 4.509250e+00 7.877946e-01 2.387108e+00 2.070250e+00 1.742513e+00 1.393164e+00 3.482753e+00 8.747749e-01 6.000763e-01 2.178843e-01 8.954784e-01 3.356143e-01 6.139688e-01 5.756177e-01 1.936368e-01 5.703777e-01 3.688194e-01 5.284995e-01 4.011688e-01 7.412024e-01 1.473843e-01
<GCONST> 1.062205e+02
<MIXTURE> 4 4.478852e-02
<MEAN> 39
 -5.361041e+00 2.361161e+00 -6.435038e+00 1.207743e+01 1.817904e+00 4.024399e+00 6.874063e+00 2.227360e+00 3.298735e+00 -3.765983e+00 1.452947e-01 7.946573e+00 -1.911614e+01 1.658907e+00 5.514019e+00 2.667636e+00 2.824778e+00 -5.248344e-02 -1.999863e+00 -5.675756e-01 -3.388490e+00 -8.981973e-01 4.464008e-02 -1.514538e+00 -4.944977e-01 2.544905e+00 6.885298e-01 3.373732e-01 1.566004e+00 -4.074131e-01 -6.868328e-01 -9.722518e-01 -2.928783e-01 -1.379920e+00 -4.865362e-01 7.804517e-01 -3.789125e-01 -3.704232e-01 8.157442e-01
<VARIANCE> 39
 1.840321e+01 3.512166e+01 2.380416e+01 3.062522e+01 1.388796e+01 2.080934e+01 1.458513e+01 2.995018e+01 1.748811e+01 2.451140e+01 1.702703e+01 1.468954e+01 9.937684e+00 1.771031e+00 1.902132e+00 3.438795e+00 1.957336e+00 2.339226e+00 3.083267e+00 2.111031e+00 4.706151e+00 1.781149e+00 4.648636e+00 2.675788e+00 1.122217e+00 1.083712e+00 3.656791e-01 1.064586e+00 5.008975e-01 8.621927e-01 3.314430e-01 6.964036e-01 2.934890e-01 6.179219e-01 4.403857e-01 5.752454e-01 4.285288e-01 3.353797e-01 1.640587e-01
<GCONST> 1.109750e+02
<MIXTURE> 5 6.332994e-02
<MEAN> 39
 -1.742809e+00 -8.116509e+00 -2.608607e+00 7.862860e+00 -3.914389e+00 3.413951e+00 7.858097e-01 3.511890e+00 1.960943e+00 -6.804818e+00 -1.275936e+00 6.119233e+00 -2.281269e+01 9.782080e-02 5.293235e-01 3.489727e-01 4.767127e-01 3.062424e-01 1.120346e-01 6.918998e-01 -4.109642e-01 9.076077e-02 2.064835e-01 -1.014417e-01 8.200960e-03 1.623524e-01 -1.449841e-01 -5.829177e-02 -1.488632e-01 -7.381310e-02 2.231391e-01 1.682792e-01 2.173926e-01 1.303117e-01 2.011783e-01 2.040276e-01 3.570730e-01 -1.279424e-01 2.100150e-02
<VARIANCE> 39
 8.696918e+00 6.267242e+00 2.109571e+01 1.509725e+01 9.562084e+00 1.511452e+01 2.312940e+01 2.856706e+01 3.001822e+01 1.107983e+01 1.041468e+01 1.483430e+01 8.997529e+00 2.257271e-01 2.855074e-01 4.855131e-01 6.815649e-01 1.086823e+00 9.132102e-01 2.169051e+00 1.331534e+00 2.060735e+00 1.203455e+00 8.978369e-01 8.007435e-01 4.247705e-02 7.124913e-02 4.749438e-02 6.522342e-02 5.852379e-02 1.501081e-01 1.042780e-01 3.039200e-01 2.628121e-01 1.594709e-01 1.139951e-01 1.713789e-01 8.451936e-02 1.809639e-02
<GCONST> 7.037915e+01
<MIXTURE> 6 5.870959e-02
<MEAN> 39
 3.145251e+00 1.272006e+01 4.124020e+00 6.385845e-01 -7.507499e+00 -6.358110e-01 9.660466e+00 -1.431011e+01 1.781718e+00 3.881275e+00 -8.681253e+00 6.376130e+00 -1.852617e+00 3.900222e-02 -8.441014e-01 8.372861e-01 -2.619648e+00 -3.271448e-01 1.914780e+00 4.453622e-01 -1.337142e-01 7.239624e-01 7.894639e-01 1.693565e-04 2.400354e-01 2.128695e+00 -7.830407e-01 -1.006454e+00 -3.853557e-01 2.752384e-01 1.015241e+00 4.810858e-01 -7.880498e-01 1.423830e+00 -8.597567e-02 -8.563067e-01 6.517292e-01 -6.157941e-02 -3.958441e-01
<VARIANCE> 39
 6.847469e+00 5.997622e+00 6.049160e+01 1.669509e+02 1.893903e+01 6.234368e+01 4.794645e+01 4.997715e+01 9.491779e+01 7.430984e+01 3.495963e+01 1.649572e+01 7.001019e+00 2.378845e+00 4.343236e+00 1.289499e+00 4.228714e+00 4.297153e+00 4.152744e+00 4.638707e+00 1.216511e+01 6.795405e+00 1.025081e+01 4.130832e+00 2.356293e+00 1.086605e+00 3.315018e-01 4.868914e-01 4.472770e-01 1.346802e+00 2.644314e-01 1.180733e+00 7.195668e-01 2.033378e+00 1.260729e+00 1.462184e+00 9.964334e-01 2.990381e-01 2.195287e-01
<GCONST> 1.289516e+02
<MIXTURE> 7 4.294976e-02
<MEAN> 39
 6.487411e+00 3.822975e+00 -9.735774e+00 -1.132256e+01 7.888759e+00 6.648167e+00 6.804126e+00 -1.761747e+00 -4.234888e-01 2.056092e+00 1.558043e+00 -9.073191e-01 -3.070848e+00 1.420724e+00 -8.433231e-01 -3.691971e-01 4.212164e-01 5.487872e-01 -4.987944e-02 2.518673e-01 4.777099e-01 5.632638e-01 8.935955e-02 -2.089673e-01 -2.428927e-01 -3.656838e+00 -5.866959e-01 -6.858274e-01 -4.260557e-01 -2.916443e-01 -6.371698e-01 2.236363e-02 4.177247e-02 -6.779745e-02 5.209934e-02 -4.958502e-02 -1.519665e-03 2.349625e-01 4.730696e-01
<VARIANCE> 39
 6.890732e+00 1.387422e+01 2.359912e+01 2.246314e+01 2.165079e+01 9.222073e+00 2.236959e+01 9.317647e+00 1.641055e+01 1.305347e+01 2.045348e+01 3.496231e+01 2.540280e+01 1.867421e+00 1.700207e+00 1.590176e+00 2.395692e+00 3.234243e+00 2.155209e+00 1.774164e+00 6.989841e-01 1.910102e+00 2.193693e+00 4.438064e+00 2.871487e+00 1.343685e+00 1.739119e-01 1.265319e-01 2.683728e-01 2.507867e-01 1.055625e+00 3.502081e-01 2.370023e-01 1.453383e-01 4.894778e-01 3.139907e-01 3.018889e-01 6.783677e-01 1.812669e-01
<GCONST> 1.011991e+02
<MIXTURE> 8 5.977432e-02
<MEAN> 39
 4.485539e+00 -6.307784e+00 -9.490693e+00 -4.845871e+00 -5.176104e+00 9.134753e+00 8.275494e+00 6.788383e+00 7.137983e-01 -4.522443e+00 -3.232545e+00 -4.790988e-01 -1.606985e+01 -4.772418e-01 5.794143e-02 9.526680e-01 1.254771e+00 -5.168175e-01 5.756164e-02 -2.588138e-01 8.059954e-01 2.269651e-01 -7.617313e-01 -6.826032e-01 -3.058926e-01 -5.034950e-01 -1.121789e-01 1.819517e-01 -1.406854e-02 -3.387503e-02 1.739855e-01 -7.229792e-02 -2.128346e-01 -4.104220e-01 8.385965e-02 2.596471e-01 4.188242e-01 2.941289e-01 3.185931e-01
<VARIANCE> 39
 7.860659e+00 4.869870e+00 1.103641e+01 7.974953e+00 3.125967e+01 3.081616e+01 2.968936e+01 2.376956e+01 2.557619e+01 2.857606e+01 2.110770e+01 2.454556e+01 4.036980e+00 3.056546e-01 5.758703e-01 1.033762e+00 1.255348e+00 1.747402e+00 2.384882e+00 2.382374e+00 2.397874e+00 1.698178e+00 1.705315e+00 3.256387e+00 2.655204e+00 6.415753e-02 1.023637e-01 1.495851e-01 4.787787e-01 3.274893e-01 3.498461e-01 4.377081e-01 2.979257e-01 3.521489e-01 4.286436e-01 3.133631e-01 4.428935e-01 5.207577e-01 1.321620e-01
<GCONST> 9.397538e+01
<MIXTURE> 9 4.273938e-02
<MEAN> 39
 1.415815e-01 -8.654478e+00 -2.781323e-01 5.909906e+00 -9.586056e-01 4.124646e+00 1.448183e+00 3.076880e-01 2.390703e+00 -4.375753e+00 -8.478959e-01 3.692219e+00 -2.436731e+01 -2.963690e-01 -3.470463e-01 -2.720995e-01 -1.737755e-01 -4.475601e-01 1.289336e-01 -7.598650e-03 2.884498e-01 -3.575202e-02 5.550026e-01 5.936328e-01 -3.883947e-02 -9.273870e-02 -1.352881e-01 1.890780e-01 -1.546655e-02 3.874866e-02 -5.133696e-02 -2.710115e-01 3.136329e-02 -2.949850e-02 -7.479899e-02 1.109901e-01 1.417436e-01 4.523367e-01 1.794671e-01
<VARIANCE> 39
 3.697283e+00 4.082049e+00 2.236291e+00 2.172149e+01 1.771816e+01 1.598452e+01 3.717911e+01 1.862146e+01 1.467965e+01 3.367434e+01 1.021735e+01 6.127272e+00 8.230307e+00 5.964775e-02 2.180277e-01 2.829605e-01 4.733362e-01 8.673696e-01 1.150393e+00 1.680304e+00 2.683890e+00 2.741449e+00 2.471574e+00 2.371943e+00 1.201447e+00 5.488026e-02 2.812186e-02 7.872538e-02 6.699815e-02 7.767902e-02 9.511358e-02 6.175070e-02 1.154571e-01 2.788022e-01 2.828227e-01 2.050465e-01 9.372629e-02 7.437884e-02 3.556096e-02
<GCONST> 6.702324e+01
<MIXTURE> 10 6.145917e-02
<MEAN> 39
 -7.143905e+00 9.296546e-01 -8.170917e+00 4.129197e+00 -2.786663e+00 2.867493e+00 1.856981e+00 -3.819203e+00 5.409502e+00 -4.254893e+00 2.167643e+00 6.119204e+00 -9.155486e+00 6.283519e-01 3.350472e+00 -1.124871e+00 -4.417077e+00 4.456088e-01 8.068439e-01 1.373242e+00 -1.706533e+00 -5.589550e-01 1.699221e+00 -6.492018e-01 -9.161622e-01 5.695509e+00 8.749919e-01 -5.713662e-01 4.415767e-01 -1.100547e+00 4.518434e-01 3.940960e-01 5.858753e-01 5.800915e-01 -5.346554e-01 7.063745e-01 -2.784967e-01 -5.268910e-01 2.344728e-01
<VARIANCE> 39
 3.441344e+01 4.157288e+01 2.576606e+01 2.605969e+01 5.716422e+01 3.805557e+01 2.603101e+01 3.557542e+01 1.882759e+01 4.013319e+01 1.234441e+01 2.347749e+01 5.133841e+01 9.687063e+00 3.798905e+00 5.649258e+00 4.263457e+00 9.687654e+00 4.090569e+00 5.260623e+00 4.774300e+00 6.943738e+00 4.826668e+00 3.067569e+00 4.950838e+00 3.625276e+00 4.529171e-01 1.043721e+00 7.763949e-01 1.244112e+00 9.227329e-01 8.730081e-01 7.307797e-01 4.854924e-01 3.877255e-01 7.817100e-01 4.945986e-01 6.875088e-01 1.059484e+00
<GCONST> 1.331631e+02
<MIXTURE> 11 7.108668e-02
<MEAN> 39
 -1.428897e+00 -9.576336e+00 -9.035660e-01 5.843186e+00 -2.119016e-01 2.956827e+00 2.750424e+00 5.277570e+00 1.352408e-02 -6.402049e+00 3.773806e-01 4.951528e+00 -2.339431e+01 -8.264967e-01 5.845159e-01 -5.853049e-01 -1.025281e-01 -3.810672e-02 -1.107135e-01 3.508416e-01 -2.087651e-01 4.210884e-01 2.172318e-01 6.274565e-02 2.686080e-01 5.239396e-01 -4.946677e-01 5.778877e-01 -4.566776e-01 9.591637e-02 3.776611e-02 -3.133247e-02 1.817286e-01 -4.894738e-01 4.379518e-01 1.736741e-01 6.277085e-02 2.270968e-01 8.170585e-01
<VARIANCE> 39
 4.219167e+00 6.042846e+00 7.620745e+00 1.771533e+01 1.927691e+01 1.266820e+01 2.358654e+01 1.222176e+01 1.984383e+01 1.681920e+01 1.747864e+01 1.295401e+01 3.840702e+00 8.098712e-01 7.767385e-01 9.174596e-01 7.189468e-01 1.483478e+00 1.193489e+00 2.202035e+00 2.065415e+00 2.338243e+00 1.454538e+00 1.560214e+00 1.037979e+00 4.093941e-01 2.207154e-01 3.868027e-01 3.980294e-01 3.748604e-01 1.931926e-01 2.731669e-01 6.339282e-01 6.534643e-01 5.717203e-01 3.730705e-01 5.326444e-01 2.492994e-01 3.420536e-01
<GCONST> 9.275778e+01
<MIXTURE> 12 5.038986e-02
<MEAN> 39
 2.466899e+00 1.755336e+01 6.254864e+00 1.258652e+01 -1.362392e+00 -6.573507e+00 1.229079e+00 -1.307819e+01 -5.436026e+00 -6.235959e-01 -4.732836e+00 6.055857e+00 -8.856089e+00 1.942014e+00 1.882372e+00 3.454680e+00 -7.085077e-01 -2.405184e+00 -2.246716e+00 3.066166e-01 -4.472956e+00 -1.407043e+00 3.104143e+00 -8.539269e-01 -9.166847e-01 3.303779e+00 -7.840372e-01 -2.170372e+00 -5.397455e-01 -1.056521e+00 1.411041e-02 9.911568e-01 3.548573e-01 1.383597e+00 1.023631e+00 2.859299e-01 3.721467e-01 -1.500474e-02 -2.480877e-01
<VARIANCE> 39
 6.525817e+00 9.693972e+00 2.147580e+01 3.874627e+01 4.358216e+01 2.763663e+01 2.506576e+01 5.700253e+01 6.329291e+01 4.573941e+01 3.344447e+01 1.996244e+01 9.428328e+00 2.712133e+00 6.299395e+00 3.864391e+00 2.186669e+00 2.273845e+00 7.023906e+00 2.223077e+00 7.903920e+00 4.603193e+00 2.372189e+00 4.929267e+00 4.461115e+00 2.440363e+00 3.188865e-01 4.083721e-01 5.191910e-01 3.554799e-01 7.946702e-01 5.461547e-01 7.375795e-01 1.638752e+00 1.462658e+00 9.532139e-01 3.799253e-01 2.860902e-01 3.453400e-01
<GCONST> 1.232842e+02
<MIXTURE> 13 2.939533e-02
<MEAN> 39
 2.478781e-01 -6.657357e+00 -6.407825e+00 2.680072e+00 -5.862369e+00 3.696063e+00 1.741471e+00 6.556066e+00 -9.401822e-01 -7.231018e+00 -1.054868e+00 4.700993e+00 -1.982515e+01 -2.019626e+00 2.774131e+00 -4.588117e-01 1.433834e+00 3.623267e-01 -9.326185e-01 -2.660635e-02 -1.392150e+00 1.293912e+00 5.160208e-01 -2.809313e-01 8.053781e-01 2.619681e+00 -3.036517e-01 5.426674e-01 -7.306878e-02 -7.163412e-01 7.917240e-01 -5.063742e-02 3.194529e-01 -3.966568e-01 2.779607e-01 8.069497e-01 1.517396e-01 -2.511171e-01 1.791518e+00
<VARIANCE> 39
 1.625766e+01 1.213810e+01 2.088318e+01 3.040626e+01 2.835402e+01 1.924361e+01 2.908860e+01 2.655292e+01 1.346221e+01 5.463889e+00 1.573093e+01 1.097649e+01 4.900957e+00 1.482952e+00 9.077502e-01 1.332348e+01 8.265326e+00 2.210487e+00 1.995164e+00 1.108841e+01 2.948116e+00 3.763870e+00 2.192634e+00 6.135637e+00 1.543748e+00 2.589301e+00 2.464394e-01 4.199728e-01 2.451489e+00 2.018696e+00 6.942892e-01 4.896489e-01 6.348424e-01 7.105410e-01 4.154638e-01 2.812353e-01 4.749551e-01 2.208516e-01 2.027733e-01
<GCONST> 1.141447e+02
<MIXTURE> 14 5.222033e-02
<MEAN> 39
 6.402374e+00 -5.279584e+00 -1.454002e+01 -1.222990e+01 9.118166e-02 6.740626e+00 6.146525e+00 -1.144808e-01 1.146272e+00 3.138204e+00 3.480085e+00 2.501771e+00 -1.195426e+01 -6.648374e-01 -1.666776e+00 -2.706257e-01 6.421335e-01 -2.464084e+00 1.304569e-01 -2.090736e-01 8.483951e-01 -2.906957e-02 -4.006798e-01 -2.475733e-01 8.526946e-01 -1.313660e+00 -1.353519e-01 4.216662e-01 4.818948e-01 4.382117e-01 1.845858e-01 7.976343e-02 -3.146222e-03 2.863764e-01 -5.530697e-02 -3.452285e-01 -3.870724e-01 -4.721221e-01 2.954898e-01
<VARIANCE> 39
 1.118570e+01 1.569770e+01 1.112398e+01 2.430392e+01 2.515385e+01 4.257952e+01 1.665784e+01 1.339111e+01 2.643887e+01 2.436724e+01 3.374790e+01 3.688742e+01 1.069735e+01 6.601034e-01 1.101657e+00 1.983809e+00 1.962004e+00 1.821446e+00 2.741904e+00 1.241500e+00 2.726110e+00 2.212139e+00 2.385509e+00 3.641710e+00 5.110969e+00 1.803346e-01 2.228798e-01 1.653262e-01 2.172541e-01 2.686729e-01 4.423892e-01 5.388568e-01 1.985829e-01 4.105867e-01 2.854145e-01 3.363453e-01 7.774975e-01 1.079783e+00 6.489435e-02
<GCONST> 1.022002e+02
<MIXTURE> 15 5.598811e-02
<MEAN> 39
 -1.395242e+00 -9.486582e+00 -1.511211e+00 5.274516e+00 2.005921e+00 3.648895e+00 4.065322e+00 6.975114e+00 1.980266e+00 -2.792557e+00 2.524521e+00 4.775449e+00 -2.238246e+01 -3.406860e-01 -2.430407e-01 -2.973444e-01 4.502289e-03 -1.227648e-01 -1.400939e-01 -2.324537e-01 -6.362321e-01 1.423141e-01 -1.124699e-01 -2.221370e-01 -3.559107e-01 -1.269207e-01 2.243674e-02 1.322640e-01 -1.393387e-01 -5.423357e-02 -6.367898e-02 -1.129795e-01 -6.829418e-02 5.125876e-03 -1.879070e-01 -1.340312e-01 -1.384746e-01 2.516228e-02 3.774878e-02
<VARIANCE> 39
 4.712997e+00 4.731580e+00 1.450543e+01 4.529988e+00 2.303647e+01 1.195742e+01 3.700933e+01 2.177192e+01 1.368832e+01 9.168569e+00 1.597309e+01 2.092721e+01 1.684154e+00 1.853446e-01 4.332249e-01 4.321030e-01 2.108737e-01 6.181290e-01 8.647577e-01 7.261299e-01 1.084609e+00 5.233991e-01 9.821793e-01 9.478042e-01 1.455885e+00 5.269507e-02 1.697100e-02 6.489746e-02 7.347330e-02 5.857833e-02 1.331377e-01 7.557569e-02 9.119017e-02 2.434486e-01 1.070120e-01 1.259002e-01 1.068967e-01 1.962125e-01 5.373996e-03
<GCONST> 5.930962e+01
<MIXTURE> 16 3.548129e-02
<MEAN> 39
 -1.052059e+01 -3.913546e+00 -2.269817e+00 3.998929e+00 6.650905e+00 -5.192806e-01 3.764915e+00 3.528005e+00 4.092624e+00 -6.206745e+00 4.275380e-01 4.792207e+00 -1.552575e+01 -5.448822e-01 2.496411e+00 -1.079046e+00 2.346666e-01 -3.389518e-01 -1.159203e+00 -9.001135e-01 -3.222696e+00 -7.929538e-01 -6.477302e-01 -2.029734e-01 -8.684543e-02 3.055747e+00 7.200775e-01 2.922167e-01 1.367300e-01 -4.704108e-01 -5.933709e-01 1.223284e-01 -4.266625e-01 -4.006640e-01 -4.723005e-01 3.659269e-01 -8.032886e-02 2.107345e-01 1.089469e+00
<VARIANCE> 39
 1.670248e+01 3.747570e+01 1.461639e+01 4.099854e+01 2.742929e+01 1.679930e+01 2.136533e+01 3.862643e+01 2.555317e+01 1.257512e+01 9.341207e+00 1.395874e+01 1.310202e+01 1.852611e+01 1.012601e+01 2.943213e+00 1.074698e+00 1.700572e+00 1.166762e+00 3.948335e+00 5.588617e+00 1.938296e+01 1.284267e+00 2.415322e+00 2.337720e+00 1.170305e+01 9.468817e-01 1.053723e+00 2.654699e-01 5.860226e-01 4.305750e-01 4.634813e-01 1.078481e+00 1.177438e+00 1.593510e+00 3.142560e-01 3.447867e-01 3.259949e-01 3.896625e-01
<GCONST> 1.210917e+02
<MIXTURE> 17 3.802412e-02
<MEAN> 39
 -8.059492e+00 -1.722323e+00 -8.488386e+00 3.779929e+00 -3.308574e+00 -8.591341e-01 6.690817e+00 3.302616e+00 8.069938e+00 -1.773481e+00 -1.265501e+01 7.953851e+00 -4.268847e+00 9.684265e-01 1.651683e-01 -3.249709e-01 -5.910088e-01 7.659972e-01 -1.003029e+00 1.949114e-01 -1.784000e-01 -7.193680e-01 2.672853e-01 -1.354095e+00 -1.247397e+00 4.233590e+00 6.393076e-01 -3.757636e-02 3.736119e-01 -4.414445e-01 6.347158e-01 2.443027e-01 -1.381130e-01 3.031567e-01 -1.253218e+00 2.805008e-02 1.167122e+00 -4.391044e-01 -1.343462e-01
<VARIANCE> 39
 1.714697e+01 1.619260e+01 4.402348e+01 2.219379e+01 2.641693e+01 5.322714e+01 8.573428e+01 5.474166e+01 2.459075e+01 8.624694e+00 5.993065e+01 4.471586e+01 7.282828e+01 4.575247e+00 5.317155e+00 3.137813e+00 5.560083e+00 2.841728e+00 1.899102e+00 8.598112e+00 2.450463e+00 8.007576e+00 1.430992e+00 7.583405e+00 4.109871e+00 1.024921e+01 5.837754e-01 1.414731e+00 8.524048e-01 5.970168e-01 9.911050e-01 4.622873e-01 2.245619e+00 3.904958e-01 1.248549e+00 4.794094e-01 1.127496e+00 1.504005e+00 1.068730e+00
<GCONST> 1.347215e+02
<MIXTURE> 18 3.536920e-02
<MEAN> 39
 -1.322330e+00 7.310346e-01 -1.264125e+01 -1.925693e+01 8.228250e+00 8.825262e+00 8.977163e+00 -6.471102e+00 1.405411e+00 2.396242e+00 6.210033e+00 -5.019304e+00 1.349298e+01 -5.965258e-03 -3.406762e-01 -9.865738e-02 5.827374e-01 2.485695e-01 -2.918631e-01 4.843711e-01 1.036964e-01 2.663488e-01 -4.918770e-01 2.645267e-01 -4.119905e-01 1.715200e-01 1.736045e-01 3.074572e-01 1.659803e-01 5.286610e-01 -5.586497e-01 -1.668457e-01 -3.439301e-01 3.053813e-01 -2.888841e-01 -1.836202e-01 -9.356155e-02 3.202879e-01 -5.811495e-01
<VARIANCE> 39
 7.302016e-01 6.773231e+00 1.888010e+01 5.361746e+00 8.187901e+00 6.008912e+00 3.392496e+01 8.420287e+00 8.995780e+00 1.150659e+01 2.127068e+01 8.328930e+00 1.094114e+00 2.407323e-01 3.662843e-01 3.502242e-01 9.978318e-01 9.953479e-01 7.618169e-01 1.004745e+00 8.245730e-01 1.867887e+00 1.258138e+00 1.481512e+00 5.189173e-01 3.471728e-01 3.662960e-02 4.295727e-02 1.618450e-01 5.170569e-01 2.150607e-01 1.585799e-01 7.760623e-02 1.885662e-01 4.476814e-01 4.310094e-01 2.361151e-01 1.185954e-01 1.369106e-01
<GCONST> 6.919234e+01
<MIXTURE> 19 4.105200e-02
<MEAN> 39
 5.736938e-03 5.815775e+00 -1.370593e+01 -1.675692e+01 4.705106e+00 8.170968e+00 5.294494e+00 -7.525993e+00 -4.321693e+00 7.495955e+00 7.091745e-01 -5.225482e+00 8.954219e+00 6.119962e-01 -1.480931e+00 -9.440496e-01 -3.141322e+00 2.745899e+00 7.758516e-01 1.231159e+00 -1.892838e-01 -1.038732e+00 1.643649e+00 3.506368e-02 -1.666740e+00 3.515184e+00 -3.680440e-01 -1.117421e+00 6.724841e-01 1.949764e+00 -6.246568e-01 -7.212303e-01 -3.134529e-01 5.996100e-01 1.066590e+00 -9.980903e-01 1.484589e-01 1.005745e+00 -1.481589e+00
<VARIANCE> 39
 6.110816e+00 1.420559e+01 2.141292e+01 2.279429e+01 3.186906e+01 1.393208e+01 2.630280e+01 3.815079e+01 5.217126e+01 2.990330e+01 7.928109e+00 1.547329e+01 1.181369e+01 1.977865e+00 3.610915e+00 2.671681e+00 1.120897e+01 5.546048e+00 2.579116e+00 3.133589e+00 2.005964e+00 5.804748e+00 6.162371e+00 2.000548e+00 4.236102e+00 2.912973e+00 2.078161e-01 6.897240e-01 3.169503e-01 9.209643e-01 5.729271e-01 8.262166e-01 4.747745e-01 6.237036e-01 1.506671e+00 1.041628e+00 3.705925e-01 6.146803e-01 3.112923e-01
<GCONST> 1.192829e+02
<MIXTURE> 20 4.378999e-02
<MEAN> 39
 -7.826518e-01 -8.335288e+00 -2.248955e+00 7.895255e+00 -3.322009e+00 5.678835e+00 3.539126e+00 2.532704e+00 3.719554e+00 -5.527265e-01 1.781133e+00 5.780449e+00 -2.357394e+01 -2.768619e+00 9.049143e-01 5.090579e-01 1.385802e-01 -5.060399e-01 2.271866e-01 -3.677440e-01 -2.299421e+00 1.528504e+00 7.847239e-01 5.433238e-01 3.825186e-01 3.179058e+00 -4.308396e-01 6.133937e-01 6.583236e-01 -4.043895e-01 -1.066808e-01 -1.314066e-01 -4.284613e-01 -7.040542e-01 -1.492066e-01 -2.920223e-01 -4.236057e-01 -3.933653e-01 1.743998e+00
<VARIANCE> 39
 5.725905e+00 4.634359e+00 1.132565e+01 2.779319e+01 1.709303e+01 6.328444e+00 2.000584e+01 3.201800e+01 1.013803e+01 2.111535e+01 1.049426e+01 1.078183e+01 1.306156e+01 2.632473e+00 2.956748e+00 9.211502e+00 4.819529e+00 3.365178e+00 4.101529e+00 2.269251e+00 2.258107e+00 1.639942e+00 2.820872e+00 1.981103e+00 1.951757e+00 3.935539e+00 4.297888e-01 4.944004e-01 1.191806e+00 6.871252e-01 3.376790e-01 6.857542e-01 8.909600e-01 5.481701e-01 3.171524e-01 2.963793e-01 3.471575e-01 3.080677e-01 1.194054e-01
<GCONST> 1.082231e+02
<MIXTURE> 21 3.171885e-02
<MEAN> 39
 -2.480403e+01 -3.400754e+00 -8.166379e-01 -3.650747e+00 6.057690e+00 3.752581e+00 2.291550e+00 1.135974e+01 6.659575e+00 1.609913e-01 4.092669e+00 1.112796e+01 -2.000204e+00 8.035485e-01 -1.069509e+00 2.804421e-01 2.310814e-01 -1.111516e+00 3.123051e-01 -3.086953e-01 -1.015737e+00 -3.748528e-01 -2.083956e-01 -5.904283e-01 -1.072050e+00 -7.298020e-01 4.910859e-01 4.964363e-01 -8.792089e-03 6.061974e-01 6.596074e-01 -1.445817e-02 -1.056081e-01 -7.230231e-01 -5.303043e-01 -1.757879e-01 -4.110887e-01 -2.288052e-01 -5.884283e-01
<VARIANCE> 39
 8.897027e+00 3.879477e+01 6.340322e+00 1.947638e+01 1.778181e+01 3.546511e+01 5.425142e+01 2.742356e+01 1.201697e+01 8.528663e+00 1.159228e+01 2.161021e+01 1.051496e+01 4.157474e+00 3.033643e+00 9.633833e-01 4.166766e+00 3.981539e+00 2.580243e+00 4.221832e+00 3.375071e+00 8.314359e-01 2.322840e+00 2.878728e+00 2.362481e+00 4.775143e+00 2.783851e-01 9.312186e-01 1.674621e-01 8.681462e-01 6.439508e-01 7.066296e-01 8.739248e-01 9.329058e-01 5.777412e-01 2.453545e-01 2.163880e-01 3.518640e-01 2.907319e-01
<GCONST> 1.116104e+02
<STATE> 3
<NUMMIXES> 21
<MIXTURE> 1 2.800717e-02
<MEAN> 39
 4.094858e+00 5.833333e+00 -1.148540e+01 -1.812981e+01 2.139191e+00 1.263723e+01 7.677473e+00 -5.849620e+00 -2.980078e+00 7.299386e+00 2.219740e+00 -1.199306e+00 5.696311e+00 -4.467768e-01 -1.427027e+00 -3.990574e-01 3.565612e-01 1.348403e+00 1.044648e+00 -6.624857e-01 -1.053012e+00 6.304364e-01 1.197953e+00 5.091798e-01 -1.116302e+00 7.928610e-01 3.689875e-02 -4.336853e-01 3.653454e-01 8.498787e-01 5.501666e-04 -5.709685e-01 -5.935550e-01 2.883623e-01 2.677411e-01 -2.353714e-01 -1.553861e-01 -1.478442e-01 -6.658788e-02
<VARIANCE> 39
 4.672400e+00 1.949693e+01 4.023514e+01 2.087118e+01 4.793669e+01 6.933808e+01 4.794617e+01 4.171816e+01 7.003336e+01 6.926038e+01 4.153964e+01 4.331197e+01 6.061022e+00 4.015970e-01 1.608015e+00 2.741456e+00 3.048930e+00 2.107919e+00 3.565286e+00 5.042583e+00 3.408267e+00 4.690152e+00 3.099257e+00 2.108565e+00 3.548254e+00 4.611518e-01 8.286928e-02 2.188656e-01 3.101618e-01 4.242317e-01 5.051556e-01 7.036330e-01 4.899413e-01 6.457789e-01 4.853468e-01 6.122399e-01 3.523447e-01 6.468253e-01 6.309717e-02
<GCONST> 1.131995e+02
<MIXTURE> 2 4.627252e-02
<MEAN> 39
 6.956504e+00 -1.189684e+00 3.979807e+00 6.291873e+00 -2.382901e+00 1.093050e+00 -4.709308e-01 4.756076e+00 -6.283869e-01 -3.709255e+00 5.253844e-01 2.195996e+00 -1.443407e+01 -3.623058e+00 -1.378706e+00 9.551474e-01 -4.786068e-01 3.858116e-01 1.490562e+00 -4.063872e-01 -4.274355e-01 8.225651e-01 3.372550e-01 1.901218e-01 1.134184e+00 2.076853e+00 -1.080653e+00 -2.015596e-01 -9.893128e-02 -3.293329e-01 7.857051e-02 1.717446e-02 -4.028505e-01 -3.816506e-01 8.688312e-02 2.778978e-01 1.517799e-01 -1.741713e-01 1.926279e+00
<VARIANCE> 39
 3.658718e+01 4.329404e+01 8.361877e+01 7.698719e+01 5.423036e+01 5.176418e+01 3.382475e+01 6.531816e+01 5.799712e+01 4.110620e+01 3.171459e+01 2.560905e+01 1.403915e+01 5.522189e+00 5.885926e+00 1.043723e+01 9.451688e+00 8.776746e+00 7.127747e+00 5.714104e+00 6.959888e+00 6.490622e+00 5.413980e+00 4.249166e+00 3.284907e+00 7.044324e+00 1.089406e+00 8.941785e-01 1.257892e+00 1.107000e+00 9.621903e-01 1.253936e+00 1.025099e+00 1.236849e+00 1.446614e+00 7.915128e-01 6.883748e-01 4.415778e-01 4.211684e-01
<GCONST> 1.434229e+02
<MIXTURE> 3 5.191484e-02
<MEAN> 39
 -5.148980e-01 -2.774680e+00 1.126757e+01 4.273971e+00 -9.612953e+00 -7.427799e+00 -4.847430e+00 4.515471e+00 -5.502444e+00 -1.597352e+00 9.777167e+00 -2.431890e+00 7.454344e+00 5.078380e-01 1.184715e-01 4.216779e-01 7.604029e-01 -3.206096e-01 1.082618e-02 1.159453e-01 -1.638129e-01 -1.934908e-02 -4.421055e-01 1.011739e-01 2.271955e-01 -6.783043e-01 1.297182e-01 3.488787e-01 -1.220709e-01 1.916276e-01 4.845255e-01 3.976455e-02 2.522179e-01 -1.657737e-01 2.101340e-01 1.333944e-01 -6.267405e-01 1.851001e-01 -5.566221e-01
<VARIANCE> 39
 1.171305e+01 2.209351e+01 2.442192e+01 4.986109e+01 5.793640e+01 2.887687e+01 3.221665e+01 6.962238e+01 6.618456e+01 3.571807e+01 3.549326e+01 4.479693e+01 5.436863e+00 1.397725e+00 1.976185e+00 2.529187e+00 3.213973e+00 3.862660e+00 3.266632e+00 2.790782e+00 3.072656e+00 3.553961e+00 2.696938e+00 3.499141e+00 2.674376e+00 1.327289e+00 2.615153e-01 1.765896e-01 3.189017e-01 4.234992e-01 5.622662e-01 6.665195e-01 4.867549e-01 6.658142e-01 6.297804e-01 4.474208e-01 5.535138e-01 5.913866e-01 1.826498e-01
<GCONST> 1.176145e+02
<MIXTURE> 4 4.732234e-02
<MEAN> 39
 1.578057e+00 -1.083497e+00 -1.230886e+01 -1.257587e+01 8.928003e+00 6.623445e+00 3.114474e+00 -4.278957e+00 2.077180e+00 7.949591e+00 1.131029e-01 -6.750698e+00 9.261766e+00 -5.899391e-02 -7.345272e-01 3.186337e-02 9.887993e-01 6.110671e-01 -5.739301e-01 -5.424691e-01 1.030574e+00 9.022266e-01 -6.834797e-01 -2.899680e-01 5.036037e-02 -1.365657e-02 5.759948e-02 1.486625e-01 4.732726e-01 7.009535e-01 -4.596745e-01 -3.392397e-01 -2.575878e-01 5.077764e-01 -1.113522e-01 -6.874934e-01 -2.346279e-01 5.471349e-01 -5.426434e-01
<VARIANCE> 39
 1.251667e+01 2.184109e+01 4.279338e+01 3.658003e+01 6.525839e+01 5.682785e+01 4.712365e+01 6.520872e+01 7.675935e+01 6.903770e+01 4.983195e+01 2.189971e+01 9.051134e+00 1.335981e+00 3.318915e+00 2.335630e+00 8.877761e+00 5.368608e+00 7.989010e+00 5.767284e+00 3.777353e+00 6.460262e+00 3.726256e+00 3.449493e+00 4.237257e+00 1.897588e+00 3.504438e-01 3.006745e-01 4.006696e-01 7.307277e-01 7.100076e-01 9.485523e-01 5.537136e-01 8.855793e-01 1.068219e+00 8.145777e-01 7.753212e-01 5.562409e-01 2.066676e-01
<GCONST> 1.293875e+02
<MIXTURE> 5 5.421257e-02
<MEAN> 39
 4.311715e+00 9.167561e+00 8.459963e+00 7.855761e+00 -6.456202e+00 -8.034845e+00 4.406316e+00 -9.762608e+00 -2.864716e+00 5.208322e+00 -5.889516e+00 -2.669536e+00 -1.828243e+00 3.432468e-01 1.446210e+00 3.292207e-01 9.366461e-01 -7.599623e-01 -1.475630e-01 2.319357e-01 -1.315781e+00 2.577712e-01 3.151940e-01 3.354768e-02 2.631920e-01 -1.137170e+00 -2.789088e-02 -5.545649e-01 -2.390526e-01 -3.433821e-01 4.643947e-01 3.875161e-01 -4.911508e-01 7.471960e-01 -7.155988e-02 -5.393226e-01 3.885720e-01 -3.245525e-02 2.134119e-01
<VARIANCE> 39
 1.985182e+01 2.835879e+01 4.811759e+01 6.111352e+01 6.959662e+01 6.149780e+01 5.707441e+01 6.240473e+01 6.682005e+01 4.999900e+01 5.609245e+01 3.118507e+01 1.444844e+01 4.910482e-01 3.112085e+00 2.793170e+00 2.900567e+00 4.271353e+00 4.277517e+00 4.713695e+00 6.482266e+00 3.157399e+00 6.565125e+00 3.964965e+00 2.016397e+00 7.777670e-01 7.309402e-02 3.276307e-01 4.027312e-01 4.782563e-01 5.894068e-01 6.333451e-01 5.883157e-01 7.111166e-01 5.115218e-01 7.709645e-01 4.584843e-01 4.611720e-01 1.239370e-01
<GCONST> 1.226800e+02
<MIXTURE> 6 4.281379e-02
<MEAN> 39
 7.875577e+00 3.790824e-01 -7.387576e+00 8.719447e-01 -7.402498e+00 1.177527e+01 -8.151281e+00 -9.305197e+00 -4.590416e+00 9.175045e-01 9.604499e+00 -5.295460e-01 3.286110e+00 1.130164e+00 7.893479e-01 -7.722712e-01 -1.606493e+00 -5.675738e-01 7.326563e-01 4.807200e-01 3.232493e-01 -7.245290e-01 6.508753e-01 1.393211e-01 -5.109956e-01 8.277175e-02 -5.398453e-01 -2.366438e-01 3.290326e-01 3.029513e-01 4.749314e-01 -5.485430e-01 5.714536e-01 5.113926e-01 4.552999e-01 -1.362049e-01 -8.562063e-01 2.431716e-01 -2.872053e-01
<VARIANCE> 39
 1.443280e+01 2.162417e+01 3.763877e+01 6.271836e+01 6.053785e+01 5.377526e+01 6.806086e+01 1.349211e+02 5.748298e+01 5.090893e+01 3.330047e+01 2.879314e+01 1.352992e+01 4.477977e+00 4.940870e+00 6.635140e+00 9.073901e+00 8.331123e+00 6.709347e+00 6.251334e+00 1.239015e+01 9.248260e+00 5.587256e+00 7.126736e+00 4.490420e+00 1.389504e+00 5.649813e-01 3.945820e-01 5.952775e-01 8.669772e-01 9.570051e-01 1.098981e+00 1.059007e+00 1.957567e+00 1.244147e+00 7.260073e-01 9.751557e-01 8.142663e-01 2.462686e-01
<GCONST> 1.400433e+02
<MIXTURE> 7 5.423518e-02
<MEAN> 39
 -1.102323e-01 -5.590868e+00 -4.289638e+00 -8.324813e+00 6.683273e+00 -5.507633e+00 -1.705776e+00 1.083192e+01 2.168144e+00 -2.355103e+00 8.041903e-01 -7.072386e+00 1.143902e+01 4.816588e-01 9.289969e-02 1.037352e+00 6.807575e-01 -5.468381e-01 -1.948730e-01 -1.157211e+00 -1.205917e-01 -1.778105e-01 1.747672e-02 3.201221e-01 5.866152e-01 -6.937161e-01 7.324343e-02 1.307719e-01 2.083221e-01 5.492625e-01 -2.734403e-01 1.769055e-01 8.152482e-02 -6.165298e-01 -4.176349e-03 1.861509e-01 -2.908119e-01 3.866315e-01 -3.800792e-01
<VARIANCE> 39
 1.479427e+01 1.413973e+01 3.749387e+01 2.880982e+01 3.372412e+01 5.809935e+01 7.526403e+01 5.375277e+01 5.867064e+01 4.528671e+01 4.425499e+01 3.632230e+01 5.298324e+00 4.685487e-01 9.752054e-01 2.100257e+00 2.020195e+00 3.085264e+00 2.659954e+00 3.797380e+00 3.600852e+00 1.941555e+00 2.027751e+00 2.395257e+00 2.171097e+00 4.161764e-01 1.498814e-01 1.876510e-01 2.319625e-01 2.282392e-01 2.821516e-01 4.835335e-01 6.971745e-01 6.103840e-01 4.341720e-01 3.982754e-01 3.476223e-01 3.582194e-01 1.064532e-01
<GCONST> 1.089166e+02
<MIXTURE> 8 6.061462e-02
<MEAN> 39
 1.068283e+00 -6.577250e-01 -5.359212e-01 -1.238407e+00 2.665588e+00 -1.784759e+00 -4.205578e+00 2.228154e+00 -5.952608e-01 2.559180e+00 -1.871999e+00 -1.625248e+00 2.507043e+00 -6.702703e-01 -1.008401e+00 -7.295340e-01 -1.610810e+00 4.504530e-02 -7.801149e-02 8.012533e-01 1.626108e+00 -3.634751e-01 2.656734e-01 4.287615e-01 -5.680011e-01 2.535118e+00 -5.329928e-02 5.850133e-02 2.238164e-01 3.432982e-01 -4.483781e-01 1.368902e-01 6.265354e-01 -3.793587e-01 -5.248369e-02 -2.210494e-01 2.081747e-01 3.305969e-02 -2.199245e-01
<VARIANCE> 39
 3.176817e+01 3.576602e+01 1.502401e+02 9.170103e+01 6.207908e+01 6.163027e+01 8.859708e+01 6.415443e+01 1.138393e+02 5.769150e+01 7.114627e+01 5.704753e+01 3.441511e+01 6.897544e+00 7.581180e+00 1.255789e+01 8.532502e+00 1.014731e+01 6.689613e+00 7.363872e+00 1.186516e+01 1.018156e+01 7.790261e+00 5.473129e+00 6.403100e+00 3.006033e+00 7.639726e-01 9.261070e-01 1.655580e+00 1.200569e+00 1.188809e+00 9.424525e-01 1.398631e+00 1.156311e+00 1.652755e+00 1.182705e+00 7.748755e-01 1.138480e+00 7.003727e-01
<GCONST> 1.532493e+02
<MIXTURE> 9 2.970780e-02
<MEAN> 39
 2.875495e+00 -5.284665e+00 -2.007376e+00 1.018393e+00 4.390427e+00 -3.031481e-01 -3.729877e+00 3.240019e+00 2.773587e+00 -2.013255e+00 -3.315639e+00 -3.845051e+00 6.983690e+00 8.099505e-01 1.435721e+00 1.169851e+00 2.880779e+00 -1.065657e+00 -1.155750e+00 -4.198159e-01 -2.493747e+00 3.151741e-01 6.752185e-01 -1.052821e+00 1.617908e+00 -1.819131e+00 -2.713247e-02 8.328148e-01 -8.284298e-02 -3.149778e-01 -1.566494e-01 -8.628564e-02 6.726193e-01 -5.698943e-01 -3.116196e-01 5.042938e-01 1.471278e-02 -9.280591e-02 -2.793108e-01
<VARIANCE> 39
 9.941945e+00 2.835411e+01 5.615678e+01 3.672368e+01 4.788961e+01 4.834596e+01 6.947308e+01 7.598084e+01 7.628107e+01 4.206692e+01 4.696267e+01 3.007304e+01 7.132926e+00 8.219984e-01 5.506555e+00 2.394348e+00 3.479043e+00 3.560595e+00 4.651741e+00 6.190057e+00 8.671049e+00 4.204654e+00 4.940608e+00 4.124770e+00 1.918635e+00 5.222613e-01 9.504078e-02 4.807228e-01 3.570047e-01 5.874568e-01 7.411059e-01 8.553293e-01 8.892916e-01 1.078528e+00 7.248737e-01 5.631192e-01 5.416157e-01 6.023510e-01 2.357508e-01
<GCONST> 1.248264e+02
<MIXTURE> 10 6.225889e-02
<MEAN> 39
 1.137144e+01 2.030924e+00 2.306971e+00 7.575314e+00 -1.140058e+00 1.589812e+00 -2.625161e+00 -4.468186e-01 -2.365875e+00 -1.131913e+00 1.965982e+00 2.445007e-01 -7.785372e+00 5.945164e-01 7.680236e-02 4.549292e-01 3.960763e-01 3.536326e-01 7.182754e-02 8.002996e-02 1.137237e+00 -1.804232e-01 -6.377784e-01 -6.723940e-01 2.995664e-01 -2.055029e+00 -6.668170e-01 -1.199951e-01 6.628882e-02 -5.338361e-01 -2.888420e-01 1.202625e-01 6.148166e-02 -4.679200e-02 1.512692e-01 1.532934e-01 3.659373e-02 -3.819563e-02 5.103642e-01
<VARIANCE> 39
 1.863726e+01 6.018512e+01 9.278042e+01 6.463354e+01 7.331085e+01 7.565093e+01 4.456956e+01 9.434345e+01 4.385917e+01 5.776197e+01 4.441565e+01 2.503305e+01 2.425114e+01 1.783747e+00 3.181500e+00 4.104003e+00 3.702078e+00 4.960361e+00 5.119824e+00 4.657150e+00 6.602341e+00 2.825464e+00 3.364729e+00 3.173812e+00 2.166495e+00 2.886181e+00 2.889746e-01 3.511974e-01 6.417509e-01 5.803424e-01 6.916588e-01 8.028086e-01 8.208942e-01 8.496079e-01 5.295603e-01 7.078841e-01 5.710819e-01 4.631905e-01 2.888517e-01
<GCONST> 1.309835e+02
<MIXTURE> 11 5.196441e-02
<MEAN> 39
 -1.476173e+00 -5.209275e+00 -5.913956e+00 -8.271000e+00 7.988997e+00 -3.933609e+00 4.817698e+00 6.547433e+00 3.935966e+00 -2.716343e+00 -3.987769e+00 -5.789396e+00 1.228730e+01 2.610463e-03 5.354456e-02 -6.923188e-02 -1.527534e-01 2.711287e-01 -3.463163e-02 -2.432763e-01 3.438857e-01 -1.073480e-01 -2.618167e-01 3.482539e-01 -2.419902e-01 -2.449467e-02 1.278615e-01 3.988609e-02 2.421024e-01 1.897881e-01 -2.358842e-01 2.690745e-02 -4.596922e-01 -1.421402e-02 2.447044e-02 1.925162e-01 1.128936e-01 6.851430e-02 -2.000337e-01
<VARIANCE> 39
 1.140905e+01 1.011497e+01 3.833345e+01 2.197141e+01 4.006988e+01 4.197482e+01 4.881332e+01 5.177268e+01 4.854950e+01 5.837121e+01 3.241753e+01 2.464410e+01 2.769899e+00 1.697080e-01 2.440027e-01 8.212247e-01 6.347298e-01 1.573813e+00 7.696837e-01 1.652035e+00 1.269031e+00 1.711398e+00 1.426637e+00 1.539647e+00 1.052812e+00 9.615428e-02 3.623824e-02 6.589124e-02 1.579392e-01 1.213709e-01 2.012458e-01 1.547413e-01 2.379844e-01 2.910691e-01 3.332667e-01 2.915963e-01 2.145910e-01 2.191220e-01 2.704352e-02
<GCONST> 8.507633e+01
<MIXTURE> 12 6.386602e-02
<MEAN> 39
 -8.509542e+00 -7.757380e+00 5.698304e+00 7.591238e+00 -3.167129e+00 6.168001e+00 -3.189524e+00 5.811687e-01 4.834566e+00 -4.124881e+00 -3.133397e-01 4.373493e+00 6.891460e-01 -2.636151e-01 7.300534e-01 3.098854e-01 -7.974721e-01 -1.441534e-01 -5.324974e-01 -1.137499e+00 -1.545980e+00 -7.808194e-01 1.296823e-01 8.635879e-01 -6.600384e-01 3.236907e+00 1.550430e+00 9.578441e-01 -7.797930e-01 -7.966813e-01 4.409519e-03 -5.457601e-01 7.248335e-02 -5.367919e-02 -7.549793e-01 3.644992e-01 3.589434e-01 -5.412539e-01 -5.992697e-01
<VARIANCE> 39
 6.632506e+01 7.136643e+01 1.184698e+02 7.625054e+01 8.858842e+01 6.459676e+01 6.960349e+01 8.256123e+01 6.286827e+01 5.114713e+01 4.263582e+01 2.603939e+01 3.681149e+01 1.469018e+01 9.299307e+00 1.115024e+01 9.612480e+00 7.202582e+00 7.892240e+00 8.142035e+00 1.081534e+01 1.031117e+01 5.625616e+00 4.559116e+00 4.807739e+00 8.481861e+00 1.120586e+00 1.453847e+00 1.332203e+00 2.011775e+00 1.928632e+00 1.660265e+00 1.694845e+00 1.840548e+00 1.345368e+00 1.148701e+00 8.362385e-01 8.548486e-01 9.425462e-01
<GCONST> 1.564623e+02
<MIXTURE> 13 5.024691e-02
<MEAN> 39
 -7.069189e+00 6.038311e+00 1.994115e+01 6.717248e+00 -1.268584e+01 -7.095867e+00 -2.047572e-01 -1.954341e+00 -8.130581e+00 -1.417566e+00 7.035404e+00 2.493707e+00 3.702070e+00 3.862489e-01 1.013831e-01 -3.164546e-01 -2.295874e-01 -4.931774e-01 -6.748722e-01 -5.647925e-02 8.778419e-02 1.218570e-01 3.645367e-01 3.791686e-01 -2.584868e-01 8.446115e-03 3.214903e-01 -2.761850e-01 -7.327642e-01 5.132430e-02 5.493779e-01 3.653159e-01 -1.465305e-01 2.556800e-02 5.635977e-01 -2.570151e-02 -3.066867e-01 -8.801775e-02 -4.397854e-01
<VARIANCE> 39
 2.033086e+01 2.447642e+01 4.867548e+01 5.401969e+01 2.785097e+01 5.091266e+01 3.948500e+01 5.115079e+01 4.142396e+01 3.031920e+01 3.548796e+01 3.251100e+01 1.752243e+01 3.762829e+00 4.757235e+00 5.689197e+00 3.384627e+00 7.570991e+00 5.232147e+00 3.980161e+00 2.889553e+00 5.435604e+00 2.250288e+00 4.504611e+00 2.750632e+00 3.953345e+00 4.143664e-01 4.930259e-01 7.743798e-01 6.971957e-01 9.796066e-01 7.157682e-01 6.258435e-01 7.994871e-01 8.483923e-01 4.887025e-01 6.285908e-01 5.013244e-01 3.907470e-01
<GCONST> 1.298120e+02
<MIXTURE> 14 7.070883e-02
<MEAN> 39
 5.865848e+00 7.601627e+00 -4.937197e+00 -1.133991e+01 -1.903231e+00 6.735647e+00 5.384464e+00 -6.335129e+00 -5.641322e+00 2.423855e+00 -5.327838e+00 -5.667743e-01 2.453978e+00 1.381218e-01 4.726658e-01 1.199014e-01 -2.620105e-01 7.158515e-02 -2.299397e-01 5.986598e-01 6.449112e-02 -2.330836e-01 3.416529e-02 -3.615281e-01 -2.000263e-01 -3.490241e-01 -4.757079e-02 -2.626725e-01 -6.216293e-02 3.054619e-01 1.224528e-01 -1.331926e-03 -2.272478e-01 6.515231e-02 5.395863e-02 -3.176916e-02 3.774472e-01 -3.523843e-02 3.385606e-02
<VARIANCE> 39
 6.389566e+00 1.953810e+01 5.402579e+01 6.784879e+01 6.931931e+01 5.145965e+01 8.778235e+01 1.203685e+02 5.570700e+01 5.234382e+01 3.417709e+01 3.432602e+01 6.395748e+00 4.353772e-01 1.154787e+00 2.431698e+00 3.547882e+00 2.462727e+00 2.498499e+00 4.456596e+00 4.305794e+00 2.694794e+00 2.685037e+00 3.459977e+00 2.113641e+00 5.964375e-01 9.198400e-02 2.057554e-01 3.939950e-01 4.470558e-01 4.630877e-01 4.384790e-01 6.492941e-01 8.661786e-01 5.838807e-01 5.860281e-01 4.154083e-01 4.185357e-01 1.187066e-01
<GCONST> 1.159209e+02
<MIXTURE> 15 3.185315e-02
<MEAN> 39
 -1.473085e+01 -5.643896e-01 1.249997e-01 -5.224280e+00 3.166366e+00 5.448570e+00 -3.007886e+00 8.430148e+00 8.223667e+00 -1.726396e+00 2.629545e-01 4.446077e+00 3.904041e+00 -8.633952e-01 2.625338e-01 9.877037e-01 7.965769e-01 -9.378909e-01 3.125858e-01 2.046041e-01 6.759334e-02 -4.134302e-01 -8.075005e-01 2.572253e-01 4.185678e-01 -5.667411e-01 1.025372e+00 8.358405e-02 -2.493980e-01 1.840525e-01 6.299923e-03 -6.406416e-01 -5.299742e-02 -1.846450e-01 -5.106953e-01 6.534372e-02 -8.531564e-02 -5.603519e-01 -3.762221e-01
<VARIANCE> 39
 7.654574e+01 3.050146e+01 7.085753e+01 3.734123e+01 5.356000e+01 3.147144e+01 4.389480e+01 5.934452e+01 3.134985e+01 3.183969e+01 4.405517e+01 3.854932e+01 5.427479e+01 1.100324e+01 3.857796e+00 2.431353e+00 4.622967e+00 4.299956e+00 5.698982e+00 4.846695e+00 4.188236e+00 4.148226e+00 3.478070e+00 3.841228e+00 3.056256e+00 5.549557e+00 9.746422e-01 7.233194e-01 5.290926e-01 5.756611e-01 8.141979e-01 7.015601e-01 9.428935e-01 7.834050e-01 6.912655e-01 7.082210e-01 6.743827e-01 5.806686e-01 2.105737e-01
<GCONST> 1.345581e+02
<MIXTURE> 16 6.101520e-02
<MEAN> 39
 -1.162431e+00 -5.724977e+00 -5.816835e+00 -5.176902e+00 5.146548e+00 -5.473995e+00 3.180745e+00 6.224375e+00 2.758084e+00 1.247758e+00 -5.022642e+00 -4.823712e+00 1.076506e+01 -1.922217e-01 -4.286387e-01 -8.697421e-01 -6.200521e-01 5.432317e-01 -4.200145e-01 1.123107e+00 9.249648e-01 -5.922605e-02 -4.307834e-01 -7.184626e-02 -5.246276e-01 7.231458e-01 6.030471e-02 4.059227e-01 3.812395e-01 8.262963e-02 -6.733593e-02 1.612522e-01 -2.022626e-01 -4.519498e-01 -6.546709e-02 -3.520601e-02 2.230224e-01 1.733606e-01 -3.963830e-01
<VARIANCE> 39
 1.408803e+01 1.137368e+01 5.166099e+01 3.536015e+01 5.349797e+01 2.808444e+01 9.013063e+01 4.453382e+01 5.318724e+01 4.552202e+01 5.072515e+01 4.109916e+01 8.763079e+00 8.026203e-01 1.425465e+00 5.326762e+00 2.471243e+00 4.040246e+00 3.900654e+00 4.448067e+00 4.667451e+00 3.965279e+00 4.768209e+00 3.089670e+00 2.980443e+00 8.332844e-01 1.287192e-01 2.834024e-01 4.778694e-01 4.518847e-01 5.263454e-01 3.908081e-01 6.927890e-01 7.604045e-01 7.082672e-01 6.593880e-01 4.504648e-01 5.473791e-01 2.774285e-01
<GCONST> 1.204517e+02
<MIXTURE> 17 4.693802e-02
<MEAN> 39
 4.955893e+00 -1.287095e+00 -3.504287e+00 -1.735654e+00 1.888407e+00 2.134067e+00 -1.264507e+00 1.113184e+01 9.910272e-01 -3.421478e+00 -3.844358e+00 -1.703682e+00 -1.191245e+01 -3.306205e-01 -7.106075e-01 -4.298017e-01 2.005774e-01 -6.513674e-01 3.162977e-01 3.669711e-01 2.909611e-01 5.262681e-02 -1.241877e-01 1.284056e-02 2.805235e-01 -1.513687e+00 -8.684936e-01 -2.723446e-01 4.513409e-01 2.160584e-01 -2.786580e-01 -2.749177e-02 -6.838673e-02 -5.713345e-01 2.080050e-01 1.257834e-01 4.246912e-01 3.238659e-01 1.096914e+00
<VARIANCE> 39
 7.898046e+01 3.641807e+01 6.492408e+01 7.716798e+01 6.148576e+01 6.516106e+01 6.278481e+01 8.651271e+01 7.378168e+01 5.305944e+01 3.544213e+01 4.307402e+01 2.131669e+01 2.969678e+00 2.746056e+00 5.510422e+00 6.226163e+00 3.977448e+00 5.289465e+00 5.111277e+00 5.573672e+00 5.439580e+00 3.415967e+00 3.307136e+00 2.745905e+00 2.593210e+00 6.634259e-01 5.172185e-01 8.329476e-01 1.237510e+00 1.026199e+00 9.338301e-01 1.050994e+00 9.930136e-01 1.117412e+00 7.048428e-01 7.626165e-01 6.059411e-01 4.392081e-01
<GCONST> 1.389576e+02
<MIXTURE> 18 2.671237e-02
<MEAN> 39
 5.379650e+00 2.844345e+00 4.534189e-01 5.667145e+00 -2.394775e+00 -4.261047e+00 -3.334378e+00 -1.039557e+01 -3.672468e+00 3.458985e+00 -1.268993e+00 -6.444169e+00 2.139433e+00 3.509075e-01 3.391080e-01 -4.048319e-01 -1.937432e-02 9.983645e-02 1.476694e-01 9.682790e-02 -1.249446e+00 3.435185e-01 6.708274e-01 -5.183239e-01 -1.459361e-01 -4.298662e-01 -1.312886e-01 -7.760293e-02 2.753581e-01 -1.410148e-01 -1.889118e-01 7.856725e-02 1.160702e-02 3.039010e-01 -8.740669e-02 -5.820288e-02 2.654950e-03 6.792160e-03 2.333999e-02
<VARIANCE> 39
 4.969734e+00 1.083708e+01 5.580407e+01 6.861429e+01 4.201676e+01 1.019069e+02 6.967165e+01 8.397566e+01 4.991192e+01 3.960556e+01 1.125201e+02 7.053738e+01 6.415123e+00 5.516132e-01 4.262028e-01 2.583709e+00 2.936828e+00 1.316171e+00 4.136029e+00 3.295333e+00 3.664526e+00 3.567489e+00 1.423296e+00 2.296414e+00 1.984181e+00 1.776091e-01 4.956955e-02 8.566685e-02 2.274155e-01 3.942314e-01 2.287707e-01 5.330514e-01 6.265132e-01 5.913675e-01 7.144763e-01 2.557910e-01 4.011196e-01 3.316719e-01 3.786417e-02
<GCONST> 1.075942e+02
<MIXTURE> 19 4.845681e-02
<MEAN> 39
 1.629043e+00 8.367214e+00 8.725258e+00 7.181997e+00 -9.426590e-01 -5.550483e+00 -2.711863e+00 -1.047462e+01 -3.370800e+00 1.718228e+00 -1.752486e+00 -1.890757e+00 -3.005329e+00 -2.690195e-01 -1.038653e+00 -7.133550e-01 -1.231884e+00 1.259742e+00 4.844939e-01 -1.046351e+00 1.000824e+00 3.631645e-01 -1.510884e-01 3.507468e-01 -5.948555e-01 7.749346e-01 -1.910402e-01 -9.677272e-01 -6.787691e-01 -6.512859e-01 4.005919e-02 3.452158e-01 2.338505e-01 1.138390e+00 1.470218e-01 -8.002562e-02 -9.944287e-02 6.613585e-02 7.165625e-01
<VARIANCE> 39
 3.342554e+01 6.798253e+01 5.401043e+01 7.063980e+01 7.874090e+01 7.901902e+01 5.299153e+01 6.416282e+01 5.418768e+01 6.862483e+01 6.384612e+01 5.429878e+01 2.120074e+01 1.122742e+00 4.693520e+00 4.605800e+00 4.758131e+00 6.098043e+00 6.248497e+00 6.489283e+00 1.065397e+01 4.473905e+00 4.757535e+00 4.655495e+00 4.174785e+00 2.008106e+00 2.189756e-01 7.028390e-01 1.044042e+00 9.462196e-01 1.536805e+00 1.121919e+00 1.031174e+00 1.185340e+00 8.562274e-01 1.127753e+00 9.768857e-01 7.261134e-01 1.956862e-01
<GCONST> 1.401461e+02
<MIXTURE> 20 2.866716e-02
<MEAN> 39
 -3.127073e+00 -1.905296e+00 1.146369e+01 1.281911e+00 -9.552918e+00 -8.963312e+00 5.355132e-01 3.499697e+00 -4.920645e+00 -6.195146e-01 8.633615e+00 -1.089761e+00 8.422847e+00 2.781342e-01 -4.359301e-01 -1.155959e+00 6.859911e-02 6.515938e-01 -4.333098e-01 6.316105e-02 3.700368e-01 6.934460e-01 -3.339227e-01 1.051877e-01 1.224085e-02 1.523514e-01 2.452852e-01 -1.289758e-01 -1.098976e-01 1.763560e-01 3.211378e-01 2.485881e-01 -2.059548e-01 -9.429648e-02 6.456910e-03 -1.071487e-01 -2.155053e-01 -7.153631e-02 -2.693864e-01
<VARIANCE> 39
 4.669786e+00 1.056921e+01 2.910886e+01 2.170391e+01 2.680989e+01 3.608685e+01 4.142194e+01 2.654683e+01 6.136497e+01 3.039409e+01 4.088290e+01 2.088661e+01 6.594779e+00 3.731361e-01 5.888765e-01 2.827776e+00 8.794002e-01 1.201761e+00 1.469460e+00 1.518581e+00 1.658260e+00 3.119165e+00 1.426134e+00 2.248132e+00 1.899721e+00 3.926053e-01 9.256084e-02 1.347184e-01 2.126742e-01 1.460880e-01 3.503822e-01 3.647355e-01 2.719421e-01 3.129229e-01 3.400976e-01 2.272072e-01 2.512928e-01 3.630856e-01 7.900044e-02
<GCONST> 9.509638e+01
<MIXTURE> 21 4.219902e-02
<MEAN> 39
 4.727550e+00 -6.512945e+00 1.794073e+00 4.334958e+00 -4.531366e-01 -4.040369e+00 -7.018019e+00 4.315270e+00 2.164715e+00 -8.625585e-01 2.901007e+00 -1.003231e+00 3.684389e+00 1.635697e+00 5.330641e-01 5.486443e-01 1.207030e+00 9.926562e-01 2.599273e-01 1.544699e-03 -2.613556e-01 -4.523556e-01 -3.869638e-01 -1.086060e+00 2.469901e-01 -2.723073e+00 -1.776850e-01 5.098892e-01 -1.422159e-02 -6.384084e-01 6.004894e-02 3.575200e-01 6.644830e-01 -6.106367e-02 -1.467554e-01 1.254005e-01 -1.588807e-01 -2.760613e-01 -3.279927e-01
<VARIANCE> 39
 3.038873e+01 2.586691e+01 8.360199e+01 7.933836e+01 6.451540e+01 5.592163e+01 4.507344e+01 9.183405e+01 6.500391e+01 4.344906e+01 3.789529e+01 3.637173e+01 1.599347e+01 1.704308e+00 1.449616e+00 3.653115e+00 4.509910e+00 3.483103e+00 4.083243e+00 5.454360e+00 5.782990e+00 4.042702e+00 3.151669e+00 3.874951e+00 3.129074e+00 3.064314e+00 2.409165e-01 2.920438e-01 5.866896e-01 9.499801e-01 9.109522e-01 1.133478e+00 7.402428e-01 1.244313e+00 5.973204e-01 6.125197e-01 5.634361e-01 6.065964e-01 2.924770e-01
<GCONST> 1.309850e+02
<STATE> 4
<NUMMIXES> 21
<MIXTURE> 1 3.217766e-02
<MEAN> 39
 1.195781e+01 1.281471e+01 -1.479253e+01 -7.551568e+00 -1.038971e+01 1.189675e+01 1.036237e+01 -2.654733e+00 -6.832695e+00 -1.814005e+00 5.203534e-01 7.507563e+00 -3.041812e+00 3.470920e-01 1.899513e-01 -1.148808e+00 -8.355095e-01 -3.404938e-01 4.982689e-01 8.053125e-01 -1.993764e+00 2.717054e-01 1.275051e+00 8.324208e-01 -9.311075e-02 1.099828e+00 -9.096137e-01 -9.133943e-01 6.325145e-01 4.506811e-01 6.426585e-01 2.626936e-01 -5.599754e-01 -1.495723e-01 -1.182564e-01 5.426916e-01 1.447321e-01 -9.625734e-02 -2.861138e-02
<VARIANCE> 39
 4.993292e+00 7.517360e+00 2.660602e+01 3.660003e+01 1.539773e+02 9.136412e+01 4.030951e+01 2.578037e+01 4.638226e+01 4.114659e+01 1.651601e+01 1.741127e+01 1.065831e+01 4.011545e+00 2.855674e+00 5.265276e+00 4.286334e+00 5.363815e+00 6.605679e+00 4.211393e+00 4.256563e+00 2.678392e+00 5.800118e+00 1.185145e+00 1.718201e+00 4.105575e-01 1.266439e+00 4.193869e-01 7.022569e-01 3.025030e-01 8.731217e-01 1.100949e+00 4.030781e-01 7.113825e-01 7.240225e-01 6.181824e-01 4.746499e-01 3.750789e-01 5.781010e-02
<GCONST> 1.199854e+02
<MIXTURE> 2 5.063286e-02
<MEAN> 39
 -2.704378e+01 -7.816089e-01 5.534150e+00 3.806355e+00 2.438651e+00 1.922333e+00 1.818080e+00 3.923903e+00 4.218498e+00 -1.721102e+00 1.979479e+00 7.543749e+00 -2.458250e+00 1.418738e-01 -7.933718e-01 -3.150541e-01 1.704027e-02 -2.041018e-01 3.864376e-01 -7.415733e-02 -3.749814e-01 -1.521511e-01 6.193656e-01 3.941823e-01 9.685592e-02 -3.940590e-01 4.112979e-01 2.386699e-01 -5.486114e-02 -1.383644e-01 1.418141e-01 -1.889537e-03 3.170848e-02 5.637369e-02 -1.651917e-01 -2.723395e-01 -6.466075e-02 8.275021e-03 -3.902124e-03
<VARIANCE> 39
 9.441687e+00 6.541566e+01 2.636357e+01 4.321528e+01 3.411032e+01 2.995601e+01 2.172239e+01 2.239796e+01 1.114157e+01 1.625246e+01 2.492908e+01 1.541536e+01 7.528323e+00 5.918757e-01 8.464909e-01 7.406617e-01 1.438249e+00 1.275239e+00 1.995053e+00 2.127832e+00 1.480130e+00 1.545285e+00 1.072161e+00 2.027591e+00 1.046246e+00 2.298124e-01 2.320546e-01 3.132837e-01 1.197823e-01 2.323641e-01 2.451709e-01 5.878516e-01 4.312106e-01 4.677925e-01 2.758903e-01 2.849836e-01 4.468899e-01 1.850322e-01 5.463718e-02
<GCONST> 9.498282e+01
<MIXTURE> 3 6.084257e-02
<MEAN> 39
 -5.925158e-01 8.659233e+00 -4.627713e+00 2.380166e+00 9.118245e+00 -1.006173e+01 -3.957660e+00 -1.052573e+01 7.606729e+00 8.177848e+00 -4.183488e+00 3.981136e-02 -1.560133e+00 1.245968e-02 1.641350e+00 1.520919e+00 1.574948e+00 1.487563e+00 -5.943262e-01 -9.903501e-01 -6.679223e-01 -2.976304e-01 -1.868549e+00 6.904425e-01 2.124110e-01 -2.218427e+00 -1.990235e-01 -1.444634e-01 3.521647e-01 -7.671966e-02 -3.087922e-01 3.228033e-01 4.931674e-01 2.239190e-01 1.632124e-01 -5.818405e-01 -3.013763e-02 1.384900e-01 -5.852224e-02
<VARIANCE> 39
 1.926354e+01 3.215417e+01 5.986560e+01 4.307396e+01 6.237987e+01 3.738153e+01 6.938046e+01 7.092086e+01 1.380871e+02 6.013824e+01 5.953782e+01 3.535691e+01 1.560802e+01 7.425402e-01 1.309784e+00 4.235856e+00 2.438946e+00 2.541747e+00 2.839962e+00 4.503603e+00 5.718686e+00 4.947952e+00 5.756677e+00 2.643955e+00 2.815154e+00 6.677172e-01 9.804832e-02 2.527984e-01 5.307210e-01 4.164198e-01 4.303236e-01 6.955713e-01 6.994911e-01 9.657198e-01 8.954754e-01 7.309541e-01 5.598736e-01 3.985854e-01 8.400905e-02
<GCONST> 1.229203e+02
<MIXTURE> 4 4.343129e-02
<MEAN> 39
 1.099682e+01 -6.847162e-01 -1.058154e+01 1.515109e+00 3.461990e+00 1.203542e+01 -7.379829e+00 -4.816941e+00 -2.209586e+00 1.282956e+00 4.787497e+00 7.354007e+00 -7.834301e+00 -1.452693e+00 -1.044974e+00 2.302357e+00 6.022170e-01 1.955793e+00 -1.685789e+00 -8.653820e-01 1.173805e+00 2.341370e+00 -1.291838e+00 -8.290889e-01 -4.087953e-01 -1.087326e+00 -1.124755e+00 -9.329576e-03 6.050245e-01 -3.208345e-01 -8.243380e-01 -3.687673e-01 4.183818e-01 3.214277e-01 2.954346e-01 -1.169687e-01 1.001950e-01 4.493723e-03 6.245553e-01
<VARIANCE> 39
 3.699289e+01 2.191768e+01 5.724638e+01 5.571124e+01 3.303528e+01 2.173612e+01 4.641539e+01 5.651904e+01 7.197263e+01 3.776010e+01 3.796571e+01 2.580532e+01 2.204195e+01 9.112331e+00 4.218495e+00 7.061482e+00 5.094278e+00 9.239197e+00 3.748317e+00 1.214055e+01 1.156900e+01 1.368648e+01 8.285870e+00 4.214790e+00 2.593311e+00 4.922320e+00 7.658918e-01 4.745061e-01 1.193838e+00 1.235611e+00 1.574943e+00 4.477215e-01 1.264674e+00 9.290544e-01 9.854817e-01 6.263576e-01 7.678038e-01 5.168533e-01 4.544943e-01
<GCONST> 1.402102e+02
<MIXTURE> 5 5.193790e-02
<MEAN> 39
 3.205730e-01 -7.443695e+00 -5.901070e-01 3.022216e+00 4.357876e-01 9.982633e-01 1.569173e+00 4.137042e+00 5.123078e-01 -3.371077e+00 -1.981224e+00 4.135091e+00 -2.159741e+01 -8.487981e-02 -3.837092e-01 -4.424497e-01 3.149439e-01 -9.678373e-02 2.609547e-01 2.798579e-01 1.995592e-01 1.628659e-01 -2.927141e-01 2.329618e-02 -1.121725e-01 -4.766972e-01 -5.967505e-02 3.014289e-01 9.846094e-02 -8.668714e-03 1.299255e-01 -1.537371e-01 -7.180107e-02 -2.896126e-01 4.116048e-02 -2.628689e-02 2.162395e-02 -2.675474e-02 2.616025e-01
<VARIANCE> 39
 6.436063e+00 6.586109e+00 9.888350e+00 2.307633e+01 1.743529e+01 7.554948e+00 1.673415e+01 2.194657e+01 1.199262e+01 2.872126e+01 1.639027e+01 2.451418e+01 3.109714e+00 1.716437e-01 2.461937e-01 6.561241e-01 1.049796e+00 7.648479e-01 1.408105e+00 1.588825e+00 2.034301e+00 2.083347e+00 1.646815e+00 1.506693e+00 8.856143e-01 6.448995e-02 9.200557e-02 1.227660e-01 1.526437e-01 1.661972e-01 1.929356e-01 1.994903e-01 3.121474e-01 2.999530e-01 3.774915e-01 2.705614e-01 2.473321e-01 1.653928e-01 4.378039e-02
<GCONST> 7.871406e+01
<MIXTURE> 6 5.943564e-02
<MEAN> 39
 -6.540163e+00 4.189857e+00 1.197917e+01 4.402108e+00 -6.367028e+00 -1.499329e+01 5.361130e+00 6.238140e+00 -4.363894e+00 -3.622975e+00 2.429416e+00 4.758274e+00 9.439406e-01 -2.145795e-01 2.065325e-01 1.306501e+00 4.104763e-01 -7.702154e-01 3.923718e-01 3.676309e-02 -3.689089e-01 -5.581961e-01 -3.758219e-01 4.362625e-01 5.895768e-01 -8.031880e-01 -4.166010e-01 -4.336033e-01 -4.488030e-01 -3.054854e-01 4.733163e-01 7.624622e-01 -5.181006e-02 -3.339867e-02 3.733346e-01 -4.311678e-02 -2.143657e-01 -1.292427e-01 -1.563569e-01
<VARIANCE> 39
 2.298944e+01 5.651047e+01 8.849088e+01 1.721274e+01 2.819580e+01 1.300538e+02 3.489988e+01 5.923496e+01 3.354229e+01 3.007883e+01 3.030150e+01 2.248522e+01 1.611497e+01 8.744319e+00 4.443468e+00 5.828819e+00 4.493924e+00 3.482585e+00 9.956983e+00 3.055393e+00 4.945506e+00 6.710652e+00 3.746483e+00 2.282861e+00 1.686658e+00 1.776009e+00 7.176553e-01 3.736578e-01 8.554075e-01 7.263924e-01 7.094741e-01 6.477516e-01 7.575009e-01 6.922047e-01 1.134400e+00 7.032815e-01 4.014562e-01 2.676421e-01 1.060364e-01
<GCONST> 1.286549e+02
<MIXTURE> 7 3.785084e-02
<MEAN> 39
 4.627320e+00 7.492171e+00 -1.223278e+01 -1.190568e+01 1.228382e+00 1.007603e+01 6.679350e+00 -1.474763e+01 -1.054102e+00 1.744770e+01 2.903218e+00 3.443460e-01 4.928298e+00 -5.785100e-01 -1.676644e+00 8.388292e-01 1.065440e+00 -8.322303e-01 1.350587e+00 -2.261566e+00 -1.326867e+00 1.626633e+00 9.593132e-01 2.409952e-02 -2.621347e-01 5.105269e-01 1.537444e-01 -2.385952e-01 5.854479e-02 6.465248e-01 3.259864e-02 -2.657308e-01 -4.680577e-01 7.364228e-01 4.439890e-01 -1.247578e+00 -2.050309e-01 4.138431e-01 -4.719975e-01
<VARIANCE> 39
 9.579868e+00 1.920209e+01 4.707936e+01 6.387173e+01 4.001600e+01 6.424141e+01 8.951971e+01 8.430003e+01 3.337847e+01 3.833197e+01 1.858113e+01 3.859211e+01 6.459222e+00 1.352962e+00 5.263550e-01 1.675745e+00 5.457675e+00 2.335998e+00 2.383245e+00 6.542594e+00 8.175198e+00 2.570546e+00 1.161623e+01 2.558369e+00 2.778870e+00 2.628094e+00 2.978055e-01 1.914657e-01 2.790821e-01 4.470778e-01 1.058929e+00 5.825807e-01 1.500255e+00 2.140823e+00 2.753188e-01 1.325046e+00 3.272140e-01 4.593758e-01 1.132445e-01
<GCONST> 1.218272e+02
<MIXTURE> 8 5.950326e-02
<MEAN> 39
 -1.847492e+01 -1.238044e+01 2.998300e+00 3.324294e+00 4.686784e+00 7.500580e+00 -4.327433e+00 4.688430e-01 2.492606e+00 -2.020236e+00 5.471400e-01 5.925157e+00 -6.297133e-01 -1.302985e+00 7.873011e-01 -1.582752e+00 -7.415495e-01 -1.696001e-01 -4.362691e-01 5.523330e-01 5.416540e-01 1.406526e+00 5.578187e-01 -2.363917e-01 4.110676e-02 1.677421e+00 1.760982e+00 1.273687e+00 -7.704243e-02 1.211535e-01 -4.395617e-01 -8.771769e-01 5.064396e-01 1.202607e-01 -4.408818e-01 -1.847962e-01 -4.495567e-02 -1.749654e-01 -6.551763e-01
<VARIANCE> 39
 1.710287e+01 4.419784e+01 9.744155e+01 4.956914e+01 4.021018e+01 4.739032e+01 3.755837e+01 3.825107e+01 3.573260e+01 2.849314e+01 3.322827e+01 2.383441e+01 2.725016e+01 2.037907e+01 8.992982e+00 1.073332e+01 3.727260e+00 4.914489e+00 9.194554e+00 6.222892e+00 2.620194e+00 3.920748e+00 3.308121e+00 3.314021e+00 2.930161e+00 9.728994e+00 6.685065e-01 1.282353e+00 1.541791e+00 1.182767e+00 1.201691e+00 1.515801e+00 8.875423e-01 8.571286e-01 7.667373e-01 8.620668e-01 8.354591e-01 5.850025e-01 6.380425e-01
<GCONST> 1.403226e+02
<MIXTURE> 9 6.244588e-02
<MEAN> 39
 -2.777170e+00 -4.216035e+00 7.035387e-01 2.368095e+00 1.610062e+00 1.039952e-01 -5.506806e-01 -1.328859e+00 2.440461e+00 -4.573587e+00 -2.463248e+00 6.694968e+00 -1.842815e+01 1.013302e+00 -2.184966e+00 -2.368686e-01 6.307501e-02 -1.516513e+00 4.771659e-01 -6.310865e-01 1.441022e+00 -8.419270e-01 -4.001231e-01 3.189962e-01 -2.903842e-01 -1.696082e+00 -1.766918e-01 3.308722e-01 -1.731068e-01 2.039819e-01 4.936025e-01 2.568202e-01 1.949280e-01 -3.134609e-01 2.483713e-02 2.453694e-01 2.163668e-01 -1.268631e-02 4.551814e-01
<VARIANCE> 39
 3.181118e+01 1.946972e+01 2.474584e+01 4.526645e+01 2.375511e+01 3.384787e+01 3.493917e+01 5.217505e+01 3.179505e+01 5.412407e+01 3.514982e+01 1.355892e+01 7.887619e+00 3.281613e+00 2.024669e+00 3.165643e+00 3.485582e+00 2.200442e+00 4.175098e+00 3.573585e+00 3.628814e+00 4.876327e+00 3.735314e+00 2.707141e+00 1.840912e+00 5.987281e-01 3.481039e-01 3.346216e-01 6.528205e-01 4.970552e-01 4.034128e-01 6.343117e-01 5.822580e-01 5.528753e-01 9.609030e-01 8.052465e-01 4.241041e-01 3.313285e-01 1.086862e-01
<GCONST> 1.178678e+02
<MIXTURE> 10 5.924290e-02
<MEAN> 39
 -3.685174e+00 1.645858e+00 -4.869236e+00 4.485079e+00 -5.455946e-01 -4.395404e+00 5.672428e+00 -5.044631e+00 1.427929e+01 4.108350e+00 -6.044375e+00 5.055642e+00 7.636609e+00 2.098393e-01 4.081516e-01 -3.852374e-01 -2.442491e-01 1.029682e+00 -2.016308e-01 1.703693e-01 -5.330924e-01 2.278885e-01 2.541921e-01 -5.653416e-01 -1.204481e-01 -5.233660e-01 1.166769e-01 2.106475e-01 3.248520e-01 6.168734e-02 1.148288e-01 -1.094481e-01 -6.301889e-01 -7.391780e-02 -2.037739e-01 1.324922e-03 2.551600e-01 -3.415566e-02 -5.323299e-01
<VARIANCE> 39
 3.661367e+00 8.315675e+00 1.675982e+01 2.555551e+01 3.481116e+01 1.686633e+01 3.690464e+01 3.149419e+01 1.626711e+01 3.091384e+01 2.367686e+01 2.950157e+01 7.582188e+00 6.351251e-01 9.927611e-01 1.506530e+00 2.215140e+00 3.282563e+00 2.305334e+00 3.753665e+00 3.259980e+00 1.959289e+00 3.309263e+00 1.183811e+00 2.003390e+00 8.819563e-01 1.426745e-01 2.040686e-01 3.201357e-01 3.455199e-01 4.007309e-01 5.217911e-01 5.541261e-01 3.689855e-01 3.349030e-01 4.808819e-01 2.597200e-01 3.403495e-01 2.573448e-01
<GCONST> 1.027612e+02
<MIXTURE> 11 6.257648e-02
<MEAN> 39
 -2.197971e+00 7.344657e-01 -5.405850e+00 -2.484774e+00 6.375520e+00 -4.731078e+00 1.046988e+00 9.165598e-01 7.944579e+00 4.663140e+00 -3.563913e+00 -3.904675e-01 5.570006e+00 1.319732e+00 2.645248e-01 -1.857759e+00 -2.897294e-02 5.566097e-01 -1.102617e+00 1.478446e+00 -1.318995e+00 2.584314e-01 8.203230e-01 -1.578356e+00 -6.195453e-01 1.094365e+00 -3.181913e-01 -3.022092e-01 3.352219e-01 4.630042e-01 -5.120882e-03 6.343324e-01 1.005256e-01 -2.061022e-01 -4.526277e-01 -3.914077e-01 3.287738e-02 2.253844e-01 -8.091555e-01
<VARIANCE> 39
 2.338541e+01 3.354586e+01 5.025965e+01 4.361237e+01 1.745974e+02 5.461542e+01 5.805418e+01 5.891333e+01 6.540102e+01 6.195073e+01 5.430346e+01 4.389811e+01 1.718505e+01 6.492315e+00 3.329684e+00 5.367622e+00 4.836339e+00 7.509779e+00 7.021027e+00 7.972251e+00 4.325562e+00 4.369730e+00 5.606647e+00 3.885602e+00 3.834298e+00 6.710228e+00 9.644310e-01 1.133757e+00 7.196718e-01 8.284351e-01 1.633452e+00 1.007862e+00 9.939551e-01 1.263573e+00 9.960101e-01 9.053123e-01 9.189796e-01 5.492046e-01 3.448174e-01
<GCONST> 1.423482e+02
<MIXTURE> 12 4.855061e-02
<MEAN> 39
 -2.689721e+01 4.093784e+00 7.111201e+00 -8.080887e-02 3.244857e+00 1.209327e+00 2.127387e+00 8.259132e+00 3.720418e+00 -4.460976e+00 3.191259e+00 7.184425e+00 -9.867230e-01 -1.917632e+00 -6.373270e-01 -6.813350e-01 2.997975e-01 9.911698e-01 4.316142e-01 8.330497e-01 9.221169e-01 8.302077e-01 5.025514e-01 -4.020699e-01 6.386545e-02 -2.853843e-01 1.177268e+00 -1.753404e-01 2.114307e-01 2.035131e-01 -7.781729e-02 -7.577857e-03 -5.135264e-01 -4.558067e-01 -6.229093e-02 1.717937e-01 7.327302e-02 -7.777561e-02 -2.400041e-01
<VARIANCE> 39
 1.619588e+01 2.212254e+01 3.528927e+01 5.277379e+01 7.366512e+01 4.342824e+01 5.450663e+01 3.247163e+01 2.563332e+01 1.587490e+01 3.696418e+01 2.172547e+01 8.794908e+00 3.643959e+00 5.061270e+00 3.130688e+00 3.120824e+00 2.672954e+00 4.632558e+00 3.294573e+00 3.159682e+00 2.747900e+00 1.571627e+00 2.815409e+00 1.308603e+00 1.165160e+00 5.813497e-01 1.079450e+00 7.728022e-01 7.757248e-01 6.254798e-01 6.777917e-01 7.180147e-01 5.143938e-01 6.505774e-01 2.844872e-01 6.766835e-01 2.435560e-01 3.315828e-01
<GCONST> 1.210561e+02
<MIXTURE> 13 4.508343e-02
<MEAN> 39
 -1.468114e-01 7.502818e+00 -2.841600e-01 9.938925e+00 1.678899e+01 -4.602286e+00 5.548645e+00 -1.448399e+01 5.630580e-01 -8.373183e-01 -1.088243e+01 2.128576e+00 -8.847044e+00 -1.999487e-01 3.308527e-01 3.294445e-01 1.295343e+00 -4.913719e-01 1.079697e+00 1.248230e+00 -1.327519e+00 -2.083330e-01 -2.813458e-01 8.488520e-02 8.841463e-01 -1.409451e+00 -4.636732e-02 -6.270688e-01 1.202917e-01 -3.637343e-01 -6.557345e-01 1.651060e-01 -1.108349e-01 8.059854e-01 2.641178e-01 -8.777159e-02 3.865157e-01 2.567218e-01 4.721536e-02
<VARIANCE> 39
 3.614826e+01 4.291166e+01 1.071761e+02 4.613275e+01 8.208392e+01 8.506286e+01 3.553323e+01 3.221008e+01 7.914192e+01 2.932357e+01 3.311154e+01 1.773089e+01 3.585258e+01 9.160405e-01 1.671538e+00 3.212724e+00 3.166560e+00 2.995271e+00 2.497109e+00 3.540593e+00 4.752312e+00 4.374007e+00 2.806885e+00 2.714123e+00 2.784069e+00 3.911408e-01 1.064403e-01 3.150732e-01 8.406681e-01 7.940116e-01 8.612493e-01 4.764336e-01 7.218230e-01 7.669073e-01 3.961560e-01 2.308025e-01 4.012201e-01 5.155877e-01 1.042596e-01
<GCONST> 1.207903e+02
<MIXTURE> 14 4.057578e-02
<MEAN> 39
 -1.129571e+00 -2.104000e+00 5.658865e-01 3.647469e+00 -1.115096e+00 -1.225379e+00 1.660736e-01 3.014773e-01 9.457190e-01 -3.247305e+00 9.573872e-02 3.826862e+00 -1.930953e+01 -2.269811e+00 -6.106455e-01 -3.346507e-01 -9.979494e-01 3.845147e-01 3.520538e-01 6.269380e-02 7.035956e-01 8.299308e-01 9.383458e-01 3.794210e-01 8.490557e-02 1.926024e+00 -1.121044e+00 1.490313e-01 3.342024e-01 -3.894178e-01 1.250173e-01 7.814735e-03 -1.931240e-02 -2.462407e-01 3.068596e-01 6.412805e-01 -1.501955e-01 -4.158570e-02 1.797804e+00
<VARIANCE> 39
 3.021141e+01 4.369611e+01 2.281513e+01 2.271478e+01 1.190665e+01 3.308535e+01 4.039243e+01 3.769020e+01 2.660639e+01 2.679201e+01 2.809201e+01 1.526892e+01 2.149064e+01 6.943220e+00 6.345014e+00 3.398046e+00 4.033155e+00 2.197802e+00 8.824933e+00 2.885196e+00 5.109220e+00 3.120067e+00 5.714604e+00 1.990022e+00 2.936837e+00 8.350185e+00 7.406397e-01 4.976835e-01 1.002752e+00 4.659984e-01 4.169839e-01 1.232122e+00 7.237028e-01 9.869181e-01 5.667312e-01 1.112078e+00 4.424330e-01 4.848317e-01 3.026510e-01
<GCONST> 1.269854e+02
<MIXTURE> 15 4.562323e-02
<MEAN> 39
 -2.268260e+00 2.034279e+00 -1.124390e+01 -7.823229e+00 5.472808e+00 -8.806510e+00 1.867710e+00 -3.111251e+00 9.365716e+00 7.337468e+00 -4.082600e+00 -1.232106e+00 7.477162e+00 -1.237223e-01 5.302644e-01 7.046488e-01 2.559036e-01 -6.813871e-01 -1.031436e+00 -3.856558e-01 -3.597856e-01 -1.388148e+00 -9.304202e-02 7.272897e-01 3.058822e-01 -7.657736e-01 6.100384e-02 1.008509e-01 3.332232e-01 5.202737e-01 1.846518e-01 -1.624784e-01 -9.489010e-02 4.292060e-02 -3.125858e-01 -7.956892e-02 2.051359e-01 -1.604303e-02 -3.105433e-01
<VARIANCE> 39
 2.191786e+01 2.299475e+01 5.637456e+01 1.738626e+01 4.924403e+01 2.380976e+01 5.307862e+01 1.318791e+02 1.890078e+01 8.383333e+01 3.378331e+01 1.553277e+01 8.065991e+00 2.181704e-01 9.425853e-01 6.951285e-01 2.701081e+00 2.338893e+00 1.872637e+00 3.931654e+00 7.497909e+00 2.642845e+00 2.479376e+00 3.088956e+00 9.718450e-01 3.360730e-01 6.461131e-02 1.092951e-01 1.991246e-01 2.353899e-01 4.432657e-01 2.312820e-01 3.204303e-01 5.886462e-01 3.805457e-01 6.159270e-01 5.190556e-01 1.648335e-01 7.962431e-02
<GCONST> 1.038255e+02
<MIXTURE> 16 3.550178e-02
<MEAN> 39
 5.399332e-01 -4.199805e+00 -7.329791e+00 4.140425e+00 2.258316e+00 9.499535e+00 -1.459959e+01 -3.980860e+00 9.878155e+00 -3.495589e+00 7.140156e+00 7.417226e+00 -1.224557e+00 8.154343e-01 9.787942e-01 -8.317920e-01 -1.237810e+00 -2.345920e+00 -1.264039e-02 5.513933e-01 -5.489023e-01 -1.292723e+00 -1.328991e-01 2.333271e+00 1.194456e+00 -2.553611e-03 6.707929e-01 3.868519e-01 -2.709621e-01 -2.502292e-01 -2.467075e-01 9.415115e-02 1.759760e+00 1.535990e-02 -1.154780e+00 8.220862e-01 -3.492367e-01 -4.209067e-01 -4.277025e-01
<VARIANCE> 39
 6.120316e+01 2.936188e+01 5.824514e+01 4.963450e+01 6.661024e+01 8.871412e+01 2.588705e+01 3.869197e+01 4.044655e+01 2.661318e+01 6.147177e+01 3.121808e+01 1.260043e+01 1.000574e+01 2.082160e+00 7.692483e+00 3.667164e+00 5.540728e+00 4.854171e+00 8.600028e+00 4.019226e+00 1.407887e+01 5.611937e+00 6.450599e+00 3.439530e+00 6.188943e+00 7.652783e-01 6.047419e-01 8.851035e-01 1.059173e+00 1.585359e+00 1.408109e+00 9.799417e-01 1.606644e+00 1.143447e+00 1.015448e+00 1.279231e+00 4.795815e-01 2.940854e-01
<GCONST> 1.411705e+02
<MIXTURE> 17 4.720695e-02
<MEAN> 39
 5.128630e+00 7.014244e-01 8.793977e+00 4.274735e+00 -6.004933e-01 -2.236590e+00 1.240673e+00 -1.415402e+00 -8.441085e+00 -6.824449e+00 -2.794163e+00 3.177103e-01 -1.444579e+01 1.790014e-01 -2.026822e-01 -1.502685e+00 5.170253e-02 4.489621e-01 1.018946e+00 -2.023075e-01 1.720726e+00 -1.968334e-01 -4.097086e-01 -1.001609e+00 1.815786e-01 -1.785789e+00 -5.036205e-01 -4.526121e-02 -4.435081e-01 -4.730403e-01 -3.414318e-01 7.988897e-02 -1.140474e-01 1.795140e-01 5.638924e-01 5.606358e-01 3.322093e-01 2.709883e-01 6.667698e-01
<VARIANCE> 39
 3.089954e+01 2.149749e+01 1.084982e+02 5.496604e+01 2.034668e+01 7.595327e+01 2.687728e+01 4.198180e+01 4.530170e+01 6.199292e+01 2.084905e+01 1.752740e+01 1.405286e+01 2.404310e+00 3.645101e+00 5.288654e+00 2.278251e+00 5.941104e+00 6.219238e+00 3.496212e+00 5.036871e+00 4.722870e+00 5.388044e+00 2.283567e+00 2.700302e+00 3.402008e+00 4.498036e-01 3.367721e-01 8.208395e-01 5.320086e-01 7.368922e-01 1.079137e+00 5.911677e-01 6.125333e-01 6.841055e-01 8.383620e-01 3.903296e-01 3.018746e-01 1.685894e-01
<GCONST> 1.267074e+02
<MIXTURE> 18 4.433409e-02
<MEAN> 39
 -3.652611e+00 7.243390e+00 -3.221293e+00 8.431832e+00 1.287169e+01 -1.821719e+00 4.714725e+00 -1.505552e+01 7.912566e+00 -2.045385e+00 -5.329107e+00 7.286733e+00 -1.124786e+01 -2.690814e-01 -2.575686e+00 1.464545e+00 -1.064721e+00 -2.714294e+00 9.464918e-01 1.001503e-01 1.590955e+00 -2.659383e-01 -1.207937e+00 6.908742e-01 1.045145e+00 -1.866031e+00 1.101379e-01 -5.675820e-01 7.768866e-02 -7.787569e-01 -4.669843e-01 -2.165327e-01 -6.761557e-01 9.811434e-01 -5.532874e-01 -1.410036e-01 -1.148584e-01 -5.553269e-01 6.186776e-03
<VARIANCE> 39
 2.754689e+01 5.181665e+01 3.342220e+01 4.580100e+01 4.403992e+01 1.313817e+02 2.545047e+01 3.811180e+01 9.658783e+01 3.818712e+01 3.233316e+01 2.430075e+01 2.430117e+01 1.358281e+00 2.109806e+00 6.247617e+00 4.823665e+00 4.129019e+00 4.363134e+00 4.705692e+00 4.945981e+00 7.431131e+00 6.337224e+00 3.287750e+00 2.810866e+00 6.377534e-01 2.752852e-01 5.281704e-01 8.318681e-01 9.582066e-01 3.584294e-01 9.261120e-01 7.070155e-01 7.315853e-01 1.433650e+00 9.742897e-01 6.970396e-01 3.147285e-01 9.289511e-02
<GCONST> 1.285318e+02
<MIXTURE> 19 3.739121e-02
<MEAN> 39
 -8.436417e+00 6.750543e+00 6.992856e+00 -1.315662e+00 5.441761e+00 1.661207e+00 -3.131662e+00 -1.773287e+00 3.863041e+00 -7.945224e+00 -4.938889e-01 5.164579e+00 -6.546337e+00 7.990875e-01 1.496728e+00 -6.931844e-01 -1.764259e+00 -5.225267e-01 -5.456515e-02 2.313356e+00 4.475878e-01 -8.604393e-01 5.726028e-03 -2.999886e-01 2.238637e-01 2.097819e-02 -5.879410e-02 -4.311302e-01 -1.326596e+00 3.114560e-01 -1.504254e-01 -7.238851e-01 5.385610e-01 -2.466355e-01 -2.295985e-01 1.040914e+00 1.656963e-01 2.296668e-01 3.045264e-01
<VARIANCE> 39
 4.659064e+01 5.313154e+01 1.148877e+02 5.463840e+01 2.408889e+01 9.986570e+01 9.268095e+01 2.808502e+01 4.696369e+01 3.184310e+01 3.235966e+01 1.363753e+01 1.544082e+01 3.333092e+01 1.439153e+01 9.741287e+00 1.027387e+01 6.331675e+00 5.099353e+00 4.170478e+00 6.641369e+00 4.020352e+00 4.955862e+00 5.829646e+00 1.668194e+00 3.233833e+00 9.177540e-01 7.923630e-01 7.469031e-01 1.033612e+00 8.798020e-01 4.251943e-01 1.127392e+00 4.061323e-01 4.101692e-01 9.328416e-01 4.726423e-01 2.946845e-01 2.425815e-01
<GCONST> 1.373483e+02
<MIXTURE> 20 3.553610e-02
<MEAN> 39
 -2.457023e+01 4.252184e-01 6.200836e+00 -1.182984e+00 3.246811e+00 5.076558e+00 1.430797e+00 5.305180e+00 4.368900e+00 -2.396939e+00 2.967722e+00 8.994897e+00 -5.744534e+00 2.707067e+00 4.844362e-01 -1.222913e+00 -3.369627e-01 7.453133e-01 -3.685301e-01 -1.064312e+00 -8.012930e-01 -3.807217e-02 -5.054435e-01 -1.368423e+00 -4.718499e-01 -1.098113e+00 9.734958e-01 7.366110e-02 -2.167643e-01 2.822761e-01 -3.578735e-01 -5.970938e-01 -1.204603e-02 -8.821035e-02 -3.289236e-01 -3.885484e-02 -2.283048e-01 -3.158595e-01 7.235367e-02
<VARIANCE> 39
 2.127536e+01 1.584273e+01 2.191353e+01 1.392141e+01 4.617979e+01 4.257145e+01 2.578502e+01 1.762193e+01 1.911245e+01 2.064665e+01 2.620002e+01 2.459852e+01 1.919991e+01 9.469470e+00 1.929935e+00 3.896037e+00 3.108189e+00 1.241400e+00 3.780724e+00 2.862754e+00 2.797024e+00 3.061418e+00 1.891256e+00 1.540572e+00 2.104630e+00 6.705575e+00 8.816637e-01 5.080783e-01 2.676579e-01 5.397705e-01 2.348375e-01 6.653209e-01 5.335380e-01 4.293088e-01 3.944748e-01 2.341455e-01 2.564539e-01 2.486732e-01 3.688422e-01
<GCONST> 1.139836e+02
<MIXTURE> 21 4.011706e-02
<MEAN> 39
 1.409037e+01 4.725689e+00 -1.443785e+01 1.913480e+00 -1.478368e+01 1.467328e+01 -3.957740e-01 1.702962e+00 -1.648312e+01 -1.804537e+00 8.919596e+00 1.213077e+01 -5.632174e+00 6.665304e-01 8.130977e-02 -8.724737e-01 -2.629665e-01 8.851815e-01 -3.660434e-01 -2.557765e-01 8.420595e-01 -1.145318e+00 6.966906e-02 -6.501145e-01 5.670359e-01 3.512733e-02 -3.763489e-01 -5.981307e-02 4.012234e-01 2.139805e-02 1.091018e+00 -1.370450e-01 -4.621099e-01 -3.347701e-01 1.211724e+00 -3.264744e-01 -3.973669e-01 -3.616021e-01 -7.285904e-02
<VARIANCE> 39
 8.988370e+00 1.194009e+01 4.811557e+01 3.394645e+01 4.806155e+01 5.383274e+01 3.503315e+01 8.908912e+01 4.195718e+01 2.599473e+01 5.310400e+01 1.910532e+01 7.580572e+00 1.449469e+00 2.333411e+00 4.311045e+00 2.880245e+00 1.694424e+01 4.240099e+00 6.616908e+00 3.649485e+00 8.523178e+00 2.478727e+00 4.222995e+00 2.270412e+00 9.409930e-01 3.529591e-01 1.943429e-01 8.734175e-01 3.448308e-01 5.902868e-01 6.085923e-01 6.923658e-01 1.399513e+00 9.290180e-01 4.333134e-01 9.936330e-01 5.322874e-01 1.052143e-01
<GCONST> 1.233112e+02
<TRANSP> 5
 0.000000e+00 1.000000e+00 0.000000e+00 0.000000e+00 0.000000e+00
 0.000000e+00 9.440075e-01 5.599250e-02 0.000000e+00 0.000000e+00
 0.000000e+00 0.000000e+00 9.938838e-01 6.116191e-03 0.000000e+00
 0.000000e+00 0.000000e+00 0.000000e+00 9.753128e-01 2.468725e-02
 0.000000e+00 0.000000e+00 0.000000e+00 0.000000e+00 0.000000e+00
<ENDHMM>
~h "M002"
<BEGINHMM>
<NUMSTATES> 5
<STATE> 2
<NUMMIXES> 21
<MIXTURE> 1 6.685872e-02
<MEAN> 39
 -1.594170e+00 -5.490628e-01 -2.508095e+00 6.299073e+00 5.980206e+00 -3.309742e+00 1.094829e+01 3.390406e-02 6.281812e-01 -2.377456e+00 -3.186484e+00 4.477850e+00 -2.687721e+01 -2.806800e-01 3.581054e-01 2.327357e-01 1.197495e-01 -9.267100e-02 2.594092e-01 -3.573205e-01 -3.004903e-01 -6.539247e-02 7.940274e-02 1.335294e-01 -6.255697e-02 1.276620e+00 -1.261000e-01 2.047240e-01 1.071043e-01 -1.873132e-01 9.420577e-03 3.995789e-02 -1.537462e-01 -5.427934e-03 2.253556e-03 1.791111e-01 1.144583e-01 -1.032565e-02 8.109712e-01
<VARIANCE> 39
 1.870755e+01 2.126873e+01 1.549578e+01 2.411174e+01 3.769957e+01 2.442667e+01 4.243256e+01 2.664285e+01 1.878604e+01 2.705132e+01 2.649668e+01 2.089903e+01 7.352459e+01 2.662547e+00 1.684152e+00 3.210983e+00 1.983902e+00 3.071902e+00 3.516177e+00 1.988925e+00 1.848471e+00 2.415740e+00 2.252852e+00 1.998855e+00 1.428825e+00 5.047714e+00 3.357745e-01 1.671061e-01 2.757746e-01 5.228893e-01 3.380961e-01 4.535974e-01 3.511880e-01 2.566596e-01 3.139928e-01 4.654123e-01 2.888565e-01 2.190496e-01 8.750415e-01
<GCONST> 1.117686e+02
<MIXTURE> 2 2.963371e-02
<MEAN> 39
 8.047926e-01 -2.280034e+00 -1.226230e+01 -2.313653e+00 1.444217e+00 1.192741e+01 -6.724514e-01 -1.665102e+00 -7.397456e+00 5.354286e-01 -3.398060e-01 2.404264e+00 2.257393e+00 6.832772e-02 1.042759e-01 6.050114e-02 8.744491e-02 1.248303e-01 9.657833e-02 -5.992363e-02 -1.021758e-01 2.179578e-01 2.289399e-02 -7.032852e-02 2.028349e-01 3.792082e-03 -1.494784e-02 -2.663610e-02 1.076672e-02 1.298472e-01 1.866753e-01 8.718535e-02 -8.891384e-02 5.065829e-02 1.009214e-01 1.180885e-01 1.469128e-02 -1.402262e-01 1.842172e-02
<VARIANCE> 39
 9.554837e-01 1.753155e+00 2.261603e+01 9.828588e+00 1.140522e+01 2.036411e+01 1.600052e+01 9.171196e+00 1.634416e+01 1.449164e+01 1.196014e+01 1.078717e+01 1.508917e+00 7.751010e-02 2.068867e-01 1.038777e+00 5.653290e-01 1.027753e+00 1.364221e+00 1.031301e+00 9.354674e-01 9.904633e-01 1.578158e+00 1.484329e+00 1.266626e+00 7.905248e-02 1.094664e-02 3.162416e-02 1.227061e-01 1.524315e-01 2.674976e-01 1.984959e-01 2.185689e-01 1.953626e-01 1.893160e-01 3.251719e-01 3.323353e-01 2.058297e-01 7.380030e-03
<GCONST> 6.453375e+01
<MIXTURE> 3 3.407526e-02
<MEAN> 39
 5.936317e+00 -1.226335e+00 -2.506036e+01 -4.552411e+00 -5.038199e+00 1.544166e+01 -5.017027e+00 6.602020e+00 -4.540073e+00 8.267494e+00 -3.124923e+00 -4.251468e-01 7.540902e+00 1.161004e-03 1.017185e-01 4.590771e-01 1.981356e-01 3.606574e-01 3.384298e-01 5.037500e-01 4.446292e-01 5.702983e-01 3.330615e-01 2.607960e-01 -1.048023e-01 -9.147312e-02 -1.671275e-02 -7.717967e-03 -1.185271e-02 -2.403657e-02 -2.084712e-02 -1.508428e-02 -1.601886e-02 -8.854114e-02 -1.794270e-01 3.652877e-03 1.657652e-01 7.345229e-02 8.699801e-03
<VARIANCE> 39
 5.021291e+00 7.897933e+00 1.534559e+01 7.874016e+00 1.580921e+01 1.624116e+01 2.189997e+01 1.364199e+01 1.511971e+01 1.001549e+01 1.226720e+01 9.058667e+00 2.557554e+00 7.758518e-02 1.665690e-01 4.893199e-01 3.631384e-01 6.284698e-01 5.580986e-01 7.612212e-01 6.102770e-01 7.948529e-01 1.148669e+00 1.315100e+00 1.117177e+00 3.408687e-02 1.408405e-02 3.602905e-02 1.138600e-01 1.169147e-01 2.021745e-01 2.058995e-01 1.906178e-01 2.035457e-01 2.662030e-01 2.754213e-01 2.783486e-01 2.167481e-01 6.121909e-03
<GCONST> 6.224326e+01
<MIXTURE> 4 6.737962e-02
<MEAN> 39
 -7.334586e-01 4.916655e-01 4.064314e+00 2.416857e-01 -2.552166e-01 -4.282888e+00 -1.215044e+00 -2.354355e+00 1.153574e+00 -1.094284e+00 -2.130967e-01 -1.179491e+00 -1.190163e+00 4.231424e-02 7.759498e-02 1.989042e-01 1.327042e-01 1.204059e-01 3.692518e-01 5.620646e-01 3.121890e-01 2.114928e-01 2.300259e-01 1.752764e-01 4.169675e-02 2.267174e-02 -4.622427e-02 -1.549029e-02 1.381774e-01 1.809864e-01 2.129684e-01 1.543275e-01 3.311327e-01 2.029756e-01 2.920811e-02 -2.114849e-02 1.555551e-01 1.475563e-01 -2.228934e-02
<VARIANCE> 39
 7.302016e-01 1.033581e+00 3.319441e+00 2.461626e+00 4.087549e+00 6.313532e+00 5.401785e+00 5.762630e+00 4.142858e+00 6.448153e+00 5.850712e+00 8.222646e+00 8.285324e-01 6.058278e-02 1.593762e-01 3.019264e-01 5.087415e-01 7.266505e-01 6.486045e-01 7.856511e-01 7.923484e-01 1.520931e+00 8.313184e-01 9.999408e-01 8.001984e-01 3.408687e-02 5.935587e-03 1.823105e-02 5.594580e-02 6.838625e-02 8.863849e-02 1.084469e-01 1.283809e-01 1.610099e-01 1.881512e-01 1.562444e-01 1.814157e-01 1.883274e-01 4.365372e-03
<GCONST> 4.049011e+01
<MIXTURE> 5 6.893081e-02
<MEAN> 39
 -2.312564e-01 1.911726e+00 7.216423e+00 2.938561e+00 1.714654e+00 -4.372642e+00 1.799715e-01 -2.299099e+00 -1.138663e+00 -4.017145e+00 -1.454582e+00 -3.167126e-01 -1.208889e+00 -1.006387e-01 -5.410174e-02 -1.323145e-01 -1.214633e-01 -1.403233e-01 -3.196759e-01 -1.875742e-01 -8.115338e-02 1.006856e-01 -1.445033e-01 9.012271e-02 -4.484834e-02 -7.487421e-02 -7.010995e-02 -1.262497e-01 -2.061407e-01 -2.961581e-01 -2.158100e-01 3.839913e-02 2.551158e-02 1.495432e-01 3.141791e-01 2.760201e-01 9.979904e-02 -4.914566e-02 -2.184590e-02
<VARIANCE> 39
 1.374499e+00 2.643201e+00 5.306743e+00 2.591532e+00 4.366468e+00 4.950475e+00 7.148131e+00 8.845999e+00 8.075869e+00 7.808648e+00 9.914577e+00 9.702644e+00 8.285324e-01 6.101323e-02 1.974882e-01 3.641454e-01 4.230122e-01 5.786137e-01 6.470074e-01 7.742562e-01 8.189534e-01 1.213971e+00 1.154771e+00 1.048555e+00 1.027543e+00 3.408687e-02 1.274552e-02 3.706929e-02 7.100061e-02 7.817440e-02 1.352399e-01 1.481495e-01 1.518411e-01 1.647491e-01 1.836445e-01 2.088703e-01 2.274597e-01 2.233241e-01 4.525331e-03
<GCONST> 4.854865e+01
<MIXTURE> 6 4.051684e-02
<MEAN> 39
 -2.654290e+00 -2.170923e+00 2.781798e+00 -7.641491e-01 2.622358e+00 5.229626e-01 5.183520e+00 1.899627e+00 3.361139e+00 1.745871e-02 2.226959e+00 9.524665e-01 -2.135365e+00 -6.464706e-02 2.614327e-02 1.034343e-01 1.891013e-02 -6.597319e-02 -4.728548e-01 -1.128701e-01 -5.816186e-02 1.713700e-02 -1.308702e-01 3.618563e-01 3.461236e-01 -6.073292e-02 9.974207e-02 1.705124e-01 2.812597e-01 3.260955e-01 1.821817e-01 -1.955041e-01 -3.338783e-01 -3.004905e-01 -9.020144e-02 -1.385129e-01 -5.704150e-02 -6.480725e-02 1.902939e-02
<VARIANCE> 39
 1.082287e+00 1.483082e+00 8.938308e+00 2.536619e+00 5.563391e+00 1.116926e+01 7.043891e+00 7.967125e+00 1.050998e+01 1.016791e+01 7.373410e+00 1.151354e+01 8.285324e-01 7.481290e-02 1.630096e-01 4.541189e-01 3.764861e-01 4.938750e-01 9.532591e-01 9.395447e-01 1.389385e+00 1.077275e+00 8.991565e-01 1.136073e+00 1.107810e+00 3.408687e-02 1.234823e-02 2.734807e-02 6.122189e-02 4.777119e-02 8.097748e-02 1.369673e-01 1.329208e-01 1.577644e-01 2.812756e-01 1.382979e-01 2.702085e-01 2.639390e-01 5.045122e-03
<GCONST> 4.914183e+01
<MIXTURE> 7 3.908690e-02
<MEAN> 39
 -1.911181e+00 -6.533740e-01 4.690600e+00 -6.915199e-01 -1.452618e+00 -5.568816e+00 1.168195e-01 -1.264960e+00 -5.405117e-01 -4.064437e+00 -1.892209e+00 -1.744190e+00 -1.898640e+00 1.072337e-01 1.133456e-01 9.395218e-04 -5.698202e-02 -8.135692e-02 2.550337e-01 2.585944e-01 3.348590e-01 -1.670527e-01 -9.358156e-02 -1.526327e-01 -7.040700e-02 8.238336e-02 1.570970e-01 1.721638e-01 2.123486e-02 2.587083e-01 3.403848e-01 3.328863e-01 1.264024e-01 7.460759e-02 2.796334e-01 3.830842e-01 3.697406e-01 2.536750e-01 7.710049e-02
<VARIANCE> 39
 7.302016e-01 1.511021e+00 5.108206e+00 3.191808e+00 5.302175e+00 6.900973e+00 8.221745e+00 5.778851e+00 7.091012e+00 1.008999e+01 8.628634e+00 7.961795e+00 8.285324e-01 8.964986e-02 2.566271e-01 4.082255e-01 5.300075e-01 6.503398e-01 7.776426e-01 8.564011e-01 1.124804e+00 1.840659e+00 1.941791e+00 1.271624e+00 1.401743e+00 3.408687e-02 1.106077e-02 3.412724e-02 7.179074e-02 7.876378e-02 1.203009e-01 1.820188e-01 2.092882e-01 1.707548e-01 2.113870e-01 2.817212e-01 2.438077e-01 1.577545e-01 4.365372e-03
<GCONST> 5.106741e+01
<MIXTURE> 8 4.232067e-02
<MEAN> 39
 3.587720e+00 4.788792e+00 -3.858980e-01 -5.976158e+00 -1.186730e+01 -6.472661e+00 -3.168813e+00 2.859801e+00 -6.952692e-01 1.498677e+00 -2.922329e+00 1.014177e+00 1.635927e+00 -1.255241e-01 -4.249652e-02 3.589408e-01 2.097581e-01 3.091298e-01 -5.897970e-02 1.864927e-01 2.744464e-02 2.903132e-01 -8.335415e-02 4.210578e-02 -1.234255e-01 -1.278779e-01 -3.855510e-03 -1.005108e-02 1.408834e-02 5.304364e-02 6.052335e-02 4.846052e-02 6.187603e-02 -2.673265e-02 -4.337865e-02 -3.844820e-02 -5.494526e-02 -6.364547e-02 3.518221e-03
<VARIANCE> 39
 2.819499e+00 3.108953e+00 2.365718e+01 1.563538e+01 1.598156e+01 1.357144e+01 2.893055e+01 4.507521e+01 2.533914e+01 1.253607e+01 1.216771e+01 1.706225e+01 2.060139e+00 9.263989e-02 1.224891e-01 2.542477e-01 4.115469e-01 1.271801e+00 9.747703e-01 1.424929e+00 1.167877e+00 9.233946e-01 1.750704e+00 1.939074e+00 1.368257e+00 3.408687e-02 1.859669e-02 2.442084e-02 4.278666e-02 5.033437e-02 2.144563e-01 1.925602e-01 2.853344e-01 2.341565e-01 1.714699e-01 3.807499e-01 3.832476e-01 2.900357e-01 6.023268e-03
<GCONST> 6.643021e+01
<MIXTURE> 9 5.011047e-02
<MEAN> 39
 -1.544163e+00 -2.018276e+00 -5.949543e-02 2.400380e+00 6.692352e+00 3.595117e+00 -2.212155e-01 -2.958769e+00 9.478762e-01 2.025512e+00 3.096909e+00 -2.748477e-01 -8.954868e-01 -1.782071e-03 -1.775429e-03 -3.317970e-02 -7.827698e-02 -1.272449e-01 -3.164926e-02 1.382577e-01 1.185469e-01 1.480815e-02 -1.018343e-01 -2.316112e-01 -1.278742e-01 -2.854144e-02 3.489316e-02 4.216662e-02 -3.083011e-02 -1.459316e-01 -2.189485e-01 -9.370977e-02 5.577149e-02 1.518025e-01 1.022739e-01 2.620164e-02 -6.196546e-02 -3.320569e-02 8.841868e-03
<VARIANCE> 39
 7.302016e-01 1.490246e+00 1.006659e+01 2.639270e+00 3.784820e+00 8.840213e+00 8.005676e+00 6.948994e+00 1.010569e+01 1.010215e+01 1.350247e+01 1.145279e+01 8.285324e-01 8.808456e-02 2.188639e-01 7.926788e-01 5.257633e-01 8.204614e-01 1.133163e+00 1.567637e+00 1.023707e+00 1.369572e+00 1.086314e+00 1.499864e+00 1.267506e+00 3.408687e-02 1.761886e-02 3.692327e-02 1.652629e-01 9.007231e-02 1.632990e-01 2.773916e-01 2.690265e-01 1.689578e-01 2.942290e-01 2.187116e-01 3.559702e-01 2.958361e-01 4.601428e-03
<GCONST> 5.718008e+01
<MIXTURE> 10 5.072732e-02
<MEAN> 39
 -6.656598e-01 1.276306e+00 5.415888e+00 -7.388862e-01 -1.943419e+00 -4.629200e+00 2.381196e+00 1.187846e+00 2.089170e+00 -8.722376e-01 -4.093929e-01 -5.464194e-01 -1.280750e+00 1.069651e-01 1.282534e-01 -9.166133e-02 1.502965e-02 2.788407e-02 -7.337850e-02 -4.342495e-02 -3.786366e-02 -5.683555e-02 7.387722e-02 1.901617e-01 7.214025e-02 5.373706e-02 -3.541109e-02 -1.237948e-01 -4.878459e-02 2.982920e-01 4.235009e-01 1.613435e-01 -2.998296e-01 -3.512689e-01 -8.421052e-02 -5.093029e-02 1.580570e-01 6.917094e-02 -1.455922e-02
<VARIANCE> 39
 7.302016e-01 1.069289e+00 2.707676e+00 3.199632e+00 2.624529e+00 3.935751e+00 3.720885e+00 7.001406e+00 1.014866e+01 1.019927e+01 8.599973e+00 8.204823e+00 8.285324e-01 7.131813e-02 1.706602e-01 3.897484e-01 4.592226e-01 6.963527e-01 6.316621e-01 1.091070e+00 9.296839e-01 1.329090e+00 1.350812e+00 1.049951e+00 8.179528e-01 3.408687e-02 1.330545e-02 3.436368e-02 6.895337e-02 1.015795e-01 6.704549e-02 1.114807e-01 1.232381e-01 1.387582e-01 3.084728e-01 2.897733e-01 2.324594e-01 1.844974e-01 6.178025e-03
<GCONST> 4.574273e+01
<MIXTURE> 11 4.707107e-02
<MEAN> 39
 -3.640052e+00 -1.424287e+00 8.310473e+00 1.922359e+00 3.320067e+00 -5.677042e+00 2.772731e+00 -2.095707e-01 5.391377e+00 -1.632814e+00 1.538007e+00 -1.090131e+00 -3.486449e+00 -9.180276e-03 -8.662305e-03 1.481888e-01 1.362090e-01 6.745702e-02 8.021360e-02 1.236278e-01 6.606554e-02 6.836105e-02 9.974347e-02 1.273237e-01 -7.461356e-02 3.078637e-03 3.695809e-02 2.026739e-02 1.335903e-02 9.499741e-02 1.645168e-01 2.576852e-01 2.882200e-01 1.727267e-01 -4.326027e-02 -4.842892e-02 5.942451e-02 1.562358e-01 2.315989e-02
<VARIANCE> 39
 7.778574e-01 1.399296e+00 2.871452e+00 2.075306e+00 4.565536e+00 5.529387e+00 5.255995e+00 6.894166e+00 8.092266e+00 1.074967e+01 7.262107e+00 9.589527e+00 8.285324e-01 9.291387e-02 1.842275e-01 3.228444e-01 3.428175e-01 7.073289e-01 1.306784e+00 1.037760e+00 1.443127e+00 1.144218e+00 1.007479e+00 9.495770e-01 1.119372e+00 3.408687e-02 1.497656e-02 3.263685e-02 6.191107e-02 4.874058e-02 1.084439e-01 1.596527e-01 1.376882e-01 2.306218e-01 2.405909e-01 2.504053e-01 1.703211e-01 2.418189e-01 4.404034e-03
<GCONST> 4.741024e+01
<MIXTURE> 12 4.462076e-02
<MEAN> 39
 -5.761638e-01 2.570950e-01 3.981462e+00 1.766637e+00 2.377324e+00 -1.342266e+00 4.899040e-01 -1.023911e+00 2.327360e+00 2.022298e+00 3.967215e+00 7.249196e-01 -9.746023e-01 -2.973135e-02 -1.384906e-01 6.065241e-02 2.479592e-01 4.593482e-01 2.626580e-01 1.644505e-02 1.213912e-01 4.131649e-01 3.555979e-01 2.694678e-01 2.594614e-01 -5.045954e-03 -6.663762e-02 -4.319403e-02 4.757047e-03 -1.761305e-01 -1.828352e-01 -1.500952e-01 2.752346e-02 -3.100564e-02 -2.044618e-01 -5.154268e-01 -6.297116e-01 -1.739127e-01 -4.713925e-02
<VARIANCE> 39
 7.526280e-01 1.069855e+00 4.228018e+00 5.005004e+00 5.180239e+00 8.272837e+00 7.343301e+00 6.338053e+00 5.108963e+00 3.920705e+00 6.195417e+00 9.124592e+00 8.285324e-01 8.127110e-02 1.410309e-01 3.486350e-01 5.297228e-01 6.212367e-01 4.684831e-01 8.852956e-01 8.742767e-01 1.210559e+00 1.279853e+00 1.195416e+00 6.781206e-01 3.408687e-02 1.439576e-02 3.669932e-02 5.531588e-02 1.021643e-01 1.344503e-01 1.592288e-01 1.660476e-01 1.838876e-01 1.914442e-01 1.644550e-01 1.272608e-01 1.773954e-01 5.128663e-03
<GCONST> 4.557888e+01
<MIXTURE> 13 5.616657e-02
<MEAN> 39
 -1.383299e+00 3.001134e-01 6.353190e+00 1.932501e+00 2.000282e+00 -2.172306e+00 4.436629e+00 1.424251e+00 2.019237e+00 -2.880189e+00 7.125562e-02 -9.306931e-02 -1.780648e+00 1.108475e-01 1.387121e-01 1.325229e-01 3.897226e-01 5.127506e-01 2.677422e-01 -4.863340e-02 -4.170904e-02 3.011415e-02 3.260795e-01 4.560959e-01 3.398711e-01 5.980603e-02 2.596537e-02 -8.794573e-03 -1.767941e-01 -1.328294e-01 -6.414386e-02 -1.029796e-01 -3.337513e-01 -1.707461e-01 1.078247e-01 2.501377e-01 1.254762e-02 -2.188266e-02 2.125935e-02
<VARIANCE> 39
 7.302016e-01 9.479780e-01 3.440590e+00 1.770576e+00 3.921523e+00 5.694965e+00 7.346678e+00 5.331329e+00 6.797522e+00 6.347216e+00 7.381237e+00 7.938167e+00 8.285324e-01 7.129055e-02 1.767273e-01 4.023425e-01 3.556509e-01 5.679891e-01 1.086005e+00 1.022091e+00 7.900269e-01 8.666317e-01 9.926132e-01 1.032500e+00 6.332719e-01 3.408687e-02 1.527833e-02 2.703077e-02 8.711427e-02 5.155362e-02 7.509935e-02 1.375646e-01 1.672518e-01 1.676936e-01 2.017712e-01 1.576034e-01 1.997767e-01 1.679460e-01 4.365372e-03
<GCONST> 4.294638e+01
<MIXTURE> 14 4.628148e-02
<MEAN> 39
 -3.241099e+00 -1.013782e+00 9.056429e+00 3.627839e+00 5.726505e+00 -2.532177e+00 5.971511e+00 2.349490e+00 6.132238e+00 -1.713441e+00 1.694964e+00 -2.623754e-01 -3.243823e+00 3.443135e-02 2.037751e-02 -1.235258e-01 -1.411209e-01 -8.451890e-02 6.036564e-02 1.365034e-01 8.719577e-02 -6.473514e-02 -1.123232e-01 -2.817479e-01 5.408236e-02 1.205953e-02 -4.518296e-03 -1.959877e-02 -1.569172e-01 -2.386110e-01 -3.095213e-01 -1.965687e-01 -2.507753e-01 -1.937418e-01 -1.091157e-01 4.050956e-02 -5.771823e-02 -4.365682e-02 6.869601e-03
<VARIANCE> 39
 7.302016e-01 1.617553e+00 3.906232e+00 2.527207e+00 4.029703e+00 1.010605e+01 7.358946e+00 1.213903e+01 9.343850e+00 6.151095e+00 7.744987e+00 8.423031e+00 8.285324e-01 8.034899e-02 2.305990e-01 6.242044e-01 5.526474e-01 8.703897e-01 7.909791e-01 8.962728e-01 1.261208e+00 1.239796e+00 7.142801e-01 8.380686e-01 1.011726e+00 3.895741e-02 1.789809e-02 3.692246e-02 9.783001e-02 6.136839e-02 1.181606e-01 2.018400e-01 1.474803e-01 3.143985e-01 2.474226e-01 8.785033e-02 1.941344e-01 1.802842e-01 6.956453e-03
<GCONST> 5.014466e+01
<MIXTURE> 15 4.667066e-02
<MEAN> 39
 8.021365e+00 5.074769e+00 -1.239355e+01 -7.146911e+00 -1.764701e+01 8.265178e-01 -6.629105e+00 2.680770e-01 -1.210494e+01 -4.148958e-01 -6.004807e+00 6.114215e-01 7.201109e+00 -1.464026e-02 6.088234e-02 1.809494e-01 -5.427128e-02 -1.769547e-02 -1.589355e-01 6.523775e-02 -1.230045e-02 1.355231e-02 -9.737580e-02 -1.502476e-01 -6.382103e-02 -5.261413e-02 -2.211935e-02 -2.402612e-02 -1.959355e-02 2.344912e-03 5.698319e-02 2.954586e-02 3.964622e-02 6.220106e-02 8.615135e-02 4.209644e-02 5.067715e-02 6.168276e-02 -1.678680e-02
<VARIANCE> 39
 1.428391e+00 4.307845e+00 3.193928e+01 3.880866e+00 1.111324e+01 1.541401e+01 1.076591e+01 2.922349e+01 1.804139e+01 2.217907e+01 2.358652e+01 1.440392e+01 2.737305e+00 8.205225e-02 1.728455e-01 9.134077e-01 2.824817e-01 8.953707e-01 1.339967e+00 1.083885e+00 1.919855e+00 1.437913e+00 1.178179e+00 1.496458e+00 1.335365e+00 9.061652e-02 1.478486e-02 2.929540e-02 1.977671e-01 5.049109e-02 1.805209e-01 3.121173e-01 2.169787e-01 3.286901e-01 2.565649e-01 2.147073e-01 3.309334e-01 2.902760e-01 1.540793e-02
<GCONST> 6.887617e+01
<MIXTURE> 16 5.032275e-02
<MEAN> 39
 -8.602590e-01 6.866313e-02 4.318437e+00 1.230365e+00 3.264071e+00 -7.967239e-02 3.589562e+00 1.652085e+00 3.700341e+00 -1.001441e+00 -4.366254e-01 -4.900940e-01 -1.316307e+00 -8.641157e-02 -2.087013e-01 -1.897710e-01 -2.196279e-01 -1.282491e-01 2.699598e-01 -8.436010e-02 -1.455747e-01 -1.201947e-01 -9.274424e-02 -2.630138e-01 -5.035290e-02 -1.277408e-02 -8.196934e-02 -5.485860e-02 6.298325e-03 -4.888942e-02 -2.151876e-01 -2.841321e-01 -1.916728e-01 -3.295119e-01 -3.768045e-01 -9.193112e-02 2.749521e-01 1.556158e-01 -3.872528e-02
<VARIANCE> 39
 7.302016e-01 1.928123e+00 3.677761e+00 2.581923e+00 3.271226e+00 6.031175e+00 8.463288e+00 4.790074e+00 5.532223e+00 6.216806e+00 6.107647e+00 7.514136e+00 8.285324e-01 4.329704e-02 1.151715e-01 5.403661e-01 6.046954e-01 5.605419e-01 9.703723e-01 8.359939e-01 9.858540e-01 1.169046e+00 1.523555e+00 1.374701e+00 1.234649e+00 3.408687e-02 9.642231e-03 3.218202e-02 8.554986e-02 5.133300e-02 5.040145e-02 1.504220e-01 2.066207e-01 1.141341e-01 1.583461e-01 1.699655e-01 1.950710e-01 1.947385e-01 4.468658e-03
<GCONST> 4.420457e+01
<MIXTURE> 17 4.217640e-02
<MEAN> 39
 -2.188473e-01 6.646589e-01 2.422251e+00 -7.559062e-03 1.337587e+00 3.130668e-01 1.596506e+00 -1.971518e+00 -2.351301e+00 -2.609938e+00 6.809693e-01 9.864274e-01 -7.049009e-01 7.079973e-02 8.466381e-02 8.280927e-02 1.575849e-01 1.279309e-01 -1.399782e-01 -2.382178e-01 -1.438191e-01 -2.100960e-01 -2.771604e-01 -1.377015e-01 -2.016958e-01 9.092369e-03 -7.559804e-02 -9.357689e-02 7.942615e-02 4.829689e-02 2.290444e-03 -1.905718e-01 -1.303393e-01 1.155298e-01 3.360643e-01 2.257480e-01 3.983369e-02 -7.758816e-02 -4.292623e-02
<VARIANCE> 39
 7.302016e-01 1.453831e+00 4.489576e+00 2.034103e+00 2.742624e+00 5.450538e+00 6.253086e+00 3.453615e+00 7.033630e+00 7.033732e+00 4.595930e+00 6.732899e+00 8.285324e-01 1.037516e-01 2.443166e-01 3.433715e-01 4.691909e-01 8.207827e-01 5.497357e-01 1.171669e+00 1.191849e+00 1.406915e+00 1.024338e+00 7.493268e-01 1.089640e+00 3.408687e-02 1.435762e-02 2.846335e-02 6.610270e-02 5.674262e-02 1.007882e-01 1.189201e-01 1.427072e-01 1.244739e-01 1.946420e-01 2.091339e-01 1.196745e-01 1.733866e-01 6.741233e-03
<GCONST> 4.377351e+01
<MIXTURE> 18 5.412756e-02
<MEAN> 39
 -1.599290e+00 -7.864535e-01 3.923163e+00 8.405122e-01 1.177914e+00 -3.523608e+00 -8.373173e-01 -3.014994e+00 6.964747e-01 -1.926510e+00 1.500986e+00 7.618239e-01 -1.650329e+00 -1.656470e-01 -2.182057e-01 -2.146266e-02 -2.325868e-01 -2.048025e-01 -2.716311e-01 -2.850743e-01 -2.151954e-01 -2.467614e-01 -1.207106e-01 -3.057623e-01 -1.870154e-01 -5.304246e-02 1.171638e-01 1.916231e-01 9.505662e-02 -1.697962e-02 -6.949414e-02 1.086961e-01 3.498591e-01 3.481830e-01 4.560732e-02 1.159492e-01 -1.281262e-01 -4.917657e-02 6.596241e-02
<VARIANCE> 39
 7.302016e-01 9.621341e-01 3.656110e+00 2.656775e+00 5.602235e+00 6.484231e+00 5.284743e+00 5.674108e+00 1.051898e+01 6.523535e+00 9.776907e+00 6.071479e+00 8.285324e-01 5.751009e-02 1.757035e-01 3.117809e-01 4.076069e-01 4.406579e-01 6.377496e-01 6.879643e-01 6.462417e-01 8.448524e-01 1.129441e+00 9.967974e-01 8.409821e-01 3.408687e-02 8.707656e-03 2.605033e-02 6.126147e-02 9.190140e-02 1.389374e-01 1.099446e-01 9.962331e-02 1.243322e-01 2.273395e-01 1.606385e-01 2.228905e-01 1.732625e-01 4.365372e-03
<GCONST> 4.223384e+01
<MIXTURE> 19 4.373812e-02
<MEAN> 39
 1.344653e-01 -4.231409e+00 -1.369784e+01 4.771671e+00 8.803983e+00 1.235819e+01 -8.079744e+00 -4.088326e+00 -3.178563e+00 4.570134e+00 -9.562682e-02 -2.216750e+00 2.844431e+00 -6.361938e-02 -3.286530e-02 1.083388e-01 1.466347e-02 5.244159e-02 -1.170565e-01 4.381540e-02 -1.642697e-02 -4.795923e-02 4.899371e-02 1.294496e-01 -7.627109e-02 -4.519744e-02 1.122047e-02 2.798481e-02 4.308410e-02 -9.633850e-02 -1.180600e-01 -1.048024e-01 1.394719e-01 6.005286e-02 -2.239369e-02 -7.575171e-02 1.935158e-02 9.375822e-02 -1.774989e-02
<VARIANCE> 39
 9.416746e-01 2.670754e+00 2.600063e+01 5.350923e+00 6.345847e+00 1.178595e+01 1.522722e+01 7.306170e+00 9.567824e+00 1.089393e+01 1.084869e+01 7.134820e+00 2.402391e+00 6.751402e-02 2.194956e-01 6.160475e-01 6.445461e-01 1.050168e+00 1.359758e+00 1.702569e+00 7.428110e-01 8.045111e-01 1.412770e+00 1.114488e+00 1.002315e+00 3.541524e-02 1.588500e-02 5.336869e-02 1.443492e-01 9.493562e-02 1.778266e-01 2.240846e-01 3.249601e-01 1.277537e-01 1.503174e-01 3.242721e-01 2.304598e-01 2.680087e-01 7.155666e-03
<GCONST> 6.027438e+01
<MIXTURE> 20 4.145696e-02
<MEAN> 39
 5.032419e+00 -1.740332e+00 -2.424883e+01 -5.561934e+00 -6.016657e+00 1.397338e+01 -4.311162e+00 6.473534e+00 -5.757590e+00 7.313739e+00 -1.106998e+00 1.397320e+00 6.869054e+00 7.286344e-02 -6.848845e-02 -5.196447e-01 -2.328313e-01 -4.973745e-01 -1.593071e-01 -3.625641e-01 -2.119641e-01 -6.013949e-01 -3.239031e-01 -2.554535e-01 1.030595e-01 1.649776e-01 -7.714793e-03 2.069973e-02 1.366082e-01 2.395963e-02 1.664306e-02 -6.116008e-02 -5.972280e-03 -5.381514e-02 1.156016e-01 -7.747750e-02 -1.727913e-01 -9.050943e-02 -3.228096e-02
<VARIANCE> 39
 3.363762e+00 4.623514e+00 2.355863e+01 6.400727e+00 1.846524e+01 1.965405e+01 2.681590e+01 1.899252e+01 1.039303e+01 1.108453e+01 1.175777e+01 1.449453e+01 3.421777e+00 1.435080e-01 1.560146e-01 1.297269e+00 7.597278e-01 8.874567e-01 1.000079e+00 1.193222e+00 1.719785e+00 8.829316e-01 8.467289e-01 1.246534e+00 1.465959e+00 1.306871e-01 1.287435e-02 2.079349e-02 2.145762e-01 1.191034e-01 1.676211e-01 1.474393e-01 2.636122e-01 2.827518e-01 1.849919e-01 1.234524e-01 1.966320e-01 2.622755e-01 8.259326e-03
<GCONST> 6.801270e+01
<MIXTURE> 21 3.772175e-02
<MEAN> 39
 -1.136149e+00 3.123973e-01 5.580123e+00 1.696601e+00 9.987484e-01 -4.193645e+00 7.359207e-01 -1.832946e-01 4.702279e+00 1.977404e+00 2.812821e+00 1.771673e+00 -1.573154e+00 -7.781907e-02 -1.758860e-02 -1.312779e-01 -4.507363e-01 -6.968227e-01 -5.169875e-01 -2.543015e-01 -3.193187e-01 -9.791271e-03 -1.467935e-01 -4.917095e-01 -4.148928e-01 -6.338803e-02 3.113106e-03 -1.394226e-02 -5.194486e-02 -1.126362e-01 -9.603596e-02 1.187874e-01 8.281022e-02 -1.176829e-02 -5.250273e-01 -6.301485e-01 -4.317254e-01 -3.889118e-01 9.070651e-03
<VARIANCE> 39
 7.302016e-01 1.178698e+00 3.339832e+00 2.317434e+00 3.965718e+00 4.167380e+00 7.219694e+00 5.076221e+00 7.698768e+00 5.912796e+00 3.730487e+00 4.876118e+00 8.285324e-01 8.769134e-02 1.707650e-01 4.884507e-01 4.768747e-01 6.275473e-01 8.956442e-01 1.028246e+00 1.061701e+00 8.571614e-01 1.310579e+00 1.398991e+00 1.019816e+00 3.408687e-02 1.078787e-02 3.409901e-02 7.117278e-02 8.537193e-02 1.059150e-01 1.655795e-01 1.416212e-01 1.215149e-01 1.943652e-01 1.196848e-01 1.215189e-01 8.643098e-02 4.365372e-03
<GCONST> 4.258892e+01
<STATE> 3
<NUMMIXES> 21
<MIXTURE> 1 6.598283e-02
<MEAN> 39
 1.147045e+00 -6.923980e+00 -1.179225e+01 -9.642510e+00 1.149093e+01 5.030443e+00 4.215609e+00 1.177752e-01 7.207860e+00 1.314920e+00 -7.666933e+00 -1.235307e+00 -1.045633e+01 -7.723380e-01 6.451206e-01 1.184481e-01 5.629163e-01 2.151157e-01 -2.946725e-01 6.803581e-01 -1.644161e-01 1.804460e-01 -4.214854e-01 1.386551e-01 5.131438e-01 6.157760e-01 -3.290153e-01 3.021033e-01 5.154210e-01 4.734906e-01 -3.493358e-01 -2.870828e-01 -7.507943e-02 1.571623e-01 -2.315678e-01 -9.466661e-02 3.162718e-01 1.902380e-01 7.523423e-01
<VARIANCE> 39
 5.421577e+01 4.525589e+01 4.297647e+01 9.083116e+01 9.580924e+01 5.979834e+01 7.622674e+01 7.496133e+01 6.157757e+01 5.577362e+01 4.880329e+01 6.719577e+01 8.045036e+01 5.226033e+00 4.995300e+00 4.434574e+00 5.988154e+00 6.058720e+00 5.712404e+00 6.957498e+00 6.394642e+00 4.324216e+00 4.223274e+00 4.249990e+00 4.878062e+00 7.876072e+00 5.461805e-01 5.023387e-01 6.343802e-01 6.616569e-01 9.484245e-01 9.080764e-01 1.183212e+00 8.197954e-01 7.583889e-01 6.996007e-01 7.419727e-01 8.174520e-01 9.602354e-01
<GCONST> 1.440463e+02
<MIXTURE> 2 3.362212e-02
<MEAN> 39
 -5.655362e-01 -7.574039e+00 -9.497153e+00 -6.548430e+00 4.943796e+00 5.713162e+00 2.290848e+00 5.273152e+00 4.950726e+00 6.735382e+00 -4.069107e+00 -2.426305e+00 1.237479e+01 1.161932e-01 -1.003702e-01 1.939347e-01 -2.709731e-02 1.066689e-01 -1.731660e-01 -7.286971e-02 2.536193e-01 -3.692463e-01 -2.980018e-02 -1.157547e-01 1.474245e-01 -2.272475e-02 7.304115e-02 -4.150566e-02 1.447075e-01 6.782146e-02 -5.655906e-02 -1.117496e-01 -2.821790e-01 1.865074e-01 -1.031136e-02 -6.420365e-02 -3.941307e-03 1.886396e-02 -7.535506e-02
<VARIANCE> 39
 9.091008e+00 1.139166e+01 2.442632e+01 4.154406e+01 2.280442e+01 2.986221e+01 3.720056e+01 4.037410e+01 2.155736e+01 5.410910e+01 3.232069e+01 1.728620e+01 9.487544e+00 1.156767e-01 1.772599e-01 2.995237e-01 2.808185e-01 5.788540e-01 6.386452e-01 1.103982e+00 1.049732e+00 4.374771e-01 5.060235e-01 9.412858e-01 7.802263e-01 4.591485e-02 2.385024e-02 3.751270e-02 5.852240e-02 5.713855e-02 9.986581e-02 1.187241e-01 1.852788e-01 1.791716e-01 1.120844e-01 1.697851e-01 1.580549e-01 9.200013e-02 7.369783e-03
<GCONST> 6.694456e+01
<MIXTURE> 3 3.787535e-02
<MEAN> 39
 -7.926253e+00 5.409230e+00 1.549750e+01 7.363530e+00 -1.336093e+01 -2.110265e+00 -5.279171e+00 -3.128281e+00 -8.658162e+00 -8.667322e+00 1.189282e+01 8.127593e-01 7.755052e+00 -1.554543e-02 7.891749e-02 -2.010188e-02 -7.135361e-03 -1.208975e-01 -1.492641e-01 3.717085e-01 -2.220629e-01 1.980145e-02 2.396312e-01 1.014841e-01 -9.991132e-02 3.784427e-02 4.115220e-02 -3.091124e-02 -2.352228e-02 2.242134e-02 1.792111e-02 -1.211173e-01 6.060691e-02 5.646199e-02 5.262293e-02 1.157533e-02 -9.990932e-02 -4.829303e-02 -6.099521e-02
<VARIANCE> 39
 3.783328e+00 5.735683e+00 4.125417e+01 1.439912e+01 2.161870e+01 1.264809e+01 2.366896e+01 3.598897e+01 3.582806e+01 2.004020e+01 1.189884e+01 1.561861e+01 3.023624e+00 9.923679e-02 1.726532e-01 2.527626e-01 3.417413e-01 4.515202e-01 6.684730e-01 4.860450e-01 3.884348e-01 8.622597e-01 5.295879e-01 4.726952e-01 4.124712e-01 3.408687e-02 1.881233e-02 2.294457e-02 3.221430e-02 4.757549e-02 9.307537e-02 1.163490e-01 8.714905e-02 7.932948e-02 1.619738e-01 1.022465e-01 7.753112e-02 7.986446e-02 1.252288e-02
<GCONST> 5.393553e+01
<MIXTURE> 4 3.703278e-02
<MEAN> 39
 -1.581197e+00 -7.786524e+00 -1.096500e+01 -8.144123e+00 4.841278e+00 8.205753e+00 1.995104e+00 3.868863e+00 7.605124e+00 6.332096e+00 -2.560392e+00 -6.230011e+00 1.400200e+01 3.038787e-02 4.799679e-02 -8.858284e-02 -3.765202e-02 6.123913e-02 -4.015240e-02 8.098517e-02 1.850478e-02 -1.391012e-01 1.854815e-02 3.587763e-02 -9.801045e-02 -1.645544e-02 2.120482e-01 8.678193e-02 3.646005e-01 1.202027e-01 -5.152293e-02 -3.489365e-01 -6.041382e-01 1.118144e-01 -8.010412e-02 -8.027892e-02 2.046623e-01 3.369431e-01 -3.033565e-01
<VARIANCE> 39
 5.109872e+00 7.004628e+00 1.760302e+01 2.024813e+01 1.429238e+01 1.931962e+01 4.127509e+01 2.323883e+01 2.692539e+01 3.310683e+01 1.526476e+01 1.375996e+01 5.942590e+00 3.660593e-01 4.563395e-01 1.077267e+00 8.540700e-01 8.652618e-01 2.179319e+00 3.932334e+00 3.371490e+00 1.119986e+00 1.677263e+00 1.229553e+00 1.058035e+00 2.368330e-01 4.524813e-02 6.952042e-02 1.407754e-01 2.488385e-01 1.867642e-01 2.024676e-01 3.740222e-01 3.940863e-01 2.195533e-01 3.987354e-01 1.923291e-01 2.982504e-01 3.085705e-02
<GCONST> 8.526417e+01
<MIXTURE> 5 6.098732e-02
<MEAN> 39
 3.952146e+00 8.346993e+00 -8.431290e+00 -1.451624e+01 -4.869524e+00 1.623362e+01 -5.799151e-01 -5.774220e+00 -5.214200e+00 2.918486e+00 4.920629e+00 6.170290e+00 5.260853e+00 -4.032674e-02 1.882219e-01 -2.642065e-02 -6.339837e-01 1.315597e-01 2.923970e-01 1.175503e-01 8.455282e-02 -9.232570e-02 -5.524139e-02 -1.317987e-01 1.204911e-01 2.263456e-02 -1.321003e-02 -1.367942e-01 2.097718e-02 2.288256e-01 1.059638e-01 -1.773405e-01 -4.010541e-02 3.328554e-02 9.508296e-02 1.015480e-01 2.814791e-02 -1.964891e-01 -1.063941e-02
<VARIANCE> 39
 4.109544e+00 3.388916e+01 1.610396e+01 4.935767e+01 3.413105e+01 2.343021e+01 3.420545e+01 3.103605e+01 2.855749e+01 3.719704e+01 5.116012e+01 1.218588e+01 9.066891e+00 1.517379e-01 5.827439e-01 5.352485e-01 1.756894e+00 9.654650e-01 1.196561e+00 1.168840e+00 1.342034e+00 9.055130e-01 1.030172e+00 1.917064e+00 1.310956e+00 2.195553e-01 2.268719e-02 7.193874e-02 1.041054e-01 1.821804e-01 1.425434e-01 1.999948e-01 1.496678e-01 2.885274e-01 1.915610e-01 1.776171e-01 2.920661e-01 1.554029e-01 1.935166e-02
<GCONST> 8.249381e+01
<MIXTURE> 6 5.533613e-02
<MEAN> 39
 2.327758e+00 -8.539991e-03 -4.556190e+00 -2.612806e-01 1.209610e+00 4.997025e+00 -1.163491e+01 -5.819898e+00 -8.017635e-01 6.015973e+00 6.531123e+00 -1.113141e+00 6.868547e+00 1.355963e-01 4.065598e-01 -4.902036e-01 -1.022422e+00 -3.799618e-01 1.507194e+00 3.521744e-01 -6.113187e-01 -5.178985e-01 8.638083e-02 4.489170e-01 6.779630e-01 -1.452491e-02 -1.222913e-01 -9.322144e-02 6.885072e-02 -1.039282e-01 -8.884368e-02 -2.109508e-01 4.931909e-01 4.419864e-01 2.344853e-01 -3.183808e-01 -2.936495e-01 1.613417e-01 6.036877e-02
<VARIANCE> 39
