~o
<STREAMINFO> 1 39
<VECSIZE> 39<NULLD><MFCC_D_A_Z_0><DIAGC>
~h "M001"
<BEGINHMM>
<NUMSTATES> 5
<STATE> 2
<NUMMIXES> 7
<MIXTURE> 1 1.160712e-01
<MEAN> 39
 -2.114431e+01 -1.559228e+00 -2.621230e+00 -9.489998e-01 6.156146e+00 5.082413e+00 2.791557e+00 7.516261e+00 6.081168e+00 1.598553e-01 3.937383e+00 1.046407e+01 -4.361103e+00 4.678770e-02 3.591695e-01 1.910061e-01 -9.558503e-01 4.335692e-01 -4.030345e-02 -4.082452e-03 -2.181974e-01 -3.280372e-02 5.318118e-01 -5.205460e-01 -8.401157e-01 1.247698e+00 6.275357e-01 -8.667762e-02 4.711048e-02 6.957340e-02 1.322402e-01 -5.392382e-02 7.495455e-02 -6.389325e-02 -4.483125e-01 -1.335711e-01 -1.558044e-01 -2.261705e-01 -2.598077e-01
<VARIANCE> 39
 6.856340e+01 3.628523e+01 2.659714e+01 3.098557e+01 6.867190e+01 3.050506e+01 3.637587e+01 4.460451e+01 1.735917e+01 1.633020e+01 1.784963e+01 3.103770e+01 3.100381e+01 5.527132e+00 4.730889e+00 2.786295e+00 8.612655e+00 5.339264e+00 4.261641e+00 3.398511e+00 5.057553e+00 2.077506e+00 2.699444e+00 3.002061e+00 3.331332e+00 1.175164e+01 2.038933e-01 1.130369e+00 3.754324e-01 1.400359e+00 1.216303e+00 6.523783e-01 7.243868e-01 1.094784e+00 6.468320e-01 3.315236e-01 3.707825e-01 5.982238e-01 4.007938e-01
<GCONST> 1.290160e+02
<MIXTURE> 2 1.009111e-01
<MEAN> 39
 -4.717563e-01 2.359226e+00 -1.286053e+01 -1.599734e+01 7.882152e+00 7.162590e+00 8.457726e+00 -4.981841e+00 -3.184168e-02 2.555812e+00 3.748947e+00 -2.911250e+00 1.107518e+01 8.887236e-01 7.941557e-02 6.983029e-01 7.453915e-01 -2.945442e-01 -1.123693e-01 -6.275805e-02 7.230734e-01 -4.116810e-02 -4.481937e-01 -9.446989e-02 5.004532e-01 -1.501045e+00 2.075802e-01 6.537301e-02 6.602152e-02 2.145820e-01 -1.805406e-01 8.841608e-02 -1.200285e-01 1.062823e-02 6.972156e-02 7.617880e-02 -1.816669e-01 5.559031e-02 -6.736173e-01
<VARIANCE> 39
 9.726366e+00 8.477248e+00 1.942493e+01 2.236701e+01 2.097745e+01 9.447241e+00 3.531310e+01 1.245010e+01 7.737721e+00 1.272425e+01 2.678695e+01 1.593494e+01 2.027358e+01 1.467324e+00 7.394339e-01 1.015214e+00 1.660964e+00 1.932072e+00 1.425566e+00 1.620406e+00 1.023663e+00 1.678970e+00 1.100692e+00 2.470929e+00 1.493300e+00 4.132237e+00 2.107025e-01 2.460505e-01 2.914073e-01 4.153101e-01 6.736797e-01 2.905370e-01 2.810002e-01 2.452099e-01 3.975797e-01 3.352867e-01 2.244136e-01 2.539562e-01 2.654365e-01
<GCONST> 9.707218e+01
<MIXTURE> 3 1.959141e-01
<MEAN> 39
 4.918911e-01 -7.736135e+00 -4.710571e+00 1.038435e+00 -2.139069e+00 6.321108e+00 5.467582e+00 5.779354e+00 5.139727e-01 -4.823687e+00 -3.552749e-01 3.943212e+00 -2.015678e+01 -5.718098e-01 4.549251e-01 -1.070243e-01 7.396321e-01 -1.339714e-01 -1.325045e-01 1.101751e-01 3.033697e-01 1.575341e-01 -8.737723e-02 -1.216248e-01 2.214144e-01 -1.174678e-02 -3.280626e-01 4.935686e-01 -1.716773e-01 1.612905e-01 7.050957e-02 -1.364977e-01 -9.275983e-02 -4.277179e-01 3.308518e-01 1.799840e-01 9.009266e-02 1.422110e-01 6.342458e-01
<VARIANCE> 39
 1.876629e+01 7.578901e+00 3.698209e+01 3.988070e+01 3.954373e+01 3.294567e+01 2.929833e+01 2.717901e+01 1.977958e+01 1.967846e+01 2.443131e+01 2.445034e+01 1.649987e+01 8.456060e-01 9.742522e-01 2.049384e+00 1.423018e+00 2.076945e+00 1.922778e+00 2.170338e+00 2.233825e+00 1.908799e+00 1.974438e+00 2.216036e+00 1.779064e+00 4.493133e-01 2.942640e-01 3.334919e-01 7.543957e-01 4.883537e-01 4.176537e-01 4.497422e-01 4.626258e-01 5.438351e-01 4.428670e-01 3.799954e-01 5.613829e-01 4.359888e-01 3.194403e-01
<GCONST> 1.079787e+02
<MIXTURE> 4 1.712015e-01
<MEAN> 39
 -4.373245e+00 -5.418048e+00 -4.694896e+00 6.589323e+00 -1.188028e+00 3.684417e+00 3.960663e+00 3.010214e+00 2.850494e+00 -3.580462e+00 1.149585e+00 6.722329e+00 -2.033508e+01 -1.733536e+00 2.650867e+00 -4.468566e-01 6.623339e-01 -1.979750e-02 -5.369090e-01 5.642463e-02 -2.090520e+00 1.121330e+00 2.927202e-01 -2.512595e-01 3.280976e-01 3.453182e+00 2.735865e-01 6.113724e-01 5.818441e-01 -4.986407e-01 -4.481911e-02 -2.018213e-01 -1.613739e-01 -6.060470e-01 -2.041749e-01 2.165490e-01 -3.257345e-01 -3.804017e-01 1.291508e+00
<VARIANCE> 39
 2.360955e+01 2.078136e+01 2.499942e+01 2.957346e+01 3.465141e+01 1.739896e+01 2.525002e+01 3.467563e+01 1.772990e+01 3.420116e+01 1.388974e+01 2.157817e+01 1.494636e+01 4.795139e+00 5.125193e+00 9.580433e+00 6.666839e+00 3.746137e+00 3.935215e+00 5.179050e+00 3.388376e+00 2.697788e+00 2.805948e+00 3.581368e+00 1.957340e+00 4.367882e+00 8.773770e-01 5.010354e-01 1.366413e+00 9.483942e-01 7.352230e-01 7.800480e-01 9.139352e-01 9.219741e-01 6.015373e-01 7.096518e-01 4.661974e-01 4.444472e-01 4.059984e-01
<GCONST> 1.262135e+02
<MIXTURE> 5 1.869766e-01
<MEAN> 39
 -1.100106e+00 -8.874482e+00 -1.587265e+00 6.216404e+00 -7.851814e-01 3.403790e+00 1.973590e+00 3.633197e+00 1.739475e+00 -4.816258e+00 2.957635e-01 5.167444e+00 -2.301712e+01 -1.851057e-01 4.738858e-02 -6.680687e-02 9.109534e-02 -1.356185e-02 6.741010e-02 1.605430e-01 -2.373980e-01 3.972009e-03 1.838194e-01 1.194454e-02 -1.117939e-01 1.546497e-02 -9.673539e-02 9.876973e-02 -1.391235e-01 -2.582623e-02 4.187514e-02 -5.238442e-02 9.313236e-02 7.883634e-02 2.874948e-02 5.286321e-02 1.029558e-01 8.693212e-02 6.948420e-02
<VARIANCE> 39
 6.123331e+00 5.405252e+00 1.433465e+01 1.455779e+01 2.234287e+01 1.359628e+01 3.174610e+01 2.737982e+01 2.121413e+01 1.999069e+01 1.588833e+01 1.556389e+01 6.163158e+00 2.353797e-01 4.856243e-01 5.684327e-01 5.224753e-01 1.171610e+00 1.060857e+00 1.639080e+00 1.828738e+00 1.901361e+00 1.635360e+00 1.413025e+00 1.245238e+00 7.333519e-02 4.680697e-02 7.716007e-02 7.578769e-02 7.052800e-02 1.583747e-01 1.228689e-01 2.086037e-01 2.554829e-01 2.414819e-01 1.627375e-01 1.921336e-01 1.860763e-01 1.877071e-02
<GCONST> 7.512978e+01
<MIXTURE> 6 1.053295e-01
<MEAN> 39
 -1.999340e+00 1.085883e+01 -7.278684e-01 8.841682e+00 6.593770e-02 -2.531391e+00 4.175284e+00 -5.385602e+00 8.575004e-01 -3.865676e+00 -5.069060e+00 6.700115e+00 -1.066287e+01 2.633425e+00 3.835819e+00 2.098995e+00 -1.098034e+00 -1.712281e+00 -1.668626e+00 7.073992e-01 -3.995881e+00 -1.734321e+00 2.091130e+00 -1.679488e+00 -6.533086e-01 3.856669e+00 -1.756883e-01 -1.432507e+00 2.068574e-01 -9.827809e-01 -1.483664e-01 5.229127e-01 5.356296e-02 2.649164e-01 3.985042e-02 7.233186e-01 4.434881e-01 -1.382135e-01 2.737031e-01
<VARIANCE> 39
 3.641874e+01 4.930627e+01 5.330124e+01 8.054739e+01 5.488869e+01 3.930158e+01 6.406351e+01 8.236605e+01 4.924427e+01 2.444498e+01 5.299565e+01 1.937736e+01 2.139792e+01 4.188140e+00 6.325892e+00 7.990479e+00 9.996635e+00 3.238770e+00 6.889211e+00 6.386922e+00 7.218296e+00 9.183567e+00 6.107951e+00 4.119692e+00 3.749768e+00 4.412426e+00 7.865131e-01 1.227586e+00 7.215505e-01 7.979094e-01 1.032074e+00 9.466969e-01 1.491379e+00 1.450453e+00 1.236089e+00 8.278536e-01 8.042752e-01 6.084587e-01 6.422422e-01
<GCONST> 1.427427e+02
<MIXTURE> 7 1.235967e-01
<MEAN> 39
 4.146000e+00 2.847140e-01 -1.313961e+01 -1.346327e+01 4.277418e+00 7.065686e+00 5.638294e+00 -2.980077e+00 1.165955e+00 4.495203e+00 1.698565e+00 -9.104570e-01 -3.545939e+00 1.229018e-01 -1.348618e+00 -8.193820e-01 -8.492135e-01 1.140906e-01 2.055444e-01 5.183649e-01 3.578860e-01 -6.918228e-02 1.623234e-01 1.239880e-01 -3.340249e-01 -3.478428e-01 -2.689894e-01 -2.521045e-01 2.718283e-01 5.551332e-01 -4.088536e-01 -1.246991e-01 -4.323185e-02 3.253333e-01 -4.989018e-02 -4.701762e-01 9.930747e-03 1.741495e-01 -1.566454e-01
<VARIANCE> 39
 2.134527e+01 4.346078e+01 2.252021e+01 3.583487e+01 3.385867e+01 2.807365e+01 2.291477e+01 3.532970e+01 2.025770e+01 2.150666e+01 3.445000e+01 4.039740e+01 9.462114e+01 1.744609e+00 1.560414e+00 1.885381e+00 7.243540e+00 8.432163e+00 2.486918e+00 2.509789e+00 2.298545e+00 2.404016e+00 2.662442e+00 3.353380e+00 5.354177e+00 8.782620e+00 3.472903e-01 6.819192e-01 4.739974e-01 8.946081e-01 8.361995e-01 6.017117e-01 3.556156e-01 4.516207e-01 3.785887e-01 3.434445e-01 8.268904e-01 1.183257e+00 9.442377e-01
<GCONST> 1.250168e+02
<STATE> 3
<NUMMIXES> 7
<MIXTURE> 1 1.611617e-01
<MEAN> 39
 4.770093e+00 4.425921e+00 -8.667860e+00 -1.104099e+01 1.475220e+00 8.001330e+00 3.099734e+00 -6.458066e+00 -2.701786e+00 5.393555e+00 -9.631524e-01 -2.162148e+00 4.668172e+00 -2.271831e-02 -1.757035e-01 -3.037529e-02 1.840065e-02 4.698028e-01 3.082825e-02 1.457260e-01 -3.648803e-02 1.170085e-01 2.021368e-01 -2.629344e-01 -3.273149e-01 -4.304633e-02 -4.272873e-02 -1.943948e-01 2.398955e-01 5.565178e-01 -3.552222e-02 -3.333807e-01 -2.192349e-01 2.361245e-01 1.223158e-01 -2.649272e-01 7.516964e-03 8.722348e-02 -1.291448e-01
<VARIANCE> 39
 1.174447e+01 2.937493e+01 5.146863e+01 7.858534e+01 9.003586e+01 6.821353e+01 9.424461e+01 9.528795e+01 7.315149e+01 6.594657e+01 6.245212e+01 3.557199e+01 1.264548e+01 6.960099e-01 2.789401e+00 2.838896e+00 5.253806e+00 3.471725e+00 4.343842e+00 5.296026e+00 5.246430e+00 4.505838e+00 3.596076e+00 3.470045e+00 3.077811e+00 1.241152e+00 1.471047e-01 2.449020e-01 3.749131e-01 5.478485e-01 6.265332e-01 6.879423e-01 7.139955e-01 8.482348e-01 6.729932e-01 6.708767e-01 6.585937e-01 5.249360e-01 1.549879e-01
<GCONST> 1.271784e+02
<MIXTURE> 2 1.297897e-01
<MEAN> 39
 7.680116e+00 -7.830315e-01 1.401348e+00 3.963046e+00 -4.754644e-02 1.000846e+00 -1.538013e+00 5.803228e+00 -8.957016e-01 -3.208157e+00 -7.942986e-01 2.219808e-01 -1.170689e+01 -1.203622e+00 -6.854887e-01 3.290235e-01 -1.480102e-01 1.404703e-02 7.101192e-01 1.821318e-02 2.864667e-01 2.743499e-01 -1.530964e-01 -2.218366e-01 6.007862e-01 -5.148830e-01 -9.841002e-01 -1.981955e-01 1.251599e-01 -2.343455e-01 -2.310583e-01 5.077271e-02 -1.122692e-01 -4.321955e-01 1.734139e-01 2.546890e-01 2.498402e-01 4.458018e-02 1.299343e+00
<VARIANCE> 39
 4.968776e+01 4.443108e+01 8.988757e+01 8.963660e+01 6.319260e+01 6.269350e+01 4.942875e+01 9.269793e+01 5.904078e+01 5.060213e+01 3.792268e+01 3.492732e+01 2.689493e+01 7.158442e+00 4.843719e+00 7.425971e+00 6.434916e+00 6.055064e+00 6.152770e+00 5.305080e+00 6.927331e+00 5.439742e+00 4.164520e+00 3.920503e+00 3.047926e+00 8.526303e+00 6.690619e-01 6.070252e-01 1.001479e+00 1.164035e+00 9.541324e-01 1.024171e+00 1.048962e+00 1.042453e+00 1.053754e+00 7.563363e-01 7.044280e-01 5.734133e-01 6.221371e-01
<GCONST> 1.436579e+02
<MIXTURE> 3 1.286611e-01
<MEAN> 39
 2.656748e-01 -4.690979e+00 2.902644e+00 -1.288755e+00 -8.301016e-01 -6.126214e+00 -3.089374e+00 7.502169e+00 -9.871997e-01 -1.061745e+00 3.950749e+00 -4.335289e+00 8.831528e+00 6.058519e-01 3.457857e-02 5.262656e-01 9.142028e-01 -1.699258e-01 -1.705824e-01 -3.242949e-01 -3.225608e-01 -1.254174e-01 -1.296190e-01 4.628824e-02 5.347064e-01 -8.043664e-01 1.116954e-01 3.610090e-01 5.591683e-02 2.291639e-01 8.633260e-02 1.490515e-01 2.698914e-01 -4.902707e-01 2.773124e-02 1.243017e-01 -3.609197e-01 1.705302e-01 -5.269851e-01
<VARIANCE> 39
 1.262547e+01 1.650418e+01 7.226846e+01 5.502770e+01 6.991042e+01 4.169064e+01 5.797921e+01 5.274737e+01 7.994268e+01 3.902455e+01 6.350323e+01 3.710798e+01 8.374267e+00 1.217036e+00 1.848474e+00 3.795149e+00 3.621781e+00 3.948082e+00 3.554955e+00 4.274491e+00 4.688021e+00 3.249144e+00 3.237500e+00 3.180786e+00 2.875254e+00 1.871320e+00 2.211140e-01 2.669266e-01 3.794568e-01 4.859085e-01 5.763151e-01 6.479257e-01 6.423845e-01 7.415234e-01 5.940571e-01 4.655455e-01 5.391549e-01 5.241286e-01 2.040940e-01
<GCONST> 1.231217e+02
<MIXTURE> 4 1.786781e-01
<MEAN> 39
 -5.756250e+00 -4.759568e+00 1.173880e+00 2.409646e+00 -2.299606e-02 3.047076e+00 -3.875375e+00 3.122615e+00 4.443481e+00 -1.703331e+00 -4.899565e-01 2.685430e+00 2.916663e+00 -7.368089e-02 2.402395e-01 -7.238690e-04 -9.955699e-02 -3.792568e-01 -4.841356e-01 -1.052376e-01 -1.640985e-01 -4.693100e-01 -1.516711e-01 3.500913e-01 -1.362237e-01 1.397447e+00 8.574573e-01 5.966056e-01 -2.129623e-01 -2.348957e-01 -7.235807e-02 -2.581816e-01 3.152273e-01 -2.215068e-01 -5.519024e-01 1.556160e-01 1.627153e-01 -3.818538e-01 -5.533794e-01
<VARIANCE> 39
 9.582845e+01 5.898673e+01 1.397463e+02 9.296293e+01 9.318060e+01 7.350585e+01 6.835728e+01 8.176168e+01 7.398283e+01 4.873125e+01 5.186972e+01 4.163541e+01 3.858553e+01 1.039302e+01 7.627322e+00 9.038547e+00 9.670839e+00 7.533634e+00 7.016894e+00 7.440028e+00 9.699491e+00 8.517756e+00 5.557850e+00 5.264301e+00 4.755816e+00 9.749404e+00 1.240556e+00 1.165940e+00 1.386266e+00 1.616255e+00 1.427328e+00 1.424873e+00 1.400564e+00 1.430415e+00 1.251592e+00 1.102082e+00 8.109715e-01 8.668463e-01 6.767250e-01
<GCONST> 1.553746e+02
<MIXTURE> 5 1.585463e-01
<MEAN> 39
 1.312534e+00 5.485198e+00 1.057688e+01 6.207727e+00 -7.509310e+00 -6.554316e+00 5.804292e-01 -5.194930e+00 -4.292071e+00 1.553735e+00 8.988432e-01 -1.465643e+00 7.004128e-01 2.821041e-01 6.814710e-01 -3.456188e-02 4.472112e-01 -1.589026e-01 -1.787392e-01 1.006010e-01 -6.177752e-01 3.380533e-01 1.797321e-01 -1.805415e-01 1.317177e-01 -7.650065e-01 1.099581e-02 -2.674391e-01 -2.790034e-01 -1.991690e-01 3.232941e-01 2.582587e-01 -1.697716e-01 3.402950e-01 6.352054e-02 -1.498147e-01 6.202043e-03 -2.473159e-03 2.598847e-02
<VARIANCE> 39
 4.987818e+01 4.202909e+01 7.740201e+01 6.130458e+01 7.174566e+01 6.337697e+01 5.923747e+01 7.454594e+01 5.780549e+01 4.973586e+01 8.920112e+01 4.553157e+01 3.367202e+01 1.055835e+00 2.842198e+00 2.603413e+00 2.794607e+00 3.837228e+00 3.281511e+00 3.415285e+00 4.955012e+00 2.702972e+00 3.384206e+00 3.401513e+00 2.185503e+00 1.416253e+00 1.487471e-01 3.579591e-01 4.656888e-01 4.788269e-01 6.765320e-01 5.353214e-01 6.109140e-01 7.182680e-01 5.257337e-01 5.667572e-01 5.253184e-01 4.704129e-01 1.888764e-01
<GCONST> 1.268595e+02
<MIXTURE> 6 1.251397e-01
<MEAN> 39
 3.741015e+00 4.567962e+00 3.127226e+00 4.635924e+00 -3.145976e+00 -6.760458e-01 -2.470982e+00 -8.273511e+00 -3.964449e+00 2.569939e+00 1.431599e+00 -1.108404e+00 -2.322123e-01 3.600424e-01 -4.497877e-01 -5.999659e-01 -1.352373e+00 3.210115e-01 4.088379e-01 -4.097383e-02 7.827362e-01 -1.082949e-01 3.939616e-01 2.776124e-01 -6.654569e-01 6.510298e-01 -4.309647e-01 -5.811018e-01 -2.665291e-01 -2.877459e-01 1.973195e-01 2.071502e-01 2.401361e-01 7.927405e-01 4.176766e-01 -2.773368e-01 -2.230264e-01 1.372396e-01 1.509804e-01
<VARIANCE> 39
 3.377891e+01 6.298839e+01 1.309355e+02 8.656425e+01 8.454131e+01 1.067281e+02 7.437735e+01 1.038915e+02 7.192661e+01 6.725730e+01 9.205965e+01 5.015212e+01 2.822748e+01 4.165517e+00 5.709537e+00 7.441563e+00 6.628132e+00 9.138718e+00 7.482188e+00 7.256023e+00 1.275685e+01 8.079006e+00 6.925320e+00 5.243571e+00 4.797070e+00 4.577197e+00 4.260049e-01 8.193027e-01 1.179907e+00 1.083078e+00 1.354804e+00 1.222824e+00 1.172399e+00 1.627083e+00 1.324031e+00 1.151603e+00 1.025213e+00 8.441431e-01 4.434856e-01
<GCONST> 1.513960e+02
<MIXTURE> 7 1.180154e-01
<MEAN> 39
 -1.390711e+00 -5.311561e+00 -6.393421e+00 -8.008403e+00 7.275276e+00 -4.533745e+00 3.674980e+00 6.469117e+00 3.979129e+00 -1.300829e+00 -3.524445e+00 -5.943327e+00 1.193241e+01 4.097553e-02 -1.261342e-03 -1.735566e-01 -1.455067e-01 3.309509e-01 -1.862485e-01 -8.352430e-02 4.296771e-01 5.408461e-02 -2.946905e-01 1.371121e-01 -2.363446e-01 4.842447e-02 1.098398e-01 1.434693e-01 3.230528e-01 2.424006e-01 -2.545240e-01 1.107356e-01 -3.472658e-01 -1.974996e-01 -7.407557e-02 1.212179e-01 9.147526e-02 1.755626e-01 -2.814711e-01
<VARIANCE> 39
 1.335803e+01 1.128165e+01 4.427343e+01 2.872185e+01 4.508410e+01 4.628749e+01 6.850069e+01 5.625402e+01 4.948737e+01 5.586466e+01 4.268987e+01 3.284399e+01 4.794357e+00 3.770447e-01 6.279657e-01 2.409340e+00 1.232466e+00 2.509212e+00 2.069917e+00 3.377356e+00 2.682090e+00 2.668060e+00 2.254066e+00 2.324974e+00 1.667818e+00 4.102618e-01 6.932077e-02 1.369220e-01 2.360563e-01 2.545029e-01 2.974274e-01 2.464630e-01 4.080971e-01 5.192174e-01 4.665700e-01 4.021397e-01 3.133003e-01 3.417024e-01 7.591110e-02
<GCONST> 1.041155e+02
<STATE> 4
<NUMMIXES> 7
<MIXTURE> 1 9.611920e-02
<MEAN> 39
 1.231085e+01 7.354342e+00 -1.507313e+01 -2.956255e+00 -1.037067e+01 1.344393e+01 2.185903e+00 -4.576132e-01 -1.151019e+01 -9.552911e-01 5.575826e+00 9.742343e+00 -4.247035e+00 1.622665e-01 -2.593862e-01 -2.044172e-01 -2.474041e-01 5.079072e-01 3.476322e-01 -6.588525e-02 -5.884941e-01 -3.899648e-01 6.941854e-01 -7.388040e-02 -1.576530e-02 2.139198e-01 -4.319450e-01 -3.510008e-01 6.212015e-01 2.717291e-01 4.947497e-01 -2.040252e-02 -2.316407e-01 -2.539347e-01 6.084576e-01 -2.532167e-02 -2.235213e-01 -2.331661e-01 -1.012143e-01
<VARIANCE> 39
 1.387798e+01 3.097789e+01 4.210549e+01 7.902268e+01 1.266094e+02 6.421694e+01 7.675930e+01 6.679113e+01 7.189095e+01 4.135997e+01 4.657341e+01 2.537091e+01 1.735847e+01 1.547641e+00 1.974944e+00 4.157122e+00 2.840010e+00 1.332795e+01 5.435147e+00 5.657276e+00 6.335956e+00 7.199937e+00 3.930068e+00 3.677917e+00 2.284011e+00 1.433779e+00 5.942438e-01 3.195175e-01 9.139510e-01 4.417565e-01 1.271309e+00 7.806639e-01 7.787608e-01 1.037061e+00 1.103180e+00 5.894205e-01 8.075173e-01 4.391866e-01 1.191669e-01
<GCONST> 1.322178e+02
<MIXTURE> 2 1.464762e-01
<MEAN> 39
 -2.652481e+01 4.964977e-01 5.999617e+00 1.630294e+00 2.802896e+00 2.591826e+00 1.720027e+00 5.406466e+00 3.871641e+00 -2.775245e+00 2.757515e+00 7.966603e+00 -2.504390e+00 -1.109740e-02 -4.275809e-01 -5.098214e-01 1.244969e-01 4.405896e-01 3.181699e-01 5.908991e-02 -1.900548e-02 1.107585e-01 2.305236e-01 -2.273686e-01 -3.030202e-02 -5.635132e-01 8.586324e-01 1.412856e-01 -5.080658e-03 6.219169e-02 -4.269342e-02 -1.359532e-01 -1.493072e-01 -1.742194e-01 -1.713546e-01 -7.205422e-02 -5.841701e-02 -8.818187e-02 -9.936769e-02
<VARIANCE> 39
 1.338108e+01 5.310402e+01 3.333562e+01 4.466101e+01 4.940176e+01 4.057772e+01 3.331258e+01 3.142856e+01 1.814091e+01 1.826101e+01 3.025649e+01 1.933091e+01 1.130864e+01 5.445183e+00 2.747218e+00 2.019703e+00 2.153077e+00 1.961964e+00 3.193546e+00 3.093749e+00 2.486718e+00 2.022048e+00 1.706051e+00 2.217950e+00 1.132493e+00 1.897165e+00 5.807227e-01 7.435359e-01 3.933877e-01 5.994779e-01 3.948553e-01 7.533081e-01 6.347250e-01 5.061312e-01 4.212284e-01 3.019661e-01 4.790264e-01 2.461111e-01 2.080543e-01
<GCONST> 1.151536e+02
<MIXTURE> 3 1.588783e-01
<MEAN> 39
 -1.471453e+00 8.881524e+00 -2.111161e+00 5.778316e+00 1.084410e+01 -8.830973e+00 3.885769e-01 -1.245096e+01 7.653423e+00 3.282075e+00 -6.522506e+00 2.421819e+00 -6.080287e+00 -9.200622e-02 2.221050e-01 9.442804e-01 7.515921e-01 9.361210e-02 2.883435e-01 -5.889421e-02 -1.629350e-01 -3.125487e-01 -1.124710e+00 4.174506e-01 3.973232e-01 -1.763958e+00 -5.154691e-02 -4.254848e-01 1.160622e-01 -2.610211e-01 -3.946296e-01 2.665439e-01 5.172443e-02 5.289926e-01 -8.805230e-02 -2.232707e-01 1.381573e-01 -1.709665e-02 -1.085700e-02
<VARIANCE> 39
 2.443502e+01 3.457887e+01 6.040868e+01 5.968552e+01 5.808079e+01 3.734622e+01 7.267705e+01 5.273373e+01 1.132391e+02 6.580436e+01 4.715554e+01 3.165525e+01 4.856767e+01 7.163602e-01 4.637416e+00 4.740389e+00 3.827407e+00 4.816612e+00 3.569624e+00 5.452256e+00 6.402812e+00 5.308903e+00 5.238846e+00 2.704147e+00 2.675840e+00 4.871696e-01 1.340186e-01 3.982692e-01 6.696231e-01 6.772291e-01 5.740690e-01 5.486367e-01 9.227221e-01 8.438051e-01 9.353704e-01 7.165955e-01 4.721998e-01 4.781115e-01 8.580731e-02
<GCONST> 1.282584e+02
<MIXTURE> 4 1.792691e-01
<MEAN> 39
 -7.901088e+00 -6.420052e-01 2.024232e+00 1.614082e+00 9.885890e-01 2.606220e+00 -2.682970e+00 1.675856e+00 3.182158e+00 -2.266419e+00 2.129645e+00 5.656859e+00 -4.362248e+00 -8.982002e-01 7.354215e-01 -9.527863e-01 -1.270420e+00 -6.309078e-02 -4.633561e-01 8.148844e-01 7.700441e-02 8.499263e-01 7.641874e-01 -8.984193e-02 4.887674e-02 1.482603e+00 1.858435e-01 1.923989e-02 -2.463374e-01 -4.387094e-02 -1.862489e-02 -1.074411e-01 4.396019e-01 -3.327441e-02 -3.113827e-01 1.167618e-01 -1.797225e-01 -1.368606e-01 1.782211e-02
<VARIANCE> 39
 1.211070e+02 8.805578e+01 9.856328e+01 5.270316e+01 6.328551e+01 8.238531e+01 8.500609e+01 4.196207e+01 5.426245e+01 3.505081e+01 4.323203e+01 2.717048e+01 7.338110e+01 2.516666e+01 8.171724e+00 1.075204e+01 5.996658e+00 5.731221e+00 9.323011e+00 7.452527e+00 5.037384e+00 7.981312e+00 3.973011e+00 6.259695e+00 3.274069e+00 7.391186e+00 2.264771e+00 1.321537e+00 1.199390e+00 1.060808e+00 1.258252e+00 1.497465e+00 1.319668e+00 8.734647e-01 8.908139e-01 9.178709e-01 8.302096e-01 3.960022e-01 1.176916e+00
<GCONST> 1.516961e+02
<MIXTURE> 5 1.315659e-01
<MEAN> 39
 -1.756678e+00 -3.866385e+00 -2.107340e+00 3.118180e+00 4.971911e-01 -2.752863e+00 3.941942e+00 2.167861e+00 5.008471e+00 -1.715921e+00 -3.107942e+00 4.812658e+00 -9.330500e+00 1.741054e-02 -1.581433e-01 -5.811684e-02 1.155239e-01 -2.440516e-01 -2.126182e-01 2.088869e-01 2.692395e-01 -1.771452e-01 -2.648046e-01 1.681780e-01 1.140917e-01 -5.507551e-01 -2.998508e-02 3.040471e-01 1.178047e-01 -3.163446e-02 1.572983e-01 -1.726941e-01 -2.341501e-01 -2.774292e-01 2.397813e-02 9.932254e-02 1.400108e-02 -8.219815e-02 7.190610e-02
<VARIANCE> 39
 1.584360e+01 2.430348e+01 2.068608e+01 3.473620e+01 2.205258e+01 5.200843e+01 3.290076e+01 6.078107e+01 5.360391e+01 3.172280e+01 2.655649e+01 2.336115e+01 2.126933e+02 3.189855e-01 8.145118e-01 1.339582e+00 1.691675e+00 1.677030e+00 2.566227e+00 2.130544e+00 2.308168e+00 2.258184e+00 2.164109e+00 1.844777e+00 1.310015e+00 2.289786e-01 1.010843e-01 1.230124e-01 1.773248e-01 2.296097e-01 2.729944e-01 3.083531e-01 4.055575e-01 2.871890e-01 3.300787e-01 3.692981e-01 2.379060e-01 2.051530e-01 1.974771e-01
<GCONST> 1.026398e+02
<MIXTURE> 6 1.733159e-01
<MEAN> 39
 -2.324218e+00 -9.521836e-01 6.521325e+00 3.092443e+00 2.326836e-01 -4.960845e+00 7.171220e-01 6.695465e-01 -1.578942e+00 -7.378967e+00 -1.586713e+00 4.448565e+00 -1.213515e+01 5.243065e-01 -1.017778e+00 1.396649e-01 2.975163e-01 -5.648351e-01 6.350912e-01 -1.476037e-01 9.773088e-01 -7.938930e-01 -4.262428e-01 -8.603272e-02 -6.404388e-02 -1.508021e+00 -3.180749e-01 4.064683e-02 -5.044453e-01 -2.037968e-02 2.097273e-01 2.517106e-01 1.070131e-02 -1.052226e-01 2.985393e-01 5.263604e-01 1.933936e-01 7.575637e-02 3.928586e-01
<VARIANCE> 39
 5.156163e+01 3.445716e+01 1.000324e+02 4.397072e+01 3.140181e+01 1.277342e+02 5.312405e+01 6.514462e+01 8.518078e+01 3.810365e+01 3.291020e+01 2.384653e+01 5.929830e+01 4.120775e+00 3.308571e+00 6.962609e+00 4.017697e+00 3.978188e+00 6.374243e+00 4.870036e+00 5.017291e+00 6.034778e+00 4.597472e+00 3.048406e+00 2.146271e+00 1.552362e+00 5.891823e-01 3.267743e-01 1.059724e+00 7.458243e-01 6.577032e-01 9.785653e-01 1.005523e+00 6.429574e-01 1.127733e+00 9.176514e-01 4.532398e-01 3.826694e-01 3.183326e-01
<GCONST> 1.352201e+02
<MIXTURE> 7 1.143733e-01
<MEAN> 39
 1.579301e+00 4.052406e-01 -1.021001e+01 -2.466872e+00 8.057090e+00 6.951476e+00 4.960271e-01 -8.356199e+00 3.333132e+00 6.626420e+00 -2.177267e+00 1.622447e+00 1.338807e+00 1.754433e-01 -9.532899e-01 4.373351e-01 9.842438e-01 -3.716613e-01 -3.079820e-01 -7.896857e-01 1.086095e-01 6.128621e-01 -1.109349e+00 -3.112022e-01 4.816615e-01 -7.750626e-01 -2.912931e-01 4.736608e-02 4.890867e-01 7.319263e-02 -3.993589e-01 -2.880410e-01 -1.307338e-01 4.912233e-01 -1.570173e-01 -6.529316e-01 2.390928e-01 2.391924e-01 -3.247305e-01
<VARIANCE> 39
 5.733897e+01 2.581956e+01 3.062452e+01 6.927351e+01 1.252189e+02 1.205937e+02 9.145786e+01 8.964062e+01 7.735652e+01 9.990387e+01 8.020458e+01 4.725413e+01 4.596397e+01 3.500697e+00 2.298416e+00 4.721827e+00 6.149380e+00 8.174517e+00 5.744622e+00 1.082680e+01 1.040900e+01 6.449849e+00 8.617393e+00 3.874108e+00 3.063173e+00 3.914559e+00 8.333665e-01 4.501331e-01 6.008788e-01 1.316498e+00 1.165831e+00 8.830661e-01 1.551215e+00 1.617917e+00 9.745907e-01 1.290568e+00 9.577214e-01 6.088126e-01 5.570858e-01
<GCONST> 1.470152e+02
<TRANSP> 5
 0.000000e+00 1.000000e+00 0.000000e+00 0.000000e+00 0.000000e+00
 0.000000e+00 9.380865e-01 6.191355e-02 0.000000e+00 0.000000e+00
 0.000000e+00 0.000000e+00 9.941338e-01 5.866214e-03 0.000000e+00
 0.000000e+00 0.000000e+00 0.000000e+00 9.716291e-01 2.837084e-02
 0.000000e+00 0.000000e+00 0.000000e+00 0.000000e+00 0.000000e+00
<ENDHMM>
~h "M002"
<BEGINHMM>
<NUMSTATES> 5
<STATE> 2
<NUMMIXES> 7
<MIXTURE> 1 6.652613e-02
<MEAN> 39
 -1.521947e+00 -4.222225e-01 -2.522902e+00 6.211493e+00 5.886511e+00 -3.262891e+00 1.089490e+01 3.122024e-02 6.500647e-01 -2.284318e+00 -3.140252e+00 4.563790e+00 -2.655848e+01 -2.346549e-01 3.598920e-01 1.375458e-01 1.332350e-01 -1.819217e-01 2.543580e-01 -3.210489e-01 -2.203879e-01 -8.100498e-02 6.243787e-02 1.406163e-01 -7.722957e-02 1.222975e+00 -1.397559e-01 1.948194e-01 1.000818e-01 -1.654535e-01 7.806822e-03 4.565930e-02 -1.636715e-01 1.706289e-02 5.888639e-03 1.610996e-01 1.163977e-01 -6.683306e-03 7.879497e-01
<VARIANCE> 39
 1.927075e+01 2.113881e+01 1.729998e+01 2.531114e+01 3.937079e+01 2.495459e+01 4.103687e+01 2.734058e+01 1.923430e+01 2.718556e+01 2.647263e+01 2.031493e+01 8.249396e+01 2.723882e+00 1.746968e+00 3.306026e+00 1.842678e+00 2.770942e+00 3.471462e+00 1.894622e+00 1.807173e+00 2.153664e+00 2.185008e+00 1.952717e+00 1.390920e+00 4.768616e+00 3.304500e-01 1.623551e-01 2.843079e-01 4.704995e-01 3.278485e-01 4.194094e-01 3.393297e-01 2.437186e-01 3.165522e-01 4.438949e-01 2.759785e-01 2.114773e-01 8.741696e-01
<GCONST> 1.112613e+02
<MIXTURE> 2 1.064767e-01
<MEAN> 39
 -2.278049e+00 -2.010177e+00 2.313657e+00 1.411667e+00 4.460521e+00 4.667195e-01 1.373129e+00 -1.955498e+00 1.711187e+00 2.268996e-01 2.388068e+00 -1.761333e-01 -1.724831e+00 3.550758e-02 9.105583e-02 1.614039e-01 7.885285e-02 -2.391228e-02 -1.122292e-01 7.437126e-02 1.183960e-01 1.832934e-01 2.713310e-01 1.981226e-01 1.694870e-01 -9.970208e-03 1.092340e-01 1.604333e-01 8.057870e-02 -1.431200e-02 -1.295384e-01 -8.135938e-02 4.202428e-02 1.758867e-01 5.519058e-02 -6.890086e-03 -4.873545e-02 3.549505e-02 4.037125e-02
<VARIANCE> 39
 1.088636e+00 1.480497e+00 1.656091e+01 4.637224e+00 9.323892e+00 2.143368e+01 9.950949e+00 7.718349e+00 8.986416e+00 1.323025e+01 1.157321e+01 1.025104e+01 1.193196e+00 8.947193e-02 2.053926e-01 5.374997e-01 4.671382e-01 7.130045e-01 1.137400e+00 1.003776e+00 1.067066e+00 1.333174e+00 1.137891e+00 1.293957e+00 1.182425e+00 3.408687e-02 1.421710e-02 3.286699e-02 1.100565e-01 9.337823e-02 1.457424e-01 2.012643e-01 2.259730e-01 2.408644e-01 2.498050e-01 2.255900e-01 3.171282e-01 2.400336e-01 4.555521e-03
<GCONST> 5.827979e+01
<MIXTURE> 3 2.403875e-01
<MEAN> 39
 4.060870e+00 4.027776e-01 -1.399789e+01 -3.414605e+00 -5.541885e+00 7.163011e+00 -4.915726e+00 1.564289e+00 -5.673879e+00 3.417480e+00 -2.488936e+00 3.238165e-01 4.729719e+00 -2.061527e-02 1.186923e-02 1.099212e-01 2.731525e-02 4.021383e-02 -3.465977e-02 5.362480e-02 -1.335067e-02 4.016573e-02 -4.785162e-02 -1.815003e-02 -1.964021e-02 -2.856452e-02 -7.909460e-03 -7.549556e-04 2.586693e-02 4.456485e-03 1.964573e-02 -5.966287e-03 3.026121e-02 8.457826e-03 1.743994e-02 -9.627116e-03 1.074985e-03 -2.696367e-03 -8.290322e-03
<VARIANCE> 39
 1.019026e+01 1.794463e+01 1.022694e+02 2.568411e+01 9.124362e+01 8.439564e+01 2.474189e+01 3.760348e+01 2.974408e+01 2.537600e+01 1.874639e+01 1.462065e+01 8.976465e+00 9.149729e-02 1.765413e-01 7.954485e-01 5.284100e-01 1.053206e+00 1.122514e+00 1.277279e+00 1.243719e+00 1.118392e+00 1.324981e+00 1.451394e+00 1.268297e+00 7.113158e-02 1.492048e-02 3.381053e-02 1.431169e-01 1.006224e-01 2.087279e-01 2.221510e-01 2.580824e-01 2.381969e-01 2.149037e-01 2.724463e-01 2.972587e-01 2.719171e-01 8.867136e-03
<GCONST> 8.120524e+01
<MIXTURE> 4 1.381374e-01
<MEAN> 39
 -5.925471e-01 7.824836e-01 4.488233e+00 2.239715e-01 -3.455795e-01 -3.368156e+00 1.116624e+00 -5.783286e-01 7.305744e-01 -1.454772e+00 1.787005e-01 -3.058053e-01 -1.104904e+00 1.092276e-01 1.472078e-01 1.452159e-01 3.061682e-01 3.548725e-01 3.098910e-01 3.299146e-01 2.472218e-01 2.328223e-01 2.091796e-01 2.897419e-01 2.409522e-01 5.682421e-02 -4.485083e-02 -6.273443e-02 1.465466e-02 1.353540e-01 2.122799e-01 6.564885e-02 -7.184100e-02 -7.909205e-02 7.203248e-02 1.342350e-03 3.546057e-02 1.897147e-02 -2.816339e-02
<VARIANCE> 39
 7.302016e-01 1.252620e+00 4.787430e+00 3.112678e+00 4.167335e+00 7.922604e+00 7.131909e+00 8.063309e+00 7.811276e+00 7.238432e+00 6.206115e+00 7.162520e+00 8.285324e-01 6.670079e-02 1.697924e-01 3.696223e-01 4.111292e-01 6.496976e-01 6.736287e-01 9.171937e-01 7.062645e-01 1.103820e+00 1.046294e+00 9.274811e-01 8.112926e-01 3.408687e-02 1.240875e-02 3.023175e-02 7.071616e-02 7.689222e-02 9.525786e-02 1.351674e-01 1.771403e-01 1.790531e-01 2.100958e-01 2.102345e-01 1.830334e-01 1.661327e-01 5.573660e-03
<GCONST> 4.562666e+01
<MIXTURE> 5 2.004503e-01
<MEAN> 39
 -5.938000e-01 6.611136e-01 4.976469e+00 2.187794e+00 2.588452e+00 -1.768673e+00 1.201926e+00 -9.589642e-01 1.196671e+00 -8.276708e-01 1.250871e+00 7.572259e-01 -1.140201e+00 -7.594692e-02 -1.061532e-01 -9.825452e-02 -7.290894e-02 -6.824001e-02 -1.375002e-01 -2.828982e-01 -2.299922e-01 2.234042e-02 -8.879205e-02 -6.695788e-02 -7.533619e-02 -4.671513e-02 -6.121204e-02 -7.545103e-02 -1.007355e-01 -2.256006e-01 -2.258391e-01 -9.788666e-02 -3.832350e-02 7.597503e-03 -1.730693e-02 -7.987306e-02 -1.475286e-01 -1.503774e-01 -2.690504e-02
<VARIANCE> 39
 7.302016e-01 2.054957e+00 7.555070e+00 3.048033e+00 4.783472e+00 1.088807e+01 8.755317e+00 7.660724e+00 1.175009e+01 1.180530e+01 9.949780e+00 8.001033e+00 8.285324e-01 7.039765e-02 1.623587e-01 4.502692e-01 5.140340e-01 7.185997e-01 8.366963e-01 9.434773e-01 9.399875e-01 1.186617e+00 1.299037e+00 1.361084e+00 1.072055e+00 3.408687e-02 1.332262e-02 3.436665e-02 9.280818e-02 7.362293e-02 1.025594e-01 1.724526e-01 2.040068e-01 1.596023e-01 3.154468e-01 2.666697e-01 2.580350e-01 1.895520e-01 4.967908e-03
<GCONST> 5.243517e+01
<MIXTURE> 6 1.235816e-01
<MEAN> 39
 -2.967208e+00 -1.032782e+00 7.571041e+00 1.980331e+00 3.938091e+00 -2.992691e+00 5.387795e+00 2.269261e+00 5.567341e+00 -1.426679e+00 1.558964e+00 -2.879213e-02 -2.962186e+00 2.471590e-03 -5.385527e-04 -2.743297e-02 -2.038060e-03 6.394307e-02 7.685296e-02 1.415202e-01 8.841197e-02 -1.000183e-01 -1.025280e-01 -1.012812e-01 -5.144972e-02 7.659304e-03 7.678603e-03 -8.734727e-03 -3.987908e-02 -9.631320e-03 -2.953669e-02 -2.458066e-02 -1.592082e-01 -2.116242e-01 -1.618707e-01 -5.800278e-02 -2.722159e-02 -2.235440e-02 8.498817e-03
<VARIANCE> 39
 1.101672e+00 1.603420e+00 6.837975e+00 4.372571e+00 5.509806e+00 1.110964e+01 7.960536e+00 8.446699e+00 8.753557e+00 8.494670e+00 7.116078e+00 1.007732e+01 8.285324e-01 8.752738e-02 2.047070e-01 4.433264e-01 4.513315e-01 6.830751e-01 1.081760e+00 1.065362e+00 1.363394e+00 1.033035e+00 7.372908e-01 9.378816e-01 9.909112e-01 3.408687e-02 1.605392e-02 3.327464e-02 9.580764e-02 9.387799e-02 1.411950e-01 2.292055e-01 2.126942e-01 2.313718e-01 2.306762e-01 1.769588e-01 2.074208e-01 2.214825e-01 5.600345e-03
<GCONST> 5.292320e+01
<MIXTURE> 7 1.244363e-01
<MEAN> 39
 -1.332327e+00 4.062264e-02 4.645507e+00 -1.029785e-01 -5.500676e-01 -4.571339e+00 -3.008647e-01 -1.612222e+00 1.005740e+00 -2.654898e+00 -1.068802e+00 -1.321159e+00 -1.643298e+00 -6.447426e-02 -9.861320e-02 -8.803199e-02 -3.192283e-01 -3.321047e-01 -1.451346e-01 -6.137864e-02 -3.278025e-02 -2.824481e-01 -1.901096e-01 -2.653174e-01 -2.307692e-01 -1.522510e-02 5.796912e-02 6.674706e-02 7.722925e-02 2.086847e-01 2.315882e-01 1.808508e-01 2.228819e-01 1.177856e-01 4.972714e-02 2.206335e-01 2.604255e-01 2.050577e-01 4.103390e-02
<VARIANCE> 39
 7.302016e-01 1.656305e+00 4.990883e+00 3.033355e+00 4.962759e+00 6.940497e+00 7.738864e+00 8.260826e+00 1.161766e+01 1.245909e+01 9.949282e+00 8.564629e+00 8.285324e-01 7.398201e-02 2.142677e-01 3.377721e-01 4.631512e-01 5.827910e-01 6.697705e-01 9.393157e-01 9.952141e-01 1.436989e+00 1.472562e+00 1.092825e+00 9.524498e-01 3.408687e-02 1.385072e-02 4.004754e-02 7.158456e-02 9.008504e-02 1.187607e-01 1.457791e-01 1.852252e-01 2.068300e-01 2.980273e-01 3.191347e-01 2.660317e-01 2.041180e-01 4.465381e-03
<GCONST> 5.138020e+01
<STATE> 3
<NUMMIXES> 7
<MIXTURE> 1 1.927837e-01
<MEAN> 39
 -1.568049e+00 1.738470e+00 9.075294e-01 1.974782e+00 2.464147e+00 -3.269125e+00 4.352905e+00 -1.759784e+00 1.216736e+00 -3.221388e-01 -3.118488e+00 1.682469e+00 -7.220275e+00 -6.894364e-01 4.067129e-01 1.209282e-01 -1.411025e-01 -3.913770e-01 2.179998e-01 -7.987828e-01 3.051483e-01 3.578670e-02 8.477060e-02 5.980462e-01 3.875997e-01 2.644755e+00 1.847265e-01 -2.821284e-01 -9.812583e-02 -2.036958e-01 -1.653568e-01 2.889907e-01 -3.045705e-01 1.295653e-01 -1.826286e-01 1.338731e-01 1.700479e-01 -1.750209e-01 2.415570e-01
<VARIANCE> 39
 8.664518e+01 6.595510e+01 1.249638e+02 1.049417e+02 8.928866e+01 9.913319e+01 7.904941e+01 7.681179e+01 7.529528e+01 5.700496e+01 5.543441e+01 4.855274e+01 8.736504e+01 8.426681e+00 6.023329e+00 1.015222e+01 9.905420e+00 8.270374e+00 8.410432e+00 8.468932e+00 7.779065e+00 6.577218e+00 6.591834e+00 4.966562e+00 4.868367e+00 7.900719e+00 1.311092e+00 8.552322e-01 1.509029e+00 1.372674e+00 1.263573e+00 1.335127e+00 1.486093e+00 1.331759e+00 1.102136e+00 1.128436e+00 7.542337e-01 8.855504e-01 1.462320e+00
<GCONST> 1.565742e+02
<MIXTURE> 2 9.223421e-02
<MEAN> 39
 -1.519156e+00 -6.948575e+00 -1.013540e+01 -8.496947e+00 5.221169e+00 9.383066e+00 1.642392e+00 2.355478e+00 5.349270e+00 4.768863e+00 -2.918406e+00 -4.981647e+00 1.266992e+01 1.371834e-02 -1.347702e-01 3.397948e-02 2.225165e-01 5.211791e-02 -3.229707e-01 -2.034981e-02 9.048034e-02 6.012148e-02 7.256587e-02 -2.336293e-01 -1.725318e-01 6.055683e-02 6.248868e-02 2.321569e-02 1.192518e-01 6.306116e-02 -7.195318e-02 -1.536940e-01 -2.318530e-01 1.639618e-01 -3.781177e-02 6.755057e-03 -1.077695e-02 8.412576e-02 -1.001141e-01
<VARIANCE> 39
 4.045958e+00 1.404176e+01 1.255761e+01 2.672081e+01 1.681310e+01 2.609770e+01 2.692726e+01 2.575650e+01 2.065253e+01 3.957037e+01 2.023232e+01 2.036925e+01 4.141578e+00 1.409631e-01 2.540196e-01 3.654784e-01 4.700708e-01 5.480464e-01 7.450662e-01 1.156940e+00 1.194987e+00 6.480276e-01 6.266673e-01 8.834091e-01 7.099164e-01 7.829771e-02 3.223132e-02 4.486702e-02 7.829013e-02 7.171363e-02 1.073834e-01 1.082430e-01 2.165285e-01 1.921299e-01 1.052076e-01 1.549285e-01 1.366758e-01 1.235227e-01 1.486811e-02
<GCONST> 6.696689e+01
<MIXTURE> 3 1.434004e-01
<MEAN> 39
 -1.425164e+00 4.863268e+00 2.675221e+00 -2.195297e+00 -8.384147e+00 5.791129e+00 -3.500959e+00 -2.480290e+00 -5.928362e+00 -1.869568e+00 7.519653e+00 2.411009e+00 6.636479e+00 -2.843873e-02 1.789839e-01 2.557079e-02 -3.636653e-01 -6.289643e-02 1.295508e-01 2.038070e-01 -2.813682e-02 -8.917478e-02 -1.560507e-02 -3.565363e-03 1.360709e-01 1.424343e-02 5.210949e-02 -8.068325e-02 -2.489551e-02 1.270820e-01 8.598882e-02 -1.574480e-01 2.773667e-02 5.356378e-02 1.190610e-01 7.863599e-03 -8.473053e-02 -8.030451e-02 -6.233313e-02
<VARIANCE> 39
 3.139319e+01 3.280793e+01 1.409151e+02 1.278648e+02 4.852159e+01 9.482365e+01 3.062241e+01 5.278431e+01 3.977217e+01 6.838077e+01 4.458289e+01 2.734464e+01 7.492000e+00 1.776432e-01 3.856018e-01 4.977613e-01 1.301641e+00 8.244125e-01 1.229890e+00 9.602145e-01 1.025398e+00 1.029931e+00 9.279175e-01 1.055861e+00 1.063083e+00 1.230756e-01 3.218714e-02 4.777959e-02 9.530618e-02 1.229090e-01 1.450308e-01 1.874348e-01 1.558553e-01 2.157632e-01 1.950921e-01 1.790717e-01 2.173339e-01 1.444131e-01 3.247124e-02
<GCONST> 8.795728e+01
<MIXTURE> 4 1.419522e-01
<MEAN> 39
 -2.964508e-01 -7.301192e+00 -8.655871e+00 -7.411952e+00 4.416591e+00 6.032956e+00 -1.406250e+00 4.930346e+00 5.668664e+00 6.084491e+00 -1.980081e+00 -4.410839e+00 1.126694e+01 8.562570e-02 -2.439026e-01 3.090763e-01 4.366264e-01 -1.388541e-01 -5.126976e-01 -7.264222e-02 3.513119e-01 3.189523e-01 -4.978479e-01 -4.958194e-02 1.612784e-02 -4.363634e-02 1.156341e-01 2.624197e-01 2.851534e-01 2.207481e-01 -1.054768e-02 -2.331661e-01 9.090145e-02 -3.844155e-01 -1.376115e-01 -2.635972e-01 1.262555e-01 2.948521e-01 -4.375472e-01
<VARIANCE> 39
 7.858862e+00 1.829196e+01 2.310162e+01 3.953992e+01 3.556339e+01 4.355711e+01 4.447729e+01 5.492849e+01 2.731661e+01 3.822635e+01 3.678964e+01 2.467945e+01 8.734203e+00 8.576826e-01 1.250324e+00 2.483759e+00 2.599402e+00 2.164639e+00 4.490561e+00 4.193733e+00 4.175955e+00 2.716131e+00 3.408795e+00 2.940248e+00 2.952612e+00 1.410957e+00 1.016558e-01 1.737630e-01 2.833422e-01 3.519796e-01 2.990541e-01 3.659517e-01 6.225796e-01 6.650491e-01 4.082056e-01 5.636865e-01 4.138214e-01 4.433304e-01 1.148621e-01
<GCONST> 1.115768e+02
<MIXTURE> 5 1.301214e-01
<MEAN> 39
 6.604363e+00 6.960714e-01 -1.462582e-01 -6.302301e+00 1.425711e+00 5.075603e+00 3.757899e+00 -5.952164e+00 -3.761999e+00 3.030533e+00 -2.952672e+00 -1.144469e+00 -3.320327e+00 1.252272e-01 5.202589e-02 9.249387e-02 1.033629e-01 -1.182946e-02 -4.591027e-01 3.930826e-01 -1.229385e-01 -6.022063e-02 -2.709320e-02 -2.571589e-01 -1.626033e-01 -6.907310e-01 -3.133217e-01 -3.807401e-02 -2.347184e-01 2.356779e-01 -1.029109e-01 -1.014375e-01 -2.024730e-01 3.963341e-01 2.959534e-01 -7.215831e-02 2.591068e-01 3.231841e-02 2.712787e-01
<VARIANCE> 39
 3.039350e+01 4.540546e+01 1.162778e+02 1.171987e+02 8.462003e+01 9.287918e+01 7.117960e+01 4.479649e+01 4.754119e+01 4.525605e+01 6.586062e+01 6.295012e+01 6.033546e+01 9.675109e-01 1.297167e+00 2.919601e+00 2.381410e+00 2.442245e+00 2.595369e+00 2.664537e+00 3.758024e+00 2.877944e+00 2.593209e+00 3.171663e+00 2.480514e+00 2.194747e+00 2.218370e-01 2.268563e-01 5.836020e-01 5.527155e-01 4.791566e-01 5.489680e-01 6.885558e-01 6.770938e-01 4.594301e-01 4.669020e-01 6.538562e-01 5.128836e-01 2.066449e-01
<GCONST> 1.263151e+02
<MIXTURE> 6 1.592049e-01
<MEAN> 39
 4.435463e-01 -1.410226e+00 1.111014e-01 2.254122e+00 -4.565238e+00 7.446437e-01 -6.757232e+00 1.705836e+00 -1.422996e+00 9.481006e-01 5.938953e+00 -1.380684e-01 6.995600e+00 2.460055e-01 -3.224224e-01 -5.284728e-01 -4.457166e-01 -2.905144e-01 8.791273e-01 -4.800898e-01 1.948814e-02 -2.597016e-01 3.959327e-01 4.675036e-01 -3.109373e-01 2.552789e-01 -1.427173e-02 3.438456e-02 6.623083e-02 -1.510999e-01 3.417088e-01 1.331916e-02 5.380630e-01 -1.616967e-01 6.746630e-02 -2.139168e-02 -4.505442e-01 -5.202433e-02 -3.777144e-01
<VARIANCE> 39
 1.345671e+01 2.270247e+01 6.111324e+01 8.095961e+01 5.561047e+01 9.612483e+01 5.101910e+01 6.617339e+01 5.701680e+01 5.811687e+01 3.689391e+01 2.810950e+01 7.577877e+00 1.161379e+00 1.544340e+00 3.511463e+00 3.941972e+00 3.535544e+00 4.794772e+00 5.186242e+00 4.696753e+00 4.243973e+00 4.557749e+00 3.947776e+00 3.016832e+00 2.650957e+00 1.852919e-01 2.329252e-01 4.274302e-01 6.023112e-01 4.790239e-01 7.684814e-01 6.964359e-01 8.634286e-01 6.216395e-01 7.802764e-01 5.868008e-01 5.752123e-01 3.051902e-01
<GCONST> 1.263351e+02
<MIXTURE> 7 1.402981e-01
<MEAN> 39
 4.058598e+00 -7.569443e+00 -2.670707e+00 -1.998680e+00 4.247728e+00 -1.597401e+00 5.594911e-02 4.044087e+00 5.387550e+00 3.979755e-01 -5.142830e+00 -3.236572e+00 -3.517828e+00 6.447157e-01 2.252169e-02 1.756992e-01 2.137134e-02 3.620312e-01 -1.346887e-01 4.573988e-01 -6.463982e-01 -2.757464e-01 -1.776761e-01 -5.583491e-01 -3.667456e-01 -1.908643e+00 -1.540235e-01 1.380780e-01 -7.737734e-02 -9.436282e-02 -1.117352e-01 1.186298e-01 6.866550e-02 -9.960506e-02 -1.060136e-01 8.452891e-02 2.866833e-02 2.549329e-02 1.913669e-01
<VARIANCE> 39
 5.894330e+01 5.080639e+01 8.257578e+01 8.122171e+01 6.842904e+01 6.458810e+01 3.873029e+01 5.842583e+01 6.396595e+01 5.034131e+01 4.024150e+01 4.297783e+01 5.847084e+01 1.270060e+00 1.917047e+00 2.988859e+00 3.028191e+00 3.543929e+00 2.418266e+00 3.434417e+00 4.140999e+00 3.012170e+00 2.661188e+00 2.552926e+00 3.002297e+00 1.077968e+00 2.221403e-01 3.476582e-01 4.060883e-01 5.342066e-01 6.078559e-01 4.673317e-01 5.980116e-01 6.507066e-01 5.764932e-01 5.064476e-01 3.873381e-01 6.495207e-01 1.914285e-01
<GCONST> 1.257453e+02
<STATE> 4
<NUMMIXES> 7
<MIXTURE> 1 1.188998e-01
<MEAN> 39
 -5.772810e+00 4.371065e+00 -2.199736e+00 3.443477e+00 8.067310e+00 -4.637365e+00 -4.898929e-01 -1.515559e+00 1.955860e+00 8.679570e-02 -2.644893e+00 5.503634e+00 -4.822821e+00 -7.282386e-01 -1.097435e-01 -4.632065e-01 -1.129784e+00 -7.432827e-01 2.852750e-01 -5.447295e-01 6.424865e-01 7.805915e-01 4.071161e-01 6.980662e-01 5.233258e-01 2.144867e+00 5.966220e-01 -2.335817e-01 3.439234e-01 -1.322809e-01 -8.929309e-01 3.053724e-01 1.479480e-01 -3.774071e-04 -3.321028e-01 -3.684868e-02 3.113677e-01 -4.785436e-01 1.447468e-02
<VARIANCE> 39
 9.068279e+01 9.229293e+01 1.410769e+02 6.764096e+01 1.008777e+02 8.708724e+01 1.099576e+02 7.169848e+01 7.557907e+01 4.393826e+01 4.119201e+01 4.643048e+01 7.308354e+01 1.103985e+01 6.025163e+00 1.055295e+01 7.568996e+00 1.237993e+01 7.744278e+00 1.013377e+01 1.032575e+01 5.961880e+00 5.346110e+00 5.453074e+00 4.830287e+00 9.496418e+00 1.258989e+00 9.212440e-01 1.614908e+00 1.210050e+00 1.570650e+00 1.228594e+00 1.649592e+00 1.408208e+00 1.263678e+00 8.047612e-01 8.319600e-01 8.454681e-01 1.131180e+00
<GCONST> 1.567641e+02
<MIXTURE> 2 1.673434e-01
<MEAN> 39
 -1.613124e+00 -6.537119e+00 -7.069370e+00 -4.942215e+00 1.673251e+00 1.886817e+00 -2.977912e+00 8.424358e+00 5.903091e+00 1.747481e+00 -1.141393e+00 -1.707266e+00 1.072675e+01 1.346205e-01 -1.276679e-01 2.665300e-01 3.353801e-01 -1.439255e-01 -3.011723e-01 -3.634718e-01 2.031604e-01 -7.818017e-02 -2.788279e-01 1.084389e-01 5.703649e-02 -2.572286e-01 1.347707e-01 3.137033e-01 3.535784e-01 2.016818e-01 5.600538e-02 -1.802096e-01 -1.825548e-02 -3.516546e-01 -2.322976e-01 -6.520066e-02 -1.061114e-03 1.524001e-01 -4.208304e-01
<VARIANCE> 39
 8.863644e+00 2.054157e+01 4.340407e+01 4.872731e+01 5.894665e+01 7.448341e+01 6.158199e+01 6.508598e+01 3.175971e+01 3.943103e+01 2.962397e+01 2.418841e+01 8.044719e+00 6.458813e-01 1.300156e+00 2.975364e+00 2.105157e+00 2.402694e+00 3.815001e+00 3.912889e+00 3.927947e+00 3.457474e+00 2.740607e+00 2.653619e+00 2.056833e+00 1.396755e+00 1.108572e-01 1.566674e-01 2.948973e-01 2.447196e-01 3.552079e-01 4.433364e-01 7.409627e-01 7.252979e-01 4.993218e-01 5.159270e-01 3.827765e-01 3.834004e-01 1.185894e-01
<GCONST> 1.133432e+02
<MIXTURE> 3 1.559254e-01
<MEAN> 39
 -6.071639e+00 3.507723e+00 1.426052e+01 8.336710e+00 -1.303064e+01 -9.326056e+00 -2.414658e+00 3.003638e+00 -5.466557e+00 -7.873390e+00 7.294743e+00 1.340089e+00 5.440531e+00 1.569910e-01 -5.770980e-02 8.646148e-02 2.075998e-01 -1.598060e-01 -1.557500e-01 3.636295e-01 8.786304e-02 -7.143668e-02 3.969799e-02 -2.545445e-01 -1.776254e-01 -3.006228e-01 1.761090e-01 2.584726e-02 -2.573905e-01 -4.764157e-03 4.902062e-01 -7.717927e-03 3.788272e-01 -1.129607e-01 8.903078e-02 2.153964e-01 -3.405351e-01 -4.853176e-02 -3.929878e-01
<VARIANCE> 39
 1.711051e+01 4.611475e+01 6.427356e+01 3.066781e+01 3.896482e+01 4.833609e+01 3.538966e+01 5.296907e+01 4.132006e+01 3.138366e+01 2.781826e+01 3.437704e+01 1.581087e+01 1.385984e+00 2.625599e+00 3.579926e+00 2.280360e+00 3.490285e+00 2.949516e+00 5.076513e+00 3.385393e+00 3.787685e+00 2.734336e+00 3.613654e+00 2.185719e+00 2.494843e+00 2.512699e-01 3.388854e-01 4.719158e-01 3.643398e-01 6.111917e-01 5.659829e-01 8.087063e-01 6.856558e-01 6.686091e-01 3.923747e-01 6.239551e-01 3.985274e-01 2.734599e-01
<GCONST> 1.217869e+02
<MIXTURE> 4 1.402888e-01
<MEAN> 39
 -3.875936e+00 5.954417e+00 -2.033189e+00 1.563324e+00 6.476703e+00 -3.276786e+00 1.668576e+00 -2.349444e+00 2.482553e+00 -2.020422e+00 -2.683743e+00 3.726132e+00 -1.132946e+01 1.267044e-02 -7.262241e-02 -5.310933e-02 1.721602e-01 2.555551e-01 3.885874e-02 2.371604e-01 -1.013781e-01 9.827272e-02 -2.804455e-01 -1.652161e-01 2.059738e-02 -8.396584e-01 8.559439e-02 -7.663213e-02 3.288781e-02 6.710009e-02 -1.931738e-01 4.500000e-02 -1.325201e-02 3.406776e-02 -9.120668e-02 8.568143e-02 3.103690e-02 -7.880956e-02 1.105368e-01
<VARIANCE> 39
 1.903634e+02 9.466852e+01 4.987780e+01 3.626694e+01 4.677447e+01 6.716629e+01 1.071039e+02 5.807926e+01 7.524068e+01 2.652353e+01 2.978688e+01 3.780413e+01 1.180726e+02 1.409192e+00 1.462579e+00 1.573866e+00 1.561257e+00 1.953143e+00 2.912793e+00 2.833285e+00 2.768170e+00 2.084345e+00 1.849831e+00 1.608230e+00 1.372715e+00 6.857243e-01 2.452170e-01 1.889922e-01 3.079474e-01 2.727415e-01 3.535304e-01 5.239066e-01 4.127230e-01 4.837484e-01 3.974099e-01 3.756760e-01 3.486883e-01 3.285701e-01 1.011804e-01
<GCONST> 1.171409e+02
<MIXTURE> 5 1.113887e-01
<MEAN> 39
 5.147333e+00 2.272254e+00 -8.502778e+00 -6.718280e+00 -3.529587e+00 1.475874e+01 -5.021094e+00 -9.111366e+00 1.556656e+00 1.937124e+00 6.844144e+00 2.551460e+00 3.034072e+00 1.965145e-01 -4.810642e-01 -2.956402e-02 7.107391e-03 -8.544403e-03 4.099016e-01 -1.903495e-01 -1.860919e-01 1.419971e-01 2.708325e-01 -7.293514e-02 -6.942916e-01 1.692643e-01 -1.125943e-01 -6.455776e-02 3.079240e-01 5.026413e-01 5.201789e-01 -6.607595e-01 2.908520e-01 1.396961e-01 -1.169491e-01 -1.012099e-01 -5.842961e-01 1.499069e-02 -3.775647e-01
<VARIANCE> 39
 2.060319e+01 5.915397e+01 3.051766e+01 1.174345e+02 6.181182e+01 9.014805e+01 7.378520e+01 1.088373e+02 7.760941e+01 7.682251e+01 5.553432e+01 5.452190e+01 2.036622e+01 1.720445e+00 2.542061e+00 4.332906e+00 1.015781e+01 7.182910e+00 1.124078e+01 4.604496e+00 6.830769e+00 8.023105e+00 5.930158e+00 7.276801e+00 4.012716e+00 3.962929e+00 2.658155e-01 4.371158e-01 6.461751e-01 1.423066e+00 9.195139e-01 9.947808e-01 6.387471e-01 1.209532e+00 1.108513e+00 1.266154e+00 1.061448e+00 7.330603e-01 2.295983e-01
<GCONST> 1.420526e+02
<MIXTURE> 6 2.007720e-01
<MEAN> 39
 4.337770e+00 1.023251e+00 7.137667e+00 4.850639e+00 -1.648347e+00 -6.156900e+00 1.865557e+00 4.546864e-01 -2.965761e+00 -1.115480e+00 -2.176188e+00 -2.266634e+00 -7.291399e+00 9.782820e-01 1.330682e-01 3.393322e-01 4.251371e-01 4.520461e-01 -3.706430e-01 7.948186e-01 -6.215513e-01 -5.668382e-01 3.738036e-01 -5.034434e-01 -9.694041e-02 -1.808118e+00 -3.195924e-01 5.934944e-02 -2.173541e-01 -1.263800e-01 2.307236e-02 1.921523e-01 -1.423573e-01 -2.681732e-02 1.443775e-01 -7.426450e-02 1.644570e-01 1.214576e-01 3.261472e-01
<VARIANCE> 39
 5.323565e+01 5.901948e+01 1.334872e+02 6.722070e+01 9.758302e+01 9.350024e+01 9.937083e+01 1.367172e+02 9.511905e+01 4.755756e+01 4.264685e+01 5.077980e+01 6.436788e+01 1.540126e+00 2.253769e+00 3.751733e+00 3.603626e+00 4.158913e+00 4.039464e+00 4.117188e+00 4.530682e+00 3.551769e+00 2.754463e+00 3.095646e+00 3.804190e+00 1.524078e+00 3.176395e-01 3.121988e-01 4.729175e-01 6.636621e-01 6.951306e-01 7.695779e-01 7.650437e-01 8.175308e-01 6.066988e-01 4.570325e-01 5.665784e-01 7.064877e-01 2.374092e-01
<GCONST> 1.342926e+02
<MIXTURE> 7 1.053750e-01
<MEAN> 39
 2.457802e+00 5.266608e+00 9.925256e+00 8.625352e+00 -3.748882e-01 -5.549403e+00 7.583102e+00 -6.781094e+00 -9.599408e+00 -2.242304e+00 -2.266994e+00 -6.213678e-01 -8.638157e+00 -1.594271e+00 5.840237e-01 -8.979889e-01 -5.487867e-01 8.459234e-01 1.048884e-01 -6.833786e-01 3.310515e-01 6.457616e-01 -5.405161e-01 1.009795e-01 6.218287e-01 1.112259e+00 -5.519006e-01 -2.531260e-01 -6.065812e-01 -5.980734e-01 -1.269006e-01 3.161675e-01 -6.773403e-01 5.856022e-01 6.532344e-01 6.895399e-04 3.440566e-01 1.988405e-01 8.227091e-01
<VARIANCE> 39
 1.080431e+02 5.658710e+01 9.478202e+01 8.408200e+01 1.024629e+02 1.312044e+02 1.222148e+02 9.349497e+01 9.724471e+01 8.775698e+01 6.162053e+01 6.696884e+01 5.816596e+01 5.571220e+00 3.867174e+00 9.796763e+00 5.607535e+00 9.809142e+00 9.106336e+00 7.789357e+00 9.160617e+00 1.024554e+01 7.362731e+00 5.391191e+00 4.706782e+00 4.172810e+00 8.091178e-01 5.238712e-01 1.192275e+00 8.665947e-01 1.446592e+00 1.216670e+00 1.095700e+00 1.236719e+00 1.310462e+00 1.494885e+00 9.996760e-01 8.431147e-01 7.318419e-01
<GCONST> 1.547239e+02
<TRANSP> 5
 0.000000e+00 1.000000e+00 0.000000e+00 0.000000e+00 0.000000e+00
 0.000000e+00 9.838457e-01 1.615434e-02 0.000000e+00 0.000000e+00
 0.000000e+00 0.000000e+00 9.914750e-01 8.525000e-03 0.000000e+00
 0.000000e+00 0.000000e+00 0.000000e+00 9.916291e-01 8.370881e-03
 0.000000e+00 0.000000e+00 0.000000e+00 0.000000e+00 0.000000e+00
<ENDHMM>
~h "M003"
<BEGINHMM>
<NUMSTATES> 5
<STATE> 2
<NUMMIXES> 7
<MIXTURE> 1 1.214710e-01
<MEAN> 39
 -4.490462e+00 -4.705491e-02 -2.222980e+00 7.147043e+00 7.374307e+00 -2.778879e+00 6.010756e+00 4.634091e+00 -3.690339e+00 5.406668e-01 -2.937244e+00 7.227919e+00 -2.639875e+01 -6.332353e-02 1.148685e-01 -2.874268e-01 -8.884437e-02 -3.411062e-01 -2.131765e-01 3.767730e-01 8.784600e-02 1.561490e-01 2.069359e-02 7.870067e-02 -2.221278e-01 2.427215e-01 -7.085812e-02 1.588006e-01 2.881135e-01 -1.587529e-02 4.596046e-02 2.392417e-01 -1.115814e-01 -5.275194e-02 1.480180e-01 -1.369323e-01 -3.803899e-02 -1.286524e-01 4.606590e-01
<VARIANCE> 39
 1.833992e+01 1.160499e+01 1.508409e+01 1.727948e+01 2.325697e+01 3.298600e+01 3.565318e+01 2.406474e+01 3.334549e+01 1.591154e+01 2.196186e+01 1.784668e+01 1.307551e+01 8.322166e-01 8.184409e-01 1.550277e+00 2.377583e+00 1.963443e+00 1.633950e+00 2.970170e+00 2.188119e+00 2.396418e+00 1.767629e+00 1.187558e+00 1.311609e+00 5.372368e-01 2.308185e-01 2.287102e-01 4.565839e-01 4.659914e-01 2.976459e-01 3.596540e-01 4.333520e-01 3.937390e-01 3.848163e-01 2.785754e-01 1.933958e-01 2.505198e-01 4.310189e-01
<GCONST> 1.014437e+02
<MIXTURE> 2 1.427949e-01
<MEAN> 39
 3.343634e+00 5.452573e+00 5.221770e+00 5.398818e+00 2.339696e+00 2.783452e+00 8.813933e-03 1.726802e+00 -4.259791e-01 7.681718e-01 -2.224397e+00 -3.090914e-01 1.649813e+00 3.003049e-03 4.237540e-02 7.630892e-02 -3.104261e-02 -7.601482e-02 -5.432765e-02 -4.692505e-02 -2.129853e-02 1.583565e-02 5.943987e-02 -6.173794e-02 3.723946e-02 -4.447108e-03 -4.731246e-02 -8.331940e-02 -1.026726e-01 -1.257142e-01 -1.342090e-01 -1.872023e-01 -1.275616e-01 -1.570982e-01 -8.041758e-02 -2.599496e-02 1.797911e-02 -4.864466e-03 -1.858781e-02
<VARIANCE> 39
 1.663992e+00 5.459716e+00 4.097269e+00 6.663716e+00 6.833460e+00 9.414568e+00 1.578306e+01 1.877348e+01 2.226616e+01 1.437964e+01 1.210280e+01 6.820408e+00 8.285324e-01 7.570641e-02 2.556256e-01 3.781130e-01 7.202897e-01 9.254150e-01 1.097200e+00 1.132527e+00 1.627088e+00 1.397812e+00 1.194305e+00 9.681962e-01 8.385346e-01 3.408687e-02 1.225628e-02 3.079179e-02 4.270232e-02 1.074857e-01 1.458784e-01 1.357335e-01 1.924736e-01 3.133572e-01 2.821102e-01 2.400379e-01 2.000607e-01 1.639677e-01 4.365372e-03
<GCONST> 5.780645e+01
<MIXTURE> 3 1.114125e-01
<MEAN> 39
 1.044222e+00 1.437714e+00 1.106923e+00 -3.122182e-01 -2.485913e+00 -3.125013e+00 -2.470006e+00 -1.145533e+00 -1.232764e+00 -1.410802e-01 -2.638030e-01 -3.807995e-01 4.572287e-01 2.152150e-01 2.624812e-01 1.681931e-01 3.948140e-01 4.525749e-01 5.378838e-01 2.855488e-01 3.031149e-01 1.721382e-01 7.359859e-02 5.191661e-02 1.645402e-01 1.090803e-01 4.533720e-02 1.117742e-01 1.190593e-01 1.877631e-01 2.827179e-01 3.278733e-01 2.381544e-01 1.936391e-01 1.523930e-01 4.441006e-03 -5.833350e-02 1.365617e-02 8.753456e-03
<VARIANCE> 39
 1.217797e+00 2.399853e+00 3.666440e+00 5.250717e+00 5.917297e+00 8.553102e+00 1.040590e+01 1.173247e+01 1.661160e+01 1.506017e+01 1.523637e+01 7.946023e+00 8.285324e-01 8.366536e-02 2.422157e-01 4.007906e-01 5.947621e-01 7.988634e-01 8.909902e-01 8.639047e-01 1.117884e+00 1.338994e+00 1.177604e+00 1.147181e+00 9.612516e-01 3.408687e-02 2.043997e-02 6.479169e-02 8.396274e-02 1.071136e-01 1.150902e-01 2.052475e-01 1.983533e-01 2.709113e-01 3.337664e-01 2.603284e-01 2.479686e-01 1.894355e-01 5.221945e-03
<GCONST> 5.726978e+01
<MIXTURE> 4 1.380238e-01
<MEAN> 39
 -1.389216e+00 -1.729963e+00 -5.145078e-01 -1.346634e+00 -1.283024e-01 -3.354991e-01 2.055903e+00 1.163425e+00 2.011249e+00 1.403739e-01 4.432855e-01 -1.863252e-01 -8.657812e-01 1.783715e-01 3.459423e-01 5.090973e-01 4.479433e-01 1.160829e-01 3.208879e-02 7.942066e-02 3.203932e-01 9.061243e-02 3.981235e-02 -1.173548e-02 1.465098e-02 8.813129e-02 -1.169810e-02 -1.186311e-02 -2.689257e-02 -1.579435e-02 -4.671309e-02 -1.404006e-01 -1.626473e-01 -7.140038e-02 -6.545373e-02 -9.853960e-02 -1.105117e-02 4.096225e-02 -4.789876e-03
<VARIANCE> 39
 7.302016e-01 2.010702e+00 3.840147e+00 3.915863e+00 5.099368e+00 5.193441e+00 7.361589e+00 1.006751e+01 8.877609e+00 9.096160e+00 1.077841e+01 9.726228e+00 8.285324e-01 8.509788e-02 1.679388e-01 2.710487e-01 3.348354e-01 6.637611e-01 5.772493e-01 1.100276e+00 7.900726e-01 9.264593e-01 1.180527e+00 1.226486e+00 1.104339e+00 3.408687e-02 2.344629e-02 4.374086e-02 8.014356e-02 9.224389e-02 1.377434e-01 1.431834e-01 2.087837e-01 1.956851e-01 2.109469e-01 2.485887e-01 2.624156e-01 2.599313e-01 8.250844e-03
<GCONST> 5.113247e+01
<MIXTURE> 5 9.074463e-02
<MEAN> 39
 -1.062436e+00 -4.243305e+00 -9.051301e+00 -2.649650e+00 2.398320e+00 6.444962e+00 -8.950670e-01 -3.323822e+00 -3.977473e+00 2.746641e+00 3.963501e+00 1.446691e+00 5.939189e-01 -1.636599e-02 -1.202812e-02 3.361028e-02 4.438855e-02 7.146460e-03 -3.998173e-02 -8.096027e-02 -8.057647e-02 -2.845737e-02 7.868035e-02 7.395593e-02 -4.344494e-02 -1.028863e-02 3.141973e-03 2.486002e-02 8.450002e-02 4.984869e-02 2.113710e-02 -4.026906e-02 1.255419e-02 2.785848e-02 4.110160e-02 -7.525256e-03 -1.500982e-04 9.687002e-03 -7.879320e-03
<VARIANCE> 39
 1.567394e+00 3.344058e+00 1.032237e+01 1.201445e+01 2.733248e+01 2.899697e+01 1.074528e+01 3.433516e+01 3.079450e+01 1.670628e+01 2.675779e+01 1.140836e+01 8.285324e-01 1.264273e-01 2.666520e-01 1.458510e+00 5.989413e-01 1.058008e+00 1.992210e+00 1.148540e+00 1.105214e+00 1.380155e+00 1.591396e+00 1.645199e+00 1.359881e+00 6.715360e-02 2.751400e-02 5.719322e-02 2.637132e-01 8.907201e-02 1.950051e-01 3.778528e-01 2.414054e-01 2.276727e-01 2.869405e-01 3.105576e-01 3.369171e-01 2.844276e-01 1.328591e-02
<GCONST> 7.406792e+01
<MIXTURE> 6 2.105767e-01
<MEAN> 39
 -1.838937e+00 -2.499064e+00 -1.474942e+00 -2.166309e+00 -9.625624e-01 -1.528275e+00 8.060163e-01 2.556878e-01 1.266194e+00 -8.191933e-01 4.786634e-01 9.559362e-02 -1.049283e+00 -1.170689e-01 -1.962108e-01 -2.801325e-01 -2.854216e-01 -1.252352e-01 -2.576544e-02 -6.309736e-03 -1.651543e-01 -3.595764e-02 -4.484532e-02 -7.396839e-02 -1.201130e-01 -5.011711e-02 6.885862e-02 1.100821e-01 1.196079e-01 1.219786e-01 6.280935e-02 7.277679e-02 -3.825018e-05 1.961832e-03 -3.015800e-02 1.398858e-02 -5.142136e-02 -5.906116e-02 3.528153e-02
<VARIANCE> 39
 8.309872e-01 1.787978e+00 4.149724e+00 4.020252e+00 8.060490e+00 7.592027e+00 8.690369e+00 9.037598e+00 7.979062e+00 1.051489e+01 1.029126e+01 8.080870e+00 8.285324e-01 7.856628e-02 1.703780e-01 4.134753e-01 3.765604e-01 6.464459e-01 8.217030e-01 9.911657e-01 1.149140e+00 1.056213e+00 1.125844e+00 1.111529e+00 1.008889e+00 3.456467e-02 2.033920e-02 4.679154e-02 9.619427e-02 1.006231e-01 1.423011e-01 1.547592e-01 2.288961e-01 2.463487e-01 1.823538e-01 2.429402e-01 2.707124e-01 2.240630e-01 6.545166e-03
<GCONST> 5.304003e+01
<MIXTURE> 7 1.849757e-01
<MEAN> 39
 4.466591e-01 1.150576e+00 1.805050e+00 7.912946e-01 -3.157465e-01 -1.473311e+00 -6.143869e-01 -2.193312e-01 2.456951e-02 -1.066508e+00 -9.595242e-01 -1.825566e-01 1.640168e-03 -1.235315e-01 -2.252157e-01 -2.537968e-01 -2.666566e-01 -1.677233e-01 -2.655177e-01 -1.333219e-01 -1.558664e-01 -1.043904e-01 -7.055806e-02 8.646321e-02 2.127133e-02 -6.394996e-02 -5.977985e-02 -1.231373e-01 -1.418110e-01 -1.563029e-01 -1.029711e-01 1.746410e-03 8.198868e-02 4.020033e-02 3.026013e-02 8.301480e-02 9.332842e-02 1.712460e-02 -2.170024e-02
<VARIANCE> 39
 1.592620e+00 2.719655e+00 2.177663e+00 2.591471e+00 4.700691e+00 5.510995e+00 7.492133e+00 9.697169e+00 1.127254e+01 1.225317e+01 9.711320e+00 8.541227e+00 8.285324e-01 1.009664e-01 2.701957e-01 3.968595e-01 4.932884e-01 5.600634e-01 7.463617e-01 1.176481e+00 1.354998e+00 1.202458e+00 1.271297e+00 1.326987e+00 1.126508e+00 3.408687e-02 1.617257e-02 4.038438e-02 7.540499e-02 7.999321e-02 9.622037e-02 1.242145e-01 2.208332e-01 2.917274e-01 2.724352e-01 2.375423e-01 2.638981e-01 2.487354e-01 4.925390e-03
<GCONST> 5.299297e+01
<STATE> 3
<NUMMIXES> 7
<MIXTURE> 1 1.871249e-01
<MEAN> 39
 -5.533618e-01 4.874155e+00 6.491480e+00 4.932700e+00 2.720069e-01 -2.175232e+00 2.116129e+00 1.701590e+00 -5.752131e+00 2.121867e+00 -9.805946e-01 2.326262e+00 -1.230967e+01 4.794696e-02 5.642105e-01 8.696667e-02 -7.304260e-04 3.782978e-01 -4.139444e-02 2.383600e-01 3.665516e-03 -8.560925e-02 2.781954e-01 -7.852010e-02 7.942396e-02 4.758400e-02 -1.171988e-01 -1.836482e-01 -9.147815e-02 -2.406933e-01 -2.856312e-01 2.012223e-01 -3.433093e-01 -2.798982e-01 1.135910e-01 -2.208991e-01 2.637491e-01 -1.346467e-01 7.766315e-01
<VARIANCE> 39
 8.942391e+01 4.489420e+01 1.480142e+02 4.864518e+01 9.204360e+01 8.296002e+01 4.619733e+01 5.690034e+01 3.492916e+01 3.474813e+01 4.087811e+01 2.699994e+01 9.544255e+01 6.579644e+00 3.674294e+00 5.368353e+00 5.170047e+00 6.154040e+00 5.989179e+00 4.617066e+00 6.688237e+00 3.637072e+00 4.002114e+00 3.363155e+00 3.911679e+00 7.875289e+00 5.576141e-01 4.917943e-01 8.571719e-01 8.718317e-01 1.168187e+00 1.160156e+00 7.147337e-01 1.090138e+00 5.273737e-01 7.067287e-01 6.363937e-01 6.825175e-01 5.568760e-01
<GCONST> 1.412656e+02
<MIXTURE> 2 1.569814e-01
<MEAN> 39
 1.817454e+00 -2.674498e+00 -1.185003e+01 -8.268142e+00 9.687962e-01 1.095459e+01 3.158395e+00 -6.863633e-01 4.878045e+00 -4.199393e+00 8.455009e-01 -2.330588e+00 9.764258e+00 2.149574e-02 7.007900e-02 -2.258540e-01 2.929671e-01 4.480400e-01 -6.175673e-01 -1.153010e-01 -1.066898e-01 -9.587261e-02 2.731414e-02 -3.352320e-01 -1.064678e-01 -4.631763e-02 7.722111e-02 1.411059e-01 2.763188e-01 1.409252e-01 8.015977e-03 -1.502550e-01 -2.165144e-01 -6.308939e-02 -2.006678e-01 9.434471e-02 1.182095e-02 1.064365e-01 -2.918294e-01
<VARIANCE> 39
 1.491003e+01 2.737733e+01 3.063701e+01 3.233858e+01 5.378126e+01 1.151371e+02 5.562341e+01 5.059425e+01 2.252937e+01 2.856337e+01 6.671700e+01 1.950887e+01 1.298943e+01 6.608906e-01 9.793425e-01 1.322539e+00 8.390246e-01 1.596935e+00 1.834319e+00 3.101509e+00 1.948265e+00 1.809940e+00 1.765995e+00 2.167995e+00 1.419669e+00 9.345991e-01 9.912878e-02 1.495906e-01 1.644972e-01 1.625154e-01 2.880642e-01 2.927128e-01 3.996405e-01 4.135500e-01 3.127332e-01 2.414971e-01 3.291543e-01 2.788391e-01 1.485090e-01
<GCONST> 1.032394e+02
<MIXTURE> 3 1.110263e-01
<MEAN> 39
 -9.114322e+00 1.146698e+00 1.073694e+01 2.928645e+00 -6.993451e+00 -5.235390e+00 -4.147631e+00 2.918288e+00 -6.865558e+00 -1.428823e+00 4.704608e+00 9.463220e-01 4.652108e+00 -1.417619e-01 -2.618209e-01 9.803437e-02 4.404309e-01 -1.257835e-03 5.456268e-02 -4.130678e-02 -1.812631e-01 -2.682926e-03 -1.005288e-01 -9.945174e-02 2.076205e-01 -1.702284e-01 3.144485e-01 6.174745e-02 -5.383215e-02 4.741278e-02 2.272282e-01 1.892965e-01 -1.000789e-01 -1.083181e-01 9.801698e-02 1.489355e-01 -2.230107e-01 -3.477866e-02 -2.148809e-01
<VARIANCE> 39
 6.686330e+01 5.357294e+01 9.239615e+01 4.819772e+01 1.054814e+02 1.824483e+01 3.650327e+01 6.429955e+01 3.131373e+01 3.139547e+01 5.032424e+01 2.729580e+01 2.937453e+01 1.068493e+00 9.135287e-01 3.087822e+00 1.383922e+00 2.647836e+00 1.964480e+00 3.419080e+00 2.180380e+00 2.963018e+00 1.498500e+00 2.150602e+00 1.924876e+00 5.010504e-01 1.350292e-01 2.259252e-01 2.742554e-01 2.512227e-01 4.592123e-01 3.278571e-01 4.699037e-01 5.352845e-01 5.325271e-01 3.756593e-01 4.163556e-01 5.223722e-01 8.695165e-02
<GCONST> 1.133723e+02
<MIXTURE> 4 1.672684e-01
<MEAN> 39
 2.164233e+00 -6.386077e-01 6.552643e+00 -1.816069e+00 -9.573062e+00 7.103285e+00 -6.345640e+00 -1.623833e+00 -4.316852e+00 -3.071575e+00 6.966320e+00 -1.694780e+00 5.109381e+00 7.166292e-02 -3.119099e-01 -4.652668e-01 -2.279216e-01 -4.236392e-01 2.090027e-01 3.146670e-01 5.899064e-01 3.042553e-01 -4.744382e-01 5.530480e-01 -1.516477e-01 4.552681e-01 -7.718824e-02 3.156336e-01 -1.598769e-01 2.915050e-01 5.281061e-01 -3.527156e-01 6.443958e-01 -3.852013e-01 1.905869e-01 3.261105e-01 -3.801554e-01 5.930137e-02 -5.331168e-01
<VARIANCE> 39
 2.307693e+01 2.897378e+01 1.401423e+02 6.147889e+01 6.036951e+01 1.095585e+02 9.575518e+01 1.097527e+02 5.876843e+01 3.859122e+01 5.428645e+01 4.047251e+01 1.405965e+01 2.070598e+00 2.973244e+00 3.771429e+00 3.712363e+00 7.368552e+00 5.930044e+00 5.449388e+00 8.483156e+00 6.001168e+00 4.543096e+00 5.190877e+00 3.286993e+00 3.771263e+00 3.894478e-01 4.396802e-01 7.078097e-01 8.661821e-01 7.804424e-01 1.322792e+00 5.731513e-01 1.622830e+00 1.085038e+00 8.122957e-01 8.277192e-01 5.878526e-01 2.965892e-01
<GCONST> 1.385463e+02
<MIXTURE> 5 1.544266e-01
<MEAN> 39
 5.130417e+00 1.917865e+00 2.579125e+00 4.217962e+00 -1.899000e+00 2.187690e+00 -3.790007e+00 -1.397515e+01 -2.493855e+00 -7.179484e-01 2.840144e+00 -4.574315e+00 1.537090e+00 1.167995e-01 4.571891e-02 -1.188917e-01 2.737100e-01 9.132384e-02 2.537695e-02 -7.051145e-02 -1.632663e-04 5.098441e-02 1.886389e-01 -2.850205e-01 9.937112e-02 -1.912314e-01 -2.867339e-01 -1.166805e-01 1.771869e-01 -2.390113e-01 -2.821002e-01 8.990142e-02 -4.220488e-02 8.167889e-01 -1.166128e-01 -5.816567e-02 3.615534e-02 1.371399e-01 2.259730e-01
<VARIANCE> 39
 7.214746e+00 1.962255e+01 4.881116e+01 7.291032e+01 3.565668e+01 6.524849e+01 1.797250e+02 9.774490e+01 4.374467e+01 4.564850e+01 6.099980e+01 3.316432e+01 1.063423e+01 1.069754e+00 1.111503e+00 4.031388e+00 3.846261e+00 3.997029e+00 4.964081e+00 3.829469e+00 1.132727e+01 2.885365e+00 3.751202e+00 3.470314e+00 2.681559e+00 1.611116e+00 1.471778e-01 1.461348e-01 4.391189e-01 5.593555e-01 5.912126e-01 8.416747e-01 9.347006e-01 1.394665e+00 6.341553e-01 6.346737e-01 7.032588e-01 5.828757e-01 1.391750e-01
<GCONST> 1.252202e+02
<MIXTURE> 6 1.179454e-01
<MEAN> 39
 -1.498740e+00 4.831598e+00 4.988234e+00 2.934839e+00 5.196478e-01 2.274822e+00 4.277690e-01 -2.569488e+00 -2.488924e+00 1.169321e+00 7.120284e-01 1.895148e+00 -5.917834e+00 1.235707e+00 -9.344423e-02 6.514976e-01 -2.340488e+00 -2.004994e+00 1.923406e+00 -2.131639e+00 -1.552976e+00 -5.574648e-02 -4.070807e-01 1.437479e+00 -8.624541e-01 3.725899e+00 2.789409e-01 -2.731331e-01 -2.379580e-01 -1.992370e-01 -2.589001e-01 1.861491e-01 7.556314e-02 2.735059e-01 -1.526660e-01 -1.124411e-01 1.798919e-01 -1.012046e-01 -3.858338e-01
<VARIANCE> 39
 7.212084e+01 7.892321e+01 1.120055e+02 1.266219e+02 6.875901e+01 6.907614e+01 1.018530e+02 1.334031e+02 6.892083e+01 5.728386e+01 4.940817e+01 6.219205e+01 6.807066e+01 7.168437e+00 8.689477e+00 1.317926e+01 1.094669e+01 6.405212e+00 9.910255e+00 6.510318e+00 1.673970e+01 6.691384e+00 5.073999e+00 4.505329e+00 4.240789e+00 6.018118e+00 1.616207e+00 1.478721e+00 1.430087e+00 1.948212e+00 1.412979e+00 1.363367e+00 1.558015e+00 2.494610e+00 1.185161e+00 1.105554e+00 8.429932e-01 8.835634e-01 7.987889e-01
<GCONST> 1.582735e+02
<MIXTURE> 7 1.052228e-01
<MEAN> 39
 -1.029293e+00 3.620275e+00 1.284694e+01 1.357792e-01 -1.656453e+01 4.670089e+00 -7.086035e+00 -5.048746e+00 -7.894604e+00 -2.761626e+00 5.548377e+00 -1.226807e+00 5.447413e+00 -8.131688e-02 2.858712e-01 -8.217142e-02 -6.115936e-01 7.854320e-02 5.633418e-04 3.786289e-01 -4.159166e-01 1.482294e-01 2.104606e-01 -5.777134e-01 -3.320578e-01 -8.672303e-02 7.839562e-02 -1.097458e-01 -1.811723e-01 1.399847e-01 2.889523e-01 -2.230118e-01 -1.463082e-01 2.246468e-02 7.907820e-02 -6.984487e-02 5.861109e-03 2.600856e-02 -5.556947e-02
<VARIANCE> 39
 2.249403e+01 2.009414e+01 1.060402e+02 4.761483e+01 1.789779e+01 6.872478e+01 5.432212e+01 6.584679e+01 2.625118e+01 3.789210e+01 2.365080e+01 3.657401e+01 5.993533e+00 2.461674e-01 6.604574e-01 1.141132e+00 1.341585e+00 1.253358e+00 2.468008e+00 1.585202e+00 2.002910e+00 1.333571e+00 1.545484e+00 1.262497e+00 1.354848e+00 1.182022e-01 4.550281e-02 9.075053e-02 1.382559e-01 1.976347e-01 2.142779e-01 3.601640e-01 3.072463e-01 2.759536e-01 3.050637e-01 3.007607e-01 2.475644e-01 2.491053e-01 3.149265e-02
<GCONST> 9.433768e+01
<STATE> 4
<NUMMIXES> 7
<MIXTURE> 1 1.980370e-01
<MEAN> 39
 3.718942e+00 1.253096e+00 -2.034802e+00 4.953075e+00 5.738722e+00 -2.845732e+00 3.097256e+00 -5.341707e-01 -6.285685e-01 1.693048e+00 -4.056844e+00 9.964504e-01 -1.051761e+01 -7.493283e-01 2.759022e-02 -8.320839e-02 -3.372175e-01 2.640702e-01 3.011631e-02 4.424650e-02 1.038373e+00 -1.540546e-01 -2.026115e-01 2.296525e-02 4.137646e-01 -3.365788e-01 -5.521393e-01 -1.757690e-01 1.578743e-01 -6.325799e-01 -4.381808e-01 2.260379e-01 -3.339751e-01 2.611579e-01 1.242845e-01 -7.967196e-02 4.279777e-01 1.137359e-02 9.529417e-01
<VARIANCE> 39
 6.076616e+01 6.703946e+01 1.528422e+02 6.615154e+01 1.119430e+02 8.874331e+01 1.288696e+02 1.370125e+02 8.167895e+01 5.374137e+01 5.972292e+01 4.433546e+01 5.826772e+01 6.643970e+00 4.815886e+00 8.231392e+00 7.373423e+00 8.204497e+00 7.606893e+00 9.041557e+00 1.086449e+01 6.016120e+00 4.977269e+00 4.993112e+00 3.394166e+00 7.752174e+00 6.898745e-01 7.320614e-01 1.205320e+00 1.049350e+00 1.326712e+00 1.199764e+00 1.378019e+00 1.806886e+00 1.112513e+00 9.284012e-01 8.998892e-01 6.210622e-01 6.528857e-01
<GCONST> 1.530500e+02
<MIXTURE> 2 8.638556e-02
<MEAN> 39
 4.947561e+00 5.191646e+00 -1.035230e+01 -1.026685e+01 1.289861e+00 1.496426e+01 -8.424323e+00 -2.983668e+00 9.810268e-01 2.699975e+00 8.339021e+00 -2.415394e+00 2.935484e+00 2.693574e-01 -4.995224e-01 -3.280792e-01 7.317580e-02 6.576413e-01 2.485779e-01 2.303354e-01 -3.367184e-01 1.960096e-01 4.256055e-01 -1.703242e-01 -4.590105e-01 2.963730e-01 -1.248209e-01 -2.079066e-01 2.511485e-01 7.841471e-01 3.688657e-01 -8.063698e-01 5.330607e-01 1.460027e-01 -1.373888e-01 -4.700301e-02 -6.627192e-01 3.058707e-01 -4.904027e-01
<VARIANCE> 39
 1.102563e+01 5.023092e+01 4.422681e+01 6.656151e+01 6.290324e+01 6.119703e+01 1.241786e+02 5.256957e+01 7.249852e+01 5.635433e+01 3.414804e+01 3.435777e+01 1.726198e+01 2.421719e+00 4.142098e+00 4.369366e+00 1.027064e+01 5.513397e+00 9.977363e+00 6.935681e+00 7.887383e+00 6.939210e+00 5.155436e+00 7.021364e+00 4.034058e+00 4.673506e+00 3.873962e-01 4.853244e-01 5.503827e-01 1.006582e+00 8.026391e-01 8.454920e-01 9.309388e-01 1.106195e+00 9.283071e-01 8.973057e-01 7.751521e-01 7.058724e-01 3.799268e-01
<GCONST> 1.394606e+02
<MIXTURE> 3 1.637186e-01
<MEAN> 39
 -1.018265e+00 -8.046921e+00 -9.252308e+00 -1.124231e+00 2.109753e+00 -1.936650e+00 6.962985e+00 2.401983e+00 4.640362e+00 -1.538461e+00 -3.455906e+00 -2.165803e+00 1.174477e+01 9.423983e-02 -3.454046e-01 1.846642e-01 9.832233e-02 -5.373092e-02 -6.304159e-01 5.347771e-02 2.368600e-01 1.050299e-01 -1.445289e-01 -2.128728e-01 1.589686e-01 -1.073238e-02 9.534863e-02 1.338559e-01 3.634586e-01 -6.175002e-02 -1.322928e-01 -7.144520e-02 -3.411344e-01 2.259628e-02 -8.745550e-03 6.235443e-02 6.541359e-02 2.782162e-02 -2.186576e-01
<VARIANCE> 39
 8.081861e+00 1.710566e+01 8.822859e+01 1.754315e+01 9.893933e+01 4.531626e+01 5.407879e+01 5.663226e+01 3.671009e+01 3.036390e+01 4.915800e+01 2.402387e+01 8.011057e+00 4.007259e-01 7.985626e-01 1.737063e+00 1.238916e+00 1.826759e+00 1.628111e+00 2.229921e+00 1.729054e+00 1.432580e+00 1.500798e+00 1.698137e+00 1.200524e+00 2.396595e-01 6.856436e-02 1.177196e-01 1.567373e-01 2.049854e-01 2.636841e-01 2.317801e-01 3.508995e-01 3.293553e-01 2.640007e-01 2.908387e-01 2.929448e-01 2.379692e-01 5.523050e-02
<GCONST> 9.733628e+01
<MIXTURE> 4 1.633256e-01
<MEAN> 39
 -9.347408e+00 2.207757e+00 8.946844e+00 -1.200132e-01 -1.011956e+00 -4.760916e+00 -2.295187e+00 6.729782e+00 -2.864723e+00 1.086288e+00 2.001161e+00 4.887461e+00 -1.051812e+00 -1.632192e-01 -7.088548e-02 1.779310e-01 -4.932477e-01 -1.015358e+00 4.642942e-01 -6.552470e-01 6.029616e-03 9.851708e-02 -2.751853e-01 4.948175e-01 -3.311959e-01 1.230520e+00 7.046269e-01 -1.828199e-02 -4.854291e-01 1.325765e-01 8.379552e-02 1.499096e-01 2.734201e-01 -4.730315e-01 1.531776e-01 2.904507e-03 -1.956815e-01 -3.479055e-01 -3.838406e-01
<VARIANCE> 39
 9.842854e+01 7.965174e+01 1.744233e+02 5.991459e+01 1.578559e+02 7.242952e+01 6.950985e+01 7.396391e+01 8.508596e+01 3.606524e+01 5.394334e+01 4.786567e+01 3.550882e+01 8.340206e+00 5.997810e+00 9.752807e+00 5.981491e+00 1.042782e+01 6.138960e+00 7.478206e+00 9.448615e+00 6.183185e+00 4.414971e+00 6.202733e+00 4.307792e+00 1.005969e+01 1.053393e+00 9.758892e-01 1.057288e+00 8.259286e-01 1.716403e+00 1.038087e+00 1.272571e+00 1.283165e+00 1.043130e+00 8.717524e-01 9.151041e-01 7.044979e-01 5.995495e-01
<GCONST> 1.524540e+02
<MIXTURE> 5 1.134716e-01
<MEAN> 39
 4.910458e+00 1.967408e+00 3.217542e+00 6.700676e+00 6.769868e-01 -5.379192e+00 4.581505e+00 -7.553087e+00 7.131708e-01 1.668329e-01 -3.690074e+00 -1.530734e+00 -5.846022e+00 2.274986e-01 4.482109e-01 7.364049e-02 9.726047e-01 3.238712e-01 -8.961075e-02 2.617733e-01 -9.002343e-01 -2.589167e-02 4.840805e-01 -3.521927e-03 6.666422e-02 -9.083074e-01 -1.747924e-01 -9.595551e-02 -1.693009e-01 -3.177490e-01 5.812230e-02 2.688915e-01 -3.050585e-01 5.307742e-01 -1.474562e-02 -4.415470e-02 1.691212e-01 1.131304e-01 2.595146e-01
<VARIANCE> 39
 6.737344e+01 5.526960e+01 1.041268e+02 4.914037e+01 8.269057e+01 9.060251e+01 1.205938e+02 1.272827e+02 8.771983e+01 6.205827e+01 5.554973e+01 4.147782e+01 6.023378e+01 6.620975e-01 1.275324e+00 2.343155e+00 2.752043e+00 3.143070e+00 3.844347e+00 3.319908e+00 5.596813e+00 3.335998e+00 3.179132e+00 3.204646e+00 2.456703e+00 5.956244e-01 1.926677e-01 2.517544e-01 3.667614e-01 4.783031e-01 6.656132e-01 7.271755e-01 7.416481e-01 1.031167e+00 6.414080e-01 7.847975e-01 6.185694e-01 5.348473e-01 1.526981e-01
<GCONST> 1.290263e+02
<MIXTURE> 6 1.630425e-01
<MEAN> 39
 4.906398e-01 -7.424314e+00 -3.425043e+00 -1.537757e+00 -6.023395e-01 -2.836573e+00 7.862923e-02 4.328558e+00 6.316860e+00 -8.326518e-01 -2.241801e+00 -1.211259e+00 8.407269e+00 4.919229e-01 2.652235e-01 1.470999e-01 4.472655e-01 2.308932e-01 -2.928648e-01 -9.033639e-02 -4.991319e-01 8.141569e-03 3.581700e-02 -2.631603e-01 -3.626665e-02 -7.434431e-01 1.127833e-02 3.926741e-01 3.722748e-03 3.721043e-01 2.843178e-01 -1.388779e-02 3.963068e-01 -3.691073e-01 -3.163554e-01 4.399866e-02 -6.622837e-02 1.057503e-01 -5.368295e-01
<VARIANCE> 39
 1.677620e+01 3.129794e+01 1.010568e+02 3.043303e+01 1.049220e+02 5.458620e+01 8.905762e+01 6.184025e+01 4.558051e+01 3.670562e+01 5.175444e+01 3.454467e+01 1.375391e+01 1.627636e+00 2.941253e+00 5.700170e+00 3.476646e+00 4.415360e+00 4.157146e+00 8.052758e+00 6.584783e+00 4.198597e+00 3.193455e+00 4.385314e+00 3.013464e+00 3.263066e+00 2.654788e-01 3.159166e-01 6.018951e-01 6.317698e-01 6.742863e-01 6.662189e-01 1.075138e+00 1.019868e+00 6.826119e-01 5.630807e-01 7.319573e-01 5.316910e-01 2.702353e-01
<GCONST> 1.312025e+02
<MIXTURE> 7 1.120109e-01
<MEAN> 39
 -8.233174e-02 5.744652e+00 2.064757e+00 -7.183683e+00 -1.460510e+00 4.214524e+00 -6.014164e+00 -1.368551e+00 -1.186724e+00 2.014111e-01 2.118024e+00 4.531020e-02 -1.921168e+00 -1.144743e-01 -5.423311e-02 -2.278559e-01 -4.969266e-02 1.672416e-01 -1.475500e-01 5.920177e-01 1.377495e-01 -1.087117e-01 1.448531e-01 -2.303852e-01 1.811670e-01 -4.974414e-01 1.811621e-02 -1.826366e-01 -9.153847e-02 2.417137e-01 5.466142e-02 -1.492796e-01 9.625661e-02 3.562793e-02 1.054800e-01 5.239313e-02 -7.684991e-02 -5.206829e-02 6.677692e-02
<VARIANCE> 39
 4.684360e+01 4.373255e+01 2.401584e+02 5.484429e+01 9.799966e+01 7.965249e+01 1.940870e+02 8.573152e+01 5.826759e+01 3.465878e+01 4.947416e+01 2.892086e+01 8.735661e+01 7.259694e-01 1.580381e+00 2.108042e+00 1.677519e+00 2.198566e+00 2.249221e+00 4.607178e+00 2.598953e+00 2.150805e+00 2.176591e+00 2.323175e+00 1.782719e+00 1.098574e+00 1.056074e-01 1.852441e-01 3.112268e-01 2.420441e-01 3.878511e-01 3.913927e-01 5.830649e-01 4.791817e-01 3.644745e-01 3.260221e-01 3.809121e-01 3.490900e-01 8.882089e-02
<GCONST> 1.191078e+02
<TRANSP> 5
 0.000000e+00 1.000000e+00 0.000000e+00 0.000000e+00 0.000000e+00
 0.000000e+00 9.709737e-01 2.902631e-02 0.000000e+00 0.000000e+00
 0.000000e+00 0.000000e+00 9.826418e-01 1.735818e-02 0.000000e+00
 0.000000e+00 0.000000e+00 0.000000e+00 9.940336e-01 5.966390e-03
 0.000000e+00 0.000000e+00 0.000000e+00 0.000000e+00 0.000000e+00
<ENDHMM>
~h "M004"
<BEGINHMM>
<NUMSTATES> 5
<STATE> 2
<NUMMIXES> 7
<MIXTURE> 1 1.548022e-01
<MEAN> 39
 -2.076334e+00 5.123228e-01 -1.073828e+01 6.402716e+00 4.658007e+00 -4.096607e-01 1.053477e+01 -5.956720e+00 -6.107322e-01 -6.444793e+00 -2.453991e+00 2.403239e+00 -1.793786e+01 1.263540e-01 1.686213e-01 9.921429e-02 3.570472e-01 2.910517e-01 5.781061e-01 6.103798e-03 -1.774649e-01 -2.333903e-02 3.682854e-01 3.066906e-02 -1.742616e-01 3.698370e-01 -5.639033e-02 1.749705e-01 2.660198e-01 -6.544952e-02 -3.336764e-02 7.044466e-02 -1.652215e-01 7.305476e-02 1.751698e-01 1.031867e-01 7.086975e-02 -9.701429e-02 3.191463e-01
<VARIANCE> 39
 1.350518e+01 2.898406e+01 3.020373e+01 2.372073e+01 2.274482e+01 4.381663e+01 8.289813e+01 3.294905e+01 2.610190e+01 4.575649e+01 2.520786e+01 1.556153e+01 8.669132e+01 1.711103e+00 1.299976e+00 3.728083e+00 1.855905e+00 1.447736e+00 3.571433e+00 3.518969e+00 1.787968e+00 2.378772e+00 2.433930e+00 1.297658e+00 1.086407e+00 9.878848e-01 4.184420e-01 3.073610e-01 7.733296e-01 3.757148e-01 2.749020e-01 6.735749e-01 7.102488e-01 3.006532e-01 4.240566e-01 3.920978e-01 2.796351e-01 2.807455e-01 3.742505e-01
<GCONST> 1.130223e+02
<MIXTURE> 2 2.142700e-01
<MEAN> 39
 -6.158154e-01 -8.858190e-01 -5.653659e-01 -1.517000e+00 -1.116013e+00 -4.857875e-01 1.164036e+00 9.891838e-01 7.994456e-01 3.482854e-02 2.152447e-01 3.183829e-01 -3.534164e-01 1.709903e-02 2.523364e-02 -4.272954e-02 -8.901634e-02 -1.009410e-01 -2.596834e-02 8.972708e-02 1.735040e-01 1.501701e-01 2.537325e-01 2.555049e-01 1.924122e-01 1.566695e-02 1.036767e-01 1.774508e-01 1.742578e-01 1.848314e-01 8.372242e-02 -1.139717e-02 -6.428952e-02 -5.730187e-02 -1.051766e-01 -7.301086e-02 -5.647844e-02 -2.039521e-02 4.122282e-02
<VARIANCE> 39
 7.302016e-01 1.249332e+00 5.912963e+00 3.965934e+00 6.361969e+00 1.110787e+01 5.963275e+00 8.262243e+00 1.168323e+01 1.134331e+01 1.038974e+01 9.514548e+00 8.285324e-01 7.294824e-02 1.849574e-01 4.117903e-01 5.220779e-01 8.354828e-01 9.084300e-01 7.615392e-01 1.148492e+00 1.181183e+00 8.933485e-01 1.094736e+00 9.799077e-01 3.408687e-02 1.006400e-02 2.139598e-02 6.169432e-02 7.735039e-02 1.706840e-01 2.214129e-01 1.537771e-01 2.525442e-01 2.583506e-01 2.531691e-01 2.932638e-01 2.775316e-01 4.453953e-03
<GCONST> 5.171843e+01
<MIXTURE> 3 1.397686e-01
<MEAN> 39
 1.609787e-01 6.840404e-01 1.903211e+00 1.752904e+00 1.512712e+00 5.882922e-01 1.415631e+00 1.094699e+00 1.026353e+00 -4.141709e-01 7.151988e-01 1.854676e-01 -1.878203e-01 9.595945e-02 1.548118e-01 2.136621e-01 3.029642e-01 3.446097e-01 3.545089e-01 1.422861e-01 1.675538e-01 1.215436e-01 1.142026e-01 -1.813481e-01 -1.126769e-01 3.757759e-02 -2.600545e-02 -3.463205e-02 -1.044519e-01 -3.212342e-01 -3.486735e-01 -2.783114e-01 -1.689305e-01 -1.215803e-01 -9.357597e-02 -3.106304e-02 -1.609593e-01 -3.474187e-03 -1.389037e-03
<VARIANCE> 39
 7.302016e-01 1.362734e+00 5.152996e+00 3.982056e+00 3.796313e+00 6.540988e+00 5.718136e+00 4.650766e+00 8.325277e+00 1.019824e+01 8.960599e+00 7.522341e+00 8.285324e-01 8.591577e-02 1.884426e-01 2.809074e-01 4.544643e-01 5.801201e-01 6.811906e-01 6.874182e-01 8.850022e-01 1.259736e+00 1.295253e+00 1.213122e+00 1.340477e+00 3.408687e-02 8.002121e-03 2.579662e-02 6.856830e-02 6.678000e-02 9.188590e-02 1.545679e-01 1.428019e-01 1.501552e-01 1.819755e-01 2.241857e-01 1.974489e-01 1.835551e-01 4.365372e-03
<GCONST> 4.572115e+01
<MIXTURE> 4 1.426139e-01
<MEAN> 39
 1.175243e-01 5.723817e-01 1.001166e+00 -9.726173e-01 -2.054157e+00 -2.381862e+00 -5.244274e-01 -4.974631e-01 -1.359534e+00 -1.828825e+00 -1.079070e+00 -6.950560e-04 -1.165470e-01 4.162122e-02 1.167894e-01 2.758768e-01 4.768055e-01 3.672175e-01 3.188434e-01 4.601381e-01 4.354319e-01 2.718736e-01 8.753680e-02 1.604795e-01 -2.868220e-02 -3.855599e-03 -2.588773e-02 -5.392198e-02 -4.415774e-02 9.846209e-02 2.674321e-01 2.774607e-01 1.656084e-01 1.541440e-01 2.192569e-01 1.548089e-01 1.041457e-01 2.163848e-02 -9.942406e-03
<VARIANCE> 39
 7.302016e-01 1.320214e+00 6.282274e+00 4.540640e+00 4.433132e+00 6.460126e+00 4.923929e+00 7.964054e+00 1.055560e+01 7.038073e+00 5.159062e+00 6.870228e+00 8.285324e-01 6.491239e-02 1.235654e-01 3.447869e-01 3.550234e-01 7.042944e-01 1.108715e+00 7.183623e-01 1.040732e+00 1.094252e+00 1.084410e+00 9.586061e-01 9.572240e-01 3.408687e-02 1.247991e-02 2.855570e-02 7.643578e-02 8.269775e-02 1.100660e-01 1.279526e-01 1.060651e-01 2.330269e-01 2.327152e-01 1.807925e-01 1.517511e-01 2.131872e-01 4.374650e-03
<GCONST> 4.594712e+01
<MIXTURE> 5 6.675414e-02
<MEAN> 39
 5.815729e-01 -2.626268e+00 -8.686517e+00 1.061301e+00 5.899028e+00 8.557262e+00 -4.935407e+00 -5.710165e+00 -2.687459e+00 5.608497e+00 2.441863e+00 -1.592103e+00 1.711283e+00 -3.942640e-02 1.126846e-01 4.646825e-01 -1.176896e-01 -1.986946e-01 -4.325258e-01 6.564529e-02 4.535474e-02 1.374127e-01 -1.862771e-01 -9.027628e-02 5.723786e-02 -1.075107e-01 -4.114032e-03 -1.733587e-02 -2.558659e-02 -1.291956e-02 -1.101697e-01 -8.112750e-02 -2.556605e-02 7.381031e-02 3.783409e-02 2.414729e-02 -3.874507e-02 -1.951116e-02 1.047079e-02
<VARIANCE> 39
 7.302016e-01 3.300021e+00 2.577286e+01 5.919196e+00 1.068926e+01 3.091893e+01 1.859541e+01 1.247648e+01 1.354562e+01 1.742554e+01 1.135167e+01 1.208140e+01 1.251112e+00 7.645836e-02 1.825532e-01 3.715380e-01 8.086058e-01 9.777353e-01 1.070733e+00 1.824130e+00 1.151344e+00 1.114792e+00 1.370360e+00 1.522458e+00 1.979678e+00 4.716223e-02 1.544291e-02 4.210542e-02 6.284601e-02 1.829592e-01 2.173945e-01 2.284192e-01 3.865574e-01 2.374317e-01 2.374870e-01 2.738408e-01 4.160852e-01 4.538939e-01 1.325179e-02
<GCONST> 6.730914e+01
<MIXTURE> 6 1.684811e-01
<MEAN> 39
 2.791760e-01 1.182202e+00 2.279532e+00 7.192383e-01 -1.243020e-01 -2.486527e-01 2.117017e+00 1.987170e+00 1.327121e+00 -3.309599e-01 -9.604695e-01 -2.900949e-01 -1.264262e-01 -8.850837e-02 -1.402745e-01 -1.913183e-01 -2.649437e-01 -2.569706e-01 -3.295470e-01 -2.845999e-01 -4.609449e-01 -1.518396e-01 -1.573109e-01 -7.435638e-03 6.317716e-02 -3.722578e-02 -6.335270e-02 -1.267677e-01 -1.383868e-01 -9.625456e-02 -6.928232e-02 -1.338761e-01 -2.350281e-01 -2.289624e-01 -1.396102e-01 -5.249919e-02 1.359606e-01 6.282341e-02 -2.681019e-02
<VARIANCE> 39
 7.302016e-01 9.452824e-01 3.124743e+00 2.837386e+00 4.434763e+00 5.229650e+00 5.311980e+00 8.660137e+00 6.913297e+00 7.615582e+00 1.041350e+01 9.495191e+00 8.285324e-01 6.147718e-02 1.614066e-01 3.982489e-01 3.996262e-01 5.721722e-01 8.330680e-01 9.619585e-01 9.338440e-01 7.853292e-01 9.265009e-01 1.050107e+00 1.029683e+00 3.408687e-02 1.382448e-02 2.850178e-02 7.717416e-02 7.019193e-02 1.087672e-01 1.350290e-01 1.603869e-01 2.287448e-01 1.981022e-01 1.916429e-01 2.642348e-01 2.334918e-01 6.159716e-03
<GCONST> 4.618318e+01
<MIXTURE> 7 1.133074e-01
<MEAN> 39
 4.117520e-02 6.280007e-01 1.457671e+00 -2.633540e-01 -1.237301e+00 -3.057856e+00 -2.145452e+00 -1.351585e+00 -6.883671e-01 -1.337045e+00 -4.458959e-01 5.577446e-01 -2.264904e-01 -5.989597e-02 -1.420449e-01 -1.542478e-01 -3.408881e-01 -3.375124e-01 -3.211409e-01 -3.982850e-01 -3.248205e-01 -4.766666e-01 -4.644967e-01 -3.749231e-01 -2.637579e-01 -2.333223e-02 -2.333337e-02 -3.560519e-02 2.808330e-02 9.427837e-02 1.218983e-01 2.930470e-01 4.257037e-01 3.274475e-01 1.833361e-01 8.648331e-02 2.944990e-02 -7.028455e-02 -1.175100e-02
<VARIANCE> 39
 7.302016e-01 1.044614e+00 5.066803e+00 4.266941e+00 4.026974e+00 7.211355e+00 6.533764e+00 5.247754e+00 7.377024e+00 7.071065e+00 7.949746e+00 1.144920e+01 8.285324e-01 6.850598e-02 1.795217e-01 3.656352e-01 3.117695e-01 5.970444e-01 8.140796e-01 9.869227e-01 8.542951e-01 1.102036e+00 7.777383e-01 1.178649e+00 1.100944e+00 3.408687e-02 1.404887e-02 3.292217e-02 9.796407e-02 8.237948e-02 1.048272e-01 1.715658e-01 1.530768e-01 1.580378e-01 1.650893e-01 1.856954e-01 2.113652e-01 2.501964e-01 6.040287e-03
<GCONST> 4.715403e+01
<STATE> 3
<NUMMIXES> 7
<MIXTURE> 1 1.996405e-01
<MEAN> 39
 -8.246511e+00 9.147970e+00 -3.634488e+00 4.977433e+00 3.048016e+00 -5.462797e+00 5.528449e+00 -6.081123e+00 4.346479e+00 -4.060550e+00 1.014682e+00 1.539341e+00 -3.286571e+00 -1.708965e-01 -5.956563e-02 5.755756e-01 -4.363388e-01 -1.559586e-01 2.708018e-01 -1.304215e+00 3.851688e-01 1.652865e-01 3.194298e-01 4.085937e-01 -1.380443e-01 1.579715e+00 5.129057e-01 -5.480942e-01 4.919896e-01 -4.587217e-01 -4.017740e-01 3.311579e-01 -4.661518e-01 5.154500e-01 -4.812087e-01 3.540072e-01 4.713125e-02 -1.448148e-01 3.241151e-01
<VARIANCE> 39
 1.133617e+02 1.033704e+02 1.204926e+02 6.214933e+01 8.934998e+01 1.028395e+02 7.881810e+01 7.314894e+01 7.558374e+01 4.029214e+01 4.359792e+01 3.451685e+01 7.120771e+01 9.206751e+00 7.686414e+00 1.041132e+01 7.325956e+00 8.470611e+00 8.298833e+00 1.027458e+01 7.498818e+00 6.533575e+00 5.443323e+00 4.033676e+00 3.666384e+00 5.964732e+00 9.759443e-01 9.529307e-01 1.347094e+00 1.245280e+00 1.305037e+00 1.277196e+00 1.522200e+00 1.211971e+00 1.177259e+00 8.762685e-01 6.787640e-01 5.556227e-01 7.926911e-01
<GCONST> 1.529897e+02
<MIXTURE> 2 1.458054e-01
<MEAN> 39
 1.686946e+00 -9.872661e+00 -1.048163e+00 -4.179469e+00 -9.543605e-01 5.686296e+00 -5.535284e+00 1.004426e+01 -8.081190e-01 3.815025e+00 -4.572520e+00 -1.580959e+00 1.039819e+01 1.911613e-03 -2.920423e-02 1.097880e-01 1.735246e-01 1.293852e-01 -2.343100e-01 1.232892e-01 -1.176206e-02 2.857236e-03 -4.112480e-01 -1.245281e-01 1.044801e-01 -1.059564e-01 1.204048e-01 2.872386e-01 2.435365e-01 1.470199e-01 2.524833e-02 -1.834725e-01 1.255419e-02 -4.012876e-01 -1.250003e-01 9.312233e-02 1.928434e-01 -2.055418e-02 -3.291992e-01
<VARIANCE> 39
 1.436193e+01 2.377652e+01 5.047686e+01 2.757717e+01 3.927734e+01 6.212207e+01 4.946565e+01 4.670866e+01 2.736963e+01 4.865699e+01 2.849137e+01 2.350014e+01 6.303863e+00 4.790785e-01 1.056659e+00 2.002447e+00 1.044964e+00 1.556052e+00 2.269512e+00 2.045502e+00 2.383538e+00 1.964680e+00 3.221005e+00 2.156230e+00 1.546540e+00 5.190741e-01 5.775814e-02 1.501537e-01 1.808968e-01 2.582397e-01 2.243568e-01 3.284121e-01 3.446935e-01 3.937300e-01 3.059527e-01 5.174063e-01 2.887985e-01 2.241443e-01 7.050018e-02
<GCONST> 1.014838e+02
<MIXTURE> 3 1.010588e-01
<MEAN> 39
 3.279514e+00 -1.086832e+00 1.075353e+01 6.739588e-01 1.227706e+00 -5.524829e+00 2.664438e+00 5.704170e+00 -8.794371e+00 9.212193e+00 -6.261196e+00 -3.713534e+00 1.812889e+00 1.530712e-01 3.972445e-01 3.867601e-01 3.642546e-01 1.083900e-01 -4.907228e-01 4.481233e-01 -1.665291e-01 1.565571e-02 5.145720e-01 3.930226e-02 9.811578e-02 -6.076549e-01 -5.500488e-02 -2.043359e-01 -3.737159e-01 -2.549920e-01 -2.514589e-01 5.897674e-01 -3.301502e-01 7.290048e-02 4.353491e-01 -5.851717e-01 3.488183e-01 1.238942e-01 2.071091e-01
<VARIANCE> 39
 1.554381e+01 2.404123e+01 4.751719e+01 2.719220e+01 4.043868e+01 6.422648e+01 6.848973e+01 6.667403e+01 5.948831e+01 5.771498e+01 3.832493e+01 4.490176e+01 1.224933e+01 5.225005e-01 1.772021e+00 2.478543e+00 3.065767e+00 2.402501e+00 4.366283e+00 4.465561e+00 3.510791e+00 4.317303e+00 5.097989e+00 3.614931e+00 2.747676e+00 1.094708e+00 1.005183e-01 2.476799e-01 3.349489e-01 4.991114e-01 5.143992e-01 6.448588e-01 6.912668e-01 7.068204e-01 5.714079e-01 7.141756e-01 5.326194e-01 5.985757e-01 1.291418e-01
<GCONST> 1.202944e+02
<MIXTURE> 4 1.524500e-01
<MEAN> 39
 6.185906e+00 1.159832e+00 3.246672e+00 1.160072e+00 -2.382945e+00 -1.629922e+00 4.022319e+00 -3.577508e+00 -4.153004e-01 -2.280424e+00 1.190684e+00 -3.057919e-01 -6.950297e+00 -4.660620e-01 5.883016e-01 -9.542276e-01 4.531237e-01 4.158067e-01 -2.943625e-01 8.713111e-01 -9.109533e-01 8.083165e-01 -6.787636e-01 4.186578e-02 1.835831e-01 -1.262131e+00 -4.588634e-01 -1.631290e-01 -1.303055e-01 -1.787068e-01 6.928074e-02 2.058044e-01 -5.137013e-01 3.619780e-01 -6.088431e-02 2.601228e-01 -6.211673e-02 -8.641309e-02 6.206183e-01
<VARIANCE> 39
 2.496057e+01 4.060373e+01 1.133898e+02 8.656211e+01 6.848556e+01 7.240320e+01 7.338960e+01 7.481423e+01 6.652776e+01 6.659016e+01 4.725059e+01 3.983844e+01 3.751268e+01 1.824141e+00 2.982812e+00 4.733226e+00 3.983717e+00 4.964078e+00 5.437473e+00 5.741492e+00 4.922472e+00 4.286492e+00 5.395037e+00 2.970965e+00 2.912256e+00 2.835216e+00 3.105784e-01 4.239304e-01 7.587567e-01 8.913307e-01 8.816050e-01 9.611426e-01 1.095976e+00 8.886228e-01 8.306638e-01 9.241610e-01 5.264027e-01 4.960916e-01 3.854953e-01
<GCONST> 1.369086e+02
<MIXTURE> 5 1.555640e-01
<MEAN> 39
 3.416478e+00 -4.266188e+00 5.416477e+00 -3.692722e+00 -2.877530e+00 2.977969e+00 -7.777862e+00 2.367255e+00 -1.013830e+00 3.984198e+00 2.633384e+00 -3.013886e+00 5.125009e+00 1.192745e-01 -1.724554e+00 3.831710e-01 -1.346186e+00 -1.105130e+00 1.202232e+00 -1.459979e+00 2.254923e+00 -1.006361e+00 8.725466e-01 -1.516844e-01 -3.837545e-01 1.833721e+00 -2.829513e-01 3.850547e-01 -4.262089e-01 3.968224e-01 2.377607e-01 -3.234590e-01 7.824187e-01 -3.110009e-01 7.577980e-02 -2.900671e-01 -3.014435e-01 3.380884e-01 -4.684742e-01
<VARIANCE> 39
 2.694460e+01 5.335241e+01 9.143366e+01 5.940359e+01 6.479384e+01 7.481627e+01 8.782484e+01 9.295364e+01 6.031095e+01 7.445844e+01 4.889588e+01 3.804641e+01 2.575351e+01 3.036258e+00 3.357715e+00 6.812295e+00 6.854825e+00 5.631210e+00 6.108904e+00 7.926041e+00 5.403521e+00 7.424808e+00 6.915315e+00 4.103741e+00 3.494684e+00 2.464451e+00 3.983940e-01 5.957484e-01 1.011757e+00 1.033017e+00 9.151332e-01 9.430214e-01 1.318821e+00 1.216177e+00 9.898344e-01 1.128776e+00 5.968098e-01 5.848894e-01 4.563033e-01
<GCONST> 1.423978e+02
<MIXTURE> 6 1.233712e-01
<MEAN> 39
 2.777421e+00 -1.036208e+00 5.217631e+00 -8.879983e+00 -5.821159e+00 7.677606e+00 -3.434358e+00 2.958515e+00 -8.792437e+00 2.431356e+00 3.800310e+00 -3.285131e-01 6.315333e+00 9.435634e-02 6.942006e-02 2.459550e-02 -1.012534e-01 1.816500e-02 1.023353e-01 1.395809e-01 2.173313e-02 -5.274477e-01 3.143638e-01 -3.830359e-01 -2.744459e-02 -1.490944e-01 4.522142e-02 -4.078746e-02 3.099939e-04 3.833004e-01 2.064541e-01 -4.065481e-01 1.746241e-02 -1.563826e-01 3.549073e-01 -8.394334e-02 -1.340047e-01 -1.185443e-01 -1.584114e-01
<VARIANCE> 39
 3.072295e+01 3.884597e+01 9.453193e+01 7.696494e+01 5.987669e+01 8.392554e+01 1.005808e+02 6.862529e+01 3.802365e+01 4.513760e+01 3.588634e+01 4.924588e+01 1.185207e+01 4.746273e-01 1.237535e+00 1.805520e+00 2.694038e+00 1.891544e+00 2.829125e+00 3.210659e+00 2.202512e+00 2.696698e+00 2.389201e+00 2.029272e+00 2.065494e+00 6.400818e-01 8.706332e-02 1.691791e-01 2.354135e-01 2.903960e-01 3.401202e-01 4.838199e-01 6.463271e-01 4.145449e-01 4.658519e-01 4.182304e-01 3.493624e-01 3.548863e-01 1.020005e-01
<GCONST> 1.139183e+02
<MIXTURE> 7 1.221016e-01
<MEAN> 39
 2.536545e+00 -5.466794e+00 6.366863e+00 -1.290129e+00 -5.728321e+00 2.995591e-01 -7.299546e+00 5.312160e+00 -3.105894e+00 2.123009e+00 6.919723e-01 -1.693606e+00 6.336632e+00 5.417319e-01 1.019887e+00 -4.060652e-01 1.166765e+00 5.829152e-01 -1.131988e+00 1.441850e+00 -1.972817e+00 6.664647e-01 -8.585641e-01 1.269956e-02 2.433899e-01 -1.497790e+00 -8.075692e-02 4.871400e-01 -2.401559e-01 1.720827e-01 2.816042e-01 -3.081913e-01 7.417834e-01 -3.829148e-01 2.277181e-01 -1.762721e-01 -1.953591e-02 1.271420e-02 -4.988679e-01
<VARIANCE> 39
 2.805082e+01 5.280373e+01 8.874496e+01 4.216463e+01 7.088580e+01 5.686566e+01 6.415288e+01 7.371950e+01 7.496536e+01 5.441207e+01 6.155951e+01 3.279651e+01 1.465216e+01 1.295253e+00 2.754897e+00 2.787802e+00 3.229528e+00 2.642884e+00 4.620889e+00 5.890008e+00 3.556728e+00 4.258897e+00 4.247384e+00 3.058797e+00 2.370078e+00 1.678589e+00 2.790772e-01 4.419886e-01 6.482249e-01 4.981779e-01 6.625731e-01 7.250212e-01 8.235769e-01 8.831967e-01 8.911371e-01 8.125433e-01 6.023290e-01 5.175886e-01 2.196397e-01
<GCONST> 1.297068e+02
<STATE> 4
<NUMMIXES> 7
<MIXTURE> 1 1.232689e-01
<MEAN> 39
 -4.095324e+00 3.917953e+00 -9.074457e+00 3.388362e+00 4.166430e+00 -6.975952e-01 5.635006e+00 -6.091175e+00 6.251948e+00 -5.632855e+00 1.491847e+00 5.112001e+00 -6.246624e+00 4.952681e-01 -1.261719e+00 1.664698e+00 -2.837936e+00 -1.283000e+00 1.696608e+00 -2.633093e+00 8.924448e-01 5.749034e-01 1.340944e+00 3.554538e-01 -4.596711e-01 3.017814e+00 1.157352e-01 -2.995525e-01 1.755173e-01 -2.705032e-01 -8.636723e-02 7.439906e-02 -4.435272e-01 2.289716e-01 -3.042291e-01 3.729540e-01 -9.221859e-02 -2.034400e-01 3.366495e-01
<VARIANCE> 39
 1.646181e+02 7.995147e+01 8.266775e+01 1.065914e+02 6.994523e+01 1.246994e+02 1.042623e+02 1.017672e+02 8.584719e+01 7.794473e+01 5.379565e+01 3.683495e+01 4.793963e+01 1.828577e+01 7.465665e+00 6.249062e+00 1.037989e+01 9.655664e+00 9.111725e+00 8.455282e+00 1.024109e+01 1.030219e+01 9.136600e+00 4.476034e+00 4.208676e+00 3.876690e+00 1.586976e+00 8.215532e-01 1.164993e+00 2.031316e+00 1.258139e+00 1.290125e+00 1.874377e+00 1.422559e+00 1.318820e+00 1.284574e+00 7.256148e-01 5.964141e-01 1.101814e+00
<GCONST> 1.581004e+02
<MIXTURE> 2 8.459228e-02
<MEAN> 39
 9.411094e+00 -1.439251e+00 -3.259334e+00 -1.711227e+01 -1.750413e+00 1.697005e+01 -3.958686e+00 -4.965545e+00 -9.517685e+00 5.062102e+00 5.715699e+00 5.674668e+00 3.139936e+00 1.988984e-01 -5.337046e-01 -2.507752e-01 6.701922e-01 8.856449e-02 3.344852e-01 -6.439170e-01 2.510911e-01 -3.274745e-01 2.787777e-01 -8.084779e-02 -1.298562e-01 7.829133e-02 3.341957e-02 1.033932e-01 -4.506809e-01 9.665774e-01 2.345007e-01 -6.493523e-01 1.915638e-01 -3.260733e-01 6.047859e-01 -2.185341e-01 -1.491330e-01 2.430773e-03 -4.024000e-01
<VARIANCE> 39
 2.387748e+01 1.615431e+01 4.707454e+01 9.680140e+01 6.876653e+01 4.489115e+01 5.625709e+01 1.101859e+02 7.134888e+01 7.872765e+01 7.371087e+01 1.233677e+01 1.585319e+01 7.624493e-01 2.126839e+00 2.619954e+00 9.544830e+00 3.494565e+00 4.777201e+00 3.397688e+00 2.919400e+00 4.536226e+00 2.684077e+00 1.094584e+00 1.271343e+00 1.355547e+00 2.371907e-01 3.264161e-01 3.523207e-01 9.209223e-01 7.813993e-01 6.727393e-01 6.697638e-01 5.636584e-01 4.549314e-01 4.135207e-01 3.046938e-01 2.320173e-01 1.869639e-01
<GCONST> 1.216815e+02
<MIXTURE> 3 1.716539e-01
<MEAN> 39
 3.715855e-01 -2.826109e-01 -5.164696e+00 6.345487e+00 3.511029e+00 -7.540697e-01 7.186225e+00 -3.243690e+00 3.562057e+00 -5.850029e+00 -3.336621e+00 1.816336e+00 -1.100276e+01 -1.998220e-01 1.132649e-02 1.778545e-02 1.775286e-01 -5.592530e-01 -2.060060e-04 2.289036e-01 -3.424641e-01 -6.512102e-01 -4.645697e-01 1.607788e-01 1.740936e-01 -6.005455e-01 5.679449e-02 3.876525e-02 -1.117505e-02 -2.370133e-02 -4.498252e-02 -2.193403e-02 -2.094302e-01 -7.189382e-02 1.225071e-01 1.920442e-02 9.068606e-02 -6.055285e-02 1.092209e-01
<VARIANCE> 39
 1.973341e+01 6.327092e+01 4.765003e+01 4.042298e+01 5.161909e+01 4.667326e+01 6.034778e+01 5.697719e+01 3.462822e+01 4.527595e+01 2.328584e+01 1.583242e+01 1.103525e+02 7.773572e-01 1.120442e+00 2.012048e+00 2.239973e+00 2.401893e+00 3.027390e+00 2.988640e+00 1.988360e+00 1.839524e+00 2.102224e+00 1.539924e+00 1.430605e+00 4.707300e-01 9.997591e-02 2.072501e-01 2.685209e-01 3.486166e-01 4.197631e-01 4.898566e-01 6.173705e-01 3.301113e-01 3.274027e-01 3.564416e-01 2.510296e-01 2.059010e-01 7.653052e-02
<GCONST> 1.096952e+02
<MIXTURE> 4 1.577965e-01
<MEAN> 39
 -2.502231e+01 1.901742e+01 -1.130969e+01 2.189924e+00 1.442173e+01 -6.491614e+00 9.572603e+00 -6.459189e-01 5.717599e+00 -7.945456e+00 3.338802e+00 4.299907e+00 -3.384264e+00 7.180212e-02 -4.141898e-01 8.200739e-02 -5.416657e-02 4.784754e-01 3.821698e-01 3.458468e-01 5.561692e-02 -7.245588e-02 -2.226138e-01 -1.711297e-01 -6.334628e-02 -5.989131e-01 5.183939e-01 -2.974020e-01 3.601692e-02 2.111325e-01 -3.080044e-01 -1.395271e-01 -5.409177e-02 -2.157884e-01 4.612445e-02 6.370505e-02 -1.282961e-01 -4.016328e-02 -1.373337e-01
<VARIANCE> 39
 1.989577e+01 5.915344e+01 3.091018e+01 3.457305e+01 3.402807e+01 5.425399e+01 3.794458e+01 1.809105e+01 2.630617e+01 3.103192e+01 3.194270e+01 3.187434e+01 1.931184e+01 2.570426e+00 2.475692e+00 2.599913e+00 2.501432e+00 2.981923e+00 2.576815e+00 3.867984e+00 2.496632e+00 2.322802e+00 1.762522e+00 2.421592e+00 1.667715e+00 1.104558e+00 3.858415e-01 4.681248e-01 5.372432e-01 4.865166e-01 4.378114e-01 4.553030e-01 8.298398e-01 3.695897e-01 4.992665e-01 3.999983e-01 4.511463e-01 3.021475e-01 1.730582e-01
<GCONST> 1.160946e+02
<MIXTURE> 5 1.845625e-01
<MEAN> 39
 2.467254e+00 -8.419643e+00 -2.052812e+00 2.316896e-01 -2.891094e+00 -1.896695e-01 -7.669929e+00 1.983231e-01 8.167954e+00 9.273991e-01 -2.188032e+00 -5.731675e-01 4.974687e+00 4.709848e-01 -7.983708e-02 2.486667e-02 3.374977e-01 2.368488e-01 -3.805993e-01 -2.298486e-01 -5.971679e-01 -3.979480e-02 -3.673828e-01 -1.228819e-01 -4.766827e-02 -4.547611e-01 -2.019753e-01 5.902699e-01 -3.155153e-01 3.351209e-01 4.230462e-01 -2.541125e-01 7.750062e-01 -2.608253e-01 -2.548262e-02 -3.341933e-01 -5.333013e-03 2.007720e-01 -6.291419e-01
<VARIANCE> 39
 3.805270e+01 3.698223e+01 6.922147e+01 4.444347e+01 4.080581e+01 8.446943e+01 6.096360e+01 1.078578e+02 4.574050e+01 7.895423e+01 3.602061e+01 2.407654e+01 1.998846e+01 2.763867e+00 5.099402e+00 3.287885e+00 4.542999e+00 4.044714e+00 5.377411e+00 6.301295e+00 7.139357e+00 4.313594e+00 4.941632e+00 2.836831e+00 1.878569e+00 3.908340e+00 5.936049e-01 6.520346e-01 7.722444e-01 6.726824e-01 5.903491e-01 9.111301e-01 8.652015e-01 1.073135e+00 8.682333e-01 9.853846e-01 5.355790e-01 3.873389e-01 3.348411e-01
<GCONST> 1.350567e+02
<MIXTURE> 6 1.322790e-01
<MEAN> 39
 9.606842e+00 -5.173675e-01 -7.419160e+00 5.418017e+00 3.915968e+00 2.503099e+00 -1.024539e+00 -8.834430e+00 7.429485e+00 -1.297738e+00 1.101948e+00 1.465785e+00 -6.636159e+00 -1.520999e-01 1.321392e+00 -6.482819e-01 1.789114e+00 1.273382e+00 -1.226059e+00 2.038524e+00 -3.803078e-01 7.383835e-01 -1.840049e-01 -1.674279e-01 2.319631e-01 -2.177077e+00 -4.660899e-01 -2.744328e-02 1.707134e-01 -3.141269e-01 -1.636797e-01 1.958061e-01 1.193091e-01 3.713379e-01 -3.357871e-01 2.682283e-02 -2.628550e-02 6.621622e-02 1.888992e-01
<VARIANCE> 39
 3.124990e+01 4.073507e+01 5.931481e+01 4.999023e+01 6.485954e+01 1.089953e+02 8.641809e+01 6.537881e+01 7.794982e+01 9.478271e+01 5.059147e+01 3.520304e+01 2.297669e+01 1.966723e+00 3.240331e+00 4.850822e+00 3.870382e+00 5.917432e+00 5.848778e+00 4.410930e+00 5.673758e+00 6.442582e+00 4.044535e+00 3.533112e+00 2.687921e+00 1.151047e+00 2.652435e-01 4.894642e-01 8.446410e-01 5.963165e-01 8.349563e-01 8.034368e-01 8.248693e-01 6.787284e-01 7.453157e-01 1.000230e+00 5.374523e-01 5.173848e-01 1.789334e-01
<GCONST> 1.340505e+02
<MIXTURE> 7 1.458437e-01
<MEAN> 39
 -5.638663e+00 6.634869e+00 -1.209554e+01 1.014155e+01 5.719813e+00 -9.360393e+00 6.124566e+00 -7.138442e+00 7.323215e+00 -5.665683e+00 -1.268204e+00 3.252243e+00 -1.060618e+01 -1.329674e+00 1.268476e+00 -1.497178e+00 3.290392e-01 4.436234e-01 -4.251479e-01 1.731043e+00 -2.238180e-02 -2.104277e-01 -4.435979e-01 1.237354e-01 2.906737e-01 -7.493142e-01 2.156329e-02 -4.016528e-01 5.022579e-01 -8.104059e-01 -3.206976e-01 6.657549e-01 -5.531503e-01 4.089008e-01 -1.485610e-01 1.651444e-01 1.955507e-01 -6.284561e-02 6.647476e-01
<VARIANCE> 39
 9.895448e+01 1.166412e+02 5.356181e+01 3.424796e+01 7.352695e+01 1.082523e+02 9.653878e+01 5.260213e+01 3.651146e+01 4.304987e+01 3.685018e+01 2.595705e+01 3.796946e+01 9.029139e+00 6.356452e+00 6.154986e+00 4.675006e+00 6.114371e+00 6.623420e+00 6.865149e+00 4.748407e+00 4.485677e+00 4.049459e+00 3.482776e+00 1.933541e+00 2.339850e+00 8.585991e-01 7.988011e-01 9.318697e-01 9.058860e-01 1.311037e+00 1.347278e+00 1.458211e+00 1.082581e+00 9.594399e-01 7.405713e-01 6.083260e-01 4.757493e-01 5.924025e-01
<GCONST> 1.425457e+02
<TRANSP> 5
 0.000000e+00 1.000000e+00 0.000000e+00 0.000000e+00 0.000000e+00
 0.000000e+00 9.738541e-01 2.614594e-02 0.000000e+00 0.000000e+00
 0.000000e+00 0.000000e+00 9.932803e-01 6.719687e-03 0.000000e+00
 0.000000e+00 0.000000e+00 0.000000e+00 9.814597e-01 1.854025e-02
 0.000000e+00 0.000000e+00 0.000000e+00 0.000000e+00 0.000000e+00
<ENDHMM>
~h "M005"
<BEGINHMM>
<NUMSTATES> 5
<STATE> 2
<NUMMIXES> 7
<MIXTURE> 1 1.454281e-01
<MEAN> 39
 1.416266e+00 6.864010e-01 -3.846775e+00 1.890021e+00 5.938631e+00 -9.813239e-02 6.593838e+00 2.433095e+00 3.678086e+00 -4.155108e+00 -4.674173e-01 -1.046420e+00 -1.600550e+01 4.418793e-02 4.740422e-01 -7.215922e-02 4.513887e-01 1.613120e-01 -2.818642e-02 3.082382e-01 3.396243e-01 3.500643e-01 3.069222e-02 2.729768e-01 7.714967e-02 -6.045957e-01 -2.769916e-01 8.162588e-02 6.947280e-02 -4.102504e-02 -4.245989e-02 9.427866e-03 -1.683638e-01 -1.184955e-01 -1.182663e-01 1.064236e-01 -4.674514e-02 9.253109e-02 3.753847e-01
<VARIANCE> 39
 7.522274e+01 4.781584e+01 5.801984e+01 4.350319e+01 5.902740e+01 5.484819e+01 4.033067e+01 5.216859e+01 2.766839e+01 3.967563e+01 4.011694e+01 4.336359e+01 1.114979e+02 7.648084e-01 1.069356e+00 1.668452e+00 1.991474e+00 2.172944e+00 2.198064e+00 2.037541e+00 2.303826e+00 2.547980e+00 2.657811e+00 2.434134e+00 1.706164e+00 6.477527e-01 2.774167e-01 2.393369e-01 4.997192e-01 5.169128e-01 3.696114e-01 5.420021e-01 3.236725e-01 4.446831e-01 4.894511e-01 5.642440e-01 4.922920e-01 3.639160e-01 2.511559e-01
<GCONST> 1.176215e+02
<MIXTURE> 2 1.273989e-01
<MEAN> 39
 4.471362e+00 1.062352e+00 -1.054511e+01 -1.090396e+01 2.088534e+00 1.312808e+01 -7.903142e+00 -6.233859e+00 -5.276227e+00 6.012166e+00 3.230572e+00 -2.293589e+00 6.130022e+00 6.044083e-01 -4.492558e-01 -2.988655e-01 3.905358e-01 -1.707329e-01 -1.218022e-01 -1.390061e-01 2.707462e-01 6.596407e-02 2.998750e-01 8.257890e-02 -2.006937e-01 -4.124534e-01 -6.376316e-02 -8.144882e-02 1.721608e-01 7.293928e-01 1.454715e-01 -6.791623e-01 2.429291e-01 1.037121e-01 3.533115e-01 -3.879295e-01 -3.242250e-01 1.120976e-02 -2.915516e-01
<VARIANCE> 39
 1.916119e+01 3.118369e+01 1.871707e+01 6.389971e+01 2.278604e+01 2.907497e+01 7.287702e+01 3.337245e+01 5.449942e+01 4.151714e+01 5.502653e+01 3.056492e+01 2.776892e+01 1.102719e+00 2.682639e+00 1.518014e+00 7.348495e+00 2.329096e+00 6.496406e+00 4.684477e+00 4.139401e+00 6.087652e+00 5.231587e+00 4.286449e+00 2.730812e+00 2.625278e+00 1.742267e-01 3.270663e-01 2.649438e-01 3.064254e-01 5.152074e-01 5.929815e-01 9.971284e-01 8.538761e-01 7.696079e-01 1.117520e+00 8.384057e-01 6.935581e-01 2.169776e-01
<GCONST> 1.250458e+02
<MIXTURE> 3 1.129856e-01
<MEAN> 39
 -3.293953e+00 -7.997550e+00 -7.150232e-01 -7.073671e+00 -3.166232e+00 -2.534459e+00 1.776578e+00 8.916074e+00 5.868711e-01 -1.064253e+00 -5.149425e+00 5.868217e-01 1.388606e+01 8.358341e-02 9.925648e-02 1.982018e-01 9.199050e-02 -2.093196e-01 -2.331609e-01 1.988408e-01 -2.449357e-01 -7.426118e-01 4.640591e-02 4.098369e-01 -1.168106e-01 -1.959272e-01 5.092220e-02 2.350704e-01 2.606448e-01 1.828722e-01 1.331206e-01 -9.826428e-02 -2.858751e-01 -3.555461e-01 -7.792412e-03 5.952817e-02 7.076517e-02 1.192401e-01 -3.394684e-01
<VARIANCE> 39
 5.565598e+00 1.894238e+01 2.326351e+01 1.120668e+01 2.691800e+01 3.016770e+01 2.419342e+01 2.819965e+01 2.579242e+01 1.271570e+01 5.399663e+01 1.727329e+01 5.035153e+00 3.678835e-01 7.640237e-01 1.489198e+00 1.114461e+00 1.675431e+00 2.154240e+00 2.159590e+00 1.888831e+00 1.977329e+00 1.543730e+00 2.910991e+00 1.436886e+00 3.518565e-01 5.391540e-02 1.416849e-01 2.019257e-01 2.232910e-01 2.454541e-01 2.900071e-01 3.550796e-01 4.970291e-01 3.469168e-01 3.076580e-01 5.354481e-01 2.586591e-01 7.494187e-02
<GCONST> 9.364425e+01
<MIXTURE> 4 1.872438e-01
<MEAN> 39
 2.453051e+00 4.286439e+00 1.944476e+00 4.923136e+00 3.733463e-02 -1.103528e+00 4.730567e+00 -3.568592e+00 8.468883e-02 -7.398500e-02 -5.915613e-01 -1.171678e+00 -1.221979e+01 -7.895238e-01 3.706903e-01 3.290582e-01 -1.563131e-01 1.802330e-01 1.273334e-01 -1.021728e-01 -1.484437e-01 5.182109e-02 -1.137166e-01 -9.371645e-02 2.259241e-01 1.134310e+00 -5.154707e-01 -3.955337e-01 -1.585854e-01 -4.697736e-01 2.397204e-01 9.960274e-02 -5.050234e-01 3.515986e-03 -1.134734e-01 5.561728e-04 1.398629e-01 1.081427e-01 1.093871e+00
<VARIANCE> 39
 5.748948e+01 5.215384e+01 1.073235e+02 8.748605e+01 1.173207e+02 7.356160e+01 6.942287e+01 8.914541e+01 7.305689e+01 5.658937e+01 5.879653e+01 3.563778e+01 7.164034e+01 7.503835e+00 5.284155e+00 8.780793e+00 8.121698e+00 1.196554e+01 6.990348e+00 6.505406e+00 6.593056e+00 6.734739e+00 5.781649e+00 4.975669e+00 3.582329e+00 9.848911e+00 7.474185e-01 8.634189e-01 1.199050e+00 1.100023e+00 1.854138e+00 1.105892e+00 1.178944e+00 1.404979e+00 1.130358e+00 9.209656e-01 1.037247e+00 5.424567e-01 7.946841e-01
<GCONST> 1.521293e+02
<MIXTURE> 5 1.368075e-01
<MEAN> 39
 9.483184e-01 -8.251171e-01 3.672871e+00 3.794304e+00 -1.710126e+00 -1.123582e+00 -6.012614e+00 -5.077085e+00 -2.576390e+00 -2.115940e+00 7.484339e-01 -6.386473e-01 4.966335e+00 5.819292e-01 -8.035431e-02 -1.872547e-01 -6.300806e-01 1.773394e-01 9.725633e-01 1.329768e-01 -4.590766e-01 4.041437e-01 7.668829e-01 -5.461460e-01 -2.527899e-01 -3.073655e-01 -1.137944e-01 3.623709e-02 -2.496454e-01 -4.295318e-01 5.335011e-02 2.343073e-01 5.339621e-01 4.028828e-01 9.609015e-02 2.075520e-01 -4.725841e-02 -3.040305e-02 -1.843295e-01
<VARIANCE> 39
