~o
<STREAMINFO> 1 39
<VECSIZE> 39<NULLD><MFCC_D_A_Z_0><DIAGC>
~h "M001"
<BEGINHMM>
<NUMSTATES> 5
<STATE> 2
<NUMMIXES> 15
<MIXTURE> 1 8.123802e-02
<MEAN> 39
 -2.445006e+01 -2.411036e+00 -5.010411e-01 -1.947230e+00 9.039581e+00 5.283657e+00 3.606157e+00 9.899769e+00 5.820971e+00 2.818921e-01 4.757060e+00 1.145554e+01 -3.710328e+00 2.549083e-01 -8.760895e-02 3.403637e-01 -6.292249e-02 -6.503012e-02 -1.456163e-01 -1.936837e-01 1.626584e-01 1.565243e-02 2.516632e-01 -4.160239e-01 -6.863059e-01 -1.241236e-01 5.713639e-01 4.953375e-02 -7.865951e-02 3.171518e-01 -9.712634e-02 -1.465971e-01 -1.295079e-01 -2.579133e-01 -3.578226e-01 -1.894682e-01 -2.269798e-01 -1.754516e-01 -3.286783e-01
<VARIANCE> 39
 2.736036e+01 3.442328e+01 1.181272e+01 2.928650e+01 2.916233e+01 2.983329e+01 3.733366e+01 2.624361e+01 1.567819e+01 1.560853e+01 1.105261e+01 2.094039e+01 2.904888e+01 4.639506e+00 3.864491e+00 1.503199e+00 4.748309e+00 4.326692e+00 3.513469e+00 3.421449e+00 4.563444e+00 2.219139e+00 2.393500e+00 2.164512e+00 2.611358e+00 4.578480e+00 2.025516e-01 1.007186e+00 3.586554e-01 1.189740e+00 1.008111e+00 6.866762e-01 6.226243e-01 1.230156e+00 6.871110e-01 3.354770e-01 2.967457e-01 5.099106e-01 3.419171e-01
<GCONST> 1.200805e+02
<MIXTURE> 2 7.701471e-02
<MEAN> 39
 -1.554567e+00 1.969018e+00 -1.376524e+01 -1.701257e+01 8.399792e+00 7.025557e+00 8.681796e+00 -5.585471e+00 2.547521e-01 3.050520e+00 4.185801e+00 -3.593007e+00 1.294155e+01 6.873160e-01 1.252299e-01 5.786771e-01 6.679673e-01 -4.494735e-01 -2.049724e-01 -4.883167e-02 8.476419e-01 -2.186058e-01 -6.009331e-01 1.412552e-01 5.435662e-01 -9.435471e-01 3.529319e-01 2.304726e-01 2.199205e-01 2.944103e-01 -2.592559e-01 5.894072e-02 -1.579251e-01 6.902964e-02 -1.489614e-02 2.125651e-02 -1.928627e-01 1.218249e-01 -8.212469e-01
<VARIANCE> 39
 5.503620e+00 7.650399e+00 1.595473e+01 1.883966e+01 1.963770e+01 9.998469e+00 3.729641e+01 1.305097e+01 6.766912e+00 1.448521e+01 2.821631e+01 1.309622e+01 3.864732e+00 1.232765e+00 6.642244e-01 1.104647e+00 1.277359e+00 1.825956e+00 1.140204e+00 1.272663e+00 1.224878e+00 1.507136e+00 1.112302e+00 1.535987e+00 1.278465e+00 2.762505e+00 1.083968e-01 1.256639e-01 2.382956e-01 3.880902e-01 6.462888e-01 3.504343e-01 2.885069e-01 2.508528e-01 4.060850e-01 3.630529e-01 2.504395e-01 2.510290e-01 1.607079e-01
<GCONST> 9.067218e+01
<MIXTURE> 3 7.062640e-02
<MEAN> 39
 -3.142004e+00 -7.544143e+00 -3.335778e+00 3.181851e+00 6.154336e-01 5.414096e+00 4.342684e+00 5.144146e+00 1.134194e+00 -2.404801e+00 2.424850e+00 8.437320e+00 -2.174609e+01 -4.918351e-01 1.162256e+00 -1.452576e+00 9.983520e-01 4.090895e-01 -2.080222e-01 3.786795e-01 2.677740e-01 -2.832120e-02 5.912322e-01 1.339032e-01 6.263947e-01 2.563596e-01 -2.616262e-01 8.376969e-01 1.563046e-01 6.307894e-01 -1.346404e-01 -2.606587e-01 -1.605366e-01 -3.460047e-01 3.623655e-01 -1.677863e-01 -3.100127e-01 -6.891105e-02 6.183139e-01
<VARIANCE> 39
 8.258004e+00 1.004700e+01 4.245752e+01 1.148528e+01 4.328079e+01 2.322101e+01 1.507478e+01 3.427041e+01 1.187501e+01 2.491316e+01 1.738170e+01 2.152118e+01 4.526123e+00 1.315424e+00 1.609816e+00 3.449278e+00 1.579077e+00 2.926105e+00 3.265679e+00 1.351935e+00 2.168144e+00 1.930586e+00 1.565902e+00 1.667975e+00 2.481954e+00 3.126315e-01 5.627987e-01 2.227603e-01 1.157332e+00 4.679577e-01 6.074601e-01 5.403735e-01 2.809710e-01 5.245289e-01 2.951454e-01 5.371600e-01 4.467647e-01 5.959929e-01 1.808241e-01
<GCONST> 1.051178e+02
<MIXTURE> 4 4.910696e-02
<MEAN> 39
 -4.868068e+00 1.558126e+00 -6.337615e+00 1.192023e+01 1.270258e+00 4.230400e+00 6.834601e+00 2.716591e+00 3.221980e+00 -4.101418e+00 1.183607e-01 7.728956e+00 -1.928345e+01 1.245521e+00 5.257114e+00 3.090062e+00 3.246610e+00 4.078523e-02 -1.997759e+00 -8.848298e-01 -3.424109e+00 -7.945623e-01 1.545004e-01 -1.294515e+00 -4.558375e-01 2.714875e+00 5.744043e-01 3.690876e-01 1.601923e+00 -3.308786e-01 -6.980144e-01 -9.503041e-01 -2.942672e-01 -1.317531e+00 -5.195178e-01 7.865829e-01 -3.527330e-01 -3.834581e-01 8.942386e-01
<VARIANCE> 39
 1.982527e+01 3.995158e+01 2.358909e+01 2.912343e+01 1.627163e+01 1.969596e+01 1.378057e+01 3.062159e+01 1.647888e+01 2.479620e+01 1.634662e+01 1.416622e+01 9.582440e+00 3.704329e+00 2.513500e+00 5.552590e+00 3.925633e+00 2.276384e+00 2.891528e+00 3.190168e+00 4.396266e+00 1.772478e+00 4.509128e+00 3.025036e+00 1.060401e+00 1.553679e+00 5.027581e-01 1.003062e+00 5.219386e-01 9.495698e-01 3.172551e-01 6.465209e-01 2.915725e-01 6.182216e-01 4.426896e-01 5.391640e-01 4.088685e-01 3.133132e-01 2.299746e-01
<GCONST> 1.142980e+02
<MIXTURE> 5 6.381991e-02
<MEAN> 39
 -1.856167e+00 -8.121859e+00 -2.634117e+00 7.787531e+00 -3.816897e+00 3.641043e+00 8.566771e-01 3.503096e+00 2.076219e+00 -6.710672e+00 -1.352250e+00 6.095555e+00 -2.278116e+01 1.207027e-01 5.375898e-01 3.268279e-01 4.594356e-01 2.729643e-01 7.517040e-02 6.618627e-01 -4.325226e-01 1.345383e-01 1.967926e-01 -1.346542e-01 2.120418e-03 1.571573e-01 -1.435386e-01 -5.086092e-02 -1.558666e-01 -5.833280e-02 2.384706e-01 1.762576e-01 2.460929e-01 1.442240e-01 1.831369e-01 1.955637e-01 3.696915e-01 -1.212948e-01 2.106982e-02
<VARIANCE> 39
 8.461355e+00 6.291997e+00 2.128457e+01 1.525928e+01 9.517135e+00 1.507641e+01 2.419098e+01 2.856098e+01 3.059538e+01 1.149647e+01 9.447794e+00 1.479736e+01 8.890639e+00 2.127877e-01 2.762121e-01 4.926141e-01 6.925098e-01 1.119495e+00 9.799464e-01 2.224558e+00 1.379806e+00 1.913905e+00 1.229570e+00 9.590448e-01 8.015824e-01 4.116194e-02 7.140013e-02 5.101988e-02 6.429268e-02 5.239402e-02 1.471730e-01 1.033360e-01 2.821664e-01 2.703029e-01 1.650031e-01 1.171169e-01 1.602192e-01 8.482685e-02 1.810868e-02
<GCONST> 7.031100e+01
<MIXTURE> 6 4.998776e-02
<MEAN> 39
 2.867265e+00 1.279929e+01 3.052802e+00 1.581198e-01 -7.858668e+00 -1.135789e+00 1.089260e+01 -1.281438e+01 5.101130e+00 3.747695e+00 -9.214104e+00 5.922180e+00 -1.306777e+00 -1.041175e-01 -6.547347e-01 3.629943e-01 -2.946665e+00 1.748415e-01 2.046166e+00 2.126649e-01 3.765435e-01 2.921527e-02 4.975767e-01 5.179953e-01 1.003553e-01 2.461097e+00 -7.383600e-01 -1.029992e+00 -3.850922e-01 4.335868e-01 9.533545e-01 5.151870e-01 -7.713474e-01 1.164172e+00 -4.650870e-01 -7.373152e-01 8.777623e-01 -2.145441e-02 -3.609618e-01
<VARIANCE> 39
 8.745682e+00 4.504761e+00 6.876206e+01 1.979171e+02 1.685378e+01 6.641873e+01 4.146216e+01 4.587524e+01 6.838995e+01 8.412813e+01 3.477607e+01 1.686121e+01 9.320848e+00 3.006268e+00 4.648659e+00 1.373270e+00 5.391340e+00 4.666943e+00 4.134933e+00 5.923872e+00 1.356909e+01 7.294456e+00 1.202984e+01 4.689085e+00 3.273763e+00 1.238730e+00 3.324187e-01 3.227691e-01 3.394555e-01 1.408841e+00 5.361860e-01 1.163358e+00 7.994061e-01 1.977359e+00 7.805226e-01 1.664832e+00 7.541280e-01 2.401282e-01 2.996168e-01
<GCONST> 1.304742e+02
<MIXTURE> 7 7.810884e-02
<MEAN> 39
 3.971322e+00 4.441092e+00 -1.184647e+01 -1.392286e+01 6.943327e+00 7.308677e+00 6.040743e+00 -4.106919e+00 -1.628673e-01 3.786116e+00 1.267411e+00 -2.059976e+00 1.874309e+00 9.506283e-01 -1.017706e+00 -4.818259e-01 -1.151681e+00 1.458988e+00 8.853463e-02 8.288320e-01 9.922168e-02 8.417465e-02 3.694297e-01 5.678748e-02 -5.815135e-01 -6.789588e-01 -5.012217e-01 -7.354614e-01 4.023020e-02 5.499431e-01 -6.704968e-01 -1.640777e-01 -8.275473e-02 2.086297e-01 1.727104e-01 -4.016160e-01 6.831402e-02 4.157063e-01 -3.310343e-01
<VARIANCE> 39
 1.867372e+01 1.634873e+01 2.768555e+01 3.565383e+01 2.643855e+01 1.289170e+01 2.601357e+01 2.237468e+01 1.664066e+01 2.093804e+01 1.702668e+01 2.839276e+01 6.088663e+01 2.220552e+00 1.636168e+00 2.495406e+00 8.419468e+00 4.981017e+00 2.144421e+00 2.478717e+00 1.443042e+00 2.311735e+00 2.238211e+00 3.480154e+00 2.954873e+00 1.415095e+01 2.191648e-01 3.565053e-01 5.493087e-01 1.321600e+00 7.391169e-01 4.548681e-01 3.720895e-01 3.374906e-01 4.409002e-01 4.453990e-01 3.588026e-01 6.400989e-01 1.192700e+00
<GCONST> 1.182796e+02
<MIXTURE> 8 5.885429e-02
<MEAN> 39
 4.669857e+00 -6.183180e+00 -9.365951e+00 -4.944580e+00 -4.964009e+00 9.201060e+00 8.079995e+00 6.460175e+00 6.067849e-01 -4.453053e+00 -3.151608e+00 -5.513147e-01 -1.589014e+01 -4.830112e-01 9.543175e-02 1.026345e+00 1.281329e+00 -5.545236e-01 9.466185e-02 -2.062258e-01 9.037619e-01 2.451142e-01 -7.689884e-01 -6.692175e-01 -3.075352e-01 -5.223615e-01 -1.079909e-01 1.677485e-01 -7.137320e-02 -9.640741e-02 1.648490e-01 -7.971355e-02 -1.793570e-01 -4.014974e-01 7.372462e-02 2.618246e-01 4.157834e-01 2.956825e-01 3.044401e-01
<VARIANCE> 39
 7.794620e+00 4.674078e+00 1.072512e+01 7.909772e+00 3.148050e+01 3.182576e+01 2.908514e+01 2.183305e+01 2.591762e+01 2.917104e+01 2.147749e+01 2.506283e+01 3.716423e+00 3.179836e-01 5.439662e-01 9.282363e-01 1.272083e+00 1.751743e+00 2.422562e+00 2.401739e+00 2.237681e+00 1.729285e+00 1.790219e+00 3.359780e+00 2.741606e+00 6.423154e-02 1.041896e-01 1.452333e-01 3.796319e-01 2.076507e-01 3.553955e-01 4.480851e-01 2.877797e-01 3.597474e-01 4.371212e-01 3.216176e-01 4.573215e-01 5.360934e-01 1.297675e-01
<GCONST> 9.320336e+01
<MIXTURE> 9 4.888667e-02
<MEAN> 39
 -2.038670e-01 -9.039913e+00 -6.084332e-01 5.748026e+00 -1.654294e-01 4.162640e+00 2.056818e+00 1.158592e+00 2.399231e+00 -4.058169e+00 4.833411e-02 4.153120e+00 -2.414825e+01 -2.838039e-01 -2.310621e-01 -2.621284e-01 -1.978286e-01 -4.616032e-01 1.768113e-02 -1.207330e-01 1.155702e-01 -2.599990e-02 4.011182e-01 4.193154e-01 -5.708840e-02 -7.834296e-02 -1.313609e-01 2.160185e-01 -5.145639e-02 5.316507e-02 -5.682776e-02 -2.308864e-01 4.724115e-02 -1.721290e-03 -7.986863e-02 1.227242e-01 1.444571e-01 4.436380e-01 1.704517e-01
<VARIANCE> 39
 4.568701e+00 6.234339e+00 3.644051e+00 1.968764e+01 2.097448e+01 1.526474e+01 3.703070e+01 2.881769e+01 1.539612e+01 3.166910e+01 1.679331e+01 7.763666e+00 7.748039e+00 5.927231e-02 3.013441e-01 3.124892e-01 4.384169e-01 8.210804e-01 1.136118e+00 1.603524e+00 2.588312e+00 2.522184e+00 2.640249e+00 2.513528e+00 1.175160e+00 5.097285e-02 3.455803e-02 7.973568e-02 7.355933e-02 8.162613e-02 9.382277e-02 7.214098e-02 1.098647e-01 2.741051e-01 2.683969e-01 2.062958e-01 1.067354e-01 9.481698e-02 3.261992e-02
<GCONST> 7.007452e+01
<MIXTURE> 10 9.270742e-02
<MEAN> 39
 -7.802355e+00 2.529011e-01 -8.212065e+00 4.026474e+00 -2.926254e+00 1.484276e+00 4.142051e+00 -1.595404e+00 6.778448e+00 -2.673914e+00 -3.428658e+00 6.954013e+00 -6.947325e+00 7.818338e-01 2.003733e+00 -5.581787e-01 -2.995044e+00 5.343385e-01 1.488170e-01 8.874327e-01 -9.956871e-01 -5.876191e-01 1.132043e+00 -1.048012e+00 -1.165939e+00 5.218273e+00 7.811250e-01 -4.419735e-01 4.864413e-01 -7.893372e-01 5.393643e-01 3.314921e-01 1.778900e-01 4.885781e-01 -8.391569e-01 3.605606e-01 3.125384e-01 -4.744609e-01 4.466551e-03
<VARIANCE> 39
 2.945630e+01 3.347589e+01 3.921214e+01 2.370600e+01 4.704963e+01 4.826681e+01 5.649899e+01 5.854045e+01 2.251237e+01 2.742732e+01 8.593461e+01 3.407622e+01 5.132558e+01 8.692638e+00 6.317312e+00 5.883650e+00 8.873842e+00 7.339717e+00 4.275603e+00 6.971246e+00 4.104918e+00 7.823948e+00 4.339656e+00 4.940389e+00 4.543978e+00 7.326669e+00 5.059718e-01 1.266432e+00 8.194633e-01 1.080748e+00 9.623248e-01 7.378591e-01 1.591132e+00 4.752832e-01 8.543907e-01 7.459412e-01 1.273692e+00 9.919581e-01 8.714081e-01
<GCONST> 1.414299e+02
<MIXTURE> 11 6.758380e-02
<MEAN> 39
 -1.106505e+00 -9.519998e+00 -9.200035e-01 6.046510e+00 -2.906696e-01 2.972903e+00 2.325923e+00 5.641890e+00 3.009633e-01 -5.984070e+00 6.678538e-02 4.606680e+00 -2.334310e+01 -9.144701e-01 5.832906e-01 -5.294272e-01 -8.457706e-02 -1.221083e-02 -1.955182e-01 4.651780e-01 -3.191792e-01 5.078620e-01 3.056756e-01 -6.448613e-02 2.834249e-01 5.635008e-01 -5.770153e-01 5.083936e-01 -5.333588e-01 -4.760060e-02 -2.405231e-02 -8.169430e-02 1.776886e-01 -5.992435e-01 4.770724e-01 1.850987e-01 5.956034e-02 2.605684e-01 9.431724e-01
<VARIANCE> 39
 4.547685e+00 6.527241e+00 7.741840e+00 1.942839e+01 2.075713e+01 1.573289e+01 2.525069e+01 1.438001e+01 2.036837e+01 2.000520e+01 1.770437e+01 1.074207e+01 5.282906e+00 8.286621e-01 8.458843e-01 1.127331e+00 6.705403e-01 1.502810e+00 1.338952e+00 2.754374e+00 2.055993e+00 2.520653e+00 1.699341e+00 1.531785e+00 1.074404e+00 4.222543e-01 1.704213e-01 3.914384e-01 4.594758e-01 2.865647e-01 1.762495e-01 3.082372e-01 7.296623e-01 6.412477e-01 5.842828e-01 3.613423e-01 5.572231e-01 2.167094e-01 3.521848e-01
<GCONST> 9.445578e+01
<MIXTURE> 12 6.313396e-02
<MEAN> 39
 2.296504e+00 1.697121e+01 6.734646e+00 1.148635e+01 -1.832793e+00 -6.442696e+00 1.970668e+00 -1.383705e+01 -6.148589e+00 4.572711e-01 -4.698103e+00 5.719200e+00 -8.162707e+00 1.845918e+00 1.361059e+00 3.071413e+00 -9.160319e-01 -2.086025e+00 -1.709832e+00 1.917770e-01 -3.914651e+00 -1.106293e+00 2.734240e+00 -7.756874e-01 -7.188597e-01 2.967757e+00 -7.869373e-01 -2.066675e+00 -6.265012e-01 -9.579231e-01 1.589115e-01 1.017287e+00 1.479498e-01 1.553227e+00 1.132337e+00 8.061320e-02 2.740727e-01 2.421971e-02 -2.063381e-01
<VARIANCE> 39
 7.329842e+00 1.100866e+01 2.042853e+01 4.435133e+01 4.383569e+01 2.473351e+01 2.723656e+01 6.698476e+01 6.127732e+01 5.138773e+01 3.261957e+01 2.090104e+01 1.049217e+01 3.053295e+00 8.264950e+00 4.096582e+00 2.364242e+00 3.545094e+00 7.349684e+00 2.866351e+00 1.076396e+01 6.864594e+00 3.285141e+00 4.313740e+00 4.280146e+00 2.710171e+00 2.995290e-01 4.320182e-01 5.779287e-01 3.650944e-01 7.859756e-01 4.801207e-01 9.106027e-01 1.827987e+00 1.389832e+00 1.261562e+00 5.118257e-01 3.254654e-01 3.947960e-01
<GCONST> 1.272957e+02
<MIXTURE> 13 9.804618e-02
<MEAN> 39
 -3.681579e+00 -6.449680e+00 -3.268436e+00 5.320660e+00 -8.495194e-01 3.120105e+00 2.524381e+00 3.193672e+00 2.417199e+00 -4.366319e+00 9.053042e-01 5.166086e+00 -2.021320e+01 -2.176040e+00 2.103004e+00 -8.096327e-01 -1.229387e-01 -2.560785e-01 -4.277242e-01 -1.646803e-01 -2.446739e+00 9.791984e-01 2.162022e-01 8.790086e-02 4.176013e-01 3.618393e+00 1.179311e-01 4.758047e-01 1.285322e-01 -7.716064e-01 4.457877e-02 6.988906e-02 -8.127984e-02 -4.216452e-01 -1.100873e-01 2.562226e-01 -1.827753e-01 -2.106238e-01 1.567254e+00
<VARIANCE> 39
 2.889997e+01 1.739502e+01 1.664610e+01 4.072115e+01 5.203557e+01 1.761957e+01 2.288625e+01 3.603171e+01 1.989142e+01 2.719471e+01 1.146167e+01 1.261587e+01 1.818089e+01 6.221711e+00 5.841891e+00 6.798778e+00 2.879265e+00 2.841302e+00 3.373529e+00 4.942565e+00 3.604490e+00 7.861799e+00 2.519475e+00 3.331232e+00 2.049872e+00 4.289642e+00 8.909720e-01 5.234638e-01 1.066063e+00 8.518106e-01 8.496140e-01 5.456320e-01 1.098462e+00 8.202195e-01 6.527445e-01 6.077330e-01 4.282359e-01 4.866082e-01 3.563775e-01
<GCONST> 1.249338e+02
<MIXTURE> 14 4.948298e-02
<MEAN> 39
 6.083836e+00 -5.477000e+00 -1.448124e+01 -1.234272e+01 -3.691080e-01 6.459775e+00 6.178109e+00 6.030720e-02 8.354264e-01 3.024620e+00 3.655977e+00 2.865381e+00 -1.211349e+01 -7.160311e-01 -1.669175e+00 -3.416865e-01 6.046843e-01 -2.476887e+00 1.191896e-01 -2.084575e-01 8.445953e-01 5.657873e-02 -3.631908e-01 -3.284934e-01 7.778493e-01 -1.267367e+00 -9.860739e-02 4.309051e-01 4.754197e-01 4.641976e-01 2.132215e-01 7.565124e-02 8.644667e-03 2.880117e-01 -7.441449e-03 -3.042980e-01 -4.259153e-01 -5.205375e-01 2.551067e-01
<VARIANCE> 39
 1.018537e+01 1.605362e+01 1.148648e+01 2.515304e+01 2.304617e+01 4.352484e+01 1.692831e+01 1.336499e+01 2.397235e+01 2.334285e+01 3.376765e+01 3.708428e+01 1.097001e+01 6.375296e-01 1.142899e+00 1.961780e+00 2.032120e+00 1.845267e+00 2.775823e+00 1.291363e+00 2.862301e+00 2.095992e+00 2.459615e+00 3.778240e+00 5.337972e+00 1.480450e-01 2.133754e-01 1.726538e-01 2.290446e-01 2.719635e-01 4.509833e-01 5.714731e-01 2.005252e-01 4.340916e-01 2.449084e-01 3.093312e-01 7.882960e-01 1.108379e+00 3.713476e-02
<GCONST> 1.014862e+02
<MIXTURE> 15 5.140140e-02
<MEAN> 39
 -1.128530e+00 -9.190119e+00 -1.274844e+00 5.448453e+00 1.484221e+00 3.247998e+00 3.644299e+00 6.855274e+00 1.737181e+00 -3.113302e+00 2.086540e+00 4.456782e+00 -2.241169e+01 -3.826567e-01 -3.438485e-01 -2.939873e-01 6.009405e-02 -5.194057e-02 -1.973610e-02 -1.168296e-01 -5.409554e-01 8.340563e-02 -4.869675e-02 -1.115796e-01 -3.682700e-01 -1.354389e-01 3.214862e-02 9.399847e-02 -1.151339e-01 -9.134942e-02 -7.989687e-02 -1.384164e-01 -1.234328e-01 -3.057215e-02 -1.679510e-01 -1.555474e-01 -1.800602e-01 -1.434136e-02 3.322770e-02
<VARIANCE> 39
 4.836752e+00 3.085822e+00 1.466517e+01 4.909236e+00 2.465923e+01 1.211224e+01 3.809492e+01 1.811796e+01 1.243846e+01 9.601601e+00 1.435567e+01 2.148530e+01 1.927979e+00 1.872841e-01 3.767772e-01 4.575342e-01 2.090427e-01 6.298124e-01 7.906175e-01 6.850202e-01 1.116723e+00 6.766820e-01 7.908992e-01 7.413813e-01 1.501325e+00 6.017933e-02 8.439823e-03 5.661499e-02 7.557751e-02 5.959898e-02 1.338677e-01 7.076122e-02 9.189734e-02 2.346654e-01 1.144491e-01 1.085471e-01 8.864158e-02 1.842725e-01 5.477387e-03
<GCONST> 5.751711e+01
<STATE> 3
<NUMMIXES> 15
<MIXTURE> 1 4.230123e-02
<MEAN> 39
 4.393858e+00 6.305642e+00 -1.035406e+01 -1.793195e+01 1.500769e+00 1.080006e+01 8.329124e+00 -4.938573e+00 -3.860826e+00 6.699229e+00 7.462496e-01 -1.128546e+00 5.087115e+00 -2.363936e-01 -1.025465e+00 -4.260985e-01 -7.689943e-02 1.004613e+00 8.889495e-01 -2.436164e-01 -8.034964e-01 4.508429e-01 9.458407e-01 4.786209e-01 -9.193855e-01 5.983862e-01 3.041374e-03 -3.984639e-01 3.000610e-01 7.970848e-01 7.997404e-02 -3.736995e-01 -5.762298e-01 1.405023e-01 2.591326e-01 -2.069778e-01 -1.333159e-01 -8.226944e-02 -9.319806e-02
<VARIANCE> 39
 5.394664e+00 1.938892e+01 4.706732e+01 2.354190e+01 5.216725e+01 6.545046e+01 5.299661e+01 4.692572e+01 7.584555e+01 6.384475e+01 4.614703e+01 3.929955e+01 7.796284e+00 5.915496e-01 1.954869e+00 3.112373e+00 3.266520e+00 2.403754e+00 3.515248e+00 5.586744e+00 3.725847e+00 4.540635e+00 3.154837e+00 2.215787e+00 3.370817e+00 7.020322e-01 1.148217e-01 2.244072e-01 3.362508e-01 4.127724e-01 5.262706e-01 6.861185e-01 5.531795e-01 7.422942e-01 5.811337e-01 6.519665e-01 3.948717e-01 7.159610e-01 1.167383e-01
<GCONST> 1.173635e+02
<MIXTURE> 2 6.505751e-02
<MEAN> 39
 7.289123e+00 -1.397564e+00 1.870694e+00 3.887075e+00 -1.564213e+00 1.094836e+00 -5.088685e-01 6.458951e+00 5.677539e-02 -3.305076e+00 -1.821331e-01 6.566504e-01 -1.400508e+01 -2.795932e+00 -1.307320e+00 7.241539e-01 -4.277987e-01 3.043803e-02 1.110764e+00 -3.335654e-01 -1.942080e-01 7.448485e-01 2.287539e-01 2.223198e-01 1.001806e+00 1.153717e+00 -1.166497e+00 -2.833673e-01 1.558606e-01 -8.474759e-02 -5.411195e-03 5.779382e-03 -3.455856e-01 -4.424576e-01 7.057636e-02 1.983938e-01 1.978782e-01 3.590989e-02 1.835051e+00
<VARIANCE> 39
 3.831683e+01 4.587326e+01 8.759187e+01 9.374404e+01 5.768615e+01 5.665400e+01 4.150307e+01 8.763723e+01 5.961989e+01 4.304823e+01 3.152929e+01 3.177003e+01 1.466123e+01 5.711796e+00 4.966130e+00 9.414916e+00 7.588952e+00 7.646715e+00 6.905448e+00 5.527098e+00 6.732932e+00 6.170795e+00 4.794986e+00 4.062154e+00 3.238844e+00 7.501018e+00 8.807667e-01 8.295472e-01 1.349769e+00 1.434896e+00 1.004743e+00 1.173996e+00 1.084584e+00 1.219495e+00 1.435163e+00 7.599384e-01 7.687082e-01 5.826066e-01 4.058409e-01
<GCONST> 1.442486e+02
<MIXTURE> 3 7.764022e-02
<MEAN> 39
 -1.655768e+00 -1.990856e+00 1.065540e+01 2.932611e+00 -9.376612e+00 -8.005382e+00 -2.478637e+00 3.868665e+00 -5.152399e+00 -9.180451e-01 8.806431e+00 -1.471182e+00 8.201174e+00 3.488553e-01 -1.003283e-01 -3.263334e-01 3.363267e-01 1.054965e-01 -2.220758e-01 5.809503e-02 1.812673e-02 2.083483e-01 -2.658819e-01 1.678613e-01 2.128373e-02 -2.121769e-01 1.491016e-01 1.333377e-01 -4.922634e-02 2.113681e-01 4.009666e-01 1.554242e-01 3.874051e-02 -1.595289e-01 1.108666e-01 2.337912e-03 -4.170397e-01 6.692287e-02 -4.323291e-01
<VARIANCE> 39
 9.151367e+00 1.655823e+01 2.668520e+01 3.854292e+01 4.598047e+01 2.754346e+01 4.188137e+01 5.669113e+01 6.328243e+01 3.369902e+01 4.001458e+01 3.059613e+01 6.140705e+00 8.928642e-01 1.411607e+00 3.586447e+00 2.266711e+00 3.183450e+00 2.577500e+00 2.470628e+00 2.361682e+00 3.693635e+00 2.515220e+00 2.777805e+00 2.216223e+00 8.975142e-01 1.925726e-01 1.959923e-01 2.901277e-01 3.173675e-01 4.903262e-01 5.845168e-01 4.687137e-01 4.583209e-01 5.198256e-01 3.908746e-01 4.634952e-01 4.769145e-01 1.545833e-01
<GCONST> 1.118546e+02
<MIXTURE> 4 6.841227e-02
<MEAN> 39
 1.416154e+00 -2.254796e+00 -8.254653e+00 -9.150036e+00 7.041009e+00 2.779184e+00 5.614588e-01 -1.640866e+00 1.711629e+00 7.401295e+00 -2.134325e+00 -6.587089e+00 8.621078e+00 -2.710254e-01 -1.247731e+00 -5.345551e-01 1.501498e-01 6.609749e-01 -5.665612e-01 2.415123e-01 1.730878e+00 7.658606e-01 -6.419239e-01 -2.434252e-01 -2.964810e-01 8.247133e-01 -3.929827e-02 2.682106e-01 4.300215e-01 5.988364e-01 -3.912438e-01 -2.564411e-01 4.110947e-02 1.845192e-01 -1.157446e-01 -7.119828e-01 -2.506370e-02 5.471179e-01 -5.334171e-01
<VARIANCE> 39
 1.309356e+01 2.282448e+01 7.156574e+01 5.482737e+01 6.933685e+01 7.563643e+01 6.812312e+01 7.434528e+01 8.153691e+01 6.084024e+01 4.856177e+01 2.461477e+01 9.514658e+00 1.608782e+00 3.781703e+00 4.709586e+00 9.605626e+00 5.846463e+00 7.621940e+00 6.067223e+00 5.032975e+00 5.870364e+00 5.775697e+00 3.024450e+00 4.449209e+00 2.630000e+00 3.516555e-01 4.855599e-01 6.359041e-01 8.681329e-01 8.287086e-01 9.608355e-01 8.651640e-01 1.168889e+00 1.311783e+00 8.523871e-01 6.937355e-01 5.935897e-01 3.321717e-01
<GCONST> 1.360627e+02
<MIXTURE> 5 8.695015e-02
<MEAN> 39
 3.845374e+00 8.943571e+00 8.258874e+00 7.379974e+00 -5.074983e+00 -7.372593e+00 2.598427e+00 -1.042894e+01 -3.106953e+00 4.433411e+00 -4.809617e+00 -2.752902e+00 -2.003815e+00 1.662201e-01 6.737579e-01 1.489409e-01 1.957645e-01 -5.475402e-02 6.734530e-02 -2.039898e-01 -6.140503e-01 3.756002e-01 3.556807e-02 1.941460e-01 -6.285595e-02 -6.376429e-01 -6.080557e-02 -6.964749e-01 -3.961122e-01 -5.086268e-01 4.605289e-01 4.265177e-01 -3.210051e-01 9.253321e-01 -2.514090e-02 -4.034887e-01 1.953211e-01 -3.453918e-02 3.436235e-01
<VARIANCE> 39
 2.014763e+01 3.978619e+01 4.666772e+01 7.130650e+01 7.998125e+01 7.041435e+01 6.003732e+01 6.098195e+01 5.976149e+01 5.592420e+01 5.788174e+01 4.609574e+01 1.491803e+01 6.082687e-01 4.104607e+00 3.140042e+00 3.817533e+00 5.555221e+00 4.911529e+00 5.451888e+00 8.370000e+00 3.397084e+00 6.035713e+00 4.431743e+00 2.687486e+00 1.431380e+00 9.626789e-02 4.880702e-01 6.427874e-01 6.432322e-01 8.123990e-01 8.356096e-01 7.427281e-01 8.616680e-01 6.426036e-01 9.205540e-01 6.373162e-01 5.792280e-01 1.877815e-01
<GCONST> 1.304352e+02
<MIXTURE> 6 6.936117e-02
<MEAN> 39
 7.150880e+00 -8.104934e-01 -2.780525e+00 2.593210e+00 -5.028229e+00 7.617260e+00 -7.883969e+00 -8.291570e+00 -4.705052e+00 1.751110e+00 8.970604e+00 -1.919832e+00 2.476942e+00 7.619374e-01 2.239896e-01 -5.944036e-01 -1.283800e+00 -1.356396e-01 4.932612e-01 5.829497e-02 6.027480e-01 -7.178684e-01 7.200534e-01 2.591833e-01 -7.995582e-01 3.787640e-01 -4.434382e-01 -1.030480e-01 1.195825e-01 1.264247e-01 2.185541e-01 -3.161769e-01 5.708690e-01 5.457603e-01 4.194826e-01 -2.496513e-01 -7.567978e-01 3.158498e-01 -2.058707e-01
<VARIANCE> 39
 1.735795e+01 3.483874e+01 1.022529e+02 7.027876e+01 6.836074e+01 8.468843e+01 5.811809e+01 1.230695e+02 6.181833e+01 5.166559e+01 3.457914e+01 4.571838e+01 1.828560e+01 4.692179e+00 5.223406e+00 7.637081e+00 8.615697e+00 9.592614e+00 6.934730e+00 6.689812e+00 1.271613e+01 9.078583e+00 5.372117e+00 6.620008e+00 4.988729e+00 2.956905e+00 4.892507e-01 5.101160e-01 9.058763e-01 9.326987e-01 1.119247e+00 1.088121e+00 1.107385e+00 1.804634e+00 1.257908e+00 7.609835e-01 8.685294e-01 8.934069e-01 3.533382e-01
<GCONST> 1.453322e+02
<MIXTURE> 7 9.312864e-02
<MEAN> 39
 -8.598909e-01 -5.696038e+00 -6.205177e+00 -7.657218e+00 7.114006e+00 -5.389445e+00 1.615594e+00 8.483727e+00 2.924698e+00 -1.295485e+00 -2.188265e+00 -6.399348e+00 1.152436e+01 1.945910e-01 1.079695e-03 2.957319e-01 9.959851e-02 -2.277354e-02 -1.862564e-01 -2.570768e-01 2.274896e-01 -1.209159e-01 -2.367880e-01 2.391261e-01 1.300481e-01 -1.424154e-01 8.675255e-02 2.523943e-01 3.168832e-01 3.445544e-01 -2.553332e-01 1.992019e-01 -1.085065e-01 -5.202706e-01 -3.251507e-02 1.461328e-01 -5.494805e-02 3.329891e-01 -4.016777e-01
<VARIANCE> 39
 1.476332e+01 1.245189e+01 4.226435e+01 2.977381e+01 3.684721e+01 4.595101e+01 8.891335e+01 5.646438e+01 5.647445e+01 4.376632e+01 5.477820e+01 3.796476e+01 6.778862e+00 6.947297e-01 1.095304e+00 3.958266e+00 2.335195e+00 3.567202e+00 3.216319e+00 5.309416e+00 4.189126e+00 2.670317e+00 2.940595e+00 2.907231e+00 2.624294e+00 9.014542e-01 1.385855e-01 2.241132e-01 3.147331e-01 3.891008e-01 3.544025e-01 4.247209e-01 6.986463e-01 7.254812e-01 5.292782e-01 4.754974e-01 4.137277e-01 4.300694e-01 1.660007e-01
<GCONST> 1.157859e+02
<MIXTURE> 8 5.465659e-02
<MEAN> 39
 -1.461007e+00 2.103563e+00 2.003489e+00 3.350362e+00 2.498691e+00 1.525192e+00 -4.463152e+00 -9.502841e-01 -1.227133e-01 -1.792907e+00 -3.135176e+00 3.355849e+00 -1.655059e+00 -7.854610e-01 -6.602470e-01 -7.547127e-01 -1.485184e+00 -1.809200e-01 3.244933e-01 3.636724e-01 6.248981e-01 -5.924524e-03 4.473773e-01 5.637230e-01 5.040919e-03 2.453000e+00 2.488128e-01 -2.509201e-01 -1.981490e-01 -2.035386e-01 -6.485863e-01 -1.364523e-01 6.600998e-01 -8.525522e-03 -1.403351e-01 3.221840e-01 4.574156e-01 -3.828839e-01 2.131415e-01
<VARIANCE> 39
 4.993143e+01 5.505900e+01 1.807839e+02 1.101449e+02 8.765304e+01 1.000324e+02 8.771470e+01 8.254073e+01 1.064622e+02 6.237743e+01 6.089505e+01 3.650139e+01 2.733900e+01 1.133130e+01 8.834802e+00 1.409388e+01 1.016476e+01 9.960678e+00 7.952197e+00 8.621383e+00 1.370174e+01 1.207255e+01 6.873397e+00 5.898703e+00 5.597795e+00 4.269774e+00 9.651895e-01 1.136936e+00 2.150233e+00 1.768026e+00 1.619149e+00 1.354019e+00 1.570370e+00 1.673818e+00 1.592471e+00 1.179092e+00 7.339213e-01 9.169428e-01 5.862746e-01
<GCONST> 1.582392e+02
<MIXTURE> 9 7.187282e-02
<MEAN> 39
 3.710797e+00 -6.134821e+00 9.916473e-01 2.620598e+00 1.013649e+00 -2.919628e+00 -5.541139e+00 4.715492e+00 1.344478e+00 -1.498135e+00 1.275955e+00 -2.817171e+00 5.584997e+00 1.221533e+00 7.981847e-01 8.749191e-01 2.076497e+00 -1.268938e-01 -3.947438e-01 -1.800244e-01 -1.275542e+00 -6.975602e-02 5.641752e-03 -1.070702e+00 1.057351e+00 -2.201373e+00 -3.850392e-02 6.618146e-01 -5.589987e-02 -4.077580e-01 1.738967e-03 1.259932e-01 6.391118e-01 -3.767506e-01 -1.743208e-01 3.257674e-01 -1.496794e-01 -1.926347e-01 -3.631143e-01
<VARIANCE> 39
 1.844323e+01 2.613505e+01 7.649787e+01 6.296270e+01 6.400278e+01 5.500928e+01 5.801514e+01 7.983772e+01 8.109368e+01 4.152386e+01 5.938280e+01 3.945025e+01 1.095133e+01 1.336345e+00 3.387158e+00 3.093437e+00 4.025929e+00 4.331658e+00 4.655361e+00 5.381370e+00 7.560284e+00 3.989088e+00 4.110657e+00 3.861771e+00 2.704222e+00 1.905849e+00 1.521992e-01 3.591259e-01 4.558348e-01 8.146989e-01 8.188395e-01 9.763549e-01 7.652950e-01 1.106236e+00 6.707490e-01 5.714077e-01 6.106605e-01 6.080756e-01 2.443257e-01
<GCONST> 1.300999e+02
<MIXTURE> 10 8.878221e-02
<MEAN> 39
 8.853539e+00 1.538903e+00 2.024002e+00 5.156450e+00 -7.642583e-02 3.786566e-01 -2.428113e+00 3.207578e+00 -2.003889e+00 -2.359036e+00 -3.869952e-01 -3.758829e-01 -8.686298e+00 5.221887e-01 -1.506239e-02 -3.872276e-03 2.706753e-01 1.757194e-01 2.565116e-01 2.727111e-01 8.762431e-01 -2.227303e-01 -4.774840e-01 -6.220430e-01 1.593407e-01 -2.054879e+00 -6.928399e-01 -1.652682e-01 7.613976e-02 -3.945514e-01 -3.227263e-01 1.394721e-01 8.205479e-02 -2.110625e-01 2.310273e-01 2.112546e-01 2.142014e-01 6.857886e-02 6.147090e-01
<VARIANCE> 39
 5.127149e+01 5.809742e+01 8.970700e+01 8.191803e+01 6.956221e+01 7.484618e+01 5.015419e+01 9.508757e+01 5.293477e+01 5.998911e+01 4.464030e+01 3.260135e+01 2.767823e+01 2.088106e+00 3.046342e+00 3.867019e+00 4.547819e+00 4.378425e+00 4.700237e+00 4.733210e+00 6.380516e+00 3.188520e+00 3.331797e+00 3.116856e+00 2.286833e+00 2.938081e+00 3.271022e-01 4.176588e-01 5.832452e-01 7.241443e-01 7.514336e-01 8.253895e-01 8.254260e-01 8.524435e-01 6.191518e-01 6.879929e-01 6.482257e-01 5.073940e-01 2.811598e-01
<GCONST> 1.339116e+02
<MIXTURE> 11 5.590411e-02
<MEAN> 39
 -1.417565e+00 -5.297437e+00 -5.350775e+00 -8.043262e+00 7.431689e+00 -4.228370e+00 4.245166e+00 7.002077e+00 3.709742e+00 -2.722929e+00 -3.682898e+00 -5.622466e+00 1.214514e+01 2.454700e-02 3.153624e-02 -1.243439e-01 -1.079272e-01 3.084979e-01 -5.142443e-02 -2.163743e-01 3.088210e-01 -5.057974e-02 -2.430508e-01 2.669841e-01 -2.584760e-01 -3.117460e-02 1.171239e-01 4.422300e-02 2.404761e-01 2.006605e-01 -2.252546e-01 2.285356e-02 -4.225497e-01 -4.499940e-02 1.855805e-02 1.798764e-01 1.067427e-01 5.444000e-02 -1.960611e-01
<VARIANCE> 39
 1.147795e+01 9.705760e+00 3.970509e+01 2.470841e+01 4.352821e+01 4.456450e+01 5.474923e+01 5.272196e+01 4.988761e+01 5.791015e+01 3.561591e+01 2.609196e+01 2.924426e+00 1.640769e-01 2.521159e-01 9.719214e-01 6.134291e-01 1.723647e+00 7.398450e-01 1.599964e+00 1.187287e+00 1.794789e+00 1.416682e+00 1.578987e+00 1.172933e+00 1.041761e-01 3.694234e-02 6.610238e-02 1.538173e-01 1.232468e-01 1.935293e-01 1.499707e-01 2.527646e-01 2.860775e-01 3.305484e-01 3.048046e-01 2.533183e-01 2.200686e-01 2.540963e-02
<GCONST> 8.616187e+01
<MIXTURE> 12 4.392168e-02
<MEAN> 39
 -1.126607e+01 -1.086120e+01 5.488819e+00 6.905335e+00 -4.408804e+00 5.701377e+00 -2.352421e+00 2.988114e+00 6.494660e+00 -3.280069e+00 4.357935e-01 4.399869e+00 2.222401e+00 -5.944946e-01 5.655974e-01 2.877658e-01 -5.469089e-01 -1.061165e-01 -7.958832e-01 -1.471926e+00 -1.454261e+00 -5.804390e-01 -1.996873e-02 7.074147e-01 -7.129549e-01 3.831428e+00 1.927829e+00 1.438056e+00 -7.019733e-01 -8.249030e-01 2.320891e-01 -5.932475e-01 -1.060919e-01 -2.582718e-01 -1.024903e+00 1.820648e-01 2.220109e-01 -6.652649e-01 -8.412423e-01
<VARIANCE> 39
 5.723206e+01 5.602942e+01 1.077286e+02 9.029665e+01 7.031239e+01 6.414261e+01 6.331045e+01 7.210500e+01 4.995351e+01 5.171021e+01 3.899244e+01 2.543620e+01 3.261520e+01 1.252969e+01 9.682675e+00 1.001945e+01 1.085480e+01 6.616619e+00 6.130158e+00 7.997654e+00 1.013954e+01 8.374679e+00 5.176096e+00 4.604745e+00 5.028731e+00 8.158517e+00 8.510807e-01 1.036956e+00 1.347226e+00 2.264289e+00 1.789649e+00 1.735781e+00 1.554528e+00 1.832580e+00 1.282486e+00 1.126731e+00 7.759954e-01 7.632031e-01 8.699585e-01
<GCONST> 1.534865e+02
<MIXTURE> 13 5.124297e-02
<MEAN> 39
 -7.063672e+00 5.895813e+00 2.020996e+01 6.929895e+00 -1.274645e+01 -7.484499e+00 -3.825673e-01 -1.593445e+00 -7.876935e+00 -1.622523e+00 7.215065e+00 2.401106e+00 3.761261e+00 3.286079e-01 1.268595e-01 -2.909606e-01 -2.211209e-01 -4.632993e-01 -6.434200e-01 -9.218502e-02 1.674191e-01 1.102016e-01 2.761113e-01 3.393947e-01 -2.059850e-01 4.141739e-02 3.351048e-01 -2.916752e-01 -7.874230e-01 3.339097e-02 5.991771e-01 3.853466e-01 -1.124460e-01 2.889755e-02 5.319397e-01 -3.230417e-02 -3.524536e-01 -8.549502e-02 -4.423294e-01
<VARIANCE> 39
 1.999492e+01 2.676490e+01 4.543808e+01 5.433987e+01 2.759405e+01 5.130221e+01 4.046886e+01 4.853086e+01 4.217316e+01 2.999371e+01 3.562635e+01 3.436094e+01 1.398987e+01 4.160930e+00 5.037695e+00 5.601491e+00 3.699604e+00 7.451075e+00 5.565666e+00 3.671241e+00 3.388009e+00 5.324390e+00 2.407617e+00 4.702453e+00 2.813511e+00 4.047050e+00 4.416988e-01 5.296330e-01 7.067212e-01 6.851474e-01 9.607615e-01 6.980042e-01 6.431547e-01 8.486331e-01 8.488114e-01 4.853988e-01 6.169801e-01 5.267453e-01 4.025724e-01
<GCONST> 1.302482e+02
<MIXTURE> 14 7.969836e-02
<MEAN> 39
 5.976595e+00 6.261696e+00 -4.403419e+00 -6.291956e+00 -2.157487e+00 4.387330e+00 2.635692e+00 -8.039157e+00 -4.574703e+00 2.639191e+00 -4.625761e+00 -2.314968e+00 2.445435e+00 1.321238e-01 6.148937e-01 2.506176e-01 -7.306319e-02 3.999061e-03 -2.675725e-01 4.602913e-01 -2.314974e-01 -2.573000e-01 9.592865e-02 -5.512066e-01 -6.806313e-02 -4.753557e-01 -6.207996e-02 -1.905932e-01 4.848757e-02 1.765290e-01 4.503245e-02 -3.640338e-02 -1.733645e-01 1.761352e-01 -3.501322e-03 -2.940440e-02 3.348244e-01 -3.350905e-02 2.916567e-02
<VARIANCE> 39
 5.877081e+00 2.149740e+01 6.203624e+01 1.047011e+02 6.928002e+01 8.935342e+01 9.248119e+01 1.230858e+02 5.127275e+01 5.129264e+01 5.987343e+01 4.717381e+01 7.600224e+00 3.858650e-01 7.782679e-01 1.916176e+00 3.494315e+00 2.104867e+00 2.432520e+00 4.083311e+00 4.050588e+00 2.957091e+00 2.297284e+00 3.244866e+00 2.057794e+00 3.604695e-01 7.469070e-02 1.575369e-01 3.371523e-01 4.182801e-01 3.681501e-01 4.471628e-01 5.899178e-01 7.914321e-01 5.034251e-01 4.805806e-01 4.263213e-01 3.195909e-01 7.807729e-02
<GCONST> 1.142169e+02
<MIXTURE> 15 5.105765e-02
<MEAN> 39
 -1.016365e+01 -6.362514e-01 -6.287832e-01 -3.137465e+00 2.949784e+00 2.962552e+00 -3.207948e+00 7.456945e+00 7.121473e+00 -1.602672e+00 -1.443807e+00 2.959772e+00 2.234619e+00 -7.225998e-02 4.813468e-01 4.358502e-01 3.517732e-01 -4.930516e-01 -7.210543e-02 4.513617e-01 -2.884486e-01 -9.980080e-01 -4.860893e-01 4.022802e-01 -4.199886e-02 -2.476012e-01 7.162989e-01 6.821454e-03 -2.098393e-01 1.074457e-01 -7.443295e-02 -3.132584e-01 8.517679e-02 -1.959586e-01 -4.000862e-01 1.242573e-01 1.087914e-01 -3.729826e-01 -2.943959e-01
<VARIANCE> 39
 8.071217e+01 2.237730e+01 8.411642e+01 6.089983e+01 4.994014e+01 4.147945e+01 5.358591e+01 7.914871e+01 3.814972e+01 3.381898e+01 5.009410e+01 3.985578e+01 7.236035e+01 1.079850e+01 4.758258e+00 5.065564e+00 5.505800e+00 5.919109e+00 6.603252e+00 5.791256e+00 6.196436e+00 5.848950e+00 3.869437e+00 4.047241e+00 4.139387e+00 6.149230e+00 9.477755e-01 5.771805e-01 6.798763e-01 6.832394e-01 8.210379e-01 8.374267e-01 1.016302e+00 7.901449e-01 7.074353e-01 8.163116e-01 8.819904e-01 6.181139e-01 5.352550e-01
<GCONST> 1.412728e+02
<STATE> 4
<NUMMIXES> 15
<MIXTURE> 1 7.896093e-02
<MEAN> 39
 1.289788e+01 7.091645e+00 -1.421479e+01 -1.323033e+00 -1.233008e+01 1.429506e+01 2.017495e+00 -6.587027e-01 -1.118955e+01 -2.061166e+00 6.186355e+00 1.018725e+01 -4.999930e+00 6.806175e-01 1.811573e-01 -9.441949e-01 -4.453414e-01 5.649296e-02 -7.724797e-02 5.193436e-01 -1.905379e-01 -7.380332e-01 4.901460e-01 -9.784403e-02 3.062847e-01 2.215695e-01 -6.017585e-01 -4.213918e-01 5.352478e-01 2.146873e-01 8.951492e-01 -1.163832e-01 -3.422167e-01 -1.404714e-01 5.968239e-01 3.346002e-02 -2.722108e-01 -3.015285e-01 -8.442758e-02
<VARIANCE> 39
 9.261465e+00 3.124926e+01 3.802920e+01 4.860003e+01 9.459531e+01 6.257964e+01 7.738418e+01 7.037975e+01 8.531918e+01 2.985561e+01 5.439508e+01 2.162226e+01 9.354813e+00 3.278286e+00 2.633470e+00 4.757874e+00 3.343087e+00 1.371769e+01 5.112919e+00 5.540535e+00 6.095369e+00 8.127121e+00 4.160565e+00 3.821066e+00 2.198807e+00 1.724088e+00 7.555577e-01 4.120245e-01 8.029222e-01 3.984587e-01 7.138513e-01 7.944736e-01 7.142749e-01 1.147664e+00 1.306508e+00 7.315747e-01 8.851018e-01 4.792936e-01 1.076644e-01
<GCONST> 1.319868e+02
<MIXTURE> 2 8.148291e-02
<MEAN> 39
 -2.579188e+01 -1.288780e-01 5.228656e+00 4.443561e+00 9.410661e-01 5.897834e-01 2.813146e+00 4.286177e+00 3.236964e+00 -1.997244e+00 1.788135e+00 7.581944e+00 -1.223921e+00 -6.667136e-01 -9.661367e-01 -7.754914e-01 -1.136003e-01 3.486069e-01 8.411460e-01 2.994041e-01 6.900845e-02 2.480810e-01 3.304214e-01 2.229604e-01 2.675444e-01 -4.947146e-01 7.567949e-01 2.541505e-01 9.871107e-02 -1.978254e-01 1.676597e-01 1.327502e-01 -2.070147e-01 -1.029953e-01 -9.834497e-02 -1.677316e-01 3.487272e-02 -8.461706e-02 -8.676443e-02
<VARIANCE> 39
 2.104396e+01 7.956844e+01 4.202594e+01 3.934756e+01 5.048333e+01 3.693802e+01 3.163802e+01 3.983279e+01 2.004676e+01 2.035516e+01 3.114794e+01 1.901047e+01 8.622156e+00 4.161326e+00 2.287235e+00 1.367941e+00 1.489511e+00 2.012685e+00 3.228688e+00 2.852103e+00 2.423058e+00 2.008787e+00 1.656381e+00 2.082965e+00 8.407053e-01 3.631876e-01 4.731456e-01 7.663264e-01 3.799928e-01 4.528137e-01 3.344538e-01 6.503075e-01 7.016307e-01 6.515423e-01 4.437366e-01 3.349022e-01 5.566441e-01 2.546974e-01 1.480597e-01
<GCONST> 1.123970e+02
<MIXTURE> 3 6.650949e-02
<MEAN> 39
 -2.590388e-02 8.055738e+00 -4.528964e+00 3.441807e+00 1.017725e+01 -9.807884e+00 -3.159582e+00 -1.086162e+01 6.713070e+00 7.654378e+00 -5.215619e+00 -1.795838e-01 -2.143057e+00 9.801566e-03 1.547194e+00 1.409310e+00 1.613234e+00 1.437028e+00 -4.936624e-01 -8.153217e-01 -8.727444e-01 -2.312294e-01 -1.765076e+00 5.964950e-01 2.043520e-01 -2.170595e+00 -1.998901e-01 -1.372479e-01 3.203301e-01 -1.116186e-01 -3.342278e-01 3.451155e-01 4.664015e-01 2.550643e-01 1.404364e-01 -5.308921e-01 5.280596e-02 2.014496e-01 -3.166136e-02
<VARIANCE> 39
 2.105245e+01 3.767730e+01 5.772350e+01 5.112854e+01 6.135620e+01 3.417939e+01 7.523798e+01 7.110634e+01 1.366228e+02 5.724221e+01 6.728384e+01 3.296110e+01 1.579296e+01 6.985087e-01 1.374830e+00 4.177658e+00 2.408343e+00 2.722301e+00 2.762160e+00 4.753891e+00 5.619548e+00 4.849079e+00 5.404910e+00 2.978812e+00 2.815941e+00 6.251858e-01 9.823239e-02 2.688631e-01 5.425291e-01 5.020927e-01 5.729495e-01 6.724249e-01 6.749635e-01 9.622476e-01 8.409316e-01 7.389677e-01 5.874537e-01 4.400885e-01 7.553060e-02
<GCONST> 1.237673e+02
<MIXTURE> 4 3.707001e-02
<MEAN> 39
 1.146097e+01 -7.588966e-01 -1.035838e+01 2.510172e+00 3.954072e+00 1.258092e+01 -7.669681e+00 -5.139041e+00 -1.686255e+00 1.004359e+00 3.966993e+00 7.267829e+00 -7.848236e+00 -1.912425e+00 -1.335263e+00 2.669862e+00 7.779615e-01 2.125208e+00 -1.848214e+00 -1.497965e+00 1.265556e+00 3.011005e+00 -1.502247e+00 -4.801625e-01 -4.963454e-01 -7.581192e-01 -1.210054e+00 8.328213e-02 5.286765e-01 -4.956317e-01 -1.063331e+00 -3.463554e-01 4.705467e-01 2.930565e-01 1.913575e-01 -8.203004e-03 2.746136e-01 5.155766e-02 7.678355e-01
<VARIANCE> 39
 3.653524e+01 2.062281e+01 5.708242e+01 5.385496e+01 3.405394e+01 2.412634e+01 5.657243e+01 5.019450e+01 7.986275e+01 4.130843e+01 3.957349e+01 2.552361e+01 2.220976e+01 8.569045e+00 3.846006e+00 6.907121e+00 5.290455e+00 9.575412e+00 3.704341e+00 1.123116e+01 1.313428e+01 1.112412e+01 9.021313e+00 4.239536e+00 2.862609e+00 4.784153e+00 8.107025e-01 5.353006e-01 1.308881e+00 1.185217e+00 1.412987e+00 5.582809e-01 1.453097e+00 1.040933e+00 1.105674e+00 6.595777e-01 6.496525e-01 5.293010e-01 3.690796e-01
<GCONST> 1.408425e+02
<MIXTURE> 5 5.995437e-02
<MEAN> 39
 1.067706e-01 -7.566882e+00 -5.613624e-01 2.949856e+00 2.905886e-01 1.164910e+00 1.183746e+00 3.570190e+00 4.430710e-01 -3.384666e+00 -1.747678e+00 4.384496e+00 -2.141202e+01 -1.960277e-02 -5.048637e-01 -4.047728e-01 3.364580e-01 -1.433578e-01 3.278797e-01 2.418658e-01 2.821479e-01 1.645474e-01 -1.369511e-01 1.413237e-01 -1.062081e-01 -5.270357e-01 -9.785508e-02 3.208256e-01 6.482599e-02 -3.152917e-02 1.758706e-01 -1.434599e-01 -6.181188e-02 -3.124314e-01 6.776781e-02 -1.570230e-02 3.021314e-02 -2.265287e-03 2.879774e-01
<VARIANCE> 39
 7.870254e+00 6.680373e+00 1.078322e+01 2.176037e+01 1.691408e+01 8.729281e+00 1.731754e+01 2.384596e+01 1.279859e+01 2.824430e+01 1.864682e+01 2.340785e+01 3.452580e+00 3.210356e-01 3.725168e-01 8.289264e-01 1.053795e+00 7.583641e-01 1.553264e+00 1.568720e+00 2.011779e+00 2.064780e+00 1.891541e+00 1.940619e+00 8.542820e-01 7.893313e-02 1.217233e-01 1.424261e-01 2.049728e-01 1.698700e-01 2.371865e-01 2.259752e-01 3.221672e-01 3.069455e-01 4.372995e-01 2.866045e-01 2.464062e-01 1.689123e-01 4.789585e-02
<GCONST> 8.275954e+01
<MIXTURE> 6 5.268421e-02
<MEAN> 39
 -5.713658e+00 2.778762e+00 1.312003e+01 4.621963e+00 -5.789114e+00 -1.672388e+01 6.868139e+00 7.307354e+00 -6.269146e+00 -5.117397e+00 2.359840e+00 4.561770e+00 9.841344e-02 1.126981e-01 -7.281875e-02 1.356936e+00 5.535815e-01 -8.545989e-01 5.746992e-01 -3.400072e-03 1.372272e-01 -6.058717e-01 -6.198729e-01 4.892274e-01 5.705841e-01 -9.459355e-01 -4.459012e-01 -2.621198e-01 -5.286148e-01 -2.748956e-01 4.091955e-01 8.197640e-01 -2.114384e-01 -8.697025e-02 5.950775e-01 8.335745e-02 -1.921771e-01 -8.510953e-02 -1.443656e-01
<VARIANCE> 39
 2.122292e+01 5.047011e+01 1.078181e+02 2.233364e+01 2.956209e+01 1.192320e+02 3.130988e+01 5.407429e+01 3.918005e+01 2.696736e+01 2.966309e+01 2.566817e+01 2.207942e+01 7.018680e+00 2.445913e+00 6.579560e+00 4.261407e+00 3.053804e+00 9.881700e+00 3.244993e+00 4.999045e+00 7.012731e+00 3.989029e+00 2.495202e+00 1.951857e+00 1.926594e+00 7.399005e-01 2.465937e-01 1.010995e+00 7.430239e-01 7.115421e-01 6.528432e-01 8.325279e-01 6.398638e-01 1.116487e+00 7.552612e-01 4.090853e-01 3.177445e-01 1.117362e-01
<GCONST> 1.288885e+02
<MIXTURE> 7 4.239526e-02
<MEAN> 39
 5.105397e+00 7.917533e+00 -1.299945e+01 -1.227882e+01 1.541733e+00 9.285494e+00 7.259322e+00 -1.370789e+01 -1.330345e+00 1.645707e+01 2.665185e+00 8.776292e-01 4.598680e+00 -6.224776e-01 -1.531907e+00 7.727129e-01 8.081478e-01 -6.292492e-01 1.401707e+00 -2.283733e+00 -1.245582e+00 1.437119e+00 1.040163e+00 1.162878e-01 -2.913287e-01 5.612770e-01 1.078948e-01 -2.333665e-01 1.250151e-01 6.099625e-01 -2.486173e-02 -1.381154e-01 -4.796740e-01 6.060639e-01 4.079211e-01 -1.123890e+00 -1.668896e-01 3.832716e-01 -4.185326e-01
<VARIANCE> 39
 1.108713e+01 1.918508e+01 4.889729e+01 6.090529e+01 3.836375e+01 6.442986e+01 8.749026e+01 8.758569e+01 3.221930e+01 4.608368e+01 1.859842e+01 4.124956e+01 7.045407e+00 1.258485e+00 7.136861e-01 1.631038e+00 5.683547e+00 2.577373e+00 2.284293e+00 6.050818e+00 7.666797e+00 2.876611e+00 1.058444e+01 2.430680e+00 2.526366e+00 2.438472e+00 3.017265e-01 1.749988e-01 3.300075e-01 4.287718e-01 1.033284e+00 7.107964e-01 1.379703e+00 2.098981e+00 2.907160e-01 1.358571e+00 3.547833e-01 4.533548e-01 1.330400e-01
<GCONST> 1.226274e+02
<MIXTURE> 8 1.024200e-01
<MEAN> 39
 -1.335817e+01 -6.310366e+00 2.221159e+00 1.973791e+00 4.417341e+00 7.234731e+00 -6.493288e+00 3.817550e-02 4.349131e+00 -3.279967e+00 1.733565e+00 6.114294e+00 -1.657185e+00 -7.437060e-01 1.186049e+00 -1.090987e+00 -1.047809e+00 -6.385604e-01 -5.043482e-01 6.937307e-01 4.263620e-01 6.805543e-01 4.891109e-02 1.109129e-01 3.735760e-01 1.060441e+00 1.271620e+00 7.359183e-01 -3.371621e-01 1.035984e-01 -4.386806e-01 -6.673343e-01 8.122729e-01 -2.159907e-02 -5.468034e-01 2.411398e-01 -6.695040e-02 -1.479128e-01 -4.370971e-01
<VARIANCE> 39
 8.796045e+01 1.006648e+02 1.093950e+02 5.237317e+01 4.217432e+01 7.711684e+01 6.690080e+01 3.770374e+01 4.592662e+01 3.181456e+01 4.051040e+01 2.361247e+01 2.631831e+01 2.353440e+01 9.309764e+00 1.003634e+01 5.481344e+00 4.939215e+00 7.551122e+00 6.225180e+00 3.908911e+00 7.265705e+00 4.420509e+00 4.836705e+00 3.091923e+00 8.501289e+00 1.139629e+00 1.462515e+00 1.491899e+00 1.144442e+00 1.147845e+00 1.413661e+00 1.280159e+00 1.061767e+00 8.395494e-01 1.276911e+00 8.560160e-01 5.109461e-01 6.706573e-01
<GCONST> 1.479624e+02
<MIXTURE> 9 6.562063e-02
<MEAN> 39
 -3.637182e+00 -2.641328e+00 1.386520e+00 2.332280e+00 3.330497e+00 -5.917706e-01 6.316509e-01 -3.949892e+00 2.757593e+00 -5.124715e+00 -3.544302e+00 7.248084e+00 -1.708567e+01 7.657357e-01 -2.128587e+00 1.041644e-02 -3.605518e-01 -1.792019e+00 2.620440e-01 -6.455025e-01 1.764137e+00 -1.024841e+00 -5.666463e-01 4.482053e-01 -3.462086e-01 -1.656528e+00 -1.813092e-02 3.301431e-01 -2.958275e-01 3.059224e-01 5.102474e-01 1.728086e-01 1.814450e-01 -1.913556e-01 -7.863730e-02 2.737417e-01 2.012714e-01 -1.548979e-01 3.484777e-01
<VARIANCE> 39
 3.826136e+01 2.327724e+01 3.264578e+01 5.428239e+01 2.856269e+01 4.052748e+01 4.376165e+01 5.393493e+01 3.528205e+01 5.098151e+01 3.598697e+01 1.908405e+01 1.252007e+01 3.459656e+00 2.351988e+00 4.528139e+00 4.334472e+00 2.760126e+00 4.642839e+00 4.444306e+00 3.864182e+00 5.895968e+00 4.210016e+00 2.698320e+00 1.872352e+00 6.872778e-01 3.149336e-01 2.968434e-01 9.218778e-01 5.164732e-01 4.032091e-01 7.102308e-01 5.940546e-01 6.963404e-01 9.890507e-01 8.883780e-01 4.275977e-01 4.282925e-01 9.528774e-02
<GCONST> 1.228248e+02
<MIXTURE> 10 6.638452e-02
<MEAN> 39
 -3.491193e+00 1.828523e+00 -4.634279e+00 3.725835e+00 -4.186207e-01 -3.962457e+00 4.630477e+00 -5.588099e+00 1.390020e+01 4.793574e+00 -5.914652e+00 4.729294e+00 7.500737e+00 2.470538e-01 4.231791e-01 -2.073845e-01 -1.460063e-01 1.013116e+00 -1.049513e-01 -4.453903e-02 -4.539147e-01 4.050448e-01 8.310249e-02 -4.867465e-01 -4.394882e-02 -5.832368e-01 1.279194e-01 2.386942e-01 3.173128e-01 5.926838e-02 1.412806e-01 -1.253944e-01 -5.317051e-01 1.349926e-02 -2.130898e-01 -7.941670e-02 2.750737e-01 -7.305575e-02 -5.570990e-01
<VARIANCE> 39
 4.398003e+00 9.610779e+00 1.639498e+01 3.543385e+01 3.558333e+01 1.815491e+01 4.005048e+01 3.726441e+01 2.049607e+01 3.533987e+01 2.512109e+01 2.999304e+01 7.337687e+00 7.734486e-01 1.136447e+00 1.720492e+00 2.816063e+00 3.452902e+00 2.344238e+00 4.235476e+00 3.450161e+00 2.459298e+00 4.083207e+00 1.386719e+00 2.222965e+00 1.393703e+00 1.395709e-01 2.093315e-01 3.305635e-01 3.738406e-01 4.051088e-01 5.161448e-01 6.329314e-01 5.084568e-01 4.040762e-01 5.692544e-01 3.087771e-01 3.187903e-01 2.704498e-01
<GCONST> 1.073361e+02
<MIXTURE> 11 6.897346e-02
<MEAN> 39
 -1.916541e+00 1.024140e+00 -5.159501e+00 -2.397124e+00 6.042474e+00 -3.008329e+00 7.637553e-01 9.841702e-01 6.464577e+00 2.477133e+00 -2.996559e+00 6.103145e-01 4.260069e+00 1.770648e+00 8.812650e-01 -2.001584e+00 -3.355809e-01 4.632688e-01 -1.243219e+00 2.034799e+00 -1.389394e+00 -7.383554e-03 1.159513e+00 -1.452848e+00 -5.724424e-01 1.082036e+00 -3.631982e-01 -4.677314e-01 1.424918e-01 4.839580e-01 7.755069e-02 5.770784e-01 1.522723e-01 -2.639568e-01 -4.231381e-01 -1.833166e-01 -1.461354e-02 2.041377e-01 -6.789741e-01
<VARIANCE> 39
 2.860201e+01 3.746776e+01 4.894381e+01 4.198638e+01 1.829618e+02 7.135781e+01 6.660953e+01 5.062033e+01 7.332639e+01 6.192053e+01 7.306092e+01 4.354170e+01 2.290824e+01 8.695049e+00 5.552770e+00 5.280834e+00 7.126364e+00 7.750988e+00 8.010072e+00 7.423245e+00 3.873448e+00 4.746026e+00 3.826872e+00 4.637864e+00 3.255408e+00 6.588764e+00 1.151925e+00 1.132812e+00 9.119261e-01 7.917323e-01 1.684106e+00 1.080471e+00 1.065872e+00 1.196604e+00 1.045021e+00 1.045398e+00 1.034097e+00 5.406047e-01 3.971392e-01
<GCONST> 1.453569e+02
<MIXTURE> 12 5.998615e-02
<MEAN> 39
 -2.568596e+01 2.517312e+00 6.814830e+00 -2.329751e+00 4.683725e+00 5.166995e+00 -1.504900e-01 6.512485e+00 4.706514e+00 -3.531060e+00 3.961126e+00 8.211919e+00 -4.812634e+00 1.092455e+00 3.539580e-02 -5.105984e-01 2.352187e-01 6.933586e-01 -2.504032e-01 -2.366026e-01 -3.290546e-01 -1.478682e-02 9.309620e-02 -1.145630e+00 -6.105171e-01 -6.023421e-01 8.339111e-01 -1.841016e-01 -1.798033e-01 4.013286e-01 -3.223905e-01 -5.084859e-01 -2.428604e-02 -2.251643e-01 -2.671084e-01 1.260153e-01 -1.936408e-01 -1.535416e-01 -1.249570e-02
<VARIANCE> 39
 1.913454e+01 2.020561e+01 2.186510e+01 2.016852e+01 4.618335e+01 3.527985e+01 3.129216e+01 2.185674e+01 1.504328e+01 1.738323e+01 2.539388e+01 2.144960e+01 1.595569e+01 1.010967e+01 2.930952e+00 3.660657e+00 3.515663e+00 1.966314e+00 2.981308e+00 3.452118e+00 3.174039e+00 2.205286e+00 1.815251e+00 1.666439e+00 1.580652e+00 5.162494e+00 7.485591e-01 6.733101e-01 3.557433e-01 5.280086e-01 3.242180e-01 6.088971e-01 5.193104e-01 3.540149e-01 3.912280e-01 2.205543e-01 3.041250e-01 2.494403e-01 3.196093e-01
<GCONST> 1.145441e+02
<MIXTURE> 13 8.107878e-02
<MEAN> 39
 -2.776043e+00 8.469861e+00 -8.893940e-01 9.079062e+00 1.469270e+01 -3.527761e+00 3.828681e+00 -1.474141e+01 5.033075e+00 -2.124735e+00 -7.349140e+00 4.408583e+00 -9.706414e+00 -3.636794e-01 -1.164005e+00 8.503421e-01 5.350213e-02 -1.586404e+00 1.156902e+00 8.302600e-01 6.233366e-02 -2.809299e-01 -8.133312e-01 5.124524e-01 1.146174e+00 -1.609184e+00 2.605579e-02 -7.606276e-01 -3.060528e-02 -6.362162e-01 -6.276724e-01 -6.900249e-02 -2.847188e-01 9.119680e-01 -1.100441e-01 3.579829e-02 1.011160e-01 -1.172646e-01 2.594097e-02
<VARIANCE> 39
 3.613532e+01 4.353255e+01 8.183089e+01 5.031469e+01 6.444246e+01 1.092573e+02 4.511914e+01 3.560271e+01 1.016308e+02 4.462893e+01 3.288488e+01 2.396824e+01 2.978895e+01 1.102189e+00 4.150413e+00 5.996886e+00 5.047999e+00 4.078119e+00 3.102088e+00 5.474093e+00 7.618394e+00 5.465914e+00 5.231986e+00 2.941725e+00 2.319547e+00 5.522180e-01 2.015192e-01 3.585004e-01 1.008869e+00 9.868360e-01 4.630989e-01 6.878890e-01 1.132960e+00 7.819824e-01 1.145495e+00 9.160421e-01 5.676121e-01 4.734607e-01 1.056582e-01
<GCONST> 1.305541e+02
<MIXTURE> 14 8.882536e-02
<MEAN> 39
 1.995624e+00 -4.472673e-01 4.525540e+00 3.858098e+00 -4.439324e-01 -1.166707e+00 2.868303e-01 -4.630955e-01 -2.794940e+00 -5.018094e+00 -1.279732e+00 1.995584e+00 -1.691124e+01 -9.237370e-01 -4.835432e-01 -8.863693e-01 -5.420770e-01 4.381972e-01 6.171955e-01 -7.647212e-02 1.034284e+00 2.923558e-01 4.003843e-01 -3.966159e-01 9.385204e-02 -4.015330e-02 -8.389981e-01 6.469413e-03 -4.631703e-02 -4.159512e-01 -1.540512e-01 4.196688e-02 -7.380841e-02 -3.804966e-02 3.661407e-01 6.219979e-01 1.083925e-01 1.679647e-01 1.222716e+00
<VARIANCE> 39
 4.011732e+01 3.668675e+01 7.267978e+01 3.849128e+01 1.607341e+01 4.762561e+01 3.407999e+01 4.305392e+01 5.362121e+01 5.001558e+01 2.760022e+01 1.770571e+01 2.351707e+01 6.460527e+00 4.955964e+00 4.611574e+00 3.070182e+00 3.917444e+00 7.538154e+00 3.458266e+00 5.007348e+00 4.054516e+00 5.942012e+00 2.703309e+00 2.812793e+00 8.753705e+00 6.681488e-01 4.364364e-01 1.012372e+00 4.930651e-01 5.852777e-01 1.142977e+00 6.370458e-01 7.823484e-01 6.318929e-01 9.531049e-01 4.877648e-01 3.868111e-01 5.167304e-01
<GCONST> 1.319564e+02
<MIXTURE> 15 4.765220e-02
<MEAN> 39
 -2.425707e+00 1.647738e+00 -1.115950e+01 -7.067118e+00 4.670225e+00 -9.009055e+00 2.562772e+00 -3.093596e+00 9.761250e+00 7.322789e+00 -4.295794e+00 -1.204122e+00 7.698660e+00 -1.363488e-01 4.576130e-01 5.786481e-01 1.623394e-01 -8.476425e-01 -1.059575e+00 -3.216532e-01 -4.623524e-01 -1.456818e+00 -5.247142e-02 5.390273e-01 3.420545e-01 -7.187243e-01 4.478631e-02 1.081053e-01 3.497081e-01 4.547710e-01 2.083599e-01 -6.623484e-02 -1.401745e-01 3.597545e-02 -3.170367e-01 -1.011560e-01 2.237185e-01 3.548497e-02 -3.465944e-01
<VARIANCE> 39
 2.061034e+01 2.203051e+01 4.807398e+01 1.865405e+01 3.869401e+01 2.258540e+01 6.278819e+01 1.265694e+02 1.982029e+01 8.244675e+01 3.211790e+01 1.530456e+01 8.252671e+00 2.175406e-01 9.275863e-01 8.620440e-01 2.955528e+00 2.426370e+00 1.808982e+00 4.010880e+00 7.599163e+00 2.145974e+00 2.783227e+00 3.117922e+00 1.120683e+00 3.613812e-01 7.679464e-02 1.084186e-01 1.889180e-01 2.902888e-01 4.601118e-01 2.941654e-01 3.651415e-01 5.389469e-01 3.937312e-01 5.658960e-01 4.844806e-01 1.985382e-01 9.566239e-02
<GCONST> 1.047991e+02
<TRANSP> 5
 0.000000e+00 1.000000e+00 0.000000e+00 0.000000e+00 0.000000e+00
 0.000000e+00 9.434780e-01 5.652205e-02 0.000000e+00 0.000000e+00
 0.000000e+00 0.000000e+00 9.939061e-01 6.093855e-03 0.000000e+00
 0.000000e+00 0.000000e+00 0.000000e+00 9.750466e-01 2.495333e-02
 0.000000e+00 0.000000e+00 0.000000e+00 0.000000e+00 0.000000e+00
<ENDHMM>
~h "M002"
<BEGINHMM>
<NUMSTATES> 5
<STATE> 2
<NUMMIXES> 15
<MIXTURE> 1 6.781472e-02
<MEAN> 39
 -1.522635e+00 -4.533353e-01 -2.466631e+00 6.176781e+00 5.881350e+00 -3.212313e+00 1.081715e+01 2.595646e-02 6.337519e-01 -2.283310e+00 -3.106081e+00 4.515386e+00 -2.646079e+01 -2.252283e-01 3.803677e-01 1.745581e-01 1.056170e-01 -1.411760e-01 2.666995e-01 -3.461594e-01 -2.682018e-01 -1.026095e-01 9.813430e-02 1.301900e-01 -8.378930e-02 1.253540e+00 -1.297069e-01 1.937272e-01 9.588344e-02 -1.904138e-01 3.857191e-03 4.349411e-02 -1.555151e-01 7.150244e-03 -2.706825e-04 1.705382e-01 1.120469e-01 -6.432799e-03 7.902890e-01
<VARIANCE> 39
 1.901418e+01 2.116690e+01 1.705921e+01 2.529962e+01 3.887154e+01 2.481023e+01 4.237274e+01 2.712164e+01 1.950338e+01 2.693782e+01 2.640311e+01 2.055094e+01 8.328265e+01 2.720440e+00 1.787396e+00 3.509576e+00 1.968464e+00 3.007920e+00 3.486635e+00 1.913821e+00 1.861941e+00 2.327088e+00 2.225293e+00 1.967760e+00 1.407382e+00 4.821807e+00 3.307436e-01 1.636880e-01 2.757883e-01 5.133559e-01 3.378914e-01 4.354990e-01 3.471097e-01 2.510482e-01 3.154947e-01 4.568276e-01 2.836443e-01 2.144469e-01 8.643661e-01
<GCONST> 1.119047e+02
<MIXTURE> 2 8.012912e-02
<MEAN> 39
 2.184885e-01 -3.474969e+00 -1.225831e+01 2.150030e+00 6.146526e+00 1.152067e+01 -4.979943e+00 -3.194776e+00 -4.263561e+00 3.112628e+00 1.450475e-01 -5.809067e-01 2.343293e+00 7.788399e-03 5.054609e-02 1.323400e-01 3.849665e-02 6.330723e-02 -2.680371e-02 3.578308e-02 -2.302540e-02 6.511960e-02 3.560361e-02 5.320339e-02 2.777561e-02 -2.697639e-02 1.324200e-03 1.341701e-02 3.331758e-02 -9.630227e-03 4.138442e-04 -1.319117e-02 3.877998e-02 3.253473e-02 5.623683e-03 -8.392161e-03 2.332700e-02 4.178360e-02 -4.078008e-03
<VARIANCE> 39
 1.252322e+00 2.989692e+00 2.815014e+01 1.615529e+01 1.873338e+01 1.843476e+01 2.635272e+01 8.824936e+00 1.815964e+01 1.668663e+01 1.182971e+01 1.314611e+01 2.539017e+00 8.100391e-02 2.144081e-01 8.000571e-01 5.994600e-01 1.082664e+00 1.405752e+00 1.411934e+00 8.082278e-01 8.586970e-01 1.499359e+00 1.264173e+00 1.147918e+00 4.930704e-02 1.435669e-02 4.463135e-02 1.444453e-01 1.232752e-01 2.329627e-01 2.269166e-01 2.923308e-01 1.612550e-01 1.669652e-01 3.390768e-01 2.712292e-01 2.653226e-01 7.028932e-03
<GCONST> 6.764613e+01
<MIXTURE> 3 7.642879e-02
<MEAN> 39
 5.430148e+00 -1.489203e+00 -2.461554e+01 -5.165768e+00 -5.579948e+00 1.467810e+01 -4.651633e+00 6.386349e+00 -5.280418e+00 7.565913e+00 -2.115100e+00 5.702695e-01 7.177618e+00 2.374797e-02 2.156202e-03 -5.499858e-02 -2.413021e-02 -6.576804e-02 7.769550e-02 4.096656e-02 7.247758e-02 -5.690899e-02 -6.044404e-02 -3.926211e-02 -3.505663e-03 3.452933e-02 -1.085657e-02 5.760460e-03 7.312635e-02 1.529051e-02 1.271231e-02 -3.016431e-02 1.863561e-03 -5.368874e-02 -1.380895e-02 -2.802322e-02 -1.286350e-02 -3.683554e-02 -1.474768e-02
<VARIANCE> 39
 4.496172e+00 6.027417e+00 1.932642e+01 6.855397e+00 1.710378e+01 1.771912e+01 2.490418e+01 1.709623e+01 1.302125e+01 1.165730e+01 1.265574e+01 1.224658e+01 3.142874e+00 1.043708e-01 1.681377e-01 9.762694e-01 6.222146e-01 9.386687e-01 8.280041e-01 1.145792e+00 1.239807e+00 1.174035e+00 1.110701e+00 1.363374e+00 1.300097e+00 9.130567e-02 1.333344e-02 2.713429e-02 1.734164e-01 1.184672e-01 1.780438e-01 1.689342e-01 2.241797e-01 2.395605e-01 2.425639e-01 1.950335e-01 2.611401e-01 2.386534e-01 7.965157e-03
<GCONST> 6.794712e+01
<MIXTURE> 4 8.151051e-02
<MEAN> 39
 -5.526379e-01 4.458475e-01 3.501204e+00 2.672065e-01 3.457527e-01 -2.790837e+00 -6.896405e-01 -2.363609e+00 2.096840e-02 -1.440864e+00 3.540077e-01 -3.865882e-01 -1.017835e+00 4.785940e-02 8.674261e-02 2.167058e-01 2.180457e-01 2.184007e-01 3.452726e-01 4.556762e-01 2.663846e-01 1.758338e-01 1.608183e-01 1.456946e-01 2.319231e-02 1.789702e-02 -5.555021e-02 -3.903945e-02 1.035506e-01 1.412471e-01 1.636286e-01 6.509881e-02 2.246018e-01 1.973530e-01 1.525195e-01 6.461086e-02 8.037645e-02 4.831007e-02 -2.783462e-02
<VARIANCE> 39
 7.302016e-01 9.520733e-01 4.188685e+00 2.550977e+00 3.852334e+00 9.483739e+00 5.247749e+00 5.384730e+00 7.185568e+00 6.692214e+00 5.888845e+00 8.911456e+00 8.285324e-01 6.438509e-02 1.704029e-01 3.011218e-01 5.544510e-01 7.598680e-01 5.328419e-01 8.736328e-01 9.276817e-01 1.442961e+00 8.434031e-01 9.936520e-01 8.110770e-01 3.408687e-02 6.158142e-03 1.693180e-02 5.509845e-02 6.048026e-02 9.251398e-02 1.229966e-01 1.347632e-01 1.440820e-01 1.858377e-01 1.840572e-01 1.747745e-01 2.152548e-01 4.365372e-03
<GCONST> 4.207262e+01
<MIXTURE> 5 7.864864e-02
<MEAN> 39
 -1.798791e-01 1.916382e+00 6.993078e+00 2.729785e+00 1.579142e+00 -4.001216e+00 3.895090e-01 -2.024774e+00 -7.959068e-01 -3.785630e+00 -1.391228e+00 -1.850020e-01 -1.150607e+00 -1.034192e-01 -8.472290e-02 -1.038340e-01 -6.044575e-02 -7.718015e-02 -3.093191e-01 -2.632911e-01 -1.266942e-01 1.062104e-01 -1.498502e-01 6.246278e-02 -3.759727e-02 -7.285748e-02 -7.903565e-02 -1.381124e-01 -2.030130e-01 -2.917750e-01 -2.129490e-01 7.609379e-03 9.735341e-03 1.361642e-01 2.568947e-01 2.476907e-01 1.132321e-01 -4.555896e-02 -2.598439e-02
<VARIANCE> 39
 1.266552e+00 2.532350e+00 5.644395e+00 2.838606e+00 4.082604e+00 5.578533e+00 6.975790e+00 9.095881e+00 9.417448e+00 8.209502e+00 9.372987e+00 8.912132e+00 8.285324e-01 6.418463e-02 1.982948e-01 3.604884e-01 4.302472e-01 6.624029e-01 6.694551e-01 6.652650e-01 8.854551e-01 1.085720e+00 1.071449e+00 1.057166e+00 1.104472e+00 3.408687e-02 1.307432e-02 3.887443e-02 7.554951e-02 7.630175e-02 1.199952e-01 1.393582e-01 1.576603e-01 1.708050e-01 2.005718e-01 2.091234e-01 2.241031e-01 2.014166e-01 4.691840e-03
<GCONST> 4.875737e+01
<MIXTURE> 6 5.772803e-02
<MEAN> 39
 -2.715664e+00 -2.186576e+00 3.006916e+00 -2.887630e-01 2.860991e+00 -8.890237e-02 4.421313e+00 9.246811e-01 3.117288e+00 -3.098926e-01 2.194649e+00 9.090933e-01 -2.175073e+00 -1.589580e-02 4.140339e-02 1.162191e-01 1.272813e-01 4.867625e-02 -2.745874e-01 -3.972182e-02 -1.217705e-02 9.615497e-02 -1.617882e-03 3.263656e-01 2.553958e-01 -2.736571e-02 1.263057e-01 2.042004e-01 2.486101e-01 2.598465e-01 1.326580e-01 -1.257280e-01 -2.326084e-01 -1.331961e-01 -8.184185e-03 -4.748316e-02 -3.110453e-02 -6.407936e-02 3.277192e-02
<VARIANCE> 39
 1.016963e+00 1.405495e+00 9.481019e+00 2.608461e+00 5.640595e+00 1.149684e+01 8.328565e+00 1.018254e+01 9.825552e+00 9.641113e+00 7.587357e+00 1.064683e+01 8.285324e-01 7.794975e-02 1.601040e-01 4.541170e-01 3.653322e-01 3.958220e-01 8.786402e-01 1.146619e+00 1.445529e+00 1.111067e+00 1.034040e+00 1.185667e+00 1.059638e+00 3.408687e-02 1.436901e-02 2.766501e-02 6.268785e-02 5.720593e-02 9.912100e-02 1.574621e-01 1.452421e-01 2.176137e-01 2.528797e-01 1.406261e-01 2.756007e-01 2.309447e-01 5.213537e-03
<GCONST> 5.044421e+01
<MIXTURE> 7 8.260395e-02
<MEAN> 39
 -1.647358e+00 -5.075548e-01 4.211768e+00 -2.571039e-01 -6.353652e-01 -5.084740e+00 -8.200940e-01 -1.940677e+00 4.270723e-01 -2.985714e+00 -5.458682e-01 -8.156306e-01 -1.745917e+00 -3.000621e-02 -6.831041e-02 -5.279871e-02 -2.199825e-01 -2.106448e-01 -5.527939e-02 -1.679041e-02 9.436578e-02 -2.031711e-01 -1.179595e-01 -2.759246e-01 -1.525535e-01 1.122725e-02 1.238243e-01 1.592448e-01 9.684332e-02 1.953749e-01 2.047822e-01 2.803387e-01 2.953537e-01 1.714778e-01 1.135580e-01 2.471744e-01 1.549293e-01 1.466003e-01 6.940479e-02
<VARIANCE> 39
 7.302016e-01 1.231332e+00 5.025374e+00 2.800536e+00 5.124374e+00 6.768704e+00 6.797993e+00 6.145050e+00 1.037365e+01 8.795415e+00 1.034300e+01 7.804086e+00 8.285324e-01 8.381160e-02 2.352994e-01 3.638091e-01 4.541762e-01 5.512071e-01 6.946937e-01 8.709014e-01 8.787210e-01 1.329559e+00 1.490023e+00 1.018633e+00 1.114608e+00 3.408687e-02 9.167848e-03 2.960429e-02 7.295334e-02 8.457001e-02 1.281363e-01 1.487491e-01 1.593530e-01 1.484734e-01 2.612184e-01 2.538045e-01 2.620392e-01 1.861738e-01 4.365372e-03
<GCONST> 4.851586e+01
<MIXTURE> 8 4.371168e-02
<MEAN> 39
 3.666263e+00 4.768652e+00 -8.320950e-01 -6.158925e+00 -1.201829e+01 -6.239487e+00 -3.136966e+00 3.049465e+00 -9.180793e-01 1.521258e+00 -2.863752e+00 1.215840e+00 1.745992e+00 -1.154900e-01 -4.019340e-02 3.134705e-01 2.009760e-01 2.908890e-01 -3.285230e-02 2.316210e-01 1.277924e-01 3.249692e-01 -8.286419e-02 4.383462e-02 -1.085056e-01 -1.247763e-01 9.113243e-04 -9.254612e-03 8.857693e-03 4.889021e-02 4.404670e-02 3.974731e-02 4.566363e-02 -4.128203e-02 -4.323076e-02 -3.084644e-02 -5.926821e-02 -7.654299e-02 6.362494e-03
<VARIANCE> 39
 2.876855e+00 3.043882e+00 2.679144e+01 1.515652e+01 1.442369e+01 1.532863e+01 2.912597e+01 4.644333e+01 2.591156e+01 1.247828e+01 1.237040e+01 1.728864e+01 2.220660e+00 9.608489e-02 1.218743e-01 3.393760e-01 3.888223e-01 1.203465e+00 9.794592e-01 1.461926e+00 1.435241e+00 9.108673e-01 1.734254e+00 1.930960e+00 1.382328e+00 3.408687e-02 1.920796e-02 2.341899e-02 6.051522e-02 4.978374e-02 2.106827e-01 2.062778e-01 3.075345e-01 2.766870e-01 1.673001e-01 3.744248e-01 3.781025e-01 2.820148e-01 6.146740e-03
<GCONST> 6.768489e+01
<MIXTURE> 9 6.955743e-02
<MEAN> 39
 -1.562057e+00 -1.040018e+00 3.192439e+00 2.888450e+00 5.247511e+00 6.541802e-01 5.701753e-01 -2.628232e+00 6.317272e-01 6.468410e-01 3.341367e+00 4.501739e-01 -1.314264e+00 -1.971107e-02 2.181914e-02 -2.133541e-02 -3.551680e-03 -7.646118e-02 -1.604401e-01 -1.063429e-02 -7.587708e-02 -8.211218e-02 3.572161e-02 -3.493075e-02 -3.734173e-04 -2.099423e-02 6.376719e-02 5.641824e-02 -1.424842e-01 -3.192665e-01 -3.582962e-01 -9.709966e-02 7.406505e-02 2.180195e-01 1.539479e-01 -2.966499e-02 -2.852888e-01 -1.175530e-01 2.361420e-02
<VARIANCE> 39
 7.302016e-01 1.479569e+00 8.543849e+00 2.331282e+00 6.005196e+00 1.560908e+01 8.165091e+00 7.016294e+00 9.178741e+00 8.990027e+00 1.073862e+01 1.021389e+01 8.285324e-01 9.088610e-02 2.343372e-01 5.626824e-01 5.933324e-01 8.933296e-01 1.082742e+00 1.459265e+00 8.961991e-01 1.364967e+00 1.079427e+00 1.546616e+00 1.127867e+00 3.408687e-02 1.383172e-02 3.528250e-02 9.791905e-02 5.970102e-02 1.288507e-01 2.362905e-01 2.482651e-01 1.804199e-01 2.600434e-01 1.615827e-01 2.757173e-01 2.416705e-01 4.532335e-03
<GCONST> 5.447176e+01
<MIXTURE> 10 5.630364e-02
<MEAN> 39
 -6.240317e-01 1.347805e+00 5.411390e+00 -6.509495e-01 -1.954417e+00 -4.523523e+00 2.450834e+00 7.641360e-01 1.493898e+00 -1.191767e+00 -3.227711e-01 -4.336239e-01 -1.239179e+00 1.204388e-01 1.588315e-01 -5.821034e-02 1.205596e-01 1.249100e-01 -3.246612e-02 3.097202e-02 5.362198e-02 1.775998e-02 3.389155e-02 1.601781e-01 7.715546e-02 6.577016e-02 -4.109150e-02 -1.339841e-01 -5.680986e-02 2.798984e-01 4.273057e-01 1.547516e-01 -3.090171e-01 -2.872182e-01 -4.027301e-03 -2.525123e-02 1.151233e-01 3.294105e-02 -2.150402e-02
<VARIANCE> 39
 7.302016e-01 1.104834e+00 2.846221e+00 3.550013e+00 2.923321e+00 4.241774e+00 3.875901e+00 7.757438e+00 8.866359e+00 1.135423e+01 8.735797e+00 8.412342e+00 8.285324e-01 8.141606e-02 1.889873e-01 3.777538e-01 4.826826e-01 7.108076e-01 6.518301e-01 1.138190e+00 8.791957e-01 1.261684e+00 1.452309e+00 1.099979e+00 7.688017e-01 3.408687e-02 1.495206e-02 3.576865e-02 7.515406e-02 1.018692e-01 6.874824e-02 9.974162e-02 1.231867e-01 1.625234e-01 2.855473e-01 3.090860e-01 2.423602e-01 1.704111e-01 6.923473e-03
<GCONST> 4.694521e+01
<MIXTURE> 11 5.434339e-02
<MEAN> 39
 -2.993243e+00 -8.808299e-01 8.326123e+00 2.491970e+00 3.739323e+00 -3.993584e+00 4.028289e+00 4.931921e-01 4.965137e+00 -1.832487e+00 1.718645e+00 -4.435839e-01 -3.069995e+00 1.218809e-01 1.674600e-01 3.224156e-01 4.502114e-01 4.828918e-01 3.746294e-01 5.192184e-01 3.277946e-01 5.523450e-02 1.195223e-01 2.435782e-01 1.805566e-01 5.220979e-02 6.445032e-03 -2.349793e-02 -1.212118e-01 -7.334513e-02 3.079640e-02 1.084284e-01 6.330106e-02 8.040258e-02 -3.301703e-02 1.254976e-02 -8.004771e-02 8.489238e-03 1.462174e-02
<VARIANCE> 39
 1.123070e+00 1.710584e+00 3.794801e+00 2.509785e+00 5.436463e+00 8.752293e+00 8.522867e+00 8.537484e+00 9.702904e+00 1.109362e+01 7.520410e+00 1.092677e+01 8.285324e-01 7.235616e-02 1.911973e-01 2.977625e-01 2.429273e-01 5.346797e-01 8.969532e-01 7.554840e-01 1.344193e+00 1.493838e+00 1.251226e+00 7.071744e-01 1.069023e+00 3.408687e-02 1.361316e-02 2.606141e-02 6.477131e-02 5.275695e-02 1.137307e-01 1.801690e-01 2.200099e-01 2.576303e-01 2.681741e-01 2.400858e-01 2.015892e-01 2.538074e-01 4.437692e-03
<GCONST> 4.945926e+01
<MIXTURE> 12 7.555013e-02
<MEAN> 39
 -6.744058e-01 2.979050e-01 4.267651e+00 1.334452e+00 1.486307e+00 -2.047812e+00 1.028418e+00 -1.935762e-01 3.690063e+00 2.283521e+00 3.208902e+00 1.295617e+00 -1.137729e+00 -7.490768e-02 -1.029910e-01 -2.883185e-02 -1.727092e-01 -1.454265e-01 -1.441943e-01 -2.103696e-01 -2.047082e-01 4.083673e-02 -2.492777e-02 -1.505598e-01 -1.036442e-01 -4.415162e-02 -4.814179e-02 -2.479517e-02 3.107273e-02 -7.390941e-02 -9.320796e-02 -7.412680e-02 9.626079e-04 -9.609440e-02 -4.502555e-01 -6.238729e-01 -4.792644e-01 -2.534986e-01 -2.515855e-02
<VARIANCE> 39
 7.302016e-01 1.204531e+00 5.194371e+00 3.534961e+00 4.545092e+00 1.005305e+01 9.621752e+00 6.115577e+00 8.986322e+00 5.113858e+00 5.204953e+00 6.989339e+00 8.285324e-01 7.854185e-02 1.580231e-01 4.841243e-01 5.459766e-01 8.508384e-01 9.773531e-01 8.853902e-01 9.368532e-01 1.276600e+00 1.430288e+00 1.407374e+00 1.095584e+00 3.408687e-02 1.329109e-02 3.729221e-02 6.555381e-02 8.575029e-02 9.994826e-02 1.696220e-01 1.781442e-01 1.516122e-01 2.140999e-01 1.247884e-01 1.435230e-01 1.610855e-01 6.031397e-03
<GCONST> 4.817458e+01
<MIXTURE> 13 8.296966e-02
<MEAN> 39
 -9.507673e-01 1.700614e-01 4.598407e+00 1.185252e+00 2.534994e+00 -7.692669e-01 3.676630e+00 1.179182e+00 2.360163e+00 -2.070724e+00 -7.457808e-01 -5.822000e-01 -1.384103e+00 -1.688184e-02 -1.154655e-01 -1.385493e-01 -7.439311e-02 3.029938e-02 2.887258e-01 -1.458833e-01 -2.102871e-01 -1.164066e-01 2.208868e-02 -1.737167e-02 6.938084e-02 1.716658e-02 -5.608248e-02 -3.579697e-02 -9.961857e-04 -4.713638e-02 -1.535973e-01 -2.681492e-01 -2.681899e-01 -2.623880e-01 -1.164445e-01 1.039197e-01 2.612632e-01 1.212135e-01 -2.709426e-02
<VARIANCE> 39
 7.302016e-01 1.335748e+00 4.472132e+00 1.600306e+00 3.804956e+00 7.323020e+00 7.061290e+00 5.588045e+00 9.147358e+00 5.984221e+00 5.454535e+00 7.971687e+00 8.285324e-01 6.528281e-02 1.405043e-01 4.579915e-01 5.258485e-01 6.444606e-01 9.330784e-01 9.494291e-01 9.396808e-01 1.083744e+00 1.307050e+00 1.257906e+00 9.858275e-01 3.408687e-02 1.188329e-02 2.586618e-02 8.542968e-02 4.695226e-02 6.993669e-02 1.352296e-01 1.956671e-01 1.446233e-01 2.403043e-01 1.730343e-01 1.765099e-01 1.977120e-01 4.365372e-03
<GCONST> 4.485481e+01
<MIXTURE> 14 4.785423e-02
<MEAN> 39
 -3.444067e+00 -1.116805e+00 8.935439e+00 3.025093e+00 5.074680e+00 -3.803153e+00 5.049187e+00 2.087368e+00 5.975195e+00 -2.019586e+00 1.075564e+00 -9.170977e-01 -3.424740e+00 -6.471229e-02 -1.143382e-01 -2.258247e-01 -3.736993e-01 -3.707525e-01 -2.287512e-01 -2.340595e-01 -3.685993e-02 4.521594e-02 5.564860e-03 -3.666061e-01 -2.186134e-01 -2.863640e-02 3.803632e-03 -2.344141e-02 -8.636488e-02 -1.020999e-01 -1.745129e-01 -6.431437e-02 -1.003499e-01 -1.627034e-01 -1.171825e-01 4.789471e-02 9.092324e-02 8.070114e-02 1.627608e-02
<VARIANCE> 39
 7.302016e-01 1.559232e+00 3.155941e+00 3.125779e+00 4.835957e+00 1.148490e+01 8.884868e+00 1.214574e+01 8.681211e+00 6.123418e+00 7.032588e+00 7.158445e+00 8.285324e-01 8.332724e-02 1.987487e-01 4.407215e-01 2.969140e-01 6.413112e-01 1.050794e+00 8.221198e-01 1.100305e+00 7.855078e-01 4.661393e-01 9.229687e-01 9.058236e-01 3.408687e-02 1.687234e-02 3.330732e-02 9.807549e-02 8.818415e-02 1.500138e-01 2.505087e-01 1.998765e-01 3.077186e-01 2.100319e-01 1.231055e-01 1.653899e-01 1.666094e-01 6.521880e-03
<GCONST> 4.872280e+01
<MIXTURE> 15 4.484016e-02
<MEAN> 39
 8.072541e+00 5.104277e+00 -1.237557e+01 -7.114785e+00 -1.779095e+01 8.007650e-01 -6.695593e+00 5.253762e-02 -1.232862e+01 -5.340614e-01 -6.146867e+00 5.181618e-01 7.257787e+00 -1.771965e-02 6.513090e-02 2.174050e-01 -6.639084e-02 -3.730479e-02 -1.975110e-01 1.767293e-02 -8.706018e-02 -3.079230e-02 -1.105063e-01 -1.740370e-01 -7.942165e-02 -5.069671e-02 -2.585393e-02 -2.360616e-02 -1.394654e-02 6.711098e-03 7.341097e-02 3.120059e-02 5.157534e-02 7.292877e-02 9.371097e-02 4.776789e-02 5.572601e-02 7.194954e-02 -1.923859e-02
<VARIANCE> 39
 1.353547e+00 4.426019e+00 3.128291e+01 3.717422e+00 1.114276e+01 1.489412e+01 9.907734e+00 2.738800e+01 1.741330e+01 2.223924e+01 2.376653e+01 1.459052e+01 2.510817e+00 8.210203e-02 1.750794e-01 8.734179e-01 2.877229e-01 9.188394e-01 1.341529e+00 1.045365e+00 1.755699e+00 1.474474e+00 1.158760e+00 1.481113e+00 1.314554e+00 9.639879e-02 1.413519e-02 3.028060e-02 1.869588e-01 5.142087e-02 1.853210e-01 3.096836e-01 2.056738e-01 2.967950e-01 2.637778e-01 2.165295e-01 3.364783e-01 2.896370e-01 1.535266e-02
<GCONST> 6.830029e+01
<STATE> 3
<NUMMIXES> 15
<MIXTURE> 1 6.726977e-02
<MEAN> 39
 1.586779e+00 -6.232149e+00 -1.130204e+01 -8.919755e+00 1.079658e+01 4.140508e+00 3.803538e+00 -2.437933e-01 7.181113e+00 1.044621e+00 -7.684705e+00 -1.128352e+00 -1.101445e+01 -1.046647e+00 7.652279e-01 1.378546e-01 5.976203e-01 2.301291e-01 -3.509957e-01 7.467231e-01 -2.501999e-01 2.180262e-01 -5.237918e-01 1.346507e-01 5.764474e-01 6.261355e-01 -4.007803e-01 2.651502e-01 5.534337e-01 4.228835e-01 -3.362492e-01 -2.252039e-01 -8.162367e-02 1.832144e-01 -2.453323e-01 -6.370638e-02 3.526968e-01 2.047908e-01 8.721348e-01
<VARIANCE> 39
 5.562920e+01 4.998655e+01 4.577831e+01 9.976184e+01 1.002953e+02 6.509078e+01 7.726550e+01 7.155781e+01 6.494833e+01 5.705887e+01 4.910425e+01 6.296317e+01 7.890298e+01 5.420697e+00 5.015110e+00 4.576273e+00 5.391279e+00 5.857140e+00 5.743951e+00 6.886408e+00 6.349552e+00 4.485933e+00 4.058030e+00 3.976246e+00 4.873640e+00 7.571961e+00 5.627853e-01 5.180075e-01 6.775286e-01 6.829848e-01 9.623230e-01 9.420484e-01 1.184767e+00 8.428932e-01 7.909775e-01 7.424352e-01 7.319732e-01 7.898111e-01 8.837920e-01
<GCONST> 1.444442e+02
<MIXTURE> 2 7.104627e-02
<MEAN> 39
 -1.468892e+00 -7.047245e+00 -9.877164e+00 -7.947690e+00 4.953550e+00 8.958976e+00 1.547458e+00 2.443169e+00 5.311720e+00 4.121433e+00 -3.114827e+00 -4.726353e+00 1.238701e+01 4.204068e-02 -1.193192e-01 4.049432e-02 2.069142e-01 3.739876e-02 -3.246126e-01 -8.131503e-02 1.002341e-01 3.471366e-02 7.582786e-03 -1.947634e-01 -1.049277e-01 4.708069e-02 3.448080e-02 1.588701e-02 8.903844e-02 4.461975e-02 -5.723928e-02 -1.153781e-01 -1.549461e-01 1.618847e-01 -3.484259e-02 2.392177e-02 -4.767098e-02 5.360725e-02 -6.696269e-02
<VARIANCE> 39
 3.688959e+00 1.543464e+01 1.200575e+01 3.261155e+01 1.749214e+01 2.961089e+01 2.433241e+01 2.968021e+01 1.574984e+01 4.026347e+01 2.192449e+01 2.211558e+01 3.457005e+00 1.116441e-01 1.856130e-01 2.866078e-01 3.723227e-01 4.978183e-01 6.274915e-01 7.478418e-01 8.560149e-01 5.198891e-01 4.539465e-01 7.407673e-01 6.647073e-01 5.582371e-02 2.356763e-02 3.759465e-02 6.628019e-02 4.681810e-02 8.791997e-02 9.553741e-02 1.525904e-01 1.595298e-01 8.732849e-02 1.055906e-01 1.238780e-01 9.252374e-02 9.290845e-03
<GCONST> 6.050333e+01
<MIXTURE> 3 4.952201e-02
<MEAN> 39
 -7.383420e+00 5.057677e+00 1.481144e+01 6.969335e+00 -1.294283e+01 -1.495836e+00 -4.854292e+00 -2.600044e+00 -7.867624e+00 -8.930161e+00 1.070682e+01 2.148008e-01 7.386139e+00 -4.296127e-02 9.060092e-02 2.115511e-02 6.559026e-02 -1.644210e-01 -2.131130e-01 2.207109e-01 -1.588171e-01 -7.999671e-02 1.509758e-01 1.977939e-01 5.304674e-02 6.717230e-02 6.535206e-02 -3.015419e-02 -6.811117e-02 5.090576e-02 3.208734e-02 -1.050095e-01 5.305751e-02 8.753769e-02 5.453156e-02 3.246066e-02 -6.940942e-02 -1.343648e-02 -6.831014e-02
<VARIANCE> 39
 4.989897e+00 6.194941e+00 4.102103e+01 1.731781e+01 2.189196e+01 1.700666e+01 2.279443e+01 3.661722e+01 3.547173e+01 2.438812e+01 1.748320e+01 1.777897e+01 3.858663e+00 1.430883e-01 1.986973e-01 3.378792e-01 5.392834e-01 4.677983e-01 8.118494e-01 6.771289e-01 5.545360e-01 9.824985e-01 5.886756e-01 5.460446e-01 6.220622e-01 4.902842e-02 2.099801e-02 3.028480e-02 4.471187e-02 6.850398e-02 1.021092e-01 1.437377e-01 1.007405e-01 9.959017e-02 1.670116e-01 1.197363e-01 1.024637e-01 1.046609e-01 1.628585e-02
<GCONST> 6.178308e+01
<MIXTURE> 4 7.358934e-02
<MEAN> 39
 -9.496275e-01 -6.904908e+00 -1.029577e+01 -8.942123e+00 4.790342e+00 8.956010e+00 1.216625e+00 2.656456e+00 6.323372e+00 6.823361e+00 -1.352927e+00 -5.975441e+00 1.290162e+01 -1.604124e-01 -3.667928e-01 -1.261190e-01 3.457836e-01 1.256561e-01 -2.229487e-01 3.199437e-01 4.889144e-01 4.942104e-01 -3.672760e-01 -5.635400e-01 -4.021195e-01 2.415047e-01 1.727953e-01 1.561979e-01 3.203247e-01 1.910984e-01 -1.663550e-01 -3.263758e-01 -3.758610e-01 3.357912e-02 -1.978544e-01 -1.935597e-01 2.329750e-01 4.160366e-01 -3.127053e-01
<VARIANCE> 39
 5.657688e+00 1.285779e+01 1.755837e+01 3.054146e+01 2.126986e+01 3.252352e+01 3.257260e+01 2.695201e+01 2.816588e+01 3.944909e+01 2.464480e+01 1.705491e+01 6.387660e+00 3.831726e-01 7.205866e-01 1.397211e+00 1.650960e+00 1.245491e+00 3.144191e+00 3.307857e+00 3.346130e+00 1.734232e+00 2.592569e+00 2.094015e+00 1.985252e+00 3.341945e-01 5.373087e-02 9.373181e-02 1.442943e-01 2.415712e-01 2.390149e-01 2.667967e-01 3.932131e-01 3.526581e-01 2.752305e-01 4.722994e-01 2.735542e-01 3.516975e-01 4.527277e-02
<GCONST> 9.477184e+01
<MIXTURE> 5 7.044767e-02
<MEAN> 39
 3.917617e+00 7.613715e+00 -8.588901e+00 -1.345161e+01 -4.525395e+00 1.564575e+01 -1.215110e+00 -5.767006e+00 -5.037156e+00 3.230484e+00 5.367762e+00 5.799199e+00 5.495239e+00 -1.196491e-02 2.631788e-01 -4.247976e-02 -6.895607e-01 8.716445e-02 3.801209e-01 1.906232e-01 5.030826e-02 -1.118265e-01 -1.844710e-01 -2.029845e-01 1.983290e-01 -2.316501e-02 -1.670691e-02 -1.280228e-01 3.640919e-02 2.263566e-01 8.938673e-02 -2.264345e-01 -2.676334e-02 6.164763e-02 1.277532e-01 8.212668e-02 -2.974084e-02 -2.135573e-01 -1.609750e-02
<VARIANCE> 39
 4.517483e+00 3.504013e+01 1.663569e+01 6.163409e+01 3.417544e+01 2.561765e+01 3.637189e+01 2.971244e+01 2.716985e+01 3.806067e+01 5.046134e+01 1.391519e+01 8.837426e+00 1.883821e-01 5.999182e-01 5.372497e-01 1.727652e+00 1.065868e+00 1.404562e+00 1.217720e+00 1.326576e+00 1.090849e+00 1.218025e+00 1.744227e+00 1.521569e+00 2.543204e-01 2.767781e-02 6.658002e-02 1.074745e-01 1.731182e-01 1.544287e-01 2.519262e-01 1.718918e-01 2.900966e-01 2.030189e-01 1.848654e-01 3.077570e-01 1.777740e-01 2.811632e-02
<GCONST> 8.534294e+01
<MIXTURE> 6 6.395991e-02
<MEAN> 39
 1.889649e+00 -5.862715e-01 -3.043743e+00 3.266849e-01 1.383971e+00 3.716650e+00 -1.205647e+01 -4.860178e+00 1.087867e+00 5.859632e+00 5.299508e+00 -1.578340e+00 7.087693e+00 1.458959e-01 1.231643e-01 -7.167403e-01 -9.969023e-01 -3.853098e-01 1.619918e+00 1.988080e-01 -3.691180e-01 -3.128639e-01 4.450146e-01 5.405931e-01 2.899719e-01 1.594429e-01 -1.596367e-01 -3.949422e-02 1.810830e-02 -1.802043e-01 -7.169217e-02 -6.673626e-02 6.476985e-01 3.686648e-01 3.857123e-02 -3.600243e-01 -2.066801e-01 2.425815e-01 1.925822e-02
<VARIANCE> 39
 7.486848e+00 1.430039e+01 3.414073e+01 6.961939e+01 5.446726e+01 5.942906e+01 1.854157e+01 3.295877e+01 3.806744e+01 4.266144e+01 4.831666e+01 2.020009e+01 7.395509e+00 4.371935e-01 1.349146e+00 2.200929e+00 2.963019e+00 2.394497e+00 5.427156e+00 3.694010e+00 4.489129e+00 4.438128e+00 3.657114e+00 2.961463e+00 2.223488e+00 5.004143e-01 1.034291e-01 2.126641e-01 4.021111e-01 3.433417e-01 4.443168e-01 6.970187e-01 5.608078e-01 4.713458e-01 6.450387e-01 6.554403e-01 5.944903e-01 5.249442e-01 9.916384e-02
<GCONST> 1.129622e+02
<MIXTURE> 7 4.598454e-02
<MEAN> 39
 3.036499e+00 -8.853244e+00 -2.856680e+00 2.595793e+00 7.897934e-02 -3.443448e+00 -5.728102e+00 6.780921e+00 7.921026e+00 -3.079684e+00 -2.834503e-01 -4.666072e-01 5.820169e+00 1.024160e+00 1.890588e-01 7.863628e-01 1.029400e+00 2.535826e-01 -5.799354e-01 1.529872e-02 -9.508379e-01 -5.839753e-02 -8.484692e-01 -9.461409e-02 -1.421545e-01 -1.984369e+00 3.309304e-02 5.032881e-02 -9.012245e-02 -5.182785e-01 2.226079e-01 5.480347e-01 4.531125e-01 6.739687e-03 -4.609306e-01 5.850226e-01 -2.371645e-01 -4.429387e-01 -1.860534e-01
<VARIANCE> 39
 1.068095e+01 1.982376e+01 1.561494e+01 3.687207e+01 3.168545e+01 2.299539e+01 3.575188e+01 2.863907e+01 3.479400e+01 2.781791e+01 2.517273e+01 3.850172e+01 1.592033e+01 6.462540e-01 1.276949e+00 1.411807e+00 2.764502e+00 2.814888e+00 2.596105e+00 2.904290e+00 3.388902e+00 4.102763e+00 3.641211e+00 3.395196e+00 4.303251e+00 1.896740e+00 9.525769e-02 2.711359e-01 2.458208e-01 5.414525e-01 5.377938e-01 5.018227e-01 5.231726e-01 7.127700e-01 4.846541e-01 4.283875e-01 5.616729e-01 8.121060e-01 2.455939e-01
<GCONST> 1.131708e+02
<MIXTURE> 8 5.978455e-02
<MEAN> 39
 -9.562578e+00 3.377206e+00 -4.358408e-01 4.098055e+00 4.516751e+00 -3.862566e+00 5.593492e+00 -1.682634e+00 3.295114e+00 -2.455688e+00 -3.704638e+00 4.631124e+00 -6.338286e+00 -3.256090e-01 8.699721e-01 1.354048e+00 4.128939e-02 -5.642500e-01 2.172570e-01 -8.486712e-01 1.422763e-01 -7.552936e-02 3.478512e-01 1.022042e+00 7.288494e-01 3.949837e+00 1.200302e+00 -4.314680e-01 -8.613908e-03 -5.447285e-01 -5.961227e-01 3.952628e-01 -6.149115e-01 5.227405e-02 -5.248749e-01 3.701204e-01 2.618097e-01 -5.551554e-01 -2.128418e-02
<VARIANCE> 39
 4.787074e+01 4.737904e+01 8.904501e+01 5.439619e+01 5.448698e+01 7.008102e+01 5.870730e+01 6.398565e+01 3.964703e+01 4.152232e+01 5.386621e+01 3.069668e+01 5.076667e+01 1.043005e+01 6.391991e+00 1.046479e+01 1.416359e+01 8.640171e+00 1.010080e+01 7.295262e+00 5.910231e+00 6.465425e+00 6.829287e+00 5.397604e+00 5.018775e+00 9.207358e+00 8.035365e-01 1.133954e+00 1.654660e+00 1.354560e+00 1.169879e+00 1.282793e+00 1.674677e+00 1.172286e+00 1.025015e+00 1.244318e+00 8.366822e-01 8.580066e-01 9.026485e-01
<GCONST> 1.514545e+02
<MIXTURE> 9 7.031442e-02
<MEAN> 39
 6.027122e+00 -2.597842e+00 3.992035e+00 4.894074e-01 -4.224737e-01 -1.128219e+00 4.211317e+00 -1.849604e+00 -2.956572e+00 1.942257e+00 -4.116320e+00 -2.476999e+00 -5.600945e-01 7.062011e-01 -1.183234e-01 1.244743e+00 -1.693995e-01 2.956691e-01 -4.072700e-01 8.136672e-01 -6.840959e-01 -5.494969e-01 -9.080999e-02 -7.806535e-01 -5.569628e-01 -1.285779e+00 -1.551066e-01 -9.727665e-02 -2.631464e-01 -1.573021e-01 -1.269286e-01 1.333121e-01 -3.256938e-01 3.022783e-01 1.699295e-01 1.275953e-02 2.819719e-01 -1.414609e-02 2.729922e-01
<VARIANCE> 39
 1.695077e+01 2.541527e+01 5.053199e+01 4.904309e+01 5.815019e+01 6.381512e+01 3.377192e+01 4.139116e+01 4.420490e+01 4.075590e+01 6.362528e+01 3.980696e+01 1.029379e+01 8.786834e-01 1.028660e+00 2.959570e+00 2.077288e+00 2.450109e+00 1.771892e+00 2.505824e+00 3.928447e+00 2.757705e+00 2.348296e+00 3.008619e+00 2.375035e+00 1.352484e+00 1.020201e-01 1.299038e-01 4.246718e-01 2.717237e-01 3.810419e-01 3.491694e-01 3.933022e-01 5.908942e-01 4.101884e-01 4.131380e-01 5.329272e-01 3.963930e-01 8.756143e-02
<GCONST> 1.125670e+02
<MIXTURE> 10 8.061888e-02
<MEAN> 39
 3.553109e-01 2.674169e+00 -9.246369e+00 -1.308671e+01 5.543821e-01 1.166885e+01 8.082272e-01 -4.423048e+00 1.051801e+00 6.228400e+00 2.820292e+00 7.537174e-01 4.512559e+00 1.784976e-01 -7.376085e-01 -5.584098e-01 -6.397405e-01 1.726703e-01 -1.324651e-01 9.843198e-02 3.171851e-01 3.712631e-01 6.105901e-01 -2.508684e-01 -5.442597e-01 9.272073e-02 -6.925986e-02 -2.496273e-01 1.890829e-01 6.031578e-01 2.327078e-01 -3.850287e-01 9.721415e-02 8.376884e-02 1.477740e-01 -3.041750e-01 -3.939664e-01 -9.174660e-02 -4.029783e-01
<VARIANCE> 39
 4.570689e+01 3.634846e+01 1.660335e+01 5.107209e+01 2.151858e+01 4.327496e+01 3.758205e+01 3.535892e+01 7.374933e+01 5.534309e+01 4.578854e+01 4.022978e+01 2.514182e+01 2.325649e+00 2.485277e+00 2.091590e+00 6.048854e+00 2.210361e+00 4.633250e+00 3.679321e+00 3.698343e+00 3.488069e+00 4.142684e+00 3.508585e+00 3.578408e+00 5.974041e+00 3.464060e-01 3.234039e-01 3.774958e-01 8.685193e-01 3.672568e-01 6.405287e-01 5.650176e-01 6.317506e-01 6.208059e-01 8.696294e-01 6.337143e-01 6.086260e-01 4.216965e-01
<GCONST> 1.269248e+02
<MIXTURE> 11 7.522034e-02
<MEAN> 39
 6.416197e+00 4.133724e+00 9.620274e+00 5.054080e+00 -2.739807e+00 -4.217597e+00 7.999292e+00 -4.936123e+00 -6.809289e+00 3.028072e-01 -2.284344e+00 -1.125486e+00 -1.052453e+01 -7.772486e-01 3.839795e-01 -4.259752e-01 -2.569922e-01 -6.223067e-02 -2.241222e-01 -4.872379e-01 1.568541e-01 1.770802e-01 -1.794894e-01 -3.189694e-03 2.864922e-01 9.435847e-01 -6.356254e-01 -3.065392e-01 -6.825946e-01 -2.283976e-01 2.423523e-01 2.724389e-01 -4.977944e-01 4.467596e-01 4.345930e-01 -1.651034e-02 1.201981e-01 1.169530e-01 6.805124e-01
<VARIANCE> 39
 5.749958e+01 6.605631e+01 7.530620e+01 7.294002e+01 9.949480e+01 1.149885e+02 8.877553e+01 7.477534e+01 6.234535e+01 6.084856e+01 7.352404e+01 5.102184e+01 6.352975e+01 5.503249e+00 3.678688e+00 8.414772e+00 6.399240e+00 7.205778e+00 6.472623e+00 6.168804e+00 7.928446e+00 6.024930e+00 4.744263e+00 3.929195e+00 3.199073e+00 5.283970e+00 4.727897e-01 6.997943e-01 1.069080e+00 1.175072e+00 1.215554e+00 1.089132e+00 1.105657e+00 1.339433e+00 8.963682e-01 9.338929e-01 7.710934e-01 6.497581e-01 7.478712e-01
<GCONST> 1.482099e+02
<MIXTURE> 12 7.402846e-02
<MEAN> 39
 -1.591783e-01 -8.363803e+00 -7.643168e+00 -5.641376e+00 4.412868e+00 3.560611e+00 -3.155899e+00 8.870580e+00 4.772125e+00 5.350651e+00 -3.941024e+00 -3.526536e+00 1.053510e+01 2.927920e-01 -6.127162e-02 7.328973e-01 4.571780e-01 -3.346382e-01 -7.587792e-01 -5.403000e-01 1.404501e-01 -3.796098e-02 -4.374762e-01 3.543699e-01 4.237427e-01 -3.625576e-01 6.394693e-02 3.490048e-01 2.481592e-01 1.962236e-01 8.609705e-02 -1.686980e-01 4.311413e-01 -8.567071e-01 3.763675e-02 -3.417216e-01 1.271805e-01 1.951851e-01 -5.027998e-01
<VARIANCE> 39
 9.246061e+00 1.774747e+01 2.049534e+01 2.911693e+01 4.305432e+01 3.542867e+01 4.418986e+01 4.582290e+01 2.834505e+01 2.954813e+01 3.002780e+01 2.432988e+01 7.867502e+00 9.607182e-01 1.372707e+00 2.656262e+00 3.186070e+00 2.582592e+00 4.749695e+00 4.368135e+00 4.734315e+00 2.873070e+00 4.067530e+00 2.803556e+00 2.855492e+00 1.793076e+00 1.425754e-01 2.190750e-01 3.916657e-01 3.553668e-01 3.078829e-01 3.485550e-01 5.933821e-01 6.168864e-01 4.389887e-01 5.660213e-01 4.159497e-01 4.217742e-01 1.262780e-01
<GCONST> 1.126931e+02
<MIXTURE> 13 7.343327e-02
<MEAN> 39
 -2.683243e+00 -6.998582e-02 8.127176e+00 6.488408e+00 -1.154539e+01 -3.330629e+00 -3.981275e+00 5.080777e+00 -6.490340e+00 -3.711021e+00 7.839766e+00 4.336315e-01 7.060238e+00 7.991769e-02 -2.804896e-02 -4.810883e-02 9.739794e-02 -1.858557e-01 1.016842e-01 -8.719233e-02 -1.348496e-01 -2.637415e-01 3.368545e-02 1.137393e-01 -1.932221e-01 -4.053555e-02 1.770271e-01 4.898535e-02 -8.155843e-02 -2.107578e-02 4.574483e-01 -6.694812e-02 1.997724e-01 -3.239162e-01 2.083069e-01 1.614270e-01 -3.498292e-01 -9.732051e-02 -3.326273e-01
<VARIANCE> 39
 9.122240e+00 1.844408e+01 4.501011e+01 2.773928e+01 2.545350e+01 4.878141e+01 3.005009e+01 5.053857e+01 5.142925e+01 3.021251e+01 2.004812e+01 3.406346e+01 7.499692e+00 8.880383e-01 6.824588e-01 2.958334e+00 1.773701e+00 2.749262e+00 1.902271e+00 3.176648e+00 2.629026e+00 2.528723e+00 1.698333e+00 2.309268e+00 1.521869e+00 1.314246e+00 9.975193e-02 1.061854e-01 2.156750e-01 3.139272e-01 3.022168e-01 3.293544e-01 5.415336e-01 5.435985e-01 4.250123e-01 4.064718e-01 4.188248e-01 2.208868e-01 1.079406e-01
<GCONST> 1.050603e+02
<MIXTURE> 14 7.305492e-02
<MEAN> 39
 9.206717e+00 -8.276422e+00 -6.905798e-01 -4.114564e+00 4.945687e+00 2.201288e-02 7.436950e-01 2.348581e+00 1.402623e+00 1.331612e+00 -6.017419e+00 -5.759099e+00 -9.805614e+00 3.207781e-01 2.229748e-02 -3.488431e-01 -4.986408e-02 6.010338e-02 -3.492348e-02 5.791949e-02 -7.337696e-02 -1.151579e-01 -3.654471e-02 -3.661950e-01 -3.007104e-01 -1.539808e+00 -3.295946e-01 2.948643e-01 -1.612344e-01 2.071611e-01 -1.736634e-01 -1.294239e-01 9.436674e-02 -1.084867e-01 1.521407e-01 -6.697887e-02 5.364283e-02 2.839951e-01 2.685182e-01
<VARIANCE> 39
 3.112008e+01 6.050550e+01 9.688990e+01 8.973814e+01 6.007901e+01 8.078835e+01 4.954856e+01 1.004186e+02 6.080878e+01 5.560264e+01 3.195638e+01 3.789503e+01 3.029431e+01 6.275718e-01 1.656879e+00 2.394341e+00 2.589887e+00 3.304770e+00 2.400199e+00 3.004573e+00 3.522599e+00 2.484982e+00 2.422544e+00 2.193126e+00 2.092288e+00 3.086976e-01 1.557840e-01 2.666007e-01 4.384482e-01 4.070923e-01 5.631029e-01 4.480803e-01 6.197410e-01 6.917439e-01 5.561137e-01 4.308279e-01 3.879217e-01 4.931756e-01 1.161721e-01
<GCONST> 1.199975e+02
<MIXTURE> 15 5.171821e-02
<MEAN> 39
 -1.316012e+00 -6.758557e-01 3.722115e+00 6.912743e+00 -2.109960e+00 -7.781076e+00 -3.489386e+00 3.388693e+00 1.375847e+00 -1.606079e+00 5.874226e-01 1.141240e+00 4.325043e+00 2.503655e-01 -1.008363e+00 -1.539657e+00 -4.961339e-01 -1.445958e+00 1.477212e+00 -2.454157e+00 1.122922e+00 -5.102133e-01 8.653156e-01 1.498724e+00 -8.237956e-01 2.456574e+00 3.432811e-01 -4.508990e-02 -1.623907e-01 -6.084374e-01 1.375493e-01 8.043308e-01 4.468482e-01 -4.949723e-01 -4.006734e-01 3.530022e-01 -1.166236e-01 -3.405305e-01 -8.771560e-01
<VARIANCE> 39
 1.953891e+01 2.414405e+01 7.844009e+01 3.667338e+01 4.131110e+01 4.229155e+01 5.033664e+01 8.488373e+01 4.034055e+01 3.658739e+01 3.338127e+01 4.219424e+01 1.655932e+01 4.360071e+00 2.751423e+00 7.386976e+00 4.357159e+00 7.306153e+00 4.946401e+00 7.647652e+00 8.960064e+00 6.404675e+00 8.807011e+00 5.127112e+00 4.651762e+00 4.123187e+00 5.575714e-01 4.485382e-01 1.215932e+00 6.446933e-01 9.759274e-01 8.479191e-01 1.305828e+00 1.474606e+00 6.767551e-01 7.051813e-01 6.142437e-01 8.104373e-01 6.720842e-01
<GCONST> 1.383716e+02
<STATE> 4
<NUMMIXES> 15
<MIXTURE> 1 8.301569e-02
<MEAN> 39
 -4.896084e+00 2.755896e+00 -4.998905e+00 2.075870e+00 1.030019e+01 -2.438510e+00 1.533183e+00 -2.020231e+00 7.306314e-01 5.965058e-01 -3.994025e+00 5.382605e+00 -5.898538e+00 -6.660472e-01 -2.468969e-01 -9.370497e-01 -1.701489e+00 -5.882613e-01 9.796865e-01 -6.270993e-01 5.199692e-01 1.228127e+00 6.570206e-01 6.959592e-01 6.558723e-01 3.011502e+00 6.115551e-01 -1.760271e-01 5.129434e-01 -1.356070e-01 -1.057349e+00 1.659178e-01 6.436490e-02 1.087993e-01 -2.991517e-01 -4.596201e-02 3.495231e-01 -4.889383e-01 1.104003e-01
<VARIANCE> 39
 7.985653e+01 7.425426e+01 1.175043e+02 9.371055e+01 9.213033e+01 9.067084e+01 1.063569e+02 8.424809e+01 7.718724e+01 5.065054e+01 4.308812e+01 5.428846e+01 7.290092e+01 1.142876e+01 6.551131e+00 1.242024e+01 9.407948e+00 1.348902e+01 8.359085e+00 1.138852e+01 1.210448e+01 7.917316e+00 6.454767e+00 5.602583e+00 5.226596e+00 8.035663e+00 1.202286e+00 1.060269e+00 1.835002e+00 1.698192e+00 1.771478e+00 1.385564e+00 1.926886e+00 1.727643e+00 1.392665e+00 1.017091e+00 8.717704e-01 8.924049e-01 1.065879e+00
<GCONST> 1.598841e+02
<MIXTURE> 2 5.463189e-02
<MEAN> 39
 -2.311998e+00 -8.476413e+00 -4.170066e+00 -2.868893e+00 -5.702571e-01 -2.287504e+00 -9.918960e-01 1.224891e+01 6.021416e+00 -4.876858e-01 -1.638680e+00 -1.019671e-01 1.195840e+01 3.222321e-01 3.567228e-01 1.205698e+00 5.839323e-01 -4.323916e-01 -1.033962e+00 -5.093739e-01 -4.993857e-02 -1.036778e+00 -1.447274e-01 5.102766e-01 6.603806e-01 -6.767119e-01 2.570716e-01 3.942787e-01 3.275773e-01 1.876634e-01 8.216797e-02 -1.509097e-01 -6.040521e-02 -6.377405e-01 -3.322404e-01 2.241970e-01 3.944647e-04 -7.331324e-02 -5.201719e-01
<VARIANCE> 39
 1.124705e+01 1.472954e+01 2.773507e+01 2.666681e+01 4.064282e+01 4.029604e+01 6.315888e+01 5.008914e+01 2.828873e+01 3.098113e+01 2.429169e+01 1.695611e+01 6.060449e+00 8.409796e-01 8.995732e-01 2.063959e+00 1.567365e+00 2.886039e+00 2.987063e+00 3.715632e+00 3.527869e+00 3.339467e+00 2.275924e+00 2.844255e+00 1.562758e+00 1.187386e+00 9.820019e-02 1.414674e-01 2.500377e-01 2.211797e-01 3.212823e-01 4.195500e-01 7.691861e-01 8.927070e-01 4.151592e-01 5.086579e-01 4.010952e-01 3.781811e-01 8.407011e-02
<GCONST> 1.072979e+02
<MIXTURE> 3 4.667941e-02
<MEAN> 39
 -2.889385e+00 -4.359297e+00 6.021921e+00 6.016582e+00 -1.308061e+01 -1.200839e+01 -4.006263e+00 1.050549e+01 -4.382280e+00 -1.705330e+00 8.465827e+00 3.768606e+00 9.323023e+00 5.172619e-01 -3.917561e-01 -6.122800e-01 -2.353903e-02 3.070329e-01 3.711310e-01 -3.879968e-01 7.616910e-02 9.294447e-02 2.128695e-01 -5.109634e-01 -4.778971e-01 -2.039883e-01 -8.192389e-02 3.078219e-01 1.194489e-01 5.648852e-02 4.678423e-01 1.580842e-01 4.138944e-01 -3.667310e-01 1.063866e-01 -3.193457e-01 -4.166471e-01 -1.534719e-01 -3.630683e-01
<VARIANCE> 39
 6.155663e+00 1.731896e+01 3.647520e+01 4.086784e+01 3.638264e+01 2.812500e+01 2.836760e+01 3.619804e+01 3.353437e+01 2.591428e+01 2.135401e+01 1.704885e+01 6.610476e+00 8.382872e-01 2.766922e+00 5.189428e+00 2.494103e+00 3.325876e+00 2.769449e+00 3.528773e+00 4.218825e+00 4.198636e+00 3.827020e+00 3.141780e+00 2.220868e+00 2.083381e+00 1.323384e-01 1.900729e-01 3.523799e-01 2.855041e-01 4.114414e-01 3.255104e-01 6.391447e-01 5.236013e-01 5.678745e-01 4.929011e-01 4.773201e-01 3.491347e-01 1.510854e-01
<GCONST> 1.118086e+02
<MIXTURE> 4 4.164438e-02
<MEAN> 39
 -2.472494e+01 1.883383e+01 -1.572383e+00 2.255848e-01 1.008394e+01 -4.450313e+00 5.787082e+00 1.077664e+00 9.093881e-01 -2.203476e+00 3.247988e-01 8.812001e+00 -7.466659e+00 -4.413168e-01 -2.155076e-01 -3.123169e-01 -4.144205e-01 2.559669e-01 6.296875e-01 1.648764e-02 -5.955935e-02 1.560069e-01 -3.103096e-01 -1.704550e-02 1.428594e-01 -7.170474e-01 5.634812e-01 -2.831722e-01 9.655926e-02 2.140061e-01 -3.219196e-01 -2.238669e-01 1.953930e-03 -1.341168e-01 -1.259091e-02 -1.198220e-02 -1.406723e-01 -1.189036e-01 -5.294173e-02
<VARIANCE> 39
 1.284025e+01 2.449951e+01 2.337144e+01 1.998349e+01 5.080666e+01 5.451738e+01 6.174866e+01 2.630082e+01 7.491658e+01 3.277236e+01 1.904043e+01 1.873071e+01 1.418668e+01 4.113093e+00 1.965151e+00 2.129080e+00 1.736430e+00 2.728334e+00 4.453644e+00 2.955753e+00 3.528230e+00 3.497977e+00 2.848225e+00 1.646830e+00 1.954789e+00 9.539144e-01 2.277494e-01 2.530484e-01 3.611480e-01 2.632519e-01 3.986855e-01 7.871644e-01 4.330976e-01 5.319215e-01 5.925505e-01 4.945666e-01 2.946607e-01 3.559553e-01 1.283619e-01
<GCONST> 1.135202e+02
<MIXTURE> 5 7.823638e-02
<MEAN> 39
 5.917975e+00 3.183128e+00 -8.272070e+00 -5.340160e+00 -6.579462e+00 1.609372e+01 -4.794106e+00 -1.080438e+01 -9.957871e-02 4.598099e-01 9.008965e+00 3.324379e+00 2.576514e+00 1.475205e-01 -4.224557e-01 5.454450e-02 -7.757885e-02 -1.069667e-01 4.871870e-01 -3.044160e-01 -3.606651e-01 2.954398e-01 4.274313e-01 -9.755802e-02 -7.334146e-01 2.866108e-01 -1.664614e-01 -8.178446e-02 3.624304e-01 4.911925e-01 7.253787e-01 -8.241165e-01 2.321710e-01 1.452447e-01 -1.217021e-02 1.816879e-03 -7.178719e-01 -2.707992e-02 -3.670430e-01
<VARIANCE> 39
 1.873937e+01 5.582968e+01 3.329777e+01 1.057742e+02 4.118033e+01 8.747066e+01 7.187605e+01 1.061196e+02 7.310970e+01 8.803448e+01 4.540216e+01 6.021589e+01 1.489201e+01 1.507493e+00 2.508558e+00 4.712375e+00 1.141468e+01 8.021801e+00 1.212637e+01 5.126854e+00 7.262620e+00 8.883582e+00 6.443623e+00 8.274991e+00 3.827098e+00 3.064130e+00 2.855659e-01 4.732915e-01 7.198592e-01 1.404948e+00 8.869968e-01 9.889354e-01 6.245033e-01 1.326418e+00 1.156602e+00 1.387598e+00 1.153069e+00 6.670451e-01 1.822507e-01
<GCONST> 1.416410e+02
<MIXTURE> 6 5.100602e-02
<MEAN> 39
 -1.272497e+00 3.078943e+00 3.962890e+00 2.489761e+00 5.618810e+00 -6.130474e+00 -1.576582e+01 -6.903668e+00 1.125210e+01 -4.379632e-01 -2.325037e+00 1.170630e+00 8.584056e-01 2.953170e-01 5.218826e-01 3.216397e-01 2.384826e-01 5.493082e-01 -5.367649e-01 -2.806365e-01 1.310877e-01 -1.088595e-02 -2.360316e-01 -2.568302e-01 3.756878e-01 -9.330112e-01 1.849803e-01 -9.368499e-02 -5.421225e-01 -1.479999e-01 -4.629844e-01 5.490205e-01 6.520366e-01 1.993249e-01 -4.180694e-01 1.991234e-01 2.731180e-01 -7.485947e-02 4.300244e-02
<VARIANCE> 39
 2.094442e+01 6.451630e+01 6.929066e+01 4.055776e+01 3.137191e+01 5.966060e+01 4.168021e+01 1.239588e+02 7.100611e+01 3.359488e+01 4.432216e+01 4.255000e+01 2.807059e+01 2.033236e+00 2.295247e+00 5.102861e+00 4.170426e+00 4.361297e+00 6.879989e+00 4.170686e+00 7.232629e+00 3.694052e+00 3.563019e+00 4.267947e+00 2.485794e+00 1.654061e+00 1.866822e-01 2.977061e-01 4.213727e-01 6.180192e-01 4.362752e-01 6.008236e-01 6.098788e-01 8.743700e-01 7.733765e-01 4.520158e-01 5.927063e-01 5.133593e-01 1.200372e-01
<GCONST> 1.278503e+02
<MIXTURE> 7 7.966164e-02
<MEAN> 39
 8.741032e+00 2.661711e+00 7.362832e+00 7.486854e+00 1.409252e+00 -2.469451e+00 8.718626e+00 -7.029284e+00 -1.028179e+01 2.681231e-01 -3.598044e+00 -3.171088e+00 -1.106210e+01 -1.616473e+00 7.843204e-01 -5.591107e-01 2.238066e-02 6.343060e-01 -2.938724e-01 -4.945550e-01 8.162697e-03 6.257162e-01 -6.261161e-01 7.073794e-02 5.442563e-01 1.137902e+00 -9.067932e-01 -1.307762e-01 -6.217939e-01 -6.034142e-01 -1.422050e-01 2.022128e-01 -7.648728e-01 6.404393e-01 8.481457e-01 -1.840262e-01 4.241073e-01 3.733215e-01 1.109724e+00
<VARIANCE> 39
 4.073541e+01 4.502373e+01 1.166342e+02 9.646716e+01 1.171044e+02 1.341228e+02 9.959270e+01 1.092976e+02 9.947060e+01 8.709156e+01 5.155853e+01 5.825526e+01 5.721325e+01 5.352114e+00 3.099245e+00 9.811797e+00 5.024266e+00 8.172631e+00 8.392437e+00 7.211078e+00 7.952426e+00 9.112751e+00 7.575619e+00 5.244853e+00 4.765570e+00 3.609793e+00 4.960395e-01 4.925702e-01 1.303763e+00 9.745430e-01 1.514793e+00 1.167835e+00 9.373253e-01 1.325699e+00 1.235650e+00 1.595057e+00 9.643672e-01 7.361855e-01 5.450334e-01
<GCONST> 1.516655e+02
<MIXTURE> 8 8.766868e-02
<MEAN> 39
 5.681149e+00 -1.238065e+00 1.355673e+01 6.262177e+00 -7.012583e+00 -8.765752e+00 6.184835e+00 3.435865e+00 -6.587154e+00 -2.046683e+00 -2.802905e+00 -4.542873e+00 -5.027153e+00 9.623915e-01 9.003733e-02 5.493380e-01 1.642107e-01 3.248408e-01 -2.177814e-01 5.228279e-01 -6.093150e-01 -5.620087e-01 5.586851e-01 -2.674737e-01 -1.920658e-01 -1.520220e+00 -2.184554e-01 1.027180e-01 -2.735095e-01 4.179206e-02 8.210335e-02 5.888371e-02 -2.037718e-01 -5.485289e-02 1.543465e-01 -2.635274e-02 1.520069e-01 1.179516e-01 1.924723e-01
<VARIANCE> 39
 2.913650e+01 4.586994e+01 6.074720e+01 4.546444e+01 4.485498e+01 6.110423e+01 7.285015e+01 1.688363e+02 8.142995e+01 4.284638e+01 4.391436e+01 4.605755e+01 4.207841e+01 9.266252e-01 1.743160e+00 2.793827e+00 3.849588e+00 3.493309e+00 3.268644e+00 3.959620e+00 4.846521e+00 2.773438e+00 2.022414e+00 2.921582e+00 3.189891e+00 1.030952e+00 1.423033e-01 2.323232e-01 3.162171e-01 6.554550e-01 5.439961e-01 6.276022e-01 7.514971e-01 9.124080e-01 5.476322e-01 3.580407e-01 5.021968e-01 6.404605e-01 1.172457e-01
<GCONST> 1.245303e+02
<MIXTURE> 9 6.074339e-02
<MEAN> 39
 -9.749262e-01 -3.318250e+00 -7.615491e+00 -5.158496e+00 3.476100e+00 5.409429e+00 -3.260006e+00 4.154623e+00 5.333794e+00 6.985027e-02 -4.100731e-01 -7.664170e-01 8.908175e+00 -7.253148e-02 -1.232949e-01 -1.058802e-01 6.041540e-02 -1.224706e-01 3.251447e-01 -1.674820e-01 -1.677710e-01 1.976583e-01 -6.441766e-02 1.484928e-01 -1.395114e-02 -1.279892e-01 5.907016e-02 3.769346e-02 1.768579e-01 9.434245e-02 -6.035225e-02 -2.008795e-01 -1.381445e-01 6.695584e-02 -6.564792e-03 2.960953e-02 -2.130245e-03 7.249216e-02 -1.586288e-01
<VARIANCE> 39
 7.176679e+00 3.931464e+01 2.981585e+01 7.914912e+01 7.309576e+01 9.817592e+01 5.786149e+01 7.788454e+01 2.719260e+01 3.080537e+01 2.326833e+01 3.944306e+01 1.316757e+01 2.251927e-01 7.691930e-01 9.333143e-01 1.266389e+00 1.736676e+00 1.478713e+00 1.365932e+00 1.721392e+00 1.241188e+00 1.050630e+00 9.643863e-01 1.397316e+00 5.608569e-01 5.115117e-02 9.994833e-02 1.227352e-01 2.199625e-01 2.886792e-01 3.651564e-01 3.867301e-01 2.953568e-01 2.772168e-01 2.548506e-01 2.249935e-01 2.357172e-01 5.812115e-02
<GCONST> 9.696607e+01
<MIXTURE> 10 7.557439e-02
<MEAN> 39
 -7.176590e+00 9.555330e+00 1.497805e+01 1.202923e+01 -5.988290e+00 -1.303755e+01 4.025365e+00 -2.329211e+00 -6.429375e+00 -5.662662e+00 1.255363e+00 3.813995e+00 -5.909787e+00 -1.134996e-01 4.588767e-01 -9.363686e-01 -1.382078e-01 1.495989e+00 -1.745341e-02 9.306521e-01 -1.771784e-01 -1.566623e-01 1.695075e-01 -6.468084e-01 2.226217e-01 -1.735433e+00 -1.891123e-01 -3.114022e-01 -3.747051e-01 -4.725829e-01 1.590877e-01 4.480485e-01 -5.167757e-01 1.317891e-01 2.321392e-01 -4.943241e-02 1.013109e-01 5.030968e-03 3.071812e-01
<VARIANCE> 39
 3.973946e+01 5.412883e+01 7.834509e+01 3.720477e+01 7.719373e+01 3.429816e+01 6.163800e+01 6.780875e+01 6.953498e+01 3.942329e+01 4.694238e+01 2.903712e+01 4.381770e+01 4.999369e+00 3.797006e+00 4.530226e+00 3.480405e+00 4.715552e+00 4.359274e+00 5.369402e+00 4.252289e+00 4.058797e+00 3.141326e+00 3.252043e+00 3.859178e+00 2.965274e+00 6.735963e-01 4.829718e-01 6.938099e-01 4.931606e-01 1.057688e+00 7.660706e-01 7.674077e-01 7.688642e-01 5.905330e-01 5.456558e-01 7.458507e-01 7.377695e-01 5.706688e-01
<GCONST> 1.352524e+02
<MIXTURE> 11 8.630531e-02
<MEAN> 39
 7.398752e+00 -2.127181e+00 -6.801899e+00 -2.767311e+00 8.439996e+00 2.860315e+00 -4.700546e+00 1.616917e-02 3.618766e+00 2.345961e+00 -2.256716e+00 -8.333768e-01 -6.151503e+00 9.042863e-01 3.012487e-01 4.112768e-01 6.016949e-01 6.937006e-01 -5.429411e-01 1.003074e+00 -6.091838e-01 -5.605388e-01 7.037080e-02 -7.735776e-01 -1.626514e-01 -2.099567e+00 -2.767305e-01 4.925174e-02 5.500550e-02 -4.271339e-02 -2.752889e-01 1.341401e-01 1.284016e-01 -2.100136e-02 -3.924218e-02 -1.386584e-01 1.744601e-01 -2.530279e-02 2.436510e-01
<VARIANCE> 39
 4.661980e+01 4.285792e+01 5.644207e+01 6.626057e+01 6.108861e+01 9.763781e+01 5.209397e+01 8.666637e+01 5.398105e+01 4.495234e+01 5.194416e+01 5.466382e+01 6.231923e+01 1.976255e+00 1.905714e+00 3.224147e+00 3.320302e+00 4.919039e+00 5.447411e+00 3.543034e+00 4.030518e+00 4.602957e+00 3.196323e+00 3.004394e+00 3.738733e+00 1.388277e+00 3.135033e-01 3.056369e-01 4.128587e-01 5.777329e-01 6.916040e-01 9.039034e-01 6.224270e-01 7.345365e-01 7.236114e-01 5.256053e-01 5.564295e-01 7.060422e-01 2.308900e-01
<GCONST> 1.311722e+02
<MIXTURE> 12 5.123994e-02
<MEAN> 39
 -7.812942e+00 6.961371e+00 1.494186e+01 9.777346e+00 -8.218477e+00 -1.214289e+01 -2.035162e+00 1.607223e-01 -3.370315e+00 -6.621690e+00 4.869321e+00 4.626049e+00 2.771260e+00 -9.952329e-02 -1.118897e+00 8.333760e-01 -3.344430e-02 -2.784204e+00 -2.739279e-01 -2.041209e+00 1.235832e+00 -2.731114e-01 -5.540208e-01 1.688705e+00 -8.992112e-02 2.232054e+00 7.594044e-01 -2.803550e-01 -5.047360e-01 -1.126156e-01 3.076655e-01 5.256334e-01 3.835431e-01 -8.461595e-02 -1.287222e-01 3.118515e-01 -3.610256e-01 -5.178520e-01 -7.405078e-01
<VARIANCE> 39
 3.336554e+01 3.637967e+01 8.569508e+01 2.666110e+01 5.114804e+01 4.036695e+01 6.758639e+01 3.980075e+01 5.745242e+01 4.350164e+01 3.226860e+01 4.099081e+01 1.811115e+01 7.074940e+00 2.938426e+00 7.028876e+00 4.325297e+00 4.620239e+00 6.428146e+00 6.791333e+00 7.958674e+00 6.984775e+00 3.642790e+00 3.941990e+00 4.169618e+00 4.030342e+00 7.488878e-01 4.710883e-01 9.633168e-01 6.588024e-01 1.251938e+00 7.458699e-01 1.362051e+00 1.169668e+00 1.050328e+00 4.732924e-01 9.071443e-01 5.129257e-01 5.755163e-01
<GCONST> 1.380944e+02
<MIXTURE> 13 8.081888e-02
<MEAN> 39
 -6.359004e+00 4.853215e+00 1.419404e+01 7.112934e+00 -1.286354e+01 -6.190215e+00 -2.166533e+00 1.114816e+00 -4.222089e+00 -9.722001e+00 6.382799e+00 -6.069110e-01 5.379955e+00 -5.199052e-02 4.804435e-01 3.464150e-01 3.190800e-01 4.842944e-02 -5.356528e-01 1.176845e+00 -2.715078e-01 -2.768303e-02 8.543794e-02 -5.689861e-01 -9.615749e-02 -7.087688e-01 1.878479e-01 2.748916e-02 -1.433799e-01 1.109538e-01 3.684625e-01 -2.914113e-01 3.894591e-01 -3.155029e-02 -2.429690e-02 3.642766e-01 -2.235051e-01 7.925888e-02 -3.832520e-01
<VARIANCE> 39
 1.091853e+01 3.271830e+01 4.995418e+01 3.153070e+01 3.905106e+01 4.588477e+01 3.363912e+01 3.532383e+01 4.251327e+01 1.948763e+01 3.405712e+01 2.977388e+01 9.535289e+00 7.840695e-01 1.655152e+00 1.814510e+00 1.858379e+00 1.809839e+00 2.496604e+00 3.970532e+00 2.213763e+00 3.022217e+00 2.009778e+00 2.999015e+00 1.720952e+00 1.375599e+00 1.520501e-01 3.186229e-01 3.580727e-01 2.867222e-01 4.321934e-01 4.788157e-01 6.395584e-01 4.680648e-01 6.385056e-01 2.968332e-01 5.674159e-01 3.631671e-01 1.540415e-01
<GCONST> 1.111089e+02
<MIXTURE> 14 6.887726e-02
<MEAN> 39
 3.223717e+00 3.205041e+00 -2.290548e+00 3.831307e+00 3.958643e+00 -3.939714e+00 6.235714e+00 -3.812736e+00 -1.408131e+00 -2.489311e+00 -3.132712e+00 1.477978e+00 -2.261936e+01 1.677160e-01 -4.846317e-01 -2.229380e-01 2.847656e-01 2.369512e-01 1.311996e-01 4.155507e-01 8.885089e-02 -3.783161e-02 -1.603384e-01 -2.432871e-01 -8.469690e-02 -8.630778e-01 -2.896436e-01 8.459965e-02 1.570266e-01 8.683019e-03 7.089066e-02 8.471065e-02 -8.264035e-02 -4.637252e-02 1.766255e-02 7.998273e-02 -3.038768e-02 1.043037e-01 3.671577e-01
<VARIANCE> 39
 6.273916e+01 3.627504e+01 3.317313e+01 2.197418e+01 3.091571e+01 5.318996e+01 4.727490e+01 5.127425e+01 3.712452e+01 1.998303e+01 2.193331e+01 2.574463e+01 1.784381e+01 1.501934e+00 1.500285e+00 1.629967e+00 1.590285e+00 1.729924e+00 1.771870e+00 1.809588e+00 2.037292e+00 1.947495e+00 1.643293e+00 1.665370e+00 1.455649e+00 6.236459e-01 2.521792e-01 2.004566e-01 3.221741e-01 3.070050e-01 3.043188e-01 3.677504e-01 3.339309e-01 4.001829e-01 3.767561e-01 3.639801e-01 3.460002e-01 3.568331e-01 1.682480e-01
<GCONST> 1.074286e+02
<MIXTURE> 15 5.388939e-02
<MEAN> 39
 -1.164976e+00 -5.838874e+00 -1.140023e+01 -9.061608e+00 3.563218e+00 6.452425e+00 -2.849007e+00 5.113720e+00 7.817902e+00 6.410510e+00 -3.016612e+00 -3.536554e+00 1.093676e+01 -1.356653e-01 -9.910289e-01 -4.286321e-01 4.367111e-01 -2.198045e-01 -1.365013e-01 -2.894131e-01 1.221614e+00 6.902253e-01 -5.631311e-01 -6.140661e-02 -6.645411e-01 5.571751e-01 1.669784e-01 4.324019e-01 5.776707e-01 4.471764e-01 1.667555e-01 -3.509567e-01 1.124755e-02 -3.465226e-01 -3.436941e-01 -4.047057e-01 1.968302e-02 5.282314e-01 -6.648859e-01
<VARIANCE> 39
